Alice
[[  6.01451751e-03  -2.37038080e-02  -5.37407659e-02  -5.35719991e-02
   -2.92991698e-01  -4.98588122e-02   1.98114607e-02   7.94085953e-03
   -5.27820829e-03   4.59904149e-02   6.27826378e-02   1.80464648e-02
    5.43116070e-02  -7.43198721e-03   6.55350834e-02   3.08763664e-02]
 [  5.77718206e-03  -2.33794507e-02  -5.46894185e-02   1.02240227e-01
   -2.67333120e-01  -4.58660610e-02   1.88461393e-02   7.89926946e-03
   -4.04081866e-03   4.31234576e-02   6.14267290e-02   1.78730600e-02
    5.23197651e-02  -7.49996118e-03   6.51156902e-02   3.27304490e-02]
 [ -4.61024838e-03  -2.41392255e-02  -5.91136925e-02   3.10600903e-02
   -2.57462978e-01  -7.44545683e-02   2.43461188e-02   1.07413195e-02
   -1.30977053e-02   4.84425761e-02   6.60244748e-02  -2.89588049e-03
    6.78464025e-02  -1.02725336e-02   6.72741234e-02   4.14224267e-02]
 [  6.98149158e-03  -2.14142762e-02  -5.44394851e-02   4.65395957e-01
   -2.20597595e-01  -2.40467954e-02   1.57154612e-02   5.04849991e-03
   -1.25225820e-03   4.34704162e-02   5.85825965e-02   1.75448023e-02
    3.79859656e-02  -4.19058930e-03   6.35464862e-02   3.08550410e-02]
 [  6.00791583e-03  -2.24547144e-02  -5.72043248e-02   1.52995020e-01
   -2.71060854e-01  -3.85610461e-02   1.81640834e-02   6.40106061e-03
   -4.06350615e-03   4.59257402e-02   5.99415191e-02   1.62349772e-02
    4.61144149e-02  -5.76047273e-03   6.42969385e-02   2.91308779e-02]
 [  5.47072105e-03  -2.81540230e-02  -4.80899513e-02  -5.99075258e-01
   -3.86144817e-01  -8.74757841e-02   2.59286873e-02   1.24401022e-02
   -1.12520279e-02   5.10476194e-02   6.68268874e-02   1.95266176e-02
    7.75747225e-02  -1.18857315e-02   6.68396279e-02   2.72756349e-02]
 [  3.56918806e-03  -2.17574947e-02  -5.07161357e-02   5.45009315e-01
   -2.22402483e-01  -3.59326415e-02   1.70287266e-02   6.62620552e-03
   -3.37195280e-03   4.04914543e-02   5.94812334e-02   1.26989027e-02
    4.49547879e-02  -5.48538892e-03   6.50199130e-02   3.39600258e-02]
 [  5.13177551e-03  -2.27880757e-02  -5.42722121e-02   1.80756003e-01
   -2.71398574e-01  -4.46541943e-02   1.86070930e-02   7.64719117e-03
   -4.27914411e-03   4.35868651e-02   6.18409030e-02   1.67982802e-02
    5.13936169e-02  -7.03225890e-03   6.52666986e-02   3.30301598e-02]
 [  6.00421382e-03  -2.37360783e-02  -5.56683429e-02  -1.75133329e-02
   -2.89396942e-01  -4.73135710e-02   1.96382459e-02   7.77292391e-03
   -4.72139381e-03   4.61060777e-02   6.27906919e-02   1.77021250e-02
    5.27849272e-02  -7.08671752e-03   6.53500780e-02   3.11111528e-02]
 [  5.77626331e-03  -2.34616082e-02  -5.44276461e-02  -6.07267134e-02
   -2.85635531e-01  -4.79254164e-02   1.97466817e-02   7.49763427e-03
   -5.33952285e-03   4.65974845e-02   6.14764579e-02   1.65539123e-02
    5.21364249e-02  -7.02716690e-03   6.48343563e-02   2.92529147e-02]
 [  4.56924550e-03  -2.35830694e-02  -5.56077510e-02   9.54016745e-02
   -2.92112678e-01  -4.98816743e-02   1.96270030e-02   8.09307862e-03
   -5.01510408e-03   4.37096246e-02   6.23529553e-02   1.55492630e-02
    5.42970970e-02  -7.55590340e-03   6.55035898e-02   3.28509472e-02]
 [  4.70614480e-03  -2.39506755e-02  -5.18874265e-02   5.62203452e-02
   -2.92413354e-01  -5.17985076e-02   2.01009624e-02   8.25256761e-03
   -6.08301722e-03   4.55317125e-02   6.23252727e-02   1.50596621e-02
    5.51991686e-02  -7.62002263e-03   6.54875636e-02   3.20656374e-02]
 [  3.91386542e-03  -2.40444522e-02  -5.34364730e-02   1.37921795e-01
   -3.80617887e-01  -5.15561290e-02   2.08200831e-02   8.04389548e-03
   -7.74848228e-03   4.98269349e-02   6.15530759e-02   1.15169557e-02
    5.40782809e-02  -7.31865829e-03   6.62170276e-02   3.07037327e-02]
 [  2.30655819e-03   1.07402468e+00  -7.18342662e-02   6.25576675e-02
   -1.63457692e-01   5.89126721e-02  -4.17177714e-02   8.15762766e-03
   -1.80018302e-02  -3.66407284e-03   5.64326122e-02  -6.10113293e-02
   -1.65992125e-03  -1.42597337e-03   6.18942790e-02   3.80192362e-02]
 [  5.89269539e-03  -2.34312005e-02  -5.60945161e-02  -8.65058228e-02
   -3.11327368e-01  -4.68463674e-02   1.97732225e-02   7.31560169e-03
   -5.47811715e-03   4.80433330e-02   6.12514466e-02   1.63791403e-02
    5.12151271e-02  -6.71354216e-03   6.43950030e-02   2.84075867e-02]
 [  1.85137382e-03  -2.22283024e-02  -5.41017428e-02   2.89526284e-01
   -2.60603696e-01  -4.74150963e-02   1.91232059e-02   7.62165664e-03
   -6.08674902e-03   4.38895337e-02   6.21670298e-02   1.00132395e-02
    5.18934093e-02  -6.89114723e-03   6.53362647e-02   3.50054279e-02]
 [ -1.03107337e-02  -3.43160413e-04  -5.25692254e-02  -1.29972963e-04
   -6.48994222e-02  -1.33428769e-02   8.67033564e-03  -1.81918833e-02
    1.48141831e-02   1.45001458e-02   1.22413360e-01   9.18632001e-03
    1.31602297e-02   1.65062118e-02   1.28158838e-01   1.50310127e-02]
 [ -1.02743180e-02  -1.91962128e-04  -4.88655046e-02  -1.17772877e-04
   -8.45826864e-02  -1.34039996e-02   8.68002698e-03  -1.80772822e-02
    1.47102177e-02   1.44349467e-02   1.22319497e-01   9.26223863e-03
    1.31427823e-02   1.64754670e-02   1.28366381e-01   1.49032073e-02]
 [ -1.02061573e-02  -3.27487476e-04  -5.41779883e-02  -7.95863962e-05
   -7.37351701e-02  -1.31464610e-02   8.59033037e-03  -1.79351363e-02
    1.46521032e-02   1.42195355e-02   1.21000960e-01   9.13316384e-03
    1.29286163e-02   1.62979551e-02   1.27385542e-01   1.48031469e-02]
 [ -1.02361990e-02  -2.22084505e-04  -5.17083667e-02  -8.93729884e-05
   -6.83765188e-02  -1.32435225e-02   8.61354731e-03  -1.80289894e-02
    1.47623913e-02   1.43289845e-02   1.21735297e-01   9.18500498e-03
    1.30754337e-02   1.63753480e-02   1.27392933e-01   1.48434266e-02]
 [ -1.02565642e-02  -2.75025319e-04  -5.31396382e-02  -1.04034953e-04
   -7.40654692e-02  -1.33164413e-02   8.69667437e-03  -1.81503911e-02
    1.48937982e-02   1.43831745e-02   1.22513063e-01   9.18456540e-03
    1.31162656e-02   1.64712202e-02   1.28237590e-01   1.49992155e-02]
 [ -1.01691922e-02  -2.70410441e-04  -5.25711179e-02  -6.97793002e-05
   -7.13332370e-02  -1.32575221e-02   8.68009590e-03  -1.80331562e-02
    1.47672510e-02   1.43786371e-02   1.21679559e-01   9.18176770e-03
    1.30649153e-02   1.63436588e-02   1.28066584e-01   1.48181729e-02]
 [ -1.01942765e-02  -2.47869233e-04  -5.30943535e-02  -6.34244643e-05
   -6.05497509e-02  -1.33090522e-02   8.65026377e-03  -1.79557633e-02
    1.47034293e-02   1.44155817e-02   1.21722117e-01   9.19055473e-03
    1.31211979e-02   1.63899288e-02   1.27368972e-01   1.48331197e-02]
 [ -1.02783022e-02  -1.98611451e-04  -5.05779423e-02  -1.36740011e-04
   -6.85847625e-02  -1.32339373e-02   8.65830574e-03  -1.80907212e-02
    1.47262271e-02   1.42887440e-02   1.21585228e-01   9.16334428e-03
    1.30531304e-02   1.63604710e-02   1.27027676e-01   1.48892971e-02]
 [ -1.01466877e-02  -2.81776942e-04  -5.51303104e-02  -5.93379227e-05
   -5.89541532e-02  -1.32345380e-02   8.59403051e-03  -1.78873669e-02
    1.46350013e-02   1.42949121e-02   1.21078208e-01   9.10871569e-03
    1.30216097e-02   1.62946060e-02   1.26330689e-01   1.48113454e-02]
 [ -1.02924956e-02  -1.61055999e-04  -5.30690514e-02  -7.99784902e-05
   -7.12200850e-02  -1.33498944e-02   8.71747360e-03  -1.82094928e-02
    1.48686515e-02   1.44147519e-02   1.22742385e-01   9.19177756e-03
    1.31565994e-02   1.64764561e-02   1.28136426e-01   1.50504243e-02]
 [ -1.02238273e-02  -3.41352512e-04  -4.93529364e-02  -1.17346804e-04
   -6.86112717e-02  -1.32316509e-02   8.60965997e-03  -1.79797858e-02
    1.47839403e-02   1.42875416e-02   1.21437602e-01   9.07756109e-03
    1.30681545e-02   1.63198709e-02   1.27113923e-01   1.47937844e-02]
 [ -1.04094595e-02  -4.07799205e-04  -4.96375673e-02  -8.73757672e-05
   -6.29558191e-02  -1.33685945e-02   8.66943784e-03  -1.81877725e-02
    1.47714037e-02   1.43683115e-02   1.22817740e-01   9.25445277e-03
    1.31737338e-02   1.64861660e-02   1.28063664e-01   1.50717534e-02]
 [ -1.03537766e-02  -1.86522157e-04  -5.15098087e-02  -1.49690473e-04
   -6.60649091e-02  -1.34153171e-02   8.72548111e-03  -1.81995500e-02
    1.48195475e-02   1.45647861e-02   1.22983903e-01   9.18267667e-03
    1.32528013e-02   1.64865647e-02   1.27931625e-01   1.51377637e-02]
 [ -1.02470657e-02  -3.00038519e-04  -5.04502393e-02  -9.24822816e-05
   -6.03799894e-02  -1.33379158e-02   8.75430275e-03  -1.81147885e-02
    1.48769375e-02   1.43847344e-02   1.22398213e-01   9.16256104e-03
    1.31254029e-02   1.64307132e-02   1.28447115e-01   1.50231430e-02]
 [ -1.49865774e-02  -3.07474489e-04   7.39571452e-01  -8.46171170e-05
   -1.97577253e-01  -1.36280227e-02   7.73932785e-03  -1.77867524e-02
    1.78035591e-02   6.84155943e-03   1.19207956e-01   1.22474320e-02
    1.54296998e-02   1.78874414e-02   1.33560702e-01   7.00909691e-03]
 [ -1.03848213e-02  -2.85353628e-04  -5.10111265e-02  -1.25028426e-04
   -6.56499192e-02  -1.34358583e-02   8.81930906e-03  -1.83024202e-02
    1.49336373e-02   1.44538973e-02   1.23303123e-01   9.22637060e-03
    1.32442033e-02   1.65462326e-02   1.28613934e-01   1.51603576e-02]
 [ -4.11523849e-01  -6.91529885e-02   5.27309030e-02  -2.78034955e-01
    5.93283892e-01   3.40577394e-01  -1.45867169e-01  -1.34579003e-01
   -4.96082097e-01   2.79639542e-01  -1.54245049e-01  -3.22887778e-01
    1.60675839e-01   2.16688178e-02   2.70994425e-01  -1.26709253e-01]
 [ -7.08286226e-01   9.08008069e-02   1.30277295e-02  -1.67211011e-01
    1.99248455e-03   3.88041288e-01   3.96339819e-02   2.45147496e-01
    2.08548754e-01   3.88102829e-01   5.94910346e-02   8.58269632e-01
    2.56154276e-02   3.83814052e-02  -1.12187152e-03  -4.52549197e-03]
 [ -7.11054265e-01  -1.42286271e-02   1.38583789e-02  -1.59783036e-01
   -1.40872374e-01   2.32565358e-01  -2.01247379e-01  -1.19705379e-01
    9.40446183e-02   3.22354361e-02   1.98573858e-01   2.03003794e-01
   -6.72668874e-01   9.57711414e-02   2.80921459e-01   1.93356931e-01]
 [ -9.38952684e-01  -5.21187484e-01  -1.66412622e-01   1.24192752e-01
   -4.14231904e-02   2.05669165e-01  -4.94682007e-02  -4.47733462e-01
    7.41519570e-01   3.76308948e-01   4.66599196e-01   1.23739183e+00
    2.13712558e-01   6.77510947e-02   3.79476964e-01   5.48014678e-02]
 [ -7.58014441e-01  -1.35437429e-01  -3.41633521e-02  -4.22704011e-01
   -3.23112831e-02   3.41007680e-01  -9.44594368e-02  -1.62074119e-01
    2.15568304e-01   8.26780975e-01   2.47287750e-01   5.83457649e-01
   -1.66423380e-01  -9.11293477e-02   3.12830538e-01  -6.52492717e-02]
 [ -7.60536730e-01  -2.66936660e-01   5.33808693e-02  -1.92996114e-01
    2.42192615e-02   4.45300452e-02  -7.44809508e-02  -1.69820786e-01
    4.30970818e-01   3.32149953e-01   3.04232687e-01   1.11618221e+00
   -2.68427849e-01  -7.51460567e-02   2.03787819e-01   6.85480386e-02]
 [ -4.25361574e-01  -1.24368656e+00  -1.06677987e-01  -2.52389222e-01
   -3.87671590e-02  -1.96635142e-01   9.80828628e-02  -1.05009162e+00
    6.56543911e-01   4.36885715e-01   4.13614392e-01   2.17199516e+00
    3.34626511e-02  -8.01817358e-01   5.84707558e-01   3.28067178e-03]
 [ -5.49135566e-01  -2.08273128e-01   6.03707973e-03   2.64011100e-02
   -1.33504381e-03  -1.85213182e-02   2.32778173e-02  -5.60783744e-01
    4.13734168e-01   2.04133555e-01  -4.05508727e-02   1.18482709e+00
    4.35683168e-02  -1.18496180e-01   3.78148615e-01   1.24845520e-01]
 [ -7.24384189e-01  -3.30085750e-03   1.28558287e-02   4.81564820e-01
    2.33610735e-05   1.18852751e-02   1.92526840e-02  -1.16738332e-02
    2.07711942e-03   2.01047778e-01   1.20638035e-01   2.59984415e-02
   -2.16424675e-03  -9.03907605e-03   1.48714455e-02  -4.58909608e-02]
 [ -6.31517529e-01   3.43834572e-02   4.65381071e-02  -1.01591200e-01
    5.77906035e-02  -3.72633077e-02  -8.72149691e-02  -1.05246373e-01
    1.22482486e-01   1.57866016e-01   1.12464800e-01   2.61814278e-02
   -8.85614008e-02  -1.46007612e-02   2.05502957e-01   9.89745915e-01]
 [ -1.07224405e+00  -2.07265466e-01   2.01531891e-02  -1.91377848e-01
   -6.52059168e-03   1.97412610e-01   4.93104756e-02  -3.29138666e-01
    2.69863427e-01   3.30039054e-01   2.64010012e-01   3.43715996e-01
   -1.92584217e-01  -4.71587144e-02   6.72277287e-02   4.89214361e-01]
 [ -6.50267303e-01   3.78537446e-01   7.88258109e-03  -1.11419298e-01
    3.04721249e-03   2.87932694e-01   3.14820968e-02   3.12454164e-01
   -4.37517688e-02   2.93671250e-01   8.04763474e-03  -2.56089032e-01
    2.34811697e-02  -3.26484768e-03   8.26544389e-02   3.25727090e-02]
 [ -6.42849922e-01  -5.78240216e-01   3.36821959e-03  -1.53305113e-01
   -1.64197962e-04   3.80977802e-02  -1.06427705e+00  -4.45413560e-01
    4.37121600e-01   3.24539155e-01   3.96421939e-01   9.46812570e-01
   -2.14293879e-02  -1.06725851e-02   4.11945969e-01   8.24188218e-02]
 [ -4.64455575e-01  -1.43315578e+00  -2.73380786e-01   7.89981484e-02
    5.43006696e-02  -3.13891530e-01  -2.09737793e-01  -1.00286901e+00
    9.45173085e-01   6.42839730e-01   3.37485559e-02   1.95187318e+00
    3.87191921e-01  -1.00036010e-01   5.99541008e-01  -2.13783696e-01]
 [ -7.60947526e-01  -1.59081146e-01  -3.17552546e-03  -8.06675255e-02
    4.08801669e-03  -1.52622927e-02   3.72851565e-02  -6.07178621e-02
    7.18187019e-02   3.25178564e-01   1.48112148e-01   2.50026345e-01
   -1.31814880e-02   5.17087174e-04   1.40173778e-01  -2.75586126e-03]
 [ -7.39291251e-01   1.86766032e-02   3.91375422e-02  -4.22195792e-02
   -1.30205043e-02   1.47707909e-01  -4.99472059e-02  -8.57212543e-02
   -1.16612136e-01   2.32564107e-01   1.98791027e-01  -3.54489207e-01
   -2.14058846e-01   1.06254347e-01  -8.62169953e-04  -9.29632108e-04]]
Bob
[[ -8.38901196e-03  -5.16264420e-03   3.78184654e-02   2.27811579e-02
    4.70521823e-02   5.97106945e-03  -4.70853876e-03   5.66375162e-03
    5.34928478e-02   6.49041235e-02  -4.18224335e-02  -1.77424308e-02
   -5.52474074e-02  -1.00233369e-02   5.50311664e-03  -3.65082994e-02]
 [ -7.51647074e-03  -5.40758763e-03   3.54608595e-02   2.12820657e-02
    4.45518419e-02   6.61954191e-03  -4.07412555e-03   5.58430562e-03
   -1.02311604e-01   6.50248751e-02  -4.01728190e-02  -1.69940889e-02
   -5.59415035e-02  -9.32464190e-03   5.70222503e-03  -3.59982811e-02]
 [ -1.22400746e-02  -4.49606543e-03   4.80989926e-02   3.05279251e-02
    5.58689684e-02   1.37991793e-02  -6.96115009e-03   5.58536919e-03
   -3.10688037e-02   5.99850714e-02  -6.50683492e-02  -1.93898864e-02
   -6.55513331e-02  -1.29047502e-02   5.92121575e-03  -2.91005969e-02]
 [ -2.62972689e-03  -5.64887188e-03   2.52836049e-02   1.50367590e-02
    3.35502662e-02   3.00042774e-03  -1.97836151e-03   5.25519531e-03
   -4.65891421e-01   7.34218210e-02  -2.36766413e-02  -1.46579761e-02
   -5.15495241e-02  -5.50538907e-03   4.72900877e-03  -2.25344338e-02]
 [ -5.83898975e-03  -5.19406376e-03   3.25416066e-02   1.97052415e-02
    4.09918241e-02   4.07839427e-03  -3.37230624e-03   5.52829541e-03
   -1.53212950e-01   6.83789179e-02  -3.37174870e-02  -1.64227393e-02
   -5.37480786e-02  -7.62290042e-03   4.72099194e-03  -2.75724679e-02]
 [ -1.70241352e-02  -5.27625950e-03   5.70119731e-02   3.46382409e-02
    6.73650876e-02   1.03820851e-02  -9.25162993e-03   6.39124075e-03
    5.99067569e-01   5.11764251e-02  -6.84558898e-02  -2.22195592e-02
   -6.43825009e-02  -1.52971903e-02   6.53550355e-03  -5.79672344e-02]
 [ -4.97841975e-03  -5.84396720e-03   2.96124145e-02   1.80813279e-02
    3.77501324e-02   7.14600552e-03  -3.47353658e-03   5.58097009e-03
   -5.45500398e-01   6.51506409e-02  -3.45050246e-02  -1.47619750e-02
   -5.59094958e-02  -6.71474217e-03   5.35767293e-03  -2.69104261e-02]
 [ -7.05322158e-03  -5.57549717e-03   3.47140208e-02   2.09590644e-02
    4.37126718e-02   6.68994524e-03  -3.92492209e-03   5.67345880e-03
   -1.80911288e-01   6.56706393e-02  -3.95401157e-02  -1.64807849e-02
   -5.68362512e-02  -8.81959964e-03   5.68559952e-03  -3.39677483e-02]
 [ -7.73462979e-03  -5.17455954e-03   3.65581289e-02   2.21553966e-02
    4.58442457e-02   5.43380901e-03  -4.37561702e-03   5.67356031e-03
    1.75241176e-02   6.62688166e-02  -4.00874242e-02  -1.75902806e-02
   -5.46119660e-02  -9.57289152e-03   5.26702590e-03  -3.44102159e-02]
 [ -7.97463674e-03  -5.01797860e-03   3.69810462e-02   2.24051978e-02
    4.57917713e-02   5.06214239e-03  -4.48933942e-03   5.52802021e-03
    6.07246757e-02   6.49775863e-02  -4.00638618e-02  -1.79114752e-02
   -5.36566079e-02  -9.47386306e-03   4.68722638e-03  -3.27954292e-02]
 [ -8.22818559e-03  -5.48180472e-03   3.71746831e-02   2.25514565e-02
    4.60100509e-02   7.36770779e-03  -4.73230798e-03   5.72577538e-03
   -9.54158679e-02   6.29719794e-02  -4.31729890e-02  -1.71966031e-02
   -5.62318079e-02  -9.66426544e-03   5.51320473e-03  -3.58472466e-02]
 [ -8.61848611e-03  -5.24896802e-03   3.83303575e-02   2.32818332e-02
    4.72639501e-02   7.08661834e-03  -5.12050884e-03   5.74051216e-03
   -5.61634563e-02   6.32858351e-02  -4.39264923e-02  -1.75175723e-02
   -5.58710434e-02  -1.01406854e-02   5.47754392e-03  -3.54863033e-02]
 [ -8.34515598e-03  -5.17079374e-03   3.91653329e-02   2.40540523e-02
    4.74639870e-02   6.37307763e-03  -5.34716621e-03   5.73500013e-03
   -1.38123706e-01   6.68543205e-02  -4.36022244e-02  -1.82263497e-02
   -5.65271825e-02  -9.70275514e-03   4.60973335e-03  -2.92687044e-02]
 [  1.96542367e-02   9.63078365e-02  -2.33589765e-02  -1.58725400e-02
   -2.92870533e-02  -8.64206534e-03  -5.74639253e-03  -7.38604218e-02
   -6.26183301e-02   5.46363331e-02  -5.67150824e-02   1.50253713e-01
   -5.78493290e-02  -4.85111587e-03  -1.21614039e+00   7.64902830e-02]
 [ -7.66955549e-03  -4.92671691e-03   3.67498584e-02   2.23568659e-02
    4.56526652e-02   4.26437892e-03  -4.24289657e-03   5.58050117e-03
    8.65506306e-02   6.67097121e-02  -3.91266979e-02  -1.81589592e-02
   -5.37870824e-02  -9.12027247e-03   4.55384888e-03  -3.07158381e-02]
 [ -7.22037582e-03  -5.23027498e-03   3.53025272e-02   2.18564570e-02
    4.36258614e-02   8.16323981e-03  -4.30972874e-03   5.53222373e-03
   -2.89791882e-01   6.39351979e-02  -4.26673628e-02  -1.62820835e-02
   -5.72860651e-02  -8.77554435e-03   5.29360119e-03  -2.85274237e-02]
 [ -1.78441769e-05  -3.24836909e-03   1.00086005e-02   5.63657330e-03
    1.41831078e-02   1.35364532e-02   1.13122221e-02   1.27834803e-03
    2.21517097e-04   2.33972408e-02  -2.60960460e-02   4.89960425e-03
   -1.28651962e-01   1.97570380e-02   1.59170385e-02  -8.65785871e-03]
 [ -4.05500687e-05  -3.07272119e-03   9.99773573e-03   5.65399369e-03
    1.41717270e-02   1.34335309e-02   1.12912031e-02   1.09115709e-03
    1.38316202e-04   2.32616644e-02  -2.60070879e-02   4.86516999e-03
   -1.27978072e-01   1.96426157e-02   1.58942118e-02  -8.68219510e-03]
 [ -1.15608045e-05  -3.08200228e-03   9.97228920e-03   5.62514737e-03
    1.41754625e-02   1.34437270e-02   1.12988949e-02   1.16194552e-03
    2.31180820e-04   2.34202109e-02  -2.60740016e-02   4.79462324e-03
   -1.28340244e-01   1.96736325e-02   1.59011353e-02  -8.55452381e-03]
 [ -2.39155015e-05  -3.13082500e-03   1.00680850e-02   5.68686472e-03
    1.42266694e-02   1.35800131e-02   1.13427388e-02   1.18402601e-03
    1.66418948e-04   2.35878620e-02  -2.62863860e-02   4.86539118e-03
   -1.29247785e-01   1.98185500e-02   1.60012804e-02  -8.68513063e-03]
 [ -2.36894048e-05  -3.09012132e-03   1.00529296e-02   5.64636523e-03
    1.41738672e-02   1.34985168e-02   1.13018211e-02   1.06295559e-03
    2.03580756e-04   2.34561041e-02  -2.61381138e-02   4.78847558e-03
   -1.28909841e-01   1.96998678e-02   1.58989970e-02  -8.63826554e-03]
 [  1.53191941e-05  -3.26137058e-03   9.94968601e-03   5.62109333e-03
    1.40915653e-02   1.34391338e-02   1.12920953e-02   1.14161393e-03
    1.89772851e-04   2.33220905e-02  -2.61185858e-02   4.87095583e-03
   -1.28804803e-01   1.97169203e-02   1.58890225e-02  -8.59581120e-03]
 [  1.23577802e-05  -3.18774371e-03   1.00820605e-02   5.69119724e-03
    1.43143451e-02   1.36411935e-02   1.13193076e-02   1.24352821e-03
    2.28540710e-04   2.35161427e-02  -2.63496339e-02   4.89395205e-03
   -1.29882321e-01   1.99293848e-02   1.61304567e-02  -8.80014803e-03]
 [ -1.12860998e-05  -3.06694373e-03   1.00403801e-02   5.69785247e-03
    1.42773949e-02   1.35652767e-02   1.14194127e-02   1.25253247e-03
    2.30567050e-04   2.36070659e-02  -2.63459161e-02   4.86439560e-03
   -1.29710957e-01   1.98480543e-02   1.60128456e-02  -8.65987130e-03]
 [ -1.53781866e-06  -3.28855473e-03   9.98643506e-03   5.64290676e-03
    1.41640101e-02   1.34164561e-02   1.11753596e-02   1.23063836e-03
    2.54622049e-04   2.34960970e-02  -2.60622427e-02   4.75461222e-03
   -1.28464654e-01   1.96231697e-02   1.59573741e-02  -8.55030399e-03]
 [ -2.98254909e-05  -3.15288571e-03   1.00463377e-02   5.66006312e-03
    1.42682418e-02   1.35332393e-02   1.13533465e-02   1.27123960e-03
    2.09668040e-04   2.36422624e-02  -2.62569487e-02   4.75641340e-03
   -1.29154176e-01   1.97897442e-02   1.59794595e-02  -8.72541685e-03]
 [ -4.00516001e-05  -3.04758130e-03   9.99334827e-03   5.63194370e-03
    1.41115384e-02   1.33683532e-02   1.14043346e-02   1.14778557e-03
    1.30257002e-04   2.33689621e-02  -2.59978082e-02   4.78041405e-03
   -1.28161907e-01   1.95872560e-02   1.57559793e-02  -8.65042862e-03]
 [ -8.03639978e-06  -3.12713650e-03   1.00099286e-02   5.67556545e-03
    1.42560732e-02   1.34781916e-02   1.13548301e-02   1.08742190e-03
    1.70670843e-04   2.34852508e-02  -2.61639766e-02   4.78565320e-03
   -1.28943801e-01   1.97590962e-02   1.59644131e-02  -8.70761741e-03]
 [ -7.34444984e-06  -3.12698167e-03   9.94363427e-03   5.60423546e-03
    1.40795568e-02   1.33931059e-02   1.11963665e-02   1.15526828e-03
    1.93683270e-04   2.31844224e-02  -2.59338748e-02   4.90386551e-03
   -1.27674237e-01   1.95508562e-02   1.58206746e-02  -8.60834122e-03]
 [ -1.73088374e-05  -3.18075879e-03   9.94429830e-03   5.59160486e-03
    1.41477380e-02   1.33856302e-02   1.12625333e-02   1.09780347e-03
    2.43563365e-04   2.33681407e-02  -2.60307770e-02   4.96374536e-03
   -1.28339618e-01   1.96427908e-02   1.58478543e-02  -8.58958345e-03]
 [ -1.83872962e-05  -3.18656163e-03   1.00351619e-02   5.66415582e-03
    1.42594371e-02   1.35295028e-02   1.14490157e-02   1.22626883e-03
    2.30074453e-04   2.36376449e-02  -2.62281857e-02   4.69074072e-03
   -1.29314542e-01   1.97600797e-02   1.59533136e-02  -8.70925095e-03]
 [ -3.17275808e-05  -3.13143712e-03   1.01182591e-02   5.66100702e-03
    1.42798293e-02   1.35891195e-02   1.13686193e-02   1.05163618e-03
    2.13512103e-04   2.36750916e-02  -2.63320711e-02   4.85848822e-03
   -1.29849285e-01   1.98850464e-02   1.60359088e-02  -8.75044800e-03]
 [ -7.69705325e-02  -5.35750806e-01  -4.56764191e-01  -4.06477153e-02
    2.61627674e-01  -5.01018226e-01   1.54547602e-01   1.21410358e+00
    2.10534379e-01   2.00903535e-01  -3.31176728e-01   1.42438114e-01
    4.72918749e-02   5.08619308e-01   4.04644519e-01  -1.14841473e+00]
 [ -3.74596473e-03  -2.03168169e-01  -3.33755687e-02  -9.65688843e-03
    3.50832969e-01  -1.49287552e-01   2.16964278e-02   2.95821965e-01
    1.13828719e-01   5.41478917e-02  -7.75298774e-01  -7.86415562e-02
   -3.74718271e-02  -6.44346327e-03   3.50106448e-01  -2.46558234e-01]
 [  8.82102235e-04  -3.51824984e-03   2.33787927e-03   1.00102997e+00
    5.86609170e-03  -1.61233416e-03  -6.45342458e-04   1.17613543e-02
    4.21006203e-04   1.89912051e-03   8.01953580e-03   2.85751862e-03
    1.22226507e-03   2.37343740e-03   3.13737988e-03  -1.57066938e-02]
 [ -8.86480120e-06   1.11588603e-02   2.33061169e-03  -1.29245389e-02
    2.01163575e-01  -1.48208560e-02   9.16600972e-03   1.28404833e-02
   -4.82127279e-01  -4.59935516e-02  -7.25220978e-01  -4.07293730e-04
   -1.92351770e-02  -1.20574072e-01  -1.97341433e-03  -1.67075358e-02]
 [ -1.00007129e+00  -7.21204051e-05   6.21753134e-05  -3.59299011e-05
    1.03247352e-04   6.42880841e-05  -1.81131145e-05   1.28722179e-03
   -1.36103472e-05  -6.06912217e-05  -1.68345650e-04   4.62488737e-04
   -3.50244545e-06   1.20698787e-04   3.02055501e-03  -1.26213962e-02]
 [  1.85010329e-01  -5.28973937e-02  -3.55982989e-01  -1.27847448e-01
    1.46104112e-01  -4.15097892e-01   1.50239412e-02   3.67305428e-03
    2.49220833e-01   3.30549955e-01  -8.99934828e-01   3.85349721e-01
   -9.37766433e-02   1.12033457e-01   1.28662959e-01  -2.35760614e-01]
 [  7.46234581e-02  -1.29072303e-02  -3.00374180e-01  -3.27604085e-01
    1.47450835e-01  -1.36360377e-01   2.01980248e-01   3.13457727e-01
    2.58657187e-01   3.34002525e-02  -5.99482954e-01   5.22535205e-01
   -7.12298274e-01   9.06518698e-02  -5.64322025e-02  -4.30795193e-01]
 [  6.34391904e-02  -5.14497757e-01   1.94357812e-01   1.74015135e-01
    5.01735389e-01  -4.95537162e-01  -1.17656395e-01   1.47286749e+00
    6.81127384e-02  -2.62878183e-02  -5.84872127e-01   7.54507840e-01
    1.01083227e-01   1.16555095e+00   6.68167949e-01  -1.78929365e+00]
 [ -2.53196247e-02  -4.56652164e-01  -1.66969270e-01   6.27276152e-02
    3.45403045e-01  -3.15719247e-01  -1.04389042e-01   1.15836430e+00
    9.79871750e-02   1.39925122e-01  -7.29239523e-01   2.97721863e-01
   -3.81887667e-02   6.15189135e-01   2.61464894e-01  -1.17324638e+00]
 [ -6.97730705e-02  -2.96624154e-01  -2.77396202e-01  -8.71954337e-02
    9.83402491e-01  -2.98028916e-01   2.00299285e-02   6.34581506e-01
    1.67670533e-01   1.01773618e-02  -6.75701857e-01   3.99223298e-01
    7.45238364e-02   3.46139222e-01   2.46327013e-01  -6.33190989e-01]
 [ -1.59283969e-04  -5.63340664e-01   2.55561769e-02  -7.97814783e-03
    3.42955083e-01  -5.07095754e-01   1.29110422e-02   1.07643211e+00
    1.66750580e-01   1.09177336e-01  -6.85917974e-01   5.81299365e-01
    7.91274756e-02   1.63084269e+00   4.57963288e-01  -1.03321552e+00]
 [  5.09770680e-03  -2.76586503e-01  -1.53370395e-01  -2.61057597e-02
    2.10536733e-01  -2.51879930e-01   2.04678066e-02   8.39391649e-01
    2.12596908e-01  -3.29314321e-02  -7.31946886e-01   3.52011204e-01
    6.51839301e-02   2.81190276e-01   2.19653681e-01   1.89391419e-01]
 [  4.42323685e-02  -1.95497885e-01   1.32211987e-02  -1.42633021e-01
    4.70210046e-01  -1.96292922e-01  -1.68103814e-01   3.93712729e-01
    2.16087997e-01   1.65453792e-01  -8.57876241e-01  -3.14088725e-02
    2.91951597e-01  -6.12143688e-02   9.76230577e-02  -9.32334661e-02]
 [ -9.57504287e-02  -7.57750928e-01   3.07668954e-01   2.07076162e-01
    4.93627697e-01  -4.89072949e-01  -8.66084158e-01   1.36945975e+00
   -7.93147981e-02  -9.99560729e-02  -4.00249958e-01   6.53585792e-01
    3.10942065e-03   1.30465186e+00   9.82716739e-01  -1.69661009e+00]
 [  2.83344474e-04   9.94897448e-03  -5.13699930e-03   4.28420864e-03
   -1.91794951e-02   1.09594893e+00  -2.32268800e-03  -4.09153029e-02
   -1.37706446e-02  -2.74868049e-02   4.39144261e-02  -1.91047192e-02
   -1.50574557e-02  -2.73060035e-02  -4.13275324e-02   1.49688730e-02]
 [ -7.80831352e-02  -3.43563616e-01   3.08940280e-02   2.98425797e-02
    2.01662228e-01  -4.63889092e-01   6.55858889e-02   5.80546796e-01
    1.53833583e-01   1.06898189e+00  -8.15835893e-01   3.40448946e-01
   -5.73920682e-02   5.01723707e-01   3.21375906e-01  -3.05732191e-01]]
Eve
[[  5.27136266e-01   6.05469160e-02   6.30456628e-03  -1.52935714e-01
    2.83515528e-02  -2.82749236e-01  -4.14556824e-02  -1.01866294e-02
    2.67429147e-02   8.77041757e-01   3.49572062e-01  -2.51499623e-01
    1.99385688e-01  -2.57069916e-01  -3.85471508e-02   2.06297468e-02]
 [  5.02282977e-01   5.74803762e-02   5.13078505e-03   3.34974647e-01
    2.84016617e-02  -2.61493236e-01  -4.01399434e-02  -1.02130473e-02
    2.26489305e-02   9.07555461e-01   3.13936800e-01  -2.33043283e-01
    1.86628968e-01  -2.38499328e-01  -3.36485989e-02   4.24834974e-02]
 [  6.17908597e-01   4.97233197e-02   1.11850863e-02   1.25670925e-01
    2.73154490e-02  -2.80150801e-01  -5.20051792e-02  -3.65134329e-02
    6.58401474e-03   1.04241669e+00   3.24884772e-01  -2.24872515e-01
    1.55493692e-01  -2.45073020e-01  -3.07402741e-02   6.08699583e-02]
 [  3.82580727e-01   6.09739162e-02  -6.34071883e-04   1.45251799e+00
    3.00615970e-02  -1.99167043e-01  -1.96659509e-02   5.42171253e-03
    2.50593387e-02   7.67919481e-01   2.20620140e-01  -1.88194364e-01
    1.64622843e-01  -1.88087031e-01  -2.62527745e-02   9.53217149e-02]
 [  4.64228690e-01   6.46987110e-02   1.05325517e-03   4.86250043e-01
    2.72388868e-02  -2.55206436e-01  -3.07075661e-02  -4.25286038e-04
    3.04874629e-02   7.59546161e-01   3.09481144e-01  -2.32733816e-01
    1.92177191e-01  -2.35671610e-01  -3.46351638e-02   3.78938578e-02]
 [  7.16501415e-01   5.23266494e-02   1.91091970e-02  -1.82651830e+00
    2.09712125e-02  -4.03144658e-01  -7.12950453e-02  -4.26824391e-02
    2.25353912e-02   6.56943977e-01   5.42426646e-01  -3.41205120e-01
    2.46448234e-01  -3.55858177e-01  -5.73460907e-02  -9.48271975e-02]
 [  4.13930684e-01   4.28757593e-02   5.18266391e-03   1.71830809e+00
    2.86295116e-02  -1.79624587e-01  -2.95463540e-02  -1.61292460e-02
    6.50783861e-03   7.32731104e-01   1.74626067e-01  -1.57169521e-01
    1.24592356e-01  -1.63738534e-01  -2.11978741e-02   1.15366966e-01]
 [  4.93589789e-01   5.72268516e-02   4.78906464e-03   5.81162930e-01
    2.76049711e-02  -2.52049237e-01  -3.79478969e-02  -1.00593548e-02
    2.14428846e-02   8.43432724e-01   2.97936022e-01  -2.24856123e-01
    1.80530488e-01  -2.30662957e-01  -3.28261405e-02   5.35066277e-02]
 [  5.13906300e-01   6.30261600e-02   4.26351652e-03  -4.39791121e-02
    2.87005398e-02  -2.78500140e-01  -3.88301983e-02  -7.71654164e-03
    2.81763934e-02   7.61517942e-01   3.42109948e-01  -2.49474943e-01
    1.99855641e-01  -2.54005730e-01  -3.85707058e-02   2.58697253e-02]
 [  5.14972031e-01   6.36921152e-02   5.10482211e-03  -1.77898914e-01
    2.66540404e-02  -2.81806231e-01  -3.80954780e-02  -7.29317218e-03
    3.00347302e-02   8.99916828e-01   3.50386888e-01  -2.51618803e-01
    2.00909883e-01  -2.56482333e-01  -3.85176577e-02   1.63099710e-02]
 [  5.15099227e-01   5.37679642e-02   5.76596800e-03   3.17162126e-01
    2.78566871e-02  -2.61200279e-01  -4.06607240e-02  -1.64093859e-02
    1.84637196e-02   8.61458361e-01   3.10368657e-01  -2.28703126e-01
    1.78703457e-01  -2.36161426e-01  -3.34724262e-02   4.38648984e-02]
 [  5.22740841e-01   5.33937551e-02   7.23447278e-03   1.93292022e-01
    2.66192406e-02  -2.66252756e-01  -4.21115458e-02  -1.82925891e-02
    1.87065862e-02   8.12177539e-01   3.20105314e-01  -2.32074395e-01
    1.79570138e-01  -2.39975333e-01  -3.53454389e-02   3.73857953e-02]
 [  5.07993221e-01   5.08967489e-02   8.95599369e-03   4.47271019e-01
    2.64778305e-02  -2.52304286e-01  -3.65994126e-02  -2.38291956e-02
    1.44785093e-02   2.99711198e-01   3.05533290e-01  -2.17314824e-01
    1.65336743e-01  -2.25747660e-01  -3.75799797e-02   5.58002964e-02]
 [  5.40569842e-01  -1.92607784e+00   8.76273960e-03   1.22084349e-01
   -3.20545793e-01   3.00029904e-01   6.02769777e-02  -4.62436825e-01
   -1.60384968e-01   9.04329479e-01  -4.22728479e-01   2.51874924e-01
    2.13654749e-02   2.87059963e-01   2.75564432e-01   1.40551031e-01]
 [  5.08834302e-01   6.51599765e-02   3.14578530e-03  -2.63265401e-01
    2.72193905e-02  -2.82834291e-01  -3.63305919e-02  -6.01057243e-03
    3.16471942e-02   7.86391854e-01   3.57674778e-01  -2.54199654e-01
    2.03880772e-01  -2.57985532e-01  -4.05485034e-02   1.29681788e-02]
 [  4.89955157e-01   5.27374633e-02   6.59961998e-03   9.21613216e-01
    2.77069062e-02  -2.34247491e-01  -3.70954610e-02  -1.49997622e-02
    1.50896246e-02   8.26360583e-01   2.64385492e-01  -2.02305749e-01
    1.57898188e-01  -2.11983114e-01  -2.89759114e-02   7.38585666e-02]
 [  2.45582318e+00   1.32603848e+00  -2.18104303e-01  -6.72588170e-01
    4.67041403e-01  -1.62209940e+00  -7.40262985e-01   1.39491904e+00
    1.43971157e+00   9.88539398e-01   4.09823507e-01  -1.61349630e+00
    1.92943239e+00  -1.64885378e+00  -1.45795000e+00  -1.22000718e+00]
 [  8.35054457e-01  -6.95955813e-01  -2.98478510e-02  -2.55031168e-01
    3.44982117e-01  -4.42085117e-01  -7.95192346e-02   3.99674058e-01
    2.36304209e-01   7.72006392e-01   2.98504621e-01  -3.95661116e-01
    2.36377537e-01  -3.07526946e-01  -4.52828586e-01  -1.87191859e-01]
 [ -2.17353404e-02   1.26107661e-02  -2.54482293e+00  -6.24767644e-03
    3.96409351e-03  -2.41626445e-02  -2.14126473e-03   1.29016535e-02
    1.00913430e-02   7.77389109e-01   1.55412540e-01  -2.47937683e-02
    3.12163830e-02  -3.59963551e-02   4.74238396e-03  -1.96215417e-02]
 [  1.05420172e+00   8.82529169e-02  -9.19032693e-02   4.79758918e-01
   -9.37288478e-02  -2.94882685e-01   7.08941668e-02   3.41545492e-02
    4.21483256e-02   8.78443897e-01   2.38872781e-01  -1.22371323e-01
    4.30265009e-01  -4.54248078e-02  -2.09041052e-02  -1.87506512e-01]
 [  3.76007743e-02   5.14133684e-02  -2.81315837e-02  -1.66254235e-03
    2.33033061e+00  -9.37105268e-02   4.54577897e-03   5.50380722e-02
    5.97304180e-02   9.60377276e-01  -1.60567746e-01  -6.55577779e-02
    1.32875234e-01  -1.67061180e-01   4.15289178e-02  -1.17489345e-01]
 [  7.73599803e-01   3.04639399e-01   5.41927852e-02  -6.06228769e-01
   -1.29840687e-01   2.16740236e-01   3.54834944e-02   4.42153752e-01
    1.75700158e-01   6.40681267e-01  -4.62469071e-01  -5.01675487e-01
    6.52215481e-01  -3.31857562e-01  -6.21292174e-01  -2.59681791e-01]
 [  1.05597126e+00   2.34655634e-01   3.42385978e-01  -2.12528497e-01
   -2.16820329e-01  -3.74556333e-01   2.17812702e-01   4.39652622e-01
    5.95344782e-01   7.21592546e-01  -1.10761595e+00  -7.88727403e-01
    6.43106937e-01  -4.13314551e-01  -2.51842976e-01  -4.21800435e-01]
 [  2.51894736e+00   2.20862722e+00  -9.23277020e-01  -1.38519883e+00
    6.58063233e-01  -2.08701801e+00  -1.19217956e+00   1.45432389e+00
    1.81565845e+00   6.83161438e-01   1.92326736e+00  -2.15073514e+00
    2.03250432e+00  -2.12088752e+00  -1.90076089e+00  -1.62784088e+00]
 [  1.75059867e+00   1.31858933e+00  -5.13671517e-01  -9.33549702e-01
    7.84872532e-01  -1.73982680e+00  -6.26324713e-01   1.51298797e+00
    1.71092176e+00   1.05395246e+00   8.75148118e-01  -1.78273809e+00
    1.85887718e+00  -1.70403206e+00  -1.90194273e+00  -1.39937913e+00]
 [  7.29398966e-01   6.45193398e-01  -3.57378125e-01  -1.75627962e-01
    2.58953013e-02  -1.06838965e+00  -3.55033338e-01   9.22944963e-01
    7.47449279e-01   5.66231430e-01  -5.36513448e-01  -9.93918359e-01
    1.04055023e+00  -6.44988537e-01  -7.87548900e-01  -7.24405572e-02]
 [  1.68082929e+00   1.54051328e+00  -9.53693017e-02  -4.99322891e-01
   -9.91151948e-03  -2.09348369e+00  -5.75801313e-01   1.48838830e+00
    1.54662013e+00   4.95594978e-01   2.38468504e+00  -2.15542793e+00
    2.34700489e+00  -2.20399308e+00  -1.06997275e+00  -1.18912899e+00]
 [  1.34808123e+00   1.37934697e+00   9.05359462e-02  -8.33007276e-01
    1.30649894e-01  -1.41595995e+00  -2.96680331e-01   1.34066772e+00
    1.47168624e+00   7.62827098e-01  -4.28536475e-01  -7.82054722e-01
    1.16435683e+00  -1.40894353e+00  -1.15587342e+00  -8.54313731e-01]
 [  7.26972222e-01   1.09455414e-01   1.07376903e-01  -3.31813157e-01
   -7.17387050e-02  -5.02350271e-01  -3.26564789e-01   5.56619942e-01
    6.31298840e-01   9.60127115e-01  -6.24547660e-01  -3.38524342e-01
    1.36918336e-01   3.75666581e-02  -4.59579110e-01  -1.22201685e-02]
 [  2.17611670e+00   2.50946832e+00  -8.22880685e-01  -1.06408894e+00
    7.07555890e-01  -2.07578945e+00  -1.10395050e+00   1.96484673e+00
    1.91070116e+00   7.66884804e-01   2.05736542e+00  -2.14176941e+00
    2.21843815e+00  -1.84149003e+00  -2.36087060e+00  -1.48149180e+00]
 [  1.76096097e-01  -4.38280016e-01   1.37588128e-01   1.19541265e-01
    7.64168650e-02   3.35860737e-02   1.68500677e-01  -3.30118179e-01
   -3.36357862e-01   4.64835137e-01   8.98032129e-01   6.02340102e-02
   -2.53392071e-01   2.34589174e-01   2.65057063e+00  -3.30897987e-01]
 [  8.90403271e-01   3.30876887e-01  -2.61987001e-01  -2.31334451e-03
   -1.68941706e-01  -8.54721904e-01   1.25693545e-01   1.27275348e-01
    6.15661442e-01   1.11734009e+00  -3.45514923e-01  -6.38489068e-01
    4.96527761e-01  -6.16105735e-01  -7.71634042e-01   8.69241834e-01]
 [ -5.82988143e-01  -1.60096630e-01   1.27825946e-01  -3.74989629e-01
    3.45148236e-01   1.35769367e+00   3.75247449e-01  -1.73729193e+00
   -1.65137243e+00   8.71419370e-01  -1.33755207e+00   1.96657491e+00
   -1.81300938e+00   1.41388035e+00   1.28925800e+00   1.19761145e+00]
 [  2.33720493e+00   1.49066806e+00  -2.02898622e-01  -1.19995922e-01
   -1.56399727e-01  -1.61810613e+00  -5.41177392e-01   5.58413088e-01
    1.37026656e+00  -1.40032947e-01   1.81211877e+00  -1.83266437e+00
    1.51096427e+00  -1.53416526e+00  -1.71481383e+00  -1.42818487e+00]
 [  6.50282621e-01   1.45726666e-01  -1.48674428e-01  -3.33101809e-01
    4.96363878e-01   6.90123290e-02   7.97917917e-02  -8.97036195e-02
    1.82680339e-01   7.56955981e-01   9.11063999e-02   8.47324654e-02
    4.85364527e-01  -4.03792530e-01   3.41487318e-01  -1.54399574e-01]
 [  1.50264800e+00   6.30293250e-01  -6.32863879e-01  -2.95496672e-01
    1.42457664e-01  -9.53297555e-01   3.48763734e-01   9.13544118e-01
    7.32442021e-01   8.46178770e-01   1.04060411e+00  -8.08085918e-01
    1.00584447e+00  -8.69427860e-01  -1.69262543e-01  -9.36588585e-01]
 [  8.52622807e-01   7.21323609e-01  -2.03893259e-01  -4.78149742e-01
    3.53495181e-02  -1.91697061e-01   4.11267787e-01   7.73801744e-01
    5.53933859e-01   5.81710279e-01   4.46417868e-01  -3.53581220e-01
    2.67097831e-01  -1.89124078e-01   2.18091402e-02  -4.73979264e-02]
 [  1.58536327e+00   5.97571969e-01  -5.47088861e-01  -7.16628253e-01
    2.49453127e-01  -7.20527649e-01   1.21623561e-01   1.06536543e+00
    1.17159331e+00   5.49924314e-01   6.76335216e-01  -9.68963027e-01
    1.05472744e+00  -7.62471259e-01  -2.62002230e-01  -1.04528069e+00]
 [  1.96288395e+00   2.00573897e+00  -1.60251880e+00  -1.29648530e+00
    8.59883547e-01  -2.31517982e+00  -9.30631310e-02   1.93566060e+00
    1.87280130e+00   4.65681642e-01   1.90639734e+00  -1.83483696e+00
    1.89754486e+00  -1.87496722e+00  -1.87632835e+00  -1.77143764e+00]
 [  1.98975301e+00   1.39705908e+00  -2.59718060e-01  -6.38489246e-01
    3.54551920e-03  -2.39570880e+00  -6.03716195e-01   1.08072960e+00
    1.45459557e+00   2.03818798e-01   1.86194348e+00  -1.51954556e+00
    1.60884392e+00  -1.89084005e+00  -1.87223172e+00  -1.41750562e+00]
 [  1.13810277e+00   8.18987638e-02   1.19311310e-01   7.08226442e-01
    1.00994647e-01  -1.55933484e-01  -2.91809309e-02   1.31053478e-01
    1.30211130e-01   7.37229645e-01   1.04770415e-01  -3.37482601e-01
    1.06451139e-02  -3.99738610e-01  -4.71900217e-02  -3.57220143e-01]
 [  2.29286402e-01  -3.29491436e-01   2.41929933e-01   1.88047141e-01
   -2.20163971e-01   1.07057489e-01  -3.81703898e-02  -1.40067786e-01
   -3.01913083e-01   1.10302138e+00  -4.86328937e-02  -1.33972615e-02
   -5.46661355e-02  -2.42016137e-01   3.43461893e-02   3.15098524e-01]
 [  3.69075835e-01   3.31721961e-01  -1.79462377e-02  -4.61259782e-01
    1.65131584e-01  -4.73763138e-01   2.11376011e-01   2.56402373e-01
    1.26148373e-01   1.06021345e+00   3.16337675e-01  -2.58424342e-01
    7.00641215e-01  -5.20777881e-01  -2.73205340e-01   2.34569430e-01]
 [  1.63216925e+00   1.00140584e+00   6.81267530e-02   2.94769615e-01
   -5.86348414e-01  -5.87470889e-01   3.32555562e-01  -1.90089773e-02
   -2.54033297e-01  -8.82976353e-02   9.84286249e-01  -9.03517902e-01
    9.33967233e-01  -7.58752882e-01  -6.06939137e-01  -1.10797536e+00]
 [  1.43523073e+00   8.68798912e-01  -7.63630718e-02  -3.50372821e-01
    1.76027328e-01  -1.63440120e+00  -2.17120457e+00   8.67958844e-01
    7.98964858e-01   8.46365988e-01   1.43757510e+00  -1.60156631e+00
    1.74312294e+00  -1.73069012e+00  -5.06641686e-01  -1.50099123e+00]
 [  2.74932456e+00   2.26756191e+00  -1.51408231e+00  -8.64099026e-01
    1.21241248e+00  -2.37720633e+00  -8.78857553e-01   1.73207366e+00
    1.90499949e+00   6.88345015e-01   2.08840036e+00  -1.82928002e+00
    1.92530644e+00  -2.24275064e+00  -1.86977291e+00  -1.99563706e+00]
 [  9.87744153e-01  -1.89239621e-01  -4.60530259e-02  -3.84404697e-02
    5.37069738e-02  -4.61211294e-01  -1.72182010e-03   5.52686453e-01
    3.54743630e-01   1.06361055e+00   2.62359560e-01  -5.68256915e-01
    4.23656434e-01  -6.11585796e-01  -2.34701708e-01  -2.78325051e-01]
 [  5.45763791e-01   2.86421269e-01  -2.01786030e-02  -4.26706016e-01
   -4.10458818e-02   3.41437161e-02   1.78297162e-01   1.74229428e-01
   -3.02942581e-02   8.10736954e-01   1.71040639e-01  -2.35948339e-01
    1.40216380e-01   3.32630686e-02   3.13918322e-01  -2.77598083e-01]]