Alice
[[  1.04867049e-05   1.51746317e-05  -3.43540923e-05  -2.07990579e-05]
 [ -2.43124632e-05   3.05370086e-05   2.60563520e-05  -1.79586732e-06]
 [  5.34538140e-06  -1.00026023e+00   3.57649355e-06   9.99989212e-01]
 [ -4.92455511e-05   2.82150977e-05  -1.01171117e-05   5.24963014e-07]
 [ -7.50808395e-05  -9.99735475e-01   4.30660566e-06  -9.99994040e-01]
 [ -4.72723741e-07   1.42991894e-05   1.30957437e-06  -2.01282273e-06]
 [ -1.76893827e-05  -1.05606505e-05   1.71229544e-07  -5.98627184e-06]
 [ -2.73718288e-05   2.91781380e-05  -1.65218917e-05   6.66013011e-06]
 [  5.55373840e-02  -3.48519564e-01  -4.72973466e-01   1.23960562e-01]
 [ -1.35666698e-01   4.22207445e-01  -1.74915167e-05  -6.19637867e-05]
 [ -5.55094741e-02   3.48477513e-01  -5.27032614e-01   8.76063168e-01]
 [ -1.00005567e+00  -7.25925111e-06   1.04722149e-05  -4.50436983e-06]]
Bob
[[  4.03597862e-01  -8.33330796e-06   4.03634667e-01  -2.54334846e-05]
 [  6.31166875e-01   7.16768568e-07   6.31173015e-01   4.51287269e-06]
 [  7.13572562e-01   5.43736132e-05   7.13571668e-01  -9.99992132e-01]
 [  6.33844256e-01   1.64168687e-05   6.33848250e-01   3.53675023e-06]
 [  5.72457075e-01   1.37282705e-05   5.72469652e-01   5.94687808e-05]
 [ -9.27207619e-03   9.26894245e-06  -9.24117677e-03   4.53153843e-05]
 [  3.74661833e-01  -2.62315134e-05   3.74653071e-01   1.00000560e+00]
 [  3.22829545e-01  -8.18188255e-07   3.22832555e-01   7.91910279e-05]
 [ -1.41898081e-01   2.44767159e-01  -3.38133365e-01   1.65859073e-01]
 [  9.56383720e-03   3.70165348e-01  -4.35738176e-01  -3.69570166e-01]
 [ -3.41573954e-01  -5.68577886e-01   1.96650997e-01  -8.32545832e-02]
 [ -9.57816653e-03   6.29646778e-01  -5.64341187e-01   3.69421542e-01]]
Eve
[[  1.82732455e-02  -4.17071242e-05   7.45802894e-02   7.45405331e-02]
 [  1.91123430e-02  -6.28425641e-06   8.32666233e-02   8.33421573e-02]
 [  1.93313472e-02   2.14950167e-04   9.22598094e-02   9.22530666e-02]
 [  1.92755405e-02   2.59321296e-05   8.18370879e-02   8.19476768e-02]
 [  2.45196447e-01  -1.02272701e+00   1.32203475e-01   2.71738023e-01]
 [  1.39395818e-01  -1.68113470e+00  -1.28289573e-02   2.03917074e+00]
 [  3.79393131e-01  -1.24399602e-01   5.53998113e-01  -2.43523732e-01]
 [ -1.21209301e-01  -1.46133530e+00   9.13813263e-02   1.18089926e+00]
 [ -1.71725541e-01  -4.61979896e-01   1.28231835e+00   1.58683050e+00]
 [  3.57634425e-01  -2.10499451e-01   1.06061590e+00   5.57503402e-01]
 [  1.96656793e-01   4.62006241e-01   1.32031035e+00   1.01565814e+00]
 [  3.00571394e+00  -2.73498790e-05   7.23176077e-02   7.22653121e-02]]