Alice
[[  1.30420391e-04   8.64617586e-01   5.67616709e-03  -1.06293662e-02]
 [  8.34884340e-05   6.20364010e-01  -3.34012875e-05   5.10566570e-05]
 [  3.25599540e-05   5.56478083e-01   3.79788180e-05  -8.06307944e-05]
 [ -3.32441598e-01   4.55867082e-01   4.87441532e-02  -1.77957844e-02]
 [ -9.72278485e-06   8.09282210e-05   5.20156427e-05  -8.00653579e-05]
 [ -7.15698625e-05   5.98548941e-05   7.32746630e-05  -1.00473597e-04]
 [  1.08357362e-05   8.82023814e-05   5.24361931e-05  -9.24752530e-05]
 [ -1.92534608e-05   8.33601516e-05   5.08965459e-05  -8.08804398e-05]
 [ -1.09539390e+00   1.71784356e-01   4.78095785e-02  -6.90334812e-02]
 [ -3.91670950e-02   6.97801769e-01   1.05597365e+00   4.83083017e-02]
 [  2.60518951e-04   2.78787732e-01   2.35334691e-02   5.29370550e-03]
 [ -1.61346412e+00   6.24084949e-01  -3.74182373e-01   5.33455573e-02]]
Bob
[[  5.31588194e-05  -1.20685901e-02  -8.64629328e-01  -1.33670823e-04]
 [ -1.12363050e-05   4.62837852e-05  -6.20346427e-01  -1.11547073e-04]
 [  5.66297713e-05  -6.72592505e-05  -5.56505501e-01  -9.87445965e-05]
 [ -4.62154970e-02  -5.31824604e-02  -4.55903709e-01   3.81202012e-01]
 [  1.01498199e-05  -1.09505359e-04  -6.15354438e-05   1.99659553e-07]
 [ -2.24066716e-05  -1.24738013e-04  -5.99015148e-05  -2.63172369e-05]
 [  4.39299620e-05  -1.13541835e-04  -7.91846833e-05  -2.90855751e-05]
 [  2.57345891e-05  -8.34997481e-05  -6.11286450e-05  -2.58736509e-05]
 [  6.13032617e-02   3.24380994e-01  -7.21168399e-01   1.84096324e+00]
 [ -5.24532143e-03  -2.35560238e-02  -2.78790176e-01  -2.60751782e-04]
 [  1.84310496e-01  -2.16740713e-01  -7.45009542e-01   1.59172088e-01]
 [  8.41806293e-01  -4.81529742e-01  -3.89394850e-01  -4.05015796e-02]]
Eve
[[  1.16907328e-03   2.60561800e+00  -5.73418811e-02   2.84737833e-02]
 [  3.38975951e-04   1.92676139e+00  -8.92151729e-04   8.85682763e-04]
 [  2.02474534e-04   1.65336382e+00  -1.69282802e-03   7.80713395e-04]
 [  1.96330619e+00   1.46110046e+00   7.63611868e-02   2.99880445e-01]
 [  2.34836054e+00   1.58182585e+00  -1.43622635e-02  -3.92735153e-01]
 [ -1.27644539e-01   2.17459291e-01  -5.37133403e-02   1.42545760e-01]
 [  2.36729030e-02   1.78770900e+00  -1.37640047e+00   1.79721487e+00]
 [  1.66900352e-01   2.39213467e+00  -1.35391569e+00   2.43837547e+00]
 [  1.56593442e+00   1.95705950e+00   5.23847997e-01   2.09054634e-01]
 [  9.84446332e-02   1.39265931e+00  -2.18014050e+00   8.52075592e-03]
 [  1.27407789e-01   7.73778260e-01  -1.31623270e-02  -1.54757380e-01]
 [  1.83975148e+00   1.27124238e+00   1.73323572e-01  -7.11335361e-01]]