Alice
[[  3.99515629e-01   1.14475630e-01   2.57143378e-01  -1.92118175e-02
    2.70523373e-02  -1.57797024e-01   1.04215515e+00   9.60893705e-02]
 [ -5.78062952e-01   7.75368608e-05  -2.59364606e-05   1.75081322e-03
   -1.01790047e+00   4.30971158e-05  -4.80226308e-01   1.66591093e-01]
 [ -5.40759802e-01   6.92455360e-05  -1.34977126e-05   1.20056933e-03
   -1.00873864e+00   3.57701647e-05  -4.70391273e-01   1.23840101e-01]
 [ -5.31930327e-01   6.44839020e-05  -1.78319478e-05   2.15137517e-03
   -1.02109659e+00   6.82160753e-05  -4.85249132e-01   1.11510508e-01]
 [ -4.44478869e-01   5.84664667e-05   7.69734834e-05   1.08635426e+00
   -7.64956892e-01   1.69702224e-04  -6.36027575e-01   5.66399582e-02]
 [ -5.22289038e-01   3.10173527e-05  -2.73816877e-05   2.03908607e-03
   -1.00773454e+00   4.41000266e-05  -4.74322170e-01   1.11994728e-01]
 [ -3.54441464e-01   8.29373166e-05  -7.73670690e-05  -1.50164807e+00
   -9.61680830e-01   1.08028122e-04  -1.52324244e-01   1.39430165e-01]
 [ -5.21766365e-01   3.06787661e-05  -2.86203576e-05   1.84897624e-03
   -9.97618437e-01   6.16816978e-05  -4.63167340e-01   1.15202449e-01]
 [ -1.09391240e-05  -1.60482705e-05   5.14954399e-06  -2.20748461e-05
   -1.48826402e-05  -4.38006791e-05  -1.26590130e-05   2.55988240e-01]
 [ -1.87290098e-05  -1.77162310e-05   2.67717733e-05  -4.66556412e-06
   -9.33399224e-06  -2.33854225e-05  -1.91495819e-05   2.54388869e-01]
 [ -1.60718196e-06  -1.36739418e-05  -1.76790809e-06  -1.84120836e-05
    1.98018824e-05  -2.02913670e-05  -2.87490111e-05   2.48826116e-01]
 [ -2.21367009e-05  -2.67871746e-05   3.04677105e-05   1.59921947e-05
    5.53018481e-06  -5.34294231e-05  -3.53666510e-05   2.51812994e-01]
 [ -6.29393890e-06  -3.20347408e-06   2.04278749e-05  -8.43817634e-06
    4.39994528e-06  -4.05898463e-05  -4.79187620e-05   2.52623618e-01]
 [ -4.30293294e-05   6.56214706e-06   3.28848728e-06   9.63515595e-06
   -2.68169765e-06  -2.23908428e-05  -2.67525866e-05   2.53411591e-01]
 [ -4.93591142e-05   4.35154652e-06   2.93509693e-05   4.41245829e-05
    7.39556799e-06  -1.63932345e-05  -3.04039750e-05   2.53556013e-01]
 [ -3.61256753e-05  -2.49133682e-05   2.19591857e-05   9.25958557e-06
    1.17956788e-05   4.56648468e-06  -1.33667718e-05   2.55991518e-01]
 [ -6.53598428e-01   7.84600052e-05   2.47056087e-05   5.63714840e-03
   -6.73757792e-01  -1.86389070e-02  -6.00277305e-01  -3.81646723e-01]
 [ -2.13764876e-01   1.67601916e-04   1.81993128e-05  -1.21084499e+00
    1.07550375e-01  -4.68386570e-03  -2.76637137e-01  -4.58521485e-01]
 [ -4.54750657e-02   4.94137444e-02  -1.29617825e-01   6.95062801e-02
    8.83630570e-03   2.26962447e-01   1.96750313e-01  -2.59596586e-01]
 [ -3.64124477e-01  -2.45828669e-05   4.04853126e-05   5.20009734e-03
   -2.95020472e-02   4.58109565e-02  -5.84900677e-01  -5.07445872e-01]
 [  4.63439852e-01   1.17669253e-04   5.73828875e-05   7.65299192e-03
   -6.76932633e-02  -1.70533303e-02  -6.39020741e-01  -6.15231283e-02]
 [  1.55980451e-04  -2.23057723e+00   1.80906995e-04  -4.85174496e-05
    1.52648354e-05   8.02827184e-04  -4.85890167e-04   2.34327672e-04]
 [ -3.96178961e-02   1.21563047e-01  -1.04851738e-01   1.61823742e-02
   -3.23442109e-02   2.08670795e-01   4.38320220e-01  -1.42881930e+00]
 [  2.63407201e-01   3.12391371e-01  -9.28330600e-01   1.00184970e-01
   -7.68886805e-02   4.19301569e-01   8.85959566e-01  -1.08028042e+00]]
Bob
[[  2.70793363e-02  -1.91753693e-02   1.05884120e-01   3.99533004e-01
   -1.04215157e+00   1.70787200e-01   1.17548518e-01   2.49145553e-01]
 [ -1.01785910e+00   1.75974274e-03  -1.51995890e-04  -5.78084826e-01
    4.80217695e-01   4.78139445e-05   4.90761013e-05  -1.24336657e-06]
 [ -1.00873756e+00   1.21008500e-03  -9.43703490e-05  -5.40789306e-01
    4.70397860e-01   9.73593160e-06  -1.28531501e-05  -2.76864484e-05]
 [ -1.02109015e+00   2.15698942e-03  -1.10871595e-04  -5.31943917e-01
    4.85253841e-01   2.21079317e-05   5.27538759e-05  -2.01722250e-05]
 [ -7.64954209e-01   1.08641350e+00  -3.01296153e-04  -4.44511414e-01
    6.35987520e-01   7.38715971e-06   5.79527805e-05   6.61782906e-05]
 [ -1.00773001e+00   2.03273492e-03  -1.38349889e-04  -5.22315800e-01
    4.74308610e-01   2.34324689e-05   3.77743781e-05  -2.75539678e-05]
 [ -9.61650133e-01  -1.50170183e+00  -2.61348265e-04  -3.54463518e-01
    1.52367815e-01   3.41532614e-05   2.86050617e-05   4.96612847e-06]
 [ -9.97627258e-01   1.85387081e-03  -1.00751247e-04  -5.21774292e-01
    4.63194460e-01   1.86605976e-05   8.79467261e-05  -3.26254558e-05]
 [  3.26221175e-06   3.35846198e-05  -5.27016062e-04   5.67726966e-05
    8.29026540e-05  -6.19286597e-01   1.80073053e-04   2.30630849e-05]
 [  1.16294368e-05   6.52461531e-05  -1.40106831e-05   6.14204509e-08
    2.65499311e-05   4.35865513e-06  -1.20531658e-05  -2.38533539e-05]
 [  1.76639405e-05   5.50316963e-06  -2.74949434e-05  -9.52498795e-06
    4.10164466e-06   2.83915215e-05  -4.02836304e-06   1.55831767e-05]
 [ -1.06013149e-05   3.70193993e-05   2.28229874e-05   7.84471558e-06
    2.82086876e-05   2.33672072e-05  -6.13775410e-05  -1.89671737e-05]
 [  1.15589614e-06   5.42727139e-05  -6.75017582e-05  -2.61691912e-05
    3.89420638e-05  -1.76940193e-06   1.13067254e-05  -2.49181012e-05]
 [  3.25831434e-06   1.35477922e-05   1.70689727e-05  -1.11300551e-05
    2.41666476e-05  -1.99667847e-05  -2.91475735e-05   2.13820222e-05]
 [  1.46362854e-05   4.90763960e-05  -8.04732845e-05  -2.38195771e-05
    9.52506434e-06  -7.30587817e-06  -5.63526992e-05  -3.58698571e-06]
 [  9.93963840e-06   2.54451279e-05  -4.19787066e-05  -1.12181460e-05
    2.62011235e-05   7.97111716e-06  -4.86166573e-06  -2.11385104e-05]
 [ -2.94979960e-02   5.19823469e-03  -4.57098633e-02  -3.64139467e-01
    5.84908307e-01   4.23820493e-05   5.07384896e-01  -1.33630820e-05]
 [ -6.21218644e-02  -1.17034037e-02   7.82285333e-02   3.36117923e-01
   -3.66813421e-01  -4.22518462e-01   9.53184366e-01  -7.27770627e-01]
 [ -7.68555030e-02   6.47742152e-02  -4.01132666e-02   2.64529705e-01
   -6.83412731e-01  -7.43687034e-01   7.43736565e-01  -6.83101296e-01]
 [  1.07567929e-01  -1.21078205e+00   4.94629657e-03  -2.13777930e-01
    2.76648611e-01   1.86770194e-04   4.58520442e-01  -4.11836336e-05]
 [ -6.73725247e-01   5.66686876e-03   1.87083352e-02  -6.53594553e-01
    6.00302339e-01   3.23240529e-05   3.81615311e-01  -1.08070253e-07]
 [  3.05696484e-02   1.19396918e-01  -6.30902648e-01  -3.18976998e-01
   -4.76719350e-01  -6.37079358e-01   2.93993324e-01   6.19181655e-02]
 [ -6.76575452e-02   7.67599558e-03   1.72001421e-02   4.63431478e-01
    6.39068961e-01   2.22570889e-04   6.14404082e-02   2.32578332e-05]
 [ -1.58907405e-05   2.40606842e-05  -2.72227535e-05   8.44664100e-05
   -1.57663126e-05   1.70677667e-04   1.00023127e+00   3.82980443e-06]]
Eve
[[-0.88803625  0.5899114   0.31129262 -0.08113991  1.51927066 -0.63026643
  -2.36921811 -0.14268956]
 [ 0.06527755 -0.01965313  1.18432701  0.03452603  1.12918305  1.13728893
  -1.31361389  0.76458973]
 [ 0.08169394 -0.01811851  1.12080383  0.03410038  1.14627397  1.18027079
  -1.26088619  0.70401877]
 [ 0.11302371 -0.01842105  1.09713745  0.03232393  1.10233808  1.22438657
  -1.28581095  0.68539631]
 [-0.11074959 -0.01458388  0.48659661 -0.51575804  1.37582922  0.68536538
   0.08572487  0.36811489]
 [ 0.094943   -0.01813654  1.08341062  0.03460829  1.13667166  1.20411515
  -1.2579149   0.67302829]
 [ 0.05510252 -0.01031829  0.9788841   2.89043379  1.24095058  1.03886795
  -1.57960498  0.55523205]
 [ 0.08084263 -0.01783125  1.08174229  0.03427018  1.15880561  1.20135415
  -1.2181524   0.6735146 ]
 [ 1.141886   -0.17293514  1.06725276  0.07043308  0.50244075  1.07979894
  -0.05486578  0.31948522]
 [ 0.11183971 -0.3481738  -1.72556531  0.53264904 -0.03600075  0.63864267
  -0.69110548 -2.11460972]
 [ 0.18763842  0.56758076 -0.92044544 -0.18856011  0.13496509  0.38924685
  -0.5212552  -1.44783008]
 [-0.46461251  0.02482551  0.7143532   0.02103176  0.95252842  0.33230579
   0.14622325 -0.16259523]
 [-0.88943231 -0.11203452  0.04749148 -0.11250902  0.234019    0.13565813
  -0.48752141 -0.34372815]
 [ 0.39784795  0.5708673  -0.69302368  0.47776154  0.17564651  0.52845567
  -0.38972375 -0.63875896]
 [ 0.8473869  -0.07259163  0.24356036  0.17217575  1.20050025  0.43925831
   0.27309844  0.30498451]
 [-0.17594388 -0.02394671  1.25031137 -0.02228718  1.06618404  0.94141096
  -0.988226   -1.17563701]
 [-0.78795028  0.10863931 -0.1225139   0.18234333 -0.2086118  -0.25263473
  -0.82790262 -0.12271493]
 [-0.49726775 -0.03728983  0.17824547  0.54729939  0.44528905  0.44543579
   0.02518649 -0.19080414]
 [ 0.37086123  0.94272041  0.13583633  0.11995441  0.6214146   0.65426522
  -0.14308622 -0.95197588]
 [ 0.70627052  0.16611159  1.29291642 -0.05161883  0.75048524  1.47187102
  -0.40868837  0.3678754 ]
 [ 1.06154096  0.03555163  0.18462642 -0.1146674   0.89006358  0.11381003
  -0.09721389  0.12239824]
 [-0.15763719  3.00252509  0.95027781  0.10404547  0.87573254  0.67569029
  -1.21136773  0.66103786]
 [ 0.43364528  0.702407   -1.27813029  0.81351233  0.43439481  0.77943009
  -1.06082714 -2.49002743]
 [-0.06684354  0.83172786 -0.97356468  0.35382488  0.70463121  0.63452637
  -0.96374762 -1.87132514]]