Alice
[[  4.81463850e-01   4.30738062e-01  -1.54089034e-01  -3.46045345e-01]
 [  2.86836317e-03   4.42606717e-01  -2.69155542e-04  -3.04703742e-01]
 [  2.55216330e-01   1.35446668e+00  -6.56874657e-01   7.06406415e-01]
 [  2.86117499e-03   4.42151189e-01  -2.71829660e-04  -2.99696118e-01]
 [  8.38990236e-05   4.60227013e-01   2.75970058e-04  -3.84457886e-01]
 [  5.75282138e-05   5.07346511e-01   3.55827593e-04  -3.54557723e-01]
 [  4.86890749e-05   3.86829823e-02   3.71490605e-04   1.28552020e-01]
 [  5.37464948e-05   5.03446758e-01   3.61388287e-04  -3.87934625e-01]
 [ -6.08287789e-02   6.55515026e-03  -1.04568696e+00  -2.38211732e-02]
 [  7.07169831e-01  -1.45854831e-01  -4.11131531e-01   4.83140290e-01]
 [  5.94602227e-01   2.52107084e-02  -7.94860184e-01  -8.63754898e-02]
 [ -3.90818924e-01  -3.34253907e-02   1.64750367e-01   1.03330302e+00]]
Bob
[[ -5.23021221e-01  -7.90309459e-02  -3.23461473e-01   2.16090889e-03]
 [ -1.02669885e-03  -4.39228810e-04  -2.12709117e-03   1.96247947e-05]
 [ -1.09923624e-01  -5.18181249e-02  -2.72728562e-01   1.09113567e-03]
 [ -1.06355443e-03  -4.37633629e-04  -2.14721868e-03   7.32634317e-06]
 [  8.15074891e-04   7.42003976e-06  -1.25981256e-04  -4.29075862e-06]
 [  6.92888338e-04   2.81566690e-06  -1.36543385e-04  -1.52698140e-05]
 [  7.62665237e-04  -3.76771186e-06  -1.23275560e-04  -5.41893860e-06]
 [  7.57106463e-04  -1.75972418e-05  -1.26770552e-04  -1.92291882e-05]
 [ -6.07837379e-01   1.58668801e-01  -7.89150655e-01  -4.51332750e-03]
 [ -9.25102722e-05  -9.99997258e-01   4.83438998e-06  -5.50941786e-06]
 [ -1.13404691e+00   1.72918215e-02   4.14702147e-02   1.04199171e-04]
 [ -1.86591264e-04  -2.14885349e-05  -3.17999252e-07  -9.99997735e-01]]
Eve
[[-1.20463407 -0.22385933 -2.05219889  0.27480522]
 [-0.08312853 -0.1081222   0.07039452  0.07120797]
 [-0.557648   -0.45720702  2.48812866  0.43368134]
 [-0.08319866 -0.10782976  0.07269612  0.07073783]
 [-1.17555451  0.31509286 -0.41761145 -0.3211807 ]
 [-0.10702129 -2.60031366 -0.27458483  0.12554491]
 [-0.38126808  0.29276034 -0.33579224 -0.24703349]
 [-0.09767847 -0.0467044   0.33791611  2.59173656]
 [ 0.04997864 -0.27665788 -0.30664614  0.10530306]
 [ 0.10235596  0.40124449  1.48568225 -0.86726213]
 [-0.79442239  0.31487578  0.02746597 -0.16204169]
 [-0.03058534 -0.08176902 -0.26789588 -0.27255741]]