Alice
[[  9.46249068e-03   8.14466830e-03   3.04094423e-03  -3.01474356e-03
   -1.61646190e-03  -2.57613976e-03   2.17042223e-01   1.47517852e-03
   -1.88094343e-03  -2.07850127e-03   2.93807127e-03   1.97982206e-03
    7.80208269e-04   3.13861179e-03   1.61115138e-03  -1.91569224e-03]
 [  9.31194611e-03   8.30477662e-03   2.86048022e-03  -2.92734685e-03
   -1.64978835e-03  -2.33863271e-03   2.18373939e-01   1.27509679e-03
   -1.66749093e-03  -1.85648666e-03   2.33828579e-03   1.85364950e-03
    6.39552425e-04   2.90000043e-03   1.49250834e-03  -1.74794893e-03]
 [  1.32214567e-02  -1.08136728e-01   2.98187369e-03   9.04724293e-04
   -9.05511808e-03  -2.76571023e-03   2.97259897e-01   4.74487571e-03
   -2.28802348e-03  -4.37590573e-03  -3.03748306e-02   6.73210295e-03
    4.65707295e-03   7.41720619e-03   4.50666901e-03  -5.00440598e-03]
 [  9.18734912e-03   7.46095926e-03   3.01446579e-03  -3.20601906e-03
   -1.74043351e-03  -2.51695910e-03   2.18725488e-01   1.48096122e-03
   -1.91072305e-03  -2.10355781e-03   2.37582368e-03   2.10366375e-03
    8.26777075e-04   3.10663413e-03   1.69121230e-03  -1.89341814e-03]
 [  9.13779624e-03   8.62713158e-03   3.08404653e-03  -3.18839937e-03
   -1.85579259e-03  -2.50954903e-03   2.22697839e-01   1.46397599e-03
   -1.93895400e-03  -2.09912378e-03   2.80518830e-03   2.21189740e-03
    8.08903016e-04   3.17350589e-03   1.75634550e-03  -1.97290001e-03]
 [  9.21483152e-03   8.20385851e-03   2.94054858e-03  -3.00740288e-03
   -1.66496634e-03  -2.36845063e-03   2.19608560e-01   1.34641142e-03
   -1.78630010e-03  -1.98339880e-03   2.53299298e-03   2.00750097e-03
    7.02392368e-04   3.08100507e-03   1.59571553e-03  -1.79847097e-03]
 [  9.44442861e-03   8.66714772e-03   3.16213304e-03  -3.23391077e-03
   -1.75350695e-03  -2.62038549e-03   2.16077596e-01   1.56582159e-03
   -1.98410312e-03  -2.19221273e-03   2.87374901e-03   2.09832261e-03
    8.66172893e-04   3.15139233e-03   1.70669821e-03  -1.97197427e-03]
 [  9.32755042e-03   8.11115466e-03   2.95287790e-03  -2.94258515e-03
   -1.68629899e-03  -2.43490748e-03   2.18241185e-01   1.35219819e-03
   -1.72632991e-03  -1.99278840e-03   2.56816554e-03   1.97580154e-03
    6.97434705e-04   3.00346431e-03   1.53957738e-03  -1.79108104e-03]
 [  9.06152092e-03   8.38233065e-03   2.92554055e-03  -2.96608591e-03
   -1.61855121e-03  -2.40536407e-03   2.17818618e-01   1.36309664e-03
   -1.72700628e-03  -1.96675910e-03   2.54894909e-03   1.95742166e-03
    7.26963161e-04   2.91397376e-03   1.55340286e-03  -1.77122967e-03]
 [  9.04649217e-03   8.15289002e-03   2.99925334e-03  -2.98110675e-03
   -1.49551476e-03  -2.49258801e-03   2.15588450e-01   1.35980209e-03
   -1.74387649e-03  -2.02532904e-03   2.40773242e-03   1.88874546e-03
    7.13405723e-04   3.02781770e-03   1.48557406e-03  -1.75033440e-03]
 [  9.32420325e-03   8.39294493e-03   2.95765139e-03  -2.95521272e-03
   -1.37743284e-03  -2.43256590e-03   2.20959038e-01   1.32294476e-03
   -1.71852717e-03  -1.95393828e-03   2.89644836e-03   1.91782019e-03
    6.59902056e-04   3.08842259e-03   1.54199521e-03  -1.78400357e-03]
 [  8.94325785e-03   7.99053255e-03   2.89110327e-03  -3.04897316e-03
   -1.45316625e-03  -2.28926190e-03   2.19030201e-01   1.24050782e-03
   -1.59965747e-03  -1.88705872e-03   2.37848237e-03   1.93649356e-03
    5.66588365e-04   2.91247410e-03   1.46787520e-03  -1.71692518e-03]
 [  9.09330882e-03   8.26563127e-03   2.99725728e-03  -3.02716764e-03
   -1.61582092e-03  -2.45775352e-03   2.16350958e-01   1.45816221e-03
   -1.76644116e-03  -2.04644864e-03   2.11003260e-03   2.01174733e-03
    7.65342498e-04   3.02305655e-03   1.66541850e-03  -1.87243661e-03]
 [  9.30557959e-03   8.75211880e-03   2.98568653e-03  -3.12809972e-03
   -1.75379938e-03  -2.44853040e-03   2.16849416e-01   1.47645653e-03
   -1.80154946e-03  -2.06517754e-03   2.36796681e-03   2.07347632e-03
    8.03882722e-04   3.05466563e-03   1.67318608e-03  -1.86433829e-03]
 [  9.88045894e-03   8.83486774e-03   2.94838590e-03  -3.01636104e-03
   -1.63107528e-03  -2.37695733e-03   2.20789939e-01   1.33257045e-03
   -1.77701993e-03  -1.95195328e-03   3.43110436e-03   1.95843633e-03
    7.30202708e-04   3.12374905e-03   1.60770398e-03  -1.84744003e-03]
 [ -1.15870990e-01   1.46457478e-02  -4.63417405e-03  -1.54268765e-03
   -6.44622184e-03  -2.74993759e-03   2.99384207e-01   1.19635817e-02
   -1.83944241e-03  -5.84983546e-03  -3.23605649e-02   5.27251884e-03
    1.76004935e-02  -9.45270900e-03   9.91109479e-03  -8.05196725e-03]
 [  1.84479743e-01   1.67420015e-01   2.04988980e+00  -1.81411922e+00
   -1.68020940e+00  -2.00775146e+00  -1.78151655e+00   2.24648094e+00
   -6.94605947e-01  -1.78386247e+00  -1.96177232e+00   2.09398508e+00
    2.12977457e+00   1.98449957e+00   1.75767291e+00  -2.03438926e+00]
 [  9.34903845e-02  -4.15793478e-01   1.79654872e+00  -1.50999510e+00
   -2.24107695e+00  -2.31418872e+00  -2.36189103e+00   1.78063166e+00
   -2.61113912e-01  -1.86396897e+00  -2.22697496e+00   1.96809912e+00
    2.14684892e+00   1.78059745e+00   1.74552107e+00  -1.74491572e+00]
 [  1.18251070e-01  -3.93707544e-01   2.00866961e+00  -2.03147864e+00
   -2.22227621e+00  -2.24447656e+00  -1.84659255e+00   1.99168134e+00
    6.45984858e-02  -1.67050409e+00  -1.73922145e+00   1.73438966e+00
    2.13071465e+00   2.12657380e+00   2.07814479e+00  -2.01056981e+00]
 [  3.16064924e-01  -6.95395097e-02   1.52420294e+00  -2.01607132e+00
   -1.62129045e+00  -2.09127617e+00  -1.63571596e+00   2.01289535e+00
   -2.04856232e-01  -1.99923706e+00  -2.01495600e+00   1.98493278e+00
    1.96906316e+00   2.14736652e+00   2.08699584e+00  -1.92474127e+00]
 [ -7.70675912e-02  -1.42487986e-02   2.00183940e+00  -1.86731160e+00
   -2.28478909e+00  -1.85802114e+00  -2.37293077e+00   2.10877156e+00
    4.06157449e-02  -2.08997917e+00  -1.73719573e+00   1.89750898e+00
    1.96279824e+00   1.50679433e+00   1.67147326e+00  -2.06204939e+00]
 [  5.26145875e-01  -1.79462761e-01   2.04310632e+00  -1.70461702e+00
   -1.77108169e+00  -2.18812060e+00  -2.04757214e+00   2.06203055e+00
    2.24841401e-01  -1.73223770e+00  -1.92552352e+00   1.93534577e+00
    2.00012684e+00   1.76688671e+00   1.87306917e+00  -2.09381771e+00]
 [  1.03126122e-02   1.95199884e-02   3.94497693e-01  -3.91623795e-01
   -1.48755813e+00  -4.01366830e-01  -3.82741213e-01   3.89364153e-01
    1.23942681e-02  -3.95042598e-01  -3.96430612e-01   3.94595623e-01
    3.95977110e-01   3.91955465e-01   3.92162651e-01  -3.91482860e-01]
 [  2.63468981e-01  -2.37608835e-01   1.59353304e+00  -2.19798613e+00
   -2.22036672e+00  -2.20984530e+00  -2.16516757e+00   1.62363899e+00
    1.95883095e-01  -1.99465609e+00  -1.59930897e+00   1.63076961e+00
    1.59321392e+00   1.52301705e+00   2.09001517e+00  -1.94416678e+00]
 [  5.24505749e-02  -2.70234257e-01   2.08599281e+00  -1.99531078e+00
   -2.19225192e+00  -2.18096828e+00  -2.13016748e+00   1.99931514e+00
   -7.38852844e-02  -1.59033847e+00  -1.87895477e+00   1.83678496e+00
    1.94179320e+00   1.76664269e+00   2.08580804e+00  -2.01548195e+00]
 [  2.32707188e-01   1.30215436e-01   1.89564753e+00  -1.87787902e+00
   -2.03015494e+00  -1.90135574e+00  -2.11046243e+00   1.90111685e+00
    7.46151447e-01  -2.25047970e+00  -2.08418632e+00   1.78788769e+00
    1.81248903e+00   2.08960867e+00   1.55457366e+00  -2.18125129e+00]
 [ -2.22704053e-01  -7.74910748e-02   1.95903838e+00  -2.12737966e+00
   -2.00016451e+00  -1.92139447e+00  -2.13133812e+00   1.60276699e+00
    3.16418633e-02  -1.86761618e+00  -2.14313674e+00   2.24911547e+00
    1.52287877e+00   1.98836863e+00   1.75011361e+00  -1.58499694e+00]
 [ -6.07493222e-02   4.15052265e-01   2.18310261e+00  -1.81623971e+00
   -1.49047983e+00  -1.88465631e+00  -1.65213418e+00   2.07864428e+00
    3.16462338e-01  -2.05157518e+00  -1.99796557e+00   2.03773785e+00
    1.96343768e+00   1.98894060e+00   2.13871789e+00  -1.83245552e+00]
 [  1.01862147e-01   8.59442353e-03   2.76894045e+00  -2.68536663e+00
   -2.15327549e+00  -2.44647694e+00  -2.54851317e+00   2.93080449e+00
    1.24093878e+00  -2.76628160e+00  -2.84417200e+00   2.81100345e+00
    2.91715336e+00   2.96266818e+00   2.84216762e+00  -2.71915150e+00]
 [  1.09091975e-01   9.32406783e-02   2.98123574e+00  -3.06835604e+00
   -2.09907961e+00  -2.56251621e+00  -2.58131027e+00   2.83880281e+00
    6.73096851e-02  -2.91244793e+00  -2.75304317e+00   2.84956074e+00
    2.79572606e+00   2.94883919e+00   3.04041338e+00  -2.82223368e+00]
 [  3.77330780e-01  -1.71107188e-01   1.96693873e+00  -2.05938268e+00
   -2.01608109e+00  -1.87566960e+00  -2.21770954e+00   1.91075051e+00
   -9.15823057e-02  -2.04279041e+00  -2.24439836e+00   2.24950719e+00
    1.87418997e+00   1.94090056e+00   1.74699712e+00  -2.22715950e+00]
 [ -1.51484266e-01  -7.09748641e-02   1.91822767e+00  -1.95166719e+00
   -1.56340873e+00  -2.06382608e+00  -1.80521083e+00   1.76681459e+00
   -8.90916407e-01  -2.17248654e+00  -2.13587618e+00   1.74938226e+00
    2.19638634e+00   2.10483384e+00   2.22995234e+00  -1.89135766e+00]]
Bob
[[ -9.50120855e-04   2.66528525e-03   2.19530030e-03  -1.34730607e-03
    2.54960498e-03  -1.89085712e-03  -2.19542384e-01   2.66327662e-03
   -2.33508158e-03  -2.43150513e-03  -2.23496929e-03  -1.25096028e-03
   -1.01284767e-02  -9.34451539e-03  -1.89789152e-03  -1.09996321e-03]
 [ -9.02149710e-04   2.60701636e-03   2.04686960e-03  -1.10541016e-03
    2.45390553e-03  -1.74263783e-03  -2.17786014e-01   2.58084550e-03
   -2.22806726e-03  -2.23176205e-03  -2.06129416e-03  -8.95678240e-04
   -1.00647490e-02  -8.90498701e-03  -1.80206075e-03  -8.43460439e-04]
 [ -1.11272314e-03   2.72148382e-03   2.27610790e-03  -1.40294095e-03
    2.54234718e-03  -2.05171830e-03  -2.18122885e-01   2.71811709e-03
   -2.39353627e-03  -2.43555824e-03  -2.19894410e-03  -1.20093999e-03
   -1.05612837e-02  -9.69768502e-03  -1.92291662e-03  -1.08264131e-03]
 [ -7.53899163e-04   2.71252263e-03   2.17318628e-03  -1.27519842e-03
    2.60868133e-03  -1.89875322e-03  -2.15628177e-01   2.69666337e-03
   -2.37569027e-03  -2.41440767e-03  -2.22694618e-03  -1.15684560e-03
   -1.02279391e-02  -9.00575425e-03  -1.98008772e-03  -1.09201309e-03]
 [ -9.73493792e-04   2.74718646e-03   2.21535913e-03  -1.32807507e-03
    2.63885525e-03  -1.90887647e-03  -2.16088459e-01   2.74193636e-03
   -2.39642034e-03  -2.49277358e-03  -2.27343012e-03  -1.26117363e-03
   -1.05050150e-02  -8.99412110e-03  -1.99132436e-03  -1.11145573e-03]
 [ -8.22869421e-04   2.77790637e-03   2.22105649e-03  -1.21257850e-03
    2.66727852e-03  -1.81401439e-03  -2.16648474e-01   2.74444418e-03
   -2.40088068e-03  -2.38433992e-03  -2.25089886e-03  -1.10286346e-03
   -1.01018120e-02  -8.36131349e-03  -1.95524469e-03  -1.03802653e-03]
 [ -1.47649357e-02   3.61210620e-03   3.22903786e-03  -9.33962408e-03
    2.91109597e-03  -3.72348260e-03  -3.02051395e-01   5.16900036e-04
   -3.99534265e-03   6.05082430e-04  -3.62823205e-03  -6.14793506e-03
    1.18992232e-01  -6.70118025e-03  -7.17909774e-03  -1.41500998e-02]
 [ -7.88468751e-04   2.63813161e-03   2.04454013e-03  -1.18725467e-03
    2.49511329e-03  -1.78571162e-03  -2.16040805e-01   2.60593463e-03
   -2.24232743e-03  -2.29982543e-03  -2.14286568e-03  -1.06139656e-03
   -9.31254961e-03  -9.67818592e-03  -1.87133322e-03  -1.01073342e-03]
 [ -9.10762639e-04   2.62431661e-03   2.08367594e-03  -1.17164000e-03
    2.48894049e-03  -1.78981270e-03  -2.16441199e-01   2.59670522e-03
   -2.23746942e-03  -2.28897016e-03  -2.17533531e-03  -1.10296113e-03
   -9.63986013e-03  -9.36289225e-03  -1.79365929e-03  -9.96632501e-04]
 [ -9.53584095e-04   2.70224828e-03   2.12861481e-03  -1.20273873e-03
    2.53370265e-03  -1.88847247e-03  -2.18588144e-01   2.67373328e-03
   -2.30322988e-03  -2.37222738e-03  -2.16043810e-03  -1.09773607e-03
   -9.96073056e-03  -9.57628433e-03  -1.82472484e-03  -9.87860491e-04]
 [ -6.89438451e-03  -1.18129747e-03   3.84083483e-03  -8.51463433e-03
    1.69962563e-03  -6.03909697e-03  -2.99233586e-01   3.70569061e-03
   -3.25204572e-03  -8.35356023e-03  -4.84148413e-03  -1.23193618e-02
   -8.46311357e-03   1.09299466e-01  -5.07109519e-03  -5.09062782e-03]
 [ -1.00357551e-03   2.84736464e-03   2.25754990e-03  -1.28330477e-03
    2.71831080e-03  -2.01821211e-03  -2.17642039e-01   2.84132198e-03
   -2.44256156e-03  -2.46052537e-03  -2.31594779e-03  -1.12091820e-03
   -9.75170732e-03  -9.37184971e-03  -1.98213244e-03  -1.07209687e-03]
 [ -8.38595151e-04   2.62865121e-03   2.15507578e-03  -1.31805404e-03
    2.53159669e-03  -1.89076434e-03  -2.15714484e-01   2.60707107e-03
   -2.30204454e-03  -2.40150630e-03  -2.17821263e-03  -1.19969854e-03
   -1.02445697e-02  -9.06263944e-03  -1.89957605e-03  -1.04268442e-03]
 [ -8.95712001e-04   2.72279349e-03   2.16493756e-03  -1.24896166e-03
    2.57504056e-03  -1.91440550e-03  -2.16577113e-01   2.68271822e-03
   -2.33113556e-03  -2.34117848e-03  -2.20262562e-03  -1.02913193e-03
   -9.78038367e-03  -8.81160982e-03  -1.87683082e-03  -1.00883946e-03]
 [ -9.12493269e-04   2.71175010e-03   2.09199870e-03  -1.18839322e-03
    2.56518973e-03  -1.79034041e-03  -2.14551434e-01   2.67508184e-03
   -2.29857233e-03  -2.35664682e-03  -2.19638855e-03  -1.08153280e-03
   -9.85681266e-03  -9.03702620e-03  -1.90572557e-03  -9.58210672e-04]
 [ -9.00589570e-04   2.70798896e-03   2.13688309e-03  -1.27229234e-03
    2.60917516e-03  -1.92457403e-03  -2.16580361e-01   2.69546034e-03
   -2.36841151e-03  -2.40805210e-03  -2.20591831e-03  -1.11055956e-03
   -9.99916997e-03  -8.82551912e-03  -1.91857014e-03  -1.03293185e-03]
 [ -1.88237476e+00   2.73747492e+00   2.79687309e+00  -2.89498949e+00
    2.93369603e+00  -1.29310095e+00   2.63203406e+00   2.71788955e+00
   -2.95754695e+00  -2.97356510e+00  -2.65852094e+00  -2.90171218e+00
   -7.70003647e-02  -1.03689834e-01  -2.40646815e+00  -2.64768720e+00]
 [ -2.00071716e+00   2.79045916e+00   3.01086950e+00  -2.83796382e+00
    2.97651076e+00  -1.78309247e-01   2.70140338e+00   2.74502540e+00
   -2.69341993e+00  -2.98565769e+00  -2.81476259e+00  -2.94168901e+00
   -8.60593989e-02  -8.76929983e-02  -2.47760272e+00  -3.02324057e+00]
 [ -2.53154087e+00   2.00040460e+00   1.50678957e+00  -1.58872378e+00
    1.81688476e+00  -5.01716673e-01   2.21925259e+00   1.80447686e+00
   -1.43554044e+00  -1.81656885e+00  -2.25671339e+00  -1.63806462e+00
   -1.19286396e-01  -1.18513525e-01  -2.18605828e+00  -1.96541405e+00]
 [ -2.54714274e+00   2.09701061e+00   1.90202487e+00  -1.89097714e+00
    1.36118770e+00   3.89622455e-03   2.47449231e+00   1.86442649e+00
   -1.96248615e+00  -1.48444486e+00  -1.60751951e+00  -1.90608740e+00
   -2.02600852e-01   5.65285861e-01  -2.37714410e+00  -1.76044500e+00]
 [ -1.65154266e+00   1.88747227e+00   2.26755834e+00  -1.91476464e+00
    2.18898749e+00  -3.82360518e-02   2.34547639e+00   1.89106631e+00
   -2.13943648e+00  -2.15356255e+00  -2.03667235e+00  -2.17730093e+00
   -3.69539335e-02   8.21736455e-02  -2.13800979e+00  -1.91770589e+00]
 [ -2.43800831e+00   1.88898432e+00   2.02455163e+00  -1.69595182e+00
    1.69307613e+00   5.24417637e-03   1.82931888e+00   2.06927991e+00
   -1.78622007e+00  -1.63101292e+00  -1.87874079e+00  -1.59884739e+00
    1.82595894e-01   4.07839268e-01  -1.94748545e+00  -1.65011811e+00]
 [ -1.49649239e+00   3.92077893e-01   3.85342211e-01  -3.72592062e-01
    3.95110339e-01  -1.83065385e-02   3.72956812e-01   3.90750736e-01
   -3.91340435e-01  -3.87156993e-01  -3.87572795e-01  -3.85545075e-01
   -9.83804557e-03  -1.17322411e-02  -3.94616306e-01  -3.88871759e-01]
 [ -1.91009855e+00   2.09063387e+00   2.01435471e+00  -2.32703066e+00
    1.95045912e+00   6.34932995e-01   1.83318424e+00   1.89391398e+00
   -2.14726543e+00  -1.76372981e+00  -1.76961851e+00  -1.93377781e+00
    2.75778547e-02   1.77596927e-01  -1.95252705e+00  -1.83360887e+00]
 [ -1.92925060e+00   1.58846831e+00   1.56975746e+00  -1.54334378e+00
    1.87097573e+00  -4.20651771e-03   1.88542902e+00   1.99412251e+00
   -1.86988342e+00  -2.03556252e+00  -1.76839328e+00  -1.91373813e+00
    1.30453616e-01   5.59972338e-02  -1.82051301e+00  -1.82905746e+00]
 [ -2.27936149e+00   2.15537000e+00   1.85517395e+00  -2.13706183e+00
    1.91704953e+00   2.27626383e-01   2.02283406e+00   1.84957731e+00
   -1.91014433e+00  -1.75141418e+00  -2.28511596e+00  -1.76824009e+00
    1.21068478e-01  -1.26131251e-01  -1.95556927e+00  -1.98329067e+00]
 [ -1.23011875e+00   2.00265908e+00   2.13778257e+00  -2.17255259e+00
    1.91312337e+00   1.03756845e+00   1.55809379e+00   2.13911319e+00
   -1.85699165e+00  -2.35899901e+00  -2.09310555e+00  -2.29502249e+00
   -1.13744162e-01  -2.78144628e-01  -1.96092248e+00  -2.07349038e+00]
 [ -1.85271060e+00   1.95024061e+00   1.68369079e+00  -2.06848764e+00
    1.87476254e+00   6.32639229e-02   2.26949382e+00   1.96533918e+00
   -1.97376478e+00  -2.12655330e+00  -2.26372242e+00  -1.90538323e+00
   -2.77490377e-01   8.20761472e-02  -2.20299387e+00  -2.17060256e+00]
 [ -1.70510423e+00   1.58665228e+00   1.92048645e+00  -2.16707826e+00
    2.22158980e+00   1.23411500e+00   1.69056809e+00   2.06025386e+00
   -2.29638267e+00  -1.71259785e+00  -1.75521064e+00  -2.26334238e+00
    1.95958875e-02  -2.36603543e-01  -1.79028428e+00  -1.99833119e+00]
 [ -2.29252768e+00   2.08297658e+00   2.04269648e+00  -1.73813379e+00
    1.72863293e+00  -1.11477089e+00   1.78077173e+00   2.01822162e+00
   -1.64244509e+00  -1.88928854e+00  -1.97561109e+00  -1.72096264e+00
    1.20359607e-01  -1.74299944e-02  -2.26299214e+00  -1.97293174e+00]
 [ -1.79612303e+00   1.99804032e+00   1.76909339e+00  -1.90629435e+00
    2.18812966e+00   4.77165490e-01   1.94323027e+00   2.12968969e+00
   -2.10217810e+00  -2.13454437e+00  -1.97069883e+00  -1.83708799e+00
    1.28444910e-01   3.40868592e-01  -2.27964234e+00  -2.00048733e+00]
 [ -1.93550444e+00   2.04242468e+00   2.16380787e+00  -2.03868747e+00
    1.87973762e+00   2.47703552e-01   1.87509716e+00   1.94778168e+00
   -2.07156825e+00  -1.61236846e+00  -1.94995701e+00  -1.92541480e+00
   -9.80426371e-02   4.23949361e-01  -2.01872897e+00  -2.09950900e+00]]
Eve
[[-2.86001706 -2.00127316 -2.88412642 -3.20232105  3.23525453 -2.94204235
  -3.13987827 -3.30110788  2.18879414  3.5820899   3.21343207  3.02390385
  -3.40625477  3.51123023 -3.19596934  3.58147597]
 [-1.99968255 -3.39220572 -3.6469655  -3.30427599  3.19238138 -2.61902118
  -3.51257396 -3.06957865  2.29590034  3.17422199  3.36730456  3.43494248
  -3.27553654  3.05503011 -3.45674372  3.03253818]
 [-2.61945033 -1.53887379 -3.43957257 -3.31160688  2.82947922 -2.66091037
  -3.42643952 -3.53858709  1.57994688  3.16410303  3.09693646  3.35246921
  -3.11440563  3.35097623 -3.26371574  2.92119813]
 [-1.76620328 -1.59477866 -2.74454379 -3.03522801  3.12804937 -2.62239861
  -2.70101523 -3.31596971  1.89250267  3.06578135  3.01755691  3.3082459
  -2.96577764  3.28462839 -2.84061098  3.07269692]
 [ 1.04823768 -2.50152016 -2.89550161 -3.36497164  2.92888737 -2.8416512
  -3.30588245 -3.16448522  2.13547325  3.1269145   3.3483386   2.86386871
  -3.1499145   2.99297976 -3.34563565  3.07762456]
 [-0.76796019 -1.99374342 -3.09498239 -2.65919876  3.36384654 -2.67298245
  -3.04487133 -2.81326866  1.91065264  3.30228519  3.09208989  3.31579614
  -2.97717428  2.82624197 -3.1289103   3.12957788]
 [-0.17896587 -0.02247354 -2.99816132 -3.08444858  3.72583389 -2.74273777
  -0.86862594 -3.1155684   0.05877898  3.07234502  3.05092144  3.08021283
  -3.03186202  3.05457997 -3.07259822  3.07137728]
 [ 1.02168357 -1.96527207 -2.91479969 -3.04276681  3.22014308 -2.76514554
  -2.78334284 -3.28306913  1.91125095  3.16620874  3.02016497  2.88951802
  -3.04866791  3.08177805 -2.89652514  3.00848794]
 [-0.23170884 -1.97820413 -3.21275687 -2.56373215  3.01122975 -2.58723521
  -3.09064484 -3.21958971  1.91381669  3.00173616  2.95781612  3.29723454
  -2.78572106  2.711092   -2.96713829  3.14154053]
 [ 0.53141141 -1.92407942 -3.21172476 -3.1555593   3.08940864 -2.78922701
  -3.01004934 -3.30417967  2.27097178  3.23600435  3.05830312  2.79984283
  -3.24807382  3.25506973 -3.17482257  3.04602909]
 [ 1.66887486 -2.46820068 -3.32095671 -3.14893031  2.73545837 -2.87923622
  -3.25366616 -3.09477711  2.09018731  2.88312507  3.21926284  2.99459171
  -3.16791773  3.02686858 -2.8926115   3.23423862]
 [ 0.44403586 -2.18880534 -3.21924996 -2.78353643  3.00889635 -2.56525612
  -3.24744415 -3.4161396   1.9352448   2.83588266  3.03022599  3.22441387
  -3.28041315  2.79689431 -2.96996927  3.00289655]
 [ 1.1960448  -2.38971758 -3.28747106 -3.01153231  2.95574307 -2.75118732
  -3.09684706 -2.92490911  2.39262509  2.93986988  3.22972941  3.11874843
  -2.82190156  3.17342734 -3.31341004  2.9928019 ]
 [-2.18611336 -1.63657379 -3.28367257 -2.97009325  3.03235841 -2.82405877
  -3.00338125 -2.9288888   1.88434362  3.17341566  3.00278735  3.42501736
  -3.06707263  3.06040478 -2.97630143  3.26839471]
 [ 0.74538624 -2.14961982 -2.84976912 -2.81322932  3.00730324 -2.71101594
  -3.27842927 -3.33975005  1.79720128  2.76323867  3.24086976  3.00451016
  -3.31284857  3.148      -2.78625774  3.13779259]
 [ 1.07406723 -2.27087307 -3.21982646 -2.89946532  3.13606644 -2.84447336
  -2.95201325 -3.12613368  2.21412635  2.95274782  2.66984296  3.14655471
  -2.6700809   2.72206593 -2.77813411  3.34472227]
 [-2.44920468 -2.28743482 -2.90461874 -3.20961118  3.09439516 -2.50777125
  -2.93743443 -3.34851837 -1.50023055  2.6842289   2.77016497  3.38454986
  -3.07015562  2.89041805 -3.29223394  3.02861452]
 [-2.35733056 -1.99413157 -2.76681256 -2.97799182  3.06133318 -2.81405497
  -3.13890147 -3.30963778  1.03255355  3.10881305  3.07635283  3.319978
  -3.22248483  3.06377625 -2.93542814  3.25595403]
 [-1.94509637 -1.91314566 -3.24630594 -3.13301873  3.28890419 -2.63885903
  -3.18952918 -3.50535798  0.43686089  3.25832057  3.10824537  3.48813868
  -3.30978537  3.43543124 -3.0839467   3.23692131]
 [-2.29274178 -2.30341887 -2.69958854 -2.95129824  3.09669971 -2.66447663
  -2.73030663 -3.37396049 -0.87513387  2.84162569  3.27449417  2.93739915
  -2.84126711  3.2104454  -2.70712376  3.28682613]
 [-2.26856351 -2.05582404 -2.9812808  -3.2334981   2.64400363 -2.77709579
  -3.15157628 -3.41502762  1.62499452  3.1164484   3.13706994  2.76593494
  -3.0404911   2.8473866  -3.23487639  2.94533634]
 [-2.21998429 -2.2870779  -2.83656669 -3.28854966  2.85532737 -2.57825208
  -2.91351628 -2.72334027  0.70695394  3.34993482  2.7067492   3.33072853
  -3.10181069  3.24441171 -2.81920099  3.32445741]
 [-0.04749294 -0.02490412 -3.10467148 -3.04634809  0.7368297  -2.7364769
  -3.84979987 -2.97692728  0.08535217  3.0480237   3.04493427  3.031142
  -3.06788421  3.06011295 -3.04568505  3.04533863]
 [-2.18819976 -1.7185359  -2.95291162 -2.80352855  3.00609708 -2.64781952
  -3.25339651 -2.80794382  2.07278943  2.78970003  3.14584851  3.11322713
  -3.20036268  2.85074139 -2.90799856  3.02031064]
 [-2.50829101 -2.25795078 -2.87119961 -3.27545738  3.3706696  -2.59100151
  -2.97093201 -2.99081874  0.85581076  3.03700972  2.89258862  2.83378363
  -3.42746019  3.17121553 -3.33341813  2.77003193]
 [-2.46807814 -1.74351394 -2.85374928 -2.88471842  2.79167891 -2.51654959
  -3.31032181 -3.28087807  2.22654152  3.07379484  2.91751313  3.41455317
  -2.84843779  2.81638408 -2.93214941  3.37966275]
 [-2.01603246 -2.1845634  -2.97405815 -2.72289014  2.8023994  -2.63115549
  -2.8324337  -3.08848858  1.0717535   2.89728284  3.11724424  2.74588227
  -2.91760325  3.23601055 -2.81624365  3.26409864]
 [-2.42405915 -2.40713477 -2.74085927 -3.2295332   3.15448761 -2.88270378
  -2.84662676 -3.26613951 -0.30636096  3.32135081  2.85912943  2.96690869
  -3.09663343  3.06647468 -2.92567205  3.14348745]
 [-1.74563789 -2.08925843 -3.43241668 -3.25574636  2.95272779 -3.09638453
  -2.98278618 -3.07494211  3.0620997   3.45823193  3.5514009   3.63394356
  -3.01586199  3.04467106 -3.48639154  3.14020133]
 [-2.11357498 -3.17084742 -3.53512311 -3.11709666  3.09635139 -2.6586287
  -3.40215468 -3.63131618  2.59447455  3.37415218  3.64140034  3.4419229
  -3.47270679  3.67297506 -3.30043817  3.0240519 ]
 [-2.27320743 -2.48301482 -3.43733406 -2.99964547  3.25866222 -3.01210666
  -3.37060356 -3.34058094  0.29546824  3.19604778  3.34014964  3.06254482
  -3.19287348  3.17945933 -2.8161788   3.37438107]
 [-2.41115236 -2.49738216 -2.92166901 -3.15297055  3.0232954  -2.61464572
  -2.74988413 -2.91323137 -1.23278809  2.74153066  2.72829342  3.21579957
  -2.96276832  3.1640799  -3.31136608  2.68120384]]