Alice
[[ 0.4067201  -0.01020846  0.01009834 -0.01086163 -0.01017135  0.01153675
   0.01179783  0.01709568]
 [ 0.40671343 -0.01019618  0.01006669 -0.01080989 -0.01022216  0.01146109
   0.01175867  0.01700174]
 [ 0.40003088 -0.00850127  0.00841222 -0.0064606  -0.00466119  0.0097102
   0.00863985 -0.03704796]
 [ 0.39892471 -0.00854082  0.00842488 -0.00657651 -0.00479698  0.00973592
   0.00871367 -0.03725381]
 [ 0.39983332 -0.00849735  0.00837088 -0.00648462 -0.00461111  0.00967019
   0.00865194 -0.03715096]
 [ 0.25263354 -0.00603652  0.00754915 -0.00883855 -0.01718596  0.00511784
   0.00647514  0.00534376]
 [ 0.408351   -0.01033088  0.01018793 -0.01090741 -0.01036018  0.0115765
   0.01185166  0.01746312]
 [ 0.40663454 -0.01018008  0.01005872 -0.01081496 -0.01016504  0.01148038
   0.01172656  0.01786568]
 [ 3.15355968 -1.72455871  1.54827571 -1.90178013 -1.89883077  1.60532486
   1.19311285  0.35401869]
 [ 3.12161899 -1.51687551  1.63329542 -1.6054306  -1.45661831  1.5808692
   1.24791825  0.23260476]
 [-0.20828503 -0.70950329  0.71150118 -0.71086586 -0.71251023  0.70708466
   0.7068029  -0.01810643]
 [ 3.24284649 -1.18134189  1.17857885 -1.46168995 -1.33762479  2.00780988
   1.6415174  -0.03607586]
 [ 3.28174186 -1.7596103   1.34573281 -1.59987891 -1.68143749  1.23208535
   2.09520507  0.24542552]
 [ 3.43922448 -1.81830812  1.85315454 -1.82163417 -1.30918086  1.93199027
   1.84477043 -0.27140999]
 [ 3.44096661 -1.86190128  2.12915373 -1.5396868  -1.97538424  1.82237649
   1.62274384  0.00437964]
 [ 2.9344666  -1.60905123  1.661677   -1.53616285 -1.84025443  1.15872943
   1.88750422 -0.18919306]]
Bob
[[-0.01307911 -0.01257207 -0.36765099 -0.01226301 -0.00985512 -0.01461971
   0.0138864  -0.01316769]
 [-0.01316388 -0.01266607 -0.36990982 -0.01235828 -0.00993779 -0.01467369
   0.01388999 -0.01327915]
 [-0.01313252 -0.01257986 -0.37002429 -0.01221204 -0.00979196 -0.01471855
   0.01399264 -0.01327865]
 [-0.01324805 -0.01264832 -0.37022483 -0.01231516 -0.00991833 -0.01484001
   0.01408488 -0.01342867]
 [-0.01308689 -0.01253255 -0.36800566 -0.01211657 -0.01005867 -0.01453301
   0.01387364 -0.01313624]
 [-0.01312611 -0.01259224 -0.36908466 -0.01227469 -0.00989538 -0.01464255
   0.01391008 -0.01317044]
 [-0.01323261 -0.01256881 -0.37086314 -0.01220723 -0.00989012 -0.01473396
   0.01398184 -0.01335068]
 [-0.0131577  -0.01269806 -0.36866    -0.01240023 -0.00995869 -0.01462736
   0.01383585 -0.01320445]
 [-0.59517354 -0.59786814  1.23270142 -0.5963605   0.01844118 -0.58868372
   0.59206194 -0.59419388]
 [-2.18187714 -2.60234857  1.4652034  -2.21741891  0.48724675 -2.44985628
   2.01435852 -2.78607416]
 [-2.28983974 -2.49224019  1.32140672 -1.9099977   0.71908706 -1.84971094
   2.45038533 -2.5366087 ]
 [-2.18275738 -2.26922894  1.23736668 -2.80687189 -0.5821805  -2.5891943
   2.59445453 -2.16891456]
 [-2.57602906 -2.66649723  0.89266253 -2.74308252 -0.01164941 -2.48011112
   2.66652489 -2.21718454]
 [-2.64089346 -2.5821557   1.48102415 -2.14531851  0.17917748 -2.60415983
   2.20781589 -2.25826192]
 [-2.617275   -2.04039884  1.47585595 -2.74331641 -0.3006902  -2.39600801
   2.51847124 -2.58449841]
 [-2.2529664  -2.1851728   0.45708746 -2.32111812  1.11559701 -2.29170394
   2.30107737 -2.22749329]]
Eve
[[-0.07515639 -2.24857116 -2.25650835 -2.25481391 -2.25323868 -2.25413728
   2.24657941 -0.03746082]
 [ 3.10651517 -3.11404514 -3.51578236 -3.76211381 -3.47428417 -3.07755303
   3.10259724 -1.54472315]
 [ 3.07458758 -2.98602986 -3.35067511 -3.15310955 -2.85134625 -3.53185868
   3.25859022 -1.55088258]
 [ 2.88089013 -3.46800709 -3.39326143 -3.45382595 -3.21486163 -3.43620443
   2.78291941  0.22836633]
 [ 3.22355199 -3.40163493 -3.08191609 -3.3580761  -3.41081619 -2.8944869
   3.61230135 -0.63311291]
 [ 3.31022596 -2.6983943  -3.05598664 -3.58174467 -2.914608   -2.79398084
   2.89071631 -1.19584405]
 [ 2.78328133 -2.73985839 -3.0301497  -2.99580956 -3.38874745 -2.89709735
   3.34255743 -0.99342978]
 [ 3.15882325 -3.11307502 -2.61181211 -2.91150641 -3.14209652 -3.25158739
   2.89537024 -3.25892329]
 [ 3.49361825 -3.40150213 -3.54968953 -3.3824234  -2.98101783 -2.88624811
   3.29720616 -0.07051934]
 [ 2.77920437 -3.3295095  -3.53156018 -3.32630253 -3.32879519 -3.8127861
   2.94482279  0.18749945]
 [ 1.4028213  -2.40515471 -2.40511608 -2.39599299 -2.3983674  -2.40735173
   2.39352226 -0.06036715]
 [ 3.4678688  -3.3846364  -3.43397713 -3.83115458 -3.36968231 -3.62902904
   3.25711322 -0.35743535]
 [ 2.92681646 -3.53402996 -3.28728724 -3.36778522 -3.65967011 -3.63868833
   3.51759195 -0.19126159]
 [ 3.20028877 -2.96983218 -3.02227259 -2.79563522 -3.27412415 -3.09716392
   3.7069006  -0.14727661]
 [ 3.59101939 -3.41216874 -3.11546993 -3.38515282 -3.37746429 -2.8494153
   3.76190972 -0.2706179 ]
 [ 2.82203412 -3.37583089 -2.75286007 -2.99031568 -3.03022766 -3.21713042
   3.47390223 -0.19715729]]