Alice
[[  2.65559644e-01  -1.74268618e-01  -2.73036752e-02  -8.43856931e-01]
 [ -5.21653414e-01  -1.62165128e-02   7.34525561e-01  -6.85149908e-01]
 [  2.65563458e-01  -1.74266949e-01  -2.72848550e-02  -8.43854249e-01]
 [  2.65566796e-01  -1.74272701e-01  -2.72780489e-02  -8.43834519e-01]
 [  3.05713547e-05   3.81680320e-06  -4.90689945e-06   2.17866764e-05]
 [  3.31037445e-05  -2.49253644e-05  -2.01981493e-06  -6.57495093e-06]
 [  3.16737305e-06   2.95472591e-06  -3.51295566e-05   1.81850228e-05]
 [  1.63892419e-05  -1.69517807e-06  -9.95135724e-06   3.38902828e-05]
 [  5.77137098e-02  -1.01488602e+00  -4.51173224e-02   1.66004021e-02]
 [  3.69030191e-03  -8.56679857e-01  -2.30949651e-03  -4.81968105e-04]
 [ -1.39184999e+00  -1.75096405e+00  -1.72002599e-01  -7.94376731e-01]
 [ -9.59395945e-01  -1.20303261e+00   1.32087648e+00  -6.10992849e-01]]
Bob
[[  8.44375789e-01  -5.15782058e-01   1.69565126e-01   6.36803284e-02]
 [  6.75515592e-01  -1.01037037e+00   1.82407886e-01   2.09525943e-01]
 [  8.44376564e-01  -5.15770555e-01   1.69563606e-01   6.36704043e-02]
 [  8.44412625e-01  -5.15829265e-01   1.69562295e-01   6.36717752e-02]
 [ -3.59275946e-05   1.10115179e-05   2.06131372e-05   1.58325588e-06]
 [ -7.83510040e-05   3.03121055e-06   2.03098698e-05  -1.13976012e-06]
 [ -2.97871993e-05   1.37527823e-05   8.72835244e-06  -3.79104358e-06]
 [ -6.35997421e-05  -1.50913074e-05   1.85469144e-05  -2.85419719e-06]
 [ -6.07949197e-02  -1.61143506e+00  -1.62310839e-01  -1.41354457e-01]
 [  7.94579804e-01  -1.64797530e-01  -7.85931766e-01  -2.02974826e-01]
 [  5.14261305e-01   6.20863497e-01   1.15786898e+00   1.11986315e+00]
 [  2.71037556e-02  -1.05599141e+00  -2.31910404e-03  -1.14813130e-02]]
Eve
[[-0.08948514  1.64884293 -0.00500602  0.04826273]
 [ 1.42513204  0.59662932  1.43984067 -0.03481722]
 [-0.08949029  1.64880598 -0.00498263  0.04815602]
 [-0.08951861  1.6489234  -0.00496643  0.0468897 ]
 [-0.16500686  2.05955029  0.03680614 -0.93012875]
 [-0.96449506  0.64837545 -0.68063748  1.13629556]
 [ 1.45618832  1.20079041  1.60533917  0.39863917]
 [ 0.01018722  1.63251913  0.04929264  1.78194547]
 [-0.13342729  1.46011686 -0.13738103  1.94232595]
 [ 0.22900249  1.50335467  0.04279662 -0.56470007]
 [ 1.56608999  0.84085733  0.82015026  1.56823397]
 [ 1.14986026  0.67870408  1.27109706  0.64047933]]