Alice
[[  1.05570313e-02   1.65960304e-02   1.09610315e-02   3.80882784e-03
   -5.36306622e-03  -8.13183188e-03   2.99214963e-02  -4.48004575e-03]
 [  4.98283142e-03   3.98651063e-01   4.64670127e-03   6.24365628e-01
   -5.83404349e-03  -3.60741909e-03  -1.47888856e-02  -4.75306995e-03]
 [  4.98014642e-03   3.98227066e-01   4.84196516e-03   6.23456180e-01
   -5.94060821e-03  -3.61245498e-03  -1.51429372e-02  -4.69821505e-03]
 [  4.61028609e-03   3.97900194e-01   4.45069559e-03   6.24231100e-01
   -5.51062915e-03  -3.26669635e-03  -1.47491572e-02  -4.39205533e-03]
 [  4.87172836e-03   3.99078697e-01   4.61209891e-03   6.23852491e-01
   -5.75163215e-03  -3.54218832e-03  -1.48970298e-02  -4.58469102e-03]
 [  4.83083399e-03   3.98762971e-01   4.54862416e-03   6.23810947e-01
   -5.68740023e-03  -3.51052708e-03  -1.49355279e-02  -4.61853389e-03]
 [  4.86293528e-03   3.98363203e-01   4.50290414e-03   6.23993397e-01
   -5.76454122e-03  -3.54191591e-03  -1.48517070e-02  -4.68565896e-03]
 [  5.10881795e-03   3.98739249e-01   4.77542728e-03   6.24181211e-01
   -5.95558342e-03  -3.72913666e-03  -1.49370367e-02  -4.85812966e-03]
 [  6.36910439e-01   2.12016748e-04   6.28385067e-01   6.98816543e-03
   -6.44749522e-01  -6.42978847e-01  -6.78875566e-01  -6.46579444e-01]
 [  2.52066970e+00  -1.25300661e-01   2.62908411e+00  -1.42510438e+00
   -2.64158630e+00  -2.76595235e+00  -2.96597481e+00  -2.70911908e+00]
 [  2.37980437e+00   6.17857397e-01   1.71775043e+00  -2.44598198e+00
   -1.03835475e+00  -1.26580012e+00  -9.27997589e-01  -2.02940440e+00]
 [  2.21245527e+00  -8.16202781e-04   2.34397840e+00  -2.28516769e+00
   -2.38542008e+00  -2.33971214e+00  -2.10215235e+00  -2.20808029e+00]
 [  1.12683940e+00   1.19470425e-01   1.59850276e+00  -1.92441738e+00
   -1.76913190e+00  -1.63353240e+00  -1.53291261e+00  -1.17553997e+00]
 [  2.62028813e+00   6.77682683e-02   2.91915703e+00  -5.93825638e-01
   -2.99091315e+00  -2.73993158e+00  -3.04764771e+00  -2.42534447e+00]
 [  2.76805139e+00  -6.34153605e-01   2.90881348e+00  -1.29925287e+00
   -2.69186544e+00  -3.17650366e+00  -2.67121673e+00  -2.59079790e+00]
 [  1.56426358e+00  -6.72251523e-01   6.12805843e-01  -2.26417470e+00
   -4.38760161e-01  -7.98069119e-01  -9.64011908e-01  -1.85735238e+00]]
Bob
[[  6.53071523e-01   3.52133811e-02   9.92381014e-03  -2.76359208e-02
    1.20415278e-02  -3.66415121e-02  -2.04961444e-03   2.80372077e-03]
 [ -6.27786994e-01  -6.27347603e-02  -2.95191929e-02  -1.84338212e-01
    1.69604160e-02   6.32766336e-02  -1.98976928e-03  -2.85684261e-02]
 [  1.39004037e-01  -7.05389213e-03  -5.51478239e-03   5.34746833e-02
    4.41832561e-03   7.20818434e-03  -6.51767105e-03  -9.42931511e-03]
 [  6.52039528e-01   3.50179374e-02   9.82209668e-03  -2.76787374e-02
    1.21007320e-02  -3.64791639e-02  -2.23585498e-03   2.64069950e-03]
 [  1.39028654e-01  -6.82215672e-03  -5.52499713e-03   5.29656820e-02
    4.24347771e-03   6.91369316e-03  -5.79815032e-03  -8.93099513e-03]
 [  1.19208775e-01  -7.55552202e-03  -1.98261607e-02   5.53674102e-02
    9.82022844e-03   8.57417285e-03   2.49778442e-02   1.34754775e-03]
 [  1.39074937e-01  -6.87697576e-03  -5.56809362e-03   5.37881516e-02
    4.47316468e-03   7.04204990e-03  -6.53512869e-03  -9.37312841e-03]
 [  1.38438836e-01  -6.67630881e-03  -5.45738032e-03   5.32825515e-02
    4.35585156e-03   6.69614086e-03  -6.21033227e-03  -8.98058992e-03]
 [ -8.33266675e-01  -1.63562322e+00  -1.75837529e+00   2.70487022e+00
    1.51450849e+00   2.12409735e+00  -1.70557685e-02  -1.70849490e+00]
 [ -1.12392187e+00  -7.04164684e-01  -6.90460622e-01   6.92970514e-01
    6.88846946e-01   7.00638473e-01  -1.00037301e+00  -6.92621171e-01]
 [ -9.49502826e-01  -2.18060493e+00  -1.98681903e+00   2.93679309e+00
    1.60919142e+00   2.36860847e+00   9.67392400e-02  -1.81342566e+00]
 [ -1.07753241e+00  -5.47291577e-01  -5.42669237e-01   4.52854872e-01
    5.51852584e-01   5.39401412e-01   2.17274507e-03  -5.49941182e-01]
 [ -7.93854177e-01  -1.49779129e+00  -1.99270999e+00   2.91523910e+00
    1.38584125e+00   1.90347135e+00   3.22644085e-01  -1.77862334e+00]
 [ -3.10792863e-01  -1.87843430e+00  -1.86747479e+00   2.43779016e+00
    1.84226704e+00   1.48806155e+00   2.18810793e-02  -1.88819754e+00]
 [ -2.44649589e-01  -2.27411747e+00  -2.04610991e+00   3.17009592e+00
    1.94284964e+00   2.27798653e+00  -4.38235933e-03  -1.99809492e+00]
 [ -1.60188362e-01  -2.02860713e+00  -1.45539725e+00   2.79966927e+00
    2.06982780e+00   1.57221198e+00  -6.68934703e-01  -1.43980098e+00]]
Eve
[[-3.10913253  2.51731873 -3.01397562  2.74129701 -2.56545997 -3.2247231
   3.30916977  2.8597362 ]
 [-2.18359327  2.61897588 -2.18068862  2.98269773 -2.03859663 -2.0529151
   2.0941329   2.04627419]
 [-2.62627172  2.58065319 -3.27455235  3.05050397 -3.2469945  -2.37450886
   2.37844062  2.46856213]
 [-2.10428238  0.19474363 -2.05929804  2.57179618 -1.93212867 -1.93936729
   1.99224675  1.94925356]
 [-2.55712199  2.70186424 -2.94483948  2.17603922 -2.52464342 -3.0365262
   3.08744931  2.50145817]
 [-3.07683277  2.81403661 -2.57562017  2.96337533 -2.74324012 -2.85882735
   2.81419992  3.3042376 ]
 [-2.89831567  2.40394521 -2.87366199  3.00923944 -3.0483675  -3.37482333
   3.36785841  3.13303375]
 [-2.77104759  2.44525957 -2.6373105   2.8058126  -3.36944818 -3.12381935
   3.3793807   3.30275822]
 [-0.75558877  0.15116343 -0.77838892 -2.13290524 -1.46693003 -1.45132673
   1.37103856  1.48082292]
 [-3.09112024  3.07935643 -3.43576717  2.18060231 -3.0875423  -2.86122465
   3.25856423  3.50596189]
 [-2.96165657  2.29199028 -3.01293182  3.03720474 -2.87390924 -2.86062217
   3.05791068  3.29462624]
 [-2.77562094  0.90187711 -3.25209808  0.9543339  -3.46735525 -3.589077
   3.45713902  3.27576256]
 [-2.60028815  2.81937814 -2.94099164  2.29077959 -2.68685746 -3.13384914
   3.42349434  2.90799189]
 [-3.04771543  2.49632645 -3.44620299  2.16970539 -3.41304731 -2.90852642
   2.82824159  3.19569731]
 [-2.56086421  2.73348927 -2.341429    1.45366001 -2.65720057 -2.43691134
   2.3404932   2.23847771]
 [-3.44774008  2.83022022 -2.78804612  2.98033571 -2.87985945 -2.6706202
   2.99012351  3.13244247]]