Alice
[[  5.31264395e-02  -5.27455926e-01  -1.00010931e+00   9.56480026e-01]
 [ -1.94352015e-05   1.23413975e-05  -9.99971092e-01   6.64596882e-05]
 [ -1.05326891e+00   1.30799817e-04   2.94761085e-05  -1.10651876e-04]
 [ -6.11919822e-05   3.21666506e-04   1.31192537e-05  -3.98526754e-06]
 [ -1.37357356e-05   2.27466771e-05   1.00000155e+00   9.08959191e-05]
 [ -8.51606728e-07  -1.08859849e-05  -9.99980211e-01   6.28395719e-05]
 [ -2.75509137e-06  -2.98214836e-05   5.72640147e-06   1.45698097e-04]
 [ -3.88544322e-07   1.55114321e-08   2.75491111e-05   9.12253599e-05]
 [  1.66543294e-02  -2.17534825e-02  -1.31356483e-03   1.02384754e-01]
 [  1.94025040e-01   5.58104180e-03  -7.80834973e-01   5.15460610e-01]
 [  7.77709126e-01   2.88668238e-02  -8.11406195e-01   4.59023789e-02]
 [  6.35330915e-01  -1.12082422e+00  -1.61713511e-01  -3.37843329e-01]]
Bob
[[ -5.16390264e-01   1.49898738e-01   3.91054660e-01   4.03082490e-01]
 [ -7.41894916e-03   1.82132667e-03   8.20880570e-03   8.13703518e-04]
 [  8.01345706e-02   4.85346057e-02   1.90701723e-01   2.85605937e-02]
 [  2.01273233e-01  -5.01747541e-02  -2.25863740e-01  -1.97073463e-02]
 [ -3.84970531e-02   9.49037448e-03   4.30452861e-02   3.96112958e-03]
 [ -1.46567628e-01   3.65287997e-02   1.64489910e-01   1.44104837e-02]
 [ -3.11854556e-02   7.69475847e-03   3.48936170e-02   3.18339327e-03]
 [ -1.49443716e-01   3.72447036e-02   1.67712614e-01   1.46741010e-02]
 [  8.43517423e-01  -3.45167220e-02   6.83317846e-03  -4.46148263e-03]
 [ -2.66408741e-01  -2.50193119e-01   1.51852384e-01   1.09517562e+00]
 [ -1.88362969e-06  -4.84677657e-05  -1.00003111e+00   4.30981891e-06]
 [ -4.07654345e-02   9.95496035e-01   3.01824864e-02  -2.14576186e-03]]
Eve
[[ 0.33601242 -1.7863282   0.22201046 -0.21828978]
 [ 0.07926834 -0.01140039 -0.10914055  0.01162676]
 [-1.40900636 -0.16028397 -0.19253598  0.35891426]
 [ 0.10960517 -0.01558251 -0.14586867  0.03588128]
 [-1.69394875  0.127334   -0.15759331 -0.36157462]
 [ 0.75902134 -1.46151721 -0.24073873  0.5051378 ]
 [ 0.0853177  -0.01054574 -2.86105442  0.01287253]
 [ 0.23065382 -0.05379696 -0.1603305   2.82261777]
 [ 0.51642734 -0.01228929 -0.89140046  0.21618135]
 [-0.40395194  0.92689282 -0.34339383 -0.53010482]
 [ 2.05273747 -0.26609081 -2.24012256  0.48709416]
 [-0.18341602 -1.03240061 -0.31496668 -0.31997648]]