Alice
[[ -1.10990667e+00   1.04086502e-02  -2.03934615e-03   9.58230495e-02
    6.67689601e-05  -2.03227624e-01   1.01572372e-01   1.01630539e-02]
 [  1.64656937e-02  -1.28168948e-02   1.27077088e-01   9.55421627e-02
    3.73270814e-05  -2.80285478e-01   1.40143901e-01  -4.03347313e-02]
 [  1.79537907e-02  -1.29757598e-02   1.41264305e-01   9.54655483e-02
    5.59966356e-05  -2.76944697e-01   1.38488650e-01  -4.08745743e-02]
 [  1.88260507e-02  -1.30940909e-02   1.49763584e-01   9.54552963e-02
    7.13224726e-05  -2.75272161e-01   1.37644604e-01  -4.11354564e-02]
 [  1.12053817e-02  -1.25463484e-02  -1.92519021e+00   9.53050554e-02
   -1.65593563e-04  -2.75109202e-01   1.37581721e-01  -3.84681299e-02]
 [  1.57717876e-02  -1.29143232e-02   1.19612597e-01   9.53838378e-02
    1.04828541e-06  -2.77663499e-01   1.38850331e-01  -4.01850492e-02]
 [  2.28519551e-02  -1.33411121e-02   1.89381450e-01   9.60892215e-02
    2.88370618e-04  -2.76032388e-01   1.38040781e-01  -4.27305400e-02]
 [  2.02107988e-02   3.87753290e-03   2.00108811e-01  -9.51955497e-01
    5.91949932e-03  -2.65346646e-01   1.32700428e-01  -1.91854534e-03]
 [  1.09983312e-05  -3.65973363e-04  -6.46073488e-04  -4.94088781e-05
    1.19997349e-05  -1.90481499e-01   9.52630043e-02   7.05114599e-06]
 [  2.67193336e-05  -3.73688032e-04  -6.09834329e-04  -7.58283568e-05
    2.88108804e-05  -1.90909863e-01   9.54192728e-02  -4.52643835e-05]
 [  3.41767691e-06  -3.37488949e-04  -5.53437334e-04  -3.60581107e-05
    5.77663886e-05  -1.90416664e-01   9.51870158e-02  -1.61619737e-05]
 [  5.19430068e-06  -3.30321403e-04  -5.66983363e-04  -2.72105117e-05
    4.71185122e-05  -1.90596923e-01   9.52835977e-02   1.18985317e-05]
 [  1.10653182e-05  -3.29742063e-04  -5.25054114e-04  -1.46650164e-05
    4.46595550e-05  -1.90626398e-01   9.52844769e-02  -2.74892682e-06]
 [  1.75061305e-05  -3.99051612e-04  -6.11653086e-04  -4.19073513e-05
    3.43887950e-05  -1.91298693e-01   9.55789909e-02  -1.75905989e-05]
 [ -7.75713033e-07  -3.89909575e-04  -5.77878731e-04  -1.89738603e-05
   -9.40257360e-06  -1.90185934e-01   9.50782970e-02   1.09698685e-05]
 [  5.73250054e-06  -3.56213131e-04  -6.30358642e-04  -3.57493918e-05
    3.44545042e-05  -1.90639138e-01   9.53224227e-02   2.47975549e-06]
 [  2.59008795e-01  -1.30711019e+00   2.41217673e-01  -3.62258703e-02
   -2.60574743e-02  -1.56026781e-05   3.74841779e-01  -5.95412433e-01]
 [  3.46333861e-01  -4.31775689e-01   7.93568075e-01  -1.34293124e-01
    2.65131354e-01  -1.13570746e-02   7.98984766e-01  -7.33613849e-01]
 [  4.75194037e-01   1.13438152e-01   1.99121207e-01  -3.98466319e-01
   -2.96711773e-01   2.66889215e-01   6.64994657e-01  -1.21702909e+00]
 [  1.09789118e-01  -4.02622610e-01   4.63832021e-02  -4.45976585e-01
   -4.01890427e-02  -7.39218303e-05   2.55414784e-01  -5.29273927e-01]
 [ -3.00572306e-01  -3.17351997e-01   1.37582824e-01  -1.00181140e-01
    2.00223282e-01  -8.36515706e-03   2.06086487e-02  -1.38518608e+00]
 [  5.68265803e-02   3.06105226e-01   2.22293794e-01   4.74644154e-02
   -6.35793805e-01  -1.55725032e-01  -4.36566800e-01  -3.25033247e-01]
 [  1.13140965e+00   1.00968987e-01   4.10743415e-01   8.75422731e-02
   -7.30375946e-03   7.01430114e-03  -1.53610125e-01  -9.59598005e-01]
 [  5.17858803e-01  -5.24225473e-01   4.82495695e-01  -7.22684935e-02
   -5.16696647e-02   5.62849891e-05   7.50458658e-01  -1.19101322e+00]]
Bob
[[ -1.00183219e-01   9.90113057e-03  -5.39492890e-02   9.79865342e-02
    2.21199811e-01   7.40873963e-02   1.60628334e-01   5.01056351e-02]
 [ -2.80200124e-01  -3.48001309e-02  -1.24371676e-02   9.77488905e-02
    8.92366767e-02   1.58169512e-02  -4.06491570e-02   1.40107825e-01]
 [ -2.56342143e-01  -3.38810496e-02  -1.34188570e-02   9.76738557e-02
    8.86710286e-02   1.72550064e-02  -3.56962271e-02   1.28174692e-01]
 [ -2.52246559e-01  -3.37527841e-02  -1.39825922e-02   9.76476446e-02
    8.99404362e-02   1.81225333e-02  -3.53426151e-02   1.26136437e-01]
 [ -2.62504369e-01  -3.36878113e-02  -8.95959884e-03   9.75174457e-02
    7.43964612e-02   1.07173193e-02  -3.19086649e-02   1.31256834e-01]
 [ -2.66726077e-01  -3.42332721e-02  -1.19621996e-02   9.75759923e-02
    8.53939131e-02   1.51452962e-02  -3.65036465e-02   1.33349180e-01]
 [ -2.46214673e-01  -3.38961072e-02  -1.66397244e-02   9.82624814e-02
    9.81291980e-02   2.21111570e-02  -3.68245356e-02   1.23135954e-01]
 [ -2.27025479e-01  -2.10056566e-02  -1.10454960e-02  -9.49641347e-01
    8.60786363e-02   1.58760194e-02  -7.73693994e-02   1.13455735e-01]
 [ -2.23704875e-01  -9.94676910e-03  -1.27731182e-05   1.70923486e-05
    3.61734107e-02  -9.09709343e-05  -5.67654297e-02   1.11816004e-01]
 [ -2.24849999e-01  -9.99598112e-03   6.24083532e-06   3.43395950e-05
    3.63416001e-02  -8.39160930e-05  -5.70579506e-02   1.12417132e-01]
 [ -2.25067526e-01  -9.99836903e-03   1.58000989e-06   1.67878661e-05
    3.63966785e-02  -8.84107940e-05  -5.70974201e-02   1.12493083e-01]
 [ -2.23691791e-01  -9.93986614e-03  -1.49571752e-05   4.08908854e-05
    3.61520238e-02  -8.76480335e-05  -5.67307100e-02   1.11802481e-01]
 [ -2.30385169e-01  -1.01962062e-02   1.38477171e-05   2.99621752e-05
    3.72291878e-02  -1.17402597e-04  -5.84770255e-02   1.15161218e-01]
 [ -2.24106580e-01  -9.94332321e-03   3.53767427e-06   3.09776951e-05
    3.62304263e-02  -5.14521489e-05  -5.68478703e-02   1.12004757e-01]
 [ -2.23671153e-01  -9.93557274e-03  -3.45444573e-06   1.85864410e-05
    3.61592099e-02  -5.50321820e-05  -5.67358769e-02   1.11799262e-01]
 [ -2.25900158e-01  -1.00308219e-02   6.05106106e-06   3.89273919e-05
    3.65177579e-02  -8.79703948e-05  -5.72852567e-02   1.12930886e-01]
 [  5.85423596e-02   1.74549799e-02   6.31842837e-02  -6.78715259e-02
   -2.70676196e-01  -1.27084762e-01   1.30912638e+00   2.15165704e-01]
 [  8.27031970e-01   2.84800678e-01   1.61265031e-01  -3.15387249e-01
   -7.99268410e-02  -8.13636363e-01  -4.44380790e-01   7.51876414e-01]
 [  8.49387981e-03   5.68528101e-02   5.87017387e-02  -2.46615764e-02
    9.11860228e-01  -5.76737225e-02  -2.09880516e-01   4.92785007e-01]
 [  4.11683112e-01   4.12999876e-02  -8.17813270e-05  -4.56091493e-01
    4.73700538e-02  -2.61177897e-01  -1.12110540e-01   5.40926695e-01]
 [ -3.77994508e-01  -1.05439758e+00  -2.37441927e-01   9.75031197e-01
    3.51001948e-01  -8.70123208e-01  -2.19214216e-01   2.42497653e-01]
 [  3.07221115e-01   2.64860895e-02  -1.00002933e+00  -3.62216979e-02
    2.41195947e-01  -3.74711514e-01  -2.59101987e-01   5.95503032e-01]
 [  6.15244746e-01   5.28217070e-02  -1.56822163e-04  -7.22325593e-02
    4.82282549e-01  -1.74702919e+00  -5.18180847e-01   1.19118142e+00]
 [  5.07711112e-01   2.63173103e-01   4.70756218e-02  -2.02947214e-01
   -2.46262133e-01  -5.25453866e-01  -7.75191188e-02   8.14014971e-01]]
Eve
[[ -1.82933819e+00  -6.13337569e-02  -1.37374118e-01   2.11603105e-01
    5.11563897e-01  -3.73388156e-02   2.30855346e-01   4.61953759e-01]
 [  1.20911948e-01  -3.33216041e-01   1.38994575e-01   2.84059774e-02
    2.96707481e-01   4.38202098e-02   2.58738518e-01   4.83688593e-01]
 [  1.32601097e-01  -2.63840646e-01   1.54850096e-01   5.63258491e-02
    3.25971872e-01   4.72196378e-02   2.78694719e-01   4.88339603e-01]
 [  1.38686657e-01  -2.41586715e-01   1.63034186e-01   7.33770877e-02
    3.39455664e-01   5.00016287e-02   2.89453477e-01   4.95265514e-01]
 [  7.58964047e-02  -3.77831072e-01   8.27958882e-02  -7.24808946e-02
    2.21879572e-01   2.91232839e-02   1.98172331e-01   4.16623533e-01]
 [  1.14150211e-01  -3.18734378e-01   1.31328344e-01   1.49806049e-02
    2.89659023e-01   4.05547246e-02   2.51593739e-01   4.68967438e-01]
 [  1.72346920e-01  -1.69962913e-01   2.04304531e-01   1.50236607e-01
    4.05482560e-01   6.14474416e-02   3.39686126e-01   5.36053598e-01]
 [  1.70259073e-01  -1.70042723e-01   2.33045056e-01  -2.80897307e+00
    3.56895886e-02   5.92648834e-02   2.48467118e-01   2.39072680e-01]
 [ -1.77475834e+00  -9.06606540e-02  -2.59965867e-01  -3.33125703e-02
   -1.52598724e-01   1.55724185e-02   5.36658876e-02   3.19132507e-01]
 [  4.05671448e-01   1.43731743e-01   1.66271240e-01  -5.23414552e-01
   -2.35495329e-01  -2.40166277e-01   4.43592340e-01   1.71434671e-01]
 [ -2.86833227e-01  -6.47812247e-01   1.30359817e+00  -1.11329567e+00
   -1.20291686e+00  -2.21146256e-01  -8.21620882e-01  -2.70459969e-02]
 [  1.65716931e-01   4.04350609e-01   2.29193330e-01   4.80390877e-01
    1.62380219e-01  -1.64868534e-01  -7.23170787e-02   6.81549847e-01]
 [  2.98701555e-01  -1.73299834e-01  -1.82851285e-01   1.06601739e+00
    7.33259857e-01   2.93478578e-01   1.12014627e+00   7.51274228e-01]
 [  4.67989981e-01  -3.17918837e-01  -5.70823729e-01   5.44847921e-02
    1.39426172e+00   2.06122947e+00  -5.46841063e-02   1.14078367e+00]
 [  1.12742889e+00   5.11665270e-02  -1.72369242e+00   1.49887264e-01
    2.47329926e+00  -7.61677206e-01   2.88954425e+00   2.47066593e+00]
 [ -8.06740224e-01  -6.17138520e-02  -3.51672083e-01  -2.02574939e-01
   -6.11902118e-01  -4.61323410e-01  -2.72083312e-01   6.70422852e-01]
 [  1.86016932e-01   2.78845817e-01  -7.64870286e-01  -1.90078001e-02
    1.32607961e+00   4.41424906e-01   8.91273558e-01   7.86212504e-01]
 [  1.52334571e+00  -1.73342276e+00   1.00578964e+00  -1.05913925e+00
   -3.11209321e-01   1.69976532e-01  -2.90586442e-01   1.31721497e+00]
 [ -3.02491516e-01  -7.46155083e-01   1.01532662e+00  -1.65937400e+00
   -7.18020082e-01   6.01514578e-01  -5.32334447e-01   1.04276851e-01]
 [  4.71916534e-02   6.14813805e-01  -1.90366566e-01   3.14919055e-01
    6.15418196e-01   1.82704866e-01   6.84252977e-01   7.30103791e-01]
 [ -2.56070942e-01  -1.42612576e+00   1.32212305e+00  -6.39961064e-01
    4.11665642e-05  -1.08835129e-02  -2.16827899e-01   1.38887715e+00]
 [ -7.98562407e-01   1.69939250e-01   7.41951883e-01  -1.27555287e+00
   -1.22650206e+00   2.89491147e-01  -1.07594657e+00  -2.48653188e-01]
 [  2.52681756e+00  -2.04165006e+00   5.68300486e-01   3.62195939e-01
    1.13367867e+00  -2.31425148e-02   4.17074859e-01   2.29972529e+00]
 [  8.62311125e-01  -6.69181049e-01  -2.27946615e+00   8.47323835e-02
    2.34985948e+00   1.10959351e+00   2.09161067e+00   2.36685181e+00]]