Alice
[[ -3.22264200e-03   3.30718607e-03  -1.21873908e-03 ...,   1.46765253e-02
   -3.24099278e-03  -1.49842147e-02]
 [ -3.21932998e-03  -1.60644390e-03  -2.79933680e-03 ...,  -8.65609210e-04
   -2.32139090e-03  -3.48332454e-03]
 [ -4.33161808e-03   1.29961991e-03  -1.23010913e-03 ...,  -7.95058033e-04
   -3.42986896e-03   3.04500991e-03]
 ..., 
 [  8.12167153e-02  -1.01000643e+00  -8.30100894e-01 ...,   9.39139903e-01
    1.67448744e-02  -9.04495776e-01]
 [  4.60727438e-02  -6.06775403e-01  -3.67522329e-01 ...,   6.79557145e-01
    1.73168648e-02  -7.35738575e-01]
 [  8.07702765e-02  -9.69897568e-01  -1.05204606e+00 ...,   9.81936693e-01
   -9.68592521e-03  -9.74504411e-01]]
Bob
[[  1.69245561e-03  -1.88544800e-03   1.22891145e-03 ...,   3.43301217e-03
    2.00183759e-03  -2.79494631e-03]
 [  1.40425714e-03  -2.04165070e-03   1.04193273e-03 ...,   3.72786401e-03
    2.62708217e-03  -3.22756404e-03]
 [  5.55444648e-03  -6.02806127e-03   3.78154963e-03 ...,   2.01672083e-03
   -9.50575690e-04  -2.72899773e-03]
 ..., 
 [  2.11779460e-01  -7.75341690e-02   2.77430028e-01 ...,   5.28614759e-01
   -2.91037798e-01  -6.95281252e-02]
 [  1.25779700e+00  -1.23010731e+00   1.20952916e+00 ...,   1.17930746e+00
   -1.30937934e+00   1.12160914e-01]
 [  3.28391284e-01  -3.87702376e-01   2.65955091e-01 ...,   6.55898631e-01
   -6.09616041e-01   9.75395832e-03]]
Eve
[[ 2.55382657  3.31101561 -3.30322218 ...,  3.08239007 -0.7080304
   3.39102125]
 [ 0.18192314  3.3037293  -3.35664392 ...,  3.32666302 -0.33434606
   3.56292963]
 [ 0.13564879  3.48596859 -3.70527053 ...,  3.23855639  0.05225003
   3.30553627]
 ..., 
 [ 0.31075469  3.37166882 -3.34987593 ...,  3.39412379 -0.49052632
   3.3781426 ]
 [ 0.31942397  3.58144808 -3.25906301 ...,  3.59639716 -0.34561265
   3.55760193]
 [ 0.6773051   3.40011477 -3.25287843 ...,  3.58223081 -0.64068067
   3.28642321]]