Alice
[[ -5.19300997e-03   4.97488342e-02  -5.28682396e-02  -2.41706818e-02
   -2.64399145e-02  -2.93120779e-02  -1.80275384e-02  -2.56703924e-02]
 [ -5.78800682e-03  -6.08414970e-02   3.65353264e-02  -1.20265204e-02
   -1.94122468e-03  -2.04326026e-02  -2.01241933e-02  -3.41336504e-02]
 [ -5.80065418e-03  -1.47736585e-02  -1.14108846e-02  -2.24995185e-02
   -1.77977607e-02  -9.09633376e-03  -1.70372799e-02  -2.56856065e-02]
 [ -4.29237075e-03   7.92011712e-03   5.07231578e-02  -5.49322255e-02
   -2.03289259e-02  -3.42027284e-02  -1.73474718e-02   1.10507645e-01]
 [  2.75465343e-02  -4.88228276e-02  -5.74893914e-02   8.49951208e-02
   -2.39715390e-02  -8.50907061e-03   8.15871060e-02   3.30779403e-02]
 [ -5.63670322e-03  -1.39959725e-02  -1.17003303e-02  -2.23633517e-02
   -1.71133466e-02  -8.85294937e-03  -1.68257225e-02  -2.52638906e-02]
 [ -5.18403854e-03  -1.45236915e-02  -1.19708758e-02  -2.19378192e-02
   -1.63193699e-02  -7.77064869e-03  -1.59429014e-02  -2.55809296e-02]
 [  2.70542949e-02   5.33863828e-02   7.02715814e-02  -1.69440284e-02
   -1.77941639e-02   4.36028764e-02   7.21958131e-02  -4.57286835e-02]
 [  2.19867513e-01  -9.74115491e-01  -2.08225846e-01  -9.73592937e-01
   -1.17599165e+00  -1.30204690e+00  -2.29683042e-01  -1.13124180e+00]
 [ -5.34769475e-01  -1.03023100e+00   3.68310250e-02  -9.14230764e-01
   -1.07259822e+00  -9.43764567e-01  -3.81142139e-01  -8.54863882e-01]
 [  9.53737974e-01  -2.36935973e+00   5.56777000e-01  -2.25849748e+00
   -2.40198922e+00  -2.46799350e+00  -4.79354076e-02  -2.24081826e+00]
 [ -5.98600745e-01  -1.65430105e+00  -1.90579399e-01  -1.23060656e+00
   -7.41649330e-01  -8.89141440e-01  -7.48510718e-01  -1.40851808e+00]
 [  1.32810414e-01  -1.04138839e+00   3.05689842e-01  -9.41529334e-01
   -6.99784577e-01  -9.53666687e-01   1.69439241e-01  -1.47511864e+00]
 [  3.05716954e-02  -2.65158486e+00  -6.06143892e-01  -2.73972535e+00
   -2.66356730e+00  -2.54034114e+00  -1.64798275e-01  -2.73812366e+00]
 [  2.45916635e-01  -2.08200860e+00  -5.42895496e-01  -2.00155067e+00
   -1.64613855e+00  -1.93118060e+00   5.79098642e-01  -2.18750143e+00]
 [  6.09176308e-02  -1.08359396e+00   1.81814030e-01  -1.34344387e+00
   -1.29185569e+00  -1.25564396e+00   8.94573450e-01  -7.30740845e-01]]
Bob
[[  1.86589547e-02  -9.47804097e-03   2.98293121e-02  -7.07310671e-03
    1.30488351e-02  -3.43060754e-02  -1.74289644e-02  -1.50100328e-02]
 [  2.32597440e-02  -2.79506333e-02  -1.97608434e-02  -1.86613929e-02
    3.40031423e-02   1.71805635e-01  -6.86670542e-02  -3.90891619e-02]
 [  1.91742443e-02  -9.44358483e-03   2.86816303e-02  -7.61349779e-03
    1.34176789e-02  -3.40109617e-02  -1.74203236e-02  -1.52926762e-02]
 [  1.86522547e-02  -9.06121731e-03   2.87175495e-02  -6.63921516e-03
    1.29303141e-02  -3.41869295e-02  -1.65278632e-02  -1.48438625e-02]
 [  1.88451279e-02  -9.25790705e-03   2.87179798e-02  -6.98693050e-03
    1.28247738e-02  -3.42516825e-02  -1.73168741e-02  -1.50676351e-02]
 [  1.90332215e-02  -9.20795929e-03   2.85287648e-02  -6.79889554e-03
    1.28661748e-02  -3.41762640e-02  -1.68434512e-02  -1.48911541e-02]
 [  1.94637198e-02  -9.78532713e-03   2.89378446e-02  -7.66020594e-03
    1.33214891e-02  -3.48379090e-02  -1.76355261e-02  -1.57276690e-02]
 [  3.47867794e-02  -4.59666513e-02  -1.48818046e-01  -4.07996066e-02
    3.34342495e-02  -1.78588275e-02   8.68514553e-02  -1.80394221e-02]
 [  2.64460301e+00  -2.23424077e+00   6.56623483e-01  -2.59289360e+00
    1.97139370e+00   1.68241695e-01  -9.09291565e-01  -2.01785827e+00]
 [  2.19034410e+00  -2.37878013e+00   4.60507646e-02  -2.42374277e+00
    2.12544823e+00   7.52233341e-02   5.67012094e-02  -2.28390932e+00]
 [  2.55935121e+00  -2.49569416e+00   6.14652336e-02  -2.63769603e+00
    2.69431901e+00   6.21943437e-02   7.32053667e-02  -2.56024384e+00]
 [  1.62573457e+00  -1.73189914e+00  -1.08284608e-01  -1.70148730e+00
    2.15470099e+00   1.58639550e-01   2.68420637e-01  -1.95528018e+00]
 [  1.55351901e+00  -1.64806616e+00   3.05859804e-01  -1.70103168e+00
    1.42956054e+00   7.84800053e-02  -7.10799769e-02  -1.51623142e+00]
 [  2.00548744e+00  -2.00565624e+00  -2.52571702e-01  -1.84232628e+00
    1.42067027e+00  -8.78865719e-02   3.59075993e-01  -1.73693669e+00]
 [  2.28249574e+00  -2.42733645e+00  -5.68102635e-02  -2.39582014e+00
    2.79059362e+00   8.76928493e-03  -4.30646181e-01  -2.45826411e+00]
 [  2.37604642e+00  -2.38622189e+00  -1.50991115e-03  -2.53780866e+00
    2.26932406e+00   5.81905209e-02   1.49092630e-01  -2.55516076e+00]]
Eve
[[ 2.86119413 -3.01914454 -1.08850777  3.36387205  2.86518216 -3.17039704
   2.78259563 -3.39358306]
 [ 1.38252664 -3.61252785 -1.50651026  2.98136663  3.74010611 -3.11563063
  -0.20028494 -3.20705295]
 [ 2.50000262 -3.45953465 -2.9991827   3.60186839  3.85575199 -3.65586662
  -0.0171288  -3.82696724]
 [-0.28123918 -3.23607969  0.27631691  3.62915754  3.3326869  -3.90113235
  -0.7214399  -3.78041434]
 [ 2.29011106 -3.35820627 -1.28324187  3.20316744  3.82277346 -3.80653048
   1.83459938 -3.34435248]
 [ 1.24962735 -3.68803453 -1.68439412  3.46289301  3.06086254 -3.71288347
  -0.02078739 -3.55855489]
 [ 2.99309731 -3.46301627 -0.87652081  3.72627616  3.10202742 -3.50732636
   3.39520407 -3.58366013]
 [ 2.15375257 -3.29466534 -1.0079509   3.44687629  3.37325883 -3.1775074
   0.25409245 -3.52417636]
 [-0.30991718 -3.35814333 -0.98175824  3.44430017  3.29241276 -3.56357241
   1.02148438 -3.39335108]
 [-1.74496734 -3.74925947 -1.02575052  3.19852495  3.08905911 -3.84044671
  -0.23863675 -3.77104831]
 [ 3.30914474 -3.63539553 -1.48775256  3.40262032  3.86248803 -3.42615914
   2.28957796 -4.0179286 ]
 [-2.76363516 -3.80289745 -1.04669511  3.27686882  3.93525028 -3.47080159
  -0.43188643 -3.04324079]
 [-0.68726444 -3.16560745 -0.11607979  4.01794004  3.91047835 -3.23216224
   1.23504496 -4.03521442]
 [ 1.54653585 -3.79449987 -3.17155457  3.48931623  3.19586015 -3.32680941
   0.14740203 -3.74030709]
 [ 3.09346628 -2.83262753  0.22504543  3.7029593   3.25140476 -3.35726428
   2.71033549 -3.06609631]
 [ 1.91162181 -3.8007977   0.22959493  3.8362112   3.61262798 -3.96812248
   1.2357986  -3.21380091]]