Alice
[[  5.69214160e-03   1.06638772e-02  -9.18055847e-02   4.06705737e-02
    1.17249591e-02  -4.03586887e-02  -6.54753327e-01  -1.77570432e-02]
 [  1.61099792e-01   1.61120817e-01   1.41196251e-02  -5.57520352e-02
    1.63155571e-01   2.40167543e-01  -5.16723990e-01   1.43277533e-02]
 [  1.76053554e-01   1.72996402e-01   3.52732390e-02  -1.47313341e-01
    5.90137728e-02   1.78076804e-01  -5.46676517e-01   1.33941054e-01]
 [  3.58857326e-02  -2.86766067e-02   8.67810130e-01  -1.10579515e-02
    1.37796374e-02  -1.83281247e-02  -5.39083898e-01  -2.12189499e-02]
 [  1.84538186e-01   1.12561435e-01   3.35563906e-02  -2.34373994e-02
    5.01875758e-01   1.06754556e-01  -5.39491534e-01   7.65237734e-02]
 [  1.53325960e-01   6.80019706e-02   1.18003665e-02  -8.15973505e-02
    4.42968570e-02   1.43938839e-01  -5.27634442e-01   7.72500262e-02]
 [  1.53668925e-01   2.67058998e-01   2.43649166e-02  -6.92483783e-02
    5.70023917e-02   1.71705544e-01  -5.31819344e-01   1.32287994e-01]
 [ -2.10866952e+00   7.23808929e-02   2.51950547e-02  -6.31184429e-02
    2.97498964e-02  -3.32969278e-02  -6.10519886e-01   1.90013330e-02]
 [  2.05025263e-03   8.33876338e-03   9.72126509e-06  -1.26872014e-03
   -1.14378072e-02   1.92754145e-03   6.06469548e-05   7.83480704e-03]
 [  1.95374712e-03   7.96282850e-03   1.52786979e-05  -1.20222114e-03
   -1.08901840e-02   1.86133641e-03   7.62742711e-05   7.49078440e-03]
 [  2.03030487e-03   8.28460604e-03   1.15631019e-05  -1.26051728e-03
   -1.13343783e-02   1.89927185e-03   8.69029172e-05   7.84239639e-03]
 [  2.01913877e-03   8.21917970e-03  -3.84583109e-05  -1.23571395e-03
   -1.11970771e-02   1.92358671e-03   3.87493637e-05   7.63925212e-03]
 [  2.05925293e-03   8.35276861e-03  -5.65002811e-05  -1.27585011e-03
   -1.13614947e-02   1.96289830e-03   5.34124592e-05   7.81014096e-03]
 [  2.04456807e-03   8.29562917e-03  -2.23515617e-05  -1.25920121e-03
   -1.13516599e-02   1.92061916e-03   1.99614333e-05   7.89087079e-03]
 [  2.03727884e-03   8.30368139e-03   9.30829810e-06  -1.26847660e-03
   -1.13843381e-02   1.93457119e-03   7.32185872e-05   7.91204162e-03]
 [  2.01475644e-03   8.23082495e-03  -4.73505061e-05  -1.25021278e-03
   -1.11888377e-02   1.92413153e-03   3.94444469e-05   7.75415404e-03]
 [  2.21536770e-01   7.47528255e-01  -2.57936329e-01  -1.80054247e-01
   -2.20769793e-01   2.67300069e-01  -6.51593566e-01  -1.77255511e-01]
 [ -4.95833606e-01   7.60947347e-01   1.81009740e-01  -2.83611834e-01
   -1.34497017e-01   2.56997049e-01  -6.50925860e-02  -2.71631684e-02]
 [  6.60295933e-02   3.49291861e-01  -1.05335172e-02  -1.46695793e-01
   -9.32486728e-02   2.49735476e-03  -1.66090459e-01  -1.07660151e+00]
 [  5.21175489e-02   8.86672735e-01  -1.21839747e-01  -3.26692939e-01
    1.11401761e+00   3.01161200e-01  -1.42834201e-01   1.87696214e-03]
 [  3.73389184e-01   1.35735714e+00  -1.04867265e-01  -3.16501647e-01
   -1.82492673e-01   3.23596388e-01  -2.29104217e-02  -1.17893927e-01]
 [  2.52680242e-01   8.13887119e-01   2.27925277e+00  -7.43352294e-01
   -1.13165252e-01   1.97876012e-03  -2.69666851e-01   7.28784353e-02]
 [  4.54401284e-01   6.10277534e-01  -9.54389758e-03  -4.04121459e-01
    2.00368743e-02   4.73389208e-01  -5.95356822e-01  -2.07506996e-02]
 [  2.08873242e-01   8.51681590e-01   3.56870294e-02  -3.67207617e-01
   -1.65713951e-01   5.61012626e-01  -5.65315306e-01  -2.96359479e-01]]
Bob
[[  3.85640301e-02  -5.67115750e-03   1.33079831e-02   1.38749508e-03
   -3.71740805e-03  -5.46531640e-02   6.54807448e-01  -4.66188788e-02]
 [ -3.40692513e-02  -1.60263121e-01  -8.95944297e-01   2.01146808e-02
   -1.26253381e-01   8.20325967e-03   5.16665280e-01   9.01949182e-02]
 [ -1.46382630e-01  -1.77141145e-01  -2.40603555e-02   9.52224135e-02
   -1.99297175e-01   2.05503162e-02   5.46633720e-01   2.05583170e-01]
 [ -2.02297815e-03  -2.75727659e-02  -2.21453439e-02   4.87395972e-02
    4.05545160e-02   4.79966521e-01   5.38976610e-01  -1.74102690e-02]
 [ -5.66063598e-02  -1.85822487e-01  -1.45974513e-02   4.55390632e-01
   -1.38859972e-01   1.96588505e-02   5.39440513e-01   1.81395888e-01]
 [ -8.27286169e-02  -1.57085136e-01  -1.33122541e-02   7.26322159e-02
   -9.40707773e-02   7.61643331e-03   5.27630150e-01   1.66788921e-01]
 [ -6.77935034e-02  -1.58220857e-01  -2.25692000e-02   8.25834647e-02
   -2.85398901e-01   1.43917939e-02   5.31719029e-01   1.90249011e-01]
 [ -6.13730364e-02   2.11149573e+00  -3.33359838e-02  -5.70814824e-03
   -7.42570087e-02   1.52448686e-02   6.10418677e-01  -3.47044803e-02]
 [ -5.07723249e-04  -8.73792102e-04   3.62284598e-03  -2.57392600e-03
   -3.42993508e-03  -3.82271610e-05   8.45963878e-05   1.44217000e-03]
 [ -4.62970609e-04  -8.48722178e-04   3.33617791e-03  -2.47836090e-03
   -3.30566079e-03  -4.02188161e-05   6.16808102e-05   1.34868117e-03]
 [ -4.64718585e-04  -8.34832375e-04   3.22662084e-03  -2.40385695e-03
   -3.22215515e-03  -3.54320073e-05   9.20868915e-05   1.30988762e-03]
 [ -4.73246531e-04  -8.57231556e-04   3.65733635e-03  -2.45077349e-03
   -3.30008590e-03  -3.00442844e-05   7.90853592e-05   1.39590946e-03]
 [ -4.63110249e-04  -8.19520908e-04   3.06404498e-03  -2.45226407e-03
   -3.18468525e-03  -4.02860423e-05   3.95151183e-05   1.27074961e-03]
 [ -4.77395341e-04  -8.55138118e-04   3.59278126e-03  -2.44683656e-03
   -3.30622052e-03  -2.18812875e-05   6.10946154e-05   1.40100601e-03]
 [ -5.05389296e-04  -8.40804365e-04   3.62582761e-03  -2.46942905e-03
   -3.23948520e-03  -1.55542766e-05   7.50724430e-05   1.38769415e-03]
 [ -4.68910672e-04  -8.45760689e-04   3.48496833e-03  -2.50435434e-03
   -3.33670666e-03  -2.41079415e-05   5.77976716e-05   1.38316560e-03]
 [ -2.56829023e-01   5.03047287e-01   1.10904584e-02  -1.00592330e-01
   -7.67051816e-01   8.73678625e-02   3.62582691e-02   3.07543010e-01]
 [ -2.71637738e-01  -3.16408306e-01  -7.02713728e-02  -2.70831525e-01
   -1.08962464e+00  -1.01607785e-01  -5.32533675e-02   3.25369090e-01]
 [ -4.35302496e-01  -1.50142565e-01   4.01619896e-02  -4.92036976e-02
   -4.89525467e-01   1.70948362e+00   1.55250624e-01   2.37372098e-03]
 [ -2.17417881e-01  -2.88970828e-01  -1.80004030e-01  -3.53415102e-01
   -6.15767777e-01  -2.69430429e-01   6.42409682e-01   2.67633051e-01]
 [ -2.84111410e-01  -1.05531432e-01  -6.03169277e-02   1.03693843e+00
   -9.17376697e-01  -1.05135940e-01   2.46780306e-01   2.20456466e-01]
 [ -5.83543062e-01  -2.08989829e-01  -3.71101111e-01  -3.37923735e-01
   -1.11748862e+00   1.41259834e-01   6.79369092e-01   6.15903556e-01]
 [ -4.04042244e-01  -4.54344451e-01  -2.04560887e-02   1.93716101e-02
   -6.10108078e-01  -1.00543853e-02   5.95700622e-01   4.73332852e-01]
 [ -4.32578288e-02  -1.13208458e-01   9.25912321e-01   4.15424645e-01
   -6.60149038e-01  -5.38210571e-02   1.35756597e-01  -5.12062386e-02]]
Eve
[[  9.23627555e-01   4.99287158e-01   3.33439082e-01   7.28788257e-01
   -7.91904256e-02  -1.33450556e+00  -3.12219024e-01   1.95192639e-02]
 [  6.82838619e-01   1.30731940e+00  -2.42211357e-01   2.01763287e-01
    1.09224804e-01   1.24011822e-01   2.18259498e-01  -1.61455178e+00]
 [  1.06643808e+00   2.13939357e+00  -2.15894938e-01   5.71570694e-01
   -6.33833483e-02  -2.12059662e-01   4.54562157e-01   5.79919629e-02]
 [  1.16995327e-01   6.23879313e-01  -2.63797951e+00   2.36304060e-01
   -1.85463071e-01  -1.17605710e+00   2.13037312e-01   3.12387068e-02]
 [  1.27431822e+00   2.17594624e+00  -1.82578519e-01   2.14184165e-01
   -2.00324440e+00  -2.10226849e-01   3.58893454e-01   9.60926190e-02]
 [  9.63183939e-01   1.45585263e+00  -5.47068976e-02   7.82373071e-01
   -6.08720481e-02  -5.14139235e-01   5.33474505e-01   4.28977385e-02]
 [  8.48758459e-01   2.42405534e+00  -2.43275359e-01   6.71711683e-01
   -7.46294558e-02  -4.34906602e-01   1.87139049e-01   1.28278481e-02]
 [ -3.23026657e+00   5.96007705e-01  -1.93602711e-01   1.24205148e+00
   -5.10943420e-02  -1.91193712e+00   1.88804388e-01  -8.69454443e-02]
 [ -1.90221751e+00   3.52970213e-01  -2.61424810e-01   3.61312121e-01
   -4.46831249e-03  -1.15747321e+00  -4.09727365e-01  -2.06784531e-01]
 [ -9.06033665e-02   9.63941336e-01   4.86198217e-01  -1.11605301e-01
   -2.21128371e-02   4.07470673e-01   2.59188890e-01   2.70350754e-01]
 [  5.24990976e-01   5.07102966e-01  -2.31811166e+00   4.10882145e-01
    1.91446170e-01  -6.81187630e-01   3.82124186e-01  -1.39505133e-01]
 [ -5.93859553e-01  -2.76479814e-02   5.99189341e-01  -1.53457746e-01
   -2.00636815e-02   8.63271579e-02   3.19955731e-03  -6.98051825e-02]
 [ -4.26651508e-01   5.40919125e-01   1.89388290e-01  -3.31285745e-02
   -8.01218033e-01   2.96371859e-02   3.03213131e-02  -2.30486214e-01]
 [ -8.31888318e-02   1.27696246e-01  -7.03622475e-02   2.74234265e-01
    8.06746110e-02   5.17474353e-01   2.99238563e-01  -4.24775481e-01]
 [  3.01421642e-01   8.80168617e-01  -5.26718609e-03  -2.15208602e+00
   -1.32615611e-01   2.38835311e+00   2.25444603e+00   4.97442335e-02]
 [ -4.49179709e-01  -1.69993758e-01  -2.99002111e-01  -4.20370139e-02
    2.35394254e-01   1.56828552e-01   7.75837243e-01   3.76517564e-01]
 [ -5.79083443e-01  -2.73867995e-02   4.91349012e-01   2.33992696e-01
    2.70288680e-02   2.23439276e-01   7.03892205e-04  -2.79213250e-01]
 [ -1.66212857e+00   5.33607960e-01  -8.24744925e-02   4.81718481e-01
   -6.05074689e-02  -1.33440232e+00  -7.72556886e-02   2.05758363e-01]
 [  2.04836547e-01   8.93280864e-01   6.75603822e-02   6.25441015e-01
   -1.02425449e-01  -5.34155726e-01   5.55975556e-01  -1.41387701e+00]
 [ -6.26280978e-02   4.62688416e-01   1.09787360e-01  -3.24727118e-01
   -6.44180119e-01   1.55167788e-01   6.83428794e-02   2.55615283e-02]
 [  5.28047383e-02   9.87476051e-01   3.12947631e-01  -1.93729863e-01
    2.30153680e-01   6.54784262e-01   9.48194489e-02   4.91306446e-02]
 [ -8.16858783e-02   6.30779862e-01  -2.37534380e+00   5.32541931e-01
    2.52937805e-02  -1.27454925e+00   2.62813419e-01   2.54298002e-01]
 [  3.52887452e-01   5.76069891e-01   4.26578559e-02  -2.36794353e+00
    7.01569542e-02   2.28050399e+00   2.54844546e+00  -8.97212625e-02]
 [ -2.93505400e-01   3.97845745e-01  -3.59804749e-01  -5.41525632e-02
   -4.53074649e-02   2.51621664e-01   6.49463773e-01  -1.00650899e-01]]