Alice
[[ -2.56821960e-02   4.56966534e-02   1.43946320e-01  -7.26184323e-02
   -2.97805965e-02  -1.49391312e-02   3.32357623e-02   1.47735253e-01]
 [  2.36102678e-02   2.80554425e-02  -2.98099071e-02  -2.78135221e-02
   -2.26256214e-02   1.81529205e-02   1.41708804e-02  -2.49551088e-02]
 [  2.31802091e-02   2.78633796e-02  -2.90257856e-02  -2.73725316e-02
   -2.20445544e-02   1.76423937e-02   1.39678437e-02  -2.42710635e-02]
 [  2.34853774e-02   2.76540127e-02  -2.91563924e-02  -2.75991503e-02
   -2.18900982e-02   1.79227926e-02   1.40321292e-02  -2.46183220e-02]
 [  2.34605893e-02   2.77692750e-02  -2.92607471e-02  -2.75387056e-02
   -2.17044652e-02   1.77794304e-02   1.36305289e-02  -2.43882742e-02]
 [  5.91177726e-03  -1.49285828e-03   1.29811913e-01   1.98786780e-02
    1.32991567e-01  -2.08306289e-03  -6.26924593e-05  -1.03047878e-01]
 [  2.29262933e-02   2.71279663e-02  -2.88396850e-02  -2.69134082e-02
   -2.18603127e-02   1.74035076e-02   1.33453039e-02  -2.43846215e-02]
 [  2.34244205e-02   2.76368223e-02  -2.95673460e-02  -2.71737054e-02
   -2.25085542e-02   1.79872904e-02   1.38634676e-02  -2.44562887e-02]
 [  4.63421106e-01   8.05243015e-01   2.96681374e-01  -4.24789131e-01
    3.17833692e-01   1.85712278e+00   1.25867569e+00  -1.16912353e+00]
 [  2.48790145e+00   2.58268142e+00   2.49559097e-02  -2.41144013e+00
    7.83929154e-02   2.62298894e+00   2.34099579e+00  -2.11854005e+00]
 [  2.56856251e+00   1.87188232e+00   7.78234191e-03  -1.96000075e+00
   -8.69196355e-02   2.48284721e+00   2.49042416e+00  -1.95686543e+00]
 [  8.15754950e-01   6.64773881e-01  -2.26350218e-01  -9.29933071e-01
   -2.85504431e-01   6.67447031e-01   7.29355454e-01  -9.27403986e-01]
 [  2.56846166e+00   1.59635103e+00   1.29932582e-01  -1.56168950e+00
    7.59784281e-02   1.46708965e+00   1.80608451e+00  -1.67680013e+00]
 [  2.20580792e+00   2.74622869e+00  -1.12397820e-01  -1.79550588e+00
    9.55156907e-02   2.14325953e+00   2.11412811e+00  -2.10369825e+00]
 [  2.43589592e+00   1.86814892e+00  -1.47706822e-01  -1.87132847e+00
    2.51579672e-01   2.25588107e+00   2.09822536e+00  -1.85559607e+00]
 [  1.99709678e+00   1.76110208e+00  -4.34496962e-02  -2.73129988e+00
    1.55639336e-01   2.09403253e+00   1.98964190e+00  -2.12385058e+00]]
Bob
[[-0.02093602 -0.10705906 -0.0294058  -0.03431541  0.02233969 -0.03483007
   0.01131039 -0.03292314]
 [ 0.05237454  0.00475623  0.1050814  -0.01222198 -0.07552174 -0.04115462
   0.01478908 -0.05060606]
 [-0.01427769  0.02682076 -0.02398099 -0.02618853  0.02586611 -0.02153061
   0.00714292 -0.01631723]
 [-0.03704926  0.00322813 -0.0185728  -0.03941398 -0.07574061  0.10388941
  -0.02215045 -0.05669563]
 [-0.0505936   0.00754961 -0.01491616 -0.02207284 -0.08800834 -0.03726072
  -0.02506546  0.10098819]
 [-0.0141801   0.02603095 -0.02372527 -0.02563868  0.02468505 -0.02116675
   0.0073892  -0.01656226]
 [-0.01415545  0.0252135  -0.02288172 -0.02577425  0.02483182 -0.02100305
   0.00709022 -0.01619771]
 [-0.01405212  0.02581378 -0.02352311 -0.02576395  0.02495702 -0.02115843
   0.00727037 -0.01614544]
 [-0.49177122  0.07851334 -0.74837375 -1.92124879 -0.77428895 -0.52891541
  -0.28064087 -0.25402167]
 [-0.48148167 -0.68180102 -0.49056283 -0.63209707 -1.09650314 -1.47972763
  -0.02901502 -1.03265417]
 [-2.1544981   0.03102722 -2.23321176 -2.1925149  -2.08449841 -2.05173731
  -1.01046944 -2.01127172]
 [-1.05859077  0.54855436 -1.30882847  0.3757267  -0.76753479 -0.803222
  -0.22355552 -1.3247807 ]
 [-2.60978794 -0.30234993 -2.70386028 -1.95208085 -2.49747372 -2.50463367
   0.00912371 -2.5029726 ]
 [-1.0682528   0.22496426 -0.61304158 -1.85489953 -0.35176465 -0.47818658
   0.26814544 -0.57910997]
 [-1.12172186  0.02525748 -0.59705645 -0.45665774 -0.64406109 -0.692801
   0.58667475 -0.75207919]
 [-2.05754566  0.0274832  -2.44329286 -1.89782679 -2.30999231 -2.04457211
   0.02696816 -2.00983119]]
Eve
[[ -3.40055346e+00   3.57312846e+00  -6.90267086e-02   3.97783113e+00
    8.55105102e-01   4.01923990e+00   4.03428793e+00  -3.29534078e+00]
 [ -3.05476165e+00   3.29085994e+00   9.88153934e-01   3.96935844e+00
   -3.76723230e-01   3.26063371e+00   3.47142148e+00  -3.20731664e+00]
 [ -3.69601345e+00   3.00846171e+00   2.75845814e+00   3.53972530e+00
   -6.50135458e-01   3.34048343e+00   3.18293595e+00  -2.99683070e+00]
 [ -4.02304220e+00   3.95744705e+00   5.72778106e-01   3.19480968e+00
   -5.21506474e-04   3.46099472e+00   4.07670879e+00  -3.98946667e+00]
 [ -3.66097283e+00   3.11388993e+00  -3.06716830e-01   3.28507328e+00
   -3.11098242e+00   3.20789099e+00   3.59908843e+00  -3.73983979e+00]
 [ -3.51036549e+00   3.65465832e+00  -1.55457631e-01   3.32868648e+00
   -4.29312140e-02   3.10075545e+00   3.26286149e+00  -3.70624590e+00]
 [ -3.80954695e+00   3.15102768e+00   5.88517845e-01   4.02326679e+00
   -1.42505896e+00   3.45020771e+00   3.76525736e+00  -3.74491191e+00]
 [ -3.28422403e+00   3.81161785e+00  -8.04821432e-01   3.60562372e+00
   -9.37637091e-01   3.79568076e+00   3.38714409e+00  -3.93689847e+00]
 [ -3.63999367e+00   3.07758760e+00   1.60137296e+00   3.05915880e+00
   -5.05204737e-01   3.25700521e+00   3.42887211e+00  -3.62729883e+00]
 [ -3.22666860e+00   3.45589757e+00   1.77687240e+00   3.99438143e+00
   -2.43897653e+00   3.88593912e+00   3.37759256e+00  -3.38494921e+00]
 [ -3.92524886e+00   3.48125958e+00   1.43467200e+00   3.48487306e+00
   -1.06325042e+00   3.75090146e+00   3.70009065e+00  -3.65190220e+00]
 [ -3.59735131e+00   3.98187947e+00   1.02396631e+00   3.18497658e+00
    1.02311626e-01   3.87785912e+00   3.35838771e+00  -3.77571368e+00]
 [ -3.82626438e+00   3.72877288e+00   1.68920219e+00   3.11865854e+00
   -6.94100738e-01   2.99617767e+00   3.05120635e+00  -4.06519794e+00]
 [ -3.82457423e+00   3.74645329e+00   1.36105561e+00   3.74344420e+00
   -9.45881605e-01   3.85164118e+00   3.82556272e+00  -3.86180258e+00]
 [ -2.77460742e+00   2.98498893e+00   1.30455351e+00   3.21396947e+00
   -2.09529608e-01   2.99951982e+00   3.16056681e+00  -3.28646898e+00]
 [ -4.09604692e+00   3.95458841e+00   1.16149604e+00   3.68172741e+00
   -9.42065239e-01   3.88620043e+00   3.68262553e+00  -3.55024028e+00]]