Alice
[[  6.48043631e-03   4.03092150e-03   6.36611460e-03  -7.14579783e-03
   -6.71630912e-03  -9.33277514e-03  -1.07843531e-02   1.38212938e-03
   -7.21377367e-03   4.66373097e-03  -1.54389674e-02  -6.02080766e-03
   -5.89977577e-03  -2.99180252e-03   7.55156716e-03   1.12282289e-02]
 [  6.45590946e-03   4.82244184e-03   6.84969965e-03  -7.30966730e-03
   -6.51290966e-03  -9.51841939e-03  -1.11797238e-02   1.70943479e-03
   -7.66382134e-03   5.07313432e-03  -1.54007785e-02  -5.97267877e-03
   -6.37278985e-03  -3.28237773e-03   7.98321795e-03   1.15068732e-02]
 [ -1.56817317e-03   2.75593139e-02   2.79188156e-02  -7.26047531e-03
    5.28723001e-03   9.83092040e-02   1.25168219e-01   3.09804827e-02
   -1.61283966e-02   2.05462202e-02  -4.83809114e-02  -3.70670250e-03
   -4.08123843e-02  -5.69440285e-03   1.25216125e-02  -1.09746799e-01]
 [  1.23175532e-02   3.20534110e-02  -5.43889068e-02   1.68948211e-02
   -5.50435670e-03  -5.68581931e-02  -5.02865296e-03   1.12603465e-03
   -4.76766285e-03   2.50604525e-02   1.78664416e-01   1.08798528e-02
   -3.40387002e-02  -1.51449786e-02   2.50695203e-03  -1.14746273e-01]
 [  6.55952422e-03   4.67276527e-03   7.27262115e-03  -7.45368749e-03
   -6.82752812e-03  -1.03279334e-02  -1.16418423e-02   1.36845151e-03
   -7.99548347e-03   5.02815191e-03  -1.62556637e-02  -5.93169127e-03
   -6.35884190e-03  -3.20779323e-03   8.40939954e-03   1.19305877e-02]
 [  6.24952745e-03   5.14418539e-03   7.02909892e-03  -7.28107989e-03
   -6.52087154e-03  -9.93428938e-03  -1.15501015e-02   1.42753229e-03
   -8.01348221e-03   5.14363218e-03  -1.58041511e-02  -5.72300563e-03
   -6.52171206e-03  -3.21227056e-03   8.32613651e-03   1.19998418e-02]
 [  6.26262836e-03   4.65867110e-03   6.38782326e-03  -7.04098633e-03
   -6.46891072e-03  -9.35779791e-03  -1.09929852e-02   1.46234618e-03
   -7.59043545e-03   4.98322817e-03  -1.49825523e-02  -5.69636375e-03
   -6.24363730e-03  -2.88949860e-03   7.92987179e-03   1.12563604e-02]
 [  6.63400954e-03   4.63986676e-03   6.89748069e-03  -7.14177219e-03
   -6.77520782e-03  -9.80233401e-03  -1.12522617e-02   1.47577655e-03
   -7.78924394e-03   4.93092835e-03  -1.58284530e-02  -5.90655021e-03
   -6.14657346e-03  -3.44172050e-03   7.97104556e-03   1.23032648e-02]
 [  4.03819460e-04  -4.61518206e-02   2.06327178e-02   4.86775907e-03
   -7.53262267e-03  -5.07379994e-02  -7.02941837e-03   2.03597695e-02
    9.19913277e-02  -3.93259227e-02  -6.12253435e-02  -3.82091179e-02
    5.93476593e-02  -5.06968331e-03  -9.37009975e-02  -1.05204441e-01]
 [  6.47934992e-03   4.30323789e-03   6.41765771e-03  -7.09436042e-03
   -6.79573370e-03  -9.68082622e-03  -1.09731779e-02   1.57357776e-03
   -7.50396075e-03   4.65667155e-03  -1.51494509e-02  -5.81952557e-03
   -5.89519646e-03  -3.37897940e-03   7.70502212e-03   1.12327142e-02]
 [  6.36851182e-03   4.24101343e-03   6.49231486e-03  -7.06137577e-03
   -6.60277205e-03  -9.77729447e-03  -1.07410513e-02   1.21874257e-03
   -7.66578037e-03   4.80782101e-03  -1.57134142e-02  -5.80594782e-03
   -5.69603639e-03  -2.62554060e-03   7.85340648e-03   1.13151530e-02]
 [  6.56982558e-03   4.18191915e-03   6.38304185e-03  -7.12298509e-03
   -6.49740407e-03  -9.25326440e-03  -1.02706403e-02   1.27069722e-03
   -7.18329055e-03   4.68924595e-03  -1.55089898e-02  -6.05971785e-03
   -5.80337970e-03  -2.93204817e-03   7.46340957e-03   1.09936614e-02]
 [  6.69916673e-03   5.08695655e-03   7.02810986e-03  -7.58864591e-03
   -6.88890368e-03  -9.99024976e-03  -1.15029765e-02   1.56500866e-03
   -8.03615525e-03   5.11182426e-03  -1.64351054e-02  -6.13661995e-03
   -6.66457042e-03  -3.15345684e-03   8.30032676e-03   1.22277066e-02]
 [  6.42397767e-03   4.83060395e-03   6.39831088e-03  -7.09154364e-03
   -6.58699730e-03  -9.81367659e-03  -1.11786975e-02   1.49833097e-03
   -7.79957185e-03   5.08397026e-03  -1.52402176e-02  -5.72888274e-03
   -6.41053636e-03  -3.27361911e-03   8.09827354e-03   1.13722133e-02]
 [  6.55183801e-03   4.33897460e-03   6.40295306e-03  -7.32542109e-03
   -6.59112167e-03  -9.52313095e-03  -1.09189181e-02   1.39684684e-03
   -7.56104104e-03   4.83913068e-03  -1.54936239e-02  -5.90223540e-03
   -6.25366252e-03  -3.14191869e-03   7.85165001e-03   1.11882677e-02]
 [  6.39394205e-03   4.40042326e-03   6.26789359e-03  -7.05863070e-03
   -6.62532449e-03  -9.66213644e-03  -1.07909851e-02   1.32616621e-03
   -7.52320141e-03   4.74472670e-03  -1.55171771e-02  -6.17232407e-03
   -5.84166264e-03  -2.68395641e-03   7.86700752e-03   1.15751121e-02]
 [  6.78394079e-01   7.10358441e-01   6.46109819e-01  -3.78725141e-01
   -1.53760567e-01  -1.38030261e-01  -2.51659919e-02   3.28324467e-01
    2.40035802e-02   4.32279259e-01  -7.27231741e-01  -8.70660186e-01
   -4.77129310e-01  -2.78864145e-01   1.04886092e-01  -8.22589397e-01]
 [  1.60452056e+00   1.82349527e+00   1.96652985e+00  -1.97684705e+00
   -1.97861350e+00   1.09965317e-01   1.16416477e-01   1.93021882e+00
   -7.04715215e-03   1.94908381e+00  -1.76102233e+00  -1.93366635e+00
   -1.77654219e+00  -2.02286816e+00   4.86062802e-02  -1.70669651e+00]
 [  7.65313685e-01   7.51383960e-01   7.31738389e-01  -4.93509382e-01
   -7.12073028e-01  -1.96523950e-01   1.62587315e-01   9.07059491e-01
    1.32062942e-01   3.14887851e-01  -5.96313775e-01   8.44531581e-02
   -6.69115305e-01  -7.18194127e-01  -3.30450460e-02  -5.16581297e-01]
 [  1.48747277e+00   1.63014603e+00   1.62377954e+00  -1.62293589e+00
   -1.59089947e+00   2.62625162e-02  -5.61612062e-02   1.59590673e+00
   -4.44722958e-02   1.69588208e+00  -1.51615345e+00  -1.51413643e+00
   -2.33253908e+00  -1.67454457e+00   2.32160408e-02  -1.49034262e+00]
 [  1.38430667e+00   1.78160226e+00   1.67804289e+00  -1.73063993e+00
   -1.72367561e+00   1.82580855e-02   3.92886400e-02   1.72600162e+00
    3.83886434e-02   1.83995950e+00  -1.55764222e+00  -2.31614900e+00
   -1.55842865e+00  -1.71667540e+00   2.38403510e-02  -1.55673790e+00]
 [  2.29702997e+00   1.75175381e+00   1.78270340e+00  -1.81683111e+00
   -1.74357760e+00   6.29724488e-02  -3.22959572e-02   1.68675399e+00
    4.14823480e-02   1.93637288e+00  -1.58818805e+00  -1.36704576e+00
   -1.55081880e+00  -1.76495755e+00   8.93114060e-02  -1.60740161e+00]
 [  1.89673829e+00   1.84108686e+00   1.80069757e+00  -1.73119521e+00
   -1.67558086e+00   5.55453524e-02  -2.55376808e-02   1.79092884e+00
   -3.70231308e-02   1.70140767e+00  -1.59380341e+00  -1.60957444e+00
   -1.70980620e+00  -1.71580219e+00   3.49862203e-02  -1.53998220e+00]
 [  4.60439712e-01   9.17427957e-01   3.86707276e-01  -7.05344856e-01
   -5.91903090e-01   4.34682131e-01  -6.84476495e-02   5.17962039e-01
    4.95308280e-01   6.85909271e-01  -1.09792948e+00  -4.75396901e-01
   -4.92261976e-01  -9.60672379e-01  -5.01167849e-02  -9.43656862e-01]
 [  3.90032798e-01   3.78811151e-01   5.00240624e-01  -6.59118712e-01
   -1.03613436e+00   6.08122349e-01  -1.83654249e-01   5.02409995e-01
   -1.56224653e-01   5.13735533e-01  -6.39247179e-01  -6.43999934e-01
   -9.32787716e-01  -7.35668063e-01  -7.57774353e-01  -5.62618613e-01]
 [  1.48571646e+00   1.62819338e+00   1.69754481e+00  -1.64140975e+00
   -1.69018483e+00   8.15299898e-02  -9.96390358e-04   1.72330141e+00
   -1.73570663e-02   1.64000893e+00  -1.41532135e+00  -1.49738324e+00
   -1.43966568e+00  -1.67997146e+00   1.36670433e-02  -1.41128123e+00]
 [  8.63837898e-01   7.49271035e-01   8.19301009e-01  -9.80187178e-01
   -9.32565629e-01  -6.17957473e-01   5.56689827e-03   6.79284215e-01
   -9.71112773e-02   1.11989188e+00  -6.29530728e-01  -1.06508446e+00
   -9.78055477e-01  -1.05058014e+00   4.57470119e-01  -8.49921525e-01]
 [  6.84939325e-01   2.94663250e-01   8.19460928e-01  -5.37218630e-01
   -7.39683449e-01   8.54117349e-02   4.42060865e-02   7.97521770e-01
    2.90639281e-01   5.82363486e-01  -1.02281129e+00  -8.53523433e-01
   -7.74008632e-01  -4.94385809e-01   4.20671135e-01  -1.07031250e+00]
 [  9.19932127e-01   3.40285301e-01   1.49124309e-01  -1.34276554e-01
    8.06194991e-02   3.07595823e-02   5.10871351e-01   1.94182083e-01
    3.46559584e-02   3.33739042e-01  -1.35824710e-01  -4.74351972e-01
   -2.45916098e-01   1.89025164e-01  -6.67350948e-01   3.52667496e-02]
 [  1.75666511e+00   2.01820707e+00   1.90912199e+00  -1.90611708e+00
   -1.81089771e+00   1.16814360e-01  -1.75294001e-02   1.94431639e+00
   -4.71002385e-02   1.88448715e+00  -1.67161417e+00  -1.77643383e+00
   -1.51070333e+00  -2.03964424e+00  -4.51022796e-02  -1.76556003e+00]
 [  1.20758867e+00   5.87890744e-01   6.45313621e-01  -6.71492159e-01
   -8.54041398e-01   5.23338690e-02  -2.68357277e-01   8.94637167e-01
   -2.02904627e-01   3.89142722e-01  -7.72292912e-01  -9.65813637e-01
   -6.78913355e-01  -6.88282847e-01   7.44496239e-03  -6.11187398e-01]
 [  6.02267563e-01   1.31213105e+00   1.48131633e+00  -1.42471743e+00
   -1.24906301e+00   2.91144371e-01   4.10109535e-02   1.31915092e+00
   -2.32103065e-01   1.26456285e+00  -1.28356242e+00  -7.78895199e-01
   -1.12840259e+00  -1.12706435e+00  -1.02880448e-01  -1.11047232e+00]]
Bob
[[ -1.99845210e-02  -3.70637886e-03   1.08512770e-02   2.20353156e-02
   -1.85314100e-02   1.99032407e-02   8.60296860e-02   6.21593632e-02
   -1.50366575e-02  -4.82375585e-02  -2.98020728e-02   5.49515001e-02
   -1.43359294e-02   2.73573902e-02  -3.11176106e-02  -3.68157821e-03]
 [  2.44602421e-03  -1.25256125e-02   3.29897180e-03   9.59253870e-03
   -1.01875570e-02   1.12384567e-02  -8.34196340e-03  -6.26585120e-03
   -4.08893777e-03   5.21261292e-03   3.51531291e-03  -5.25293313e-03
   -7.97432009e-03   8.88558663e-03   4.63427976e-03   5.99315995e-03]
 [ -2.56245583e-02  -8.51165969e-03   1.14927310e-02  -1.11787811e-01
   -1.10411430e-02   9.32355598e-03  -3.14679416e-03  -2.52924562e-02
   -1.51925366e-02   7.28480006e-03  -3.12208347e-02  -1.92767717e-02
   -1.43000586e-02   5.21038705e-03  -3.94220464e-02  -4.74398769e-02]
 [  2.83403741e-03  -1.31808836e-02   3.67813441e-03   9.15127434e-03
   -1.01961968e-02   1.11037409e-02  -8.41272064e-03  -6.38977066e-03
   -4.18899395e-03   5.35773532e-03   3.67997913e-03  -5.59250684e-03
   -8.32544081e-03   8.66561942e-03   4.38905135e-03   5.94674330e-03]
 [  2.81333458e-03  -1.32694058e-02   3.58737190e-03   9.57590528e-03
   -1.07339993e-02   1.14917718e-02  -8.47616326e-03  -5.98426722e-03
   -4.45658853e-03   5.31900674e-03   3.57430754e-03  -5.26190223e-03
   -7.91874807e-03   9.13676713e-03   4.84929234e-03   5.81259094e-03]
 [  2.94746645e-03  -1.27459243e-02   3.36532807e-03   9.56938975e-03
   -1.10838134e-02   1.13728158e-02  -8.25826358e-03  -6.17224909e-03
   -4.12163371e-03   5.48882922e-03   3.88931995e-03  -5.42797614e-03
   -8.10045097e-03   8.63173231e-03   4.92790714e-03   6.47570379e-03]
 [  2.68638250e-03  -1.21701239e-02   2.81362841e-03   8.64293054e-03
   -1.03979297e-02   1.12977261e-02  -8.40339158e-03  -6.29081950e-03
   -3.71072302e-03   5.12384018e-03   3.61198001e-03  -5.19083207e-03
   -7.94769172e-03   8.08857381e-03   3.76745407e-03   6.02099765e-03]
 [  6.87006919e-04   1.15618378e-01  -3.14241573e-02   2.31716521e-02
   -2.25541890e-02   2.54072286e-02  -1.47325557e-03  -2.02441849e-02
   -1.39594534e-02   2.65595838e-02   5.33222221e-03  -1.39052449e-02
   -6.25938457e-03   1.49209881e-02  -3.30793262e-02  -4.77586640e-03]
 [  2.91834050e-03  -1.28455283e-02   3.40505084e-03   9.50204488e-03
   -1.03231780e-02   1.13772405e-02  -8.12831149e-03  -6.20952435e-03
   -3.91524890e-03   4.76410333e-03   3.77540919e-03  -5.48157794e-03
   -8.13373271e-03   8.47384427e-03   5.02773235e-03   6.13787444e-03]
 [  2.60735233e-03  -1.18654696e-02   3.10404226e-03   9.39033274e-03
   -9.62213427e-03   1.11155529e-02  -7.74994167e-03  -5.82329417e-03
   -3.70179955e-03   4.46385751e-03   3.53611284e-03  -4.48829681e-03
   -7.86633044e-03   8.21155589e-03   4.23963089e-03   6.29352359e-03]
 [  2.69048987e-03  -1.22603904e-02   3.24357557e-03   9.51983593e-03
   -9.19105299e-03   1.05063263e-02  -8.10532738e-03  -6.08337903e-03
   -3.42557346e-03   5.00404928e-03   3.50205484e-03  -5.12071466e-03
   -7.68841896e-03   8.33059940e-03   4.80845571e-03   5.37106255e-03]
 [  2.68431474e-03  -1.20447287e-02   2.90589943e-03   9.08769760e-03
   -9.17045958e-03   1.10781100e-02  -7.39330333e-03  -6.15296653e-03
   -3.65696801e-03   4.84151486e-03   3.64779215e-03  -5.05245337e-03
   -7.89760333e-03   8.39148834e-03   4.80411667e-03   5.41778747e-03]
 [ -2.10696775e-02  -3.58733954e-03   2.56679449e-02   3.31645943e-02
    1.14405081e-01   9.47020762e-03  -1.08624506e-03  -2.23782975e-02
   -1.42772561e-02   4.73573757e-03  -2.76885126e-02  -1.81744955e-02
   -7.36121088e-03   2.42903363e-03   2.02955049e-03  -4.63971943e-02]
 [  2.84299161e-03  -1.27088455e-02   3.53328837e-03   9.18574259e-03
   -1.02169625e-02   1.07579427e-02  -8.17555469e-03  -6.02206262e-03
   -4.16685874e-03   5.28616970e-03   3.69569659e-03  -4.94618760e-03
   -7.89428130e-03   8.81006662e-03   4.33800835e-03   6.92297891e-03]
 [ -2.01806109e-02  -2.41018250e-03   6.25544926e-03   3.32241654e-02
   -2.94359233e-02  -1.19077072e-01   5.51496225e-04  -2.04929356e-02
   -1.49440048e-02   5.73081477e-03  -2.26900987e-02  -1.77304354e-02
    3.81364557e-03   2.50386074e-03   6.50502788e-03  -4.32538129e-02]
 [ -2.17391271e-02   3.64092761e-03   8.31377134e-03   2.52088755e-02
   -2.38459148e-02   2.15908010e-02  -1.81275196e-02  -1.96083616e-02
    4.18135300e-02  -4.69704121e-02  -3.01659275e-02  -2.08973587e-02
    5.57915540e-03  -9.53914747e-02  -3.11634168e-02   2.94717698e-04]
 [ -4.87647682e-01   5.15926778e-01   2.45361894e-01   1.88142627e-01
   -9.18616802e-02   3.23690891e-01   1.85771495e-01  -2.78603047e-01
   -4.49084014e-01  -2.17245281e-01  -5.05184710e-01  -4.91167903e-01
   -1.16531886e-01  -5.49514592e-02  -2.95125488e-02  -2.88838118e-01]
 [ -1.25117517e+00   8.64727646e-02   8.30484390e-01   9.95291829e-01
   -8.84796262e-01   1.11870623e+00  -1.19322119e-03   1.26041397e-01
   -1.23197079e+00  -2.79866248e-01  -1.07502794e+00  -7.85625219e-01
   -1.43260646e+00  -1.13559537e-01  -1.08046484e+00  -8.40176284e-01]
 [ -4.21876788e-01   6.04242608e-02   4.95390654e-01   6.48670554e-01
   -7.06409335e-01   5.70141196e-01   3.00770491e-01  -1.49197817e+00
   -7.75520384e-01   6.45513058e-01  -7.18202949e-01  -5.49597085e-01
   -7.39381492e-01  -1.10360630e-01  -2.57731259e-01  -3.88409585e-01]
 [  3.53097618e-02   8.81621540e-02   4.66896802e-01   2.82228410e-01
   -4.87198941e-02   1.29937142e-01   2.28440672e-01  -1.11845243e+00
    6.24599122e-02  -9.06974748e-02  -2.14259207e-01  -3.29587460e-01
   -1.85882285e-01  -4.99069303e-01  -1.94628716e-01  -1.76146403e-01]
 [ -8.03126916e-02   2.46469155e-01   1.77283570e-01   1.81265876e-01
   -3.04968685e-01  -8.39824304e-02   1.67472735e-01  -5.27361512e-01
   -3.94088253e-02  -6.05616987e-01  -4.34493944e-02  -1.98175564e-01
   -2.88893878e-01  -2.31742799e-01  -3.24502617e-01  -6.47691712e-02]
 [ -1.76140094e+00   2.34621223e-02   1.84151173e+00   1.68908632e+00
   -1.75655532e+00   1.91970181e+00  -1.44916803e-01  -1.12773263e+00
   -1.80200815e+00  -5.59887707e-01  -1.86433244e+00  -1.60425222e+00
   -1.82469726e+00   1.03208497e-01  -1.73650956e+00  -1.81537259e+00]
 [ -1.81356788e+00  -2.41686646e-02   1.59350741e+00   1.77310061e+00
   -1.75797439e+00   1.64834762e+00   5.76180331e-02  -1.69058609e+00
   -1.79367697e+00   1.28759995e-01  -1.58832026e+00  -1.74995470e+00
   -1.60736179e+00  -3.24960388e-02  -1.78036892e+00  -1.74943769e+00]
 [ -9.16182324e-02  -3.58511567e-01   3.38084728e-01   3.42008591e-01
   -3.28488469e-01   2.06008494e-01  -2.19645306e-01  -8.14228356e-01
    5.44783212e-02   5.39704323e-01   1.88710332e-01  -6.48385644e-01
    2.81925678e-01   3.78617525e-01  -2.95791347e-02  -1.98805526e-01]
 [ -1.77300465e+00   1.65486354e-02   1.74218738e+00   1.81164408e+00
   -1.72465932e+00   1.83215773e+00   2.32559890e-01  -1.42759967e+00
   -1.74501240e+00   1.43230930e-01  -1.59004164e+00  -1.41844380e+00
   -1.75389802e+00   2.69293308e-01  -1.46387243e+00  -1.70626688e+00]
 [ -4.81782258e-01  -1.21998854e-01   2.68287361e-01   7.62837827e-01
   -7.32303381e-01   4.76251185e-01   7.07963526e-01   9.45532769e-02
   -2.81361610e-01  -1.35671005e-01  -2.72088557e-01  -7.46661484e-01
   -2.52444297e-01  -4.37561452e-01  -6.58184052e-01  -8.09089780e-01]
 [ -1.90759575e+00  -4.60124128e-02   2.01856852e+00   1.69206965e+00
   -1.75536871e+00   1.80189586e+00  -1.20990172e-01  -1.62765837e+00
   -1.82736027e+00   9.92244668e-03  -1.84437203e+00  -1.54058182e+00
   -1.87187529e+00   4.53388914e-02  -1.93784189e+00  -1.91605198e+00]
 [ -1.90257683e-01   8.29896796e-03  -1.28164262e-01  -2.77906269e-01
   -4.06167895e-01   3.11785549e-01  -2.67200112e-01  -1.05444515e+00
   -1.01133630e-01  -4.68169987e-01   5.16844429e-02   5.20028397e-02
    5.51977269e-02   2.07988188e-01  -2.13617384e-01  -1.58747971e-01]
 [ -8.05875182e-01  -1.69070452e-01   1.00993431e+00   1.25026715e+00
   -6.67640567e-01   9.60061669e-01   7.66122714e-02  -1.22561216e+00
   -8.99313271e-01   5.87808669e-01  -8.88206482e-01  -6.88543677e-01
   -7.58167207e-01  -2.11860433e-01  -7.98329473e-01  -7.21784413e-01]
 [  6.50165230e-02   7.48944059e-02   2.12980434e-01   4.21068609e-01
   -6.00224912e-01   3.68685603e-01  -1.18742071e-01  -8.75493512e-03
   -3.82080466e-01   5.21564633e-02  -2.19714329e-01  -3.04475129e-01
   -2.33795062e-01   1.42123863e-01  -2.35663265e-01  -1.54325292e-01]
 [ -1.48330808e+00  -2.32831836e-02   1.56257153e+00   1.22803545e+00
   -1.51362813e+00   1.51488924e+00  -2.31935725e-01  -1.58090925e+00
   -1.52918077e+00   9.92945135e-02  -1.63438213e+00  -1.53365672e+00
   -1.46447873e+00  -2.57073969e-01  -1.79397297e+00  -1.55274558e+00]
 [ -1.66185248e+00  -4.35282439e-02   1.73933423e+00   1.62261450e+00
   -1.59058356e+00   1.65068865e+00  -1.18848301e-01  -1.25998628e+00
   -1.69281685e+00   4.64476980e-02  -1.69779563e+00  -2.26910162e+00
   -1.72584236e+00   7.47179985e-02  -1.67568374e+00  -1.66771066e+00]]
Eve
[[ 3.61288881 -3.64475822  3.39669347 -3.77947426 -3.61295319 -1.94396293
  -1.04661381 -3.88469982 -0.59663683 -3.72406602 -3.82474375 -3.79060841
  -3.60832858  3.60444927 -0.38493967 -3.84059358]
 [ 3.68778276 -3.4726243   3.69006562 -3.16911077 -3.63000202  0.67374915
   0.58332402 -3.80218029  1.02760041 -3.52170467 -3.24279022 -3.06820035
  -3.04257751  3.45298719  0.39738232 -3.2115736 ]
 [ 3.11726761 -3.60327935  3.73598695 -3.4519186  -3.47355008  1.6171447
  -0.08712948 -3.55113244  0.09552575 -3.40492153 -3.40673375 -3.5019989
  -3.11111617  3.36502624 -0.19685209 -3.24131942]
 [ 3.49574256 -3.47090197  3.54134107 -3.30922508 -3.28278065 -0.06986105
  -0.69509125 -3.49490523 -0.13493623 -3.76894808 -3.79355621 -3.52430129
  -3.47648573  3.40124583 -0.30226031 -3.59678435]
 [ 3.68088365 -3.71442628  3.22124076 -3.1036427  -3.63438296 -2.21964622
  -1.0005933  -3.71584177 -0.4875654  -3.11493516 -3.48388505 -3.65702558
  -3.51472831  3.20419383 -0.72746855 -3.62077498]
 [ 3.75968504 -3.8946104   3.46753001 -3.33557153 -3.28613067 -2.85770035
   0.87688476 -3.77652836  0.8198626  -3.61840844 -3.5257051  -3.38285279
  -3.3969779   3.64063001  0.93042731 -3.42496252]
 [ 3.77763772 -3.78302884  3.50534606 -3.49424744 -3.45821691 -2.45067239
   3.08714199 -3.73886847  0.23037243 -3.21009636 -3.6121099  -3.45207429
  -3.6489892   3.46544433  0.34205303 -3.28860807]
 [ 3.48379946 -3.3271699   3.16857862 -3.5414598  -3.6548903   1.52178061
   0.2159671  -3.06020117 -0.0645665  -3.05011344 -3.4449482  -3.54622293
  -3.21997595  3.3581562  -0.16598628 -3.20917249]
 [ 3.18277931 -3.70599675  3.48989582 -3.70735025 -3.71320891  0.46337613
   0.74319118 -3.68253231  2.4639163  -3.54563236 -3.36295414 -3.61688995
  -3.69153428  3.54847145  2.14354992 -3.54778242]
 [ 3.77420044 -3.17376733  3.73468542 -3.73521876 -3.56178689 -0.67350292
  -0.0806266  -3.53423429  0.21485026 -3.68380332 -3.28567076 -3.56287694
  -3.61979318  3.55909753 -0.46295482 -3.20597386]
 [ 3.29174638 -3.53186965  3.89666128 -3.75710917 -3.48457885  0.92043144
   0.83738625 -3.5718019   0.50931185 -3.57363844 -3.39399004 -3.55734873
  -3.66001034  3.64576745  0.61463147 -3.96403956]
 [ 3.30844569 -3.19726729  3.2842834  -3.35755563 -3.51477551 -1.74111247
  -1.12122118 -3.16258287 -0.51520294 -3.20507121 -3.6106925  -3.38997626
  -3.53107882  3.44712687 -0.13510036 -3.40121436]
 [ 3.16245484 -3.26325202  3.73918796 -3.2616713  -3.69957328  2.52999496
   1.34832907 -3.4660728   0.70325387 -3.75464106 -3.79745603 -3.51540875
  -3.71292329  3.67040992  0.30261591 -3.3988924 ]
 [ 3.10981989 -3.27668405  3.53435969 -3.55918646 -3.23351932 -1.31073236
  -0.86909401 -3.54757357  0.20805207 -3.24235392 -3.41775274 -3.47443295
  -3.02021551  3.35503745 -0.41304439 -3.53582525]
 [ 3.70083499 -3.33114934  3.72136402 -3.17697358 -3.63405395  0.78847903
   0.98322809 -3.45305872  2.26173496 -3.48967576 -3.41541386 -3.03331447
  -3.39731455  3.37493515  2.10246301 -3.62466049]
 [ 3.31754446 -3.36714697  3.72883868 -3.73007917 -3.3378706   0.33561197
   0.61184257 -3.84589696  0.34925932 -3.86198664 -3.56291199 -3.32760143
  -3.79926395  3.50375533  0.55850393 -3.54559612]
 [ 3.6434679  -3.51675105  3.2108798  -3.19696259 -3.24268818 -1.93558538
   0.04753729 -3.46685719  0.28713492 -3.59884167 -3.48538661 -3.5931673
  -3.47868514  3.5758059   0.36724839 -3.69572949]
 [ 3.56188369 -3.60842037  3.86057091 -3.8086586  -3.55947971 -1.99041867
   3.03489017 -3.46640325  0.62955588 -3.27165794 -3.57177234 -3.24874568
  -3.54098606  3.80529737  0.72682506 -3.62317944]
 [ 3.64723706 -3.66828871  3.30092597 -3.60977912 -3.09665489 -1.98370993
  -0.28677174 -3.43788838  0.48652664 -3.25476956 -3.33293772 -3.34607291
  -3.74008799  3.67959404  0.27040136 -3.5748415 ]
 [ 3.6741333  -3.66212273  3.27776647 -3.36348486 -3.31564069 -1.17817867
   0.509978   -3.67870283  0.36458951 -3.83047962 -3.32878923 -3.22336793
  -3.67808986  3.62275791  0.33446696 -3.30427766]
 [ 3.41842198 -3.7304194   3.28396773 -3.82786107 -3.72775459 -1.18612158
   0.51332921 -3.77051711  0.3688758  -3.74170303 -3.73846412 -3.86728954
  -3.82915449  3.7586298   0.38177589 -3.64953113]
 [ 3.24087834 -3.67908835  3.34373975 -3.38120604 -3.21266842 -1.21487558
   0.65236014 -3.31748557  0.36678097 -3.69485521 -3.64628959 -3.48329926
  -3.14253187  3.28469563  0.4206045  -3.67963099]
 [ 3.14403462 -3.07377958  3.1306932  -3.45607829 -3.64950228 -0.32936457
   1.1663692  -3.6696279   2.66241002 -3.41244626 -3.33833575 -3.51743484
  -3.56177282  3.28476954  1.6409173  -3.72126579]
 [ 3.36576009 -3.27123857  3.12132287 -3.61209965 -3.43506789  1.56011057
   0.33947954 -3.56203294 -0.03010918 -3.51904392 -3.1459074  -3.69392848
  -3.41505122  3.29858828  0.24219237 -3.24958754]
 [ 3.65881276 -3.07258201  3.19356155 -3.64782    -3.27971983  0.90649301
   0.34335878 -3.70463872  0.15121837 -3.11329389 -3.18856978 -3.3664782
  -3.55331826  3.58723378  0.31645018 -3.10871148]
 [ 3.54724765 -3.293715    3.08979487 -3.21893191 -3.54039478 -2.51880312
   0.61734074 -3.43772149  0.46893984 -3.4109776  -3.42352676 -3.52453327
  -3.5063982   3.27741289  0.38641685 -3.47628593]
 [ 3.46248603 -3.44017124  3.4218874  -3.11325049 -3.54757452 -2.5331738
   0.25884834 -3.4772408   0.545551   -3.29906416 -3.44943523 -3.69120717
  -3.50382066  3.65644717  0.36006626 -3.45832992]
 [ 3.66159582 -3.26537585  3.30608892 -3.52669168 -3.4183073   1.6848166
   0.09417023 -3.28915071 -0.06394455 -3.31115699 -3.35453677 -3.31654668
  -3.55725026  3.35912871  0.02580209 -3.65613198]
 [ 3.17908335 -3.29845119  3.61378431 -3.55598402 -3.22858453  0.3366074
  -0.31223947 -3.29442334 -0.33605984 -3.5443716  -3.41785407 -3.12332702
  -3.38088727  3.66678548  0.06499638 -3.481915  ]
 [ 3.44381285 -3.4117322   3.40140247 -3.68131614 -3.24071097  1.47842145
   0.80749202 -3.74099588  1.35074294 -3.71574545 -3.66048193 -3.29510665
  -3.30616403  3.1818285   2.9020617  -3.38589978]
 [ 3.34731269 -3.76524425  3.58871579 -3.77057958 -3.49624968 -1.22568071
   0.59220022 -3.58991957  0.6540193  -3.58758521 -3.69687366 -3.35864949
  -3.23457742  3.70308399  0.08812384 -3.78280401]
 [ 3.79299712 -3.22797155  3.77820802 -3.80116439 -3.67924738 -0.4182294
   0.79939091 -3.51163459  0.33453301 -3.47241139 -3.77507877 -3.58465981
  -3.44310308  3.29912949  0.32954586 -3.72330308]]