Alice
[[  5.03382925e-03   2.18711291e-02  -5.31564141e-03   2.10174825e-02
   -2.17079930e-02   2.73511745e-03   1.95889603e-02  -5.38378907e-03
   -1.09279059e-01   6.32314244e-03   4.76936158e-03  -2.12169788e-03
   -2.23795604e-02   2.68039182e-02   4.13966877e-03  -1.89818162e-02]
 [  1.08136684e-02   7.28900591e-03  -1.06200362e-02   1.24503393e-02
    2.94036325e-03  -5.79964323e-03   9.09593515e-03  -1.10293711e-02
    1.11711789e-02   3.22555052e-03  -6.28599850e-03  -2.80647911e-03
   -8.53061210e-03   8.18411633e-03  -6.93537341e-03  -9.35095735e-03]
 [  1.07510425e-02   8.50596745e-03  -1.03702480e-02   1.27448337e-02
    3.32996459e-03  -5.68771968e-03   1.00722341e-02  -1.10489139e-02
    1.09435823e-02   3.16971773e-03  -6.17999211e-03  -3.38799646e-03
   -8.71289521e-03   8.29870533e-03  -7.38561945e-03  -9.19501577e-03]
 [  6.87375898e-03   7.36486819e-03  -6.75430102e-03   2.33249608e-02
   -2.81392410e-02   3.93301733e-02   1.06344456e-02  -6.83815405e-03
    6.64366316e-03   1.88911352e-02  -2.83155032e-03   2.47920062e-02
    1.10515796e-01   3.30326222e-02   4.42990959e-02  -9.02447104e-03]
 [  1.13587752e-02   7.77715631e-03  -1.12077948e-02   1.28421793e-02
    2.76269112e-03  -6.39182096e-03   1.05337789e-02  -1.17985290e-02
    1.17400680e-02   3.50350747e-03  -6.59028441e-03  -3.07865208e-03
   -9.22335312e-03   8.77078809e-03  -8.00149702e-03  -9.70769208e-03]
 [  1.12170093e-02   8.17042310e-03  -1.12129282e-02   1.31778196e-02
    3.25513072e-03  -6.31727371e-03   9.92532447e-03  -1.17767574e-02
    1.18894018e-02   3.68585857e-03  -6.68406487e-03  -3.03935469e-03
   -9.10153426e-03   8.80008098e-03  -7.41727371e-03  -9.83739924e-03]
 [  1.12504056e-02   7.46768853e-03  -1.04032774e-02   1.31589929e-02
    3.30418930e-03  -6.82637515e-03   9.02775209e-03  -1.13334451e-02
    1.09789809e-02   3.45276669e-03  -7.04469392e-03  -3.35304765e-03
   -8.73640180e-03   8.45246017e-03  -7.15005584e-03  -9.28878225e-03]
 [  9.16213170e-03   1.95409376e-02   1.00166872e-01   1.41552221e-02
    4.84796893e-03   1.24163029e-03   1.78410206e-02  -1.03894966e-02
    1.57976840e-02   5.59921190e-03   5.00965724e-03  -3.74663714e-03
   -1.97324492e-02   2.27770563e-02   1.26408588e-03  -1.80709381e-02]
 [ -1.01246707e-01   1.90558415e-02  -8.97871796e-03   1.15289306e-02
    4.71252669e-03   1.61996228e-03   1.78361442e-02  -9.95100662e-03
    1.57539826e-02   6.99885515e-03   3.64350830e-03  -4.00740281e-03
   -1.95656437e-02   2.29762774e-02   2.24131905e-03  -1.82225704e-02]
 [  1.02245444e-02   7.82290008e-03  -1.11376662e-02   1.31191481e-02
    2.90600583e-03  -6.73743896e-03   9.96983796e-03  -1.20659759e-02
    1.16667254e-02   3.53832683e-03  -6.45302190e-03  -2.71425117e-03
   -9.46023688e-03   8.64303578e-03  -7.05149071e-03  -1.04030101e-02]
 [  3.95266572e-03   2.33806968e-02  -4.85008024e-03   2.86619142e-02
   -1.88753121e-02  -3.45093504e-05  -1.03473142e-01  -4.41410160e-03
    4.17450257e-03   1.94992274e-02   6.51631039e-04   2.13500578e-02
   -2.41681617e-02   2.98412293e-02   3.68633792e-02  -1.79655477e-02]
 [  8.54813121e-03   1.65396985e-02  -7.45483022e-03   1.82666313e-02
   -2.46065930e-02  -1.06148503e-03   1.18751265e-02  -8.70171934e-03
    9.27466247e-03   2.04341300e-02   4.63637039e-02   3.12881172e-02
   -9.80443694e-03  -1.20487377e-01   4.29683253e-02  -4.17239917e-03]
 [  6.02995558e-03  -1.02949470e-01  -6.01342786e-03   1.82146840e-02
   -2.50274166e-02   3.61311249e-02   3.00179096e-03  -6.50857715e-03
    6.29074639e-03   2.13694479e-02   4.01431844e-02   2.51033865e-02
   -2.78155450e-02   2.97065675e-02  -5.97162521e-04  -1.35752456e-02]
 [  5.63943852e-03   1.94673352e-02  -5.28663862e-03   2.82970499e-02
   -2.39675995e-02   3.69457826e-02   8.65727942e-03  -5.73274773e-03
    6.04591426e-03   1.57582052e-02  -1.14043907e-03   2.39191875e-02
   -2.78802942e-02   2.93047726e-02   2.66273716e-03   1.03414796e-01]
 [  1.11816861e-02   7.68920081e-03  -1.07863778e-02   1.33032901e-02
    2.43269186e-03  -6.60200184e-03   9.89773124e-03  -1.13574108e-02
    1.16230547e-02   3.37900198e-03  -6.66451687e-03  -2.83230701e-03
   -8.85828584e-03   8.29297677e-03  -7.26122642e-03  -9.49816313e-03]
 [  8.46497715e-03   1.99198481e-02  -8.71435925e-03   1.54592711e-02
    3.42270778e-03   3.09037068e-03   1.85239520e-02   1.04099497e-01
    1.58910472e-02   6.84347190e-03   5.59638580e-03  -3.17938928e-03
   -2.07218714e-02   2.37944983e-02   3.27408430e-03  -1.85170285e-02]
 [ -2.31251374e-01   3.20363194e-01   4.64995652e-02   8.79411459e-01
   -4.05621171e-01   6.83758676e-01   8.11669350e-01  -6.47960544e-01
    3.07000071e-01   6.99370444e-01   6.37627006e-01   4.75069404e-01
   -8.45022142e-01   5.71425200e-01   4.90701318e-01  -4.89829004e-01]
 [ -8.49412084e-02   1.55971754e+00   7.19734188e-03   1.27185833e+00
   -1.56996155e+00   1.59025824e+00   1.55511248e+00  -1.55597663e+00
    1.48130953e+00   1.56504643e+00   1.59046865e+00   1.58322811e+00
   -1.38961852e+00   1.32248378e+00   1.61503279e+00  -1.47775280e+00]
 [  3.82234454e-02   1.38294280e+00   1.08053945e-02   1.96029425e+00
   -1.41641819e+00   1.36913872e+00   1.24749172e+00  -1.37306619e+00
    1.37908530e+00   1.41455710e+00   1.39096260e+00   1.32329190e+00
   -1.14619756e+00   1.12317634e+00   1.40491045e+00  -1.39409471e+00]
 [ -8.33478048e-02   1.39169312e+00   1.48934573e-02   7.13535190e-01
   -1.25809741e+00   1.32422113e+00   1.12708461e+00  -1.29641342e+00
    1.32590568e+00   1.27323461e+00   1.23719442e+00   1.25501966e+00
   -1.07259381e+00   7.33595550e-01   1.04926789e+00  -9.93303955e-01]
 [ -5.53366309e-03   1.51158941e+00   1.15210153e-02   1.28655207e+00
   -1.50244546e+00   1.58161044e+00   1.55501676e+00  -1.53321767e+00
    1.48261559e+00   1.50681317e+00   1.53473675e+00   1.51018965e+00
   -1.42395389e+00   1.30304503e+00   1.52692747e+00  -1.80515754e+00]
 [  1.50495663e-01   1.91529155e-01  -3.56520675e-02   1.87191367e-01
   -3.54892284e-01   3.15629870e-01   8.88093337e-02  -3.82587910e-01
    6.41035855e-01   4.13379043e-01   3.36500138e-01   2.20057115e-01
    1.92625932e-02   6.21189058e-01   3.54129881e-01  -7.63917744e-01]
 [  7.25911632e-02   1.48363960e+00  -4.01523244e-03   1.28369129e+00
   -1.47854030e+00   1.52653646e+00   1.48291481e+00  -1.66413009e+00
    1.50348651e+00   1.47661078e+00   1.59838319e+00   1.48353744e+00
   -1.36859715e+00   1.41891372e+00   1.61830914e+00  -1.50719309e+00]
 [ -1.46154771e-02   1.21766305e+00   2.73277108e-02   1.01504064e+00
   -1.29718566e+00   1.31903219e+00   1.30231082e+00  -1.27675211e+00
    1.30296326e+00   1.29860401e+00   1.35184431e+00   1.31091142e+00
   -1.31834364e+00   1.11249280e+00   1.33319187e+00  -1.17465806e+00]
 [ -2.54713416e-01   1.64626807e-01   1.72175225e-02   5.58943212e-01
   -2.33289842e-02  -7.63411224e-02   3.07692379e-01  -2.92496800e-01
    6.03354514e-01  -1.17340095e-01   1.15831137e-01  -1.84617400e-01
   -5.65396130e-01   3.81443053e-01  -8.52984041e-02   2.44542256e-01]
 [  3.14341515e-01   9.77155745e-01  -5.41290082e-02   8.89431477e-01
   -7.89404571e-01   6.94755316e-01   7.01328695e-01  -7.16763616e-01
    7.31748521e-01   5.90800047e-01   7.06607044e-01   7.53457546e-01
   -8.52431118e-01   1.06554937e+00   7.10285068e-01  -8.31256628e-01]
 [ -8.42023641e-03   1.36033499e+00   2.66471170e-02   1.25002253e+00
   -1.48127162e+00   1.47814846e+00   1.46579134e+00  -1.46756256e+00
    1.73130810e+00   1.35360599e+00   1.47958064e+00   1.58305919e+00
   -1.35291827e+00   1.29024053e+00   1.55396414e+00  -1.52287745e+00]
 [  3.58372107e-02   1.61922061e+00   5.72749078e-02   1.33630991e+00
   -1.63203657e+00   1.66497231e+00   1.63708413e+00  -1.62732148e+00
    1.54112196e+00   1.61665070e+00   1.64707506e+00   1.64338422e+00
   -1.46757364e+00   1.37170482e+00   1.65768778e+00  -1.49867558e+00]
 [ -5.69265112e-02   1.11181331e+00   2.58070789e-02   9.43881333e-01
   -1.16177201e+00   1.20024216e+00   1.13045323e+00  -1.18438888e+00
    1.11908460e+00   1.23209631e+00   1.17969978e+00   1.24161732e+00
   -1.06327724e+00   1.87552226e+00   1.12615156e+00  -1.13214934e+00]
 [  4.20451239e-02   1.04806840e+00   7.35755125e-03   7.60445118e-01
   -1.07872415e+00   1.03059030e+00   1.28861737e+00  -1.03459954e+00
    9.94043589e-01   1.07945323e+00   1.06217253e+00   1.02635109e+00
   -1.57246828e+00   8.56006980e-01   1.05366480e+00  -1.10410154e+00]
 [ -3.31972539e-02   1.43145323e+00   2.68595703e-02   1.13273430e+00
   -1.30711699e+00   1.33354259e+00   1.29460979e+00  -1.32144356e+00
    1.22306919e+00   1.19453847e+00   1.35239279e+00   1.39395225e+00
   -1.21406329e+00   1.16965544e+00   1.34278226e+00  -1.35641634e+00]
 [ -5.92317246e-02   6.75914407e-01   8.55817944e-02   3.38741452e-01
   -5.11507332e-01   7.50195324e-01   6.88240290e-01  -7.31804967e-01
    3.82248968e-01   4.16242421e-01   5.78526080e-01   9.34966922e-01
   -5.59302151e-01   3.73997808e-01   8.58821154e-01  -1.09908342e+00]]
Bob
[[ -3.31191234e-02   6.97562564e-03  -1.37462812e-02  -3.73572856e-02
   -7.62338517e-03  -1.68788899e-02  -7.10788416e-03  -1.04907453e-02
   -2.15275157e-02   1.51438192e-02  -8.69342871e-03  -6.94286544e-03
   -1.20563231e-01   2.41657849e-02  -9.63030756e-03   2.52282266e-02]
 [  5.51552139e-03   1.09259281e-02  -8.45312048e-03   5.84780565e-03
   -1.07754357e-02   2.49423785e-03  -9.98680014e-03  -8.37680604e-03
   -3.76124354e-03  -9.08150338e-03  -9.21623316e-03  -1.12084588e-02
    8.66593979e-03   4.88062436e-03  -9.61022358e-03  -2.49732309e-03]
 [ -2.95090731e-02   4.58465610e-03  -2.37963311e-02   7.84292351e-04
   -3.98444757e-03  -1.00725768e-02  -5.18116215e-03  -3.57617601e-03
   -1.38318902e-02   2.29574069e-02   1.07701823e-01  -4.09834273e-03
    2.82375403e-02   2.12090667e-02  -2.21420508e-02   2.27940585e-02]
 [ -2.58675730e-03   7.65978871e-03  -2.12669317e-02  -1.67022052e-03
    1.02791466e-01   4.27686376e-03  -1.84524916e-02  -2.55199079e-03
   -1.34807611e-02   7.93896429e-03  -1.98361091e-02  -7.40572345e-03
    2.34847777e-02   1.80054903e-02  -1.98136587e-02  -4.99609020e-03]
 [  5.19393804e-03   1.07191317e-02  -8.45021848e-03   5.73753193e-03
   -1.09360768e-02   2.12459057e-03  -1.02434363e-02  -8.96001142e-03
   -3.49259702e-03  -9.42408852e-03  -9.38706193e-03  -1.09731024e-02
    8.86018481e-03   5.28072333e-03  -9.10467189e-03  -2.30242568e-03]
 [  6.25889236e-03   1.10018551e-02  -8.76356196e-03   6.23149378e-03
   -1.10268211e-02   2.79319240e-03  -9.79372952e-03  -8.51092860e-03
   -3.69051099e-03  -9.63808782e-03  -9.23849642e-03  -1.03906598e-02
    9.45848133e-03   5.37553988e-03  -8.80363304e-03  -2.84455903e-03]
 [ -2.82814377e-03   5.17302332e-03  -2.40897350e-02  -2.79258471e-03
   -6.24706922e-03  -1.52847394e-02   1.02699272e-01  -3.24729201e-03
   -1.52194053e-02   2.48946231e-02  -2.22309474e-02  -5.28267678e-03
    2.61923429e-02   2.05327291e-02  -2.15948839e-02  -4.04590694e-03]
 [  5.38638746e-03   1.08684106e-02  -7.96536542e-03   4.80422797e-03
   -1.10765649e-02   2.13954085e-03  -9.93139483e-03  -8.50857794e-03
   -3.73349735e-03  -9.65879485e-03  -8.86971224e-03  -1.04876934e-02
    8.58720858e-03   5.60450787e-03  -8.92551616e-03  -2.17652693e-03]
 [  2.12252233e-03   6.09560963e-03   1.08034611e-01  -3.53583097e-02
   -6.51123980e-03  -2.08216421e-02  -6.16718270e-03  -1.07899178e-02
   -1.74934752e-02   2.63724308e-02  -6.44141296e-03  -5.97174279e-03
    3.09278015e-02   2.54589934e-02  -8.62284284e-03   2.49572210e-02]
 [  5.40455710e-03   1.13296891e-02  -8.48156959e-03   5.13910223e-03
   -1.12259928e-02   1.33496965e-03  -1.04833553e-02  -8.76351073e-03
   -3.91655881e-03  -9.92179289e-03  -9.87036433e-03  -1.18362773e-02
    9.10704397e-03   5.39639313e-03  -9.78840422e-03  -1.94966095e-03]
 [ -1.34482863e-03   9.26050451e-03  -2.00889893e-02  -8.54725076e-04
   -1.17831416e-02   2.92835641e-03  -1.76551156e-02  -3.83877521e-03
   -6.73052575e-03   4.64513479e-03  -1.93291325e-02   9.89573002e-02
    2.13253312e-02   1.62527133e-02  -1.83686409e-02  -4.54721041e-03]
 [  6.13616873e-03   1.08392136e-02  -8.90943408e-03   5.82213188e-03
   -1.14887161e-02   2.73517170e-03  -1.00983810e-02  -9.50199179e-03
   -3.32260947e-03  -8.69523641e-03  -9.96680837e-03  -1.05352709e-02
    8.72478541e-03   5.27655846e-03  -9.15080216e-03  -3.05621442e-03]
 [ -3.76291270e-03   9.53879580e-03  -1.73851456e-02  -2.85225175e-02
   -1.15881739e-02  -1.97071042e-02  -1.46087809e-02   8.79629776e-02
   -1.32456068e-02   1.81694645e-02  -1.50397355e-02  -9.72331595e-03
    2.29022484e-02  -7.95439705e-02  -1.44861713e-02   2.08942890e-02]
 [ -4.94003289e-05  -1.00628771e-01  -1.94579381e-02   7.75735301e-04
   -1.26909735e-02   3.39982426e-03  -1.74296480e-02  -4.45435895e-03
   -4.11704369e-03   5.42565295e-03  -1.95518788e-02  -9.60378069e-03
    2.06936542e-02   1.62092037e-02  -1.90675296e-02  -5.34492685e-03]
 [ -3.15227881e-02   5.41175064e-03  -2.15190183e-02   8.77165876e-04
   -5.63529646e-03  -1.90705620e-02  -6.32968545e-03  -5.54748997e-03
   -2.11185515e-02   2.01367699e-02  -9.92288999e-03  -4.94834874e-03
    2.84425076e-02   2.00412069e-02   1.06199570e-01   2.36806069e-02]
 [  5.39261103e-03   1.07329292e-02  -8.65025725e-03   5.92149934e-03
   -1.14046261e-02   2.31359014e-03  -1.09447017e-02  -9.30556469e-03
   -3.86569672e-03  -1.00502502e-02  -9.70329717e-03  -1.13875745e-02
    9.25598759e-03   5.72965061e-03  -9.58073698e-03  -2.43357336e-03]
 [ -1.61602819e+00  -1.07379086e-01  -1.41191840e+00  -1.67187202e+00
   -1.58302271e+00  -1.64381778e+00  -1.55787599e+00  -1.52147257e+00
   -1.58371162e+00   1.59432042e+00  -1.48090827e+00   2.11491040e-03
    1.32234347e+00   1.42067122e+00  -1.58489609e+00   1.58937967e+00]
 [ -1.57464015e+00   1.53873591e-02  -1.31160700e+00  -1.56056690e+00
   -1.53334582e+00  -1.64811838e+00  -1.46646881e+00  -1.61252558e+00
   -1.57719684e+00   1.40780616e+00  -1.46106625e+00   7.04425350e-02
    1.22501493e+00   1.37723994e+00  -1.54287648e+00   1.52466404e+00]
 [ -1.66897762e+00   2.48115137e-02  -1.42628598e+00  -1.65849710e+00
   -1.60181713e+00  -1.68390870e+00  -1.57876682e+00  -1.55788398e+00
   -1.60894763e+00   1.62707627e+00  -1.50433123e+00   4.09158841e-02
    1.35119867e+00   1.45091772e+00  -1.62558842e+00   1.61670744e+00]
 [  6.82792366e-02  -2.25107193e-01  -5.55561006e-01   2.53121138e-01
    1.46041676e-01  -1.40481547e-01  -1.04765538e-02   2.26683263e-03
    7.37992153e-02  -1.15813047e-01  -5.96201383e-02  -1.15762122e-01
    2.24231884e-01   1.66789308e-01  -2.68322200e-01  -8.27869549e-02]
 [ -4.86216426e-01   6.20217137e-02  -7.22809076e-01  -8.61854494e-01
   -7.11554945e-01  -7.71293521e-01  -4.76269662e-01  -7.52530694e-01
   -5.76874375e-01   8.13482404e-01  -2.10306838e-01   1.48901239e-01
    6.91718698e-01   5.11418879e-01  -2.66841084e-01   5.59726894e-01]
 [ -8.03028703e-01   8.74458700e-02  -5.68764150e-01  -7.93259799e-01
   -4.77259964e-01  -7.84758806e-01  -6.72258973e-01  -9.42844570e-01
   -7.51078606e-01   5.84964216e-01  -8.51667047e-01  -8.58039595e-03
    9.24426734e-01   5.82764924e-01  -9.40635085e-01   7.38059819e-01]
 [ -1.61326420e+00  -2.77075265e-02  -1.44231975e+00  -1.57943094e+00
   -1.54040527e+00  -1.45012629e+00  -1.55828512e+00  -2.01535583e+00
   -1.40402699e+00   1.73319399e+00  -1.48180413e+00   2.98244413e-02
    1.31078279e+00   1.31856811e+00  -1.47226369e+00   1.58797991e+00]
 [ -1.57097042e+00   2.49913335e-02  -1.35231876e+00  -1.57736278e+00
   -1.50480175e+00  -1.59428585e+00  -1.76375997e+00  -1.46401501e+00
   -1.52831841e+00   1.55974138e+00  -1.42263806e+00  -2.05320842e-03
    1.27841151e+00   1.35446072e+00  -1.53331554e+00   1.54113388e+00]
 [ -1.47315741e+00   3.84222623e-03  -1.33710599e+00  -1.52978647e+00
   -1.45879936e+00  -1.55413556e+00  -1.42174911e+00  -1.44003260e+00
   -1.43684793e+00   1.53942788e+00  -1.83707094e+00   4.16040048e-02
    1.27544785e+00   1.28133488e+00  -1.36408627e+00   1.60245609e+00]
 [  2.28416249e-01   2.96823859e-01  -5.34216911e-02  -3.21198136e-01
   -3.99864465e-01   1.64325923e-01  -2.30935141e-01  -1.86478756e-02
    5.34050129e-02  -1.40814960e-01  -4.11303937e-01   8.42934847e-02
    1.90943971e-01   2.89579391e-01  -2.78416611e-02   9.20795090e-03]
 [ -1.11062622e+00   9.24852956e-03  -1.06556499e+00  -1.12193406e+00
   -1.30657685e+00  -1.13604116e+00  -1.08019197e+00  -1.17761767e+00
   -1.11938524e+00   9.87126946e-01  -1.14832056e+00  -3.26615721e-02
    6.39012814e-01   1.31110668e+00  -9.86784816e-01   1.14576876e+00]
 [ -6.60015583e-01  -2.51182497e-01  -3.89467448e-01  -1.90652713e-01
   -6.39106750e-01  -8.86958316e-02  -7.44092822e-01  -6.96663916e-01
   -3.92543912e-01   5.29534400e-01  -6.29718900e-01   1.06885821e-01
    2.70373344e-01   6.03517711e-01  -2.77318805e-01   2.97727019e-01]
 [ -1.37259459e+00   1.37834502e-02  -1.21258843e+00  -1.31766129e+00
   -1.24225724e+00  -1.15914166e+00  -1.26174700e+00  -1.30291247e+00
   -1.33366179e+00   1.44941974e+00  -1.22185349e+00   3.05416659e-02
    1.16304791e+00   1.90569973e+00  -1.26383841e+00   1.34926951e+00]
 [ -1.19039583e+00  -7.88705423e-03  -1.08202744e+00  -1.11763191e+00
   -1.19707513e+00  -1.18420637e+00  -1.11144233e+00  -1.10016489e+00
   -9.93135214e-01   1.22558737e+00  -1.05131578e+00   2.47156713e-02
    1.75117540e+00   1.04356945e+00  -9.92971420e-01   1.14208758e+00]
 [ -9.82195914e-01   3.94092798e-02  -1.11283219e+00  -9.07299817e-01
   -8.57305706e-01  -8.33771706e-01  -9.13358629e-01  -7.16201782e-01
   -8.16930950e-01   8.03251505e-01  -8.67433965e-01  -1.03187889e-01
    8.31669629e-01   5.72619081e-01  -1.17201591e+00   1.03227270e+00]
 [ -1.49481952e+00  -2.24692356e-02  -1.20403826e+00  -1.41992009e+00
   -1.59999573e+00  -1.33459663e+00  -1.37908220e+00  -1.48436356e+00
   -1.49595559e+00   1.37734604e+00  -1.34867597e+00   6.33638278e-02
    1.27441990e+00   1.22018504e+00  -1.30902433e+00   1.43450165e+00]]
Eve
[[ -3.08213234e+00   3.60383368e+00  -1.09885502e+00  -3.34995890e+00
   -3.22483706e+00   3.30164838e+00   3.37848210e+00   3.55411959e+00
   -3.55030751e+00   3.62922549e+00  -3.53273392e+00   3.49991393e+00
   -3.35405064e+00  -3.30362654e+00   3.54028320e+00   3.26558328e+00]
 [ -5.44210494e-01   3.81320834e+00  -5.19015014e-01  -3.23836398e+00
   -3.39202929e+00   3.53973269e+00   3.52692556e+00   3.55693650e+00
   -3.63181090e+00   3.66799212e+00  -3.73488402e+00   3.23525286e+00
   -3.28560233e+00  -3.78726292e+00   3.61611176e+00   3.83135748e+00]
 [ -1.19865394e+00   3.53201628e+00  -2.97468376e+00  -3.71486640e+00
   -3.37897253e+00   3.19548750e+00   3.83366680e+00   3.53798938e+00
   -3.28273034e+00   3.19531536e+00  -3.43381810e+00   3.69119310e+00
   -3.34717178e+00  -3.66447926e+00   3.53972435e+00   3.60560083e+00]
 [  2.99082041e-01   3.47309637e+00   3.14187109e-01  -3.90426111e+00
   -3.91806984e+00   3.35497618e+00   3.51966929e+00   3.93975115e+00
   -3.41174674e+00   3.84966016e+00  -3.95778728e+00   3.97837687e+00
   -3.39168835e+00  -3.70292425e+00   3.45433569e+00   3.38681817e+00]
 [ -2.23233059e-01   3.43321371e+00  -9.19822901e-02  -3.19356966e+00
   -3.61961007e+00   3.53134298e+00   3.55836892e+00   3.21367359e+00
   -3.13690400e+00   3.10714531e+00  -3.11103773e+00   3.34323192e+00
   -3.34507465e+00  -3.60257316e+00   3.09186840e+00   3.76036024e+00]
 [ -5.18302202e-01   3.55468416e+00  -4.15030181e-01  -3.28858328e+00
   -3.42424583e+00   3.35642838e+00   3.41706586e+00   3.31394434e+00
   -3.28878498e+00   3.35492873e+00  -3.23741865e+00   3.12734461e+00
   -3.23668742e+00  -3.17338967e+00   3.03712368e+00   3.47166800e+00]
 [ -6.06509328e-01   3.70484805e+00  -5.27543128e-01  -3.82946229e+00
   -3.79245758e+00   3.55719090e+00   3.68594933e+00   3.86123991e+00
   -3.59943199e+00   3.61714482e+00  -3.53675008e+00   3.69403291e+00
   -3.54720855e+00  -3.45623684e+00   3.39302278e+00   3.75051761e+00]
 [ -1.01564491e+00   3.24457312e+00  -9.17411387e-01  -3.41195655e+00
   -3.73634171e+00   3.18100882e+00   3.33437872e+00   3.58642602e+00
   -3.41562772e+00   3.59536576e+00  -3.75332880e+00   3.31017017e+00
   -3.44886494e+00  -3.52718115e+00   3.33929920e+00   3.79794693e+00]
 [ -6.87863529e-01   3.33842444e+00  -5.79691947e-01  -3.80753827e+00
   -3.80488539e+00   3.52589750e+00   3.91242361e+00   3.51626992e+00
   -3.64076829e+00   3.36654449e+00  -3.54354858e+00   3.86142588e+00
   -3.78023887e+00  -3.20499802e+00   3.65635037e+00   3.67357016e+00]
 [  4.76759821e-01   3.26049662e+00   1.15711531e-02  -3.32886100e+00
   -3.46774697e+00   3.37497973e+00   3.90640783e+00   3.78465605e+00
   -3.82405710e+00   3.62324858e+00  -3.44963336e+00   3.72820926e+00
   -3.80383706e+00  -3.39354491e+00   3.38921237e+00   3.50594664e+00]
 [ -1.09263253e+00   3.65976262e+00  -1.07574356e+00  -3.58355331e+00
   -3.13033390e+00   3.01672411e+00   3.55120587e+00   3.12413383e+00
   -3.04191232e+00   3.22040391e+00  -3.27862835e+00   3.65720940e+00
   -3.43698716e+00  -3.00154662e+00   3.59947634e+00   3.24001050e+00]
 [ -2.08091721e-01   3.59217978e+00  -3.36756743e-02  -3.74545908e+00
   -3.77729273e+00   3.59611845e+00   3.61381531e+00   3.15658474e+00
   -3.18236995e+00   3.65658641e+00  -3.57232428e+00   3.27654624e+00
   -3.58285332e+00  -3.43101048e+00   3.60510612e+00   3.26532125e+00]
 [ -4.45846468e-01   3.79101825e+00  -3.67861807e-01  -3.40097642e+00
   -3.61897635e+00   3.76940060e+00   3.80762625e+00   3.22758245e+00
   -3.38808751e+00   3.63425684e+00  -3.75482368e+00   3.33936977e+00
   -3.49693823e+00  -3.21537924e+00   3.55863595e+00   3.25021148e+00]
 [ -3.81409526e-01   3.70786548e+00  -3.37764233e-01  -3.42498112e+00
   -3.77496195e+00   3.90863609e+00   3.63296509e+00   3.59523177e+00
   -3.83797383e+00   3.30279684e+00  -3.64388895e+00   3.92505693e+00
   -3.31597495e+00  -3.83486676e+00   3.55061865e+00   3.58114147e+00]
 [ -9.18692887e-01   3.74189639e+00  -7.15816379e-01  -3.39134407e+00
   -3.13384295e+00   3.15018010e+00   3.55164695e+00   3.84507394e+00
   -3.30367851e+00   3.42869616e+00  -3.19985127e+00   3.63374734e+00
   -3.59391904e+00  -3.57400966e+00   3.47935057e+00   3.39388347e+00]
 [ -4.53887224e-01   3.75790858e+00  -3.79369080e-01  -3.78607464e+00
   -3.24334383e+00   3.18102503e+00   3.22396398e+00   3.70423293e+00
   -3.86886239e+00   3.68843341e+00  -3.29435301e+00   3.50558376e+00
   -3.38484526e+00  -3.29915214e+00   3.30415368e+00   3.28523326e+00]
 [ -1.97278619e-01   3.26319289e+00  -5.78669012e-02  -3.53568792e+00
   -3.63439655e+00   3.44005179e+00   3.45049024e+00   3.62446737e+00
   -3.55371046e+00   3.68822551e+00  -3.26718926e+00   3.36905909e+00
   -3.42407846e+00  -3.22773719e+00   3.08897948e+00   3.65671325e+00]
 [ -2.71314096e+00   3.71970773e+00  -9.94633734e-01  -3.37949491e+00
   -3.16910553e+00   3.56040573e+00   3.64943504e+00   3.38489771e+00
   -3.74484396e+00   3.14698243e+00  -3.13098860e+00   3.63046694e+00
   -3.04691124e+00  -3.13790321e+00   3.22211885e+00   3.36524796e+00]
 [ -3.47506106e-01   3.36165714e+00  -3.91313821e-01  -3.45507383e+00
   -3.34663439e+00   3.79097676e+00   3.79698086e+00   3.70866728e+00
   -3.88057971e+00   3.44609046e+00  -3.37901235e+00   3.84968424e+00
   -3.43077588e+00  -3.54846525e+00   3.67214656e+00   3.42751384e+00]
 [ -8.09659600e-01   3.17392731e+00  -8.40350926e-01  -3.50933957e+00
   -3.35913301e+00   3.60504079e+00   3.36055017e+00   3.24387860e+00
   -3.29492736e+00   3.50070190e+00  -3.50816941e+00   3.68347287e+00
   -3.28306746e+00  -3.38674974e+00   3.25884485e+00   3.49231172e+00]
 [ -7.30055094e-01   3.50698853e+00  -7.64016926e-01  -3.36206961e+00
   -3.75623918e+00   3.49990511e+00   3.50719929e+00   3.76282382e+00
   -3.47482061e+00   3.45622993e+00  -3.65045762e+00   3.74291253e+00
   -3.78915334e+00  -3.58902216e+00   3.73673630e+00   3.69374347e+00]
 [  2.86434472e-01   3.35267186e+00   3.88710350e-01  -3.49900198e+00
   -3.24851918e+00   3.50847578e+00   3.62119269e+00   3.48261619e+00
   -3.47927976e+00   3.14845300e+00  -3.61820531e+00   3.45720220e+00
   -3.42126584e+00  -3.65677476e+00   3.32239532e+00   3.35322571e+00]
 [ -5.51203847e-01   3.18357134e+00  -6.14281535e-01  -3.35371661e+00
   -3.36408448e+00   3.13370490e+00   3.39721775e+00   3.32576942e+00
   -3.22490358e+00   3.58185434e+00  -3.20556355e+00   3.73843718e+00
   -3.47046185e+00  -3.71107602e+00   3.74179554e+00   3.60558224e+00]
 [ -9.19750571e-01   3.55432010e+00  -6.83532596e-01  -3.04927206e+00
   -3.33130598e+00   3.51472163e+00   3.56279778e+00   3.30514312e+00
   -3.60034966e+00   3.07889318e+00  -3.50608540e+00   3.38808560e+00
   -3.04394984e+00  -3.04038382e+00   3.39352560e+00   3.52946520e+00]
 [  3.05371314e-01   3.40822434e+00   3.37293237e-01  -3.54743767e+00
   -3.30941701e+00   3.64852953e+00   3.36422753e+00   3.41189671e+00
   -3.30223203e+00   3.69344211e+00  -3.62325287e+00   3.37174225e+00
   -3.51737022e+00  -3.84138274e+00   3.25279617e+00   3.93369532e+00]
 [ -8.25768530e-01   3.51247358e+00  -9.28875089e-01  -3.19267082e+00
   -3.53778076e+00   3.28314114e+00   3.42270231e+00   3.49383020e+00
   -3.52272296e+00   3.37188029e+00  -3.65579295e+00   3.55909085e+00
   -3.53300405e+00  -3.39769101e+00   3.54692245e+00   3.29282713e+00]
 [ -3.88670266e-01   3.26936221e+00  -4.29669142e-01  -3.62619472e+00
   -3.17531109e+00   3.67580891e+00   3.63023543e+00   3.33951759e+00
   -3.78325748e+00   3.48930192e+00  -3.64587021e+00   3.45344639e+00
   -3.66593528e+00  -3.46752048e+00   3.46105218e+00   3.33021998e+00]
 [ -9.98860419e-01   3.69476795e+00  -3.20801282e+00  -3.61327291e+00
   -3.38919735e+00   3.75162864e+00   3.42488694e+00   3.28138447e+00
   -3.22410965e+00   3.50530243e+00  -3.35067344e+00   3.19081354e+00
   -3.61970806e+00  -3.24603248e+00   3.53120589e+00   3.56771517e+00]
 [ -2.24556744e-01   3.26022506e+00  -2.35199094e-01  -3.57712030e+00
   -3.41801691e+00   3.30761385e+00   3.26489186e+00   3.72929025e+00
   -3.39518309e+00   3.78408551e+00  -3.20563889e+00   3.49308562e+00
   -3.67919707e+00  -3.72039056e+00   3.74093628e+00   3.32479072e+00]
 [ -2.76229590e-01   3.49172282e+00  -3.50495011e-01  -3.63067484e+00
   -3.33836150e+00   3.75064588e+00   3.43798351e+00   3.53639674e+00
   -3.32955956e+00   3.37363791e+00  -3.40411520e+00   3.55890989e+00
   -3.78529501e+00  -3.81728983e+00   3.27603126e+00   3.25850701e+00]
 [ -2.90754318e-01   3.80274820e+00  -3.00549060e-01  -3.88157678e+00
   -3.65488172e+00   3.78081393e+00   3.77524090e+00   3.34331441e+00
   -3.83673978e+00   3.83135414e+00  -3.86428356e+00   3.52386355e+00
   -3.70853281e+00  -3.30196857e+00   3.36465836e+00   3.37981725e+00]
 [  6.14756951e-04   3.40267682e+00  -8.27794969e-02  -3.52226233e+00
   -3.76006079e+00   3.15687418e+00   3.55307460e+00   3.59209895e+00
   -3.79494691e+00   3.40123582e+00  -3.13351083e+00   3.55887866e+00
   -3.41957307e+00  -3.68846488e+00   3.71781564e+00   3.65950894e+00]]