Alice
[[  1.06954409e-04  -3.44849937e-03  -4.19046823e-03  -1.88349886e-03
    5.45385061e-03   4.43570661e-06   3.36187799e-03  -3.28940339e-03
   -7.29314238e-03  -5.86799532e-03   5.83912712e-03  -4.44454234e-03
    5.53949084e-03   5.13051823e-03  -4.23436100e-03  -6.43361360e-04]
 [ -2.74839898e-04  -4.27575875e-03  -4.51519620e-03  -1.33133074e-03
    6.46782527e-03  -7.55452260e-04   4.72958526e-03  -5.88395912e-03
   -6.69951737e-03  -4.99770325e-03   7.06740934e-03  -5.56241861e-03
    6.31316425e-03   5.07610524e-03  -5.06491400e-03  -3.89785855e-04]
 [ -1.50154601e-03  -4.21731221e-03  -5.37756225e-03  -4.39062389e-03
    6.06514048e-03  -2.43714429e-03   4.19819960e-03   4.28710307e-04
    5.57967350e-02  -4.13063169e-03   4.88684140e-03  -3.54380836e-03
    4.48755268e-03   6.10510539e-03  -5.32902684e-03  -6.78943656e-03]
 [ -3.97056388e-03  -5.54919988e-03  -5.37581230e-03  -5.91968093e-03
   -4.63555045e-02  -3.39524471e-03   5.91476122e-03   4.50164033e-03
   -4.09168890e-03  -3.29861091e-03   3.45855835e-03  -2.33633514e-03
    2.75190151e-03   5.80705935e-03  -6.57014130e-03  -6.52201800e-03]
 [ -4.64163208e-03   4.11827639e-02  -4.66417056e-03  -5.81311574e-03
    3.99666606e-03  -3.95402359e-03   6.08446216e-03   8.34120438e-03
   -3.74911772e-03  -3.29297106e-03   4.84236050e-03  -2.47602770e-03
    4.79683978e-03   4.35529696e-03  -4.78424458e-03  -6.73361402e-03]
 [ -5.46987774e-03  -5.84170362e-03   4.21487726e-02  -7.48721184e-03
    2.77059176e-03  -4.43844171e-03   5.47212129e-03   7.18549825e-03
   -3.53859575e-03  -2.22681742e-03   3.92931141e-03  -2.48128083e-03
    3.37938778e-03   3.76122887e-03  -4.46592411e-03  -6.32181065e-03]
 [ -3.93235777e-03  -4.76697041e-03  -5.27135981e-03   2.71392353e-02
    3.93797224e-03  -6.20365655e-03   6.02947176e-03   1.35135325e-02
   -2.74976389e-03  -3.22928885e-03   3.21356999e-03   4.31683697e-02
    2.76563549e-03   4.59388876e-03  -4.13214136e-03  -7.68877659e-03]
 [ -4.37143911e-03  -5.38662681e-03  -5.54403197e-03  -5.98034728e-03
    3.29338177e-03  -3.50193772e-03   5.66718634e-03   4.90297703e-03
   -3.24988225e-03  -3.04469676e-03   3.27833393e-03  -1.84518122e-03
    2.73131253e-03  -4.54093255e-02  -5.72101818e-03  -6.40180707e-03]
 [ -4.75079380e-03  -5.93481073e-03  -5.13765309e-03  -6.73778309e-03
    4.71026264e-03  -4.49573155e-03   6.31582551e-03   7.38162082e-03
   -2.54503661e-03   4.46030684e-02   2.03931867e-03  -2.25039083e-03
    2.79306807e-03   5.42343548e-03  -5.81501098e-03   3.13902758e-02]
 [ -4.93574655e-04  -4.20098286e-03  -4.09679674e-03  -1.80039578e-03
    5.54592628e-03  -8.90519936e-04   4.81608324e-03  -4.80390945e-03
   -5.70463017e-03  -6.14359789e-03   6.28112908e-03  -5.40653151e-03
    6.19838340e-03   4.86766035e-03  -3.24726733e-03  -6.85697189e-04]
 [  4.57784306e-04  -3.39991599e-03  -4.02873149e-03  -2.04219879e-03
    5.47879469e-03   6.15900324e-04   3.58608086e-03  -2.73779803e-03
   -6.60656393e-03  -5.43415919e-03   5.49362088e-03  -4.23465343e-03
    5.25009213e-03   4.86659212e-03  -2.81718443e-03   3.27645248e-04]
 [ -5.44027798e-03  -5.86823700e-03  -3.91599629e-03  -7.36375293e-03
    3.04770935e-03  -4.56706807e-03  -4.35690023e-02   7.76656857e-03
   -2.53933528e-03  -2.87830434e-03   3.85302515e-03  -2.73498171e-03
    3.37744900e-03   3.75491055e-03  -5.05671790e-03  -6.51312852e-03]
 [ -5.22740511e-03  -5.23246126e-03  -4.07603756e-03  -6.53501181e-03
    2.71180854e-03  -4.40836139e-03   5.48265874e-03   7.00690923e-03
   -2.01956672e-03  -2.63844454e-03   3.26743536e-03  -1.58277107e-03
    3.29711172e-03   3.21071595e-03   4.24733944e-02  -6.69947080e-03]
 [ -5.89049188e-04  -4.52262256e-03  -4.88814106e-03  -5.51950594e-04
    5.50860493e-03  -1.35986367e-03   4.15826216e-03  -5.71314665e-03
   -7.35071115e-03  -5.01571922e-03   5.64659480e-03  -4.73293709e-03
    6.49033999e-03   5.00453403e-03  -4.14489908e-03   3.50782473e-04]
 [ -1.28111406e-03  -4.87463688e-03  -5.42005757e-03  -4.99661546e-03
    5.04204305e-03  -2.12109764e-03   5.13707474e-03   2.60941475e-03
   -3.47843231e-03  -2.30366737e-03  -5.57904318e-02  -2.55293353e-03
    3.96244414e-03   5.74894063e-03  -5.81564987e-03  -5.47742890e-03]
 [ -2.24351836e-03  -5.66786947e-03  -5.76109625e-03  -4.51963302e-03
    5.06826211e-03  -1.94914092e-03   5.53826848e-03   1.33824605e-03
   -4.10076231e-03  -3.31410440e-03   4.74793976e-03  -2.92579457e-03
   -4.85055782e-02   5.82306413e-03  -6.68569561e-03  -5.59542188e-03]
 [ -1.81472826e+00  -2.28378987e+00  -2.14076972e+00  -1.89641726e+00
    2.00353408e+00  -2.12682056e+00   2.21678638e+00   2.08950353e+00
   -1.55608609e-01  -2.32049632e+00  -1.16598032e-01  -2.49225199e-01
    1.73314452e+00   2.01919675e+00  -2.08688974e+00  -1.76474750e+00]
 [ -1.73766220e+00  -2.11925054e+00  -1.96104109e+00  -1.95500171e+00
    1.79822481e+00  -1.77740514e+00   1.86897707e+00   1.80726337e+00
   -1.33175313e-01  -1.85073817e+00   2.55110204e-01   3.09447229e-01
    2.08752871e+00   1.86418927e+00  -2.09693933e+00  -1.91884780e+00]
 [ -1.95573640e+00  -2.00064492e+00  -2.17534161e+00  -1.77294838e+00
    2.02159643e+00  -2.11352086e+00   1.93175399e+00   1.95201325e+00
    2.41941004e-03  -2.08471918e+00   7.65415281e-02   2.31238484e-01
    1.76143456e+00   2.19379520e+00  -1.98517561e+00  -1.82645690e+00]
 [ -1.99022996e+00  -1.89566338e+00  -1.67636812e+00  -1.78858495e+00
    1.92988026e+00  -1.93721676e+00   1.83312869e+00   2.13723636e+00
   -1.34313062e-01  -1.80487347e+00   4.74042110e-02   2.74295151e-01
    1.64696610e+00   1.71633661e+00  -1.82289004e+00  -1.93992698e+00]
 [ -2.11187673e+00  -1.96418428e+00  -2.07146597e+00  -2.21574855e+00
    2.07687140e+00  -1.86491334e+00   1.83745944e+00   2.13317227e+00
    2.10968614e-01  -2.29551244e+00   1.19639114e-01  -3.35720778e-02
    2.18683839e+00   2.09817028e+00  -1.96547997e+00  -1.70980227e+00]
 [ -2.13602018e+00  -1.68437254e+00  -1.65196884e+00  -2.05629969e+00
    2.05889654e+00  -1.64213753e+00   1.80368018e+00   2.19168425e+00
   -9.62427706e-02  -1.65889347e+00  -6.97988495e-02  -3.44515771e-01
    2.03785539e+00   1.74162471e+00  -1.69522321e+00  -1.82941127e+00]
 [ -2.05194616e+00  -1.97954428e+00  -2.14774275e+00  -1.84958684e+00
    2.05902100e+00  -2.21399188e+00   2.13015127e+00   1.97001517e+00
   -1.12449944e-01  -2.09631276e+00  -5.70631446e-03  -1.79983124e-01
    1.85949934e+00   2.08660841e+00  -1.81592619e+00  -2.14459252e+00]
 [ -1.83938527e+00  -2.12891364e+00  -2.24925494e+00  -1.93215263e+00
    2.03540492e+00  -1.84422255e+00   2.03992724e+00   1.93308675e+00
    3.47570218e-02  -2.08281207e+00   5.07861823e-02  -2.06693873e-01
    2.06016445e+00   1.85701430e+00  -2.02015233e+00  -2.08077502e+00]
 [ -5.59528351e-01  -5.71610630e-01  -5.69503784e-01  -5.64646602e-01
    5.80181897e-01  -5.60868680e-01   5.70679605e-01   5.66172481e-01
   -1.55123826e-02  -5.84155381e-01  -6.35540206e-03  -1.00649905e+00
    5.82323790e-01   5.75267076e-01  -5.77288508e-01  -5.79813302e-01]
 [ -2.00861812e+00  -1.72340274e+00  -1.73649883e+00  -1.84764338e+00
    2.10372567e+00  -1.93211138e+00   2.10258079e+00   1.81679094e+00
   -5.43245077e-02  -1.86206055e+00   2.45130315e-01  -1.19555615e-01
    1.90662360e+00   2.04684758e+00  -1.89030218e+00  -2.01922178e+00]
 [ -1.95279312e+00  -1.93753266e+00  -1.98465443e+00  -2.02399278e+00
    2.17449498e+00  -2.25139976e+00   1.75507545e+00   2.03619790e+00
   -1.51582994e-02  -1.78182042e+00  -1.33573055e-01   3.63735221e-02
    2.15048742e+00   1.81690001e+00  -2.29638314e+00  -1.90119445e+00]
 [ -2.09541130e+00  -2.00132537e+00  -1.97303748e+00  -2.27466321e+00
    1.80376291e+00  -2.16322637e+00   2.05475545e+00   2.04425073e+00
    2.00442731e-01  -1.73976243e+00  -1.13719155e-03   3.10792178e-01
    2.12530351e+00   2.13785267e+00  -1.82252038e+00  -2.16541052e+00]
 [ -2.02427101e+00  -2.20933747e+00  -2.03122067e+00  -1.86225080e+00
    2.01313567e+00  -1.72901976e+00   2.30408573e+00   1.73992372e+00
   -9.61947814e-02  -2.25380540e+00   6.81728031e-03  -4.67055850e-02
    2.05641794e+00   2.32599545e+00  -1.71971810e+00  -2.25291872e+00]
 [ -2.12815499e+00  -1.95437539e+00  -2.21179295e+00  -1.83482051e+00
    2.07142901e+00  -2.27467847e+00   2.06806397e+00   1.87401128e+00
    5.48205487e-02  -2.14214468e+00  -6.83455765e-02  -1.27561092e-01
    2.26904511e+00   1.98711288e+00  -2.16651082e+00  -1.94592059e+00]
 [ -1.93953931e+00  -1.80464375e+00  -1.97634280e+00  -2.28405452e+00
    1.69128895e+00  -1.95516288e+00   1.91504025e+00   2.08688760e+00
    2.14068934e-01  -2.15852737e+00   4.28147651e-02  -2.39156619e-01
    1.88530660e+00   2.02156496e+00  -2.19327545e+00  -2.12316489e+00]
 [ -1.87019265e+00  -2.08108401e+00  -1.79712081e+00  -2.07331610e+00
    2.02648187e+00  -1.85027719e+00   1.88502514e+00   1.82944310e+00
    6.49571866e-02  -1.92584407e+00   2.24603087e-01  -6.54774755e-02
    2.23261595e+00   1.89187157e+00  -2.18326044e+00  -2.04995275e+00]]
Bob
[[  3.38297361e-03  -3.18752718e-03  -3.20076360e-03   3.04613099e-03
   -3.41462810e-03  -3.32290097e-03   3.29118897e-03  -3.48690851e-03
   -2.18020394e-01   3.23737785e-03   3.26124509e-03   3.30764684e-03
   -3.42310290e-03   3.37847508e-03   3.26303532e-03  -3.23148631e-03]
 [  3.21955094e-03  -3.00275488e-03  -3.01568862e-03   2.86307139e-03
   -3.26214521e-03  -3.18724941e-03   3.18574696e-03  -3.34706623e-03
   -2.19618544e-01   3.11560836e-03   3.13802925e-03   3.11984471e-03
   -3.26842559e-03   3.20695783e-03   3.13373026e-03  -3.08374572e-03]
 [  3.08352965e-03  -2.86003132e-03  -2.84985057e-03   2.69720261e-03
   -3.10955127e-03  -3.02241929e-03   2.99558253e-03  -3.17915599e-03
   -2.18692645e-01   2.94993259e-03   2.97251903e-03   2.96199881e-03
   -3.11113102e-03   3.06777353e-03   2.97930441e-03  -2.92848935e-03]
 [  3.16556776e-03  -2.95765139e-03  -2.97383498e-03   2.79011135e-03
   -3.21721984e-03  -3.16544506e-03   3.11784167e-03  -3.27416440e-03
   -2.20507234e-01   3.04613053e-03   3.09756375e-03   3.07321385e-03
   -3.20873549e-03   3.16525321e-03   3.07074911e-03  -3.02015035e-03]
 [  3.40881292e-03  -3.19398614e-03  -3.22272116e-03   3.03565525e-03
   -3.46823083e-03  -3.41001153e-03   3.34335561e-03  -3.52276489e-03
   -2.20180735e-01   3.28312814e-03   3.32497503e-03   3.31629720e-03
   -3.44829657e-03   3.40507994e-03   3.31267901e-03  -3.25613888e-03]
 [  3.31937568e-03  -3.09398584e-03  -3.13603529e-03   2.95882626e-03
   -3.35646817e-03  -3.26830079e-03   3.26206419e-03  -3.41399992e-03
   -2.18239367e-01   3.18888947e-03   3.23080667e-03   3.20080901e-03
   -3.34832305e-03   3.27421096e-03   3.22157610e-03  -3.13152256e-03]
 [  3.17882420e-03  -2.97041703e-03  -2.97567947e-03   2.79955077e-03
   -3.22900689e-03  -3.19633377e-03   3.10389511e-03  -3.29614780e-03
   -2.19969988e-01   3.05443350e-03   3.08123883e-03   3.07793450e-03
   -3.22900177e-03   3.21498653e-03   3.07929446e-03  -3.02312872e-03]
 [  3.46570113e-03  -3.26439762e-03  -3.27993627e-03   3.13757197e-03
   -3.51961073e-03  -3.46810394e-03   3.42785800e-03  -3.57782003e-03
   -2.19906420e-01   3.35075357e-03   3.39708384e-03   3.39129055e-03
   -3.50346765e-03   3.45083559e-03   3.37652932e-03  -3.32057057e-03]
 [  3.23663489e-03  -3.05619952e-03  -3.06408992e-03   2.93126237e-03
   -3.30808898e-03  -3.19938688e-03   3.17801908e-03  -3.35078756e-03
   -2.17967108e-01   3.13096051e-03   3.16507858e-03   3.19921784e-03
   -3.31028714e-03   3.22532025e-03   3.14327376e-03  -3.11155291e-03]
 [  3.21411272e-03  -3.01932427e-03  -3.01514636e-03   2.87555740e-03
   -3.26003972e-03  -3.17412242e-03   3.15043586e-03  -3.30586941e-03
   -2.18908951e-01   3.10121779e-03   3.11867357e-03   3.13224806e-03
   -3.26018641e-03   3.19988374e-03   3.12525453e-03  -3.05919512e-03]
 [  3.22058378e-03  -2.98700295e-03  -2.99906405e-03   2.85251462e-03
   -3.25937173e-03  -3.17399320e-03   3.16325482e-03  -3.30264028e-03
   -2.19110951e-01   3.08620674e-03   3.12116253e-03   3.13683180e-03
   -3.25514097e-03   3.18680401e-03   3.11134499e-03  -3.03789880e-03]
 [  3.08657810e-03  -2.91007292e-03  -2.89146882e-03   2.75538303e-03
   -3.11935018e-03  -3.05818301e-03   3.01563600e-03  -3.20851174e-03
   -2.16842398e-01   2.94566341e-03   2.99724680e-03   3.01294378e-03
   -3.11662140e-03   3.07682250e-03   2.99250591e-03  -2.90819770e-03]
 [  3.19673633e-03  -2.99860514e-03  -3.00994376e-03   2.84059532e-03
   -3.23115638e-03  -3.16455681e-03   3.13480711e-03  -3.29000829e-03
   -2.15506315e-01   3.06677120e-03   3.08700372e-03   3.11901583e-03
   -3.22851469e-03   3.17082554e-03   3.09549808e-03  -3.02134315e-03]
 [  3.08307121e-03  -2.90388009e-03  -2.91106454e-03   2.75297766e-03
   -3.15795932e-03  -3.04350979e-03   3.04643787e-03  -3.21849855e-03
   -2.16976106e-01   2.95491004e-03   3.02134431e-03   3.01066809e-03
   -3.13626206e-03   3.07183154e-03   2.97862431e-03  -2.92253448e-03]
 [  3.07392352e-03  -2.87139299e-03  -2.87834555e-03   2.73119123e-03
   -3.10392212e-03  -3.00800893e-03   3.01422272e-03  -3.17797181e-03
   -2.21561298e-01   2.92718061e-03   2.97692581e-03   2.97977473e-03
   -3.10160220e-03   3.03434278e-03   2.94422708e-03  -2.90044583e-03]
 [  3.28881200e-03  -3.07584764e-03  -3.08252173e-03   2.92250211e-03
   -3.33115575e-03  -3.28667695e-03   3.23945773e-03  -3.38995969e-03
   -2.18829080e-01   3.16473213e-03   3.20651499e-03   3.20084719e-03
   -3.30692669e-03   3.28666321e-03   3.18843173e-03  -3.13019799e-03]
 [  2.59103727e+00  -2.17261982e+00  -2.33048892e+00   2.43159699e+00
   -2.57994890e+00  -4.98065203e-02   2.19894648e+00  -2.32440782e+00
    2.33905986e-01   2.28907537e+00   2.19515228e+00   2.29515982e+00
   -2.41610074e+00  -1.28951982e-01   2.54409003e+00  -2.14633322e+00]
 [  2.32005811e+00  -2.62086058e+00  -2.71595526e+00   2.39147282e+00
   -2.51364136e+00   9.47168916e-02   2.59445739e+00  -2.57731390e+00
   -5.50862104e-02   2.71292782e+00   2.66945481e+00   2.61478806e+00
   -2.38203192e+00  -5.75436279e-02   2.48131394e+00  -2.40354681e+00]
 [  2.73519945e+00  -2.94082618e+00  -2.90214252e+00   2.90787244e+00
   -2.80437350e+00   9.95871723e-02   2.77533150e+00  -2.52685642e+00
    3.04976292e-02   2.89379263e+00   2.90107536e+00   2.70871854e+00
   -2.77778888e+00  -5.82278371e-02   2.79635620e+00  -2.76029873e+00]
 [  2.46725059e+00  -2.75033307e+00  -2.31188917e+00   2.51244736e+00
   -2.50468063e+00   2.11331069e-01   2.45102763e+00  -2.30168939e+00
    1.18094552e+00   2.54298735e+00   2.36687112e+00   2.74539852e+00
   -2.51784682e+00  -3.18865925e-02   2.37567878e+00  -2.55649662e+00]
 [  2.64574122e+00  -2.65113115e+00  -2.41461492e+00   2.59693003e+00
   -2.54123831e+00   7.55243078e-02   2.86888146e+00  -2.68918896e+00
    5.08153737e-02   2.77206254e+00   2.56140256e+00   2.90635610e+00
   -2.72199273e+00  -5.73723242e-02   2.77401638e+00  -2.81501293e+00]
 [  2.37855935e+00  -2.05210733e+00  -2.19099402e+00   2.42042780e+00
   -2.29179025e+00   1.42314747e-01   2.27867317e+00  -2.43277907e+00
   -1.71338737e-01   2.26454782e+00   2.19931722e+00   2.07258034e+00
   -2.13392568e+00   1.82662457e-01   2.43171048e+00  -2.50349426e+00]
 [  2.77372980e+00  -2.44381380e+00  -2.72808218e+00   2.83688641e+00
   -2.61937046e+00   9.59209725e-02   2.58106518e+00  -2.64250445e+00
    7.67279603e-03   2.77107239e+00   2.79271984e+00   2.87107801e+00
   -2.78505945e+00  -5.28952479e-02   2.52954268e+00  -2.76330233e+00]
 [  2.31591988e+00  -2.60907412e+00  -2.44150543e+00   2.39807630e+00
   -2.29053855e+00   2.12937534e-01   2.49934506e+00  -2.33186078e+00
   -7.74103284e-01   2.42591858e+00   2.65127921e+00   2.37179232e+00
   -2.63852930e+00  -1.53519377e-01   2.36684990e+00  -2.36908197e+00]
 [  2.76190472e+00  -2.62838197e+00  -2.70716500e+00   2.68725395e+00
   -2.52814770e+00   4.31201980e-02   2.55063462e+00  -2.81767035e+00
    4.27419171e-02   2.56497383e+00   2.78501654e+00   2.70637631e+00
   -2.71848154e+00  -1.29720855e+00   2.76143146e+00  -2.65697813e+00]
 [  2.48273540e+00  -2.84587145e+00  -2.48192692e+00   2.68140364e+00
   -2.73851013e+00  -2.56175511e-02   2.37799788e+00  -2.40102649e+00
    4.92781028e-02   2.75236797e+00   2.67932200e+00   2.67599964e+00
   -2.32339549e+00  -8.96323249e-02   2.68121791e+00  -2.41808081e+00]
 [  2.78480363e+00  -2.73833466e+00  -2.81196356e+00   2.77049804e+00
   -2.85718727e+00  -1.36933661e+00   2.74411964e+00  -2.64965034e+00
    4.32568453e-02   2.63521647e+00   2.81898475e+00   2.80303407e+00
   -2.69105458e+00  -7.28543028e-02   2.75992298e+00  -2.72162747e+00]
 [  2.66293240e+00  -2.58610034e+00  -3.00931954e+00   2.73839498e+00
   -2.82448983e+00  -6.30094036e-02   2.88186479e+00  -2.99059677e+00
    5.74089773e-02   2.88524222e+00   2.62140942e+00   2.42748070e+00
   -2.73968530e+00  -1.10162020e-01   2.83997107e+00  -2.76114392e+00]
 [  2.90126848e+00  -2.93044043e+00  -2.80131388e+00   2.86787581e+00
   -2.93972015e+00   6.09662868e-02   2.80410433e+00  -2.88773847e+00
    5.09641431e-02   2.72081780e+00   2.69146776e+00   2.61767006e+00
   -2.91593432e+00  -6.84857070e-02   2.62269664e+00  -2.87299275e+00]
 [  2.57798553e+00  -2.66631699e+00  -2.54830122e+00   2.83777595e+00
   -2.59563541e+00   8.46236646e-02   2.78674173e+00  -2.52476668e+00
    3.80757302e-02   2.55493903e+00   2.74784040e+00   2.49362516e+00
   -2.82086468e+00  -5.29150702e-02   2.75418735e+00  -2.81383371e+00]
 [  2.69632268e+00  -2.88744330e+00  -2.84726787e+00   2.47096419e+00
   -2.68971896e+00   9.86338556e-02   2.77663493e+00  -2.86367798e+00
    2.75535882e-02   2.72163939e+00   2.70713830e+00   2.86653280e+00
   -2.84920096e+00  -5.67028783e-02   2.64652848e+00  -2.80012012e+00]
 [  2.61824274e+00  -2.31090760e+00  -2.58933878e+00   2.35494018e+00
   -2.21453214e+00   1.51260421e-01   2.63836575e+00  -2.75756407e+00
   -2.43311524e-02   2.41318917e+00   2.42286277e+00   2.57831645e+00
   -2.31754637e+00  -2.03837492e-02   2.48638225e+00  -2.64997649e+00]]
Eve
[[-3.13226128 -2.96835279 -3.35866547 -3.25285745 -2.88794565 -3.13419127
   2.87832642  2.92587829  0.97849911  3.43731618 -1.27523446 -3.4150598
   3.52122092  2.88567638 -3.40344548 -2.87040949]
 [-2.88468432 -3.36571097 -3.1987803  -2.98844552 -3.09954691 -2.90452504
   2.91356349  3.34605861  1.21944773  3.1591785  -0.70138979 -3.44504619
   3.38138342  3.08552527 -3.04635692 -3.00883603]
 [-3.54792237 -3.40977716 -3.56086516 -3.41421509 -3.4037025  -3.30481768
   3.60514736  3.38100004  0.859357    3.18361664 -0.63942194 -3.38941836
   3.07682514  3.14205647 -3.21719432 -3.31266594]
 [-3.22590041 -3.00099778 -3.00641823 -3.34125948 -3.02885842 -2.86297607
   2.75103641  3.11446166  0.50845736  3.03488302  0.45255679 -2.68638778
   3.12380767  2.82514453 -3.14957905 -3.09687376]
 [-3.33900952 -3.26549029 -3.43327284 -3.36062264 -3.17119479 -3.01610136
   3.02966022  3.1134553   1.2169652   3.55006361 -1.04234111 -2.8859365
   3.10470414  3.32704592 -3.08880973 -3.51856971]
 [-3.00897813 -2.91522455 -2.90921378 -3.04490471 -2.93350053 -2.98235726
   3.489043    2.94882011  1.360075    2.88267422 -0.98522276 -3.03872895
   2.99543643  3.16216731 -3.3717382  -3.34848714]
 [-2.82833433 -3.06599832 -3.21197224 -3.19175625 -2.97344422 -3.01871204
   3.26244855  3.14369464  0.96010518  3.36548448 -0.53800237 -3.16799593
   2.97547579  2.92319274 -3.28034115 -3.14289832]
 [-3.39280128 -3.23122644 -2.98157477 -2.82117486 -3.28171635 -3.25476456
   3.53124666  3.45279717  1.61611974  3.51985979 -0.91008383 -2.84910107
   3.3264966   3.42082977 -3.46730161 -3.32909489]
 [-3.35969591 -3.16748238 -3.3378346  -3.13766718 -2.86749268 -3.45007396
   3.5289278   3.50728226  2.90969539  2.84718513 -2.18959904 -3.33340144
   3.23558187  3.53855348 -3.45730805 -3.14861035]
 [-3.37591362 -3.18567157 -2.86407971 -3.52159786 -3.39173079 -2.88239479
   3.03654242  3.19026661  1.7901113   3.14939761 -1.89637959 -3.36291027
   3.01598763  3.15134883 -3.37986517 -2.94796419]
 [-2.90863919 -3.12519336 -3.16556692 -2.99474573 -3.50800824 -3.36069536
   3.51467609  3.56682777  1.78253901  3.54724956 -2.87555599 -2.76938057
   3.43689108  3.25167608 -3.38586664 -3.23923445]
 [-3.33987999 -3.34369874 -3.33118963 -2.97842193 -2.8966682  -3.04159164
   3.52931046  3.05526829  1.39949405  3.19756603 -2.0943048  -3.029881
   3.30044937  3.33623838 -3.06531787 -3.47724652]
 [-3.27425385 -3.27918196 -3.31183791 -3.28294277 -3.19691372 -3.47118974
   3.38997984  3.28575945  1.60658896  3.34998322 -1.92971754 -3.04115605
   3.33871889  3.54212093 -3.41622853 -3.18647003]
 [-3.03560162 -2.89970613 -3.52530956 -3.10298753 -3.0378406  -3.11330938
   3.28044534  2.96936965  0.96055722  3.35447884 -0.68592745 -3.3814218
   3.16568995  3.51431966 -2.8862865  -3.36626005]
 [-3.52866864 -2.9606514  -2.94867754 -3.55582261 -3.38946772 -3.20651388
   2.98655534  3.42716479  0.86320335  3.3747201  -0.62603807 -3.48092747
   3.22438383  3.26656079 -3.12227368 -3.23400545]
 [-2.81319952 -3.2602551  -2.90858316 -3.12366104 -3.07707977 -3.08378172
   3.06753182  3.40983343  0.20363298  3.03597808  0.34646919 -2.97451425
   2.81975055  3.02028751 -2.85759568 -3.35853243]
 [-3.44749475 -3.42293334 -3.43879557 -3.26724601 -3.04156399 -3.38414311
   3.27283525  3.47864699  1.16182637  2.86162663 -2.1249845  -2.92315507
   2.84782529  3.52524137 -3.20674419 -2.95217705]
 [-3.07975626 -3.45290351 -3.18806839 -3.04197121 -3.56880617 -3.09958005
   2.97830892  3.06018925  1.21256876  3.40149689 -1.81874371 -3.07260513
   3.35865355  3.12176633 -3.57190371 -2.95282602]
 [-3.34976459 -3.20689631 -3.41511679 -3.34039664 -3.47344184 -3.26367831
   3.58640027  3.0327785   0.87585974  2.98561931 -1.92654824 -2.85738969
   3.46390843  3.53231239 -3.23562193 -3.48027182]
 [-3.39920044 -3.02706742 -2.91420078 -3.2105968  -3.42273688 -3.49301434
   3.50751376  3.57112956  0.84246993  3.23370481 -1.83388233 -2.73393917
   3.3662982   3.29246855 -3.2774086  -3.33718228]
 [-2.93223023 -3.18517327 -3.38402247 -3.42794156 -2.87846327 -3.3688581
   3.24435115  3.47405124  1.04762685  2.93870568 -1.77987516 -3.39958215
   3.24180961  3.24350643 -3.06758261 -2.87605476]
 [-2.95771074 -2.7571497  -2.95761943 -2.49400616 -2.99370408 -2.54346895
   2.96152902  3.09999585  0.37542731  2.83304501 -1.62933254 -2.84486866
   2.75004625  2.75264382 -2.77131224 -3.02444172]
 [-3.29811859 -3.45450139 -2.91888165 -2.96195674 -2.91506243 -3.09887385
   3.34876513  3.43658018  1.19549263  3.56889915 -1.87853026 -2.98471832
   3.58053613  3.31113529 -3.27874422 -3.48150134]
 [-3.07431006 -2.84273458 -3.13380933 -3.29731226 -3.23614836 -3.17178702
   3.44472265  3.23848701  0.87040484  2.79760337 -1.79078436 -2.95622897
   3.12765312  3.04948664 -2.7723906  -2.84814978]
 [-3.43993402 -3.46886206 -3.38061953 -3.41766095 -3.71367288 -3.50805593
   3.42882061  3.85418153  0.07237631  3.83449459 -0.04907651 -2.88713527
   3.57412195  3.89062071 -3.75234222 -3.71339321]
 [-3.39518809 -3.48849559 -3.3060565  -3.25418496 -2.92141318 -3.24537206
   3.20661855  3.13719463  0.8590427   2.98585224 -2.00310731 -3.41733098
   2.93241882  3.36425591 -2.87706065 -3.0437448 ]
 [-2.97447729 -2.9503305  -3.22986007 -3.30050015 -3.10655761 -3.60111094
   3.66715312  3.18854284  1.26529598  3.61353755 -1.85865283 -2.80260921
   3.26331687  2.95073175 -3.12983656 -3.43490362]
 [-2.94883227 -3.46022415 -3.51963067 -3.4753511  -3.50827336 -3.18805814
   2.93335581  3.28013873  1.0587728   3.44056535 -1.84079981 -3.38716412
   3.32434011  3.28119373 -3.32557797 -3.00670099]
 [-3.11033797 -2.92277741 -2.92359567 -3.03098702 -3.52367282 -3.47882318
   3.54127955  3.29985809  0.90865821  2.84761548 -2.13445854 -3.31239843
   3.25485134  3.09281087 -3.43838501 -2.89207435]
 [-3.0708499  -3.37345958 -3.26374865 -2.80605721 -3.03586173 -3.35145044
   3.06117272  2.91756058  0.63047975  3.3504703  -1.73975825 -3.05914712
   3.09273887  2.99657536 -3.21625185 -3.02418017]
 [-3.31677938 -3.22530794 -3.08023047 -3.48660469 -3.32251716 -3.07164669
   3.50948668  3.21657777  0.80010134  3.40585685 -1.91510606 -3.43169498
   3.15310431  3.39600182 -3.15877199 -3.25205779]
 [-3.32012439 -3.18527579 -3.58403754 -3.18709326 -3.58292651 -2.91036129
   3.10763741  3.30346227  1.12221313  3.22744083 -2.12013507 -3.39752626
   3.3079071   3.42208552 -2.90020204 -3.58750606]]