Alice
[[  1.19985528e-01   4.20681797e-02   2.41211820e-02  -8.41288194e-02
   -2.64759362e-02   3.85948941e-02  -1.00211196e-01   7.67419562e-02
   -5.89395575e-02   5.13166972e-02  -3.01100761e-02  -1.54862851e-02
   -7.66159687e-03  -5.57986014e-02   6.04148246e-02   1.81896761e-02]
 [  3.54890227e-02   6.98644742e-02   3.53998132e-02  -6.26245439e-02
   -5.33036292e-02   2.39652935e-02  -1.06901154e-01   5.80777787e-02
   -7.38979131e-02   7.50055015e-02  -5.83018512e-02  -1.89268291e-02
   -1.00403838e-02  -2.69671511e-02   5.83157763e-02   3.09721865e-02]
 [  1.11222230e-01   4.46090698e-02   2.68681142e-02  -6.86875656e-02
   -5.96893169e-02   3.72610204e-02  -6.11622967e-02   3.90879624e-02
   -6.44599199e-02   8.22565034e-02  -4.32759076e-02   7.25484826e-03
   -1.17408335e-02  -4.32096794e-02   6.50911927e-02   1.85491964e-02]
 [  1.73766427e-02   8.81603956e-02   5.30864596e-02  -5.21025062e-02
   -1.01309158e-01   5.63615896e-02  -5.09582870e-02   6.34578317e-02
   -6.80930987e-02   4.58711907e-02  -6.62124157e-02  -5.11461683e-03
   -1.13631543e-02  -2.80889682e-02   6.09750338e-02   4.95102853e-02]
 [  1.05382808e-01   7.65627548e-02   2.70218831e-02  -5.59982955e-02
   -4.71890979e-02   6.21174723e-02   1.31162107e-02   8.96470621e-02
   -5.71570732e-02   4.13012952e-02  -3.90655622e-02  -1.78725030e-02
   -1.22872246e-02  -5.46031371e-02   3.43504548e-02   4.06345800e-02]
 [  3.27952057e-02   3.74829285e-02   5.55491894e-02  -9.42868963e-02
   -4.59347032e-02   7.43354037e-02  -9.98616591e-02   4.54133265e-02
   -7.57150650e-02   5.94751127e-02  -7.88215175e-02  -4.61485013e-02
    3.03812325e-03  -2.08432470e-02   8.32194686e-02   1.11098967e-01]
 [  1.15811385e-01   4.16810066e-03   5.66425882e-02  -1.39957264e-01
   -2.55562216e-02   1.28123209e-01  -3.34040262e-02   5.02694659e-02
   -9.91995409e-02   2.31876988e-02   8.35449994e-03   4.96230414e-03
    1.02145260e-03  -6.69599464e-03   8.74927789e-02   1.17388837e-01]
 [  3.52384970e-02   1.90616269e-02   1.16040446e-02  -1.11427538e-01
    1.96266994e-02   7.94913545e-02   4.57520876e-03   6.88993335e-02
    2.36323595e-01   6.99922303e-03   3.11417226e-03  -9.75317508e-03
   -4.03209887e-02  -6.12002751e-03  -3.67010348e-02   8.39346945e-02]
 [  4.78640050e-02   3.80367674e-02   5.32714762e-02  -4.20154035e-02
   -8.18355829e-02   6.36278614e-02  -7.86855146e-02   4.81337644e-02
   -7.28508756e-02   7.52244964e-02  -5.45974635e-02   3.65048810e-03
   -7.87606183e-03  -1.65268555e-02   7.52833039e-02   2.87481025e-02]
 [  7.10585564e-02   5.57895154e-02   3.17170434e-02  -3.40208821e-02
   -9.24015883e-03   5.04262596e-02   5.57672046e-02   5.70687763e-02
   -7.65702873e-02   8.14934000e-02  -4.50868309e-02  -3.92578766e-02
   -4.01839660e-03  -2.03567874e-02   3.12249642e-02   5.77661768e-02]
 [  2.84675360e-02   1.08582312e-02   3.36143747e-02   9.05635394e-03
   -8.32959637e-02   1.17616490e-01  -4.83162366e-02   1.36724308e-01
   -6.80212751e-02   5.99419288e-02  -6.06141090e-02  -1.12416344e-02
   -8.92415363e-03  -6.85977563e-02   1.69604830e-02   1.15401912e-02]
 [  3.20532583e-02   4.86155301e-02   4.24766764e-02  -9.56365168e-02
   -6.55611604e-02   4.59019914e-02  -1.42793626e-01   5.74668869e-02
   -8.20640773e-02   9.02846456e-02  -3.98130342e-02   7.70974485e-03
   -9.97786876e-03  -2.92350817e-02   7.06601515e-02   3.54664400e-02]
 [  7.58808255e-02   8.73898342e-02   3.99436392e-02  -5.17738238e-02
   -8.67137536e-02   7.76345283e-02   4.15630713e-02   3.84665243e-02
   -8.88717100e-02   4.50009741e-02  -5.53563349e-02   2.02993210e-03
   -1.42849432e-02  -1.35222599e-02   5.28605580e-02   8.16996023e-02]
 [  4.29931693e-02   5.77276126e-02   4.09829393e-02  -9.76908803e-02
   -6.47492558e-02   4.78122681e-02  -9.79533345e-02   9.58515145e-03
   -8.28734636e-02   8.89674053e-02  -8.13740343e-02  -1.92597862e-02
   -6.64265919e-03  -1.27199031e-02   8.15437660e-02   9.92850363e-02]
 [  1.36845624e-02   2.65191309e-02   5.12074046e-02  -2.80159675e-02
   -2.95078568e-02   4.25275937e-02   1.12429755e-02   5.77143319e-02
   -7.75866508e-02   6.37192577e-02  -8.20570886e-02  -7.38838017e-02
    3.36174993e-03  -2.66318507e-02   4.94001843e-02   6.33847639e-02]
 [  1.44847529e-02   1.67503089e-01   2.52036657e-02  -5.83401695e-02
   -5.48862927e-02   4.32699965e-03  -6.67656437e-02   9.70271006e-02
   -8.66897032e-02   5.75757921e-02  -5.86365648e-02  -2.56530698e-02
   -1.97005700e-02  -3.07339858e-02   2.57719755e-02   3.73413824e-02]
 [ -3.46474871e-02  -1.45155005e-03   3.28595261e-03  -3.31891589e-02
    4.82884003e-03  -2.41422560e-02  -2.02888548e-02  -3.68544250e-03
   -3.91255226e-03   4.80678584e-03   1.75644029e-02   5.45531791e-03
    2.19691102e-03  -5.67824114e-03   8.66897928e-04  -8.03925283e-03]
 [ -2.73420997e-02  -7.57703511e-03  -2.76540574e-02  -4.21368554e-02
    2.00303178e-02  -1.98617149e-02  -4.00134996e-02   1.92870144e-02
   -1.09757604e-02   1.75267439e-02   1.23578431e-02  -3.52807809e-03
   -3.13743413e-03  -3.26711982e-02  -3.13188843e-02  -1.24345976e-03]
 [ -2.30429899e-02  -5.66891208e-03   1.00039144e-03  -2.16131825e-02
    1.04183331e-02  -1.99684594e-02  -1.83490869e-02  -8.64867680e-03
   -3.09569039e-03   1.54538974e-02   1.48469992e-02   6.30245078e-03
    1.97922951e-03   8.37636006e-04   1.17350102e-03  -8.90103541e-03]
 [  2.50887964e-02   3.96879157e-03   2.05829856e-04   2.46649310e-02
   -8.14508181e-03   1.93813480e-02   1.85371973e-02   4.17381106e-03
    3.49878334e-03  -1.02589447e-02  -1.41314985e-02  -4.79210028e-03
   -1.60550768e-03   3.75634269e-03   1.27980579e-03   7.24175014e-03]
 [  2.21101791e-02   1.36087509e-02  -1.48899555e-02   1.05483765e-02
   -1.88239254e-02   2.82550678e-02   1.61504261e-02   3.61483209e-02
   -5.75569167e-04  -3.74155007e-02  -2.28925105e-02  -1.73008982e-02
   -6.03603991e-03  -2.78396402e-02  -2.04949901e-02   2.03089137e-02]
 [  3.18504609e-02  -9.99637507e-03  -2.08149496e-02   2.26107687e-02
    1.64155625e-02   1.47401085e-02  -2.44283048e-03   3.84104392e-03
   -9.87140345e-04   2.42777597e-02  -1.14042545e-02  -4.38878918e-03
   -3.66179529e-03  -1.37777766e-03  -1.62897184e-02   3.77345714e-03]
 [  5.65237030e-02  -5.16311906e-04  -9.53071937e-03   5.21513820e-02
   -2.40848656e-03   3.71220298e-02   2.76027191e-02   5.24996594e-03
    5.30422945e-03   2.89761316e-04  -2.71164495e-02  -8.46939348e-03
   -3.93736362e-03   8.47655162e-03  -4.79055988e-03   1.18336733e-02]
 [ -2.57438840e-03  -2.22136892e-04  -1.07394373e-02  -8.90168268e-03
    2.98759737e-03  -2.46038049e-04  -8.37852154e-03   1.13487020e-02
   -3.11047304e-03  -3.89969384e-04  -8.66271788e-04  -4.04673303e-03
   -2.03608535e-03  -1.34698134e-02  -1.24481814e-02   3.15177767e-03]
 [  2.31643654e-02  -1.45981042e-02  -1.14672100e-02   2.03527454e-02
    2.19492018e-02   3.73050454e-03  -6.02988899e-03  -1.29398881e-02
    8.68926581e-05   3.74823958e-02  -2.18219426e-03   3.30802985e-03
   -7.22466502e-04   1.28741115e-02  -4.52511059e-03  -4.83632693e-03]
 [  4.15833443e-02   8.49435292e-03   7.52449385e-04   4.06915136e-02
   -1.65788624e-02   3.37834507e-02   3.28009538e-02   9.80583951e-03
    5.98142203e-03  -2.23581642e-02  -2.48563308e-02  -9.20022000e-03
   -2.91856704e-03   4.18735901e-03   1.66014698e-03   1.35494946e-02]
 [  2.58569140e-02  -2.60486603e-02  -1.50794173e-02   2.36273315e-02
    3.95175554e-02  -4.03902866e-03  -1.67466793e-02  -2.78471503e-02
   -4.55564936e-04   6.75893277e-02   4.24505537e-03   9.50156432e-03
    4.17086616e-04   2.41361372e-02  -3.60725843e-03  -1.28997117e-02]
 [ -9.71832138e-04   1.43129705e-02  -1.06321434e-02  -1.07250381e-02
   -1.86284781e-02   1.34543451e-02   5.46694407e-03   3.43663730e-02
   -2.69489177e-03  -3.87159549e-02  -1.20899938e-02  -1.39997760e-02
   -4.51274589e-03  -3.14048640e-02  -1.82987433e-02   1.57087408e-02]
 [  3.85755710e-02  -7.87452981e-03  -2.97578853e-02   2.39359643e-02
    1.46557875e-02   2.24259049e-02  -1.90797297e-03   1.63687114e-02
   -2.44986848e-03   1.77303869e-02  -1.77719090e-02  -9.98954289e-03
   -6.02453249e-03  -1.25146983e-02  -2.67744791e-02   9.79029294e-03]
 [ -5.08697517e-02   1.31697379e-04  -1.53620094e-02  -6.08675629e-02
    8.09003413e-03  -3.01394369e-02  -3.98761407e-02   2.01917160e-02
   -1.09498836e-02  -1.50804652e-03   1.99171007e-02  -1.80279312e-03
   -1.11355702e-03  -3.57187055e-02  -2.29338426e-02  -2.70669628e-03]
 [ -2.07803790e-02   9.03822388e-03   1.76997785e-03  -2.24576090e-02
   -1.17005510e-02  -5.79135772e-03  -3.56747722e-03   1.39757516e-02
   -2.23868340e-03  -2.33524833e-02   3.23703932e-03  -3.64356441e-03
   -4.09557892e-04  -1.63905565e-02  -3.85933556e-03   3.73131596e-03]
 [  2.68773790e-02  -2.32338607e-02  -2.81217340e-02   1.65579747e-02
    3.81561406e-02   1.14055467e-03  -2.15273704e-02  -9.43300128e-03
   -3.72250122e-03   5.86918183e-02  -8.64226255e-04   2.24081217e-03
   -2.61573866e-03   5.31107467e-03  -1.95490681e-02  -5.81556605e-03]
 [  2.57476449e-01   1.84858385e-02   1.38619607e-02   8.54371786e-02
   -2.81673431e-01   5.07655032e-02   1.16325878e-01  -9.16476995e-02
    2.70979792e-01   1.31106153e-01  -3.57005239e-01   5.96090704e-02
    4.55655605e-01   1.30266622e-01   1.96005225e-01   6.59798086e-03]
 [  4.46807802e-01   1.07258938e-01   1.33826673e-01   5.61638959e-02
   -3.39250147e-01   2.16681316e-01  -2.06146538e-01   1.57440096e-01
    2.71850109e-01   3.90022755e-01  -4.67372611e-02  -2.16698691e-01
   -5.00004403e-02  -1.07096232e-01   1.82980999e-01   2.77100831e-01]
 [ -2.75492489e-01   2.80741870e-01  -1.24111734e-01   1.38534158e-01
   -2.32513666e-01   2.33326837e-01   8.48516747e-02   6.37152672e-01
    1.04795203e-01  -4.02614146e-01  -1.57585829e-01  -2.43955161e-02
   -8.60509574e-02   3.78912181e-01   9.41425487e-02   1.79772079e-01]
 [ -1.15760540e-05   8.69697942e-06   1.00001419e+00   3.81727441e-05
   -1.23352220e-04   1.00049305e+00  -5.63644790e-05   8.08131008e-05
    6.52855233e-05   1.00026691e+00  -1.24504993e-04   1.10470464e-05
    2.40765527e-04  -1.67259976e-04  -3.90493551e-05   9.42395491e-05]
 [  8.21972359e-03  -4.93442640e-02   6.16164625e-01  -2.77677961e-02
   -3.63313407e-02  -2.81786472e-01  -4.25364077e-02   9.59910080e-03
   -2.98222620e-02   9.24293995e-02   1.35897651e-01   2.93941386e-02
    9.49656516e-02  -1.12836257e-01   6.65465832e-01  -3.00422385e-02]
 [  1.75643086e-01   4.18371819e-02   1.43811041e-02   3.34287025e-02
    1.21650647e-03   3.23835015e-01  -2.49761403e-01   1.44452482e-01
    3.39789987e-01   4.72850837e-02   2.90884785e-02   2.25903280e-02
    4.21504416e-02   3.29826713e-01  -9.86819863e-02   6.87818900e-02]
 [  4.44455147e-02  -8.30092803e-02   1.09795883e-01  -1.18470844e-02
    2.11222321e-02   8.41717124e-01   3.33676301e-02   1.29089281e-01
   -8.09192508e-02   2.47805044e-02  -2.27059028e-03  -6.10717461e-02
    6.23459276e-03  -7.62616098e-02   9.26610231e-01  -1.80821449e-01]
 [ -8.90842202e-05  -8.43832531e-05  -2.00068054e-04  -1.40363220e-04
    9.71128393e-05   4.38029674e-05   1.55234200e-04   5.86307651e-05
   -2.29444777e-06  -1.37953684e-04   5.11011513e-06   1.55684393e-05
   -1.20436591e-04   1.40841061e-04  -2.05679884e-04  -1.25342747e-04]
 [  5.48391836e-03   1.09641120e-01   1.87085927e-01   1.87353045e-01
   -1.42167076e-01   1.83990359e-01  -6.90586399e-03  -1.43311620e-01
    1.09532297e+00   4.59259242e-01  -7.43266493e-02  -7.72359148e-02
    1.10210635e-01   5.69535233e-02   2.85266638e-01  -7.72912353e-02]
 [  1.43826781e-02   6.55630007e-02  -9.19266269e-02  -2.20294312e-01
   -7.47766569e-02   3.64914656e-01  -1.20233066e-01  -9.52280089e-02
   -9.22561437e-03   3.62304062e-01   1.55420303e-01  -4.76792693e-01
   -2.27656022e-01   5.95582165e-02   2.64458954e-01   2.85847694e-01]
 [  1.27463952e-01   1.75940499e-01  -4.32852238e-01   8.17659572e-02
    6.10652678e-02   3.22294235e-01   1.99475944e-01  -1.94721013e-01
    4.63334061e-02   9.06447992e-02  -4.54483479e-01  -2.07056195e-01
    2.76444376e-01  -9.51980948e-02  -1.41148329e-01  -8.08943659e-02]
 [  3.44553858e-01  -5.17511852e-02   4.54814769e-02  -1.94508955e-02
   -2.25541949e-01   6.13776110e-02  -2.08778858e-01  -1.56958163e-01
   -2.34949350e-01   2.83666372e-01  -7.80373514e-02  -1.57897845e-01
    1.94541469e-01   2.37851366e-01  -4.37556617e-02   4.46037278e-02]
 [  4.37344387e-02   1.73268244e-01   1.81621403e-01   1.53236389e-01
   -3.24432313e-01  -5.80447726e-02  -3.12529206e-02   7.30194151e-02
   -4.13051480e-03   2.04036742e-01  -1.18767098e-01  -1.77696764e-01
   -3.31259310e-01  -9.67315882e-02  -1.82385400e-01   2.95017004e-01]
 [  4.98736054e-02   2.12845519e-01   1.99477300e-02  -8.12497914e-01
    1.44328950e-02   2.94409338e-02  -9.43209156e-02   2.14916356e-02
    3.20758015e-01   2.74011731e-01  -2.83454984e-01  -1.83843553e-01
   -9.66247916e-02  -2.24902898e-01  -2.02846602e-01   2.48820540e-02]
 [ -1.36273965e-01   1.50464639e-01  -6.18541986e-02  -2.01879144e-01
    1.05500326e-01  -1.52059212e-01  -4.58644405e-02   1.49624482e-01
   -5.91724589e-02   1.05094396e-01  -1.35558486e-01  -2.90843159e-01
    2.03666657e-01   9.06472560e-03   1.01040311e-01   2.02791542e-01]
 [  2.28241179e-02  -8.16916674e-03   1.05820581e-01  -3.12230438e-02
   -1.15592638e-02   3.44293527e-02  -3.97604942e-01   1.39653115e-02
    2.82877218e-02   1.11068767e-02  -2.10991576e-02  -3.05807288e-03
   -5.78517094e-02   3.46759558e-02  -7.28734955e-02   3.37567343e-03]]
Bob
[[  3.50700878e-02  -1.05878063e-01   5.23162000e-02   1.07310914e-01
    1.06157688e-02   7.11647645e-02   2.45559830e-02   1.57054335e-01
   -1.79540526e-04   4.85702567e-02  -1.15544684e-02   1.87528223e-01
   -1.73862334e-02  -5.99505268e-02  -3.07720918e-02   1.38691664e-01]
 [  1.34626711e-02  -4.85572405e-02   4.43487503e-02   9.36380476e-02
    7.11150095e-03   5.51399849e-02   1.16682295e-02   1.76751211e-01
    1.76093522e-02   7.00703785e-02  -5.19956872e-02   6.84968308e-02
   -2.71131434e-02  -6.16800934e-02  -7.07974285e-02   1.11009277e-01]
 [  2.24857423e-02  -1.25110060e-01   1.80620532e-02   1.00177914e-01
   -7.62463082e-03   4.99496609e-02   1.67886820e-02   2.13045746e-01
    1.00816106e-02   5.14948964e-02  -2.27635652e-02   1.77924484e-01
   -1.90140139e-02  -6.43574297e-02  -3.73737104e-02   9.93765667e-02]
 [  8.13266449e-03  -4.70540710e-02   7.20880330e-02   9.57081169e-02
    1.55030638e-02   4.91197295e-02   5.07391430e-03   1.42850190e-01
    4.57428442e-03   2.69941445e-02  -4.67703082e-02   1.44952722e-02
   -3.07885185e-02  -5.71158268e-02  -8.19004402e-02   4.68027815e-02]
 [  1.27671156e-02  -6.66663572e-02   1.03611484e-01   1.12154812e-01
    2.87087057e-02   6.75824136e-02   6.03263127e-03   7.33882040e-02
    2.51899078e-03   1.51319932e-02   3.67436471e-04   9.03704762e-02
   -1.99900270e-02  -5.20135574e-02  -6.94699511e-02  -5.26138162e-03]
 [  3.83310132e-02  -1.11839352e-02   6.25374317e-02   1.04749344e-01
    2.23271418e-02   9.80301350e-02   1.65012926e-02   1.54983014e-01
   -6.03651255e-03   2.54727602e-02  -6.42035753e-02   1.06673501e-02
   -1.09705716e-01  -6.58962354e-02  -5.00274152e-02   8.94157439e-02]
 [  3.21172662e-02  -3.32434960e-02   6.31748214e-02   1.08908787e-01
    6.92084245e-03   7.06493333e-02   7.71755027e-03   1.36585504e-01
    3.78585234e-03  -5.79986013e-02  -5.23876725e-03   7.68267736e-02
   -1.13985680e-01  -1.95974424e-01  -3.65668014e-02  -1.59171890e-04]
 [ -4.19130959e-02  -2.41467226e-02  -2.78127696e-02   1.20617539e-01
    1.82569828e-02   5.14663123e-02   3.08860186e-02   1.25030458e-01
    6.03982210e-01   1.08026760e-02   2.23174714e-03  -2.44145300e-02
   -1.93804502e-02  -4.30284068e-02  -4.28588651e-02   4.21563312e-02]
 [  1.10717071e-02  -8.19826126e-02   5.32956161e-02   1.01303853e-01
    1.09781133e-04   3.88005413e-02   8.11387226e-03   1.89285994e-01
    3.18201026e-03   5.05552478e-02  -4.56712544e-02   6.38874397e-02
   -3.38103287e-02  -8.17878842e-02  -5.54513037e-02   8.78578946e-02]
 [  1.56684294e-02  -1.62750389e-02   6.75926432e-02   9.04886350e-02
    1.87734123e-02   6.79690018e-02   9.83684417e-03   1.11936472e-01
    2.87711415e-02   5.13490364e-02  -2.16762498e-02   3.81408557e-02
   -5.77350222e-02  -5.59387058e-02  -7.79111087e-02  -6.42682984e-02]
 [  3.45994867e-02  -1.15861356e-01   1.17654890e-01   9.43195373e-02
    6.67672791e-03   5.12040295e-02   3.16121578e-02   1.43338978e-01
   -8.22526682e-03   3.40951085e-02  -2.53626909e-02   3.36820222e-02
   -1.77116171e-02  -8.14124185e-04  -4.47792858e-02   4.58009131e-02]
 [  1.63961891e-02  -8.02007616e-02   7.04291016e-02   1.08361267e-01
   -1.64797052e-03   6.60229325e-02   1.00989379e-02   1.81471497e-01
    9.09103174e-03   2.81322226e-02  -4.32810299e-02   7.17529207e-02
   -4.02621701e-02  -7.14708343e-02  -6.36635423e-02   1.21944062e-01]
 [  8.94681923e-03  -5.34499437e-02   3.56553271e-02   9.63700861e-02
    1.43900570e-02   6.01874292e-02   6.56465162e-03   1.59894541e-01
    3.56359370e-02  -2.12060916e-03  -2.08955277e-02   5.28040752e-02
   -6.21924102e-02  -6.93100840e-02  -7.95747265e-02  -2.66388059e-02]
 [  2.22993381e-02  -3.97919901e-02   2.14027930e-02   1.01941600e-01
    3.79327242e-03   8.88196900e-02   7.61658559e-03   2.03331634e-01
    1.76859386e-02   2.73526739e-02  -6.42117858e-02   4.59717885e-02
   -9.54038873e-02  -5.73143698e-02  -5.87601252e-02   9.75278765e-02]
 [  1.81951076e-02  -1.27752982e-02   3.98721881e-02   9.36648697e-02
    3.04641072e-02   6.19125627e-02   2.22178251e-02   1.68186933e-01
    2.16368008e-02   1.18418865e-01  -5.92582375e-02   1.31008923e-02
   -8.23781863e-02  -4.50626351e-02  -5.33235483e-02   5.30502619e-03]
 [  1.32627338e-02   1.26901474e-02   6.27651364e-02   8.32342431e-02
    1.04517946e-02   6.19934984e-02   7.77965819e-04   1.33640140e-01
    4.76325192e-02   5.71881533e-02  -5.34123369e-02   2.64272261e-02
    6.87590614e-03  -5.33275753e-02  -1.39043704e-01   4.63398248e-02]
 [  1.29546085e-03  -1.06655806e-02   1.18333269e-02   7.97229633e-02
    3.63384299e-02  -3.45135690e-03  -4.96422760e-02  -6.13658465e-02
    1.22670457e-02   1.46581875e-02   1.26994716e-03   6.25109207e-03
    1.49586704e-03  -6.71447208e-03  -1.54675054e-03   6.86783856e-03]
 [  9.64902248e-03  -2.69339718e-02  -3.60910199e-03   7.91986138e-02
    1.83716211e-02   1.03757335e-02  -4.75153886e-02  -3.17889005e-02
    4.05906774e-02   2.19215807e-02   1.99493952e-03   3.04933526e-02
   -3.23076057e-03   1.81584954e-02   2.22482509e-03   2.41095833e-02]
 [  1.94119741e-04  -1.71801802e-02   1.88491866e-02   9.21627432e-02
    8.04400146e-02  -5.16770640e-03  -3.16580571e-02  -7.66923055e-02
    7.97023904e-03   7.97926728e-03   1.07224667e-02   4.45809355e-03
   -3.81303253e-03  -1.86624005e-03  -6.88278757e-04   1.23365186e-02]
 [ -4.01295209e-03   1.40898228e-02   2.43200678e-02   6.77468106e-02
   -5.24010099e-02   3.53213254e-04  -1.08832948e-01  -7.90579841e-02
   -3.64851439e-03   1.94966942e-02  -1.74538475e-02  -1.22459279e-02
    1.69758592e-02  -2.21621320e-02  -6.41070493e-03  -2.00999696e-02]
 [  1.93030341e-03  -7.37948529e-03   1.47599624e-02   7.13073462e-02
   -1.43702030e-02   8.47574696e-03  -7.41403699e-02  -5.89963198e-02
    1.60629973e-02   1.70714371e-02  -5.28974598e-03   7.28333648e-03
    5.50838979e-03   3.79780377e-03  -1.80629618e-03   2.07666657e-03]
 [ -1.01828538e-02  -7.72770122e-03   6.78483248e-02   1.00905910e-01
    4.86487374e-02   1.81294437e-02  -6.95802644e-02  -1.47435099e-01
   -2.11795345e-02  -1.07693449e-02   1.47264963e-02  -2.31101550e-02
   -2.92636425e-04   2.49020420e-02  -3.13155935e-03  -7.02563860e-03]
 [  6.61649182e-03  -2.01622806e-02  -2.55363848e-04   6.96931779e-02
    1.70846730e-02   6.46337308e-03  -4.38779891e-02  -3.33198458e-02
    3.06920782e-02   1.86317414e-02   1.07542356e-03   2.19640024e-02
   -1.77066261e-03   1.05675664e-02   1.03575899e-03   1.75575148e-02]
 [ -1.22848907e-02  -4.27320274e-03   7.34594166e-02   9.60470065e-02
    4.22059931e-02   1.97314713e-02  -7.14482218e-02  -1.52786568e-01
   -2.73097605e-02  -1.38743259e-02   1.45978108e-02  -2.86652707e-02
    5.51365607e-04   2.56833453e-02  -3.88027471e-03  -1.12546263e-02]
 [  5.44063048e-03  -1.32360077e-02  -3.30785289e-03   6.90695792e-02
    1.42310532e-02  -2.03172443e-03  -4.94306423e-02  -3.28253359e-02
    2.60438211e-02   2.19433680e-02  -3.38083948e-03   1.75104309e-02
    1.87275338e-03  -5.60368551e-03  -5.75094076e-04   1.18190981e-02]
 [  2.03993241e-03   1.02689136e-02  -2.84036621e-03   7.53850639e-02
   -3.21322344e-02  -1.65577196e-02  -9.93936136e-02  -4.91589271e-02
    1.26914196e-02   3.37708183e-02  -2.18827836e-02   2.72367243e-03
    1.73671879e-02  -4.49704230e-02  -5.65114710e-03  -1.09952837e-02]
 [  4.70582629e-03  -1.29809408e-02  -7.10234453e-04   7.53747895e-02
    2.62321327e-02  -4.69655078e-03  -4.88450676e-02  -4.10738811e-02
    2.28923187e-02   2.10355259e-02  -2.00443692e-03   1.52047323e-02
    1.82821730e-03  -8.82386416e-03  -7.75267836e-04   1.12362476e-02]
 [  1.54344589e-02  -2.69923341e-02  -3.38281989e-02   7.22640380e-02
    1.59010738e-02  -4.66287322e-03  -3.97040471e-02   1.06834415e-02
    5.72209023e-02   3.69744375e-02  -6.05008611e-03   4.48659435e-02
   -1.29903597e-03  -4.68867086e-03   2.56431359e-03   3.02440412e-02]
 [  1.37565949e-03  -1.85530800e-02  -2.67636008e-03   1.05660699e-01
    1.67584702e-01  -3.92796025e-02   9.86588653e-03  -6.19230457e-02
    6.26157271e-03   1.36081111e-02   1.53580029e-02   6.77817781e-03
   -7.11815059e-03  -4.27809879e-02  -1.08116388e-03   1.99085213e-02]
 [ -4.75584762e-03  -9.36496258e-03   5.20887561e-02   8.74228477e-02
   -1.72882958e-03   2.57996954e-02  -8.40938538e-02  -1.15695186e-01
   -2.85934913e-03  -5.58455591e-04   5.88182267e-03  -9.07875504e-03
    2.36705085e-03   3.14354226e-02  -2.11406755e-03  -3.46006290e-03]
 [  1.13020707e-02  -1.16607845e-02  -2.70704832e-02   6.72272146e-02
   -1.65109690e-02  -8.83149356e-03  -6.50980920e-02  -1.62152213e-03
    4.37578000e-02   3.85237634e-02  -1.50747653e-02   3.13263871e-02
    7.02291727e-03  -2.12888531e-02  -5.48019831e-04   1.42210200e-02]
 [  4.46375598e-05   7.32118823e-03   4.17258777e-03   7.94706568e-02
   -2.54480192e-03  -1.75564438e-02  -8.43275860e-02  -6.01785183e-02
    6.47704955e-03   2.71595474e-02  -1.49587877e-02  -1.36185274e-03
    1.36410110e-02  -4.14542034e-02  -5.29144192e-03  -8.98731779e-03]
 [ -5.63029684e-02   1.42927691e-01  -6.30494803e-02  -8.57948586e-02
   -9.06855147e-03   5.13935350e-02  -1.18726037e-01   8.20198357e-02
   -7.85737857e-02   1.46799535e-01  -1.48508400e-01   4.84792680e-01
   -2.20792398e-01   3.94098787e-03  -5.10711372e-02   6.01360798e-02]
 [  1.84016094e-01  -2.11637363e-01   9.93257016e-02   1.45393983e-01
    1.75374866e-01   1.67188719e-01  -1.88234169e-02   5.37273102e-02
   -1.41252540e-02   1.02753729e-01  -1.70899391e-01  -1.23052321e-01
   -1.34778008e-01  -6.06869683e-02  -3.53797168e-01  -1.46218225e-01]
 [ -1.78956762e-01  -1.14656702e-01  -1.66584432e-01   3.08829516e-01
    3.08225993e-02   2.36977607e-01  -5.92257129e-03  -3.88167650e-01
    1.47556499e-01   7.59109259e-02   1.07235447e-01  -2.10604429e-01
   -1.71889082e-01   1.02742843e-01   1.14040561e-02  -3.45444679e-01]
 [  2.35645957e-02  -2.31901612e-02   2.13054083e-02  -2.04741582e-01
    1.89526305e-01  -2.87050873e-01  -9.06067491e-02   2.60086376e-02
    2.34669492e-01   2.57187277e-01  -6.53394759e-02  -1.94601193e-01
   -9.54302307e-03  -6.12637222e-01  -1.22408457e-01   3.33648473e-01]
 [ -9.79511999e-03  -3.32258791e-01   4.88481522e-02  -2.69974098e-02
   -7.48461857e-02  -6.01948276e-02   1.69785433e-02  -4.31527108e-01
   -9.37400907e-02  -6.30876422e-02   1.99577492e-02   6.36083111e-02
   -1.19481750e-01  -6.49317354e-02  -8.84169340e-02   6.92339838e-02]
 [ -3.39772776e-02  -1.34563252e-01   2.41551116e-01  -2.46225342e-01
   -4.63647068e-01   1.18618071e-01  -7.00076818e-02  -1.47626624e-01
    3.87495995e-01   2.05296963e-01  -3.55796278e-01   3.47754091e-01
    1.36484370e-01   3.88258934e-01   3.94599810e-02  -1.07304141e-01]
 [ -9.18017477e-02   1.21930214e-02   2.06252374e-02  -6.27227649e-02
   -2.53352895e-02   7.79350922e-02  -7.53429756e-02  -1.13882557e-01
    1.56015875e-02  -8.84101260e-03   1.64133888e-02   2.87411455e-02
    7.76398415e-03  -4.67287637e-02   1.17837703e-02   2.86104351e-01]
 [ -3.68479267e-02  -4.63453420e-02   5.42264938e-01  -1.38148338e-01
   -2.60368168e-01  -1.95757568e-01  -1.92767784e-01  -2.27205455e-01
    1.59652248e-01   7.67439380e-02  -5.00433147e-02  -1.90794408e-01
   -3.25214863e-01   2.39465944e-02  -1.83094263e-01   3.31240475e-01]
 [ -1.55155271e-01  -6.75493968e-04   1.61187038e-01  -2.18566492e-01
    1.29872441e-01  -6.84940815e-02  -1.48221776e-01  -4.16165769e-01
   -1.05218148e+00   3.78130749e-02  -9.78730805e-03  -1.17921636e-01
    3.26044112e-02  -1.08896345e-01   1.03242591e-01   1.08199805e-01]
 [  2.00986527e-02   1.12844035e-01  -9.28141773e-02  -1.08591780e-01
    3.23122181e-02  -1.47080002e-02  -3.53739053e-01   4.14445668e-01
    1.34279758e-01   2.46760324e-02  -6.94975778e-02   1.02992482e-01
   -1.17307603e-01   6.64866855e-03   5.69771305e-02   2.71686792e-01]
 [ -1.41908452e-01  -5.90197071e-02  -4.41673100e-02   5.38331904e-02
   -1.36207432e-01  -3.21612775e-01  -2.57815868e-01  -2.19496861e-01
    5.30252904e-02   3.02148890e-02  -3.47679406e-01   2.14645565e-02
   -1.57779932e-01   7.29280040e-02  -3.95173505e-02  -1.32554576e-01]
 [  3.59221809e-02  -2.01156884e-01   2.08316203e-02  -3.73522528e-02
   -1.84798270e-01   6.91209733e-02  -1.74545586e-01   7.92304277e-02
    2.60970052e-02   2.77905166e-01   4.24541458e-02   5.92323616e-02
    5.83477318e-02  -9.84079912e-02  -7.65469819e-02  -1.34816542e-01]
 [  6.80997908e-01  -7.59836137e-02  -6.18038699e-02  -4.39229123e-02
   -3.14065516e-02   1.75356060e-01  -1.09193094e-01   5.22105955e-02
    3.00432384e-01   5.87369082e-03   1.02564685e-01   3.83455366e-01
   -4.95512448e-02   4.97820787e-02  -1.95855349e-01  -1.51214926e-02]
 [ -8.06146115e-02   6.49536923e-02   1.07824035e-01  -1.41599581e-01
    1.56097308e-01  -4.30264115e-01  -2.20423594e-01  -2.91735083e-01
   -1.34567037e-01  -4.17585075e-02  -1.33981362e-01   5.02881519e-02
   -1.80570200e-01  -3.10701966e-01   1.56063652e-02  -2.69596949e-02]
 [  1.89429313e-01  -2.22488537e-01  -1.01593442e-01   1.93241119e-01
   -2.98986696e-02  -7.60034705e-03   2.82592773e-01  -2.88183361e-01
    1.17843695e-01  -4.65989299e-02  -2.28346199e-01   1.55706555e-01
   -4.63812165e-02  -2.01278299e-01  -2.77275145e-01   2.52370447e-01]
 [ -1.57619834e-01  -2.93791771e-01  -3.44270021e-02  -1.50954887e-01
   -8.92266333e-02  -4.06299978e-01   1.28934205e-01  -2.70656526e-01
   -1.86151825e-02   2.22778082e-01  -7.82934278e-02   2.99178064e-01
   -1.68768823e-01  -2.14005169e-02  -1.00053959e-01  -6.18435629e-02]]
Eve
[[  4.85978484e-01   6.17031693e-01   3.06932539e-01   3.97349477e-01
    5.80773056e-01   1.20270744e-01  -1.26008821e+00  -3.69936019e-01
    9.27643776e-02   2.10845083e-01   5.82974434e-01   6.34524524e-01
    8.60368181e-03  -5.86125068e-02  -5.81946552e-01  -6.73364818e-01]
 [  1.96196988e-01   5.00497878e-01   2.78440982e-01   2.20757261e-01
    5.18116534e-01   9.68772918e-02  -1.20901918e+00  -2.84541011e-01
    3.11115328e-02   6.07650466e-02   5.02828658e-01   5.46567023e-01
    3.95417884e-02  -6.99663982e-02  -5.43394923e-01  -6.07669532e-01]
 [  4.43727881e-01   5.99622428e-01   3.30916882e-01   3.63322020e-01
    4.52760041e-01   1.04751915e-01  -1.12575948e+00  -2.98096448e-01
    1.36366069e-01   1.21547602e-01   5.61420321e-01   6.69891179e-01
    3.89760584e-02  -9.76142660e-03  -5.76696157e-01  -6.73142612e-01]
 [  1.39806360e-01   4.83571291e-01   2.92629629e-01   1.76303223e-01
    4.42004949e-01   6.26177713e-02  -1.03927362e+00  -2.65881866e-01
   -1.45273367e-02  -7.53291324e-03   4.98366714e-01   6.05659723e-01
    1.71299856e-02  -4.12066914e-02  -5.33578575e-01  -6.03500783e-01]
 [  3.53153408e-01   4.54916120e-01   2.53243476e-01   2.79084533e-01
    4.96513695e-01   1.49361461e-01  -7.77480543e-01  -3.42807174e-01
    1.00198826e-02  -2.61680153e-03   5.66835821e-01   5.57714045e-01
   -1.73315071e-02  -4.86236885e-02  -5.37109196e-01  -6.03363276e-01]
 [  1.47192493e-01   7.51609623e-01   3.10609043e-01   3.31322491e-01
    7.48253226e-01   1.13453880e-01  -1.33440971e+00  -2.05612913e-01
   -2.10594777e-02   1.78720906e-01   5.82239926e-01   6.93221509e-01
    1.51955173e-03  -8.17777812e-02  -6.56726360e-01  -6.00653470e-01]
 [  4.69489574e-01   8.39019001e-01   3.87779981e-01   5.95614254e-01
    7.85499215e-01   6.71399012e-02  -1.08841133e+00  -3.23297411e-01
   -3.87082621e-03   3.01939070e-01   7.96610653e-01   9.00944293e-01
    8.56972125e-04  -7.63625801e-02  -6.95439279e-01  -6.33499265e-01]
 [ -1.64471090e-01   4.13134545e-02  -3.27443331e-01   1.76396340e-01
    2.69235253e-01  -1.15509592e-01  -1.75449625e-01  -2.28437543e-01
   -1.37433147e+00  -2.48505920e-01   2.65347362e-01   1.68464184e-01
    1.31018117e-01  -2.75654178e-02  -9.27936658e-02  -1.34219572e-01]
 [  2.33541116e-01   6.33090436e-01   3.28558803e-01   2.46873438e-01
    4.51847255e-01  -5.04128868e-04  -1.19000518e+00  -3.09492826e-01
    4.46053669e-02   8.36332664e-02   5.56159496e-01   6.49583519e-01
    4.99190465e-02  -2.35792529e-02  -5.88091493e-01  -6.42831743e-01]
 [  1.65574133e-01   4.03912276e-01   1.85092464e-01   1.87682793e-01
    5.20706117e-01   1.86988622e-01  -5.20143688e-01  -2.60565698e-01
    4.57941480e-02  -9.58291516e-02   5.22037506e-01   4.04726595e-01
   -1.40897175e-02  -6.58236295e-02  -5.24741590e-01  -4.74135399e-01]
 [  1.39223844e-01   6.53321385e-01   3.01481456e-01   6.18205145e-02
    3.40478122e-01  -1.11723997e-01  -9.81421292e-01  -4.27681118e-01
    1.61043406e-02   2.66566081e-03   5.39610207e-01   5.82435250e-01
   -2.98992470e-02   3.41847714e-04  -5.73945880e-01  -6.47582710e-01]
 [  2.78649300e-01   6.68134630e-01   3.65054131e-01   3.09746891e-01
    5.56809723e-01   2.64464486e-02  -1.40124857e+00  -3.34479690e-01
   -6.16927864e-04   1.35305896e-01   6.12087905e-01   7.48258054e-01
    4.08457667e-02  -5.19054197e-02  -6.28417194e-01  -7.11789012e-01]
 [  2.23616078e-01   4.33954954e-01   2.92643756e-01   2.76878357e-01
    4.41707969e-01   1.37771875e-01  -7.26309240e-01  -2.04053074e-01
    6.96384311e-02  -3.66817340e-02   5.41046858e-01   6.24883950e-01
    1.93822067e-02  -3.66182253e-02  -5.24868488e-01  -5.39289534e-01]
 [  1.83666646e-01   6.60836220e-01   3.34866613e-01   3.46488446e-01
    6.36384666e-01   1.40037507e-01  -1.30988657e+00  -1.42902121e-01
    3.37544233e-02   1.27413601e-01   5.52025795e-01   7.22118676e-01
    4.57796641e-02  -5.57450242e-02  -6.18746877e-01  -6.13673747e-01]
 [  1.89664215e-02   5.55834949e-01   1.66942984e-01   1.19651645e-01
    5.44098437e-01   1.27925143e-01  -7.72071540e-01  -2.09979340e-01
    8.18393230e-02  -4.90618758e-02   4.73711252e-01   3.30347359e-01
    3.16561610e-02  -5.80094047e-02  -5.66516817e-01  -4.49578941e-01]
 [  9.23999920e-02   1.74220577e-01   2.26683512e-01   9.73049402e-02
    5.30311525e-01   2.30282426e-01  -9.70578611e-01  -3.14339876e-01
   -2.99766641e-02  -1.25796080e-01   4.59591448e-01   4.54285175e-01
   -2.35715397e-02  -1.37914300e-01  -4.64631766e-01  -5.86850584e-01]
 [  7.37745047e-01  -2.12393627e-01   1.94401652e-01  -7.09106028e-01
   -1.12731650e-01  -6.12015307e-01   5.82600176e-01  -4.08765674e-02
    5.07587790e-02  -2.51395851e-01  -3.58072519e-01  -4.04419720e-01
    9.69366059e-02  -1.24883831e-01   7.34374076e-02   5.58226407e-01]
 [ -7.30654448e-02  -4.40736145e-01  -3.02655339e-01   9.12234634e-02
   -5.70457876e-01   2.31373552e-02   5.33007503e-01  -5.69253974e-03
   -1.17789423e-02   3.12664747e-01  -5.76103806e-01  -4.13813353e-01
   -3.98351327e-02   3.51940133e-02   2.57451445e-01   6.41528189e-01]
 [ -4.23368663e-01  -6.84837222e-01  -1.06253994e+00   1.48433343e-01
   -1.03354096e+00  -8.99598375e-02   1.07154524e+00   2.83912808e-01
   -3.16746235e-01   1.21130995e-01  -3.61898333e-01  -5.58769941e-01
   -6.50043115e-02  -3.24228048e-01   1.47587883e+00   7.15249181e-01]
 [ -6.37121558e-01  -5.85841954e-01  -4.97943796e-02   7.07869112e-01
   -5.48459888e-01   2.77912945e-01  -3.54705341e-02  -4.65890281e-02
   -2.50166178e-01  -1.75255671e-01  -2.14897022e-01  -5.19576490e-01
   -5.19768856e-02   2.76597828e-01   3.11111003e-01   5.86879671e-01]
 [ -4.76432629e-02  -4.72404778e-01  -3.50435942e-01   4.47015502e-02
   -3.71679544e-01  -1.81620568e-01   6.97117329e-01  -1.42385557e-01
    1.56450048e-01   5.79347610e-01  -3.80855322e-01  -1.19394355e-01
    1.80218313e-02  -4.45418060e-02   2.27777824e-01   4.27388310e-01]
 [  3.41120094e-01  -1.35448247e-01  -7.34926686e-02  -4.77118433e-01
   -4.36631233e-01  -5.42488515e-01   4.68702614e-01  -1.94148481e-01
   -5.47267556e-01  -2.60201603e-01  -6.91060543e-01  -3.70877624e-01
    9.71988365e-02  -3.23308349e-01   1.65286407e-01   2.54672974e-01]
 [ -2.96833366e-01   1.52353704e-01   4.21616495e-01   3.42853755e-01
    1.22694016e-01   1.12176813e-01   1.06577687e-02  -1.40337899e-01
    3.89290631e-01  -2.87831038e-01   8.54007974e-02  -2.07998142e-01
    1.00696996e-01   1.62836626e-01  -1.07919700e-01  -2.58782115e-02]
 [  2.64914148e-02  -2.91214645e-01   4.18843925e-02   3.59257996e-01
   -3.64554852e-01  -4.49516714e-01   8.16042721e-02  -4.89815146e-01
   -4.04448844e-02   4.32330102e-01  -3.82022023e-01  -2.66897827e-01
    5.88873588e-02   5.86452305e-01  -1.03737295e-01   3.77965212e-01]
 [  3.79576534e-02   2.65618145e-01   1.23624049e-01   2.84879953e-02
    2.37008482e-01   1.36579737e-01  -3.28498185e-01  -1.23564065e-01
    6.06198549e-01   9.07754824e-02   1.34082377e-01   1.00253239e-01
    5.99196851e-02   8.41000229e-02  -1.27334476e-01  -1.18031921e-02]
 [  3.52933317e-01  -2.91187644e-01   1.37927234e-02   1.21136554e-01
   -1.41137512e-02  -2.54389104e-02   5.68441562e-02   4.04179662e-01
   -1.05174780e-01  -1.34119034e+00  -7.52619267e-01  -4.99716431e-01
   -1.42204305e-02  -1.07439905e-01   3.75669926e-01   7.27232873e-01]
 [  4.79838461e-01  -3.20895821e-01   6.64325416e-01  -2.47136280e-01
   -1.43893108e-01  -1.06910966e-01   3.66318583e-01  -1.03791498e-01
    2.64411658e-01   1.54012635e-01  -4.93253499e-01  -4.38707501e-01
   -2.15594545e-02   5.07234216e-01   5.97864203e-02   2.32728586e-01]
 [  1.07932389e-01  -4.67518985e-01  -2.59659052e-01  -1.41112551e-01
   -4.33023214e-01  -3.40721905e-01   6.28458142e-01  -5.07457018e-01
   -1.41054899e-01   2.37901717e-01  -3.84513646e-01  -6.96712554e-01
   -8.02259799e-03   1.71089116e-02   2.60260254e-01   8.45774531e-01]
 [  4.06648666e-01  -5.46166480e-01   4.39157069e-01  -4.16648760e-02
   -7.07261637e-02  -6.38644248e-02   4.85622704e-01  -1.22460410e-01
   -4.02538806e-01  -3.67430300e-01  -5.29710054e-01  -6.25379920e-01
   -4.35931683e-01  -4.33005184e-01   1.20533995e-01   4.93027419e-01]
 [ -3.75868648e-01  -4.76726621e-01   5.56371093e-01   7.42273450e-01
   -1.80462435e-01  -8.11182261e-02   5.71693629e-02  -7.54921973e-01
    2.80525923e-01   1.43485323e-01  -2.48073444e-01  -6.21233642e-01
    1.88678354e-01   8.63641739e-01  -3.32137913e-01   4.43826944e-01]
 [ -1.98956326e-01  -6.44969583e-01  -3.97953600e-01   3.13460052e-01
   -8.13075662e-01  -1.14277840e-01   6.59835100e-01   4.62449014e-01
    1.75061915e-02   1.28819317e-01  -2.61184663e-01  -4.64530736e-01
   -6.68467283e-02  -3.12274456e-01   9.31853235e-01   2.11332932e-01]
 [  6.26004875e-01  -3.24163526e-01  -3.80922854e-02   2.29996994e-01
   -8.22015703e-01  -3.24222505e-01   2.18076974e-01  -1.39182255e-01
    2.86868904e-02   1.37288943e-01  -5.52534819e-01  -4.44252342e-01
    7.64351413e-02   5.59428453e-01   7.83995911e-02   7.87173569e-01]
 [  1.02694798e+00   7.26958215e-02   2.60574698e-01  -3.40467185e-01
   -9.49728489e-02  -1.83656439e-02  -6.15401745e-01   6.92456007e-01
   -6.83817148e-01  -1.94768593e-01   1.80671126e-01  -2.06735134e-01
   -6.88299417e-01   7.10153282e-02   4.72861618e-01  -2.24271536e-01]
 [  3.39977682e-01  -2.50771523e-01  -3.90949905e-01  -4.69055116e-01
   -4.40007746e-01   6.99422240e-01  -3.16661805e-01  -4.31879312e-02
   -5.76067328e-01  -2.14959741e-01   6.88776150e-02  -3.72665554e-01
   -9.08204094e-02   1.09090693e-01   4.48773831e-01   5.36358953e-01]
 [ -5.97899556e-01  -7.63781488e-01   2.04688668e-01  -1.85522303e-01
   -3.11208159e-01   2.41717935e-01   1.77828223e-01  -9.48881388e-01
    7.35893071e-01   1.14300001e+00  -3.40763837e-01  -1.85044983e-03
    2.22566307e-01  -3.99906129e-01   7.04369843e-01   4.25177187e-01]
 [  2.20365629e-01   2.14120889e+00   2.37100005e-01   1.30605757e-01
    2.15131545e+00  -8.76845270e-02  -2.52254510e+00  -1.76869541e-01
   -1.37068585e-01   3.59788798e-02   2.13842654e+00   2.04730797e+00
   -2.19784044e-02   1.01274855e-01  -2.05476880e+00  -2.06562662e+00]
 [  1.68117762e-01   1.87318242e+00   3.97263467e-01   2.36575812e-01
    1.42140341e+00   1.95245409e+00  -2.17777252e+00  -3.85540485e-01
   -1.24505661e-01   1.58748937e+00   2.04842710e+00   1.63245165e+00
   -9.12408251e-03   3.00828427e-01   7.00498521e-02  -1.61280251e+00]
 [  1.33467808e-01   9.69008729e-02   3.54018986e-01  -8.61706078e-01
   -2.71670431e-01  -9.83488441e-01  -8.35253671e-02  -3.34071875e-01
   -4.30631250e-01   4.27663952e-01  -3.66797559e-02   7.48092830e-02
   -5.18656299e-02  -7.73247004e-01   8.83962438e-02   4.29805405e-02]
 [  3.09270412e-01   2.23381782e+00   2.11468816e+00   1.67402938e-01
    2.05786800e+00  -5.36256507e-02  -2.50531077e+00  -5.97438157e-01
   -3.19242090e-01   2.03024769e+00   2.14198971e+00   1.70423090e+00
   -5.42534739e-02   9.49044526e-02  -8.03827196e-02  -2.31639338e+00]
 [ -2.57311556e-02  -2.77383882e-03  -6.47561848e-02  -1.08715761e-02
   -2.13577552e-03  -1.38154514e-02  -1.19338080e-01   7.06181023e-03
    2.97511145e-02   1.14371315e-01   4.37542163e-02   1.73484720e-02
   -3.30924918e-03  -2.35276334e-02   3.38132642e-02  -4.52543870e-02]
 [  3.75667423e-01   5.45575559e-01   6.05546772e-01  -1.04232423e-01
    4.85295385e-01   9.90985855e-02  -8.64062905e-01   3.78850013e-01
   -1.46379185e+00  -2.33247772e-01   5.01032948e-01   3.94012660e-01
   -1.55888528e-01  -1.04798913e-01  -5.85033968e-02  -5.85976303e-01]
 [  2.16050640e-01   2.13599298e-02   7.24877000e-01   4.06705588e-01
   -8.46776143e-02  -1.06722549e-01   5.85757196e-02   2.73015320e-01
   -4.65629309e-01  -2.31159613e-01  -1.48839697e-01  -5.13078868e-01
    4.42732871e-02   5.81365749e-02   7.42164433e-01  -6.97279498e-02]
 [ -1.55350387e-01  -9.21257794e-01   2.13755593e-01   6.79296255e-02
   -3.55511695e-01  -1.12866533e+00   7.57396698e-01   2.64113188e-01
    2.41411790e-01  -8.32997859e-01  -1.09489179e+00  -7.99362123e-01
    2.00150636e-04  -1.01764416e-02   3.80959272e-01   8.04708481e-01]
 [  6.24924064e-01   1.74174070e-01   2.47878749e-02   1.92410499e-01
   -3.26167345e-01  -3.05270165e-01  -4.09141868e-01   5.36213875e-01
    3.36610079e-02  -7.86849737e-01  -8.20794050e-03  -1.45775288e-01
   -2.18336403e-01  -1.57149538e-01   1.71688497e-01  -5.50863072e-02]
 [ -5.87555468e-02  -9.36951995e-01  -6.92551434e-01  -2.17357516e-01
   -6.91685915e-01   3.91333908e-01   7.32181370e-01  -8.14957544e-02
    5.88256046e-02  -7.61379659e-01  -7.42793858e-01  -7.49600470e-01
    1.00225486e-01  -4.12366875e-02   3.12066227e-01   1.06827068e+00]
 [ -1.45980641e-01  -7.55816817e-01  -2.42217124e-01   1.14654374e+00
   -2.37361193e-01   1.19926490e-01   2.78503001e-01   3.40599120e-01
    6.86131418e-02  -5.06294489e-01  -8.50301206e-01  -7.45267749e-01
    6.88962545e-03   5.54495275e-01   1.88144088e-01   3.54222357e-01]
 [ -3.49046737e-01  -9.32327807e-01  -2.15363964e-01   4.32275444e-01
   -3.19111824e-01   9.38979313e-02   6.46598458e-01  -9.68918279e-02
   -7.80238137e-02  -2.11500987e-01  -3.78810436e-01  -5.31968892e-01
   -2.21552029e-01  -1.02810562e-01   3.22491884e-01   4.82163221e-01]
 [  3.85378629e-01  -3.31513017e-01  -6.23999476e-01  -3.27397496e-01
   -3.77501130e-01   3.00872862e-01  -4.34671253e-01   9.61247683e-02
   -2.01437995e-01  -4.27238315e-01  -1.77561060e-01  -7.49543533e-02
   -1.50104925e-01  -1.81408226e-01  -3.18806060e-02   1.42333671e-01]]