Alice
[[ -1.49620846e-01   1.70428574e-01   5.84599981e-03   2.68883761e-02
    1.31374210e-01   3.58891450e-02  -2.10200972e-03   1.56762838e-01]
 [ -6.54134080e-02   8.74791220e-02   4.79595037e-03   2.50935256e-02
    6.52354807e-02   5.79577088e-01  -8.06227326e-03   3.39518744e-03]
 [ -1.62032276e-01   1.81332648e-01   4.84026130e-03   1.61405522e-02
    1.31227314e-01   4.75179479e-02  -2.23265542e-05   1.57078192e-01]
 [ -1.49776444e-01   1.16173767e-01  -5.65942097e-03   2.81041656e-02
    1.53034419e-01   7.39115775e-02  -5.40917479e-02   1.62037149e-01]
 [ -1.36611149e-01   1.55521929e-01   1.73722059e-02   2.80125346e-02
    1.66667610e-01   3.56818177e-02  -9.50625259e-03   1.50802225e-01]
 [ -1.54982626e-01   1.75318196e-01   5.16609696e-04   2.85496097e-02
    1.18927754e-01   3.38657349e-02  -2.39475910e-03   1.66258663e-01]
 [ -8.38942677e-02   1.15673020e-01   1.09268753e-02   2.36217491e-02
    1.52260020e-01   2.02868041e-02  -1.76543728e-01   1.37169629e-01]
 [ -1.47900596e-01   1.68353125e-01   6.85586361e-03   2.75686756e-02
    1.35647103e-01   3.43560129e-02  -2.21219822e-03   1.60266280e-01]
 [ -4.25978238e-03   5.84631169e-04   2.34907959e-03  -1.38653284e-02
    1.46734240e-02  -1.32137891e-02   1.21640088e-03   6.51073083e-03]
 [ -4.30932315e-03   6.08006609e-04   2.34940322e-03  -1.37853511e-02
    1.46707390e-02  -1.31200505e-02   1.23864552e-03   6.54867850e-03]
 [ -4.21210099e-03   6.17746729e-04   2.29429919e-03  -1.36449272e-02
    1.44593595e-02  -1.29703516e-02   1.10845070e-03   6.41587563e-03]
 [ -4.23684716e-03   6.19850529e-04   2.34416779e-03  -1.36405593e-02
    1.44570377e-02  -1.29736643e-02   1.09939824e-03   6.44388935e-03]
 [ -4.25533159e-03   5.91656542e-04   2.36094370e-03  -1.37512451e-02
    1.46605354e-02  -1.30806258e-02   1.26049132e-03   6.47812802e-03]
 [ -4.24398016e-03   5.77280065e-04   2.34886445e-03  -1.36099122e-02
    1.45058008e-02  -1.29504334e-02   1.23740465e-03   6.41846936e-03]
 [ -4.29109577e-03   5.62593865e-04   2.37654545e-03  -1.38326585e-02
    1.47591010e-02  -1.31819313e-02   1.29556865e-03   6.52025267e-03]
 [ -4.27951431e-03   6.02967397e-04   2.35141418e-03  -1.38933891e-02
    1.47644319e-02  -1.32152401e-02   1.26690615e-03   6.53615268e-03]
 [ -1.95527554e-01   1.05619371e-01   5.87682463e-02  -8.96152079e-01
    1.32469249e+00   6.65607393e-01  -1.37346357e-01   2.48168364e-01]
 [ -3.26484174e-01   4.03860182e-01  -5.27165178e-03  -8.07190180e-01
    9.20946062e-01  -4.40860614e-02   2.11481601e-01   2.41720483e-01]
 [ -6.12754762e-01   1.45352557e-01   4.63363558e-01  -7.49432206e-01
    1.13729703e+00  -4.54347283e-01  -2.79697090e-01  -2.04780716e-02]
 [ -5.25771976e-01   1.93716064e-01   4.09473807e-01  -7.32028723e-01
    1.38232648e+00   7.28045940e-01  -1.13871554e-02   7.73630619e-01]
 [ -4.96875733e-01   4.10923183e-01  -2.61378080e-01  -5.86214960e-01
    1.16478920e+00   3.69426459e-02   1.33991107e-01   2.80338466e-01]
 [  9.46940780e-02  -2.27531686e-01   2.93782353e-01   1.00647829e-01
    1.00383162e+00  -1.85500652e-01   1.18992770e+00  -2.15800151e-01]
 [ -1.51341826e-01   2.82319009e-01   1.17131710e+00  -3.06922168e-01
    5.73805928e-01   7.61132464e-02   4.23679501e-02   3.45452987e-02]
 [ -4.27202694e-02  -4.99676578e-02  -2.45121196e-01  -4.55184132e-01
    8.56220782e-01  -1.63385105e+00  -1.20869674e-01  -8.60982835e-02]]
Bob
[[  4.22211960e-02   1.64073825e-01  -1.56006858e-01  -1.03157923e-01
   -1.24732509e-01   2.07879837e-03  -5.70270084e-02  -2.92334557e-02]
 [  1.16859138e-01   9.99710411e-02  -4.26979139e-02  -3.04201365e-01
   -1.33374318e-01  -1.24745062e-02  -6.50714785e-02   1.59247871e-02]
 [  6.59946725e-02   1.74414933e-01  -1.69309318e-01  -9.87183750e-02
   -1.25609517e-01  -1.10825272e-02  -4.94049601e-02  -2.16731764e-02]
 [ -1.04318382e-02   1.44699961e-01  -1.24507435e-01  -1.07006125e-01
   -5.23657724e-02   6.58182753e-03  -3.77319127e-01  -2.54553631e-02]
 [  2.51228549e-02   1.58924490e-01  -1.38385415e-01  -1.16894111e-01
   -1.51124433e-01   1.59665197e-02  -5.63291498e-02  -3.62951905e-02]
 [  3.95359620e-02   1.60883561e-01  -1.64832190e-01  -1.07074514e-01
   -1.18034214e-01   5.91203338e-03  -5.73107339e-02  -2.93536000e-02]
 [ -2.90363114e-02   8.52362812e-02  -1.52243033e-01  -1.44066721e-01
   -2.45658815e-01   1.13877818e-01  -5.77902868e-02  -7.57656107e-03]
 [  3.49204242e-02   1.60660788e-01  -1.52924404e-01  -1.10310055e-01
   -1.25881359e-01   6.43693609e-03  -5.73341325e-02  -3.37248705e-02]
 [  5.98038605e-04  -2.78719771e-03  -4.51284507e-03  -1.89006340e-03
   -1.10338191e-02   7.71886762e-03   2.00986266e-02   4.36715642e-03]
 [  5.83861838e-04  -2.73315771e-03  -4.47923690e-03  -1.88622379e-03
   -1.09428624e-02   7.66198337e-03   1.99161377e-02   4.31825686e-03]
 [  5.70866046e-04  -2.71095755e-03  -4.38470719e-03  -1.83576322e-03
   -1.07811214e-02   7.58221047e-03   1.95667744e-02   4.29439219e-03]
 [  5.86195732e-04  -2.74303649e-03  -4.51147044e-03  -1.87432102e-03
   -1.10504674e-02   7.72183482e-03   2.00350732e-02   4.35050903e-03]
 [  5.68023068e-04  -2.79230019e-03  -4.55234293e-03  -1.89287798e-03
   -1.10986475e-02   7.75980903e-03   2.02411581e-02   4.42198804e-03]
 [  5.90858690e-04  -2.67723342e-03  -4.37919656e-03  -1.79927365e-03
   -1.06984600e-02   7.51296477e-03   1.93730090e-02   4.22695000e-03]
 [  5.60582557e-04  -2.67744786e-03  -4.38600266e-03  -1.82124448e-03
   -1.07290102e-02   7.50854379e-03   1.94789488e-02   4.23404248e-03]
 [  5.72263496e-04  -2.74212356e-03  -4.48854454e-03  -1.88334205e-03
   -1.09724924e-02   7.66293053e-03   1.99327078e-02   4.33525816e-03]
 [  4.48798895e-01   3.68444234e-01  -5.52675605e-01  -8.06760132e-01
   -1.25757957e+00  -2.34610647e-01  -7.63850808e-02   1.16586667e-02]
 [  7.10480988e-01   4.32018280e-01  -3.99911165e-01  -5.03080964e-01
   -6.91158175e-01  -2.21331269e-02   2.02874839e-01   1.69385195e-01]
 [  2.79047668e-01   2.75859553e-02  -2.88013637e-01   3.91323045e-02
   -4.17824894e-01  -2.60123134e-01   1.01089370e+00   1.73670173e-01]
 [ -2.20482126e-01   7.29922950e-02  -1.98042274e-01  -7.10760802e-02
   -5.84853113e-01   1.43235773e-01  -7.50167072e-02  -4.78375822e-01]
 [  6.77524984e-01   7.93608800e-02  -5.13980985e-01  -1.85911193e-01
   -1.49661398e+00   2.74147421e-01  -4.01240349e-01   3.28956172e-02]
 [  4.34444994e-01   1.88207760e-01  -3.93340319e-01   1.38969108e-01
   -9.43213046e-01   1.15741286e-02  -2.05402523e-01   1.50378025e+00]
 [  5.53682864e-01   4.09393936e-01  -1.35736078e-01  -1.11229271e-01
   -8.40484679e-01  -9.18225348e-01  -1.40597105e-01  -1.96133349e-02]
 [  6.85223162e-01   2.31727630e-01  -2.36850917e-01   8.54025036e-02
   -1.16545188e+00   2.42410158e-03  -3.77806157e-01  -1.65581420e-01]]
Eve
[[ 1.44542444  1.30201232 -0.34022281  1.34710336 -2.08070946 -0.10630634
  -0.04429748 -1.07748055]
 [ 1.04869616  1.19290924 -0.56167978  1.47945011 -1.9952929  -1.80721438
  -0.05612002 -1.32645655]
 [ 1.54929519  1.26872313 -0.34169668  1.45479929 -2.11518121 -0.19649169
  -0.01350829 -1.09680367]
 [ 1.09460139  0.8437686  -0.61936945  1.04847133 -1.90306056 -0.12119347
  -0.11278509 -0.77043188]
 [ 1.38094866  1.39069235 -0.36514634  1.38155699 -2.2473042  -0.09476707
  -0.04393263 -1.09148467]
 [ 1.47508645  1.29176688 -0.33317533  1.3305074  -2.04421926 -0.08734172
  -0.06048176 -1.05081308]
 [ 1.22172654  1.57606447 -0.51119274  1.40891242 -2.35320807 -0.16170385
   0.13844723 -1.24193788]
 [ 1.43301058  1.32114744 -0.33798257  1.33935201 -2.1032908  -0.08276118
  -0.055087   -1.05559325]
 [-0.3584834  -0.48048288 -0.23651053  0.08543921 -0.68821573  0.11240086
  -0.00542941  0.41952595]
 [-0.22521713 -1.2045325   0.26783678  0.18149364 -0.27276254  0.28273159
   0.28552178  0.80398405]
 [-0.83948702 -1.45604396  2.00606275 -0.77549136  0.22955543  1.06669116
  -0.64187175  1.69847047]
 [-1.01328409 -1.54158318  0.45498955 -2.11553311  0.33158973  0.47062236
  -1.46801567  1.31012821]
 [ 0.11277318 -0.61905795 -0.28357548 -0.23043245 -0.47307536  0.46300164
  -0.39678571  0.55899405]
 [ 0.33886924  0.00388346 -0.15111165  0.2473671  -0.85870636 -0.92071819
   0.07259765  0.52361935]
 [-0.56911981 -1.29515696  0.21149909 -0.03327024 -0.71133989  0.72757781
   0.81544518  1.59309661]
 [ 0.14823326 -1.10271108 -0.51774168  0.37137026 -0.64065093  0.42741379
   0.17439775  0.41926211]
 [-1.00510037 -2.07999253  1.38066554  0.23732701 -0.02333792 -0.0208077
   0.41774306  1.99877453]
 [-0.0760596  -0.71040326  0.00969124  0.37071535 -0.3374874  -0.59072721
  -0.06219669  0.23298952]
 [-0.09614092 -0.38395751 -0.31386253  0.03567354 -0.88623053  0.13968179
   0.21282791  0.68913537]
 [-0.05067786 -0.40457147 -0.21374406 -0.07412562 -0.36504835 -0.89137399
   0.08654888  0.88754112]
 [ 0.36060897 -1.16180599  0.86396867 -0.52283293 -0.62619144  0.13857035
  -0.38913924  0.59634167]
 [-0.1855562  -0.73306638  0.32688084 -0.53316551 -0.7436868  -0.02415907
  -1.17649329  1.14651155]
 [ 0.61255479  0.26819089 -1.75843048  0.40974355 -0.54444319 -0.29366997
   0.40471077 -0.37347069]
 [-1.00127125 -2.45696974  0.49291062 -0.53620577  0.6879189   1.32114315
   0.53500867  1.71510983]]