Alice
[[ -2.34337407e-03  -2.38740328e-03  -2.43753567e-03  -2.13238830e-03
   -2.81468383e-03  -2.80379900e-03  -2.52147741e-03   2.72616255e-03
    2.95868167e-03   2.43977248e-03   3.20237642e-03   2.76281056e-03
    2.23820657e-01  -2.12709755e-01  -2.31841463e-03  -7.12087890e-03]
 [ -2.54869624e-03  -2.53587565e-03  -2.53827218e-03  -2.21845787e-03
   -3.01226531e-03  -3.03493417e-03  -2.56684842e-03   2.76707695e-03
    3.10307508e-03   2.47676694e-03   3.39203607e-03   2.94290041e-03
    2.24560559e-01  -2.13614598e-01  -2.41523329e-03  -7.44485622e-03]
 [ -2.52468651e-03  -2.40356103e-03  -2.52798409e-03  -2.30009714e-03
   -3.03477328e-03  -2.85090716e-03  -2.59885192e-03   2.75921496e-03
    2.89747119e-03   2.30163778e-03   3.28145712e-03   2.86545581e-03
    2.23976776e-01  -2.13701487e-01  -2.42080516e-03  -7.57307000e-03]
 [ -2.34918226e-03  -2.38306145e-03  -2.38703191e-03  -2.07304466e-03
   -2.79589789e-03  -2.84552271e-03  -2.42853351e-03   2.64478405e-03
    2.95850681e-03   2.28250469e-03   3.18778283e-03   2.74597993e-03
    2.24350572e-01  -2.12935045e-01  -2.27204338e-03  -7.23968493e-03]
 [ -2.16052262e-03  -2.29203235e-03  -2.30554608e-03  -1.85461959e-03
   -2.68339878e-03  -2.75127823e-03  -2.31389934e-03   2.53826822e-03
    2.92208558e-03   2.09883554e-03   3.11861839e-03   2.66516372e-03
    2.24090293e-01  -2.11398214e-01  -2.13123905e-03  -7.84160104e-03]
 [ -2.37128907e-03  -2.38531176e-03  -2.37725792e-03  -2.13500299e-03
   -2.85085593e-03  -2.80214171e-03  -2.47265375e-03   2.67828791e-03
    2.92313658e-03   2.21153209e-03   3.23061878e-03   2.76624854e-03
    2.23935679e-01  -2.12416500e-01  -2.30674003e-03  -7.34205777e-03]
 [ -2.39102868e-03  -2.46345927e-03  -2.46653846e-03  -2.15657125e-03
   -2.87890481e-03  -2.90089170e-03  -2.51080445e-03   2.71428330e-03
    3.02974251e-03   2.40303669e-03   3.27872997e-03   2.82723410e-03
    2.23958060e-01  -2.13098630e-01  -2.34690029e-03  -7.47858034e-03]
 [ -2.30148528e-03  -2.35996279e-03  -2.38078577e-03  -2.13221088e-03
   -2.79620010e-03  -2.75726337e-03  -2.46976432e-03   2.67209089e-03
    2.91311159e-03   2.29820237e-03   3.17100435e-03   2.72764475e-03
    2.23963603e-01  -2.12875620e-01  -2.30503362e-03  -7.17081316e-03]
 [ -2.32906826e-03  -2.35494366e-03  -2.41086981e-03  -1.99631019e-03
   -2.88201286e-03  -2.90280092e-03  -2.42256303e-03   2.62817810e-03
    2.97065359e-03   2.15231441e-03   3.24376975e-03   2.79883668e-03
    2.24396005e-01  -2.12824434e-01  -2.22291192e-03  -7.13436026e-03]
 [ -8.31529498e-03  -3.42754694e-03  -6.08214783e-03  -1.03477975e-02
   -2.68868753e-03  -2.97899963e-03  -5.59563655e-03   5.45585295e-03
    2.19659036e-04   1.20432638e-02  -2.52531073e-03   1.89710187e-03
    2.07268074e-01  -2.31058702e-01  -8.93366802e-03   9.80492681e-02]
 [ -2.31806515e-03  -2.39684712e-03  -2.37702602e-03  -2.05697143e-03
   -2.78198626e-03  -2.82005081e-03  -2.43132608e-03   2.64589326e-03
    2.97905924e-03   2.24082172e-03   3.15233110e-03   2.75024795e-03
    2.23878041e-01  -2.11795107e-01  -2.25175987e-03  -6.90416014e-03]
 [ -2.24685343e-03  -2.34307442e-03  -2.33803969e-03  -2.06943112e-03
   -2.69956607e-03  -2.74734595e-03  -2.43472238e-03   2.64246669e-03
    2.92716385e-03   2.35800026e-03   3.13678267e-03   2.69621494e-03
    2.24113077e-01  -2.12792560e-01  -2.24387250e-03  -7.75184995e-03]
 [ -2.44414317e-03  -2.49906071e-03  -2.48867110e-03  -2.20779586e-03
   -2.81654485e-03  -2.95759877e-03  -2.55743647e-03   2.80800904e-03
    3.12115601e-03   2.42168806e-03   3.21310665e-03   2.83907005e-03
    2.24192470e-01  -2.12771058e-01  -2.41038133e-03  -6.76453672e-03]
 [ -2.38049636e-03  -2.37098592e-03  -2.41917535e-03  -2.14773347e-03
   -2.89375731e-03  -2.81706220e-03  -2.48053577e-03   2.66958796e-03
    2.89020082e-03   2.39709578e-03   3.20710125e-03   2.81599327e-03
    2.24180147e-01  -2.12693498e-01  -2.29518116e-03  -7.28134671e-03]
 [ -2.21427903e-03  -2.27825134e-03  -2.27710791e-03  -1.97489653e-03
   -2.74479552e-03  -2.72345776e-03  -2.32800143e-03   2.52479711e-03
    2.82724435e-03   2.09025363e-03   3.08516226e-03   2.66271713e-03
    2.24284068e-01  -2.11699069e-01  -2.14117556e-03  -7.60269538e-03]
 [ -2.07729801e-03  -2.24159798e-03  -2.18559965e-03  -1.73537293e-03
   -2.56438483e-03  -2.72392342e-03  -2.23936257e-03   2.50431010e-03
    2.94257887e-03   2.12096400e-03   3.14478390e-03   2.58844579e-03
    2.24145785e-01  -2.10927814e-01  -2.05360330e-03  -7.14363065e-03]
 [ -2.06068993e+00  -3.33007783e-01  -1.83303869e+00  -1.95870304e+00
   -2.07983685e+00  -1.75670767e+00  -2.07992435e+00   1.67718470e+00
    2.08981228e+00   1.94910502e+00   1.93275511e+00   1.61212420e+00
    1.48577541e-01   2.09334254e+00  -2.05817556e+00   2.11314559e-02]
 [ -2.30873036e+00   6.53842509e-01  -2.04752922e+00  -1.83948553e+00
   -1.75701439e+00  -1.56529963e+00  -1.98860824e+00   2.14102864e+00
    1.68323410e+00   1.68963349e+00   1.95210886e+00   1.79600716e+00
   -6.48293570e-02   1.96262097e+00  -2.28738761e+00   1.86886579e-01]
 [ -2.17439198e+00  -1.32724419e-01  -1.70970571e+00  -1.89278638e+00
   -1.61679542e+00  -1.79170704e+00  -2.12248397e+00   1.81638718e+00
    2.07541490e+00   2.31234026e+00   1.48282075e+00   1.70216751e+00
    1.56769410e-01   2.46110559e+00  -1.66443253e+00  -3.86029929e-01]
 [ -1.72881019e+00   4.89098057e-02  -1.62177980e+00  -1.72600973e+00
   -1.58241034e+00  -1.99857152e+00  -1.65665197e+00   1.85070598e+00
    1.59399426e+00   2.30528903e+00   2.03208542e+00   2.13865256e+00
    8.98446664e-02   2.26399255e+00  -1.86574519e+00  -2.93581992e-01]
 [ -2.97090316e+00   1.29077956e-02  -2.62603593e+00  -2.70180368e+00
   -2.97332263e+00  -2.96087646e+00  -2.87571931e+00   2.61166954e+00
    3.02692819e+00   1.80428421e+00   2.89838839e+00   2.69428396e+00
    9.89679173e-02   2.23599410e+00  -2.85704350e+00   1.56244501e-01]
 [ -1.53790855e+00  -3.54668200e-01  -2.20407486e+00  -1.97947705e+00
   -2.03537869e+00  -1.52696407e+00  -1.59969258e+00   2.11403012e+00
    1.87808990e+00   2.32745910e+00   1.44345927e+00   1.59605825e+00
   -8.67763758e-02   2.36115503e+00  -1.73766613e+00  -3.15528035e-01]
 [ -2.74413395e+00  -1.23754120e+00  -2.89635158e+00  -2.97494745e+00
   -2.71248817e+00  -2.72625375e+00  -2.59772205e+00   2.93610263e+00
    2.55162334e+00   1.93833756e+00   2.91243219e+00   2.80624199e+00
    7.71389306e-02   2.24247456e+00  -2.75499320e+00   6.21798262e-02]
 [ -2.24439573e+00   7.02581823e-01  -1.99263930e+00  -2.25533390e+00
   -1.87677598e+00  -2.05668330e+00  -1.85794592e+00   1.75995934e+00
    1.97880757e+00   1.99070311e+00   1.88038468e+00   1.99321854e+00
    1.58409495e-02   1.75586569e+00  -1.58634841e+00  -1.94000900e-01]
 [ -2.07695842e+00  -1.30610183e-01  -1.79625297e+00  -2.19315457e+00
   -1.80328405e+00  -2.09133577e+00  -1.81314325e+00   1.63447571e+00
    2.09155703e+00   2.09841490e+00   1.94711971e+00   2.29871893e+00
    1.33646160e-01   2.11874557e+00  -2.12431264e+00   1.41844764e-01]
 [ -1.75764322e+00  -5.10404289e-01  -2.20716286e+00  -1.59477246e+00
   -1.79972482e+00  -2.04922605e+00  -2.10871768e+00   1.69365656e+00
    2.17673826e+00   1.94278002e+00   2.04124761e+00   1.91817760e+00
    1.84210539e-01   1.97086084e+00  -2.09503174e+00  -2.08806358e-02]
 [ -1.79328239e+00   1.61298141e-01  -1.82395244e+00  -1.57548726e+00
   -2.22682667e+00  -2.01570606e+00  -2.20447135e+00   2.22191691e+00
    2.09962416e+00   1.88995874e+00   2.13824320e+00   2.16391158e+00
    4.56357300e-02   1.85036802e+00  -1.63082373e+00   5.82819581e-02]
 [ -1.51792312e+00   5.88121653e-01  -1.82304442e+00  -1.83653402e+00
   -2.13320446e+00  -1.76759124e+00  -1.80578518e+00   2.10243583e+00
    1.86112070e+00   2.22338605e+00   1.45366931e+00   1.70734239e+00
    2.20140085e-01   1.99951315e+00  -1.56269920e+00   9.59349424e-03]
 [ -4.06182349e-01  -4.46132093e-04  -4.15732473e-01  -4.11357015e-01
   -4.09083784e-01  -4.11388755e-01  -4.16248947e-01   4.15260017e-01
    4.10040557e-01   1.45840490e+00   4.09494519e-01   4.13948655e-01
    1.01398649e-02   3.92791212e-01  -4.09645230e-01   2.52795145e-02]
 [ -1.92237425e+00   7.88814783e-01  -1.92879009e+00  -2.19055796e+00
   -1.82205677e+00  -2.15534568e+00  -2.03131771e+00   1.96746647e+00
    1.84826732e+00   2.02566385e+00   2.16139674e+00   2.22121525e+00
    4.71178554e-02   1.85314918e+00  -2.17972469e+00  -2.58490723e-02]
 [ -1.70981991e+00  -2.36111596e-01  -1.85434580e+00  -1.77004766e+00
   -1.73048866e+00  -1.86950159e+00  -1.71221733e+00   1.70529401e+00
    1.97610950e+00   2.09038520e+00   1.75139153e+00   2.20977068e+00
    2.77766138e-01   1.80368900e+00  -2.03009224e+00   8.46527591e-02]
 [ -1.90776730e+00   3.24213028e-01  -2.26411819e+00  -2.02090287e+00
   -2.28143573e+00  -2.03103971e+00  -2.10420346e+00   2.27575612e+00
    1.68717623e+00   1.70715487e+00   2.16079855e+00   1.73315370e+00
    3.84514295e-02   2.21387410e+00  -2.09900188e+00   1.10016227e-01]]
Bob
[[  2.55799876e-03   1.54787954e-03  -3.11181881e-03  -2.83605070e-03
    7.47358147e-03   2.31798552e-03   8.74799863e-03  -1.62630714e-03
    2.40329211e-03   2.52694427e-03  -2.08846107e-03   2.46061850e-03
    2.07247466e-01   1.69855845e-03  -2.41072522e-03   1.47785014e-03]
 [  2.48906133e-03   1.54774939e-03  -3.18650273e-03  -2.94460426e-03
    8.06807913e-03   2.45032134e-03   8.29280633e-03  -1.80320081e-03
    2.40204902e-03   2.44477275e-03  -2.08970462e-03   2.69882963e-03
    2.03373045e-01   1.88206555e-03  -2.48085754e-03   1.49614504e-03]
 [  2.54597492e-03   1.57519826e-03  -3.18631041e-03  -2.89572985e-03
    7.31837563e-03   2.38316483e-03   9.13953781e-03  -1.66386180e-03
    2.40135007e-03   2.48816959e-03  -2.07311776e-03   2.56482791e-03
    2.09879965e-01   1.74393668e-03  -2.41226610e-03   1.56055484e-03]
 [  2.42628693e-03   1.39956234e-03  -3.07952892e-03  -2.83002178e-03
    7.35959876e-03   2.33628205e-03   8.67634080e-03  -1.56767655e-03
    2.31571728e-03   2.35209940e-03  -1.94776140e-03   2.55730469e-03
    2.06295848e-01   1.68373273e-03  -2.37781345e-03   1.48903648e-03]
 [  6.24656968e-04   1.23933051e-02   1.53234566e-03  -3.57439858e-04
    4.17264178e-03  -2.51956662e-04  -1.07317731e-01  -1.18891401e-02
    2.43926817e-03  -5.00260503e-04  -7.16564432e-03   6.42838422e-03
    2.62577444e-01   1.32860169e-02  -1.11546624e-03   1.24034192e-02]
 [  2.47578463e-03   1.51908083e-03  -3.10830865e-03  -2.87587196e-03
    7.87559152e-03   2.31337850e-03   8.71406961e-03  -1.68168149e-03
    2.37258431e-03   2.41536740e-03  -2.05519632e-03   2.54926970e-03
    2.06427246e-01   1.77306228e-03  -2.38571991e-03   1.44253799e-03]
 [  7.34042563e-03   4.40488663e-03  -1.24697294e-03  -9.68854001e-04
   -9.88109410e-02   2.43079546e-03   5.20300679e-03  -3.86532629e-03
    6.25442900e-03   7.91613851e-03  -7.35047134e-03  -1.40564586e-03
    2.58034945e-01   3.23552242e-03  -5.29813999e-03   9.67138447e-03]
 [  2.63726572e-03   1.61993934e-03  -3.21407313e-03  -2.98758829e-03
    7.25404592e-03   2.54768832e-03   8.82066786e-03  -1.75657368e-03
    2.54480401e-03   2.58493307e-03  -2.19252659e-03   2.71345978e-03
    2.08963394e-01   1.86602515e-03  -2.61394540e-03   1.69404177e-03]
 [  2.62867264e-03   1.68176205e-03  -3.19225551e-03  -2.92138942e-03
    7.43866060e-03   2.37214356e-03   8.78830906e-03  -1.75197457e-03
    2.48522218e-03   2.54649553e-03  -2.17715767e-03   2.60273088e-03
    2.08887458e-01   1.82903034e-03  -2.46801414e-03   1.59657339e-03]
 [  2.44362699e-03   1.42671715e-03  -3.14038689e-03  -2.89871846e-03
    8.01345240e-03   2.30920757e-03   8.56298953e-03  -1.63165713e-03
    2.33658217e-03   2.37395312e-03  -1.99503498e-03   2.57585081e-03
    2.09767357e-01   1.69613631e-03  -2.36799894e-03   1.45680271e-03]
 [  2.50963541e-03   1.43382291e-03  -3.04241083e-03  -2.81739328e-03
    7.53975892e-03   2.33994238e-03   8.40246119e-03  -1.68552017e-03
    2.38229497e-03   2.51743197e-03  -2.08092807e-03   2.51913234e-03
    2.07757533e-01   1.74630934e-03  -2.46951915e-03   1.62407127e-03]
 [  2.44419044e-03   1.42235437e-03  -3.03537329e-03  -2.77478178e-03
    8.03513918e-03   2.23902916e-03   8.34119413e-03  -1.63576822e-03
    2.30144407e-03   2.41494132e-03  -1.98922702e-03   2.45364825e-03
    2.08054841e-01   1.67559111e-03  -2.37695687e-03   1.43978524e-03]
 [  2.35128170e-03   1.33794802e-03  -3.01057030e-03  -2.75381049e-03
    7.70253688e-03   2.13481626e-03   8.71313363e-03  -1.48362014e-03
    2.24028970e-03   2.26874417e-03  -1.85332715e-03   2.50279391e-03
    2.10206106e-01   1.59150595e-03  -2.31676246e-03   1.29759475e-03]
 [  2.57271971e-03   1.59319013e-03  -3.13857780e-03  -2.91970535e-03
    7.40206381e-03   2.40379851e-03   8.54346342e-03  -1.78990257e-03
    2.46038986e-03   2.51134811e-03  -2.16134521e-03   2.66718143e-03
    2.08797365e-01   1.86656928e-03  -2.51854281e-03   1.46163348e-03]
 [  2.29544379e-03   1.27948297e-03  -2.90955347e-03  -2.63223378e-03
    7.72616174e-03   2.17956631e-03   8.46130308e-03  -1.49323209e-03
    2.17353995e-03   2.28637806e-03  -1.85705989e-03   2.34444067e-03
    2.03513443e-01   1.55599497e-03  -2.23093247e-03   1.45371119e-03]
 [  2.55699619e-03   1.60260301e-03  -3.14475340e-03  -2.90084607e-03
    7.74281565e-03   2.43931008e-03   8.64540879e-03  -1.76825048e-03
    2.44081626e-03   2.52418825e-03  -2.14268896e-03   2.59650336e-03
    2.11123347e-01   1.84565771e-03  -2.49657873e-03   1.51170290e-03]
 [  2.27307391e+00   2.26708436e+00  -2.13807964e+00  -2.46842980e+00
    2.28366122e-01   1.11345500e-01  -3.28483470e-02  -2.16342831e+00
    2.10151052e+00   2.20080805e+00  -2.17987990e+00   2.04657984e+00
   -2.39234662e+00   2.05525255e+00  -2.39552617e+00   1.79055524e+00]
 [  2.32955551e+00   2.29771399e+00  -2.21659684e+00  -2.17453885e+00
    1.46847248e-01  -2.56929457e-01  -2.30551720e-01  -2.12332535e+00
    2.32444024e+00   2.35280275e+00  -1.93723679e+00   2.28507113e+00
   -2.18761683e+00   2.00671887e+00  -1.75973713e+00   2.06342411e+00]
 [  2.09652686e+00   2.01911139e+00  -1.90443909e+00  -1.95752144e+00
   -4.07593340e-01   5.08523360e-03  -1.30708754e-01  -2.20357490e+00
    2.33612585e+00   2.43725443e+00  -2.20276666e+00   1.89706242e+00
   -2.13978338e+00   2.16362023e+00  -2.39401293e+00   2.23978138e+00]
 [  2.35545158e+00   1.95524895e+00  -2.44622111e+00  -2.30223870e+00
   -8.29351973e-03   4.10408705e-01   2.44074598e-01  -2.34211993e+00
    1.91261506e+00   2.22677445e+00  -2.23709583e+00   1.96205640e+00
   -2.07511425e+00   1.94626796e+00  -2.43933988e+00   1.88696098e+00]
 [  2.21487188e+00   2.17224383e+00  -1.84539020e+00  -2.45713282e+00
    1.75196528e-02   1.61591336e-01   8.87394324e-02  -2.16926455e+00
    2.30045128e+00   1.89326739e+00  -2.10504436e+00   1.81532609e+00
   -2.52416492e+00   1.91653574e+00  -1.87476277e+00   2.16384530e+00]
 [  2.19329929e+00   1.95858550e+00  -2.08293605e+00  -2.12601542e+00
   -6.73714373e-03  -5.41745543e-01   4.33416307e-01  -1.74766219e+00
    2.03173614e+00   2.34816527e+00  -2.19056892e+00   1.88107121e+00
   -2.44804597e+00   2.39323640e+00  -2.23668933e+00   1.88886046e+00]
 [  1.81154466e+00   2.33630610e+00  -1.83267510e+00  -1.98122489e+00
   -1.41040742e-01   5.82594015e-02   1.93772484e-02  -2.08824492e+00
    2.24898148e+00   2.08364320e+00  -2.44720030e+00   2.34973431e+00
   -1.99090242e+00   1.94759750e+00  -2.11382008e+00   2.22192073e+00]
 [  2.24289346e+00   2.47718644e+00  -2.25159383e+00  -2.11021852e+00
   -9.72857028e-02  -1.11484781e-01  -1.33614406e-01  -2.34895277e+00
    2.30215597e+00   2.43917298e+00  -2.03129411e+00   2.22451568e+00
   -2.06522846e+00   2.32296968e+00  -2.29637027e+00   2.30325699e+00]
 [  2.21070004e+00   2.17919779e+00  -1.84789062e+00  -2.11800647e+00
    3.47192176e-02  -7.17101216e-01   3.53370875e-01  -2.10892081e+00
    1.77689075e+00   1.93762326e+00  -2.02523184e+00   2.48469496e+00
   -2.15249324e+00   2.05665827e+00  -2.10724092e+00   2.05824161e+00]
 [  2.31433725e+00   2.45883203e+00  -2.44808912e+00  -2.52688479e+00
    7.65120164e-02   3.57330769e-01   1.63491488e-01  -2.40451288e+00
    1.92173874e+00   1.93884230e+00  -2.04751158e+00   2.38119030e+00
   -1.94849753e+00   2.33872700e+00  -2.02270913e+00   2.05055118e+00]
 [  2.21847415e+00   1.98658717e+00  -2.50963306e+00  -2.08902335e+00
    4.68040735e-01  -4.09075886e-01  -4.32137353e-03  -2.12248540e+00
    2.42716837e+00   1.97230875e+00  -1.85617590e+00   2.47794271e+00
   -2.48609614e+00   1.92115057e+00  -2.11294603e+00   2.40800452e+00]
 [  1.69669950e+00   2.05312371e+00  -2.35852981e+00  -2.18751264e+00
   -1.85399726e-01  -1.28298864e-01   1.76752895e-01  -2.23643947e+00
    1.79074454e+00   2.31595230e+00  -2.25978112e+00   2.00802255e+00
   -2.38907838e+00   2.11890244e+00  -2.38372731e+00   2.20760322e+00]
 [ -6.32790089e-01  -6.60683811e-01   6.62448704e-01   6.59732044e-01
    4.88323011e-02  -1.39695382e+00  -1.10844779e-03   6.56582952e-01
   -6.13376141e-01  -6.44382834e-01   6.18192554e-01  -6.65330529e-01
    5.34063935e-01  -6.25991344e-01   6.50528967e-01  -1.64992079e-01]
 [  1.08650923e+00   1.11759782e+00  -1.11983943e+00  -1.11836743e+00
   -7.75960684e-02   4.04028594e-01   2.93467124e-03  -1.11318231e+00
    1.06418848e+00   1.09680724e+00  -1.07066393e+00   1.12310290e+00
   -9.64900732e-01   1.07867861e+00  -1.10773385e+00   1.64045954e+00]
 [  1.95492482e+00   2.15072560e+00  -2.32696152e+00  -1.86882818e+00
    1.12958580e-01   4.72066067e-02  -4.18807603e-02  -2.22159028e+00
    2.32444644e+00   2.01940489e+00  -2.29195356e+00   2.47356820e+00
   -2.02878046e+00   2.52134395e+00  -1.89496601e+00   1.98174071e+00]
 [  2.84746385e+00   2.67561030e+00  -2.68245697e+00  -2.56741953e+00
   -5.27116135e-02   2.15662658e-01   7.20474683e-03  -2.67692375e+00
    2.92894816e+00   2.75121856e+00  -2.90351152e+00   2.66489244e+00
   -2.26413965e+00   2.97154593e+00  -2.80913639e+00   2.34224153e+00]]
Eve
[[-3.05900192 -2.54418325 -3.21311665 -3.0662024   3.30624747  2.86516047
  -3.25364685 -3.09525609  2.8400805  -2.82895541 -3.26712132 -3.11751795
  -2.66978264  2.97780657  2.77256036  2.46222544]
 [-3.03742552 -2.56497931 -3.37413287 -3.15951514  3.05651593  3.09565639
  -3.1835134  -3.08123207  2.8133955  -3.25077415 -2.79114127 -2.76837182
  -2.53563428  3.05631471  3.48946714  2.11744094]
 [-3.35339212 -2.34442854 -3.18088508 -3.31130195  3.44763279  2.86909652
  -3.37958026 -3.04474568  3.3344872  -2.98186827 -3.17163944 -3.15949559
  -3.13511038  3.30620265  2.91317534  2.69215894]
 [-2.98553491 -2.16900349 -3.30418968 -3.28950739  3.03445554  3.31189156
  -3.15682292 -3.12014055  2.95060015 -2.89190435 -3.40077424 -2.82851458
  -2.96686363  2.69541311  2.83185792  2.39415884]
 [-3.37538481 -2.48590279 -3.11235213 -3.29625559  3.4034493   2.71921611
  -2.98665905 -2.75476456  3.26254606 -3.01080275 -2.94373965 -2.73434997
  -2.93815994  2.65112972  3.44607687  2.45738602]
 [-2.67790341 -2.09064007 -2.7337923  -3.04131103  3.37527704  2.74776602
  -3.21289206 -3.29969406  3.08415031 -2.66017699 -2.95924878 -3.2893424
  -3.04394317  2.63289094  3.31286287  2.09857035]
 [-3.05587697 -2.52551794 -3.39028573 -3.2287848   2.92258573  3.23423719
  -3.2327373  -2.80719995  3.22459221 -3.19887996 -3.13140774 -2.95276928
  -2.59832406  3.1006217   3.18074751  2.23645329]
 [-3.2383728  -2.38502431 -3.23978925 -3.38356495  3.1318419   3.24460888
  -3.05905795 -3.02778506  2.82214308 -2.96335506 -2.97148848 -2.80524731
  -2.75253129  2.93386197  2.93047428  2.46954799]
 [-3.2644515  -2.16321683 -2.99820685 -3.19047832  2.78153634  3.14697361
  -3.00672698 -3.16298175  3.01734138 -2.86441469 -3.23007274 -2.67861557
  -3.12329197  2.55484152  3.2285192   2.50581193]
 [-3.09471917 -2.41495728 -3.20088649 -2.69646001  3.3219173   2.75247598
  -2.79682469 -2.79029179  2.73886776 -2.53822088 -2.65555429 -3.29473305
  -2.55449986  3.2335434   3.26875234  2.112185  ]
 [-3.34884977 -2.39824867 -3.42757988 -3.22397637  3.47580743  2.87792492
  -3.0422771  -3.45591116  2.83674598 -3.30741787 -3.18034744 -3.3176949
  -2.94992709  2.72458291  3.34399581  2.49653554]
 [-3.26730227 -2.44696236 -3.2606349  -3.39865208  3.30907726  3.366925
  -3.201864   -3.12277412  3.16853857 -2.96865463 -2.99445724 -3.2191205
  -3.02266598  2.98925877  3.47907448  2.11662269]
 [-1.22643137  0.03404575 -1.06183267 -0.85843766  1.13798928  1.07762325
  -1.16918075 -1.1708405   0.98813808 -2.1652751  -1.22641027 -1.11476421
  -2.78103232  2.81863093  1.12340593 -0.17722717]
 [-1.7733134  -0.0569545  -1.89753544 -2.11770558  1.81775582  1.91908157
  -1.80180621 -1.80604184  1.98567879 -2.3409667  -1.77479661 -1.86962545
   0.19643682  3.06199813  1.8305248   0.19280834]
 [-2.79840708 -2.12474704 -2.98690915 -3.14112973  3.36919403  2.77071261
  -2.76123333 -2.9035871   2.9834547  -2.82782459 -2.93016148 -3.33874154
  -2.48373938  3.0756681   3.31964159  2.52328324]
 [-3.12778878 -1.71455097 -2.96502066 -3.30584741  3.3753252   3.39404798
  -2.80814838 -3.41500378  3.3944962  -3.29180145 -2.7565949  -3.46182656
  -2.07535338  2.69399428  3.35768819  2.47883344]
 [-2.87227464 -1.8967694  -2.80894518 -3.28543377  3.05179787  2.89905
  -3.26792026 -2.81907439  3.24064374 -2.86515999 -2.91386008 -3.08006763
  -2.67998028  3.16903591  2.79126096  2.23107004]
 [-2.83093143  1.1897608  -3.17921877 -3.05098104  3.28844929  3.34145713
  -2.70795918 -3.1725595   2.78570986 -2.92756414 -3.15636873 -3.21367645
  -2.49224234  2.80712008  3.29201126  2.59253883]
 [-3.46110201 -2.43410969 -2.97032619 -3.01626849  2.84774828  3.35893011
  -3.41524005 -3.16270852  3.22362161 -2.89172125 -3.46062422 -3.07806802
  -3.06570601  3.20247841  2.8853147   2.23595738]
 [-3.30162454 -1.50807083 -3.18582892 -3.43923807  3.26573849  2.81120491
  -3.00148869 -3.45553374  3.31901312 -3.1167767  -2.89391756 -3.26595902
  -2.8993609   3.33310485  3.49633574  1.94225633]
 [-3.3626008  -2.27346945 -3.46555948 -3.51861572  3.42213726  3.43592525
  -2.98963237 -3.56701398  3.49962401 -3.27218866 -3.13121891 -3.52027416
  -2.94699836  3.25832605  3.340204    2.65715671]
 [-2.9705801  -2.22761774 -2.70499921 -3.07265043  2.92789531  3.12068439
  -3.04076099 -2.83763719  3.3258481  -2.66768193 -3.11209416 -3.34679079
  -2.89761162  3.30018449  3.29110622  2.39388895]
 [-3.21955085 -2.63085914 -3.00303602 -3.36055636  3.5249548   3.32390523
  -3.46653247 -3.22951651  3.35289383 -3.27213669 -3.23191857 -2.94045973
  -2.97676063  3.43201494  3.19059372  2.37923312]
 [-3.00664306  1.18175972 -2.74250293 -2.81374884  3.08134484  3.26988578
  -3.20678568 -3.18757272  2.93810797 -2.97471166 -3.15701652 -3.295048
  -2.7156682   3.05675936  3.05934572  2.26876998]
 [-3.40844512 -1.14440489 -3.06130362 -3.41531157  2.9089179   3.4089551
  -2.76005006 -3.09809613  3.16666746 -2.99967504 -3.38956976 -3.12449431
  -2.70957088  2.88699365  3.37690663  2.43717575]
 [-2.95994949 -2.54289508 -3.07530332 -3.09228778  3.31589937  3.37498975
  -2.93036985 -3.37370753  3.23025393 -2.90812731 -2.98990679 -3.33168316
  -2.52894545  3.07446051  2.79232669  2.36596131]
 [-2.88190532  0.71548045 -2.58832574 -2.96407962  2.57141137  2.77238297
  -3.24021077 -2.80617476  2.74183059 -3.09847498 -2.87810731 -3.21088266
  -2.21177268  2.54150748  3.04099417  2.19264007]
 [-3.26666903  0.95532018 -2.95995665 -3.35220814  2.67276216  3.01029873
  -2.75098658 -3.22427106  2.86771035 -2.88742256 -3.07573962 -2.79603267
  -2.69607878  3.15656567  3.33312798  2.07599878]
 [-2.88756919 -0.11868625 -2.93638611 -2.87802267  2.92853642  2.87316847
  -2.92785072 -2.9096396   2.90358615 -0.85428751 -2.89857435 -2.8984437
  -0.18952243  3.00946116  2.93030357  0.0357935 ]
 [-2.65844727  1.24576843 -3.13279629 -3.03069448  3.07022595  2.92611766
  -3.27873158 -3.26233578  2.73349714 -2.97707653 -2.95509219 -3.03885055
  -2.57948136  3.28431869  2.77832437  2.46968102]
 [-3.21532893 -2.13671756 -3.22920322 -2.94841814  2.78075147  3.27054763
  -3.39901805 -3.26509666  2.95525742 -3.19747424 -3.00170994 -3.22060061
  -2.77376676  3.05502939  3.1767149   2.41955757]
 [-3.04736328  0.8749494  -3.05243039 -3.0273273   2.78659153  3.40392113
  -3.42619252 -2.86996436  3.13396168 -2.7043035  -3.18702292 -2.98845816
  -2.68073988  3.46288681  3.2274313   2.3859365 ]]