Alice
[[ -2.86784321e-02   2.74218731e-02   2.52537001e-02  -3.98205221e-02
   -1.26792854e-02   1.03796972e-02  -6.66444236e-03   4.88153920e-02]
 [ -1.89724434e-02  -6.96456730e-02   1.76160093e-02   4.37479839e-02
   -4.19298513e-03   1.19846296e-02  -1.58089667e-03   4.05957252e-02]
 [ -2.10546926e-02   2.34019924e-02  -3.42694446e-02   2.72798873e-02
   -7.16757495e-03  -6.92879558e-02  -1.65024865e-02  -3.59574403e-03]
 [ -1.91311836e-02  -3.82093266e-02  -5.50420918e-02  -4.71403785e-02
   -1.02792550e-02   2.37013232e-02  -1.00914361e-02  -2.51359064e-02]
 [ -1.25227235e-02   1.91779751e-02   1.31836385e-02   1.44634517e-02
   -2.21099872e-02   1.69194378e-02  -8.29680823e-03  -2.25528348e-02]
 [ -1.18254190e-02   1.99774392e-02   1.25677465e-02   1.40451025e-02
   -2.24266294e-02   1.65647473e-02  -9.47789103e-03  -2.26187166e-02]
 [ -1.71329305e-02   1.64878685e-02   1.09502384e-02   1.85680483e-02
    6.72206283e-02   1.82127226e-02  -1.32639427e-02  -2.05634832e-02]
 [  7.31145218e-02   2.80709900e-02  -3.66965495e-02   1.47939594e-02
   -5.32404706e-03   1.77216269e-02  -1.17165167e-02   3.58458310e-02]
 [ -2.99537873e+00   7.88883641e-02  -2.43578744e+00   2.19561458e+00
   -2.48892522e+00   2.60471463e+00  -2.05385160e+00   2.46405315e+00]
 [ -2.46797681e+00  -4.09577129e-04  -2.19109774e+00   2.57608700e+00
   -2.76341295e+00   2.65308022e+00  -2.72726393e+00   2.91206241e+00]
 [ -2.23083210e+00  -7.75746778e-02  -2.46596241e+00   2.49277472e+00
   -2.55623269e+00   2.66833687e+00  -2.57024336e+00   2.61062360e+00]
 [ -2.05439091e+00  -2.68972665e-01  -2.77109933e+00   2.62509227e+00
   -2.18519521e+00   2.64188814e+00  -2.18258524e+00   2.71817493e+00]
 [ -2.88228941e+00   1.32160604e-01  -3.02944374e+00   2.80759811e+00
   -2.44054842e+00   2.13690138e+00  -2.60678148e+00   2.79950404e+00]
 [ -6.98789358e-01   9.99980569e-01  -6.37091041e-01   6.37932837e-01
   -7.26867080e-01   6.57265723e-01  -6.49871171e-01   6.45897508e-01]
 [ -2.64043307e+00  -3.44745219e-02  -2.49642658e+00   2.20296264e+00
   -2.37047887e+00   2.65705681e+00  -2.83215356e+00   2.03008389e+00]
 [ -2.09005404e+00   1.53735340e-01  -2.29257178e+00   2.82825208e+00
   -2.82780409e+00   2.19988823e+00  -2.22069311e+00   2.36183691e+00]]
Bob
[[  7.93621223e-03   1.36317592e-02   8.48334469e-03   7.63063971e-03
   -8.26372113e-03   3.89006227e-01   8.24044179e-03   8.30032211e-03]
 [  1.43997883e-02  -2.71339435e-02   1.71155855e-02   1.32588502e-02
   -1.36677697e-02   3.71953130e-01   1.36233922e-02   1.57077331e-02]
 [  8.28895718e-03   1.40661644e-02   8.86544865e-03   7.87434354e-03
   -8.54858011e-03   3.89504939e-01   8.66154768e-03   8.64055753e-03]
 [  7.86285568e-03   1.36680230e-02   8.31887592e-03   7.43253669e-03
   -8.03090911e-03   3.85640323e-01   8.18615500e-03   8.16965289e-03]
 [  8.10031407e-03   1.36991525e-02   8.71618930e-03   7.65467063e-03
   -8.39099474e-03   3.89387548e-01   8.52242578e-03   8.39974266e-03]
 [  8.09805375e-03   1.37927439e-02   8.54853168e-03   7.55706150e-03
   -8.22370499e-03   3.84732664e-01   8.35066196e-03   8.23900197e-03]
 [  8.16478953e-03   1.38961291e-02   8.68049730e-03   7.85723049e-03
   -8.52800533e-03   3.85983437e-01   8.49259365e-03   8.57637264e-03]
 [  8.07205308e-03   1.36943432e-02   8.68839677e-03   7.65179377e-03
   -8.31996277e-03   3.89123321e-01   8.41651112e-03   8.42176378e-03]
 [  3.32000494e+00   2.97232389e+00   2.65317154e+00   3.14691424e+00
   -3.14641523e+00   8.45073082e-05   3.22366691e+00   2.82188344e+00]
 [  2.80759525e+00   3.14203691e+00   3.11286902e+00   3.20811272e+00
   -3.26032639e+00  -1.00005496e+00   3.06508970e+00   3.26119447e+00]
 [  2.76313686e+00   2.99327612e+00   3.56860971e+00   3.13343406e+00
   -3.09601045e+00   5.89666524e-05   2.97387099e+00   2.67893457e+00]
 [  3.10781169e+00   2.85373569e+00   2.71042371e+00   2.90030956e+00
   -3.09405756e+00   3.15360594e-05   2.93088889e+00   3.14930344e+00]
 [  2.86904621e+00   3.07570314e+00   3.08968425e+00   2.65726566e+00
   -2.83248639e+00   6.69149667e-05   2.92641878e+00   2.84591913e+00]
 [  3.22909188e+00   2.92658687e+00   2.65651464e+00   3.16700482e+00
   -2.88630390e+00   6.59156431e-05   2.76070857e+00   3.04585600e+00]
 [  2.63713455e+00   3.13176894e+00   2.82834411e+00   2.64630938e+00
   -2.61183500e+00  -5.28627170e-05   3.18764949e+00   3.04793000e+00]
 [  2.92508078e+00   2.98556876e+00   2.83151627e+00   3.08178544e+00
   -2.99789453e+00   8.07259421e-05   2.88094592e+00   3.03548551e+00]]
Eve
[[-3.79379416  2.37917137 -3.08027983  3.09588218 -3.40300989 -3.31100583
   3.05785394  3.28408813]
 [-3.65079141  3.2529304  -3.01774788  2.95924115 -3.04116154 -3.17999458
   3.0636313   2.96919727]
 [-3.68432689  2.72914958 -3.26410413  3.72210693 -3.3044374  -3.60233331
   3.37320518  3.3888104 ]
 [-3.6093874   3.06201386 -3.87537956  3.57666922 -3.18133235 -3.55037689
   2.96590424  3.17270875]
 [-3.7740972   3.13972044 -3.69880795  3.48065138 -3.73645663 -3.52385235
   3.0724647   3.17152238]
 [-3.78444147  2.98537135 -3.9414885   3.62847853 -3.39204669 -3.82761121
   2.99711728  3.65034938]
 [-3.58593082  3.13787699 -3.01476741  2.91119909 -3.32343602 -2.8797214
   3.31117749  3.17890644]
 [-2.92785573  2.46335936 -2.89252496  3.28740335 -3.71154046 -2.87488222
   3.27614594  3.17570996]
 [-3.37565947  1.79193568 -3.03899813  3.60884213 -3.65027046 -3.67131639
   3.25115418  3.27741146]
 [-3.15351439  2.73764181 -3.80876303  3.33437157 -3.2473135  -3.21384645
   3.46735525  3.55756068]
 [-3.62471581  2.58756208 -3.08893657  3.34280157 -2.87346935 -3.62725973
   3.57312393  3.19355106]
 [-3.50322723  2.10443854 -3.72603822  3.30653763 -3.3857007  -3.5015626
   3.5886147   3.55390453]
 [-3.22168207  1.93588328 -3.57270074  3.75629997 -3.37406397 -3.51987314
   3.62190557  3.73895216]
 [-3.21989918  2.85163665 -3.79257202  3.75948572 -3.16259766 -3.54651189
   3.57700872  3.72366309]
 [-2.88210464  2.34245849 -3.45695758  3.35596967 -3.21985412 -2.97455859
   3.65489864  3.37521791]
 [-2.93559337  2.58027625 -3.05952811  3.37451792 -3.58991456 -2.97211456
   2.84921122  2.85341096]]