Alice
[[  9.77010429e-02  -4.37208191e-02  -3.94504098e-03  -1.10135600e-01
   -1.89536624e-02  -5.07212430e-03  -1.12889506e-01  -5.26438095e-02
    4.97581018e-03   7.80052021e-02  -6.26993645e-03  -9.77501869e-02
    1.46770373e-03   1.48303797e-02   1.00336835e-01   3.30314673e-02]
 [  1.44342883e-02  -6.61987364e-02  -9.02755186e-03  -1.16656810e-01
    9.08658057e-02   3.60525474e-02  -4.00041193e-02  -6.65765107e-02
   -1.94677606e-03   7.24496841e-02   3.02284881e-02  -6.78156614e-02
    9.07765031e-02   4.74084884e-01   8.87233913e-02  -1.65878519e-01]
 [  9.49372575e-02  -3.33775207e-02  -6.88465266e-03  -1.06088243e-01
   -1.75073687e-02  -4.74114902e-03  -1.04822591e-01  -9.67871770e-02
    4.18027071e-03   7.92631432e-02  -5.29331807e-03  -8.64215046e-02
    6.90682500e-04   2.08391994e-02   9.54988375e-02   3.53576466e-02]
 [  1.18872836e-01   1.38287157e-01   7.60689843e-03  -2.40484383e-02
   -4.23933826e-02  -1.92709975e-02  -1.35592707e-02  -9.62421000e-02
    8.80225096e-03   1.91943541e-01  -1.17315084e-01  -1.26351655e-01
    2.55707484e-02  -2.56909095e-02   7.02033862e-02   3.59050892e-02]
 [  9.47310477e-02  -3.52179818e-02  -4.55047609e-03  -1.05594687e-01
   -1.57383792e-02  -3.92300542e-03  -1.05574965e-01  -1.03776500e-01
    2.59583280e-03   7.75996074e-02  -4.85636853e-03  -8.80495012e-02
    9.22327803e-04   1.85811836e-02   9.70381200e-02   3.27976234e-02]
 [  9.39101130e-02  -2.46085618e-02  -1.01033989e-02  -1.03457741e-01
   -2.01741215e-02  -6.89746207e-03  -1.03790566e-01  -9.63475555e-02
    8.76178034e-03   8.38133171e-02  -6.11409312e-03  -8.49980190e-02
    4.78499715e-04   2.00815033e-02   9.47397500e-02   3.54411602e-02]
 [  9.79763865e-02  -4.48635258e-02  -4.70941560e-03  -1.10287704e-01
   -1.94358639e-02  -5.19107794e-03  -1.12403102e-01  -5.11607751e-02
    4.78490908e-03   7.84511715e-02  -6.37965044e-03  -9.60809737e-02
    1.33551692e-03   1.61407311e-02   9.95875224e-02   3.47719155e-02]
 [  1.10302888e-01   3.06862723e-02   1.58124547e-02  -7.83587694e-02
   -2.63521411e-02  -1.58049852e-01   4.21188064e-02  -7.41980523e-02
    1.09217845e-01   1.17486209e-01  -4.21930142e-02  -1.08603373e-01
   -3.42986616e-03  -3.56114246e-02   5.22334911e-02   2.08901074e-02]
 [  9.07289535e-02  -2.40307935e-02  -4.04677028e-03  -9.91608649e-02
   -1.02298418e-02  -1.31898676e-03  -9.76113006e-02  -1.67922169e-01
   -4.35303693e-04   7.26585463e-02  -1.91158848e-03  -8.16742107e-02
   -4.66180267e-04   2.36319434e-02   9.38941687e-02   3.30680907e-02]
 [  9.04321298e-02  -1.79567654e-02  -2.83831428e-03  -1.02917619e-01
   -1.36226034e-02  -5.42486273e-03  -1.12870991e-01  -1.30768776e-01
    4.32659639e-03   7.68406689e-02  -6.47093961e-03  -8.98633748e-02
    1.33061549e-03   8.93308222e-03   1.00812234e-01   1.88341942e-02]
 [  8.75202343e-02  -1.02288788e-02  -6.53035659e-03  -9.74964127e-02
   -1.04595106e-02  -3.38199525e-03  -9.45070386e-02  -1.94178596e-01
    2.29416927e-03   7.62983039e-02  -2.55419547e-03  -7.40974322e-02
   -5.15658525e-04   2.25215089e-02   9.15496722e-02   2.88513992e-02]
 [  9.39675197e-02  -3.05787567e-02  -5.69139374e-03  -1.04432143e-01
   -1.58230197e-02  -4.52626124e-03  -1.04320168e-01  -1.11178935e-01
    3.32664070e-03   7.78677166e-02  -4.97221854e-03  -8.68429020e-02
    8.00934504e-04   1.95497237e-02   9.60291997e-02   3.29081006e-02]
 [  9.62995887e-02  -3.93148437e-02  -2.85907509e-03  -1.08728811e-01
   -1.66480709e-02  -3.48927360e-03  -1.10358030e-01  -7.36475736e-02
    3.63981375e-03   7.73692057e-02  -6.19613985e-03  -9.76326093e-02
    1.43103977e-03   1.35661047e-02   1.00765057e-01   2.96210665e-02]
 [  9.76801589e-02  -4.51306812e-02  -3.06488364e-03  -1.08414531e-01
   -1.73364710e-02  -3.79920006e-03  -1.10579401e-01  -6.38189688e-02
    2.99198227e-03   7.59204850e-02  -5.24120592e-03  -9.77361053e-02
    1.13389024e-03   1.65482927e-02   9.99765694e-02   3.50501500e-02]
 [  9.61957872e-02  -3.96421701e-02  -3.57837765e-03  -1.07983477e-01
   -1.70006808e-02  -4.18442395e-03  -1.10479318e-01  -7.69563019e-02
    3.30474484e-03   7.73494244e-02  -5.72206872e-03  -9.46728066e-02
    1.37302780e-03   1.50193777e-02   9.98543501e-02   3.13690044e-02]
 [  9.66016948e-02  -3.72375548e-02  -6.89123943e-03  -1.08053215e-01
   -2.00701132e-02  -6.38766447e-03  -1.09848514e-01  -6.35340512e-02
    6.88994862e-03   8.05746019e-02  -6.32156711e-03  -9.16686580e-02
    1.16962846e-03   1.80160254e-02   9.72258598e-02   3.57784629e-02]
 [  1.24065366e-04  -4.02734353e-04  -1.15447256e-04   2.35697371e-03
    4.00000936e-05  -1.74714357e-03  -2.31114309e-03  -2.41456000e-04
   -1.70929823e-03  -1.24114286e-03  -7.03690574e-04   6.99593278e-04
    1.80574541e-04   1.66087330e-03   2.32167105e-04   1.12767715e-03]
 [  2.37577493e-04  -5.20008383e-04  -1.49810134e-04   2.84198299e-03
    6.11968835e-06  -1.89962820e-03  -2.16606748e-03  -2.44889059e-04
   -1.74538349e-03  -1.11978140e-03  -7.68361380e-04   6.95029506e-04
    2.38093446e-04   1.75391685e-03   2.61177251e-04   1.56786374e-03]
 [  1.42490841e-04  -5.92044846e-04  -9.92633941e-05   2.65033566e-03
    3.09260759e-05  -1.99031294e-03  -2.28102389e-03  -2.95193837e-04
   -1.76817167e-03  -1.37588161e-03  -5.40587527e-04   8.51152639e-04
    1.74807472e-04   1.95030228e-03   2.04316457e-04   1.74336520e-03]
 [  1.28649961e-04  -5.26159012e-04  -1.15972922e-04   2.71856762e-03
   -2.01919374e-06  -1.99095067e-03  -2.47896602e-03  -2.59246037e-04
   -1.73146825e-03  -1.37307274e-03  -7.88415782e-04   8.23081820e-04
    2.13707754e-04   1.82169746e-03   1.82461590e-04   1.42656046e-03]
 [  1.68284489e-04  -5.16374654e-04  -6.27577538e-05   2.11355067e-03
    3.97977492e-05  -1.86051719e-03  -2.70604040e-03  -2.50064215e-04
   -1.65132433e-03  -1.71339721e-03  -4.33428242e-04   8.36145191e-04
    1.39059062e-04   1.76421332e-03   1.86043195e-04   1.35176978e-03]
 [  2.07846693e-04  -6.06122601e-04  -1.68783154e-04   2.98899342e-03
   -5.60139888e-05  -1.84407097e-03  -1.94226764e-03  -2.45962467e-04
   -1.70906726e-03  -1.01270503e-03  -7.79039692e-04   7.00349396e-04
    2.58190295e-04   1.83599826e-03   1.91080821e-04   1.79131783e-03]
 [  1.53910631e-04  -6.52113173e-04  -1.39622527e-04   2.69438839e-03
    9.17316356e-08  -2.12104758e-03  -2.44820584e-03  -2.26857592e-04
   -1.71127170e-03  -1.55965006e-03  -5.61745372e-04   8.85846210e-04
    2.21781738e-04   2.03863834e-03   1.80344141e-04   1.91133784e-03]
 [  1.81699361e-04  -4.07617306e-04  -8.62113739e-05   2.22226302e-03
   -4.19950520e-05  -1.59453519e-03  -2.26511713e-03  -3.19710176e-04
   -1.65385962e-03  -1.10868155e-03  -7.00098521e-04   6.46041124e-04
    1.68014885e-04   1.56472134e-03   2.44299939e-04   1.27519364e-03]
 [  1.63211924e-04  -5.39957313e-04  -9.68141903e-05   2.91186199e-03
    1.90480769e-05  -1.77536649e-03  -2.60951766e-03  -3.58608027e-04
   -1.89187867e-03  -1.28063455e-03  -8.69434909e-04   7.41176889e-04
    2.33211627e-04   1.84868288e-03   3.18665174e-04   1.44726061e-03]
 [  1.62011827e-04  -5.67265204e-04  -1.68874787e-04   2.81735649e-03
    1.89891398e-05  -1.85834989e-03  -2.34768935e-03  -2.88894284e-04
   -1.85747386e-03  -1.29399879e-03  -7.61225179e-04   7.83070922e-04
    2.36592750e-04   1.80178194e-03   2.76405597e-04   1.55317620e-03]
 [  1.81667710e-04  -5.60282846e-04  -1.43888727e-04   2.40674033e-03
    5.22234905e-06  -1.93320878e-03  -2.26373225e-03  -2.09057194e-04
   -1.75545109e-03  -1.47460843e-03  -5.16913366e-04   8.35112820e-04
    1.85771467e-04   1.87512569e-03   1.97667105e-04   1.60483434e-03]
 [  1.12756410e-04  -5.11439866e-04  -5.69335134e-05   2.30499217e-03
   -1.29066948e-05  -1.78045221e-03  -2.55457871e-03  -3.08100891e-04
   -1.70599215e-03  -1.47960114e-03  -5.73543191e-04   7.63668329e-04
    1.89602550e-04   1.78133079e-03   2.93436024e-04   1.38784712e-03]
 [  1.06064123e-04  -5.78691368e-04  -3.51063063e-05   2.45209504e-03
    4.34708963e-05  -1.69428706e-03  -2.41430756e-03  -2.61411828e-04
   -1.79082609e-03  -1.53074390e-03  -5.53719176e-04   8.04943789e-04
    1.47159124e-04   1.93432334e-03   2.05295408e-04   1.59067265e-03]
 [  1.70944040e-04  -6.29115093e-04  -1.42606485e-04   2.62708287e-03
    4.35335824e-05  -1.92110974e-03  -2.33676936e-03  -2.59570748e-04
   -2.04171217e-03  -1.37157971e-03  -6.41861232e-04   7.98756664e-04
    2.18960617e-04   1.95397576e-03   2.89469695e-04   1.75395701e-03]
 [  1.31272318e-04  -5.76421386e-04  -1.63378892e-04   2.90544331e-03
    2.79855085e-05  -2.09347275e-03  -2.58921902e-03  -2.71407829e-04
   -1.81542186e-03  -1.48465647e-03  -7.69399048e-04   8.46160343e-04
    2.58587941e-04   1.86707207e-03   2.90818920e-04   1.47338491e-03]
 [  1.41961224e-04  -3.97208583e-04  -2.01037212e-04   2.59166677e-03
   -5.62435089e-05  -1.52905402e-03  -2.38365843e-03  -3.33780685e-04
   -1.66191638e-03  -9.54786432e-04  -9.65850311e-04   5.58244123e-04
    2.11157065e-04   1.44729670e-03   3.30443727e-04   1.01899577e-03]
 [ -9.01206676e-03   2.85102837e-02  -3.74080837e-01  -1.14572334e+00
    1.07210182e-01  -3.24100256e-01  -7.97741190e-02  -8.92769173e-02
    7.00080991e-01   3.68515961e-02  -1.67892903e-01  -9.36940871e-03
    5.28460741e-01   1.58556253e-01   1.28983920e-02   1.87775716e-01]
 [ -1.86005428e-01   5.39582193e-01  -3.76421273e-01  -8.17974985e-01
    1.67435631e-01  -2.03391552e-01   5.72885275e-01  -1.58345580e-01
    2.12208368e-02   3.23733419e-01  -5.75739220e-02  -6.35493621e-02
   -1.10486280e-02   1.49789199e-01   2.90361404e-01  -1.34029374e-01]
 [ -3.10892630e-02  -1.36507764e-01  -4.67028618e-01  -8.64077687e-01
   -2.49610934e-02  -1.04127012e-01   2.11728401e-02   1.73036098e-01
    1.03221079e-02   2.64317125e-01  -3.68287504e-01  -1.60331815e-01
    1.73770100e-01  -1.06156031e-02   1.57375053e-01  -2.07934575e-03]
 [ -2.07807822e-03  -4.67431247e-01  -3.89404774e-01  -8.97765160e-01
   -4.91702482e-02   2.23345503e-01   3.51427160e-02  -5.28381355e-02
   -5.55424243e-02  -2.41935886e-02  -7.40972310e-02  -5.60193397e-02
    1.17540218e-01   2.25236401e-01   1.19681032e-02  -4.57613796e-01]
 [ -2.20012590e-01   8.05056766e-02  -4.20061707e-01  -9.78184819e-01
   -8.67099836e-02   1.35705337e-01  -1.59944490e-01  -2.20452145e-01
    3.17911446e-01  -1.70586064e-01  -2.16946453e-01  -1.93417594e-01
    1.72262818e-01  -3.07481945e-01   1.75824270e-01   8.86391178e-02]
 [ -7.45268539e-02  -2.72098690e-01  -3.47544312e-01  -5.95681190e-01
    3.07396967e-02   2.42904633e-01   1.39862227e+00  -8.57449882e-03
   -1.89267755e-01   7.29460120e-02  -1.10856757e-01   1.98118128e-02
    1.23995259e-01   1.05013549e-01   2.98583079e-02   8.26268867e-02]
 [  5.87279722e-02  -3.09916407e-01  -1.11466944e+00  -5.39715409e-01
    1.01606864e-02   8.74011486e-04   7.89365992e-02  -5.59580475e-02
   -2.37229541e-01  -9.31883827e-02  -1.36272877e-01   2.12481408e-03
    1.17488414e-01   3.18804950e-01   4.07290272e-02   6.78019002e-02]
 [ -1.58509865e-01  -1.15201101e-01  -5.91292799e-01  -1.13463306e+00
   -2.15384379e-01  -1.06156617e-01   1.31848708e-01  -3.33199769e-01
   -1.17806472e-01   2.71183610e-01  -5.58500946e-01  -7.53001422e-02
    1.06120877e-01   1.83188751e-01   1.37502119e-01   4.82973278e-01]
 [ -1.75870180e-01  -5.94053604e-02  -5.84688604e-01  -1.13614225e+00
    4.09492292e-02   2.84826249e-01  -1.49573326e-01  -1.49314567e-01
   -3.49683166e-01   1.22063927e-01   8.60392675e-03  -1.90096796e-01
    3.24924231e-01   2.12907735e-02   1.80909842e-01  -2.28803262e-01]
 [ -9.99801099e-01   2.99875479e-04   3.73412576e-03   5.55159338e-03
    1.56565759e-04  -2.67257635e-02   8.30024830e-04  -4.28757805e-04
   -8.60266096e-04   1.00136145e-04   9.17189114e-04   3.85865744e-04
   -1.91992804e-04  -1.57475180e-03  -2.00560869e-04  -1.05955545e-02]
 [ -3.01704764e-01  -3.51144262e-02  -3.86929184e-01  -5.69465756e-01
    2.62509793e-01   1.06314637e-01   4.82115149e-01  -1.47610798e-01
   -2.53098726e-01   2.17815623e-01  -1.09556369e-01   2.29618959e-02
    3.78979743e-01  -1.34454310e-01   6.02672249e-02  -1.20410137e-01]
 [ -6.26420975e-02  -2.33762041e-02  -3.79155070e-01  -1.06830978e+00
    7.40614757e-02   6.96257949e-02  -3.11401282e-02  -2.00398162e-01
   -2.75632113e-01   7.30253518e-01  -4.61939991e-01  -4.49852645e-02
   -1.97111703e-02  -7.16803148e-02   1.52186558e-01   3.34713906e-01]
 [ -1.00735955e-01   2.95898587e-01  -3.51670772e-01  -1.16167915e+00
   -9.08140615e-02  -1.33414268e-01  -4.68855798e-02  -3.17834020e-01
   -7.31070936e-02   3.00439566e-01  -3.44858378e-01  -3.99669886e-01
    2.14216620e-01   2.15112627e-01   2.56886277e-02   2.19769701e-02]
 [ -8.24448168e-02   1.27242911e+00  -3.25833619e-01  -8.42580259e-01
    3.49281020e-02   1.19013362e-01   6.95967674e-02   1.59674126e-03
   -1.17852807e-01   1.65328998e-02  -7.61213452e-02  -1.54723702e-02
    1.34604543e-01   1.67823151e-01   1.50375307e-01   7.63552710e-02]
 [  1.32283705e-04  -7.50853796e-05  -1.44572245e-04   7.81500991e-03
    9.99999642e-01   4.79011890e-03  -1.46332706e-04   3.69457484e-05
   -3.86027992e-03   1.67466278e-04  -9.89805540e-06  -1.91804327e-04
    3.43122592e-05  -1.54834750e-04   4.94207779e-05   1.05179762e-02]
 [ -3.14204060e-02   2.66237676e-01  -3.99192810e-01  -4.98207480e-01
   -8.50778222e-02   1.19698811e-02   1.46643028e-01  -1.40337516e-02
   -7.98989385e-02  -3.69993448e-02  -1.98138863e-01  -2.40959395e-02
   -7.16112228e-03  -2.19812289e-01  -6.17036447e-02   2.36276798e-02]]
Bob
[[  1.11617960e-01   8.72463658e-02  -5.39948344e-02  -1.08498722e-01
    1.00060053e-01   3.03362384e-02   7.51038492e-02  -1.76352467e-02
   -9.72495824e-02   1.24107532e-01   7.35281333e-02   3.74746397e-02
    9.71775502e-02  -1.94372609e-02  -4.17865783e-01   9.49818343e-02]
 [  7.17376471e-02   8.67857039e-02  -1.41987398e-01   1.31998798e-02
    9.15015563e-02   1.25857055e-01   1.49389461e-01  -1.42124280e-01
   -1.00742973e-01   8.82710665e-02  -2.97603607e-01   9.33099538e-02
    9.57931951e-02  -6.33940101e-02  -3.61128449e-01   4.06575724e-02]
 [  1.06149860e-01   8.63791034e-02  -9.75229070e-02  -1.02469184e-01
    9.93927568e-02   2.44648736e-02   8.41316655e-02  -1.74250193e-02
   -9.87436920e-02   1.56127155e-01   6.95803016e-02   3.24289724e-02
    8.64881054e-02  -1.77000798e-02  -4.16663557e-01   8.87558758e-02]
 [  6.93937689e-02   1.58182204e-01  -3.39030996e-02   1.74056739e-02
    6.45593107e-02  -3.69532183e-02  -1.54510401e-02   7.09430277e-02
   -4.19739112e-02   1.60591200e-01   3.55242193e-02  -1.10310934e-01
    1.01974793e-01  -7.09176898e-01  -4.59193498e-01   2.15543434e-01]
 [  1.09611794e-01   8.53910893e-02  -1.03184231e-01  -1.04611687e-01
    9.97675136e-02   3.10145095e-02   6.49144277e-02  -1.68037657e-02
   -9.77219716e-02   3.68905455e-01   6.26264364e-02   3.41912657e-02
    8.89890790e-02  -1.82303041e-02  -4.02493566e-01   8.79815295e-02]
 [  9.82176065e-02   9.08550248e-02  -9.74626690e-02  -1.03786528e-01
    9.77950692e-02   1.69530157e-02   1.19272359e-01  -1.40532153e-02
   -1.01362906e-01   1.02955803e-01   7.62678534e-02   2.77533364e-02
    8.27868953e-02  -1.59148257e-02  -4.16204602e-01   8.85073394e-02]
 [  1.09883785e-01   8.71444717e-02  -5.27491719e-02  -1.08734667e-01
    9.96660665e-02   3.04113179e-02   7.66042769e-02  -1.77981928e-02
   -9.88091901e-02   2.34716803e-01   7.45682493e-02   3.83770801e-02
    9.56109464e-02  -2.04732269e-02  -4.14232612e-01   9.40732434e-02]
 [  4.64265607e-02   8.80340263e-02  -5.16765974e-02  -5.98497689e-02
    5.84333465e-02   6.66453362e-01   5.34334071e-02   9.87778418e-03
   -8.00099671e-02   3.45379189e-02   3.03813368e-02  -5.63985892e-02
    8.42830017e-02  -3.75726894e-02  -3.18848401e-01   9.30779502e-02]
 [  1.08990297e-01   8.16840455e-02  -1.65406927e-01  -9.66417268e-02
    9.81590375e-02   3.02293301e-02   4.89683077e-02  -1.76809765e-02
   -9.59820226e-02   2.87736923e-01   4.86688763e-02   2.91031599e-02
    8.57048631e-02  -1.38897579e-02  -4.08094972e-01   8.19301084e-02]
 [  1.11520827e-01   9.00657102e-02  -1.25940531e-01  -1.15246937e-01
    9.76455733e-02   3.46828103e-02   6.23538755e-02  -9.71761253e-03
   -9.43677351e-02   2.49418482e-01   5.08491695e-02   2.99303327e-02
    8.93686414e-02  -1.19570419e-02  -3.89216572e-01   8.81569907e-02]
 [  1.03101216e-01   8.50261077e-02  -1.90897763e-01  -9.69007015e-02
    9.78105515e-02   2.16105673e-02   7.69091770e-02  -1.49776163e-02
   -9.51515511e-02   1.23543672e-01   4.84962240e-02   2.13241186e-02
    7.63722062e-02  -1.13404896e-02  -3.92172515e-01   7.95858726e-02]
 [  1.08251706e-01   8.59842971e-02  -1.10903352e-01  -1.02612376e-01
    9.94928852e-02   2.75876205e-02   7.41047189e-02  -1.67505629e-02
   -9.71747786e-02   2.33642071e-01   6.37928396e-02   3.17047387e-02
    8.76563266e-02  -1.63191464e-02  -4.15114194e-01   8.74022916e-02]
 [  1.14752419e-01   8.61292705e-02  -7.37856627e-02  -1.06530018e-01
    1.00121774e-01   3.28633450e-02   6.25435039e-02  -1.77946985e-02
   -9.44903046e-02   6.87310919e-02   6.68762177e-02   3.62781547e-02
    9.74053964e-02  -1.72504447e-02  -4.17187542e-01   9.39207301e-02]
 [  1.12561882e-01   8.52390975e-02  -6.46952838e-02  -1.06967643e-01
    9.97607559e-02   3.53510380e-02   6.06261119e-02  -1.80613361e-02
   -9.80727002e-02   3.75701547e-01   6.85877949e-02   3.85327823e-02
    9.87501815e-02  -1.96791124e-02  -4.08267528e-01   9.26921889e-02]
 [  1.13747269e-01   8.64451453e-02  -7.69918114e-02  -1.07054189e-01
    1.00412652e-01   3.29992473e-02   6.39581829e-02  -1.70852561e-02
   -9.60596502e-02   3.16588372e-01   6.61296844e-02   3.66281234e-02
    9.48294401e-02  -1.82640832e-02  -4.20393676e-01   9.16645452e-02]
 [  1.04653515e-01   8.86534080e-02  -6.52607232e-02  -1.07406788e-01
    9.90407020e-02   2.50795558e-02   9.64349657e-02  -1.64306704e-02
   -9.98230055e-02   1.58138022e-01   7.69803599e-02   3.39880809e-02
    9.05284137e-02  -1.88717898e-02  -4.12397504e-01   9.28958803e-02]
 [ -5.42100985e-03   1.21569820e-03  -1.29717262e-03  -1.00134080e-02
   -3.18434002e-04  -1.10841487e-02   9.13506281e-03  -9.97199677e-04
    1.90522533e-03   1.74439624e-01   4.09544818e-03   2.54844141e-04
    7.60462892e-04  -2.22250842e-03  -1.95873395e-01  -3.78104066e-03]
 [ -2.70898873e-03   1.00709661e-03  -1.21600984e-03  -7.44419033e-03
   -3.88810440e-04  -7.62396306e-03   3.85975419e-03  -1.65914570e-03
    2.58363737e-03   1.37441888e-01   2.62463978e-03   1.89435820e-03
    4.25928913e-04  -1.43398100e-03  -1.91573679e-01  -3.56113282e-03]
 [ -7.83771090e-03   1.57153734e-03  -1.67778658e-03  -1.18284700e-02
    1.53123619e-04  -1.62888877e-02   1.71177369e-02  -8.66505376e-04
    1.60628557e-03   1.57784000e-01   6.16552494e-03  -1.83700072e-03
    1.18756073e-03  -2.95411935e-03  -1.99296460e-01  -3.64444009e-03]
 [ -5.63169457e-03   1.28734112e-03  -1.42181385e-03  -1.05012264e-02
    5.60698463e-05  -1.24270609e-02   1.12846885e-02  -9.51594848e-04
    1.81163789e-03   1.58136502e-01   4.67484444e-03  -5.38775348e-04
    9.44479776e-04  -2.38301069e-03  -1.99417219e-01  -3.55878705e-03]
 [  4.97379061e-03  -1.32107991e-04  -2.31358266e-04  -1.95379741e-03
   -7.43805431e-04   5.32610063e-03  -1.57511439e-02  -1.94704894e-03
    3.87621066e-03   1.30133197e-01  -2.48923525e-03   6.03978150e-03
   -6.15814002e-04   6.35612581e-04  -1.82347566e-01  -3.25298216e-03]
 [ -1.43266376e-03   6.99023833e-04  -8.75469996e-04  -7.61040300e-03
   -1.69266946e-06  -5.39609278e-03   9.09733470e-04  -1.00707484e-03
    2.39555887e-03   1.18244059e-01   1.89522223e-03   1.46667159e-03
    4.13317757e-04  -1.28428673e-03  -1.98536888e-01  -3.30668921e-03]
 [ -3.05784843e-03   9.48946341e-04  -1.04854640e-03  -8.12986773e-03
   -3.56666511e-04  -7.38543179e-03   3.65016377e-03  -1.09737448e-03
    2.17594532e-03   1.52927831e-01   2.56628660e-03   1.33073586e-03
    5.16695785e-04  -1.53026707e-03  -1.87715098e-01  -3.41259036e-03]
 [ -6.34973310e-03   1.45617290e-03  -1.47896027e-03  -1.02469120e-02
   -2.74164922e-04  -1.28441602e-02   1.18494043e-02  -1.18633523e-03
    1.88961055e-03   1.44246504e-01   4.74228710e-03  -1.13174639e-04
    8.58488143e-04  -2.44285003e-03  -1.96733162e-01  -3.86243500e-03]
 [ -1.37766674e-02   2.44804728e-03  -2.47555738e-03  -1.62504353e-02
    5.05251519e-04  -2.62018051e-02   3.20821367e-02  -5.84637048e-04
    6.12283824e-04   1.89761341e-01   1.00807762e-02  -5.09577617e-03
    1.98103534e-03  -4.62365430e-03  -2.13354200e-01  -3.98422033e-03]
 [ -1.20960800e-02   2.19574897e-03  -2.16160039e-03  -1.55493924e-02
    3.78249417e-04  -2.33469233e-02   2.74570342e-02  -5.38826163e-04
    1.00276049e-03   1.69730335e-01   9.03927162e-03  -4.23891703e-03
    1.76038896e-03  -4.24999651e-03  -2.09402069e-01  -4.17767186e-03]
 [ -1.50631822e-03   7.07980595e-04  -9.19717131e-04  -7.21881585e-03
   -5.93650504e-04  -4.97684069e-03  -3.57533281e-04  -1.38436630e-03
    2.70999433e-03   1.61075488e-01   1.62996002e-03   2.56927172e-03
    2.68121716e-04  -1.20328285e-03  -1.84772149e-01  -3.61790205e-03]
 [ -3.00289225e-03   9.43169463e-04  -1.10321597e-03  -8.76048394e-03
   -1.22766360e-05  -8.42470955e-03   5.20197349e-03  -1.05029985e-03
    2.49342527e-03   1.45990327e-01   3.02608847e-03   6.71422342e-04
    5.80550579e-04  -1.76127523e-03  -2.00850621e-01  -3.61959147e-03]
 [  4.37307172e-03   1.61735559e-04  -5.84174413e-04  -2.01988849e-03
   -4.76850924e-04   2.98546581e-03  -1.17060393e-02  -2.45174649e-03
    4.17969283e-03   8.42444450e-02  -1.51995337e-03   5.55594731e-03
   -5.10272977e-04   3.68917594e-04  -1.81196973e-01  -3.45454039e-03]
 [ -7.61079974e-03   1.61287363e-03  -1.65842555e-03  -1.16495043e-02
    1.15591938e-04  -1.57541223e-02   1.62595175e-02  -9.14500561e-04
    1.64841139e-03   1.50917441e-01   5.93515439e-03  -1.61654351e-03
    1.16229721e-03  -2.88098026e-03  -2.01044887e-01  -3.70979123e-03]
 [ -4.94066020e-03   1.39163702e-03  -1.52794970e-03  -9.41948965e-03
   -1.56537732e-04  -1.20922578e-02   1.01528373e-02  -1.64612348e-03
    2.51777191e-03   1.43920496e-01   4.35459753e-03   4.42230375e-04
    7.70736835e-04  -2.14667572e-03  -1.95221633e-01  -3.80105665e-03]
 [ -9.79084638e-04   5.83182904e-04  -8.04593205e-04  -6.83525624e-03
   -4.79586597e-04  -4.06866800e-03  -1.29549124e-03  -1.26990408e-03
    2.73920433e-03   1.53849036e-01   1.33444369e-03   2.49655917e-03
    9.55601572e-05  -1.10263168e-03  -1.90030709e-01  -3.27087846e-03]
 [ -1.43741384e-01   2.74331458e-02  -3.73377889e-01   2.75218844e-01
    1.06573403e-01   2.53659546e-01   5.00285029e-01  -2.06233650e-01
    3.44091475e-01   3.03283900e-01   2.49086320e-01   3.10645223e-01
   -3.87427360e-02   8.04239362e-02  -2.11348273e-02   1.12318695e+00]
 [ -2.26749793e-01   3.53839844e-01  -8.63065422e-02   5.60179114e-01
   -1.20860599e-01   7.12381080e-02   3.91490251e-01   6.23512268e-03
    8.44640061e-02  -2.38490794e-02  -4.22747880e-02   9.52273831e-02
    3.54082063e-02   3.67366672e-01   2.15882733e-02   8.41265023e-01]
 [ -5.37768602e-01   1.80712923e-01  -1.00691821e-02   3.84976774e-01
    1.49243483e-02   3.85749117e-02   5.69682643e-02  -2.26871651e-02
    5.66150665e-01   2.85043120e-02  -1.59917504e-01   2.14035362e-01
    1.69751510e-01  -2.00701356e-01   2.88459342e-02   8.70136917e-01]
 [ -9.89979971e-03   1.04172163e-01   3.74454353e-03   1.50360651e-02
    7.94449225e-02   4.87823151e-02   6.31582320e-01  -5.22515550e-02
    4.27062623e-03  -6.24345914e-02  -2.06720933e-01   1.19821168e-01
    8.05883780e-02  -4.70010340e-02  -1.63229695e-03   1.56888103e+00]
 [ -1.42070159e-01   1.30025879e-01  -6.33128732e-02   5.66895194e-02
    3.46079990e-02  -7.78938085e-02   5.53698838e-01  -1.95501074e-01
    3.57268602e-01   3.56884189e-02   6.87530160e-01   1.50561914e-01
   -3.04022674e-02  -1.02992728e-02   7.44022243e-03   1.01528454e+00]
 [ -2.32255310e-01  -8.62493664e-02   8.63255118e-04   2.86436617e-01
    1.80292621e-01   8.67014945e-01   5.02584219e-01  -2.02234492e-01
    2.72962332e-01  -6.73236400e-02   1.40530735e-01   1.03638791e-01
   -6.19976185e-02  -4.20572869e-02   2.49829311e-02   1.24965835e+00]
 [ -1.29098132e-01   2.20436975e-02  -2.18275383e-01   4.19613153e-01
    9.47365463e-02  -1.00644493e+00   4.99823064e-01  -2.30334416e-01
    1.64009780e-01  -2.11313684e-02   3.25543970e-01  -1.33367434e-01
    5.23885638e-02  -4.56064679e-02   4.35824282e-02   1.19047093e+00]
 [  4.78661945e-03   2.19446003e-01   1.16440549e-01   1.03791445e-01
    7.00528398e-02  -2.32769339e-03   5.72083414e-01  -3.26541215e-01
    1.10402875e-01  -1.03652654e-02   3.27660203e-01   3.25441748e-01
    1.48892075e-01   1.46152228e-02   8.97461548e-03   1.02152860e+00]
 [  1.25319108e-01  -7.88332447e-02  -1.19108908e-01   1.90528363e-01
    1.91200629e-01   8.96769106e-01   8.28397691e-01  -1.76896796e-01
    1.34683132e-01   2.03579850e-02  -9.50570975e-04   1.54406309e-01
    1.63608208e-01  -1.29684210e-01  -4.98912744e-02   1.11510539e+00]
 [ -2.24000961e-02  -3.66291776e-02  -1.01981990e-01  -9.48766023e-02
    1.55528933e-01   2.50906438e-01   5.24603546e-01  -2.36240804e-01
   -1.21829689e-01  -8.20993111e-02  -6.11510575e-01   6.62953794e-01
    2.09685147e-01   1.82829753e-01   6.65403977e-02   1.12997973e+00]
 [ -2.48969987e-01   2.41409212e-01  -1.74920652e-02  -9.09211561e-02
    2.26508290e-01   2.54617602e-01   5.96111119e-01  -6.68195844e-01
   -1.87697202e-01  -3.06336880e-02   2.66153425e-01   3.72597367e-01
   -1.56162232e-02  -1.41564652e-01  -3.85329016e-02   9.46634531e-01]
 [ -3.66636515e-02   2.48865247e-01  -1.99903876e-01   2.39130706e-01
    2.76244313e-01   2.00251594e-01   5.60197771e-01  -3.03015411e-01
    8.80677029e-02  -4.84471954e-02  -2.87879795e-01   4.84520495e-01
    2.81878024e-01  -9.57925543e-02   7.88415372e-02   1.20904601e+00]
 [ -1.14076070e-01   2.47158874e-02  -9.69726592e-02   2.13307574e-01
   -2.83619881e-01  -2.92306930e-01   5.48533618e-01  -3.82830203e-01
    1.31176725e-01  -1.36403665e-01  -6.19905174e-01   3.57471824e-01
    5.27042039e-02  -1.09690435e-01  -7.84285963e-02   7.31647611e-01]
 [ -1.33599132e-01   8.11194554e-02   5.07895201e-02  -1.02541775e-01
    1.84668288e-01   3.75070726e-03   4.52249408e-01  -2.29620561e-02
    3.26833814e-01   2.40070485e-02  -1.41645598e+00   1.25124957e-02
    1.14254477e-02  -4.80276830e-02   3.08700325e-03   1.17619920e+00]
 [ -4.25482482e-01   3.06481421e-01  -2.56917626e-01  -1.26670405e-01
    1.49835646e-01  -4.55450602e-02   3.28390151e-01  -3.19639564e-01
    3.55509445e-02  -4.16221805e-02  -2.52703398e-01  -1.08871937e-01
    3.47501069e-01   8.18044394e-02  -1.55173004e-01   1.03078854e+00]
 [ -2.75794417e-01  -1.50964165e-03  -9.99412984e-02   2.58546829e-01
    1.77543998e-01   1.58163175e-01   5.03486574e-01  -1.25006616e-01
    4.21629995e-01  -1.18370943e-01   1.28315961e+00   8.32023844e-02
    5.39311953e-02  -3.61368030e-01  -3.62781547e-02   9.02526855e-01]]
Eve
[[  1.74752474e-01  -4.79324302e-03  -8.21253240e-01   1.92091739e+00
    1.40458316e-01  -5.64633086e-02   1.91664118e-02  -4.64163542e-01
   -9.24138203e-02  -1.05865610e+00  -1.02777529e+00  -9.77080584e-01
    1.07560933e+00  -2.68576533e-01  -9.91471827e-01   1.78266540e-02]
 [  3.86542529e-01  -3.05297077e-01  -7.45840490e-01   1.84465539e+00
    2.54968941e-01   9.18340124e-03  -3.68174821e-01  -5.86969852e-01
   -4.54357006e-02  -9.31827962e-01  -7.97360659e-01  -8.31988454e-01
    9.36200798e-01   2.24545932e+00  -9.22049105e-01  -2.89167732e-01]
 [  1.60159647e-01  -9.70365852e-03  -8.55604529e-01   1.89984488e+00
    1.57974720e-01  -5.84728681e-02   4.35559731e-03  -5.50047219e-01
   -9.46157649e-02  -1.04710221e+00  -1.01655626e+00  -1.02323818e+00
    1.08958340e+00  -2.83513248e-01  -1.01712930e+00   2.59900577e-02]
 [  1.57631323e-01  -1.75474751e+00  -5.39214075e-01   1.61222374e+00
    1.62389070e-01  -1.56078935e-01   6.23117760e-02  -2.15518162e-01
   -4.90867607e-02  -4.78304803e-01  -5.55058956e-01  -7.16529965e-01
    4.94254351e-01  -2.61726707e-01  -5.26564360e-01   1.95680976e-01]
 [  1.45960450e-01  -7.62915565e-03  -8.14074039e-01   1.91912806e+00
    1.55683383e-01  -5.67860268e-02  -3.37353395e-03  -5.66338956e-01
   -9.98426676e-02  -1.03581870e+00  -9.88898158e-01  -1.03002822e+00
    1.10872555e+00  -2.69874275e-01  -1.01882887e+00   1.84977762e-02]
 [  1.69020206e-01  -1.40098650e-02  -9.24921334e-01   1.86383629e+00
    1.60734206e-01  -6.04141057e-02  -1.11536286e-03  -5.44834554e-01
   -8.36516842e-02  -1.05879712e+00  -1.03294396e+00  -1.02461529e+00
    1.07996392e+00  -2.99054801e-01  -1.01835811e+00   2.91084331e-02]
 [  1.79213554e-01  -3.04138637e-03  -8.26617658e-01   1.92291558e+00
    1.44527569e-01  -5.79069145e-02   1.25360535e-02  -4.59394872e-01
   -9.32596698e-02  -1.05814683e+00  -1.01925778e+00  -9.90465939e-01
    1.08472812e+00  -2.72623390e-01  -9.97998595e-01   2.53469385e-02]
 [  3.18420440e-01  -1.05333753e-01  -1.03539276e+00   1.87697363e+00
    3.69926095e-01  -1.80414841e-01  -1.52021229e+00  -5.23811519e-01
   -1.36955395e-01  -9.98825610e-01  -8.89885485e-01  -1.12404227e+00
    1.19902551e+00  -5.74730217e-01  -8.28642845e-01   1.34631753e-01]
 [  1.10796660e-01  -1.59809161e-02  -7.98645616e-01   1.92345452e+00
    1.67727649e-01  -5.58899790e-02  -1.05356826e-02  -7.02497482e-01
   -1.08657911e-01  -1.02220476e+00  -9.79876220e-01  -1.05390036e+00
    1.12901890e+00  -2.75263816e-01  -1.04277682e+00   1.13754813e-02]
 [  1.15526512e-01  -1.69045217e-02  -7.95187831e-01   1.89579284e+00
    1.44611955e-01  -5.31413630e-02   1.38997156e-02  -6.20526552e-01
   -9.80834439e-02  -1.03888083e+00  -9.92588639e-01  -1.01712716e+00
    1.11122489e+00  -2.54112154e-01  -1.00721216e+00  -4.50767130e-02]
 [  1.03429429e-01  -2.43103392e-02  -8.58604670e-01   1.88430989e+00
    1.74455315e-01  -5.44669665e-02  -1.13558834e-02  -7.48386264e-01
   -1.04478709e-01  -1.02620697e+00  -9.91634130e-01  -1.07011259e+00
    1.11748898e+00  -2.84643888e-01  -1.04662848e+00  -3.38094844e-03]
 [  1.47250429e-01  -1.16375759e-02  -8.33854198e-01   1.90429509e+00
    1.59129113e-01  -5.80337532e-02  -7.59533199e-04  -5.81684291e-01
   -9.83877927e-02  -1.04096830e+00  -1.00163150e+00  -1.02705002e+00
    1.09971368e+00  -2.77901709e-01  -1.01997781e+00   1.71534829e-02]
 [  1.55533284e-01  -8.42538662e-03  -7.94405401e-01   1.92265332e+00
    1.40912786e-01  -5.43943681e-02   1.89769100e-02  -5.09543836e-01
   -9.92794484e-02  -1.04684424e+00  -1.02194405e+00  -9.77245390e-01
    1.07957315e+00  -2.60631740e-01  -9.94288981e-01   4.68162587e-03]
 [  1.64619684e-01  -3.10595077e-03  -7.94044852e-01   1.93840218e+00
    1.44845843e-01  -5.80748431e-02   2.80516851e-03  -4.89587158e-01
   -9.76241454e-02  -1.04559660e+00  -9.92881238e-01  -9.91131365e-01
    1.09812427e+00  -2.65957922e-01  -1.00066078e+00   2.60321777e-02]
 [  1.55005634e-01  -6.63446123e-03  -8.00248623e-01   1.92550933e+00
    1.44312277e-01  -5.68713285e-02   8.45332723e-03  -5.14044166e-01
   -9.80355218e-02  -1.04529524e+00  -9.98974144e-01  -9.99830008e-01
    1.09592462e+00  -2.62423813e-01  -9.99826252e-01   1.32451402e-02]
 [  1.78050891e-01  -6.63352618e-03  -8.71395350e-01   1.89821863e+00
    1.50181040e-01  -5.90755716e-02   7.08677946e-03  -4.81351525e-01
   -8.81428793e-02  -1.06234503e+00  -1.02676725e+00  -1.00156689e+00
    1.07860911e+00  -2.83560038e-01  -1.00462079e+00   2.91318744e-02]
 [ -3.08966428e-01   9.07670110e-02  -1.18819021e-01   3.93806934e-01
   -2.95892239e-01   6.16431087e-02  -6.99374497e-01   1.14533775e-01
    7.05916137e-02   7.42460549e-01   6.84421837e-01   3.60429287e-01
   -6.10102057e-01  -8.74817669e-01   6.50579393e-01  -5.19368798e-03]
 [ -7.99494624e-01   1.49366772e+00  -3.30662802e-02  -1.71057065e-03
   -4.95408595e-01   1.61278814e-01   2.85575569e-01   2.60844510e-02
   -1.48705337e-02   9.92258489e-01   1.04406404e+00   7.82843649e-01
   -7.29811370e-01  -1.87197685e-01   1.14306068e+00   1.19790293e-01]
 [ -1.16360259e+00   2.41842404e-01  -2.19784111e-01   5.02337590e-02
   -7.98290491e-01  -7.26859868e-02   3.11016083e-01   7.90944993e-01
   -3.77709419e-01   1.61014187e+00   1.68472207e+00   1.38548005e+00
   -1.67371917e+00   9.76711929e-01   1.74484611e+00   1.34986475e-01]
 [  9.38383043e-02   2.57345468e-01  -3.91162813e-01   1.14515901e+00
   -2.72489995e-01   2.69945227e-02  -1.01363987e-01   6.44309148e-02
    2.36172244e-01   3.37126106e-01   2.94559658e-01   2.06500232e-01
   -6.17767990e-01   8.63310769e-02   1.48897037e-01   5.90028204e-02]
 [ -7.70881951e-01  -1.54484078e-01   2.09772795e-01   2.68330663e-01
   -5.21606684e-01   5.67836799e-02   1.25750378e-02   8.90210927e-01
   -1.04069868e-02   1.69403529e+00   1.74328935e+00   1.90277934e+00
   -1.71840668e+00  -4.79569167e-01   1.71487737e+00  -7.36545026e-01]
 [ -4.70356613e-01  -6.59836903e-02   2.11416811e-01   2.89137214e-01
   -5.80543637e-01  -2.15955809e-01  -8.78896952e-01   2.13590845e-01
    8.12609196e-02   6.02911830e-01   5.69714546e-01   4.84141231e-01
   -5.11539221e-01   1.05404906e-01   6.14635468e-01   1.04198724e-01]
 [ -5.67066856e-02  -4.23655897e-01  -2.56249845e-01   7.69365013e-01
    1.04369141e-01  -9.22545604e-03   9.03097451e-01   2.57830415e-02
   -2.33277291e-01   3.22072804e-01   4.67941314e-01   3.05112273e-01
   -6.16043925e-01  -7.01688766e-01   7.23104358e-01   1.62676379e-01]
 [  1.32614478e-01  -1.21708557e-01  -2.42924124e-01   6.97633386e-01
   -1.91836387e-01   8.64192918e-02   4.53483276e-02  -2.25366965e-01
    6.30198643e-02   3.38686734e-01   3.52338403e-01   4.85738218e-01
   -5.43445408e-01  -4.28700477e-01   6.10823750e-01  -2.92625707e-02]
 [ -5.48204899e-01   1.03559874e-01   5.22525236e-02   4.01535779e-01
   -6.46822870e-01   2.78458968e-02  -8.92679036e-01  -1.13245338e-01
    5.60757041e-01   1.13774967e+00   1.14489210e+00   1.16520417e+00
   -1.35106099e+00   7.04353303e-02   8.15277696e-01  -1.73539028e-01]
 [ -1.20929271e-01  -4.35941070e-01  -3.35027188e-01   7.32933640e-01
   -5.26909083e-02   1.03539631e-01  -7.04901993e-01  -1.57316908e-01
    1.20356947e-01   4.33620095e-01   4.56427306e-01   3.67129475e-01
   -2.81929106e-01   4.65400219e-01   3.98728430e-01  -2.89761364e-01]
 [ -2.89072216e-01  -1.42938435e+00  -2.24888057e-01   5.44347763e-01
   -4.29040134e-01   3.86637598e-01  -1.91751516e+00   1.97919324e-01
    1.28450423e-01   1.08991838e+00   1.33112490e+00   1.00634086e+00
   -1.11426640e+00  -9.41810727e-01   1.09200943e+00  -7.64201403e-01]
 [ -2.42360961e-02  -1.00176565e-01  -3.96922797e-01   3.88947010e-01
    1.40325567e-02  -3.85996886e-02  -5.66639483e-01   1.42105386e-01
    1.08769290e-01   6.14142656e-01   5.02069652e-01   6.66111648e-01
   -2.09730148e-01  -1.14079498e-01   4.13327575e-01   9.52017233e-02]
 [ -7.89228618e-01  -1.24182977e-01  -5.07097125e-01   1.04485786e+00
   -9.09955859e-01  -1.50294483e-01  -1.87858507e-01   4.97558504e-01
    3.10259342e-01   1.22914779e+00   1.42293370e+00   9.12762702e-01
   -1.30311370e+00   1.72452080e+00   1.29154325e+00   2.16366217e-01]
 [ -4.92456853e-01   3.07050794e-01  -5.22019684e-01   1.08501124e+00
   -2.77451813e-01  -6.37654737e-02   1.97051764e-01   1.48656473e-01
   -2.04338536e-01   4.29244637e-01   3.47825587e-01   4.56001163e-01
   -2.75376290e-01   1.89946997e+00   3.39761406e-01   1.20106965e-01]
 [  1.69036180e-01  -1.87170237e-01  -4.27141666e-01   6.18572712e-01
    2.49128908e-01   3.44572999e-02   3.18534821e-01  -2.18483910e-01
   -4.09651220e-01   2.42642790e-01   3.33383054e-01   2.27203012e-01
   -3.79269540e-01   3.55870932e-01   1.65846989e-01   1.81490228e-01]
 [ -6.57855630e-01   7.01133981e-02   4.27852780e-01   2.88958736e-02
   -3.84261608e-01  -8.03819224e-02  -2.01615378e-01  -4.18908894e-02
   -4.18043844e-02   7.84087121e-01   9.71524894e-01   1.34061146e+00
   -1.28531671e+00  -6.70088172e-01   7.97084749e-01   1.43444598e-01]
 [ -1.27478391e-01   3.35940272e-01  -4.43928421e-01   9.01526809e-01
    2.43816506e-02  -3.65212142e-01   3.50188226e-01  -3.38196866e-02
    1.32934892e+00   1.81381628e-01   3.47439438e-01   5.06385863e-01
   -5.69999397e-01   5.44777930e-01   5.28086126e-01   5.19183278e-01]
 [  2.53606915e-01  -5.91895700e-01  -3.07276011e-01   6.21057749e-01
    2.46884357e-02  -6.70224503e-02  -4.13442284e-01  -1.43788248e-01
   -3.29002663e-02   5.01161873e-01   1.77371457e-01   2.88685918e-01
   -2.22246423e-01   6.67368621e-02   2.69595057e-01  -4.19864580e-02]
 [  1.45340279e-01   1.92275792e-01  -3.37472796e-01   3.26631010e-01
   -2.37763271e-01  -1.98365539e-01   1.53178051e-01   9.13412150e-05
    2.11023346e-01   4.88757789e-01   7.13825703e-01   6.45515978e-01
   -4.80556160e-01   1.28564030e-01   5.88167250e-01   9.20081288e-02]
 [ -3.75674993e-01   7.28445351e-01  -4.43158507e-01   9.44668472e-01
   -1.30309820e-01   2.36235723e-01   9.33271348e-02  -1.42830417e-01
    2.12304369e-02   7.73349226e-01   7.10797369e-01   7.15093791e-01
   -4.92873907e-01   4.32852298e-01   4.06629831e-01  -6.50544345e-01]
 [  2.10261568e-01   2.07764640e-01  -3.82484108e-01   4.96303976e-01
    1.50909364e-01  -1.59046482e-02   4.85369444e-01  -1.53912321e-01
    5.51070154e-01   5.96339583e-01   3.02524239e-01   3.82606447e-01
   -6.62022948e-01   5.12894630e-01   1.21326536e-01   1.90281585e-01]
 [ -2.47137025e-01   4.81668442e-01  -1.43519923e-01   6.33833647e-01
   -2.53352851e-01   1.25019580e-01  -1.45907772e+00   1.43415049e-01
   -8.74444656e-03   2.76490599e-01   2.51779228e-01   3.47749114e-01
   -5.33214092e-01   4.20082867e-01   6.46904290e-01   6.67462945e-02]
 [ -3.72901529e-01   5.00225127e-01  -1.03437173e+00   8.78676534e-01
   -1.50746197e-01  -2.92467792e-03   3.63915771e-01  -3.74392187e-03
   -2.50372052e-01   2.28500232e-01   3.21418405e-01   4.31668125e-02
   -1.52097419e-01   1.86119959e-01   3.88803601e-01  -6.85167164e-02]
 [ -4.12946939e-01   7.24241603e-03  -3.03826839e-01   8.30751300e-01
   -4.87499267e-01  -3.15919638e-01   5.85739464e-02  -2.78789490e-01
    2.30166331e-01   9.15850103e-01   1.43259966e+00   5.14991224e-01
   -8.30351353e-01   8.56991827e-01   1.00780261e+00   5.55995166e-01]
 [ -2.38149866e-01   1.78359866e-01  -5.24873078e-01   5.47885478e-01
   -1.09849572e-02   6.10052586e-01   1.08709551e-01  -1.19990282e-01
   -6.59993768e-01   4.49519932e-01   1.60739958e-01   4.72511947e-01
   -5.84758580e-01   3.32307160e-01   5.19604146e-01  -4.11906779e-01]
 [  2.45513272e+00  -4.24911780e-03  -3.15351523e-02  -1.02499813e-01
    5.42594828e-02  -6.47067791e-03   3.92788462e-02  -3.13163595e-03
   -3.60499066e-03  -7.68607110e-02  -2.15321109e-01   4.83076274e-02
   -7.42543563e-02  -5.89588247e-02  -5.39537147e-03  -5.96626550e-02]
 [  3.63651700e-02  -1.24199174e-01  -4.51139957e-01   1.05152869e+00
   -1.65049687e-01  -6.98399171e-02  -1.16821148e-01  -2.74588078e-01
   -2.52352387e-01   2.36144096e-01   2.19009429e-01   1.86419994e-01
   -1.96577340e-01  -1.14802790e+00   1.12107001e-01  -4.66772541e-02]
 [ -2.47077569e-01  -1.80534825e-01   2.41033673e-01   3.55917245e-01
   -2.96419948e-01  -1.67029932e-01   6.37452245e-01  -6.64726794e-02
   -4.11064327e-01   1.42607713e+00   1.37760198e+00   8.68406892e-01
   -7.39347994e-01   9.12830889e-01   1.36813486e+00   4.63209480e-01]
 [ -1.64479285e-01  -1.90080300e-01  -3.60082954e-01   4.98459816e-01
   -5.22780977e-02   2.35360526e-02   5.14190719e-02   1.23255387e-01
    7.74757639e-02   4.21924740e-01   3.81413549e-01   5.89445531e-01
   -4.41901773e-01   4.65745062e-01   2.22184166e-01   1.20025776e-01]
 [ -3.03057820e-01  -1.76194561e+00  -2.84196317e-01   9.63816881e-01
   -2.13204801e-01   9.00668204e-02   3.26437533e-01  -2.14754999e-01
   -1.57686681e-01  -1.63177341e-01   5.43465614e-02   3.33359614e-02
    2.06938595e-01   3.07731330e-01   2.38863498e-01  -5.72819822e-03]
 [  2.89409943e-02   4.37504100e-03   9.84204747e-03   2.23234832e-01
    2.46284747e+00   5.04187262e-03   2.38610934e-02  -2.51145422e-04
   -1.55713996e-02   8.46721530e-02   1.01645254e-01  -6.20119693e-03
    7.13259098e-04  -1.57071985e-02  -2.68894490e-02   6.91111293e-03]
 [  2.03051612e-01  -4.14692104e-01  -3.72852296e-01   4.08473551e-01
    1.98449805e-01   9.74216387e-02  -4.76437449e-01   9.55955014e-02
   -1.14441507e-01   2.01371059e-01   3.62335205e-01   4.95988041e-01
   -5.43723702e-01  -2.44586527e-01   3.42344671e-01  -1.59021065e-01]]