Alice
[[  5.08544929e-02  -2.90923696e-02   2.98656356e-02  -8.65163356e-02
    2.01181710e-01   7.19962642e-04   1.15373716e-01  -1.36124179e-01
   -1.11109741e-01   3.05626867e-03   9.45535954e-03  -4.02238481e-02
    2.18304843e-01  -2.35323340e-01   2.14630857e-01   4.25160304e-02]
 [  5.09195440e-02  -2.91524082e-02   2.98251957e-02  -8.67395997e-02
    2.01381236e-01   7.53860339e-04   1.15677565e-01  -1.36253461e-01
   -1.11218952e-01   3.09180631e-03   9.31859668e-03  -4.01964299e-02
    2.18761355e-01  -2.35865921e-01   2.14755446e-01   4.24948558e-02]
 [  5.09752855e-02  -2.91400179e-02   2.99052112e-02  -8.66325274e-02
    2.01472372e-01   6.96507515e-04   1.15774535e-01  -1.36419863e-01
   -1.11185059e-01   3.10326624e-03   9.14624985e-03  -4.00969796e-02
    2.18724802e-01  -2.35714391e-01   2.14790836e-01   4.23910804e-02]
 [  5.08876294e-02  -2.92359181e-02   2.98815239e-02  -8.68038908e-02
    2.01375440e-01   8.01133399e-04   1.15603372e-01  -1.36234522e-01
   -1.11218274e-01   3.15445685e-03   9.20185260e-03  -4.02307659e-02
    2.18716249e-01  -2.35688925e-01   2.14709610e-01   4.22975123e-02]
 [  5.09307683e-02  -2.90946886e-02   3.00080236e-02  -8.66523162e-02
    2.01248243e-01   7.35499547e-04   1.15540668e-01  -1.36184365e-01
   -1.11165732e-01   3.10177333e-03   9.52450465e-03  -4.01648767e-02
    2.18520507e-01  -2.35620528e-01   2.14746714e-01   4.25884947e-02]
 [  5.08770868e-02  -2.89282985e-02   3.00225876e-02  -8.65416676e-02
    2.01235086e-01   7.21634016e-04   1.15467221e-01  -1.36189148e-01
   -1.11067981e-01   3.18234740e-03   9.28567164e-03  -4.01448384e-02
    2.18245253e-01  -2.35216424e-01   2.14798033e-01   4.23124060e-02]
 [  5.09514585e-02  -2.92003881e-02   2.98740081e-02  -8.68157372e-02
    2.01362044e-01   7.32639106e-04   1.15703769e-01  -1.36266112e-01
   -1.11160673e-01   3.08048306e-03   9.26700328e-03  -4.02092300e-02
    2.18666553e-01  -2.35737979e-01   2.14876369e-01   4.23438922e-02]
 [  5.09127900e-02  -2.91455258e-02   2.99992617e-02  -8.66510049e-02
    2.01442808e-01   7.20183190e-04   1.15709558e-01  -1.36372760e-01
   -1.11200526e-01   3.10905091e-03   9.29857977e-03  -4.01927680e-02
    2.18576163e-01  -2.35522732e-01   2.14794517e-01   4.24460731e-02]
 [  5.09187356e-02  -2.91902069e-02   2.97466703e-02  -8.68960470e-02
    2.01463833e-01   7.47488521e-04   1.15712062e-01  -1.36275709e-01
   -1.11363754e-01   3.10292537e-03   9.12825577e-03  -4.02082987e-02
    2.19028741e-01  -2.36152276e-01   2.14894086e-01   4.24152426e-02]
 [  5.10018095e-02  -2.92611495e-02   2.99227256e-02  -8.69849250e-02
    2.01645046e-01   6.94940507e-04   1.16203569e-01  -1.36487350e-01
   -1.11306518e-01   3.02956253e-03   9.12533794e-03  -4.02592495e-02
    2.19164222e-01  -2.36270532e-01   2.15140671e-01   4.22623605e-02]
 [  5.09291701e-02  -2.91760135e-02   2.99358275e-02  -8.66229609e-02
    2.01321647e-01   7.49220548e-04   1.15590870e-01  -1.36259422e-01
   -1.11128815e-01   3.07227392e-03   9.32557601e-03  -4.02579084e-02
    2.18465045e-01  -2.35496625e-01   2.14711666e-01   4.23842855e-02]
 [  5.08999601e-02  -2.92018782e-02   2.98196059e-02  -8.68200734e-02
    2.01480702e-01   8.20519286e-04   1.15797490e-01  -1.36291921e-01
   -1.11220852e-01   3.09220701e-03   9.09719430e-03  -4.03325781e-02
    2.18856484e-01  -2.35860094e-01   2.14898795e-01   4.22760099e-02]
 [  5.09181544e-02  -2.90661845e-02   2.98014525e-02  -8.66293311e-02
    2.01357573e-01   7.31834501e-04   1.15670927e-01  -1.36338487e-01
   -1.11143038e-01   3.09343659e-03   9.07917414e-03  -4.01959457e-02
    2.18464687e-01  -2.35486850e-01   2.14796692e-01   4.23203334e-02]
 [  5.07804863e-02  -2.89577916e-02   2.98783015e-02  -8.65020156e-02
    2.01008633e-01   7.81564275e-04   1.15012340e-01  -1.36011526e-01
   -1.11032411e-01   3.14624771e-03   9.47433803e-03  -4.01810706e-02
    2.17964381e-01  -2.34907433e-01   2.14446723e-01   4.24985476e-02]
 [  5.08431457e-02  -2.91288272e-02   2.98527963e-02  -8.65744650e-02
    2.01294795e-01   7.83860567e-04   1.15464844e-01  -1.36222139e-01
   -1.11158259e-01   3.04758037e-03   9.31067206e-03  -4.01633233e-02
    2.18392253e-01  -2.35352874e-01   2.14677706e-01   4.23618555e-02]
 [  5.09907976e-02  -2.92707365e-02   2.98294649e-02  -8.69743451e-02
    2.01896593e-01   7.32018030e-04   1.16292916e-01  -1.36694267e-01
   -1.11388974e-01   3.11298692e-03   8.89563654e-03  -4.02334332e-02
    2.19415978e-01  -2.36523628e-01   2.15136871e-01   4.21464518e-02]
 [  8.34485050e-03  -1.49058821e-02  -9.99234430e-03   4.57947236e-03
    5.90967163e-02  -2.60709273e-03   1.93613041e-02  -5.01942225e-02
   -1.66957378e-02  -1.10903708e-03  -3.35307643e-02   5.38248336e-03
    3.95872220e-02  -2.41766553e-02   4.98391949e-02   2.14780666e-05]
 [  8.34600162e-03  -1.48572596e-02  -1.00466972e-02   4.58324654e-03
    5.92248701e-02  -2.59695551e-03   1.93416551e-02  -5.02419434e-02
   -1.67712271e-02  -1.13240280e-03  -3.35390158e-02   5.42253396e-03
    3.96479517e-02  -2.41805334e-02   4.97972742e-02  -1.42509025e-05]
 [  8.37199483e-03  -1.49455005e-02  -1.00567378e-02   4.57806513e-03
    5.92431873e-02  -2.56082835e-03   1.93923339e-02  -5.02467826e-02
   -1.68201122e-02  -1.18860265e-03  -3.35545391e-02   5.35181491e-03
    3.96365151e-02  -2.41570063e-02   4.98323627e-02   5.35073086e-05]
 [  8.35672207e-03  -1.49636306e-02  -1.00753512e-02   4.68706200e-03
    5.92486411e-02  -2.58554681e-03   1.93646010e-02  -5.03070951e-02
   -1.68027990e-02  -1.19952532e-03  -3.36301699e-02   5.38695417e-03
    3.96872684e-02  -2.41913442e-02   4.98523749e-02   2.74924678e-05]
 [  8.34006630e-03  -1.49401650e-02  -1.00833056e-02   4.60094493e-03
    5.92368729e-02  -2.58434587e-03   1.93620864e-02  -5.02856858e-02
   -1.67668983e-02  -1.16802659e-03  -3.36418003e-02   5.41708572e-03
    3.96952070e-02  -2.41875965e-02   4.98461053e-02   5.47218988e-05]
 [  8.38874467e-03  -1.48885874e-02  -9.97341797e-03   4.60120989e-03
    5.91625050e-02  -2.63099675e-03   1.94212422e-02  -5.02551720e-02
   -1.67382061e-02  -1.14847522e-03  -3.34758833e-02   5.38686896e-03
    3.95524018e-02  -2.41230056e-02   4.99295332e-02   6.89068256e-05]
 [  8.33784323e-03  -1.48503380e-02  -1.00207729e-02   4.55456646e-03
    5.91249615e-02  -2.60372111e-03   1.93152726e-02  -5.01920916e-02
   -1.67921782e-02  -1.12993515e-03  -3.35079059e-02   5.35518024e-03
    3.96398716e-02  -2.41988525e-02   4.98006307e-02   4.81548996e-05]
 [  8.30939040e-03  -1.48707693e-02  -1.00105973e-02   4.66240430e-03
    5.90389967e-02  -2.60329247e-03   1.92551296e-02  -5.00961579e-02
   -1.67498123e-02  -1.08678069e-03  -3.34823206e-02   5.34829358e-03
    3.95550728e-02  -2.41093952e-02   4.98219989e-02   5.69319855e-05]
 [  8.36665556e-03  -1.49064623e-02  -1.00205010e-02   4.69375541e-03
    5.91505952e-02  -2.60216440e-03   1.94322132e-02  -5.01767844e-02
   -1.67120006e-02  -1.13921962e-03  -3.35649140e-02   5.44363726e-03
    3.96390893e-02  -2.41898019e-02   4.98077534e-02   4.22111225e-05]
 [  8.34881887e-03  -1.49761578e-02  -1.00707170e-02   4.62840078e-03
    5.91670200e-02  -2.57328269e-03   1.93733033e-02  -5.02298959e-02
   -1.68034546e-02  -1.12112868e-03  -3.35849375e-02   5.36394073e-03
    3.96642014e-02  -2.41404772e-02   4.98395227e-02   4.20704964e-05]
 [  8.34809616e-03  -1.48629108e-02  -1.00833951e-02   4.59425431e-03
    5.90456799e-02  -2.56104651e-03   1.92987919e-02  -5.01335934e-02
   -1.67766772e-02  -1.15444756e-03  -3.35225239e-02   5.38923871e-03
    3.95509228e-02  -2.41462048e-02   4.96688411e-02   2.53758590e-05]
 [  8.36336054e-03  -1.48686571e-02  -9.99248307e-03   4.58773691e-03
    5.89681603e-02  -2.58773239e-03   1.92547515e-02  -5.00780381e-02
   -1.66843794e-02  -1.10873277e-03  -3.34398374e-02   5.30879851e-03
    3.94670330e-02  -2.40703896e-02   4.97092195e-02   7.23231424e-05]
 [  8.33449326e-03  -1.48646701e-02  -9.99901537e-03   4.60243085e-03
    5.90975471e-02  -2.53939210e-03   1.93617996e-02  -5.02080880e-02
   -1.67648830e-02  -1.13656907e-03  -3.34964320e-02   5.37127070e-03
    3.95642072e-02  -2.42026504e-02   4.97186556e-02   6.90427260e-05]
 [  8.33210535e-03  -1.48949623e-02  -1.00430790e-02   4.59355302e-03
    5.91432899e-02  -2.60283705e-03   1.93907488e-02  -5.01993410e-02
   -1.68058332e-02  -1.18036312e-03  -3.35598849e-02   5.40422462e-03
    3.96485142e-02  -2.41728462e-02   4.97916900e-02   1.35611317e-05]
 [  8.33651517e-03  -1.48688015e-02  -1.00023625e-02   4.59456630e-03
    5.90981245e-02  -2.57146917e-03   1.92540009e-02  -5.00457026e-02
   -1.68148931e-02  -1.10007648e-03  -3.34845074e-02   5.34651149e-03
    3.95436659e-02  -2.40890682e-02   4.98103797e-02   5.17915105e-05]
 [  8.30284972e-03  -1.49485935e-02  -1.01699755e-02   4.58378857e-03
    5.91744632e-02  -2.53480463e-03   1.93620790e-02  -5.02629951e-02
   -1.68285146e-02  -1.16647000e-03  -3.35541405e-02   5.29346755e-03
    3.96123268e-02  -2.41591986e-02   4.98028472e-02  -2.78907719e-05]
 [ -7.42741227e-02  -4.36156809e-01   3.08554828e-01   4.76097256e-01
    2.36739144e-01   1.91280186e-01   6.71559125e-02  -4.40622240e-01
   -4.59541678e-01  -7.69646242e-02   8.33436489e-01   4.68697876e-01
    4.37822156e-02   1.93637013e-01  -3.03699821e-01   2.21919250e-02]
 [  9.39244986e-01  -6.57971025e-01  -2.60384940e-02   5.77919662e-01
    5.37553906e-01   1.74679041e-01   8.33770275e-01  -7.69275427e-01
   -8.43633711e-01  -5.87053597e-01   1.31661147e-01  -1.56384408e-01
   -2.18091235e-01   3.96585375e-01  -5.24996817e-01  -2.42883898e-02]
 [  4.66790140e-01  -2.30574131e-01   6.93278909e-02   4.24451172e-01
    7.09123373e-01   1.44422380e-02  -4.52656485e-02  -3.74967963e-01
    2.28227507e-02  -3.12658280e-01   7.67773716e-03  -8.36722776e-02
   -4.42350715e-01  -3.77316028e-02   1.35146126e-01   1.03812963e-01]
 [ -1.30625963e-01  -2.90767580e-01   8.74306783e-02  -4.72455919e-01
    4.03272241e-01   1.43126354e-01   4.72119778e-01  -4.21905190e-01
   -4.88576651e-01  -1.95450693e-01  -6.05425537e-02   2.17859372e-02
    3.91529948e-02   6.68503530e-03  -1.57415554e-01   2.83472594e-02]
 [ -2.30234459e-01   2.47397684e-02  -5.70161283e-01   2.40894798e-02
    2.13510603e-01   4.08039004e-01  -2.12388262e-01  -3.45232606e-01
    1.56731591e-01  -2.04085838e-02  -2.93456346e-01   1.83206111e-01
   -1.75184280e-01   2.58938491e-01   1.32692397e-01  -3.40985022e-02]
 [  4.36429530e-02  -4.07407433e-01  -1.61408689e-02   5.80845416e-01
    5.27646005e-01  -9.69425887e-02  -3.40910435e-01  -2.63132393e-01
   -3.79985958e-01   2.34062932e-02   1.98883370e-01   4.41752464e-01
   -3.05622905e-01   8.54631811e-02  -6.28565669e-01  -1.26611054e-01]
 [ -3.96698713e-02  -1.26959488e-01   2.36259364e-02   2.80717552e-01
    2.43757024e-01   2.09705845e-01  -1.66945681e-01  -3.70126486e-01
   -2.98066050e-01  -5.50872348e-02   6.32358715e-02   4.23063226e-02
   -2.80465901e-01   1.61745343e-02  -3.05137597e-02  -7.20206738e-01]
 [ -3.37959230e-01  -2.22331569e-01  -5.86763062e-02   3.19734752e-01
    1.51743114e-01   9.73180085e-02   1.00935459e-01   3.40063721e-02
   -9.05033723e-02  -1.35577142e-01  -1.06210433e-01  -4.66458350e-02
   -5.53259030e-02   2.15267614e-01  -1.40230373e-01  -7.22763420e-04]
 [ -5.72260693e-02   6.52129725e-02  -1.17887765e-01   8.72811139e-01
    3.19110036e-01   2.18878984e-01  -8.53626579e-02  -1.72247410e-01
    4.97199535e-01   1.26040578e-01  -9.21768602e-03   3.29538286e-01
   -3.26197594e-01   9.15588811e-02   5.47436662e-02  -1.28717899e-01]
 [  2.22711802e-01  -3.41527313e-01  -7.98009783e-02   4.37807329e-02
    1.39634565e-01   2.47423217e-01   1.28096536e-01  -2.47430772e-01
   -2.71481812e-01  -5.14188148e-02   9.07617137e-02   1.79245874e-01
   -1.35356739e-01   4.34764236e-01  -3.18078212e-02   5.22576226e-03]
 [ -8.95429924e-02  -1.67877704e-01   2.27269324e-04   7.73280144e-01
    5.13005018e-01   2.16083929e-01   4.06190246e-01  -5.56040406e-01
   -6.34416461e-01  -1.49966821e-01   1.10191755e-01   9.81175900e-02
   -2.57748604e-01   1.99120879e-01  -1.87753975e-01  -4.00902005e-03]
 [  3.96166980e-01  -3.31792086e-02   1.33652642e-01   1.68276057e-01
    4.73235756e-01  -6.91822246e-02   5.49119353e-01  -5.84846199e-01
   -2.54697114e-01  -3.53226990e-01   4.88476306e-02  -4.79877647e-03
    4.32648897e-01   2.84755945e-01   9.85629018e-03   1.44610023e-02]
 [  8.83039013e-02  -6.37994289e-01   6.65720180e-02   1.37318447e-01
    2.79299527e-01  -1.90676339e-02  -3.95734310e-01  -2.70274609e-01
   -1.04971394e-01  -1.15778185e-01  -1.32992491e-02  -4.36646938e-02
    7.27166981e-02   1.52583510e-01   1.27046749e-01  -1.59539822e-02]
 [ -3.06927841e-02  -6.10417843e-01   2.19344422e-01   3.36857885e-01
    1.73562422e-01   1.81528226e-01  -9.31227028e-01  -7.04084933e-01
   -2.70880580e-01  -1.47702187e-01   4.56609167e-02  -1.21620975e-01
   -6.22810125e-01   3.00185621e-01  -3.44201148e-01  -2.13209257e-01]
 [ -2.23420821e-02  -4.87033963e-01   9.29397810e-03  -1.13089435e-01
    2.17238948e-01   8.65266383e-01  -8.93169641e-02  -6.48398221e-01
    1.71185166e-01   1.56153068e-01  -4.25070189e-02  -3.59008983e-02
    3.22129637e-01   8.84892941e-02   6.52075335e-02  -2.62665469e-03]
 [ -8.55394527e-02  -1.80089191e-01   2.60571092e-02   8.05626884e-02
    7.23676860e-01   1.57027356e-02   1.07543565e-01  -5.29291987e-01
   -2.65647978e-01  -1.05192170e-01   1.07034922e-01  -1.08700678e-01
   -4.59159464e-01   1.31985679e-01  -2.48769417e-01  -1.57668553e-02]]
Bob
[[  2.08916739e-02   1.03417024e-01  -1.30046799e-04   1.15980938e-01
   -7.50252381e-02   1.22094620e-02   2.66267024e-02   2.09007561e-01
   -5.35275005e-02   2.27311701e-01   1.27192304e-01   2.25228816e-01
    3.44837569e-02   5.60502559e-02  -2.24061087e-01  -2.09755659e-01]
 [  2.07986142e-02   1.03437074e-01  -1.58492403e-04   1.16226070e-01
   -7.52478987e-02   1.22055532e-02   2.70289090e-02   2.09281370e-01
   -5.35173416e-02   2.27693036e-01   1.27259746e-01   2.25349471e-01
    3.45272608e-02   5.61773367e-02  -2.24449500e-01  -2.09825158e-01]
 [  2.07201969e-02   1.03370510e-01  -1.11461246e-04   1.16121560e-01
   -7.51274154e-02   1.22523420e-02   2.69048624e-02   2.09056571e-01
   -5.35319410e-02   2.27423206e-01   1.27242014e-01   2.25196525e-01
    3.43921445e-02   5.61605319e-02  -2.24277452e-01  -2.09595412e-01]
 [  2.07311921e-02   1.03482656e-01  -1.24960512e-04   1.16109036e-01
   -7.50623271e-02   1.22161889e-02   2.70110965e-02   2.09159210e-01
   -5.35859354e-02   2.27681831e-01   1.27262503e-01   2.25322902e-01
    3.46021578e-02   5.61956018e-02  -2.24270076e-01  -2.09711224e-01]
 [  2.08113324e-02   1.03468530e-01  -1.49681393e-04   1.16121523e-01
   -7.51959160e-02   1.22098485e-02   2.66825929e-02   2.09129259e-01
   -5.35924509e-02   2.27530092e-01   1.27346754e-01   2.25440338e-01
    3.44077051e-02   5.60725294e-02  -2.24213332e-01  -2.09808335e-01]
 [  2.07647439e-02   1.03459470e-01  -1.49363914e-04   1.15992114e-01
   -7.48589262e-02   1.22027658e-02   2.65071727e-02   2.09123790e-01
   -5.34552149e-02   2.27398559e-01   1.27169847e-01   2.25257471e-01
    3.44336294e-02   5.60526885e-02  -2.24144697e-01  -2.09881797e-01]
 [  2.07633749e-02   1.03481926e-01  -1.81904921e-04   1.16008379e-01
   -7.51521289e-02   1.22486660e-02   2.68941540e-02   2.09067971e-01
   -5.35048880e-02   2.27493495e-01   1.27202570e-01   2.25272253e-01
    3.45023237e-02   5.62167354e-02  -2.24205241e-01  -2.09683135e-01]
 [  2.07598601e-02   1.03414916e-01  -1.64390440e-04   1.16126835e-01
   -7.50478730e-02   1.22924717e-02   2.66894717e-02   2.09098577e-01
   -5.35466373e-02   2.27480993e-01   1.27210140e-01   2.25258633e-01
    3.44497412e-02   5.61672971e-02  -2.24169344e-01  -2.09745616e-01]
 [  2.07941569e-02   1.03371255e-01  -1.80999123e-04   1.16166949e-01
   -7.52910972e-02   1.22053800e-02   2.71753483e-02   2.08933398e-01
   -5.35996184e-02   2.27654517e-01   1.27296910e-01   2.25335002e-01
    3.45660672e-02   5.62492423e-02  -2.24369824e-01  -2.09467024e-01]
 [  2.05113906e-02   1.03415675e-01  -1.88416248e-04   1.16175860e-01
   -7.53151923e-02   1.23080071e-02   2.71896608e-02   2.09119946e-01
   -5.35532460e-02   2.27743417e-01   1.27285615e-01   2.25369126e-01
    3.46422419e-02   5.63763641e-02  -2.24419579e-01  -2.09681943e-01]
 [  2.07360741e-02   1.03552185e-01  -4.33795212e-05   1.16125673e-01
   -7.50408024e-02   1.22569595e-02   2.67447643e-02   2.09358245e-01
   -5.35479784e-02   2.27580801e-01   1.27238795e-01   2.25505531e-01
    3.45168412e-02   5.61159067e-02  -2.24233210e-01  -2.10018784e-01]
 [  2.07590424e-02   1.03471749e-01  -2.28800418e-04   1.16172306e-01
   -7.51164928e-02   1.22931823e-02   2.71800533e-02   2.09350318e-01
   -5.36022149e-02   2.27831826e-01   1.27243131e-01   2.25363269e-01
    3.46060246e-02   5.62312305e-02  -2.24398300e-01  -2.09827244e-01]
 [  2.07555536e-02   1.03357047e-01  -1.38920528e-04   1.15933783e-01
   -7.49536082e-02   1.22477254e-02   2.67607961e-02   2.08883673e-01
   -5.34787253e-02   2.27373496e-01   1.27069205e-01   2.25020334e-01
    3.44561711e-02   5.61601631e-02  -2.24183068e-01  -2.09530130e-01]
 [  2.10142620e-02   1.03401378e-01  -2.22912917e-04   1.16007745e-01
   -7.48403221e-02   1.21821538e-02   2.64634192e-02   2.09051788e-01
   -5.35567328e-02   2.27263540e-01   1.27159089e-01   2.25166246e-01
    3.43521759e-02   5.58753498e-02  -2.24038914e-01  -2.09752828e-01]
 [  2.07760502e-02   1.03504270e-01  -2.23613693e-04   1.16020046e-01
   -7.50573426e-02   1.21946922e-02   2.67222188e-02   2.09216818e-01
   -5.35188839e-02   2.27569655e-01   1.27171502e-01   2.25367010e-01
    3.45199183e-02   5.60550503e-02  -2.24213704e-01  -2.09953830e-01]
 [  2.04488542e-02   1.03566557e-01  -1.44033707e-04   1.16279304e-01
   -7.52786547e-02   1.22826733e-02   2.73663998e-02   2.09280550e-01
   -5.35434484e-02   2.27897123e-01   1.27305031e-01   2.25462213e-01
    3.47560197e-02   5.64665385e-02  -2.24600136e-01  -2.09793016e-01]
 [  6.04375440e-04   2.45346092e-02  -2.31425893e-05   9.41955578e-03
    4.05962724e-04  -2.44667346e-04   2.00989180e-05   4.56890762e-02
   -3.84067069e-04   2.98886523e-02   2.10433919e-03   2.75894552e-02
   -5.50932346e-05  -5.83243418e-05  -3.42586674e-02  -4.82217781e-02]
 [  5.72971243e-04   2.45070625e-02   2.48881006e-05   9.51288734e-03
    3.90936650e-04  -2.23993746e-04   1.00094883e-04   4.57075052e-02
   -3.63584521e-04   2.99164280e-02   2.12821155e-03   2.76036542e-02
   -1.73654753e-05  -2.49401146e-05  -3.43160331e-02  -4.82309647e-02]
 [  5.23119932e-04   2.45193802e-02   4.49947256e-05   9.35641862e-03
    4.75473527e-04  -3.11465061e-04   7.14634589e-05   4.54966836e-02
   -3.53178417e-04   2.97184139e-02   2.13032658e-03   2.73643434e-02
   -1.00577847e-04  -1.32330897e-04  -3.40503640e-02  -4.79607470e-02]
 [  6.81307865e-04   2.46261079e-02  -1.93129799e-05   9.51756816e-03
    4.27694526e-04  -2.69139913e-04   5.59184300e-05   4.58575562e-02
   -3.98108328e-04   3.00225392e-02   2.12900667e-03   2.76474971e-02
   -3.59042278e-05  -1.01562917e-04  -3.44592556e-02  -4.84001599e-02]
 [  5.93472389e-04   2.44698767e-02  -6.43370004e-05   9.42170154e-03
    4.02934762e-04  -2.90009688e-04   7.36343864e-05   4.56958413e-02
   -4.51747852e-04   2.99147014e-02   2.09704065e-03   2.74878833e-02
   -6.00013300e-05  -3.95555071e-05  -3.43255922e-02  -4.82895114e-02]
 [  6.18499704e-04   2.44463775e-02  -4.30890177e-05   9.36928391e-03
    3.94583476e-04  -2.35597763e-04   1.44235368e-04   4.56146002e-02
   -3.99819401e-04   2.98008099e-02   2.07019737e-03   2.74907760e-02
   -2.86081849e-05  -3.59092883e-05  -3.41517553e-02  -4.81073894e-02]
 [  5.87704591e-04   2.44671404e-02  -1.19803153e-04   9.35643446e-03
    3.64670501e-04  -2.29884710e-04   1.48979219e-04   4.56770919e-02
   -4.39244352e-04   2.98554059e-02   2.03245250e-03   2.73725223e-02
   -6.28905982e-05  -4.86781501e-05  -3.42425667e-02  -4.81655411e-02]
 [  6.16144098e-04   2.45846454e-02  -7.83511932e-05   9.47643351e-03
    4.24052996e-04  -2.83399451e-04   5.75956146e-05   4.56952415e-02
   -3.17751837e-04   2.99528465e-02   2.06622644e-03   2.75962297e-02
   -4.69592087e-05  -6.43959065e-05  -3.43735591e-02  -4.83454429e-02]
 [  5.54742233e-04   2.44923793e-02  -3.36940138e-05   9.41007212e-03
    3.59214173e-04  -2.92557321e-04   1.52220746e-04   4.55512553e-02
   -3.49571666e-04   2.97878236e-02   2.06567859e-03   2.74448432e-02
   -4.37732569e-06  -1.02025057e-04  -3.42934020e-02  -4.81200777e-02]
 [  6.06324291e-04   2.45495476e-02  -5.33649036e-05   9.44970362e-03
    3.99221666e-04  -2.52027297e-04   7.52995766e-05   4.57529128e-02
   -3.88075307e-04   2.99022999e-02   2.09153653e-03   2.75048167e-02
   -8.21081267e-05  -5.40242509e-05  -3.43340971e-02  -4.82337624e-02]
 [  6.33626012e-04   2.45326404e-02  -1.25674589e-04   9.37764440e-03
    3.81729915e-04  -2.69541168e-04   1.55382353e-04   4.55843136e-02
   -3.60976963e-04   2.98932865e-02   2.08959938e-03   2.75932029e-02
    2.16622830e-05  -4.23736346e-05  -3.43000516e-02  -4.82448302e-02]
 [  5.27678581e-04   2.44895499e-02  -4.45039313e-06   9.40696523e-03
    3.89149500e-04  -3.10626463e-04   1.19322591e-04   4.55254465e-02
   -3.90855595e-04   2.98222434e-02   2.07340857e-03   2.74552573e-02
   -6.33627496e-05  -9.49268651e-05  -3.42227258e-02  -4.80722860e-02]
 [  5.25765994e-04   2.45657396e-02   3.93044247e-05   9.50639881e-03
    4.21640114e-04  -2.74880440e-04   3.35642253e-05   4.58132923e-02
   -3.46191373e-04   2.99447682e-02   2.09973170e-03   2.76597627e-02
   -6.38510173e-05  -4.86629033e-05  -3.43348794e-02  -4.83179428e-02]
 [  5.43971721e-04   2.45098323e-02  -3.60172162e-05   9.41261556e-03
    4.28378349e-04  -2.35976549e-04   4.02826117e-05   4.56272848e-02
   -3.94867879e-04   2.97879670e-02   2.11702869e-03   2.74770707e-02
   -7.05741040e-05  -7.60573748e-05  -3.41868140e-02  -4.81164865e-02]
 [  5.66282717e-04   2.44373716e-02  -1.96492892e-05   9.43970401e-03
    3.64161067e-04  -2.78381835e-04   7.99361223e-05   4.57280390e-02
   -4.09149157e-04   2.98668519e-02   2.09141336e-03   2.74941158e-02
   -2.32475468e-05  -3.46223569e-05  -3.42600457e-02  -4.82236370e-02]
 [  6.16668491e-04   2.44683586e-02  -9.28977352e-06   9.36848391e-03
    4.20565164e-04  -1.91470463e-04   1.31106295e-04   4.56393696e-02
   -4.05498926e-04   2.98960228e-02   2.13573128e-03   2.75305845e-02
   -7.87455210e-05  -2.18778132e-05  -3.42493765e-02  -4.81707081e-02]
 [ -2.96750426e-01   1.75974771e-01   2.08134577e-01  -2.43956104e-01
    3.55034828e-01   2.97342390e-01   1.13328554e-01   4.58753347e-01
   -4.35728401e-01  -4.38244969e-01  -3.72660756e-01   4.27376121e-01
   -2.88624525e-01  -2.00550705e-02  -1.80314526e-01  -4.53615606e-01]
 [ -2.78043635e-02  -7.49468654e-02   2.69482043e-02   7.17978878e-03
    1.83407277e-01   1.19415872e-01  -3.01964469e-02   5.78995168e-01
   -2.54982203e-01  -1.20754279e-01  -1.68072462e-01  -8.92027766e-02
   -9.02600680e-03   2.41138533e-01  -2.45217219e-01  -5.18672884e-01]
 [  2.47852013e-01  -2.21005410e-01   9.93859395e-02  -2.99499393e-01
    7.59666979e-01   3.61625664e-03  -2.46209130e-02   2.68161356e-01
   -4.66349125e-02  -2.16396183e-01  -4.68428805e-02  -1.68689698e-01
    1.19367257e-01   2.98888385e-01  -3.21770102e-01  -3.59448135e-01]
 [ -3.01204026e-02  -4.03310388e-01   5.86499600e-03  -4.88221556e-01
    3.07854682e-01   3.47649068e-01  -1.06744263e-02   2.19162986e-01
   -2.75629133e-01  -2.51496106e-01  -3.97569329e-01  -8.79845321e-02
    6.02664240e-02  -2.29801804e-01   1.84671432e-01   3.05624343e-02]
 [  6.63729832e-02   8.73761326e-02   6.36203587e-02   3.93701345e-02
   -5.45276478e-02   4.34351623e-01   1.55323343e-02   1.95618942e-01
   -3.06985676e-01   7.75540154e-03  -1.31903335e-01  -6.23585135e-02
    3.49546447e-02  -1.33041665e-01   2.75312036e-01  -3.23414594e-01]
 [  1.90086644e-02  -1.17756397e-01   2.28514254e-01  -3.86212356e-02
   -9.25132856e-02  -5.00746369e-01  -4.39980179e-02   2.76890814e-01
   -2.49702513e-01   2.24309802e-01   4.15514737e-01   4.17985946e-01
   -8.94207582e-02   3.01732421e-02   3.98321301e-01  -1.98737815e-01]
 [  4.18859720e-02   2.68430918e-01   4.52672839e-01   3.53689671e-01
    6.38267398e-02   1.85888737e-01  -2.37055216e-02   3.34907085e-01
   -3.76776755e-01  -1.03991451e-02   1.78928167e-01   5.44345796e-01
   -2.23081410e-02   9.90966737e-01  -4.89190727e-01  -5.06609917e-01]
 [  4.02682573e-02   8.96538645e-02   1.01798564e-01   1.54722020e-01
    4.85692956e-02  -2.81334901e-03  -6.36961916e-03   4.23130184e-01
   -1.31501034e-01  -2.27245644e-01   3.99974138e-01   5.97729325e-01
    1.42928837e-02   3.95270079e-01  -2.91632414e-01  -5.47140419e-01]
 [  6.05481640e-02   1.80321455e-01   3.01131099e-01   2.27320194e-01
   -9.76908356e-02   1.72847122e-01   3.56545150e-02   6.15593135e-01
   -1.32987773e+00  -2.42379755e-01   2.27551848e-01   8.94542217e-01
    2.96775084e-02   2.25469470e-01  -1.51973918e-01  -4.47512388e-01]
 [ -5.23669906e-02  -3.96819860e-02   6.28855884e-01  -1.58383772e-01
    3.68203968e-02   1.51477426e-01   7.22488165e-02   6.32944286e-01
   -3.26828301e-01  -1.46370202e-01  -9.88121480e-02   8.87690187e-02
   -2.41089359e-01   3.77404690e-01  -2.53115147e-01  -4.95539516e-01]
 [ -7.78741300e-01  -6.71013445e-02   9.06895846e-02   4.74379137e-02
   -1.19929455e-01  -1.11680999e-02  -4.43037637e-02   3.73810500e-01
   -5.38226128e-01  -3.44300598e-01   4.98287350e-01   6.64826512e-01
   -8.61393735e-02   2.87658453e-01  -3.80246013e-01  -6.10145807e-01]
 [  5.44646457e-02  -4.68564183e-01  -8.09384286e-02  -4.42501158e-01
   -2.47245142e-03   1.67784095e-01  -1.10264808e-01   1.39146522e-02
   -2.13758618e-01  -2.85184532e-01  -6.90872431e-01   5.75130209e-02
   -4.00176883e-01   1.95220783e-01   6.59938157e-02  -1.89227611e-01]
 [ -7.69375414e-02  -4.19687144e-02   6.89070895e-02   8.71401802e-02
   -1.68279130e-02   7.35843539e-01   2.03144103e-02   7.21388876e-01
   -1.40016779e-01  -4.37602580e-01   7.18033090e-02   8.26289296e-01
   -2.18425393e-02   2.24702701e-01  -1.32172897e-01  -5.16484320e-01]
 [  9.70616639e-02   2.11935833e-01   1.72214076e-01   3.08921635e-02
   -3.12493108e-02  -1.89761043e-01   3.55526339e-03   2.85694063e-01
   -4.64077257e-02  -5.18538177e-01   1.15017824e-01   2.63313860e-01
    2.31198631e-02   3.53996903e-01  -5.52113652e-01  -3.29150975e-01]
 [ -2.78759096e-02  -1.72795832e-01   1.04952611e-01   1.89437181e-01
    8.52088854e-02  -8.32356885e-02  -3.41366380e-02   3.99065971e-01
   -8.68846551e-02   1.93677489e-02  -7.74151683e-01   1.56039983e-01
   -3.31106894e-02   8.21852535e-02  -1.44224793e-01  -5.81322312e-01]
 [ -7.89723992e-02  -3.30980688e-01   1.67389348e-01  -2.48668224e-01
    2.29824930e-01   2.99038708e-01  -6.41292572e-01   4.79896605e-01
   -4.39040899e-01  -1.67678565e-01  -1.57601804e-01   1.22512020e-01
   -2.27923870e-01   1.65272415e-01  -1.53674051e-01  -4.15134490e-01]]
Eve
[[  2.22202763e-01   9.10347819e-01   3.63222569e-01  -1.39780894e-01
   -4.80494559e-01   1.40201002e-01  -3.04819494e-01  -4.95459467e-01
    4.25283223e-01  -1.22941174e-01  -1.08449124e-01   1.02608530e-02
   -5.55695534e-01  -2.58349657e-01  -1.94166541e-01  -3.08331996e-01]
 [  2.23487228e-01   9.06246722e-01   3.62824172e-01  -1.40615761e-01
   -4.81910676e-01   1.39977247e-01  -3.04962546e-01  -4.96537149e-01
    4.24535125e-01  -1.22777067e-01  -1.09210633e-01   1.01102311e-02
   -5.56625247e-01  -2.59825438e-01  -1.94543049e-01  -3.08236688e-01]
 [  2.22047672e-01   9.11325634e-01   3.63528550e-01  -1.40565246e-01
   -4.80498910e-01   1.40094593e-01  -3.04814607e-01  -4.95204926e-01
    4.24852192e-01  -1.23674408e-01  -1.09227873e-01   9.91406478e-03
   -5.55968344e-01  -2.59132028e-01  -1.94715977e-01  -3.08955967e-01]
 [  2.22752094e-01   9.09567952e-01   3.62105370e-01  -1.39994994e-01
   -4.81363297e-01   1.39709532e-01  -3.04577857e-01  -4.96650189e-01
    4.25411224e-01  -1.22359730e-01  -1.09476253e-01   1.02290865e-02
   -5.55815578e-01  -2.58734733e-01  -1.94796249e-01  -3.07354510e-01]
 [  2.22620398e-01   9.10251439e-01   3.62859994e-01  -1.39581546e-01
   -4.80697423e-01   1.40537784e-01  -3.05190831e-01  -4.95650202e-01
    4.25308704e-01  -1.23244703e-01  -1.08951613e-01   1.00145731e-02
   -5.56162477e-01  -2.58231759e-01  -1.95185870e-01  -3.08726490e-01]
 [  2.22116202e-01   9.10980165e-01   3.62447053e-01  -1.40168518e-01
   -4.81292814e-01   1.40796944e-01  -3.04368198e-01  -4.96699005e-01
    4.25142318e-01  -1.22847818e-01  -1.08900912e-01   1.00633157e-02
   -5.56406558e-01  -2.58016735e-01  -1.94972515e-01  -3.07950914e-01]
 [  2.22144455e-01   9.11636591e-01   3.62918139e-01  -1.40264824e-01
   -4.81190234e-01   1.40662760e-01  -3.04680794e-01  -4.95733380e-01
    4.25258547e-01  -1.22707486e-01  -1.09462403e-01   1.02097047e-02
   -5.55733025e-01  -2.59143144e-01  -1.94701210e-01  -3.08422595e-01]
 [  2.23068178e-01   9.07973111e-01   3.62962961e-01  -1.39955774e-01
   -4.80520546e-01   1.40603960e-01  -3.04030329e-01  -4.96574789e-01
    4.24710035e-01  -1.22858994e-01  -1.08828537e-01   1.01250820e-02
   -5.55872798e-01  -2.59047508e-01  -1.94489136e-01  -3.08189929e-01]
 [  2.22771496e-01   9.09457803e-01   3.62789899e-01  -1.39423668e-01
   -4.80900556e-01   1.39467016e-01  -3.04643273e-01  -4.95667279e-01
    4.25271600e-01  -1.22845516e-01  -1.10130280e-01   1.01427576e-02
   -5.56568801e-01  -2.59791225e-01  -1.95034876e-01  -3.08087349e-01]
 [  2.22623765e-01   9.08723176e-01   3.63461584e-01  -1.39952257e-01
   -4.80976313e-01   1.40816689e-01  -3.05340588e-01  -4.96541917e-01
    4.25526947e-01  -1.23148091e-01  -1.10604756e-01   1.03743859e-02
   -5.57451308e-01  -2.58583367e-01  -1.95563808e-01  -3.08811843e-01]
 [  2.22092256e-01   9.06619310e-01   3.62385660e-01  -1.40466377e-01
   -4.80723798e-01   1.40702933e-01  -3.03821236e-01  -4.95413542e-01
    4.24135387e-01  -1.22647993e-01  -1.08779371e-01   1.01664262e-02
   -5.55444360e-01  -2.58114338e-01  -1.94314569e-01  -3.07584226e-01]
 [  2.23293409e-01   9.06967938e-01   3.63788098e-01  -1.40405655e-01
   -4.81561422e-01   1.40163004e-01  -3.05677652e-01  -4.96588856e-01
    4.25248504e-01  -1.23571776e-01  -1.09920137e-01   1.03324642e-02
   -5.56738913e-01  -2.59063840e-01  -1.94491014e-01  -3.09152693e-01]
 [  2.22309917e-01   9.09388661e-01   3.62087905e-01  -1.39889255e-01
   -4.80724156e-01   1.39657572e-01  -3.04371744e-01  -4.96227771e-01
    4.24591601e-01  -1.22269720e-01  -1.09119736e-01   1.02272136e-02
   -5.56006074e-01  -2.58557171e-01  -1.94480732e-01  -3.07888895e-01]
 [  2.22977206e-01   9.11975741e-01   3.62205416e-01  -1.40749231e-01
   -4.80091453e-01   1.41019762e-01  -3.03957462e-01  -4.93623704e-01
    4.25636351e-01  -1.23105161e-01  -1.07863672e-01   1.00009106e-02
   -5.54880977e-01  -2.57136077e-01  -1.94740906e-01  -3.08250666e-01]
 [  2.22031236e-01   9.10837114e-01   3.61696631e-01  -1.40223786e-01
   -4.81221557e-01   1.40229970e-01  -3.03386658e-01  -4.95891422e-01
    4.24970031e-01  -1.21944979e-01  -1.08799174e-01   1.01860408e-02
   -5.55457771e-01  -2.59171069e-01  -1.93764821e-01  -3.06819320e-01]
 [  2.23703682e-01   9.06303883e-01   3.64011168e-01  -1.40011728e-01
   -4.82130229e-01   1.40387058e-01  -3.05625141e-01  -4.97081608e-01
    4.24892545e-01  -1.22856848e-01  -1.10738218e-01   1.04682995e-02
   -5.56580007e-01  -2.60149717e-01  -1.95239931e-01  -3.09142590e-01]
 [  2.80456185e-01   6.06884837e-01   3.85063529e-01   5.00787348e-02
   -7.12502956e-01   2.79541492e-01   1.39040738e-01  -4.94343281e-01
    7.86439061e-01   6.71828017e-02  -2.99165666e-01  -2.77929425e-01
   -8.01757157e-01  -8.83793354e-01   6.69387579e-01  -4.39923912e-01]
 [  1.72496796e-01   5.43959379e-01   1.89497635e-01  -3.13432753e-01
   -7.31239498e-01   3.21673423e-01  -3.08122873e-01  -1.17073298e+00
    5.60268283e-01  -1.70662686e-01  -4.49380487e-01  -1.39635667e-01
   -1.06448281e+00  -8.85761201e-01  -9.77886841e-02  -5.47144055e-01]
 [ -4.86776605e-02   6.12760842e-01   5.81615753e-02  -1.52113326e-02
    1.39752015e-01  -4.12461273e-02  -2.65598387e-01   4.72248435e-01
   -5.37158787e-01   2.92239357e-02   9.05292928e-01   4.73449618e-01
    3.91773552e-01   3.14684212e-01   3.92687321e-02   2.14098603e-01]
 [ -3.02022934e-01  -1.93594471e-01  -6.14872813e-01   7.93659687e-01
   -2.88055509e-01  -8.71209621e-01   8.64474237e-01  -2.78622378e-02
   -2.88419873e-01   1.27331972e-01   6.24368966e-01   2.63501436e-01
    5.37564814e-01  -4.62157249e-01   6.26731753e-01   7.25639522e-01]
 [ -1.25243679e-01   3.81659329e-01   1.53633431e-01  -8.14302713e-02
   -7.98150122e-01   1.23067498e-01  -2.99241155e-01  -1.36813577e-02
    4.22207177e-01  -4.00568217e-01  -1.57559142e-01  -2.30497159e-02
   -7.36977339e-01   2.38970861e-01   5.81187069e-01  -1.20204486e-01]
 [  6.53757334e-01   6.97011292e-01   5.18846333e-01  -3.61645371e-02
   -7.50344455e-01  -4.55889046e-01  -1.61492869e-01  -9.44692254e-01
    7.09816277e-01  -3.03491682e-01  -3.80691350e-01   2.78651208e-01
   -1.08938527e+00  -4.19566929e-01  -3.90441298e-01  -4.71487433e-01]
 [  3.98103267e-01   6.73650920e-01   6.73173845e-01  -6.45327747e-01
   -2.34930202e-01   4.07958865e-01  -1.40439308e+00  -2.20027685e-01
    6.32742941e-01  -6.50373936e-01  -2.84884889e-02   6.01631682e-03
   -1.12465429e+00   2.96304464e-01  -2.60636806e-01  -8.61130714e-01]
 [  2.03706205e-01   1.50198781e+00   1.02965224e+00  -4.38345522e-01
    7.00097322e-01   6.52620971e-01  -1.18141103e+00   6.53507769e-01
    4.82689619e-01  -3.59755993e-01   6.01588190e-01   3.53012532e-02
   -9.97516870e-01   2.03162432e-01  -5.00863254e-01  -1.10647631e+00]
 [  3.29865009e-01   7.86887467e-01   9.73958492e-01  -5.82252383e-01
   -2.66403586e-01   3.27875227e-01  -8.08032393e-01  -4.41836774e-01
    1.77716136e+00  -3.77268702e-01  -1.44448876e-03  -1.41038790e-01
   -1.06743920e+00   9.18448716e-02  -3.31383288e-01  -8.37565601e-01]
 [  2.04883844e-01   2.32115224e-01   1.33480549e-01  -1.40432611e-01
   -4.76125509e-01   1.49338290e-01  -4.75005031e-01  -3.22244108e-01
    4.40791488e-01  -7.02129006e-02   4.11498606e-01  -1.13759317e-01
   -4.97708142e-01   2.16707781e-01   1.75004765e-01  -2.02855393e-01]
 [  1.00082326e+00   1.42074442e+00   1.02754545e+00  -6.01876438e-01
   -1.25257373e+00   6.45781159e-01  -5.22692502e-01  -1.63488066e+00
    1.33412123e+00  -5.52857220e-01  -1.03780377e+00  -9.34569612e-02
   -1.55156577e+00  -8.23751569e-01  -6.51853085e-01  -1.19622767e+00]
 [ -8.67759585e-02   6.55555129e-01  -4.61915940e-01   4.40700799e-01
    1.57873109e-01  -6.81032062e-01   3.78607064e-01   6.66021585e-01
   -2.86535770e-01   5.51163480e-02   8.35694969e-01   2.07844630e-01
    7.16309428e-01   5.24113663e-02   3.55005503e-01   9.82740298e-02]
 [  5.62904000e-01   1.08010709e+00   8.19685400e-01   2.74706935e-03
    1.24696366e-01   3.23660016e-01  -3.70594561e-01   4.14335169e-02
    1.25213087e-01   3.62225287e-02   7.60626644e-02  -9.09752771e-02
   -5.59054434e-01  -2.96026707e-01   1.37208298e-01  -6.28606558e-01]
 [  3.57000649e-01   1.05155945e+00  -3.94126773e-01   1.77497566e-01
    2.08176196e-01   8.17523673e-02  -1.41166061e-01   1.04273289e-01
   -1.73619464e-01  -1.07939661e-01   2.16552481e-01  -3.00449226e-02
   -3.57185245e-01   3.72340262e-01  -4.48647374e-03   2.04568282e-01]
 [  4.84793149e-02  -1.85822517e-01   1.10051975e-01  -5.16998589e-01
   -5.17965436e-01  -7.08438307e-02   1.42809644e-01  -5.45140088e-01
    1.88040599e-01  -3.94120552e-02  -5.85545674e-02   1.06622428e-01
   -5.64064264e-01   8.56006593e-02   1.20042622e+00  -3.19449484e-01]
 [ -3.14087085e-02   5.90181589e-01  -3.41868699e-01  -4.50275056e-02
   -2.33598456e-01  -3.72860730e-01  -1.17341295e-01  -4.12843227e-01
    2.39424288e-01   6.55464232e-02   5.36706984e-01  -1.99155688e-01
   -9.46424305e-02  -4.12629604e-01   1.74812093e-01  -6.04054481e-02]
 [  4.16848779e-01   5.86149037e-01   4.58360940e-01  -2.20609307e-01
   -7.98991084e-01  -1.45517319e-01  -1.67429641e-01  -6.95900917e-01
    4.23251092e-01  -1.78367510e-01   4.54289883e-01  -3.89492005e-01
   -5.84362745e-01  -3.93952757e-01  -3.39099854e-01  -3.19800645e-01]
 [  9.18391228e-01   8.37928414e-01   9.64833677e-01  -4.56556916e-01
   -3.42746139e-01   6.14847124e-01  -8.29624712e-01  -3.15870315e-01
    1.16651559e+00  -6.96200848e-01  -2.31451198e-01   1.87265910e-02
   -9.49645460e-01  -3.78253870e-04  -3.97082388e-01  -9.24086332e-01]
 [  6.31514564e-02   2.16961414e-01   1.52027860e-01  -2.26820141e-01
   -5.07252455e-01   6.22557141e-02  -7.01495886e-01  -5.29880464e-01
    3.35739136e-01  -3.69047552e-01   2.70358175e-01  -2.12036997e-01
   -5.61725378e-01  -1.72055066e-01  -3.41389924e-01  -2.40014270e-01]
 [ -2.10018814e-01   3.76767755e-01   6.28863752e-01   2.96778232e-01
   -4.48774248e-01   5.70363224e-01  -5.00089407e-01  -3.11109871e-01
    8.92040610e-01  -2.01812163e-01  -8.47404376e-02   3.99293676e-02
   -7.04451263e-01   9.63347778e-02  -2.87030756e-01  -5.84875703e-01]
 [ -4.71471548e-01  -3.15341912e-02  -3.48676503e-01  -2.01635629e-01
   -2.61138869e-03  -3.51771802e-01   3.20760399e-01  -1.75009474e-01
   -2.23171949e-01   3.63786697e-01   4.90251482e-01  -6.00010110e-03
    3.53289634e-01  -1.64981216e-01   6.80133924e-02   6.48188829e-01]
 [  4.59799737e-01   1.14678895e+00   6.95520267e-02   5.70433363e-02
   -3.75286460e-01  -5.16332090e-02  -1.57505542e-01  -4.55833852e-01
    3.91154557e-01   1.68555945e-01   1.82209127e-02  -4.23217386e-01
   -5.74539900e-01  -5.82279801e-01   1.69459611e-01  -4.44186836e-01]
 [ -2.62207035e-02   7.31343329e-01  -2.10894257e-01  -2.09761769e-01
    7.03599527e-02  -2.61929899e-01   3.66733298e-02  -4.75728929e-01
    2.31885910e-01   2.54811216e-02   1.71957403e-01  -4.96273953e-03
   -1.35569111e-01  -2.20915869e-01  -2.05546394e-01  -2.46899817e-02]
 [ -3.57476145e-01   6.54200435e-01   4.85125482e-02  -4.12670314e-01
   -8.45613599e-01  -4.79534775e-01   3.38439457e-02  -9.03032064e-01
    1.50471613e-01  -2.68720865e-01  -1.09780893e-01   5.89348786e-02
   -4.18507874e-01   3.98180664e-01  -7.26062357e-02  -3.89082819e-01]
 [ -2.89433837e-01   6.70832872e-01  -5.47661722e-01  -1.37288481e-01
   -4.46413517e-01  -2.89767087e-01   2.43351627e-02  -7.12347627e-01
   -2.42182508e-01  -8.29001665e-02   3.98941934e-01  -3.56286079e-01
    1.03789426e-01  -5.71486592e-01   1.22309767e-01   9.46322456e-02]
 [  1.71155140e-01   1.12409651e+00   1.37305185e-01   8.45161080e-02
   -2.78472394e-01  -5.81896245e-01  -2.23670080e-01  -3.71036917e-01
    3.15345466e-01  -2.90921450e-01  -6.03997000e-02   2.61820197e-01
   -3.41444649e-02   5.49791455e-01  -1.44832298e-01  -1.73479885e-01]
 [  1.88542932e-01   9.40646753e-02   4.10979867e-01  -6.81991220e-01
   -8.95729363e-01   5.99063516e-01  -2.67152309e-01  -8.16493571e-01
    8.05795252e-01  -2.85958916e-01  -1.24137901e-01   2.09146962e-02
   -6.43313944e-01   2.89518625e-01  -6.54342711e-01  -5.47253072e-01]
 [  1.47639930e-01   1.82278001e+00   5.50048649e-01   2.65388675e-02
   -2.56805092e-01  -5.80027923e-02  -5.19696176e-01  -2.19561279e-01
    8.72783065e-02   6.04731552e-02  -4.87230092e-01  -6.32455945e-02
   -3.38199615e-01   4.69143450e-01  -4.28046405e-01  -2.75351226e-01]
 [ -3.95854652e-01   4.69797820e-01  -9.68907624e-02   1.16863966e-01
    6.84836283e-02  -2.97397017e-01  -2.75970716e-02  -7.66527280e-02
   -1.27013505e-01  -1.24311084e-02   3.02508801e-01   5.11219442e-01
   -4.67795320e-02  -3.93879801e-01   4.01567340e-01   6.61424175e-02]
 [ -2.23977324e-02   5.96770763e-01  -3.60859364e-01   7.53088444e-02
   -1.63416728e-01  -5.79665899e-01  -2.79478401e-01   6.19128905e-02
    2.43370429e-01   1.03136547e-01   5.27660213e-02   1.95597354e-02
   -1.84935868e-01  -5.71673691e-01   3.38549197e-01   1.94489062e-01]
 [ -1.15204073e-01   2.29858086e-01  -8.77634957e-02  -2.27916062e-01
   -8.56880471e-02  -2.08786935e-01   1.59282252e-01  -6.80589259e-01
   -1.48962930e-01   1.85190275e-01   2.80978382e-01  -1.80873692e-01
    1.80825114e-01   2.46130943e-01   4.55916263e-02   2.72146702e-01]
 [ -3.65332127e-01   1.28487274e-01   2.68326759e-01  -3.43562700e-02
   -1.16044164e+00  -2.43325666e-01  -1.75571889e-01  -9.25977051e-01
    3.64368170e-01  -1.51531160e-01   1.12548895e-01  -4.20275666e-02
   -7.53418892e-04   3.90787125e-01   7.15634152e-02  -1.59539104e-01]]