Alice
[[  1.09116457e-01   1.10556034e-03   1.13604462e-03 ...,  -1.10363471e-03
    1.06730778e-03  -9.83505161e-04]
 [  1.11700684e-01   1.13479584e-03   1.18715852e-03 ...,  -1.15013588e-03
    1.15892419e-03  -1.09815679e-03]
 [  1.11828573e-01   1.11135666e-03   1.14712666e-03 ...,  -1.11374096e-03
    1.08619255e-03  -1.02561899e-03]
 ..., 
 [ -1.30246925e+00   1.44811773e+00   1.34714019e+00 ...,  -1.45863914e+00
    1.70544231e+00   1.54073381e+00]
 [ -1.27369177e+00   1.64397323e+00   1.69164538e+00 ...,  -1.44287169e+00
    1.65174615e+00   1.40973508e+00]
 [ -1.40330970e+00   1.46740127e+00   1.63984025e+00 ...,  -1.28986239e+00
    1.74287808e+00   1.40491605e+00]]
Bob
[[ -1.08907558e-03  -1.10909471e-03  -1.21262739e-03 ...,  -1.14634854e-03
   -1.16741762e-03   1.20557239e-03]
 [ -1.11872156e-03  -1.14499056e-03  -1.17791258e-03 ...,  -1.21501053e-03
   -1.15891476e-03   1.18055148e-03]
 [ -1.10704976e-03  -1.11990271e-03  -1.21209444e-03 ...,  -1.15816097e-03
   -1.15855073e-03   1.15235359e-03]
 ..., 
 [ -1.65820456e+00  -1.44606721e+00  -1.49578559e+00 ...,  -1.66203940e+00
   -1.81570590e+00   1.55611074e+00]
 [ -1.44772124e+00  -1.39103699e+00  -1.62836957e+00 ...,  -1.55270648e+00
   -1.57575953e+00   1.69492137e+00]
 [ -1.49291217e+00  -1.41490042e+00  -1.23887074e+00 ...,  -1.55398929e+00
   -1.34375238e+00   1.42164338e+00]]
Eve
[[-2.40218663 -2.44553089  2.24620533 ...,  2.23152733 -2.31975222
  -2.08870721]
 [-2.82733846 -2.97683358  3.22508597 ...,  3.10288477 -3.26725721
  -2.92512012]
 [-3.12549829 -3.08236217  2.95294547 ...,  2.97072911 -3.21571422
  -2.94935727]
 ..., 
 [-3.12678957 -2.93404007  3.13848472 ...,  3.29201579 -3.17081976
  -2.83960485]
 [-2.96046543 -2.76212049  3.00222683 ...,  2.81709099 -2.90053082
  -2.62958074]
 [-2.8759017  -3.28723502  3.16408062 ...,  3.15146875 -3.2611239
  -2.77390814]]