Alice
[[ -6.67200387e-01   7.43336231e-02   8.06445349e-03   5.45457065e-01]
 [  6.81325837e-05  -1.98035479e-01   1.70208573e-01   8.36940855e-03]
 [  1.49766856e-04   1.03489764e-03  -1.43070021e-04  -4.75671783e-04]
 [  5.76304883e-05  -4.33387607e-01   3.72330964e-01   1.84206590e-02]
 [  7.39729876e-05  -7.51338750e-02   6.45686090e-02   3.16705904e-03]
 [  1.06569772e-04  -1.01311617e-01   8.70906189e-02   4.26582247e-03]
 [  9.88500615e-05  -1.01402596e-01   8.71717185e-02   4.26393282e-03]
 [  8.19217385e-05  -1.01443663e-01   8.72180089e-02   4.24542092e-03]
 [ -3.19608569e-01   7.28047490e-01  -2.32716158e-01  -3.36866789e-02]
 [  7.62142092e-02   4.45456021e-02   9.98145878e-01  -5.91956899e-02]
 [ -1.08993566e+00  -1.63235188e-01  -2.67229885e-01   4.92674351e-01]
 [ -5.33722699e-01   3.97366881e-01   1.95703715e-01   7.73002999e-03]]
Bob
[[  5.54135084e-01  -1.17010486e-05  -9.59008992e-01  -1.21555470e-01]
 [  2.80828658e-03  -1.39185440e-05  -2.57805568e-05  -3.31935054e-03]
 [  5.90966344e-02  -1.89337487e-04  -1.31360651e-03  -7.27017671e-02]
 [  9.23737301e-04   1.54883619e-05   1.08829561e-04  -6.06159330e-04]
 [  5.47335856e-03  -2.08740676e-04  -1.28406711e-04  -6.60661003e-03]
 [  2.29037963e-02  -6.65960729e-01  -2.66087484e-02  -6.97772205e-02]
 [  5.58269816e-03  -1.24676080e-04  -1.22721598e-04  -6.81109447e-03]
 [ -2.37133959e-03  -3.33455384e-01  -1.30248573e-02  -1.82395987e-02]
 [  1.03484833e+00   5.49547262e-02  -6.99665621e-02  -5.23629561e-02]
 [ -3.58994931e-01  -1.57665372e-01  -4.73385639e-02   1.17653303e-01]
 [  3.54718477e-01  -8.44601989e-01   1.03994779e-01   1.04545021e+00]
 [  1.24813080e+00   5.71742058e-01   2.81343260e-03  -3.90139818e-01]]
Eve
[[ -1.69976127e+00  -3.45626831e-01  -1.25360942e+00   1.35688508e+00]
 [ -6.69992063e-03   3.64394076e-02   1.67659327e-01   4.01996868e-03]
 [ -1.58733413e-01  -1.29428948e-03  -2.42057983e-02   3.89225828e-03]
 [  1.73673294e-02  -1.38470322e-01   8.22623223e-02  -5.48199657e-03]
 [ -2.05782700e+00   1.50459334e-01   3.63480121e-01   4.98428762e-01]
 [ -3.00562322e-01   1.47508311e+00   1.35407031e+00   1.67816058e-01]
 [  3.14418644e-01   1.38961220e+00   1.08240294e+00  -9.26995054e-02]
 [ -1.69345009e+00  -1.86515123e-01  -8.37856591e-01   1.06636798e+00]
 [ -6.71318471e-01  -9.52758431e-01   9.35884297e-01   2.62512147e-01]
 [ -6.47182837e-02  -1.03323683e-02   2.86326027e+00  -9.48763415e-02]
 [ -1.45990622e+00   1.32193685e-01  -2.12969095e-01   6.49113238e-01]
 [ -1.95078611e-01  -1.89235139e+00   2.43851733e+00  -3.19480777e-01]]