Alice
[[ -1.20837893e-03  -1.11712687e-01   5.94150312e-02  -1.34101585e-01
   -9.65594113e-01  -1.29183888e-01   1.24104433e-01   6.91881701e-02]
 [ -1.33585138e-03  -1.11364044e-01   5.93271852e-02  -1.32705405e-01
   -9.65963125e-01  -1.28645197e-01   1.23485625e-01   6.76825792e-02]
 [ -1.20160484e-03  -1.10258631e-01   5.96851818e-02  -1.27083495e-01
   -9.64711010e-01  -1.27940908e-01   1.25514910e-01   6.08272590e-02]
 [  3.24236184e-01  -1.85457543e-01  -1.37459785e-01   3.05167943e-01
   -1.01851845e+00   1.20243683e-01  -1.44862458e-01  -1.13649450e-01]
 [ -1.34000462e-03  -1.11074306e-01   5.96375652e-02  -1.28424630e-01
   -9.64793861e-01  -1.28857017e-01   1.25474080e-01   6.16269633e-02]
 [ -1.30977808e-03  -1.10166676e-01   5.90474792e-02  -1.26176730e-01
   -9.65219617e-01  -1.28308356e-01   1.25553817e-01   5.95364347e-02]
 [ -1.20297482e-03  -1.09672487e-01   6.26403689e-02  -1.25742793e-01
   -9.64262128e-01  -1.26158193e-01   1.26214623e-01   5.80699854e-02]
 [ -1.22375484e-03  -1.10948049e-01   5.92979230e-02  -1.26586333e-01
   -9.64253247e-01  -1.28116116e-01   1.26007929e-01   5.98854460e-02]
 [ -2.71278346e-04  -2.91541871e-03   6.55651512e-03  -1.72816925e-02
   -1.11255969e-04   7.04975985e-03  -6.38078433e-03   1.82433780e-02]
 [ -2.38925684e-04  -2.97216908e-03   6.41480042e-03  -1.71011798e-02
   -9.97909010e-05   7.09706172e-03  -6.27912069e-03   1.82715748e-02]
 [ -1.45625570e-04  -3.15902987e-03   6.12823106e-03  -1.68753080e-02
   -5.38226013e-05   6.89901272e-03  -6.20393176e-03   1.79636572e-02]
 [ -2.68873235e-04  -2.97611067e-03   6.21899683e-03  -1.72031336e-02
    5.14615203e-06   6.99339062e-03  -6.34333817e-03   1.82715785e-02]
 [ -2.57517968e-04  -2.79578776e-03   6.20849757e-03  -1.70120578e-02
   -6.46602712e-05   6.96843164e-03  -6.32083416e-03   1.82546787e-02]
 [ -2.35937725e-04  -2.75570760e-03   6.22995477e-03  -1.69965103e-02
   -1.54225218e-05   6.97293878e-03  -6.25502644e-03   1.81801841e-02]
 [ -2.64837261e-04  -2.87007517e-03   6.22434774e-03  -1.72428507e-02
   -1.39563526e-05   7.12328637e-03  -6.32882863e-03   1.85399875e-02]
 [ -2.62892630e-04  -2.94742594e-03   6.12638565e-03  -1.70179941e-02
   -4.27910600e-05   7.01220101e-03  -6.20116061e-03   1.81210041e-02]
 [ -9.18351471e-01   2.09535092e-01  -4.39104289e-01  -1.19457757e+00
    1.09691396e-02  -1.10511720e+00  -1.97270691e+00   3.50104958e-01]
 [  9.26521957e-01   1.23548448e-01   7.34888554e-01  -1.04840565e+00
   -9.25685540e-02  -1.00230873e+00   4.62036222e-01   9.65453032e-03]
 [  9.27619219e-01   2.60141611e-01   2.53654957e-01  -1.15108275e+00
   -1.62569582e-02  -7.49791920e-01   3.65596861e-01  -2.83605427e-01]
 [  2.50593692e-01   1.27198803e+00   1.83802649e-01  -7.47892797e-01
    4.87168022e-02  -1.27316737e+00   4.12495136e-02  -3.30033316e-03]
 [ -6.52381241e-01   7.40113378e-01   4.73439217e-01  -1.22261071e+00
   -8.61652642e-02  -1.35572994e+00  -3.94229382e-01  -3.89922351e-01]
 [  1.61412358e-01  -2.23843008e-03   5.32938004e-01  -9.05225575e-01
   -3.10191512e-02  -6.98868692e-01   2.78210491e-01  -3.49367373e-02]
 [  5.71674585e-01   4.41953808e-01   4.70934510e-01  -1.93249512e+00
   -6.82628602e-02  -1.12935424e+00   1.78120032e-01  -2.06404790e-01]
 [  7.89897144e-01   2.78534800e-01  -3.53513539e-01  -1.01598716e+00
   -8.51000845e-02  -8.54441106e-01   4.40010071e-01  -3.56127828e-01]]
Bob
[[ -2.09042977e-04  -1.03695706e-01  -1.69778503e-02  -2.77662394e-03
   -2.07616836e-02  -9.65625346e-01   1.02750324e-01   1.22283921e-01]
 [ -2.09516409e-04  -1.03767812e-01  -1.68769117e-02  -3.14401765e-03
   -1.99790150e-02  -9.66091633e-01   1.04796767e-01   1.19335957e-01]
 [ -1.46607650e-04  -1.07484907e-01  -1.79061182e-02  -2.88067129e-03
   -1.96853336e-02  -9.64784265e-01   1.05129868e-01   1.12272516e-01]
 [ -2.87556052e-01   1.64656833e-01  -1.48093909e-01   9.47052315e-02
   -6.15782216e-02  -1.01818156e+00  -1.39382081e-02  -1.01065472e-01]
 [ -2.38651526e-04  -1.07136875e-01  -1.74014457e-02  -3.09195789e-03
   -1.90621689e-02  -9.64816689e-01   1.08475514e-01   1.12418212e-01]
 [ -2.09560967e-04  -1.07180126e-01  -1.75079759e-02  -3.08078062e-03
   -1.86742432e-02  -9.65399384e-01   1.08049378e-01   1.10786863e-01]
 [ -5.03581286e-05  -1.09262824e-01  -1.83039028e-02  -3.04615824e-03
   -1.94518361e-02  -9.64219868e-01   1.04546726e-01   1.09453253e-01]
 [ -2.03176140e-04  -1.08104184e-01  -1.79430842e-02  -3.08035058e-03
   -1.80696435e-02  -9.64286089e-01   1.10808730e-01   1.08593717e-01]
 [  3.44021770e-04   6.48217695e-03   2.47461430e-04  -8.80840991e-04
    3.70752672e-03  -2.02162628e-05   4.40897048e-03   6.51964312e-03]
 [  4.82384028e-04   6.42277393e-03   2.11341379e-04  -9.02742904e-04
    3.93011933e-03   1.16086201e-04   5.32460678e-03   5.75978123e-03]
 [  4.88016813e-04   6.54393202e-03   1.17547257e-04  -8.28724587e-04
    3.83761385e-03   1.11766247e-04   4.64942399e-03   6.22786349e-03]
 [  3.77399643e-04   6.56817341e-03   1.42461606e-04  -7.79337948e-04
    3.73308128e-03   7.29280873e-05   4.39189095e-03   6.40970515e-03]
 [  3.77586752e-04   6.43626461e-03   1.31867011e-04  -8.24282935e-04
    3.88193666e-03  -1.09388102e-05   4.89099324e-03   5.94268134e-03]
 [  4.13070346e-04   6.43148739e-03   2.22246526e-04  -6.79686898e-04
    3.78263160e-03   6.34672397e-05   4.58828593e-03   6.24008290e-03]
 [  4.19035496e-04   6.64260704e-03   2.02306619e-04  -8.71275261e-04
    3.88628501e-03  -1.48945419e-05   4.58040740e-03   6.58279890e-03]
 [  4.32452594e-04   6.36704266e-03   4.01040925e-05  -8.52519122e-04
    3.70633719e-03   9.91760098e-05   4.15191799e-03   6.37981389e-03]
 [ -6.58652842e-01  -1.42722368e+00   7.55996287e-01  -1.03542641e-01
    1.25914717e+00  -2.75971238e-02   1.31675994e+00  -1.65265530e-01]
 [  1.21984325e-01  -1.11545098e+00  -2.65258431e-01  -1.34237051e-01
   -5.44794984e-02  -1.70921590e-02   9.56815898e-01   2.72916295e-02]
 [ -2.29322538e-01  -9.62581933e-02   2.88391888e-01   6.19593449e-02
    2.51067728e-02  -7.96401724e-02   9.81678903e-01  -1.30023313e+00]
 [  5.96194267e-01   2.65115201e-02  -4.76660848e-01   8.49755704e-02
    4.34041917e-01  -8.10210127e-04   6.48219809e-02  -1.28961906e-01]
 [  2.79812545e-01  -6.98678076e-01   3.52044925e-02   9.59843805e-04
    1.60675183e-01  -2.98642460e-02   9.05111730e-01  -5.32629073e-01]
 [  9.25091952e-02  -1.74896097e+00   1.82715908e-01   7.73996189e-02
    2.97517031e-01  -7.70870298e-02   1.16153586e+00  -6.54865026e-01]
 [  1.38944042e+00  -5.77148609e-02   7.38439858e-01  -1.18021116e-01
    1.36982822e+00  -7.06456080e-02   8.61659825e-01  -6.69185936e-01]
 [ -2.95576692e-01  -4.56731290e-01  -2.20213443e-01   7.01703876e-02
    1.53297499e-01  -4.55666333e-02   1.11594725e+00  -2.61429697e-01]]
Eve
[[ 0.59681928  1.07676661 -0.62583798 -1.41800261 -0.67235219 -0.37927717
  -0.39735073  0.08761486]
 [ 0.59270084  1.12109721 -0.62536609 -1.41320872 -0.67331767 -0.38581634
  -0.39929864  0.08538775]
 [ 0.59640348  1.10340035 -0.66899818 -1.41882467 -0.68569601 -0.35557538
  -0.40124545  0.07079915]
 [ 0.43964434  0.38367426 -1.10868812 -0.95239443 -1.61058056  0.73890775
   0.62383103 -0.13743591]
 [ 0.59736925  1.09115481 -0.64695555 -1.41605771 -0.6879971  -0.36679998
  -0.4030517   0.07286837]
 [ 0.59634507  1.06611741 -0.64413494 -1.41352463 -0.69624478 -0.36643276
  -0.40238607  0.06937718]
 [ 0.59791481  1.12870407 -0.68402755 -1.42145836 -0.68421108 -0.36592048
  -0.40174973  0.06418782]
 [ 0.60184401  1.10632789 -0.64706039 -1.42436385 -0.68974161 -0.35704163
  -0.41034427  0.06955471]
 [ 1.11240447  1.78278434 -1.15967929 -1.63139117 -1.40987766  0.01871969
   0.53080535 -0.22284868]
 [-0.32377449  0.01268393 -0.67444897 -0.41881406 -1.17312264  0.9505074
  -0.33007494  0.00752454]
 [ 0.18191336  0.18396361 -0.53241491 -0.78383523 -0.55508018  0.54823846
   0.00798583  0.1764348 ]
 [-0.07492321 -0.29353976 -0.29456511 -0.87360924 -0.65019536  0.37566125
  -0.94305128  0.37212557]
 [ 0.06969689  0.79047018 -0.44434881 -1.29089773  0.30682784  0.27675012
  -0.17808975  0.03266896]
 [-0.33103096 -0.08166938 -0.92408311 -0.37630576 -1.66905248  1.23198438
   0.09381268 -0.45831725]
 [ 0.87127012  0.19612952 -0.35532802 -0.33832213 -1.17489195  0.96890986
  -1.33861172 -0.42070717]
 [ 0.47190115  0.61196202 -0.28830135 -0.5216586  -1.37707543  0.33345297
  -0.2179549   0.27821407]
 [-1.74096203  0.71116352 -0.88483411 -0.93809932 -1.32867074  0.4509407
   2.27069592 -0.10100345]
 [ 0.00774079 -0.75358713 -0.86534947 -0.15194875 -1.19097388  0.42715356
   0.40927839 -0.12647203]
 [ 1.0943315   1.37679577 -0.89949757 -1.34673655 -0.28212079 -0.79091638
   0.2211525   0.55703157]
 [-1.25362372 -0.64658993 -1.21510041 -0.27807751 -1.23636115  1.29096961
   0.50277948 -0.1014014 ]
 [-1.39063871 -1.0175426  -1.09580433 -0.27505824 -1.56915808  0.8547346
   0.27014953 -0.17464331]
 [ 0.39762291  1.01527548 -0.4741562  -1.22935545  0.2371653   0.17672646
  -0.45027906 -0.13219026]
 [ 0.53501201  0.97666395 -1.15026569 -1.35943472 -1.44271004  0.3016161
   0.47196388  0.03292165]
 [ 0.53176761 -0.29801744 -0.86651629 -0.66241825 -1.18852174  1.15509677
   0.06115204 -0.25938725]]