Alice
[[  7.49553833e-03  -4.83210012e-03   2.17467546e-02  -8.27301368e-02
   -9.93257295e-03  -9.80111072e-04   1.16888834e-02  -6.86659105e-03
   -9.94351809e-04   6.44500926e-02  -5.77853108e-03   1.61245186e-02
   -9.94483102e-03  -1.44727724e-02   1.23431422e-02   3.33680678e-03]
 [  7.19453814e-03   7.09289173e-03   5.25626447e-03   6.19811751e-03
   -6.76946901e-03  -1.13041885e-02   2.77618342e-03  -4.38777031e-03
   -5.93169732e-03  -6.05035154e-03  -8.99075810e-03   7.17763789e-03
   -3.18215997e-03  -7.71267479e-03   6.94169290e-03  -8.64708517e-03]
 [  7.37067638e-03   7.51706539e-03   5.75835444e-03   6.97614904e-03
   -7.28667947e-03  -1.13462675e-02   3.00585502e-03  -4.59339982e-03
   -6.36800472e-03  -6.33328361e-03  -9.67707019e-03   7.93543644e-03
   -3.76011897e-03  -7.43553368e-03   6.46939781e-03  -9.07657947e-03]
 [  7.15209125e-03   7.17877503e-03   5.10200439e-03   6.00809744e-03
   -6.51120162e-03  -1.10611161e-02   2.93137669e-03  -4.26887488e-03
   -6.06178120e-03  -6.75008632e-03  -9.36664641e-03   7.87622668e-03
   -3.32003180e-03  -7.87680782e-03   7.31965248e-03  -8.82611144e-03]
 [  7.30926264e-03   7.33288424e-03   5.46124065e-03   6.65766280e-03
   -6.98858360e-03  -1.19524412e-02   3.19218030e-03  -4.79586842e-03
   -6.17342675e-03  -6.47811545e-03  -9.44756530e-03   8.16486869e-03
   -3.85588454e-03  -8.12128372e-03   7.66524300e-03  -8.82971194e-03]
 [  7.09079392e-03   7.19045242e-03   4.76755621e-03   6.76535536e-03
   -7.04414817e-03  -1.18513582e-02   2.69839331e-03  -4.16031433e-03
   -6.01938879e-03  -6.57532923e-03  -8.99101328e-03   7.72692217e-03
   -3.21591203e-03  -6.77377544e-03   6.32381300e-03  -8.86376947e-03]
 [  1.26600321e-02   1.03408853e-02   6.58584805e-03   3.83924805e-02
    7.86879063e-02   6.64529041e-04   1.63018405e-02  -1.58668309e-02
   -1.21115278e-02   5.11533096e-02  -9.72265471e-03  -8.77630934e-02
   -1.56381372e-02  -2.22015791e-02   1.59430970e-02  -6.64067268e-03]
 [  7.06052221e-03   7.14630168e-03   5.27500873e-03   6.10373821e-03
   -7.00573809e-03  -1.07081644e-02   2.84975651e-03  -4.30796854e-03
   -6.00643596e-03  -6.19696965e-03  -9.21961199e-03   8.04284494e-03
   -3.46912560e-03  -7.81882368e-03   7.31722126e-03  -8.77485424e-03]
 [  7.42190704e-03   7.25844735e-03   4.93835844e-03   6.55273860e-03
   -6.33742847e-03  -1.10449027e-02   2.78343726e-03  -4.39592777e-03
   -6.36686152e-03  -6.06931513e-03  -9.67451558e-03   7.21766055e-03
   -3.34436540e-03  -6.69761142e-03   6.07683044e-03  -8.90359003e-03]
 [  6.85226452e-03   6.96328655e-03   5.15087042e-03   6.42959354e-03
   -6.34737452e-03  -1.13926996e-02   2.59905355e-03  -4.10690298e-03
   -5.88754611e-03  -5.88454446e-03  -9.01999604e-03   7.36153498e-03
   -3.26448563e-03  -7.17424043e-03   6.53599016e-03  -8.69034790e-03]
 [  7.16902176e-03   7.24628102e-03   6.04849076e-03   7.46141281e-03
   -7.40836235e-03  -1.13549540e-02   2.83552939e-03  -4.78552515e-03
   -6.09960780e-03  -7.38105131e-03  -9.60617140e-03   8.34517181e-03
   -3.67585290e-03  -8.08094162e-03   7.86136836e-03  -8.84065591e-03]
 [  7.15461979e-03   7.31752068e-03   4.40312084e-03   5.96272526e-03
   -6.18105754e-03  -1.06602227e-02   2.87298462e-03  -4.12852596e-03
   -6.10469840e-03  -6.29467377e-03  -9.36332531e-03   7.87451491e-03
   -3.35989730e-03  -7.17366952e-03   6.64508808e-03  -8.98301695e-03]
 [  8.81489459e-03   1.14985313e-02   1.53554641e-02   1.42600406e-02
   -5.25818346e-03   1.03502005e-01   8.51501711e-03  -4.15244559e-03
   -7.93406554e-03  -1.22272214e-02  -7.72563601e-03   2.57671811e-02
   -9.55549721e-03  -1.70309972e-02   2.29393095e-02  -1.50181055e-02]
 [  2.58351211e-03   1.82184670e-03   1.80097613e-02   3.93459499e-02
   -7.83564802e-03   1.67046918e-03   8.92962422e-03   1.63024897e-03
   -6.56353449e-03   5.13819642e-02  -7.46329408e-03   2.99917795e-02
   -1.03956293e-02   8.88847783e-02  -7.13096336e-02  -6.92522386e-03]
 [ -2.61689560e-03   1.03870798e-02  -6.56752437e-02  -7.98835903e-02
    7.03717694e-02   6.48477860e-03   9.86294122e-04   9.39591974e-03
   -5.53368032e-03  -8.03155750e-02  -2.70096282e-03  -2.28067813e-03
   -1.60943647e-03   6.47819415e-02   9.28669143e-03  -8.46575852e-03]
 [  7.20698945e-03   7.20809912e-03   5.31121809e-03   6.16232306e-03
   -6.61153905e-03  -1.11423740e-02   3.03132483e-03  -4.20272956e-03
   -5.81600983e-03  -5.75892488e-03  -9.07661673e-03   7.23116240e-03
   -3.41957179e-03  -6.93819625e-03   6.49243081e-03  -8.68807174e-03]
 [  2.57095128e-01   4.54863340e-01   4.65489149e-01   2.50324100e-01
    8.55554119e-02   5.90657219e-02   4.06578600e-01  -4.28008020e-01
   -9.42633152e-02   8.10034387e-03  -5.20621419e-01   5.59077501e-01
   -9.53290612e-02   6.66184649e-02   4.43092853e-01  -3.45567107e-01]
 [  1.42037034e+00   1.52724171e+00   1.51402915e+00  -4.23266329e-02
   -1.16821788e-02   1.03011297e-03   1.59875202e+00  -1.57267308e+00
   -1.58404720e+00   6.90895468e-02  -1.87429857e+00   1.46270382e+00
   -1.57685483e+00  -7.89427981e-02   1.52742720e+00  -1.47467995e+00]
 [  2.06357527e+00   2.17742300e+00   2.07646203e+00  -3.35597321e-02
   -8.89880396e-03   7.64169991e-02   2.17858768e+00  -2.16307998e+00
   -2.17557883e+00   9.40897167e-02  -1.86963987e+00   2.16799402e+00
   -2.14711595e+00  -1.05389334e-01   2.11015558e+00  -2.07467985e+00]
 [  5.29688597e-01   3.24135512e-01   7.63859451e-01   4.17393073e-02
    2.26200178e-01  -5.99454008e-02   4.41290975e-01  -4.65451211e-01
   -6.07101083e-01  -1.83455020e-01  -1.29752040e-01   6.10236466e-01
   -6.63438022e-01  -1.35084704e-01   5.97669065e-01  -4.58100528e-01]
 [  2.07301497e+00   2.07837272e+00   2.12693381e+00   1.29072613e-03
   -4.31810096e-02   1.35491900e-02   2.10565090e+00  -2.12611985e+00
   -2.07787848e+00  -5.86137116e-01  -1.95373321e+00   2.09950566e+00
   -2.11717463e+00  -8.76094624e-02   2.09530377e+00  -2.03623819e+00]
 [  4.08861160e-01   2.84148932e-01   3.68529230e-01   4.22775410e-02
    4.43743207e-02   2.12793469e-01   1.65801555e-01  -2.60399044e-01
   -1.07018881e-01  -3.49956542e-01  -1.04041302e+00   4.25303817e-01
   -1.97515175e-01   2.65025437e-01   1.36884436e-01  -3.10583413e-01]
 [  2.07518649e+00   2.10460782e+00   2.19564629e+00   1.94389578e-02
   -3.15582901e-02   3.52649689e-02   2.11790848e+00  -2.13808990e+00
   -2.09760451e+00  -7.97615647e-02  -1.65746164e+00   2.17669272e+00
   -2.11021733e+00  -2.46938348e-01   2.17297935e+00  -2.04892015e+00]
 [  1.95905721e+00   1.91826069e+00   2.07096815e+00  -2.19184291e-02
   -6.62562847e-02   1.37010217e-02   2.01168227e+00  -2.03177309e+00
   -2.03507566e+00  -1.26877278e-01  -1.73018861e+00   2.01824284e+00
   -2.02273369e+00   2.48181939e-01   2.05126643e+00  -1.97171950e+00]
 [  3.84355038e-01   3.83428901e-01   1.73881084e-01  -1.59552768e-01
    3.80537696e-02  -2.22567409e-01   3.28507870e-01  -3.85906726e-01
   -4.50981706e-01  -3.48210305e-01  -2.29159728e-01   1.71426117e-01
   -4.50797379e-01   3.97827715e-01   4.51060623e-01  -2.67035782e-01]
 [  2.56079376e-01   1.25145912e-01   4.24615443e-01   3.79185043e-02
   -2.44378835e-01   1.28187180e-01   6.71656966e-01  -1.70606956e-01
   -6.91720068e-01   2.48342901e-01  -1.09902345e-01   2.36986145e-01
   -6.07429385e-01  -1.88170299e-01   2.77378440e-01  -2.78167009e-01]
 [  5.19464076e-01   5.06080538e-02   3.63597393e-01   7.21777529e-02
    1.36792496e-01   1.28104782e-03   6.11662045e-02  -5.24559915e-01
   -1.33186236e-01   4.93781179e-01  -7.57115066e-01   5.24321161e-02
   -5.95586061e-01   4.27397639e-02   4.06527042e-01  -3.84119600e-01]
 [  7.62730598e-01   9.21608925e-01   1.01659083e+00  -4.10510227e-02
   -2.27701273e-02   6.37796447e-02   9.37831104e-01  -9.72459733e-01
   -9.03859496e-01   2.00055584e-01  -2.77738631e-01   1.25000656e+00
   -8.63563359e-01  -5.00081219e-02   8.69050980e-01  -8.81095648e-01]
 [  2.19678736e+00   2.12431192e+00   2.10591555e+00   1.32993702e-02
   -9.40273851e-02  -3.00683151e-03   2.15472293e+00  -2.14703226e+00
   -2.12466455e+00  -2.93418709e-02  -1.87154806e+00   2.06108189e+00
   -2.13329649e+00  -7.78330266e-02   2.23472500e+00  -2.11682487e+00]
 [  5.47102988e-01   5.39847612e-01   2.13154107e-01   1.43779740e-01
   -1.78151473e-01  -2.91871056e-02   4.28029060e-01  -3.66684794e-01
   -1.45029724e-01  -2.25528330e-01  -4.68363464e-01   2.01362874e-02
   -1.47922963e-01  -2.46454701e-02   4.99868065e-01  -4.98452842e-01]
 [  2.30857342e-01   2.42387712e-01   4.70577210e-01  -1.77406579e-01
   -1.51014477e-01  -2.31524557e-01   7.25090876e-02  -7.34087154e-02
   -3.93512338e-01   4.01793063e-01  -4.44154948e-01   7.26377368e-01
   -2.58278936e-01  -1.47699893e-01   2.22655982e-01  -1.15891114e-01]
 [  2.94695079e-01   4.27018523e-01   4.45691675e-01  -1.65151700e-01
    2.59129331e-03   1.17717311e-01   5.08546352e-01  -6.13245249e-01
   -4.07215804e-01   2.58076012e-01  -2.05817699e-01   3.54452908e-01
   -2.72359818e-01  -2.47693077e-01   6.51664078e-01  -5.90763628e-01]]
Bob
[[  4.68335999e-03  -1.33142257e-02   6.87209424e-03   2.29671737e-03
    7.24163186e-03   7.95153156e-03  -8.91913939e-03  -1.05300387e-02
    6.65158406e-03  -2.39682151e-03  -3.26985307e-03   5.33020590e-03
    1.11226235e-02   4.27746447e-03   3.39043722e-03  -1.66066142e-03]
 [  4.93613956e-03  -1.33309765e-02   6.68642856e-03   2.89866608e-03
    7.14129349e-03   8.26045219e-03  -9.53563768e-03  -1.07611027e-02
    6.65120268e-03  -2.61751167e-03  -3.29489307e-03   5.71123604e-03
    1.13315219e-02   4.36942512e-03   3.62717500e-03  -1.22629991e-03]
 [  4.86568501e-03  -1.38022415e-02   7.33494852e-03   2.70876265e-03
    6.99394569e-03   7.87293632e-03  -8.86760652e-03  -1.07165780e-02
    6.39571762e-03  -2.62056733e-03  -3.22093302e-03   5.94430557e-03
    1.14775030e-02   4.36529797e-03   3.41665861e-03  -2.62819720e-03]
 [  4.53577423e-03  -1.25585357e-02   6.26953272e-03   2.24811863e-03
    6.99316151e-03   7.60996342e-03  -9.05799679e-03  -1.08499331e-02
    6.29272591e-03  -2.44692178e-03  -2.96383537e-03   5.57058770e-03
    1.10535072e-02   3.90740437e-03   3.54943681e-03  -2.02293298e-03]
 [  6.63804542e-03  -5.62664233e-02  -5.73557839e-02  -1.63441729e-02
    3.35007347e-02   1.02087175e-02  -2.00725123e-02  -2.78564147e-03
    6.77276542e-03  -4.37444216e-03  -2.14653322e-03  -7.24225044e-02
   -1.18838161e-01   9.58374701e-03   2.85574747e-03   8.04683287e-03]
 [  1.27703119e-02  -2.05691829e-02   5.80311101e-03  -2.00867895e-02
   -6.25435859e-02   3.53325740e-03  -5.77313416e-02   1.15159720e-01
   -5.56634739e-03  -1.29679414e-02  -1.55086191e-02   1.38233555e-02
    4.49547684e-03   8.73999763e-03   2.23090183e-02   2.03912538e-02]
 [  4.38519474e-03  -1.29416864e-02   6.66843634e-03   1.65417918e-03
    6.89197844e-03   7.73598813e-03  -9.04159527e-03  -1.03740990e-02
    6.07287092e-03  -2.14545266e-03  -2.89642997e-03   5.57417283e-03
    1.19057493e-02   3.90859321e-03   3.17480555e-03  -3.20876157e-03]
 [  4.70849499e-03  -1.32438764e-02   6.98256306e-03   2.36790348e-03
    6.86202385e-03   7.77311390e-03  -9.27797426e-03  -1.02156615e-02
    6.46856800e-03  -2.86827656e-03  -3.30393785e-03   5.57847042e-03
    1.14913462e-02   4.40679630e-03   3.53995734e-03  -8.76886421e-04]
 [  1.21361092e-02   1.51243776e-01  -6.57175779e-02  -3.03415433e-02
    2.34468002e-02  -3.72267375e-03  -1.80616807e-02   2.52672797e-03
    1.98121108e-02  -1.76364090e-02   9.72467847e-03   4.11094911e-02
    1.15148202e-02   1.21219400e-02   9.33760963e-03   2.00664289e-02]
 [  1.57877803e-02  -4.35540192e-02  -6.56353533e-02  -1.59491617e-02
   -6.97245821e-02   1.60682146e-02   1.13014825e-01  -2.01838780e-02
    7.97621906e-03  -1.13584790e-02  -1.69120301e-02   4.06331606e-02
    2.56897556e-03   1.12218233e-02   2.32651848e-02   1.57092959e-02]
 [  4.76992829e-03  -1.33866630e-02   6.87783817e-03   2.05077324e-03
    6.83853263e-03   8.09797365e-03  -8.87751952e-03  -1.04726097e-02
    6.58761710e-03  -2.38879537e-03  -2.80146347e-03   5.78297302e-03
    1.13659063e-02   4.19030432e-03   3.69920838e-03  -7.40838703e-04]
 [  4.66179382e-03  -1.31151322e-02   6.88241376e-03   1.60843844e-03
    6.79773884e-03   8.00865237e-03  -8.78029596e-03  -1.06877703e-02
    6.23172475e-03  -2.27537984e-03  -3.26603581e-03   5.82117215e-03
    1.15061263e-02   4.10491368e-03   3.31673212e-03  -2.68207304e-03]
 [  4.42976085e-03  -1.26782879e-02   6.51136320e-03   1.68669061e-03
    6.33121375e-03   7.73082348e-03  -8.76609236e-03  -9.31002758e-03
    6.00059005e-03  -1.91047601e-03  -2.94358167e-03   4.79521602e-03
    1.09721441e-02   3.67542054e-03   3.27568478e-03  -2.12708488e-03]
 [  4.58670035e-03  -1.32792639e-02   6.59561716e-03   1.38883479e-03
    6.97006797e-03   7.86440633e-03  -8.97310395e-03  -1.03602316e-02
    6.39911275e-03  -2.20123073e-03  -2.91845412e-03   5.56202978e-03
    1.11986976e-02   4.09877859e-03   3.22641199e-03  -7.72207568e-04]
 [  4.68771625e-03  -1.37725640e-02   6.95149787e-03   2.57149921e-03
    7.15002278e-03   7.85083696e-03  -9.61133838e-03  -1.06722172e-02
    6.60808198e-03  -2.34812312e-03  -3.29528213e-03   5.59754577e-03
    1.11583453e-02   4.10267431e-03   3.61608225e-03  -3.16899503e-03]
 [  4.52300487e-03  -1.32507375e-02   6.69172499e-03   1.80152874e-03
    6.27108803e-03   7.94326793e-03  -8.57445318e-03  -1.01124533e-02
    6.23997860e-03  -2.13948172e-03  -2.86928006e-03   4.88379598e-03
    1.11403419e-02   3.94321233e-03   3.35164135e-03  -1.38167897e-03]
 [  1.55947268e-01  -1.61068469e-01   2.89404273e-01  -6.97357178e-01
   -1.35891005e-01   1.67837486e-01  -2.66957372e-01   2.48439908e-01
    5.58208704e-01  -5.44251688e-02  -7.17071056e-01   2.79529989e-01
   -5.86831123e-02   2.32196122e-01   5.19659340e-01   1.57598853e-01]
 [  6.37708366e-01  -7.11601138e-01   2.68809915e-01  -2.48815343e-01
    2.22347826e-01   4.56700891e-01  -8.99916515e-02   4.96116839e-02
    5.68861246e-01  -3.29719096e-01  -4.51955944e-01   6.14381075e-01
    1.15341552e-01   5.19001663e-01   8.12279508e-02   4.42378819e-01]
 [  1.20588493e+00  -1.13991201e+00   5.65681644e-02  -1.15904403e+00
   -4.21000123e-01   1.12217569e+00  -4.22730483e-02   3.48643005e-01
    1.17848492e+00  -1.24260783e+00  -1.21047938e+00   1.29869092e+00
    3.26613709e-02   1.19098449e+00   1.36516154e+00   1.31096804e+00]
 [  2.32538438e+00  -2.27701831e+00   1.21329308e-01  -2.44453025e+00
    4.84306976e-04   2.30151463e+00   1.41214192e-01  -1.05176568e-02
    2.35604811e+00  -2.34296155e+00  -2.42230964e+00   2.35299110e+00
   -6.30742908e-02   2.33660507e+00   2.31800914e+00   2.38986373e+00]
 [  2.34378529e+00  -2.29901695e+00   1.26452059e-01  -2.44031763e+00
    8.57090726e-02   2.28945017e+00   1.22765504e-01  -4.07394320e-02
    2.38624358e+00  -2.38569236e+00  -2.41593027e+00   2.22685385e+00
   -7.58440122e-02   2.35618687e+00   2.22331119e+00   2.39654851e+00]
 [  2.10186338e+00  -1.99590671e+00   1.91381097e-01  -2.17577672e+00
   -3.27512436e-02   2.20291829e+00   9.62309241e-02  -2.47634798e-02
    2.09117579e+00  -2.22976327e+00  -2.23467469e+00   2.16962194e+00
   -4.16767523e-02   2.23853540e+00   2.14865351e+00   2.24269247e+00]
 [  5.79799891e-01  -7.70182550e-01  -1.34955674e-01  -5.18878579e-01
   -4.49617445e-01   2.62820393e-01  -3.57335247e-02  -3.03193301e-01
    2.34236773e-02  -5.85285008e-01  -1.27168655e-01   3.36683869e-01
    4.05488424e-02   2.26202115e-01   5.43178618e-01   3.75191778e-01]
 [  3.71477872e-01  -3.22608441e-01   1.20628960e-01  -6.73599422e-01
   -2.92961389e-01   6.84212089e-01   3.39390427e-01   3.93864959e-01
    4.43910420e-01  -5.38509369e-01  -3.45119685e-01  -2.35565491e-02
   -1.13845998e-02   3.41379970e-01   6.67298734e-01   1.99225947e-01]
 [  2.99837261e-01  -3.96726340e-01   1.33423619e-02  -4.16156590e-01
    2.42214520e-02   5.39630175e-01  -1.55768380e-01  -2.95538723e-01
    4.56393659e-01  -2.93124646e-01  -3.27773124e-01   1.88098267e-01
    7.86938518e-02   6.12298310e-01   3.94963890e-01   1.50193855e-01]
 [  2.39229774e+00  -2.40542507e+00   1.29184112e-01  -2.49725437e+00
    8.05334806e-01   2.38649035e+00   1.50260955e-01  -4.11177650e-02
    2.44813085e+00  -2.43587399e+00  -2.51349020e+00   2.46073580e+00
   -6.76591769e-02   2.42471170e+00   2.27929139e+00   2.46345997e+00]
 [  4.68276381e-01  -2.02950060e-01  -3.75562906e-02  -4.83483881e-01
   -3.96472551e-02   2.39112094e-01   2.49146312e-01  -1.62991717e-01
    3.99192631e-01  -5.81561685e-01  -8.33293200e-02   3.38788003e-01
   -1.37939928e-02   2.43937433e-01   3.33881021e-01   3.94578487e-01]
 [  1.61089838e+00  -1.58510077e+00   7.76517466e-02  -1.69507265e+00
    9.72738415e-02   1.60552716e+00   1.32715836e-01  -1.02453358e-01
    1.60514772e+00  -1.61187315e+00  -1.64503253e+00   1.72781706e+00
   -7.27363769e-03   1.54469132e+00   1.62086308e+00   1.62413216e+00]
 [  3.05706352e-01  -6.06552958e-01  -1.36119917e-01  -1.83560729e-01
   -3.58100682e-01   7.16217518e-01   2.61922807e-01  -9.43391919e-02
    5.60530186e-01  -1.48732290e-01  -7.63047755e-01   5.89204371e-01
   -1.50381505e-01   2.32860044e-01   1.85202971e-01   8.04986894e-01]
 [  2.27589059e+00  -2.27318764e+00   1.41038612e-01  -2.27132344e+00
   -1.39467800e-02   2.27362823e+00   1.10789619e-01   6.09996654e-02
    2.32612777e+00  -2.32313442e+00  -2.35640264e+00   2.36260080e+00
   -5.68326116e-02   2.29249310e+00   2.34215331e+00   2.32219815e+00]
 [  8.02878022e-01  -8.33650708e-01  -5.18022552e-02  -8.71691883e-01
    1.56385928e-01   9.18420732e-01   6.52320907e-02   3.64685893e-01
    8.21001828e-01  -9.59529519e-01  -1.01957202e+00   7.95030951e-01
   -2.33406555e-02   9.40306783e-01   9.50104296e-01   1.01311445e+00]
 [  4.21250731e-01  -4.66772705e-01  -1.85672879e-01  -1.29439741e-01
    4.21064377e-01   2.33470157e-01  -6.92709684e-02   1.70568749e-01
    1.13901317e-01  -5.68476558e-01  -2.86866248e-01   7.55392194e-01
   -6.68232441e-02   6.40331507e-01   4.43619549e-01   6.69881582e-01]]
Eve
[[ -3.63853192e+00   3.18824553e+00   3.25950432e+00  -3.44961941e-01
    1.78103268e-01   4.57253754e-01   3.43304443e+00   3.30020571e+00
    3.23043036e+00  -1.66891173e-01   3.19194818e+00   3.23944426e+00
   -3.47389293e+00   1.06526367e-01   3.42364383e+00  -3.42699075e+00]
 [ -3.44997454e+00   3.75252199e+00   3.44458628e+00  -2.82230735e-01
    2.06834406e-01  -1.56933758e-02   3.51190066e+00   3.17081666e+00
    3.64964485e+00   1.29910874e+00   3.80974746e+00   3.18753505e+00
   -3.81744361e+00  -1.18044138e-01   3.18614769e+00  -3.59808683e+00]
 [ -3.66655946e+00   3.44005084e+00   3.35102820e+00  -7.79363960e-02
    1.86656797e+00   5.20622581e-02   3.39601183e+00   3.20225358e+00
    3.19970107e+00  -1.15020967e+00   3.38699389e+00   3.28350925e+00
   -3.37293363e+00   6.62854910e-01   3.26800752e+00  -3.63476658e+00]
 [ -3.17081547e+00   3.59395885e+00   3.71530628e+00  -3.01405311e+00
   -8.05717528e-01   6.75377131e-01   3.16528010e+00   3.67034960e+00
    3.55828261e+00  -6.14877105e-01   3.63770628e+00   3.70701575e+00
   -3.80271864e+00   4.10487115e-01   3.41501188e+00  -3.14857697e+00]
 [ -3.59269428e+00   3.76814151e+00   3.24742174e+00   4.67118144e-01
    3.23874426e+00   7.94269264e-01   3.43946576e+00   3.42873120e+00
    3.34649467e+00  -5.54393589e-01   3.39228559e+00   3.60177135e+00
   -3.35995531e+00  -1.18357502e-01   3.19950747e+00  -3.61543036e+00]
 [ -3.80839467e+00   3.70472455e+00   3.42847300e+00  -1.05835354e+00
    1.61825597e+00   2.96612263e+00   3.26790404e+00   3.59203053e+00
    3.58372521e+00   1.61314356e+00   3.46363497e+00   3.35962582e+00
   -3.84761548e+00  -1.24750388e+00   3.60436368e+00  -3.53107357e+00]
 [ -3.14490676e+00   3.39500880e+00   3.45352387e+00  -1.52313381e-01
   -3.81747007e-01   2.03870833e-01   3.75397253e+00   3.38998270e+00
    3.73762751e+00  -1.97048768e-01   3.68487215e+00   3.59140134e+00
   -3.31331396e+00  -6.17383182e-01   3.74724412e+00  -3.56113434e+00]
 [ -3.28017783e+00   3.09558845e+00   3.54504991e+00  -1.63958609e-01
   -7.13038072e-02  -1.33403465e-01   3.47690344e+00   3.34082484e+00
    3.32683778e+00  -7.52750784e-02   3.34282565e+00   3.41165161e+00
   -3.30639100e+00  -1.09899811e-01   3.65926933e+00  -3.23960280e+00]
 [ -3.58097005e+00   3.45894599e+00   3.52868557e+00  -3.11470747e-01
   -1.08871676e-01   3.12881678e-01   3.54916954e+00   3.46027255e+00
    3.22849870e+00   6.87100112e-01   3.33873773e+00   3.56933403e+00
   -3.54706764e+00  -6.04505777e-01   3.71253824e+00  -3.66049433e+00]
 [ -3.56501842e+00   3.72987366e+00   3.65822387e+00   1.04722452e+00
   -1.27165020e+00   7.51357138e-01   3.66697359e+00   3.72173285e+00
    3.85609746e+00   3.46396542e+00   3.30184507e+00   3.69575000e+00
   -3.56101322e+00   4.99524534e-01   3.34819841e+00  -3.68175578e+00]
 [ -3.75304198e+00   3.44782853e+00   3.11749530e+00  -3.72950882e-01
   -2.72127837e-01   3.12115699e-01   3.47625589e+00   3.17332268e+00
    3.76838946e+00   5.72825789e-01   3.54420400e+00   3.59403825e+00
   -3.73719001e+00  -5.41592836e-01   3.12897253e+00  -3.63400269e+00]
 [ -3.17798305e+00   3.74775910e+00   3.70464945e+00  -4.05015916e-01
    1.95733428e+00   5.27922869e-01   3.47929549e+00   3.36704230e+00
    3.84234023e+00   9.22025263e-01   3.58396411e+00   3.19477725e+00
   -3.18746710e+00  -7.87100852e-01   3.42991209e+00  -3.10311556e+00]
 [ -3.27694631e+00   3.38710427e+00   3.75214052e+00  -6.02018654e-01
   -4.72225696e-02   2.12984800e-01   3.34255457e+00   3.12414837e+00
    3.60040927e+00  -7.46276900e-02   3.73830795e+00   3.39679670e+00
   -3.38741326e+00   2.54131164e-02   3.65127373e+00  -3.46487403e+00]
 [ -3.52621555e+00   3.48493123e+00   3.69445658e+00   2.51591772e-01
   -4.42376912e-01   6.59230173e-01   3.14898777e+00   3.52515340e+00
    3.59410787e+00  -5.44807732e-01   3.16787481e+00   3.74978161e+00
   -3.43892741e+00  -3.08226943e+00   3.50230455e+00  -3.33892870e+00]
 [ -3.19421363e+00   3.48880124e+00   3.67037392e+00  -4.67366308e-01
    6.46296680e-01   1.46154150e-01   3.30843472e+00   3.62685871e+00
    3.28971672e+00   6.78332627e-01   3.30841589e+00   3.73176193e+00
   -3.29856777e+00  -5.11695802e-01   3.73694444e+00  -3.30097747e+00]
 [ -3.52807832e+00   3.36669850e+00   3.10375190e+00   1.21670403e-01
    2.50164002e-01  -2.02787757e-01   3.20684528e+00   3.63803029e+00
    3.33291793e+00   1.33198333e+00   3.29636049e+00   3.43849134e+00
   -3.79350090e+00  -2.78668523e-01   3.11918306e+00  -3.10541415e+00]
 [ -3.62724996e+00   3.59562016e+00   3.20759058e+00   2.01937795e-01
   -1.13328457e-01  -3.21538337e-02   3.20326877e+00   3.55934858e+00
    3.70692277e+00   2.88075894e-01   3.53626418e+00   3.57703471e+00
   -3.44870734e+00   8.81380774e-03   3.24061441e+00  -3.32080078e+00]
 [ -3.79245019e+00   3.25654745e+00   3.53106284e+00  -6.99655116e-01
    7.71982610e-01   3.49330962e-01   3.43446088e+00   3.51989317e+00
    3.63442016e+00   1.16329283e-01   3.50913453e+00   3.86679769e+00
   -3.83238697e+00  -5.93664348e-01   3.90682602e+00  -3.60166478e+00]
 [ -3.43685412e+00   3.90211463e+00   3.83977604e+00  -1.73134196e+00
    1.67535686e+00   2.67704749e+00   3.17948198e+00   3.57269096e+00
    3.80945277e+00   5.62095404e-01   3.72264647e+00   3.71733284e+00
   -3.85073924e+00  -1.22142410e+00   3.85256553e+00  -3.83330011e+00]
 [ -3.25875926e+00   3.32655454e+00   3.17291760e+00  -2.58501805e-02
    4.84647989e-01  -4.85378295e-01   3.53918934e+00   3.11652756e+00
    3.31280351e+00   1.96126681e-02   3.16215491e+00   3.58034301e+00
   -3.50201368e+00  -3.05112507e-02   3.40234447e+00  -3.53533125e+00]
 [ -3.52198410e+00   3.43350768e+00   3.65241051e+00  -9.23727602e-02
    1.27667010e+00   3.00682247e-01   3.35184407e+00   3.28391576e+00
    3.51562810e+00   3.28583026e+00   3.06222320e+00   3.66900730e+00
   -3.17867732e+00  -1.03532839e+00   3.32903028e+00  -3.28732705e+00]
 [ -3.52374172e+00   3.53808308e+00   3.58776021e+00   9.44874994e-03
   -4.68502879e-01   6.32629454e-01   3.29536700e+00   3.75592160e+00
    3.59953499e+00   8.38384032e-01   3.72209501e+00   3.53497553e+00
   -3.54964805e+00   1.49227783e-01   3.53358436e+00  -3.24395204e+00]
 [ -3.71781135e+00   3.49077249e+00   3.55859733e+00  -2.72759581e+00
    1.21934295e+00   8.91275823e-01   3.62119031e+00   3.15232921e+00
    3.67277837e+00   1.42024326e+00   3.09123373e+00   3.31048512e+00
   -3.70062542e+00  -1.15793085e+00   3.12791562e+00  -3.20260668e+00]
 [ -3.28397202e+00   3.73464680e+00   3.19281292e+00  -1.94537008e+00
    1.20034921e+00   1.74719274e-01   3.55979276e+00   3.42142272e+00
    3.24724817e+00   2.08806515e+00   3.52068400e+00   3.54102755e+00
   -3.29320788e+00  -2.97815609e+00   3.60484672e+00  -3.42981744e+00]
 [ -3.27991915e+00   3.61145210e+00   3.29708791e+00   3.00998896e-01
   -1.00600440e-02  -1.86992839e-01   3.48841763e+00   3.45619464e+00
    3.83313251e+00   1.56150997e+00   3.29032087e+00   3.25425720e+00
   -3.37011600e+00  -3.52773160e-01   3.59522033e+00  -3.51490521e+00]
 [ -3.57629442e+00   3.22773504e+00   3.73336911e+00   1.28003076e-01
    2.32743844e-01  -7.12563545e-02   3.76826477e+00   3.21147180e+00
    3.34873915e+00  -2.02394739e-01   3.33183694e+00   3.22657299e+00
   -3.56782007e+00  -9.59418118e-02   3.46095920e+00  -3.25934625e+00]
 [ -3.16035533e+00   3.44578838e+00   3.38116574e+00   1.26500875e-01
    4.08639126e-02  -6.76743463e-02   3.02127385e+00   3.60989213e+00
    3.21724534e+00  -7.00157642e-01   3.11742854e+00   3.52461410e+00
   -3.69770837e+00  -2.46115774e-01   3.67435598e+00  -3.52938867e+00]
 [ -3.72093034e+00   3.36814451e+00   3.39622355e+00  -1.32382703e+00
    9.44851398e-01   1.78743675e-01   3.76513839e+00   3.47012830e+00
    3.31500030e+00  -7.12301910e-01   3.29872990e+00   3.66263103e+00
   -3.27259040e+00  -7.05182076e-01   3.43897462e+00  -3.65518403e+00]
 [ -3.55423188e+00   3.52570081e+00   3.82293439e+00  -9.88088071e-01
    2.86819458e+00   1.01174700e+00   3.51120329e+00   3.59496665e+00
    3.68258643e+00   1.08152580e+00   3.63391399e+00   3.45409036e+00
   -3.43045306e+00  -1.13348126e+00   3.29631066e+00  -3.68028593e+00]
 [ -3.56571102e+00   3.74000120e+00   3.41104007e+00   3.62638116e-01
   -1.55397644e-02  -6.06850209e-03   3.38806462e+00   3.33425760e+00
    3.42921948e+00   5.13288856e-01   3.36304331e+00   3.36743760e+00
   -3.25117135e+00  -1.47107974e-01   3.78630161e+00  -3.69289303e+00]
 [ -3.43379068e+00   3.28778315e+00   3.61877918e+00  -3.19267320e-03
    1.22143321e-01  -1.11812994e-01   3.79733658e+00   3.78681087e+00
    3.69351864e+00  -9.06895995e-01   3.67033219e+00   3.50670147e+00
   -3.65053630e+00  -3.70531797e-01   3.30651379e+00  -3.36310029e+00]
 [ -3.09546852e+00   3.47367764e+00   3.55621505e+00  -5.50354898e-01
    1.84085444e-01  -2.91811764e-01   3.23951912e+00   3.45455432e+00
    3.68041778e+00  -2.89556235e-01   3.53127527e+00   3.22346735e+00
   -3.46255469e+00  -6.34133577e-01   3.03155470e+00  -3.36438441e+00]]