Alice
[[  1.45765860e-03   1.62419642e-03  -1.49567879e-03 ...,   1.43872667e-03
    1.53209257e-03   1.43879617e-03]
 [  1.52389391e-03   1.65793870e-03  -1.55472255e-03 ...,   1.47339620e-03
    1.53240596e-03   1.46811525e-03]
 [  1.54630386e-03   1.70627749e-03  -1.59131479e-03 ...,   1.49507611e-03
    1.64086604e-03   1.53964630e-03]
 ..., 
 [  1.28561032e+00   1.31186199e+00  -1.36213577e+00 ...,   1.45219266e+00
    1.34065413e+00   1.41024077e+00]
 [  1.41971862e+00   1.45921135e+00  -1.41168141e+00 ...,   1.45801294e+00
    1.46378267e+00   1.46150386e+00]
 [  1.39487827e+00   9.98692572e-01  -1.41258085e+00 ...,   1.36557484e+00
    1.24032485e+00   1.35757041e+00]]
Bob
[[ -1.61558250e-03  -1.66891271e-03  -2.36584921e-03 ...,  -1.61649764e-03
   -1.08281395e-03  -6.84959395e-03]
 [ -2.49037868e-03  -2.63225986e-03  -5.25557669e-04 ...,  -1.89917360e-03
   -2.25598924e-03  -1.75453117e-03]
 [ -1.93780381e-03  -2.06380058e-03  -5.60799148e-04 ...,  -2.30838102e-03
   -2.06986908e-03  -2.09607836e-03]
 ..., 
 [  1.09370142e-01  -9.88255978e-01  -8.33118081e-01 ...,  -1.05586767e+00
   -9.16846097e-01  -1.13481891e+00]
 [  4.18861732e-02  -8.95080090e-01  -1.20141876e+00 ...,  -9.70423579e-01
   -1.12720466e+00  -1.22653198e+00]
 [  4.50102985e-02  -1.18839204e+00  -1.07192159e+00 ...,  -1.04593110e+00
   -9.83320534e-01  -9.66343641e-01]]
Eve
[[ 3.29385114 -3.11672544  3.30510354 ...,  3.33084106 -3.04831767
   3.49513364]
 [ 2.95274711 -3.02197886  3.03569555 ...,  3.00448298 -3.37018418
   3.16187596]
 [ 3.26570582 -3.04525089  3.16924739 ...,  3.39734006 -3.39459586
   3.39399767]
 ..., 
 [ 3.47183776 -3.51572227  3.30345201 ...,  3.46761894 -3.17067456
   3.20358825]
 [ 3.44032264 -3.21071649  3.46998692 ...,  3.33337092 -3.44369125
   3.14877224]
 [ 3.11863613 -3.36994052  3.26427984 ...,  3.06567335 -3.41028929
   3.10340452]]