Alice
[[ -4.28909902e-03  -1.14907688e-02   4.98106703e-03  -6.77799759e-03
   -8.21516290e-03   4.66003316e-03   5.86068863e-03  -5.95402764e-03
    6.03473838e-03   7.40375416e-03  -1.12100318e-02  -5.66207105e-03
   -5.68475202e-03   1.14897685e-02  -4.23926720e-03   1.69363916e-02]
 [ -5.02360752e-03  -1.19685940e-02   5.10754297e-03  -7.22306781e-03
   -8.96367989e-03   5.19048469e-03   6.12225989e-03  -6.40334142e-03
    6.56419201e-03   8.01793672e-03  -1.10607566e-02  -5.91322919e-03
   -6.09757612e-03   1.14945285e-02  -4.68742196e-03   1.76581703e-02]
 [ -4.81066201e-03  -1.17372572e-02   5.61274216e-03  -6.91754092e-03
   -8.56684614e-03   4.85090632e-03   5.96736232e-03  -6.08816370e-03
    6.28601341e-03   7.70929875e-03  -1.12532638e-02  -5.92465280e-03
   -6.16647163e-03   1.17943743e-02  -4.26873099e-03   1.76656116e-02]
 [ -4.64974344e-03  -1.16961645e-02   5.20284753e-03  -6.77374890e-03
   -8.14273674e-03   4.66291793e-03   5.81198372e-03  -5.88120427e-03
    6.16529910e-03   7.78669352e-03  -1.06238341e-02  -5.89934038e-03
   -5.77274757e-03   1.15957586e-02  -4.21096617e-03   1.72513239e-02]
 [ -4.51395800e-03  -1.20057166e-02   5.29669225e-03  -7.24815903e-03
   -8.91510490e-03   5.28835366e-03   6.28837198e-03  -6.46456936e-03
    6.51128404e-03   7.62671512e-03  -1.14050061e-02  -5.81619097e-03
   -5.97616099e-03   1.13669019e-02  -4.77109384e-03   1.75306760e-02]
 [ -4.60343109e-03  -1.14288107e-02   5.10537578e-03  -6.85407873e-03
   -8.34500883e-03   4.84481594e-03   5.82817430e-03  -5.90887060e-03
    6.00942317e-03   7.39767775e-03  -1.10347895e-02  -5.91562875e-03
   -5.73168183e-03   1.13029825e-02  -4.48258035e-03   1.73499975e-02]
 [ -4.19782521e-03  -1.11718820e-02   4.75929957e-03  -6.42485870e-03
   -8.17085151e-03   4.56037698e-03   5.41127846e-03  -5.55869378e-03
    6.04350818e-03   7.67336087e-03  -1.07150460e-02  -5.30591607e-03
   -5.65646961e-03   1.16316471e-02  -4.04704409e-03   1.66995116e-02]
 [ -3.96463322e-03  -1.07781608e-02   5.26948599e-03  -6.18722569e-03
   -8.22654832e-03   4.24137199e-03   5.25473990e-03  -5.37546026e-03
    5.50321676e-03   7.64312455e-03  -1.05649224e-02  -5.49357431e-03
   -5.33828232e-03   1.12893097e-02  -3.76731670e-03   1.67079456e-02]
 [ -4.49090637e-03  -1.11146243e-02   5.29336510e-03  -6.73846668e-03
   -8.37566890e-03   4.47157538e-03   5.77801233e-03  -5.88906463e-03
    5.92035335e-03   7.60856876e-03  -1.11134779e-02  -5.65543445e-03
   -5.83991501e-03   1.13544660e-02  -3.87221924e-03   1.71715915e-02]
 [ -4.48184693e-03  -1.14370966e-02   5.14079304e-03  -6.70712814e-03
   -8.75136256e-03   4.96765319e-03   5.69566386e-03  -5.79662109e-03
    6.18993584e-03   7.34402426e-03  -1.10881748e-02  -5.33003034e-03
   -5.79494052e-03   1.14899818e-02  -4.68569342e-03   1.67872123e-02]
 [ -4.18982934e-03  -1.15270112e-02   4.94602975e-03  -6.78558555e-03
   -8.72029178e-03   5.02344454e-03   5.79291722e-03  -6.02293340e-03
    6.40778895e-03   7.21069518e-03  -1.10813696e-02  -5.20853791e-03
   -5.79184107e-03   1.09736612e-02  -4.56281984e-03   1.70832202e-02]
 [ -4.51907190e-03  -1.17771598e-02   5.35706570e-03  -6.88776607e-03
   -8.83867871e-03   5.03003597e-03   5.81515860e-03  -6.07464323e-03
    6.42811041e-03   7.51342997e-03  -1.15208086e-02  -5.88221103e-03
   -6.11240696e-03   1.11456364e-02  -4.56310017e-03   1.72249172e-02]
 [  6.02390617e-03   1.32611871e-01   2.09601503e-02   6.48983046e-02
   -4.35101017e-02  -4.86840792e-02  -5.61835170e-02   5.60467690e-02
   -6.26812577e-02   1.17922183e-02  -1.19675007e-02  -5.73817408e-03
    8.54935590e-03   2.55249050e-02   4.38141674e-02   5.91267794e-02]
 [  2.03539710e-03  -8.23931862e-03  -4.04693969e-02   6.72412217e-02
   -5.09016365e-02   2.88352910e-02  -5.73799051e-02   5.89396544e-02
    3.41087244e-02  -3.34815169e-03  -7.44542014e-03   2.46340167e-02
   -5.49537828e-03  -9.04259179e-03  -2.79644188e-02  -1.91042006e-01]
 [ -3.66840139e-03  -1.05569446e-02   4.79818135e-03  -6.51228894e-03
   -8.19076970e-03   4.65044938e-03   5.30606322e-03  -5.71472850e-03
    5.82180778e-03   7.32919853e-03  -1.04233827e-02  -5.14568854e-03
   -5.21558896e-03   1.11794379e-02  -4.32368321e-03   1.64004453e-02]
 [  2.04322115e-03  -1.72813777e-02   2.36517750e-02   6.46106303e-02
    9.04256105e-02   2.64343675e-02  -5.54684475e-02   5.76208718e-02
    3.84113863e-02   1.07770413e-02   1.25470340e-01  -8.11473001e-03
    8.15987028e-03   2.93435529e-02  -2.38377042e-02   5.15930131e-02]
 [ -1.43892813e+00   1.42256841e-02   1.34989357e+00   1.24746370e+00
    1.26900062e-01   1.11712646e+00  -1.31994903e+00   1.35074484e+00
    1.41792822e+00   1.12530994e+00   1.27150919e-02  -1.35752213e+00
   -1.41048551e+00   9.47270870e-01  -1.13300693e+00   1.02273905e+00]
 [ -1.09604061e+00  -3.32825691e-01   1.16443348e+00   1.10623217e+00
    8.14917535e-02   1.24758279e+00  -1.05643749e+00   1.10975027e+00
    1.37063420e+00   1.14604723e+00  -9.45450854e-04  -1.15779769e+00
   -1.19831705e+00   8.49088550e-01  -1.09455097e+00   1.21696270e+00]
 [ -7.59759605e-01   2.91121583e-02   6.57239497e-01   5.24714112e-01
   -2.37797007e-01   7.93259680e-01  -3.82448524e-01   5.44249654e-01
    2.78394759e-01   7.39183068e-01   6.95201457e-02  -4.34251815e-01
   -4.28813875e-01   9.65378225e-01  -5.66624045e-01  -8.29627067e-02]
 [ -9.42819834e-01   4.98110384e-01   9.04514492e-01   7.99218655e-01
    2.06865761e-02   9.24523056e-01  -7.66434610e-01   9.05005455e-01
    9.40291047e-01   7.32410014e-01   2.89904568e-02  -9.32842076e-01
   -8.15329254e-01  -6.36720359e-02  -6.71516776e-01   8.85839999e-01]
 [ -3.49788189e-01   2.39186406e-01   2.40629941e-01   3.84774178e-01
   -4.97333944e-01   4.14733827e-01  -4.48518962e-01   8.22987407e-02
    2.69897282e-01  -8.97309110e-02   1.47168979e-01  -4.04226691e-01
   -1.24580063e-01   7.44268060e-01  -3.30257297e-01   8.90879571e-01]
 [ -1.05516183e+00  -8.46662521e-02   1.08395219e+00   7.10616887e-01
   -1.09924432e-02   9.01956379e-01  -9.81500685e-01   1.10084271e+00
    6.39552116e-01   8.82111728e-01   3.06188641e-03  -1.10133564e+00
   -1.25424814e+00   9.09656107e-01  -1.05457079e+00   9.49738622e-01]
 [ -1.78230596e+00  -1.22175906e-02   1.70229602e+00   1.70211875e+00
    5.84974997e-02   1.87711000e+00  -1.65026915e+00   1.70880139e+00
    1.75493097e+00   1.81188357e+00   3.82879712e-02  -1.74944031e+00
   -1.86275303e+00   1.67822802e+00  -1.80104601e+00   1.47813368e+00]
 [ -1.78283739e+00  -9.62505043e-02   1.78672588e+00   1.83469403e+00
    6.89760447e-02   1.75408018e+00  -1.83901310e+00   1.80086553e+00
    1.85055876e+00   1.80763292e+00   3.29566114e-02  -1.79060459e+00
   -1.95104408e+00   1.84551203e+00  -1.84023654e+00   1.55932999e+00]
 [ -1.66564894e+00  -3.70048769e-02   1.70331669e+00   1.65202594e+00
    6.08175248e-02   1.64186943e+00  -1.58449137e+00   1.73703671e+00
    1.57043922e+00   1.65883660e+00  -6.62584836e-03  -1.66739082e+00
   -1.62573874e+00   1.34649849e+00  -1.79704702e+00   2.06302905e+00]
 [ -7.47331902e-02   4.58228678e-01   1.58041477e-01   1.92776024e-01
    3.07926178e-01  -5.16075343e-02  -5.05806684e-01   4.74501364e-02
    2.41472483e-01   3.84300530e-01  -1.13332376e-01  -2.06288561e-01
    7.53703490e-02   9.49447930e-01  -6.78017065e-02   2.93478608e-01]
 [ -1.10961425e+00  -4.26157266e-02   1.05290043e+00   9.42815721e-01
    9.86597687e-02   9.52908456e-01  -9.87689376e-01   1.27560651e+00
    1.14515257e+00   1.21077621e+00  -6.93266690e-02  -1.01121545e+00
   -1.00424731e+00   5.06440043e-01  -1.22047806e+00   4.11687523e-01]
 [ -1.46603000e+00   1.81724001e-02   1.41443956e+00   1.37495518e+00
    5.57938628e-02   1.33201861e+00  -1.39334619e+00   1.44996989e+00
    1.39908791e+00   1.48031211e+00   2.10940000e-02  -1.41891372e+00
   -1.29965711e+00   1.11614990e+00  -1.41953683e+00   7.86235869e-01]
 [ -1.66729897e-01  -8.19068924e-02   2.11502820e-01   2.99336672e-01
    2.37585381e-01   4.92951155e-01  -1.15912244e-01   6.85964078e-02
    3.26477885e-01   3.99997205e-01   1.26614213e-01  -3.78719121e-02
   -5.73385060e-01   1.92944616e-01  -1.83798730e-01   9.24694777e-01]
 [ -1.60252202e+00  -5.10855066e-03   1.44924736e+00   1.19242585e+00
   -4.52849150e-01   1.34852266e+00  -1.39273012e+00   1.29754579e+00
    1.48561561e+00   1.53355479e+00  -1.19468628e-03  -1.51008689e+00
   -1.61107302e+00   1.10908520e+00  -1.43879521e+00   8.77771914e-01]
 [ -1.80367959e+00  -3.08636185e-02   1.87331676e+00   1.86658835e+00
    5.26205823e-02   2.01744771e+00  -1.83555889e+00   1.72348213e+00
    1.81532526e+00   1.75768769e+00   7.49092698e-02  -1.86861503e+00
   -1.86836386e+00   1.52769125e+00  -1.95543206e+00   1.70671391e+00]
 [ -4.59042579e-01   1.08685093e-02   3.11452240e-01   3.95950854e-01
    2.25175813e-01   4.32481140e-01  -1.69649541e-01   3.55303407e-01
    4.14283216e-01   7.32615516e-02  -3.17361131e-02  -5.96485198e-01
   -2.50477940e-01   1.21475518e+00  -6.78609729e-01   4.50717539e-01]]
Bob
[[ -8.84137489e-03  -5.80195105e-03  -2.53431802e-03  -6.00865576e-03
   -1.51478092e-03   4.81072487e-03  -1.24442391e-02  -1.20001603e-02
   -1.23388553e-02   1.40455570e-02   5.69322752e-03  -5.46494685e-03
    1.07047018e-02  -1.67050306e-02  -1.09386910e-02  -5.17508062e-03]
 [ -1.41723128e-02  -6.57300651e-03  -3.30735301e-03  -6.30651973e-03
    8.23747739e-03   6.60004746e-03  -1.23937698e-02  -1.16748530e-02
   -1.21762017e-02   7.26756034e-03   5.56200230e-03  -5.55248186e-03
    4.97752428e-03   2.62570521e-03  -1.07645616e-02  -3.73575906e-03]
 [ -1.31415678e-02  -6.48497371e-03  -3.73355299e-03  -5.96556766e-03
    8.05407204e-03   5.88973379e-03  -1.20076509e-02  -1.13569601e-02
   -1.21394340e-02   7.72171747e-03   5.35128172e-03  -4.71441727e-03
    5.43755060e-03   2.49939901e-03  -1.05114561e-02  -3.90365231e-03]
 [ -1.37944138e-02  -5.45507204e-03  -3.45476763e-03  -5.78883709e-03
    8.03331845e-03   6.07419480e-03  -1.17394738e-02  -1.12723019e-02
   -1.15170246e-02   7.54774921e-03   5.42359101e-03  -4.60825581e-03
    5.06145740e-03   1.94218534e-03  -1.11760022e-02  -3.42015433e-03]
 [  1.22965328e-01  -8.39081034e-03  -1.07224183e-02  -1.14434781e-02
    1.41207650e-02  -5.31043075e-02  -9.58389323e-03  -2.51051039e-02
   -2.75047179e-02   6.54393248e-03   7.00407149e-03  -1.44362915e-02
    2.93374760e-03   1.98703948e-02  -1.11027779e-02  -1.20481085e-02]
 [ -2.20760666e-02  -6.67698588e-03  -4.79263533e-03  -6.41597295e-03
    1.90633405e-02   7.75911473e-03  -1.11939367e-02  -1.07392045e-02
   -1.18493214e-02  -3.59444035e-04   6.46684971e-03  -5.70139010e-03
   -1.71938410e-03   2.44018827e-02  -1.01830745e-02  -1.80467754e-03]
 [ -5.67299221e-03   4.46961224e-02  -1.55557962e-02  -1.67789385e-02
    8.12758040e-03   5.46731660e-03  -5.15327137e-03  -3.23824324e-02
   -4.28423956e-02   1.15500521e-02  -5.38553707e-02   4.69737686e-02
    7.01252650e-03  -1.38646353e-03   1.17751263e-01  -1.83469448e-02]
 [ -5.72036393e-03   4.87368442e-02   3.59072983e-02  -2.11999360e-02
    1.15655651e-02  -4.59587388e-02   1.68060884e-03   1.33545876e-01
   -5.40576242e-02  -2.72025703e-03   2.38567293e-02   4.64934260e-02
    2.53886227e-02  -2.08156998e-04  -1.08644636e-02   4.03922610e-02]
 [ -8.97318311e-03   4.99333255e-02  -3.30275595e-02  -1.91909894e-02
    1.68813649e-03  -5.25393263e-02  -2.45242729e-03  -1.74964797e-02
    1.39386594e-01   1.55569464e-02   2.57836711e-02   5.13700806e-02
   -3.02151591e-03  -8.43057351e-05  -1.08313486e-02  -2.30039116e-02]
 [ -8.80282186e-03  -5.87846898e-03  -2.37918994e-03  -6.60344027e-03
   -1.83489372e-03   4.64628311e-03  -1.28226327e-02  -1.20460857e-02
   -1.25786895e-02   1.42704416e-02   5.23292972e-03  -4.88563813e-03
    1.06830494e-02  -1.70980599e-02  -1.13906981e-02  -5.12390630e-03]
 [ -1.36023089e-02  -5.02664968e-03  -2.84864288e-03  -5.15597546e-03
    7.90646393e-03   5.79759153e-03  -1.13159856e-02  -1.06315482e-02
   -1.14262849e-02   7.22606154e-03   5.03641274e-03  -3.96087067e-03
    4.66781715e-03   2.62490707e-03  -1.07582491e-02  -2.65878229e-03]
 [ -1.34688672e-02  -5.31141367e-03  -3.08035640e-03  -5.44366566e-03
    7.72076333e-03   6.41018106e-03  -1.15657775e-02  -1.04268789e-02
   -1.19326115e-02   7.23506231e-03   4.37753880e-03  -4.77937749e-03
    4.84869676e-03   1.52550300e-03  -1.01310806e-02  -3.18952394e-03]
 [ -1.42076099e-02  -6.14404120e-03  -3.39055527e-03  -6.24123123e-03
    8.37908220e-03   6.87780976e-03  -1.27565907e-02  -1.19363675e-02
   -1.17808785e-02   7.53717916e-03   5.27997129e-03  -4.79649147e-03
    5.09373518e-03   1.59287790e-03  -1.13927275e-02  -3.40294535e-03]
 [ -8.26790556e-03  -6.19283738e-03  -2.59686750e-03  -6.21811952e-03
   -1.61833107e-03   5.16395736e-03  -1.27684828e-02  -1.27928136e-02
   -1.29923671e-02   1.42114889e-02   5.27808303e-03  -5.50426682e-03
    1.06615974e-02  -1.70796216e-02  -1.08325500e-02  -5.60173206e-03]
 [ -1.39318444e-02  -5.21431025e-03  -2.73013860e-03  -5.61202643e-03
    7.56369159e-03   5.77047095e-03  -1.16744256e-02  -1.05142044e-02
   -1.12857791e-02   7.44190114e-03   5.22414083e-03  -4.20921156e-03
    4.69822949e-03   1.84640510e-03  -1.08939968e-02  -2.73240381e-03]
 [ -8.35194904e-03   5.23222834e-02  -1.06436517e-02   5.31015359e-02
    1.13547593e-02   3.36302584e-03   1.18773408e-01  -2.97694728e-02
   -2.97081210e-02  -2.15023081e-03   1.84459798e-02  -1.35587845e-02
    1.74838286e-02  -1.49361312e-03  -1.36178257e-02  -1.37409549e-02]
 [ -4.36171651e-01   2.11635128e-01  -5.93747199e-01  -5.48035026e-01
    3.64927620e-01  -5.62847733e-01   1.93922013e-01  -2.86780894e-01
   -3.60045642e-01   4.34815943e-01   5.82569003e-01   6.32261753e-01
    5.96407115e-01  -1.48940787e-01  -8.06811079e-02  -2.17740983e-01]
 [ -1.88275993e+00   1.94508290e+00  -1.96038616e+00  -1.99731779e+00
    1.93290257e+00  -2.00694394e+00   4.55404557e-02  -1.80942488e+00
   -1.79225338e+00   1.86800814e+00   1.89386106e+00   1.93296838e+00
    1.83819044e+00  -4.01969403e-02   2.43027322e-02  -1.99455607e+00]
 [ -9.82528999e-02   4.35567200e-01  -3.01820517e-01   1.74872354e-02
    2.34108672e-01  -5.00684604e-02   5.70982955e-02  -2.37040773e-01
   -1.38778925e+00   2.25279346e-01   3.56131315e-01   5.34416735e-01
    4.86050040e-01  -2.20832646e-01  -1.52772680e-01  -3.19289625e-01]
 [ -1.35620058e+00   1.20781970e+00  -1.03423274e+00  -1.34989107e+00
    1.33152878e+00  -1.07973826e+00  -2.45584443e-01  -1.03681564e+00
   -8.93868327e-01   1.30925703e+00   1.02449596e+00   9.86827433e-01
    1.14724576e+00  -2.72739008e-02   1.24340095e-01  -1.08482146e+00]
 [ -1.71134996e+00   1.92167866e+00  -1.94233537e+00  -1.82307327e+00
    1.89270866e+00  -1.83750093e+00  -1.44026995e-01  -1.71970832e+00
   -1.17593074e+00   1.62792742e+00   1.81012499e+00   1.88636363e+00
    1.73044622e+00   6.94854081e-01   5.98182119e-02  -1.94600141e+00]
 [ -1.04369450e+00   9.62302446e-01  -1.07707453e+00  -7.22974181e-01
    8.47470224e-01  -1.18148220e+00   2.76043683e-01  -7.84471393e-01
   -2.81066895e-01   1.31292248e+00   1.06091070e+00   1.05363357e+00
    1.19232285e+00  -2.81999230e-01  -3.40585262e-02  -1.12318897e+00]
 [ -1.03056085e+00   8.51937592e-01  -1.36393666e+00  -7.13577151e-01
    9.94641483e-01  -9.23391998e-01  -2.61119567e-02  -1.03868055e+00
   -7.45390892e-01   1.27727795e+00   1.14218855e+00   1.28407168e+00
    1.01913536e+00   7.68318847e-02   1.02979042e-01  -8.97485018e-01]
 [ -9.49929178e-01   1.20393908e+00  -1.04501140e+00  -1.17937541e+00
    9.70250487e-01  -9.98021543e-01  -3.33783254e-02  -1.16903150e+00
   -8.53469789e-01   6.78839564e-01   1.25740957e+00   1.15351725e+00
    1.07757103e+00  -1.93207681e-01  -1.67553276e-01  -1.16755593e+00]
 [ -8.98232520e-01   9.55036223e-01  -8.61728787e-01  -9.59286094e-01
    8.86965275e-01  -8.30229342e-01   8.02905038e-02  -1.07020712e+00
   -8.00816059e-01   5.14251828e-01   7.54281402e-01   5.48932493e-01
    8.69886875e-01  -2.23770320e-01   1.54065892e-01  -7.56173790e-01]
 [ -3.07727069e-01   3.44520718e-01  -1.42048462e-03  -3.60124022e-01
    2.36503810e-01  -3.39761108e-01   9.37660784e-02  -1.67619631e-01
   -8.06999385e-01   2.51614213e-01   2.02395812e-01   1.24444805e-01
    1.87773019e-01   2.11851269e-01  -1.55950591e-01   5.71196666e-03]
 [ -1.97052360e+00   1.63040352e+00  -1.73263645e+00  -1.85079730e+00
    1.64908826e+00  -1.83074474e+00  -5.55360317e-02  -1.68012059e+00
   -1.59041214e+00   1.90945721e+00   1.84863210e+00   1.80139422e+00
    1.91056025e+00   4.22584526e-02   5.78940399e-02  -1.76221621e+00]
 [ -3.63138989e-02   5.10954916e-01  -2.03648910e-01  -4.90262032e-01
    3.46407108e-02  -5.24052799e-01   2.41428375e-01  -5.47693908e-01
   -8.97480786e-01   3.18737835e-01   2.82725543e-01   1.80272639e-01
    1.67570844e-01  -2.29360275e-02   1.45157054e-01  -2.00126559e-01]
 [ -4.84052420e-01   4.50322062e-01  -4.16597456e-01  -2.82986313e-01
    5.66932023e-01  -5.79501450e-01   3.45204562e-01  -5.71496367e-01
   -2.05528408e-01   6.95388973e-01   6.47380531e-01   6.24355435e-01
    1.47668257e-01   2.91158468e-01  -1.29843593e-01  -7.50157595e-01]
 [ -4.50071245e-01  -2.34728865e-02  -2.61897892e-01  -2.15858057e-01
    1.45900860e-01  -1.77159369e-01   8.09451658e-03  -7.41610944e-01
   -9.15593028e-01   1.42839074e-01   1.37162805e-01   1.58318505e-01
    2.18010545e-01   2.57937331e-02   1.54921502e-01  -3.56387258e-01]
 [ -1.00729346e+00   6.19485795e-01  -7.96845794e-01  -9.20643210e-01
    8.57476234e-01  -5.69054604e-01   3.10760319e-01  -5.04221261e-01
   -1.23310648e-01   7.97586024e-01   8.92757297e-01   1.00235963e+00
    6.10200047e-01   2.45996177e-01  -4.33158949e-02  -8.71550143e-01]
 [ -1.75479567e+00   1.66409361e+00  -1.79948568e+00  -1.79858136e+00
    1.79770184e+00  -1.81514847e+00  -1.09523199e-01  -1.63011849e+00
   -1.62181568e+00   1.74964750e+00   1.74018502e+00   1.75257170e+00
    1.71404099e+00  -7.91647509e-02   5.93652576e-02  -1.83496439e+00]]
Eve
[[ 3.09191585  0.30889192 -3.03398085  2.89818287 -0.72966444  3.31300259
  -2.9100039   3.31295609  3.16936612 -3.13743615  0.3671872   2.96022868
   2.95505762  3.36208463  3.34436369  3.29642463]
 [ 3.15417576  2.41499591 -3.58524728  3.10075951  0.09261454  3.68324709
  -3.19553733  3.26488256  3.28866744 -3.54128242 -0.95645499  3.70383096
   3.16432548  3.26441455  3.50994754  3.85130548]
 [ 3.40190768 -0.32908428 -3.73642325  3.06465554  0.37681541  3.21473002
  -3.6958003   3.65945935  3.67388463 -3.21739888 -0.24925318  3.62113643
   3.60784507  3.32985759  3.38616228  3.29348588]
 [ 3.58349276  0.70196211 -3.80052066  3.40999579  0.23454316  3.71368051
  -3.51339936  3.73828721  3.55146265 -3.59688354 -0.78178859  3.62523222
   3.14266491  3.18738937  3.22623825  3.48828459]
 [ 3.88183022  0.81638497 -3.55020046  3.49408913 -2.7122407   3.2314651
  -3.37828684  3.86145234  3.39238381 -3.77603936 -0.74607921  3.3174808
   3.5908258   3.55424762  3.75451159  3.84441066]
 [ 3.68509459  1.00268257 -3.04649591  3.43682289  0.38545465  3.16034865
  -3.46527553  3.02815628  3.40365076 -3.41636324 -0.97693861  3.28363156
   3.14359331  3.37098026  3.59283733  3.41183758]
 [ 3.74873853  0.46097079 -3.27600455  3.80417585  0.25625989  3.81950188
  -3.61949801  3.43958569  3.74313092 -3.53261113 -0.4188419   3.54200149
   3.79190564  3.83236909  3.84860182  3.59371805]
 [ 3.5271318   0.29663771 -3.38404822  3.53740597  0.16953453  3.34356761
  -3.71695399  3.6310482   3.69045138 -3.42515469 -0.3879413   3.4979744
   3.58451581  3.78289175  3.40012312  3.64096165]
 [ 3.73593044  0.6917634  -3.78320003  3.57667136  0.26843518  3.49474525
  -3.58497238  3.11241698  3.51890302 -3.65887618 -0.70549095  3.68927217
   3.22275352  3.14991474  3.72399974  3.17275357]
 [ 3.53830862 -0.12548518 -3.69969988  3.14493322 -0.63713109  3.8008666
  -3.62836957  3.68301678  3.74932456 -3.35193992  0.8587603   3.44429278
   3.3431108   3.14840984  3.81936765  3.48599839]
 [ 3.57423377  0.85348433 -3.82497478  3.22277594 -2.57805967  3.7776792
  -3.4120326   3.22402287  3.58079529 -3.53170753 -3.12037301  3.7947154
   3.63716149  3.46253514  3.44976449  3.3476994 ]
 [ 3.374681    0.01309921 -3.65288019  3.6026125   0.10681253  3.13857245
  -3.38096833  3.38115525  3.16763878 -3.560534    0.25864694  3.20287061
   3.70190978  3.27024603  3.41034484  3.63936186]
 [ 3.37273622  0.11097881 -3.42708206  3.46923423 -1.08832884  3.44716525
  -3.20531654  3.57894087  2.95364642 -3.06099892  0.54188979  3.07718682
   3.50661063  3.52023005  3.64683199  3.415308  ]
 [ 4.01809931 -0.16305497 -3.95620894  3.65972543 -0.72977442  3.81972027
  -3.92067385  3.58526134  3.36807775 -3.79847693  0.00837404  3.94487953
   3.85376525  3.49750423  3.56871796  3.70472908]
 [ 3.61214137  0.75718862 -3.58526778  3.57427502  0.36015072  3.44190907
  -3.19492602  3.36029935  3.16676068 -3.63123727 -0.33146444  3.69363999
   3.60716963  3.41053247  3.13596249  3.47951841]
 [ 3.32925439  0.54945636 -3.50507927  3.40065241  0.3405146   3.76448464
  -3.42821074  3.61340332  3.2708168  -3.49498296 -0.56827712  3.24960685
   3.75288558  3.57161832  3.43195558  3.43692732]
 [ 3.60830259  0.6708858  -3.74398422  3.67382574 -0.00770722  3.48043609
  -3.76363397  3.1197319   3.36648083 -3.50723267 -0.45167974  3.78924751
   3.58524179  3.53864074  3.2148273   3.56256509]
 [ 3.34057903  1.1962595  -3.55172992  3.64637136 -0.35992187  3.39249587
  -3.39876008  3.32381558  3.63369203 -3.76602602 -0.59642911  3.53611517
   3.73121572  3.46877885  3.69733357  3.18307376]
 [ 3.71063828  0.1772289  -3.16778541  3.20149708 -0.82367015  3.5146873
  -3.61743546  3.66628289  3.21310425 -3.70149112 -0.37004104  3.45776916
   3.49860239  3.32385182  3.17375088  3.23558664]
 [ 3.69412017  0.3200362  -3.6997478   3.39307594 -0.79379207  3.62434077
  -3.15193224  3.46804953  3.72114277 -3.17857909 -0.74536896  3.44596291
   3.62102914  3.27196503  3.42903447  3.36921883]
 [ 3.57291055 -0.52971935 -3.55122042  3.60147834 -0.81121129  3.61092067
  -3.62678862  3.35349965  3.32853055 -3.09144545  0.50802028  3.12603927
   3.28739309  3.73824024  3.50296545  3.12739968]
 [ 3.30559659  0.52898616 -3.18463182  3.83394265 -0.90330023  3.22513008
  -3.25422478  3.43205738  3.78122711 -3.3949399  -0.34351051  3.81159043
   3.36469293  3.65589857  3.2745204   3.76703048]
 [ 3.34831238  2.66230774 -3.57754302  3.75260925 -0.70101678  3.35250974
  -3.67295265  3.72755075  3.43640566 -3.14401126 -0.65648758  3.30377817
   3.59294343  3.42430854  3.40749502  3.2795136 ]
 [ 3.58029509  0.80688322 -3.6486485   3.21283126 -0.69526929  3.19453216
  -3.6440587   3.77575707  3.29580927 -3.35491443 -0.69495624  3.17902231
   3.18346071  3.31064105  3.22548962  3.25074935]
 [ 3.55427003  0.52278364 -3.74137211  3.279984   -0.51579201  3.75815105
  -3.24687243  3.57788491  3.37413168 -3.8735702  -0.50712907  3.70009446
   3.68838644  3.86179805  3.71909237  3.79360604]
 [ 3.80422783 -0.28345209 -3.69932318  3.34211183  0.42179704  3.44893551
  -3.29815459  3.48512959  3.73311019 -3.1507237   0.50773323  3.16910315
   3.69767928  3.63131762  3.09772944  3.49783754]
 [ 3.81827879  0.55566466 -3.70149446  3.62559009 -0.73418599  3.1012814
  -3.28169417  3.57399487  3.64066958 -3.56624055 -0.13280047  3.44663787
   3.24653959  3.34471536  3.17969561  3.73904443]
 [ 3.66104698  0.20014715 -3.76104641  3.14203954 -0.5375644   3.56429029
  -3.07830977  3.43389606  3.23110366 -3.70691657 -0.93082803  3.34406352
   3.01708245  3.41803026  3.45265627  3.60593057]
 [ 3.23403764 -0.08922927 -3.29288554  3.44588041  0.06602009  3.72698474
  -3.69399166  3.6925807   3.69776797 -3.16636419  0.4121342   3.44572759
   3.64386082  3.31535697  3.6143868   3.7105248 ]
 [ 3.15382361  1.30571103 -3.20263743  3.11576462 -2.5354526   2.98450136
  -3.56018281  3.3453691   3.40310621 -3.54533386 -0.80093342  3.42142701
   3.52003193  3.31907845  3.47075939  3.16533875]
 [ 3.69947863  1.16791344 -3.43793344  3.75236964 -0.70000345  3.30544305
  -3.31105828  3.4012053   3.31489825 -3.48451352 -2.63749576  3.85653448
   3.75128841  3.77557516  3.59243798  3.51911616]
 [ 3.18232703 -0.28780931 -3.53457046  3.56622744  0.02003777  3.27779174
  -3.3448348   2.97998929  3.09392309 -3.15082645 -0.07348529  3.23548532
   3.31338263  3.54882789  2.99705529  3.1871922 ]]