Alice
[[-0.07198047 -0.020453    0.02335137  0.03307773  0.14314952 -0.01896556
   0.03524186  0.02278699]
 [-0.01596875 -0.0113951   0.0150301   0.01449565 -0.05052672  0.02369096
   0.02749932  0.00934921]
 [ 0.02874441 -0.02072413  0.02089068  0.01776046 -0.03366772  0.02683264
   0.01150596  0.02035966]
 [ 0.0286944  -0.02069731  0.02046807  0.01738812 -0.03257066  0.02658913
   0.01107132  0.02048718]
 [ 0.02817061 -0.02097533  0.02091168  0.01796493 -0.03316939  0.02673071
   0.01178062  0.02079931]
 [ 0.02863847 -0.0212821   0.02099789  0.01812048 -0.03306907  0.02663926
   0.01157931  0.02101024]
 [ 0.02915626 -0.02085375  0.02083081  0.0176545  -0.03376984  0.02622941
   0.01132626  0.02040418]
 [-0.07247331 -0.02051428  0.02355774  0.03332293  0.14227834 -0.01876953
   0.03552378  0.02282136]
 [-0.33317253 -2.17468309  1.98207617  1.82181752  0.02154875  1.98693192
   1.97955537  1.95305645]
 [ 0.66495085 -1.35514319  1.61563623  1.20084095  1.25686264  1.39306581
   1.55415714  1.93411386]
 [-0.18478575 -1.85195577  0.97880566  1.50588417 -0.83480877  1.62947822
   1.83875847  1.19620156]
 [-0.25206503 -1.89740098  2.37856388  1.78067267 -0.00616411  1.95254028
   1.93755436  1.84919977]
 [-0.21242025 -2.02439117  2.11376071  1.97582662 -0.00827494  2.65967679
   2.07675481  2.02003694]
 [ 0.78405774 -2.30806518  2.32481623  2.40615249 -0.00461923  2.62804317
   2.45034647  2.39661694]
 [-0.0726231  -1.50483739  1.63353014  1.65153968  0.04161025  1.66619039
   1.81728995  1.69706511]
 [ 0.08710304 -1.29703522  1.51040876  1.82237673 -0.57908243  1.19313574
   0.93494987  1.225088  ]]
Bob
[[ -1.70003157e-03  -1.38584152e-02   1.41346706e-02   1.57319140e-02
   -1.69921536e-02   3.63679379e-02  -2.66239252e-02   1.34719713e-02]
 [  9.27147642e-03  -2.02973317e-02   1.39435288e-02   1.60598978e-02
   -1.72134619e-02   3.27881426e-02  -2.32159104e-02   1.07898917e-02]
 [  8.78411811e-03  -2.06558611e-02   1.39704794e-02   1.63048692e-02
   -1.63394790e-02   3.26252319e-02  -2.36629471e-02   1.14932815e-02]
 [ -1.63409635e-02  -2.20024157e-02   3.24460045e-02   1.57906581e-02
    4.68607657e-02   1.98226608e-02  -2.41561662e-02   2.92023476e-02]
 [ -1.53404325e-02   2.90232934e-02  -1.33002633e-02  -4.48492132e-02
   -5.91999441e-02  -1.57410875e-01  -2.29097977e-02  -1.74813308e-02]
 [ -1.88163691e-03  -1.32745970e-02   1.33033097e-02   1.63416285e-02
   -1.66352689e-02   3.64148878e-02  -2.46838592e-02   1.39441770e-02]
 [ -5.75048570e-03  -1.89493056e-02   1.43248113e-02  -4.91539724e-02
   -1.69307962e-02   3.24436203e-02   7.52439946e-02   2.44192909e-02]
 [  1.83944702e-02  -1.93877481e-02   5.73126925e-03  -4.78587039e-02
    5.06151691e-02   2.11263020e-02  -3.30760628e-02   5.68619277e-03]
 [  3.42491195e-02  -1.58693588e+00   2.14744282e+00  -1.93935370e+00
   -1.80926442e+00   3.01162869e-01  -1.86717522e+00   1.52632618e+00]
 [ -6.31423891e-01  -9.31287348e-01   1.04671288e+00  -8.65593731e-01
   -1.53599250e+00   6.51164114e-01  -1.23780465e+00   1.59882355e+00]
 [  8.12685013e-01  -1.32720768e+00   9.21935856e-01  -1.33199227e+00
   -1.07574391e+00  -3.55628103e-01  -1.41923404e+00   8.02480102e-01]
 [ -4.87082094e-01  -1.26478422e+00   1.47446489e+00  -1.76750648e+00
   -1.58897519e+00  -2.22960219e-01  -1.30884135e+00   1.44424176e+00]
 [  9.79694486e-01  -2.17410159e+00   1.82072425e+00  -1.92478895e+00
   -2.10059667e+00  -4.41938192e-02  -1.83007181e+00   2.27043581e+00]
 [ -1.51624203e-01  -1.26507938e+00   1.09843349e+00  -1.38126409e+00
   -1.53604186e+00   8.97142708e-01  -1.42524660e+00   1.18348753e+00]
 [ -1.24701746e-02  -1.63783801e+00   1.15997088e+00  -7.80736864e-01
   -1.28872085e+00  -1.10822344e+00  -1.25776780e+00   1.36738610e+00]
 [  4.12294000e-01  -8.54504406e-01   1.58757234e+00  -1.37455571e+00
   -6.76119208e-01   2.75010675e-01  -8.89169574e-01   8.29892933e-01]]
Eve
[[-2.58352399 -3.85625291  3.8637898   3.36017799  3.28424406 -3.4338088
   3.35441995  3.02483201]
 [-1.38551676 -3.4629755   3.1794529   3.56068206 -1.10141575 -3.88726592
   3.50238895  3.73121905]
 [-0.23789205 -3.1997757   3.97475338  3.7302115   1.8184042  -3.28230333
   3.34973502  3.72338843]
 [-0.84268892 -3.0519352   3.21515441  3.68929791  0.20921248 -3.65945649
   3.18229723  3.55672026]
 [ 0.27630782 -4.0839839   3.53374529  3.70767856  3.2274766  -3.87295938
   3.93113089  3.94251037]
 [-1.71474218 -3.46651793  4.00577879  3.81396675 -1.22037363 -3.14500427
   3.97174263  3.18314815]
 [ 0.73632306 -3.41791821  3.3482821   3.81751299  1.68695056 -3.50484729
   3.32738709  3.2992723 ]
 [-0.31307065 -3.64080143  3.3479476   3.76702499  1.38497102 -3.97914648
   3.75532699  3.40379715]
 [-2.4123981  -3.04382515  3.26238155  2.89651203  2.11929154 -3.14825654
   3.64442205  3.31119704]
 [-2.51581383 -3.33783364  3.11271834  3.66972613  2.03715348 -3.28766298
   3.24732447  3.65706992]
 [-1.74476206 -3.2368679   3.87350607  2.91013718 -0.54587436 -3.39300942
   3.86768961  3.01564813]
 [-1.37063622 -3.52636671  3.47166991  3.39870286  2.16465974 -3.51990891
   3.61702037  3.94582391]
 [-1.65504205 -3.2906673   3.90866804  3.44586253  1.92347121 -3.72433901
   3.82434368  3.82790995]
 [-2.68614578 -3.39929962  3.54952645  3.31293726  1.46055865 -3.30876303
   4.02041149  3.10046315]
 [-1.49302816 -3.01916671  3.15525723  3.70244646  1.93966746 -2.96183944
   2.9733758   3.44203329]
 [-2.50112271 -3.86850357  3.02766109  3.29671097  0.0335624  -3.17510867
   3.64697623  3.71145725]]