Alice
[[ -3.66987614e-03   1.52126746e-03  -2.57598166e-03   3.33283073e-03
    5.03927423e-03  -3.15523311e-03  -2.30624271e-03  -5.89372171e-03
    5.80324559e-03  -1.88119162e-03  -6.72451686e-03  -3.05694202e-03
   -7.04620965e-03  -2.85363547e-03  -4.70874831e-03   3.24517768e-03]
 [ -3.74744134e-03   2.23706290e-03  -3.03695002e-03   2.69961869e-03
    5.62537694e-03  -3.65190883e-03  -2.72801844e-03  -6.02322211e-03
    6.36699190e-03  -2.12408323e-03  -7.20962463e-03  -3.05338670e-03
   -7.36172823e-03  -3.58814327e-03  -4.67758439e-03   3.96392914e-03]
 [ -3.47775058e-03   1.93100469e-03  -2.68343952e-03   2.59463908e-03
    5.35730552e-03  -3.10180080e-03  -2.81559164e-03  -5.87137602e-03
    5.65481326e-03  -1.56432856e-03  -7.19516492e-03  -2.98239617e-03
   -6.98715029e-03  -2.68840999e-03  -4.60360060e-03   3.55484337e-03]
 [ -3.65854451e-03   2.19309307e-03  -3.21429642e-03   3.03853606e-03
    5.55843627e-03  -3.25203012e-03  -2.78747035e-03  -6.21993002e-03
    6.26402022e-03  -1.71800051e-03  -7.49588478e-03  -2.96723726e-03
   -7.08679343e-03  -3.16902949e-03  -5.05064754e-03   3.58254253e-03]
 [ -1.14479242e-02  -1.31220464e-02  -5.27433306e-03   9.60359909e-03
   -6.38141930e-02  -1.02839088e-02   1.84524879e-02  -9.95470118e-03
    3.41700553e-03   1.74301900e-02  -2.63695815e-03   2.82973424e-02
   -9.99444514e-04  -1.21415118e-02  -1.88722592e-02  -4.70330715e-02]
 [ -2.71936855e-03  -1.09151462e-02  -6.79229852e-03  -2.90640946e-02
    4.63509047e-03  -1.10480096e-02  -3.73703404e-03   6.71030134e-02
    8.39147833e-04  -2.78315395e-02  -8.98901955e-04   3.17780934e-02
    7.94094347e-04  -8.28537531e-03  -1.46129625e-02   1.35306343e-02]
 [ -4.21112916e-03   2.15490907e-03  -3.04882391e-03   2.99438904e-03
    5.37703466e-03  -3.19717103e-03  -2.62520788e-03  -6.29074220e-03
    5.94095467e-03  -2.30298098e-03  -7.42510334e-03  -3.44366767e-03
   -7.33868731e-03  -2.81277741e-03  -5.15538501e-03   3.90743278e-03]
 [ -1.34067684e-02  -1.15983756e-02  -3.49083380e-03  -2.54661012e-02
    3.61359539e-03   4.23894599e-02   1.92310940e-02  -1.14637110e-02
   -6.77803978e-02   1.68074202e-02  -2.83425441e-03  -8.40524398e-03
   -1.42092956e-03  -1.19701335e-02  -1.71070099e-02   1.25194509e-02]
 [ -4.39252425e-03   2.13141390e-03  -2.72621773e-03   2.82114837e-03
    5.13965823e-03  -3.60325747e-03  -2.30088388e-03  -5.91036724e-03
    6.22115517e-03  -2.33829650e-03  -7.14016845e-03  -3.16371839e-03
   -7.62757007e-03  -3.00767832e-03  -4.84624784e-03   3.96925025e-03]
 [ -3.72572825e-03   1.86066085e-03  -3.31723969e-03   2.46909959e-03
    4.63026296e-03  -2.75694602e-03  -2.21613632e-03  -5.40571800e-03
    5.93836326e-03  -1.33550365e-03  -6.78635202e-03  -2.63581122e-03
   -6.83610700e-03  -2.71596317e-03  -4.50551324e-03   3.15841148e-03]
 [ -8.54072068e-03  -1.30720502e-02   3.34085785e-02   5.00328606e-03
    4.73719602e-03  -1.26659526e-02  -1.54986954e-03  -1.39843868e-02
    7.65226223e-03  -3.00355861e-03  -5.07875998e-03  -7.68131251e-03
    6.32109791e-02  -7.79521186e-03  -1.17574967e-02   1.14972526e-02]
 [ -7.85033591e-03  -1.32744452e-02  -1.46238608e-02   5.69667155e-03
    3.70004470e-03  -1.12647805e-02   1.89259518e-02  -1.18241012e-02
    5.77038340e-03  -4.34287125e-03   6.41926676e-02  -7.68255722e-03
   -3.28938267e-03   3.62785906e-02  -1.51466476e-02   1.06243901e-02]
 [ -3.74669163e-03   1.52970490e-03  -2.44507170e-03   2.75343913e-03
    4.68017627e-03  -2.89106579e-03  -2.60287570e-03  -5.09889098e-03
    5.46698738e-03  -1.56300457e-03  -6.49320241e-03  -2.63102469e-03
   -6.68272097e-03  -2.54783430e-03  -4.37410362e-03   3.34529276e-03]
 [ -3.40660359e-03   2.31595780e-03  -2.58771749e-03   2.87861819e-03
    5.07386355e-03  -3.22059146e-03  -2.68381066e-03  -6.16145181e-03
    5.94767043e-03  -1.70961441e-03  -7.14675710e-03  -2.96888920e-03
   -6.57376321e-03  -2.84238625e-03  -4.86927340e-03   3.72675736e-03]
 [  5.48509285e-02   1.59775256e-04  -6.60528196e-03  -2.86014061e-02
    1.30424555e-02  -9.51087661e-03   1.98410396e-02  -1.00813238e-02
    1.05347000e-02   4.02003489e-02   2.33015767e-03   2.60243546e-02
    3.78025486e-03  -6.70810649e-03   5.00606708e-02   1.02511086e-02]
 [ -3.93244438e-03   1.60226470e-03  -2.42510345e-03   2.80124415e-03
    5.01504401e-03  -3.53576941e-03  -2.28787935e-03  -5.83931059e-03
    5.96421398e-03  -1.94559724e-03  -6.65472914e-03  -2.51590484e-03
   -7.16717355e-03  -3.28936009e-03  -4.56909509e-03   3.56432260e-03]
 [ -4.87519413e-01  -1.88042033e+00  -1.83221173e+00  -2.03955221e+00
    2.61019254e+00  -1.66198492e+00   1.98312664e+00  -1.64613593e+00
    1.72707963e+00   2.10434508e+00  -1.95233309e+00   1.89222896e+00
    1.64969051e+00  -1.71822524e+00  -9.16224897e-01   1.81204844e+00]
 [ -4.08067733e-01  -2.11001611e+00  -2.08827138e+00  -2.06156683e+00
    2.82132769e+00  -1.90768945e+00   1.57284904e+00  -2.15058041e+00
    1.76593792e+00   1.93607378e+00  -1.97133136e+00   2.03653598e+00
    2.17982626e+00  -1.63277864e+00  -7.10332811e-01   1.63752246e+00]
 [ -2.68288970e-01  -1.29637599e+00  -1.31054127e+00  -1.29437876e+00
   -7.97045529e-01  -1.30901146e+00   1.28980267e+00  -1.32139373e+00
    9.61041972e-02   1.30356681e+00  -1.35315979e+00   1.28886366e+00
    1.34035325e+00  -1.29021633e+00  -3.68509889e-01   1.31329167e+00]
 [ -7.46981025e-01  -1.58052790e+00  -1.54556704e+00  -1.56196654e+00
    2.70438862e+00  -2.25994515e+00   1.71417677e+00  -1.83188260e+00
    2.37800455e+00   1.81713831e+00  -1.81567883e+00   1.81451237e+00
    2.13702583e+00  -1.93868124e+00  -7.70599544e-01   1.81808352e+00]
 [ -5.93672872e-01  -2.00438809e+00  -2.10424137e+00  -2.01747727e+00
    2.59654617e+00  -1.89018703e+00   1.76092756e+00  -2.11939240e+00
    1.93087935e+00   1.89728212e+00  -2.03389263e+00   1.94801235e+00
    2.24786091e+00  -1.85040283e+00  -6.44801557e-01   2.17366099e+00]
 [ -5.70108950e-01  -2.15662479e+00  -1.90515244e+00  -1.56426692e+00
    2.85235858e+00  -1.74516475e+00   1.71801567e+00  -2.08977866e+00
    1.97637987e+00   2.12106752e+00  -1.93471849e+00   1.85192788e+00
    1.77766263e+00  -2.12079787e+00  -5.61381578e-01   2.05405903e+00]
 [ -4.02781636e-01  -2.02953601e+00  -1.62261629e+00  -1.76831400e+00
    2.27006745e+00  -1.79606771e+00   2.11838889e+00  -1.71221495e+00
    1.76852262e+00   1.95001197e+00  -1.88211906e+00   1.74228549e+00
    1.78630018e+00  -2.11930346e+00  -9.74189162e-01   1.94190025e+00]
 [ -3.70097339e-01  -1.97049129e+00  -1.89414608e+00  -1.64408123e+00
    2.41478610e+00  -2.18875051e+00   2.05454397e+00  -1.83647382e+00
    2.36489201e+00   2.00459552e+00  -2.16625309e+00   1.97477102e+00
    1.97664726e+00  -2.06696224e+00  -8.70700598e-01   1.92587566e+00]
 [ -2.96320319e-01  -1.91389680e+00  -1.94305432e+00  -2.02564073e+00
    2.47550178e+00  -1.83311224e+00   2.13858557e+00  -1.91268075e+00
    2.36264157e+00   1.71496367e+00  -2.01113629e+00   2.05877519e+00
    1.78230000e+00  -1.95660603e+00  -7.14828432e-01   2.22308874e+00]
 [ -4.18517590e-01  -1.99478912e+00  -2.14019251e+00  -1.91672885e+00
    2.70751548e+00  -2.00400257e+00   2.16196322e+00  -1.59423411e+00
    2.28938890e+00   2.09738135e+00  -2.01252317e+00   2.10742378e+00
    2.24190855e+00  -1.77853644e+00  -9.13579822e-01   1.81312585e+00]
 [ -7.89530456e-01  -1.76338923e+00  -2.00386310e+00  -2.09165096e+00
    2.89033079e+00  -1.80865145e+00   1.93915009e+00  -1.76754534e+00
    2.38395262e+00   1.94124138e+00  -1.65341544e+00   1.65361369e+00
    1.85545635e+00  -1.88867164e+00  -6.38719261e-01   2.07449007e+00]
 [  1.58234075e-01   7.74379671e-01   7.84112155e-01   7.75010943e-01
    3.77223581e-01   7.88706422e-01  -7.71543980e-01   8.07175279e-01
   -6.40824854e-01  -7.78162777e-01   8.30572009e-01  -7.68307269e-01
   -8.15901697e-01   7.65817702e-01   1.99112877e-01  -7.95415998e-01]
 [ -4.13828492e-01  -1.61931336e+00  -2.16340423e+00  -1.88564062e+00
    2.68718863e+00  -1.92824352e+00   1.67512727e+00  -2.13039470e+00
    2.17950153e+00   1.89232779e+00  -1.69425738e+00   2.09991431e+00
    1.63217103e+00  -2.10104275e+00  -8.39352012e-01   1.56214917e+00]
 [ -9.28257644e-01  -1.69454074e+00  -1.68410718e+00  -1.90458775e+00
    2.42763782e+00  -1.89464259e+00   2.07004905e+00  -1.82438147e+00
    2.22568393e+00   1.68365932e+00  -2.00083041e+00   1.56048369e+00
    2.05201793e+00  -1.70854676e+00  -9.91159022e-01   1.76146746e+00]
 [ -8.09500456e-01  -1.77519393e+00  -1.99617553e+00  -2.14847636e+00
    2.94566536e+00  -1.74391365e+00   1.55931807e+00  -1.97055411e+00
    2.19023895e+00   1.79442227e+00  -2.05377626e+00   1.93183899e+00
    2.19275808e+00  -2.21235371e+00  -9.04634893e-01   1.65465057e+00]
 [ -4.55100447e-01  -1.98017704e+00  -1.81804621e+00  -1.89133954e+00
    2.54515362e+00  -1.90078449e+00   1.84202194e+00  -2.12158942e+00
    2.32978177e+00   1.77376986e+00  -1.87129855e+00   2.05769682e+00
    1.72839999e+00  -1.53925836e+00  -6.34421647e-01   2.10888433e+00]]
Bob
[[ 0.00456982 -0.00338561 -0.21180165  0.0035327   0.00328883 -0.00338107
   0.00327973 -0.00333882 -0.003004    0.0034382  -0.00344452 -0.22358663
   0.00325145 -0.00415434  0.00360932 -0.00309694]
 [ 0.00447192 -0.00337785 -0.21121541  0.00356538  0.00321416 -0.00339154
   0.00312101 -0.00334133 -0.00301163  0.00341338 -0.00349847 -0.22362754
   0.00325933 -0.00409595  0.00364633 -0.00309205]
 [ 0.00454433 -0.0034542  -0.21222998  0.00352795  0.00330462 -0.0034498
   0.00329994 -0.00338043 -0.00308866  0.00350325 -0.0034795  -0.22364904
   0.00328007 -0.00405799  0.00363291 -0.00312262]
 [ 0.00447395 -0.00339374 -0.21150388  0.00340816  0.00329339 -0.00339718
   0.00321458 -0.00327604 -0.00297106  0.00332423 -0.00335283 -0.22279461
   0.00316653 -0.00390346  0.003541   -0.00305257]
 [ 0.00443501 -0.00329085 -0.21217608  0.00356585  0.00317172 -0.00337405
   0.00311569 -0.00334903 -0.00303789  0.00338886 -0.00350022 -0.22397812
   0.00327024 -0.00407431  0.00357966 -0.00314462]
 [ 0.0045375  -0.00340436 -0.21302179  0.00341168  0.00340184 -0.00332385
   0.00343891 -0.00342014 -0.00304669  0.00344628 -0.00324888 -0.22395238
   0.00315559 -0.00402042  0.00351485 -0.0030363 ]
 [ 0.00443366 -0.00330054 -0.21162592  0.00345085  0.0030567  -0.00335461
   0.00299455 -0.00311498 -0.00285692  0.00325579 -0.00339381 -0.22252129
   0.00315154 -0.00403565  0.00353191 -0.00297278]
 [ 0.00458819 -0.00343715 -0.21260303  0.00341596  0.00339134 -0.00338903
   0.00343918 -0.00343821 -0.00306624  0.0034651  -0.00333881 -0.22287022
   0.00321402 -0.00402946  0.00354043 -0.00310168]
 [ 0.00453309 -0.0035434  -0.21090436  0.00345131  0.00337625 -0.00347117
   0.00338559 -0.00334074 -0.00303662  0.00346151 -0.00333478 -0.22117515
   0.00323837 -0.00409608  0.00361672 -0.00303555]
 [ 0.00453027 -0.00333883 -0.2132044   0.00352662  0.00324871 -0.00339102
   0.00323257 -0.00333889 -0.00300018  0.0034372  -0.00343058 -0.22562043
   0.00321876 -0.00404542  0.00360019 -0.00307766]
 [ 0.00450749 -0.00331891 -0.21205719  0.00344834  0.0032807  -0.00329796
   0.00325985 -0.00332122 -0.00298137  0.0034002  -0.00334639 -0.22367224
   0.00318093 -0.00398225  0.0035383  -0.00302792]
 [ 0.00426315 -0.00343773 -0.21103498  0.00351002  0.00321051 -0.00340437
   0.00319719 -0.0031912  -0.00289739  0.00345165 -0.00341612 -0.22353905
   0.00323764 -0.00397531  0.0036154  -0.00301216]
 [ 0.00444544 -0.00339052 -0.21154341  0.00357206  0.00334954 -0.003409
   0.00331507 -0.00339747 -0.00304804  0.00347348 -0.00347278 -0.22358996
   0.00331018 -0.00413065  0.00371945 -0.00311468]
 [ 0.00439664 -0.00328091 -0.21202794  0.00347631  0.00323277 -0.00332398
   0.00322264 -0.00335095 -0.00300659  0.00337236 -0.00341399 -0.22346371
   0.00317568 -0.00391121  0.0035272  -0.00307042]
 [ 0.00433758 -0.00336385 -0.21069339  0.00357511  0.00320773 -0.00338427
   0.00316823 -0.00327656 -0.00295059  0.00340059 -0.00349077 -0.22234865
   0.0032653  -0.00402104  0.00366803 -0.00309106]
 [ 0.004364   -0.0033724  -0.21048902  0.00357751  0.0032323  -0.00339465
   0.00318855 -0.00325256 -0.00295606  0.00341493 -0.00347633 -0.22283189
   0.00324688 -0.00411845  0.00373068 -0.00300867]
 [ 0.64537936 -2.13154602  1.85037434  2.28482628  2.10628319 -2.12171006
   2.1006403  -2.07155061 -2.30747676  2.42869401 -2.04517579  2.33955002
   1.97284603 -0.40999639  2.1532166  -2.43618417]
 [ 1.00917017 -1.17193484  1.66196203  1.15853703  1.45281088 -1.65195334
   1.3348583  -1.13112545 -1.40718317  1.42913723 -0.99293238  1.8191843
   1.15913022 -0.52587676  1.41036677 -1.60187757]
 [ 0.58751899 -1.82857597  1.48623562  1.64148426  1.57622516 -1.72296369
   1.42809296 -1.68391097 -1.85486877  2.08792019 -1.49099958  1.70229352
   1.55031073 -0.31824854  1.39574671 -1.41865396]
 [ 0.43640497 -2.0221827   1.49800587  2.1099143   2.12604284 -1.77611077
   1.96277237 -2.15493059 -2.15084577  1.91789675 -1.99651778  2.42251682
   1.85565901 -0.26729003  2.01124191 -2.06235409]
 [ 0.7158221  -2.26749873  1.45155549  2.29063177  2.23849273 -2.48786211
   2.40992451 -2.43079829 -2.24865055  2.27949238 -2.32021284  2.33835793
   2.01173067 -0.4822509   2.45762324 -2.24652791]
 [ 0.68807566 -2.3105886   2.05964684  2.29711509  2.02294135 -2.04814935
   2.11722922 -2.19106746 -2.0261035   1.90813446 -1.9785502   1.55893946
   2.12438703 -0.29215863  2.24605513 -2.26450396]
 [ 0.67066646 -1.66127133  1.52974439  1.79050779  1.40234554 -1.642946
   1.61743534 -1.96142519 -1.8046813   1.89771235 -1.90099025  2.37608194
   1.81412816 -0.16971123  1.64960277 -1.61291468]
 [ 0.79739755 -2.52701044  2.13529444  2.59037399  2.37161803 -2.42564273
   2.77669907 -2.46178603 -2.64445353  2.51810408 -2.5143404   2.59473467
   2.59256887 -0.63066626  2.70642877 -2.61248493]
 [ 0.81731158 -2.1135776   1.84477544  2.21490145  2.40038824 -2.43268895
   2.19042444 -2.39084101 -2.42236853  2.39806414 -2.23264146  2.26183224
   2.40123773 -0.58469468  2.36881447 -2.16279745]
 [ 0.65939033 -2.1154182   1.89566004  1.98347962  2.318892   -2.02658892
   2.04346299 -2.09746051 -2.08557224  1.94643164 -2.27097368  2.42434907
   2.02089238 -0.38860375  2.01453757 -2.06092215]
 [ 0.75818038 -2.38682342  2.0489049   2.35990882  2.44272327 -2.41951346
   2.37709045 -2.3500421  -2.57581544  2.25506258 -2.33717918  2.49515986
   2.3468461  -0.52183568  2.3266201  -2.36439157]
 [ 0.76457202 -2.37821269  1.98412943  2.33442044  2.42128372 -2.24096608
   2.38493466 -2.26044369 -2.22722149  2.39215612 -2.19364619  2.11087894
   2.43379712 -0.43554664  2.26963091 -2.34981394]
 [ 0.76119345 -2.38523579  2.10453105  2.43164635  2.34785604 -2.49240851
   2.2845459  -2.4840169  -2.43569708  2.70702529 -2.55370784  2.37458372
   2.56184483 -0.51630348  2.44406676 -2.40895414]
 [ 0.75602961 -1.58339083  1.68985307  1.42071927  1.58479428 -1.55954552
   1.54184234 -1.38497186 -1.29132688  1.58312905 -1.80347598  2.18518114
   1.58718491 -0.36583102  1.56289268 -1.68200302]
 [ 1.6996516  -2.17627215  2.0254705   2.08621955  2.23174787 -2.1265645
   2.27275395 -2.18669415 -2.08378291  1.88699543 -2.26652551  2.60773897
   2.20106864 -1.35505414  2.19991398 -1.92877829]
 [ 0.91665113 -2.29539847  1.15401328  2.21798563  2.43340087 -2.17245889
   2.38356233 -2.1388166  -1.88910019  2.14590764 -2.32873559  2.6352191
   2.55106425 -0.51965302  1.95780826 -2.26897955]]
Eve
[[-2.95658016 -3.46749544 -3.45678854 -3.53537631  3.13509297 -3.42930651
  -3.09113741  3.42379093 -2.83986592 -3.54635763 -3.51041293 -2.93153024
   3.27624369 -3.58537245  3.50298095  3.1926744 ]
 [-2.23796153 -3.24877477 -2.74630737 -3.27557492  3.01092267 -3.15236902
  -2.75512552  3.38882709 -3.20005774 -2.91023159 -2.9103682  -3.20659876
   2.86426568 -2.84987044  2.68340611  3.01847792]
 [-2.1785624  -3.36221504 -3.28192854 -2.82401013  2.91377831 -3.09874344
  -3.15260005  3.43572569 -2.97990608 -2.88916922 -3.08247471 -3.05364251
   3.33632779 -3.33049774  2.65108109  2.98977113]
 [-0.56037873 -2.82788992 -3.01140261 -3.35692835  3.06774807 -3.16585779
  -2.80911112  3.1332891  -3.04498148 -3.14490461 -2.72419119 -3.09943485
   3.39709949 -3.39843297  0.91941136  3.33848834]
 [-2.23541594 -3.10726929 -2.8331027  -2.80503345  3.36152482 -3.44371533
  -3.44387174  3.50031066 -3.21582532 -3.31483865 -3.4180038  -3.18030953
   3.06096506 -2.91777015  2.52438974  3.13684177]
 [-0.83219427 -2.80517197 -2.84827995 -2.90620947  2.7132268  -3.20898533
  -3.10697889  3.13512158 -3.27998662 -3.09102798 -3.35299611 -2.968611
   3.11556673 -3.08732843  1.30671287  3.09652233]
 [-1.374951   -3.42815471 -2.96647358 -3.04873586  3.38156414 -3.27412224
  -2.82245469  3.04466367 -2.88737369 -3.10594606 -3.03448033 -3.21979475
   3.35746264 -2.98378563  1.70814455  3.00082684]
 [-2.1297133  -2.91839576 -3.52522755 -3.51067257  3.29807878 -3.43214798
  -3.28968287  3.48767376 -3.16882634 -3.42739177 -3.51870918 -3.49724412
   3.35135865 -3.03059554  2.33376646  3.37208176]
 [-2.65819693 -3.47442985 -3.22430277 -2.99830484  3.35136485 -3.11233783
  -3.57899475  3.38300705 -3.37049556 -3.00537205 -3.40832114 -3.40983391
   3.30212426 -3.18011045  2.49096656  3.08306098]
 [-0.14275262 -3.52461958 -3.03443766 -3.4356339   3.05498672 -3.42514372
  -3.34946322  3.04038119 -3.15128493 -3.12481999 -3.41254783 -3.49511766
   3.43322182 -3.49524355  0.53327733  3.24096274]
 [-3.06722975 -3.51996303 -3.32964158 -3.26001906  3.48726535 -3.10214186
  -3.02012348  3.21319032 -3.28631353 -3.35651612 -3.39843607 -3.42687273
   3.19770789 -3.42342043  3.14891171  3.40797448]
 [ 0.03324947 -3.56332707 -3.12863111 -3.37117434  3.1473875  -3.50872445
  -3.03319716  3.15070891 -2.83799958 -3.24723315 -2.88191652 -3.58102369
   3.47708917 -3.01374555  0.64270729  3.29539084]
 [-2.75481367 -3.43362546 -3.57954049 -3.40266633  3.25224876 -2.90419674
  -3.53039813  3.50661516 -3.36620164 -3.41214013 -2.99971628 -3.54224992
   3.4148221  -3.59833264  2.76952839  3.46149468]
 [-1.66772509 -3.40322328 -3.28032398 -3.24262285  2.78106189 -2.7403183
  -2.89415193  2.85274744 -2.80292726 -3.12380886 -3.11549282 -2.75351405
   3.15667033 -3.20304823  2.19287086  2.8322773 ]
 [-3.28877378 -3.61663818 -3.15740108 -3.29577184  2.94335151 -3.17523193
  -3.26343822  3.10235095 -3.08248854 -3.53943276 -3.30288172 -3.49376631
   3.55593061 -3.40598488  3.48630309  3.17263627]
 [-1.08208823 -3.32812405 -3.06813097 -3.33580089  3.44635391 -3.01482368
  -3.36902428  3.21406126 -3.22357416 -3.58674717 -3.54668498 -3.54827881
   3.04484248 -3.44417548  1.79111767  3.18681669]
 [-3.07818842 -3.44577646 -3.16039515 -3.33385897  3.37753701 -3.32578897
  -3.31865406  2.99489617 -3.2326653  -3.28554273 -3.32572126 -2.94232941
   3.30440807 -2.98429132  3.00812244  3.22388077]
 [-3.0855453  -3.04328442 -3.25131726 -2.8708725   2.80322886 -2.82606983
  -3.36961412  3.2690835  -2.90778112 -3.28532791 -3.20670557 -3.37783265
   3.22954583 -2.78586411  3.1398797   3.30730844]
 [-0.80300081 -2.56669593 -2.3952415  -2.34168673  1.66171288 -2.74941301
  -2.40475893  2.73014069 -1.70583868 -2.68718433 -2.69809628 -2.6752398
   2.49777055 -2.5842371   1.11338425  2.70221567]
 [-3.09772635 -3.18928027 -3.31521893 -2.97056532  2.93249798 -3.16790199
  -3.36740971  3.18310833 -2.91279197 -3.41359854 -2.83965874 -3.38040924
   2.82926345 -3.08664775  3.02373338  2.80261683]
 [-3.06294322 -3.14525008 -3.20277905 -2.86751938  3.38876939 -3.40704012
  -3.54338026  3.49329138 -3.24131632 -2.93229532 -3.40955853 -3.33663845
   3.10354686 -3.02728605  3.05142069  3.16774106]
 [-3.11604071 -3.04040837 -3.51408386 -2.95575118  3.20441842 -3.01325369
  -3.01830506  2.87917686 -3.37958312 -2.86523724 -3.0715723  -2.98091245
   2.87668252 -3.49394131  2.95850134  3.15767455]
 [-3.1200335  -3.34751105 -3.00541496 -3.05526567  3.28681588 -2.91034007
  -2.98876667  3.45451188 -3.21269274 -3.49024224 -3.04640508 -3.39780521
   3.2898736  -3.06366849  3.2541368   2.93073606]
 [-2.90183854 -2.88388872 -2.81041312 -3.38719678  2.99575543 -3.00032854
  -3.06533647  3.35181403 -2.79752326 -3.14407039 -3.42201948 -2.83079553
   3.15676546 -3.13231754  2.78100562  3.3102231 ]
 [-3.05217385 -3.00610614 -3.23760176 -3.20636058  3.40401983 -2.90730524
  -3.49304032  3.10905504 -2.95589995 -3.41167498 -3.48704076 -3.05573988
   3.32919264 -3.38224697  2.93204474  3.52255106]
 [-3.02118492 -3.36330295 -3.31051898 -3.44611263  3.40638399 -3.15414119
  -3.35574961  2.92570472 -3.34004498 -3.09462309 -3.26226282 -3.02239132
   3.17362571 -3.01636767  3.29640651  3.30368519]
 [-3.08151317 -3.42974949 -3.42945099 -3.08355379  3.4558146  -3.37554312
  -2.99096179  3.0176475  -3.10892272 -3.45282054 -3.12771606 -3.42293072
   2.90664077 -2.95826292  3.34404302  3.1828258 ]
 [-0.06883217 -1.65633798 -1.8578614  -1.91742253 -0.2286807  -1.45711887
  -1.84615338  1.47548342  0.86578131 -1.52050602 -1.51022243 -1.5344342
   1.7371192  -1.64110661  0.32230836  1.51037586]
 [-2.90711999 -3.49801564 -3.29369688 -3.22844672  3.38486385 -3.09766769
  -3.32075071  3.39320135 -3.21079874 -3.39097166 -3.4046874  -2.9652164
   3.44050813 -3.27961326  2.84079075  3.05147076]
 [-2.81589413 -2.95553517 -3.47706366 -2.87814498  3.18719006 -3.38371849
  -3.49069309  3.27930856 -3.16268778 -3.46299958 -2.84207439 -3.48552561
   3.32676649 -3.26566696  3.43159342  3.43162036]
 [-3.15150523 -3.2810638  -3.59785652 -3.15447974  3.23191881 -3.56586385
  -3.56639266  3.1229136  -3.27212238 -3.33032846 -3.53848553 -2.89584565
   3.5289166  -3.33819675  3.22424364  3.3843894 ]
 [-2.92835259 -3.13772941 -3.28981519 -3.12733793  3.13948298 -2.92293072
  -3.30955982  3.33886027 -2.86657381 -3.22059488 -2.97079086 -3.38774014
   3.45446205 -3.15829372  3.35163474  3.06201315]]