Alice
[[  1.49561620e-05   3.41185808e-01   3.36508811e-01   3.86135042e-01]
 [  3.72085706e-05   2.95544654e-01   3.36993009e-01   3.31660300e-01]
 [  8.12591043e-06   2.39902720e-01   6.67931419e-03   3.26935470e-01]
 [  4.83661206e-05  -9.00758386e-01   6.50237083e-01  -4.54498641e-02]
 [  6.16545822e-06   1.38746600e-06   3.39337796e-01   1.01737733e-05]
 [  2.59153276e-05  -4.45288515e-06   3.39063346e-01  -8.10501933e-06]
 [  9.99835491e-01  -1.23858990e-06   6.39343500e-01   3.87258842e-06]
 [  3.12061384e-05  -4.15451268e-06   3.41103673e-01   2.67519681e-06]
 [ -9.63114202e-01  -2.58628398e-01   4.30398703e-01   2.85207510e-01]
 [  4.36267555e-02  -8.50288033e-01  -1.79096665e-02   1.03535998e+00]
 [ -2.23629433e-03  -1.31747931e-01   4.87814759e-07   9.73202586e-01]
 [ -1.15060829e-01  -1.40964106e-01  -3.53930861e-01   3.64550918e-01]]
Bob
[[  1.65246930e-02   3.86327744e-01   3.41200262e-01  -5.42253896e-04]
 [  1.41915875e-02   3.31835240e-01   2.95554340e-01  -4.63650824e-04]
 [  1.39876017e-02   3.27087522e-01   2.39904568e-01  -4.50428517e-04]
 [ -1.96793932e-03  -4.54843603e-02  -9.00719821e-01   5.33381717e-05]
 [  1.82635140e-05   3.71863143e-06   1.12792372e-06  -3.27367252e-06]
 [  1.15764715e-05   1.62188171e-05  -7.98240126e-06  -7.33080014e-07]
 [ -4.10811626e-05  -9.86131909e-06   5.60044327e-07  -3.78519908e-05]
 [ -2.86931504e-06   1.35775426e-05  -2.42371289e-06  -2.23138522e-06]
 [ -9.99993861e-01   2.93325206e-06  -8.25555435e-06  -5.81371023e-06]
 [  2.16014171e-03   9.73221421e-01  -1.31788895e-01  -2.01909133e-05]
 [  4.24225909e-05   2.06880559e-05   1.54958161e-05  -1.00001907e+00]
 [ -4.51379828e-02   1.04809237e+00  -8.62023354e-01   1.40389660e-03]]
Eve
[[ -1.58449411e-01   2.81646609e-01   2.33902305e-01   1.65922141e+00]
 [ -1.42657831e-01   2.38348886e-01   2.08384767e-01   1.43184054e+00]
 [ -1.41993925e-01   6.77541867e-02   1.76336899e-01   1.39566302e+00]
 [ -5.85151277e-02  -2.77531767e+00   1.11140162e-01   7.36560300e-02]
 [ -2.63580179e+00  -3.98462464e-04   1.19335510e-01   9.11695696e-03]
 [ -4.47974503e-01  -1.76763415e-01  -1.08166583e-01   1.36673939e+00]
 [  2.37069912e-02  -6.58205536e-04   2.62626171e+00   1.66335721e-02]
 [  2.38596916e-01  -2.39534765e-01  -7.00802743e-01   1.01298487e+00]
 [  3.32050443e-01   7.66946852e-01  -8.46825778e-01  -6.99947122e-03]
 [ -3.84265743e-02  -3.53796989e-01   3.03178102e-01   9.85159099e-01]
 [  2.75304466e-01  -1.67732045e-01   1.59544483e-01   1.35888803e+00]
 [  9.24533084e-02   3.44472043e-02  -5.01564682e-01   8.95378709e-01]]