Alice
[[  1.71630643e-02   3.10996152e-03   3.05710167e-01  -5.79318590e-03
    8.72897916e-03   1.01138782e-02  -1.71085878e-03   8.49623815e-04
    1.11837782e-01   2.92956568e-02  -1.52483201e-02   5.79476776e-03
    6.15724409e-03  -6.46259496e-03   9.90176015e-03   7.38951750e-03]
 [  1.10870216e-03  -2.88844667e-03   2.16828391e-01  -1.21315604e-03
    2.23573600e-03   7.07633793e-04   3.20480671e-03  -2.00005784e-03
   -8.50520562e-03  -1.90064509e-03  -8.89236480e-03   2.18836893e-03
    2.77498038e-03  -2.60449038e-03   1.17867929e-03  -2.95731053e-03]
 [  1.11331989e-03  -2.88859615e-03   2.15822235e-01  -1.22867955e-03
    2.21412070e-03   5.22149028e-04   3.16899572e-03  -2.03075889e-03
   -8.75830743e-03  -2.33009271e-03  -8.89215525e-03   2.20795767e-03
    2.73234956e-03  -2.58689676e-03   1.16759865e-03  -2.73075537e-03]
 [  1.05382584e-03  -2.81500164e-03   2.16038689e-01  -1.25439616e-03
    2.12763296e-03   5.88704715e-04   3.05592827e-03  -1.95718138e-03
   -8.89648683e-03  -2.31819251e-03  -8.89197178e-03   2.08531716e-03
    2.60856887e-03  -2.49245623e-03   1.11760804e-03  -2.75324704e-03]
 [  2.41435645e-03  -3.11374286e-04   3.05714339e-01  -1.32274525e-02
    7.87927420e-04   1.60448868e-02   2.91761462e-05  -1.08835660e-02
   -1.42627330e-02   2.95766499e-02   1.13094985e-01   3.44779901e-03
   -1.75994099e-03  -2.17357837e-03   7.85480905e-03  -1.86690711e-03]
 [  1.18408340e-03  -2.89872102e-03   2.18528181e-01  -1.26383977e-03
    2.18680501e-03   6.71849761e-04   3.08780861e-03  -1.93704502e-03
   -9.25582834e-03  -2.58420454e-03  -8.71388521e-03   2.12178356e-03
    2.63185636e-03  -2.48606573e-03   1.18974107e-03  -2.94328993e-03]
 [  9.85134975e-04  -2.74178758e-03   2.17845693e-01  -9.38225130e-04
    2.05498259e-03   7.14538211e-04   2.96753156e-03  -1.77103363e-03
   -8.68983194e-03  -2.26318440e-03  -9.08059534e-03   2.00212118e-03
    2.48424057e-03  -2.30790675e-03   9.49017471e-04  -2.76081800e-03]
 [  1.03192811e-03  -2.80785514e-03   2.16279432e-01  -1.09360134e-03
    2.11112201e-03   4.56148875e-04   3.02706240e-03  -1.90391950e-03
   -8.36726744e-03  -2.20528780e-03  -8.50378070e-03   2.07665749e-03
    2.57454580e-03  -2.42292928e-03   1.03717111e-03  -2.74473405e-03]
 [  9.24779975e-04  -2.73923622e-03   2.17148006e-01  -1.09235989e-03
    2.05289945e-03   5.91569697e-04   3.01204552e-03  -1.83298334e-03
   -8.96100234e-03  -2.37669121e-03  -8.61572288e-03   2.03450629e-03
    2.60054227e-03  -2.42694002e-03   1.02875370e-03  -2.66269781e-03]
 [  9.13668540e-04  -2.67242175e-03   2.17707440e-01  -1.00358971e-03
    1.94591610e-03   4.93061321e-04   2.93801189e-03  -1.84044207e-03
   -7.98089709e-03  -2.41790712e-03  -9.30746645e-03   2.00182688e-03
    2.49697873e-03  -2.36196769e-03   9.29350383e-04  -2.56354432e-03]
 [  1.13911135e-03  -2.75790552e-03   2.19049290e-01  -1.23022951e-03
    2.06375495e-03   3.93080089e-04   2.94633466e-03  -1.91297173e-03
   -9.16328188e-03  -2.30974075e-03  -9.09054745e-03   1.98356411e-03
    2.47149705e-03  -2.36144988e-03   1.16056949e-03  -2.82882876e-03]
 [  1.07796793e-03  -2.88946531e-03   2.16222331e-01  -1.23004150e-03
    2.10147467e-03   6.95569965e-04   3.02801724e-03  -1.94924918e-03
   -8.28993786e-03  -2.25104182e-03  -9.18343291e-03   2.09006295e-03
    2.62321322e-03  -2.49297242e-03   1.16565241e-03  -2.92607350e-03]
 [  1.16187602e-03  -2.88421102e-03   2.19123527e-01  -1.35747413e-03
    2.16659042e-03   5.69326570e-04   3.03523801e-03  -1.96255208e-03
   -9.06269904e-03  -2.41022510e-03  -8.72620195e-03   2.10894062e-03
    2.69055460e-03  -2.54002097e-03   1.21742173e-03  -2.82942504e-03]
 [  1.09422160e-03  -2.70298962e-03   2.17928618e-01  -1.14054757e-03
    2.05431366e-03   5.70887991e-04   2.93249800e-03  -1.87845551e-03
   -9.06322990e-03  -2.14750762e-03  -8.51417426e-03   1.95991690e-03
    2.42229737e-03  -2.33570114e-03   1.09400426e-03  -2.60435464e-03]
 [  1.18493254e-03  -2.92246090e-03   2.19010875e-01  -1.36124005e-03
    2.17781961e-03   7.24686077e-04   3.02689802e-03  -1.98823866e-03
   -8.59824475e-03  -2.17259489e-03  -9.14458930e-03   2.12469045e-03
    2.63154041e-03  -2.56413966e-03   1.22216519e-03  -2.86276056e-03]
 [  1.06255512e-03  -2.77002924e-03   2.16870666e-01  -1.10246858e-03
    2.03756429e-03   5.81850705e-04   2.94739893e-03  -1.77006004e-03
   -9.07710288e-03  -2.32656323e-03  -8.73421412e-03   2.04227399e-03
    2.56909919e-03  -2.41747452e-03   1.09039235e-03  -2.78409175e-03]
 [  1.89972138e+00  -5.34677744e-01  -1.97371960e+00  -2.15107036e+00
    2.26619339e+00   2.19862676e+00   2.38987184e+00  -1.96944165e+00
   -1.47712722e-01   1.87445736e+00  -3.41205031e-01   2.25921845e+00
    1.96424150e+00  -2.16508555e+00   2.09196997e+00   2.18960381e+00]
 [  2.03291392e+00   4.20913696e-01  -2.29745626e+00  -1.96776736e+00
    1.74831641e+00   2.04385519e+00   2.10291743e+00  -2.04083323e+00
   -5.43133318e-01   1.82873309e+00  -1.64937243e-01   2.11033344e+00
    2.02214766e+00  -1.76169920e+00   2.09223032e+00   2.05040836e+00]
 [  2.19951606e+00   2.63624132e-01  -2.33958483e+00  -2.17630506e+00
    2.21060538e+00   1.69159532e+00   2.00422597e+00  -2.11316323e+00
   -4.92071211e-01   2.13782954e+00  -1.46323472e-01   2.20561337e+00
    2.21035624e+00  -2.17021942e+00   2.06808138e+00   2.29915094e+00]
 [  2.03567100e+00  -2.61884779e-01  -2.07746172e+00  -2.18540907e+00
    2.22545958e+00   1.77658868e+00   1.77454007e+00  -2.02756047e+00
   -3.45977545e-01   2.12590384e+00   1.12247348e-01   1.91036677e+00
    1.90681517e+00  -2.31852055e+00   1.75817382e+00   2.34778047e+00]
 [  2.21326852e+00   1.67494252e-01  -2.14455748e+00  -2.11172819e+00
    2.22899985e+00   2.32148767e+00   2.04711151e+00  -2.20097423e+00
   -8.32864940e-02   1.96378827e+00   4.92459387e-02   1.99643958e+00
    1.82977951e+00  -2.05061841e+00   2.19060326e+00   2.16967154e+00]
 [  1.75684118e+00  -3.75595659e-01  -1.73372495e+00  -2.02723956e+00
    2.09541893e+00   1.82308841e+00   1.82894158e+00  -1.92173696e+00
    7.02206492e-02   2.37762141e+00  -1.34815544e-01   2.25254822e+00
    2.42619276e+00  -2.30599403e+00   2.21192527e+00   1.84474528e+00]
 [  2.27916360e+00  -2.66116470e-01  -1.98939216e+00  -1.90012538e+00
    2.05748272e+00   1.64677012e+00   1.96375382e+00  -2.10399008e+00
    4.78691787e-01   2.36185503e+00  -1.34335786e-01   2.24096203e+00
    2.25756931e+00  -1.90328133e+00   2.13741589e+00   2.22742558e+00]
 [  1.96982026e+00   4.12801743e-01  -2.29684544e+00  -1.97207820e+00
    2.12810993e+00   2.30186582e+00   2.10910439e+00  -1.92730701e+00
    7.94872880e-01   1.69458389e+00   1.02582470e-01   1.66286874e+00
    1.89323473e+00  -2.17056084e+00   1.93076801e+00   2.28413272e+00]
 [  2.29159522e+00  -9.07388479e-02  -2.15174961e+00  -1.82064998e+00
    1.98337448e+00   2.26702499e+00   1.95371342e+00  -1.99011028e+00
   -4.14607644e-01   2.31106043e+00  -6.81117103e-02   2.21356082e+00
    1.71778679e+00  -1.79794419e+00   2.07471395e+00   2.11735106e+00]
 [  2.11855340e+00   1.76590264e-01  -1.83391786e+00  -2.32640243e+00
    2.11837959e+00   2.09701252e+00   2.23601961e+00  -2.36606097e+00
   -1.30634457e-01   1.82342410e+00  -1.60816312e-01   1.75963616e+00
    2.34559011e+00  -2.25858068e+00   1.81219971e+00   2.19658947e+00]
 [  2.63444066e+00   1.25204325e+00  -2.40878630e+00  -2.66421175e+00
    2.75550365e+00   2.02832437e+00   2.98857331e+00  -2.81088376e+00
   -1.15865134e-01   2.85016847e+00  -3.74697894e-02   2.83891487e+00
    2.96513224e+00  -2.74984598e+00   2.63254023e+00   2.46927452e+00]
 [  4.59766626e-01   1.54346395e-02  -4.63281631e-01  -4.58215177e-01
    4.55193162e-01   1.46740365e+00   4.42536175e-01  -4.52797323e-01
   -1.98512003e-02   4.56235379e-01  -6.01818133e-03   4.49707061e-01
    4.44527358e-01  -4.51912254e-01   4.57665056e-01   4.77606416e-01]
 [  1.81890976e+00  -2.83511400e-01  -2.30155087e+00  -2.00310206e+00
    2.01911664e+00   1.73657227e+00   2.05321312e+00  -2.04328728e+00
   -4.44632709e-01   2.36683702e+00   4.14950326e-02   2.15541196e+00
    2.21793413e+00  -1.92821419e+00   2.28409886e+00   2.24059582e+00]
 [  2.30810046e+00   5.09900739e-03  -1.97711277e+00  -2.25987697e+00
    2.08498120e+00   1.62257612e+00   2.15709066e+00  -2.26997828e+00
   -2.44907498e-01   2.21094131e+00  -2.05030348e-02   2.05325723e+00
    2.13032508e+00  -2.12755775e+00   2.09729409e+00   2.18706155e+00]
 [  2.08364940e+00  -4.95510250e-01  -1.80821717e+00  -1.99858296e+00
    1.86786020e+00   2.05973387e+00   2.18151593e+00  -1.98758936e+00
   -6.66492522e-01   1.92453039e+00  -1.56284302e-01   1.67923057e+00
    1.76572669e+00  -2.05199885e+00   2.12488103e+00   2.46380639e+00]
 [  2.26769662e+00   4.48732316e-01  -2.33633804e+00  -2.32961059e+00
    1.93412256e+00   2.27347732e+00   1.61840701e+00  -1.93001413e+00
    7.39263654e-01   2.04899096e+00  -2.34786317e-01   2.17576218e+00
    1.81122792e+00  -1.92472148e+00   2.31840706e+00   2.20613146e+00]]
Bob
[[  2.12810840e-03   2.76670814e-03  -2.37163412e-03   1.82079000e-03
    2.75829714e-03   1.77970598e-03  -2.08300631e-03  -3.45726172e-03
    2.66329246e-03   2.28402764e-03  -9.59824678e-03  -2.14129925e-01
    2.14556605e-03   2.66744243e-03  -1.44366000e-03   3.45204002e-03]
 [  2.12714472e-03   5.77833736e-03  -5.42641897e-03   2.85796984e-03
    3.16675706e-03   1.24167977e-03   2.34183433e-04   1.42103250e-04
    4.25433787e-03   3.43642035e-03  -1.42846983e-02  -2.16137469e-01
    3.77182057e-03  -1.31054511e-02  -3.78741859e-03   7.29247287e-04]
 [  2.05851952e-03   2.79400707e-03  -2.36356398e-03   1.85957295e-03
    2.74043297e-03   1.75450533e-03  -1.99772650e-03  -3.43655469e-03
    2.69117905e-03   2.24646577e-03  -9.06940550e-03  -2.11744159e-01
    2.13315687e-03   3.37340403e-03  -1.66308880e-03   3.44758085e-03]
 [  1.99060980e-03   2.65490753e-03  -2.21732492e-03   1.78230368e-03
    2.63103750e-03   1.59334997e-03  -1.83172827e-03  -3.26560577e-03
    2.59098923e-03   2.16402556e-03  -9.40362737e-03  -2.11396351e-01
    2.01006699e-03   2.37782137e-03  -1.60547381e-03   3.27601889e-03]
 [  2.06017750e-03   2.72743404e-03  -2.28580553e-03   1.81144243e-03
    2.66525778e-03   1.61748962e-03  -1.91340747e-03  -3.31174862e-03
    2.65022693e-03   2.18428229e-03  -8.80052894e-03  -2.09313214e-01
    2.09436915e-03   2.73589185e-03  -1.46023440e-03   3.31121264e-03]
 [  2.08221376e-03   2.81747570e-03  -2.38562096e-03   1.88547675e-03
    2.74164043e-03   1.71306066e-03  -2.04559555e-03  -3.42212780e-03
    2.72005307e-03   2.30201357e-03  -9.64560546e-03  -2.13688582e-01
    2.17154715e-03   2.96567427e-03  -1.68817909e-03   3.47620388e-03]
 [  2.25267862e-03   5.83856599e-03  -5.51756844e-03   3.01030884e-03
    3.27883987e-03   1.42628315e-03   1.46080478e-04   8.35297760e-05
    4.39896481e-03   3.53403902e-03  -1.42354192e-02  -2.14811653e-01
    3.93808214e-03  -1.30783468e-02  -3.68412910e-03   9.54314601e-04]
 [  2.02732487e-03   2.79166596e-03  -2.37914175e-03   1.90186244e-03
    2.71831476e-03   1.75703189e-03  -2.00131652e-03  -3.41412844e-03
    2.65594479e-03   2.23555812e-03  -9.17790178e-03  -2.09391013e-01
    2.14491598e-03   2.71185581e-03  -1.74416532e-03   3.42753087e-03]
 [  2.01636297e-03   2.73488113e-03  -2.28383136e-03   1.87520729e-03
    2.68058223e-03   1.67307770e-03  -1.91635289e-03  -3.27451364e-03
    2.61765230e-03   2.18768837e-03  -9.71941464e-03  -2.10409626e-01
    2.07470194e-03   2.21798196e-03  -1.67048839e-03   3.25096399e-03]
 [  2.12493027e-03   2.89208698e-03  -2.54243682e-03   1.95588637e-03
    2.81003979e-03   1.86476193e-03  -2.17242958e-03  -3.44730006e-03
    2.70984997e-03   2.38243374e-03  -9.33868624e-03  -2.12408215e-01
    2.27679173e-03   2.88380892e-03  -1.71628699e-03   3.49452812e-03]
 [  2.23502936e-03   2.87677580e-03  -2.43678107e-03   2.00745114e-03
    2.84932810e-03   1.88471947e-03  -2.14833231e-03  -3.52722965e-03
    2.77817552e-03   2.42750975e-03  -8.96778051e-03  -2.10755318e-01
    2.23254762e-03   3.24358419e-03  -1.77942123e-03   3.53805930e-03]
 [  1.94643473e-03   2.66980706e-03  -2.30619474e-03   1.78185327e-03
    2.60482286e-03   1.69372500e-03  -1.99626735e-03  -3.35788424e-03
    2.51432601e-03   2.16889754e-03  -9.32895299e-03  -2.13268921e-01
    2.08022166e-03   3.14088305e-03  -1.53909472e-03   3.35849542e-03]
 [  1.90160261e-03  -3.31444928e-04   6.76414114e-04   9.40088008e-04
    2.32251920e-03   2.23627198e-03  -4.33999533e-03  -6.68951636e-03
    9.15632118e-04   1.35936402e-03  -3.37963738e-03  -2.09347308e-01
    4.15156275e-04   1.82128847e-02   5.66156581e-04   6.05360838e-03]
 [  2.07338179e-03   2.83413241e-03  -2.33401405e-03   1.82507979e-03
    2.75584380e-03   1.69503444e-03  -1.92603935e-03  -3.40401102e-03
    2.76751211e-03   2.21348484e-03  -9.70654096e-03  -2.15079740e-01
    2.13304977e-03   2.62603373e-03  -1.69077504e-03   3.45145632e-03]
 [  9.48209874e-03   9.12684132e-04  -6.21026335e-03   7.60814780e-03
    1.98441232e-03   1.24336118e-02  -9.58315749e-03   2.97450996e-03
    3.39760003e-03   6.24736212e-03   1.23830795e-01  -2.24496052e-01
    8.20899848e-03  -1.61958542e-02  -1.26776379e-02  -2.61297263e-03]
 [  1.97763997e-03   2.69596861e-03  -2.26804335e-03   1.84776413e-03
    2.62043229e-03   1.63422863e-03  -1.90976739e-03  -3.32247443e-03
    2.56626983e-03   2.10718019e-03  -9.29475296e-03  -2.12366521e-01
    2.08127173e-03   2.79713422e-03  -1.66198600e-03   3.34595353e-03]
 [  2.26322031e+00   2.03873587e+00  -1.84873044e+00   5.03484547e-01
    2.20303679e+00   2.14737797e+00  -2.29845452e+00  -1.83356977e+00
    2.36618352e+00   2.16524482e+00   3.98536213e-02   1.79715633e+00
    1.95250201e+00   1.14673197e+00  -1.68223047e+00   2.03561425e+00]
 [  1.86031461e+00   1.74128199e+00  -1.96212494e+00   7.46963471e-02
    1.73272395e+00   1.98843849e+00  -2.12159562e+00  -1.96810925e+00
    2.08189535e+00   1.99477911e+00   9.54756811e-02   2.34471035e+00
    1.79221582e+00  -6.97972953e-01  -2.28925252e+00   1.99362183e+00]
 [  3.90401930e-01   3.90802801e-01  -3.92908543e-01   1.18813496e-02
    3.90925348e-01   4.12452698e-01  -3.97886008e-01  -3.90229017e-01
    3.96440059e-01   3.80493790e-01  -1.15941260e-02   3.82593572e-01
    3.96531761e-01  -2.32519489e-02  -1.49533391e+00   3.97004962e-01]
 [  2.02133393e+00   2.29286671e+00  -1.74368715e+00  -7.11728215e-01
    1.97366834e+00   2.14953732e+00  -2.11428022e+00  -2.11392117e+00
    1.66547167e+00   1.93407321e+00  -1.30968720e-01   2.22289991e+00
    1.84194934e+00  -1.91710711e-01  -1.42629194e+00   2.14627385e+00]
 [  2.04522920e+00   1.68769348e+00  -1.87667298e+00   2.36073002e-01
    1.91306472e+00   2.18965364e+00  -1.94780362e+00  -1.98370957e+00
    2.15533805e+00   1.60549021e+00   2.34268252e-02   1.74387503e+00
    1.86597705e+00   5.94715059e-01  -2.07927036e+00   1.75182211e+00]
 [  1.58966589e+00   1.72192872e+00  -1.94630194e+00  -9.19528067e-01
    1.93394518e+00   1.85837317e+00  -2.19042206e+00  -1.94680357e+00
    2.09756374e+00   2.26876068e+00  -2.58981109e-01   1.73101497e+00
    2.30495524e+00   1.55120403e-01  -1.97339654e+00   2.15602851e+00]
 [  1.97567201e+00   1.69151509e+00  -1.73940206e+00   3.50207053e-02
    2.09108543e+00   2.11000586e+00  -1.99479771e+00  -1.89420092e+00
    1.63418353e+00   1.65939999e+00  -1.31735906e-01   1.85229635e+00
    1.83787394e+00  -4.09056127e-01  -2.44700861e+00   1.59612501e+00]
 [  1.72446215e+00   1.52547324e+00  -2.18589044e+00  -8.06036770e-01
    2.21879745e+00   2.21230173e+00  -1.66639948e+00  -1.67417526e+00
    1.95012486e+00   1.94158840e+00   1.93778917e-01   1.84515882e+00
    1.77868807e+00  -7.25042820e-01  -1.85403883e+00   2.12575865e+00]
 [  3.05659294e+00   2.99228454e+00  -2.84006429e+00   7.91543275e-02
    2.89089155e+00   2.50826550e+00  -3.02870870e+00  -2.73170209e+00
    2.96350980e+00   2.83917093e+00  -9.09065679e-02   2.36902952e+00
    2.90499377e+00  -1.32782567e+00  -2.12662435e+00   2.76625204e+00]
 [  2.21739364e+00   2.09641933e+00  -2.14120078e+00  -8.14052105e-01
    1.89754725e+00   2.06592584e+00  -1.98761463e+00  -2.36878443e+00
    1.96150494e+00   2.18726349e+00  -1.95216555e-02   1.86024833e+00
    1.86376691e+00   5.32155335e-01  -1.49185157e+00   2.16134596e+00]
 [  2.63770342e+00   2.96875978e+00  -2.96626735e+00   1.31957245e+00
    2.89886880e+00   2.50400615e+00  -2.90558481e+00  -3.00396991e+00
    2.64904618e+00   2.87284446e+00  -7.74279758e-02   2.50575209e+00
    2.90448427e+00  -1.28359929e-01  -2.02252293e+00   3.05829906e+00]
 [  2.15943861e+00   2.10043979e+00  -1.99620593e+00  -9.92394984e-02
    1.87467003e+00   1.99230504e+00  -1.69882047e+00  -2.00429678e+00
    2.08535171e+00   2.10349345e+00   5.67362877e-03   2.03100419e+00
    2.24002576e+00   2.70786583e-01  -2.31513858e+00   1.98234808e+00]
 [  2.04150248e+00   2.19485641e+00  -1.97119105e+00   3.23117256e-01
    1.66186976e+00   2.04818439e+00  -2.02263927e+00  -2.00411010e+00
    1.90017772e+00   1.59550095e+00  -1.39926836e-01   2.22810817e+00
    2.01429892e+00   5.50870478e-01  -2.35844421e+00   1.49919701e+00]
 [  1.98870778e+00   1.60729730e+00  -1.89423716e+00   1.29323438e-01
    2.06186199e+00   1.86728191e+00  -1.72105515e+00  -1.99924183e+00
    2.25416493e+00   2.09658480e+00   2.20689680e-02   2.23062706e+00
    2.22430396e+00   3.21542829e-01  -2.15729237e+00   1.95481908e+00]
 [  2.08030248e+00   2.34114838e+00  -2.31904387e+00  -2.22042695e-01
    1.87853980e+00   2.19425941e+00  -1.69879770e+00  -2.02183843e+00
    1.69963396e+00   2.09153748e+00  -6.86348677e-02   1.97379863e+00
    1.73794103e+00   4.03920025e-01  -1.57260525e+00   1.99588001e+00]
 [  1.52802408e+00   1.83753538e+00  -1.54690790e+00   3.36396024e-02
    1.83698392e+00   2.34942675e+00  -1.60677290e+00  -1.51550853e+00
    1.80691552e+00   1.99926484e+00   3.11674207e-01   2.19287086e+00
    1.75361788e+00  -9.90159214e-01  -2.26749206e+00   1.72356927e+00]]
Eve
[[ -3.25413537e+00   2.40046549e+00   2.87778616e+00   2.97443748e+00
    3.30374312e+00   3.29423666e+00  -3.13970494e+00   2.97618032e+00
   -1.27304327e+00   3.37514520e+00  -1.73182762e+00  -3.33038139e+00
    3.46013904e+00   3.08420396e+00   3.07495117e+00   2.71962571e+00]
 [ -3.00063396e+00   1.69087052e+00   3.18494129e+00   3.17328453e+00
    3.15785813e+00   2.65902281e+00  -3.11817074e+00   3.12850142e+00
    2.09536076e+00   3.34956622e+00  -1.61330485e+00  -3.01820326e+00
    3.26455164e+00   3.33749914e+00   2.87935090e+00   2.77628112e+00]
 [ -3.01262045e+00   6.47730827e-02   6.41760826e-01   2.98461294e+00
    2.90831685e+00   3.19716501e+00  -2.99213791e+00   2.98016667e+00
    1.44593298e-01   2.88932729e+00  -1.39978528e-01  -2.93233061e+00
    2.95101690e+00   2.87541294e+00   2.89799237e+00   2.69685674e+00]
 [ -2.73228526e+00   2.22240448e+00   3.18351126e+00   3.02353787e+00
    3.28221822e+00   3.21598935e+00  -3.40407276e+00   3.01215315e+00
    2.59102374e-01   3.35306573e+00   1.27187896e+00  -2.84386873e+00
    3.03974962e+00   2.80102611e+00   3.43780518e+00   2.78059435e+00]
 [ -3.01299453e+00   2.07961488e+00   2.86199260e+00   2.75986862e+00
    2.79078102e+00   2.93825650e+00  -2.76684093e+00   3.07584214e+00
   -8.50563884e-01   2.86616659e+00  -1.81229210e+00  -3.07650471e+00
    3.20845532e+00   3.06712890e+00   3.16487050e+00   2.75110626e+00]
 [ -3.25860667e+00   2.23174310e+00   3.16049886e+00   3.39232993e+00
    2.99289346e+00   3.21118712e+00  -3.39525247e+00   2.97742033e+00
   -1.01213783e-01   3.33335829e+00   1.35913491e+00  -3.06481504e+00
    3.11944628e+00   3.03615832e+00   2.79966259e+00   2.71535587e+00]
 [ -3.14404702e+00   1.89034474e+00   3.25370479e+00   3.06275249e+00
    3.12467003e+00   3.34767962e+00  -3.38509655e+00   3.30535531e+00
    1.44471812e+00   3.02524447e+00  -1.12959838e+00  -3.15143681e+00
    2.98857713e+00   3.41164422e+00   2.94439697e+00   2.79465389e+00]
 [ -3.02206421e+00   2.01087141e+00   2.88696265e+00   2.68635583e+00
    3.34574413e+00   3.15297389e+00  -2.70072079e+00   3.26055336e+00
    1.70600545e+00   3.15103388e+00   1.39797068e+00  -3.27223158e+00
    3.21314192e+00   3.19880891e+00   3.29100871e+00   2.68871307e+00]
 [ -3.68172312e+00   2.23848391e+00   3.44011545e+00   3.63751125e+00
    3.19974542e+00   3.61047125e+00  -3.61505961e+00   3.45829964e+00
    3.42020154e+00   3.23187995e+00  -2.19875383e+00  -3.66914344e+00
    3.26091623e+00   3.50215602e+00   3.05107450e+00   2.71559954e+00]
 [ -3.23824978e+00   2.55050540e+00   3.27743149e+00   3.24978042e+00
    2.86705256e+00   3.25839710e+00  -3.20865417e+00   2.77250481e+00
   -3.65118682e-01   3.29962420e+00   1.39869845e+00  -3.31593490e+00
    3.18544197e+00   3.06635213e+00   2.84359717e+00   2.79255438e+00]
 [ -3.15693712e+00   2.35931349e+00   3.35747194e+00   3.02466750e+00
    3.59406018e+00   3.54099560e+00  -3.53158712e+00   3.46222329e+00
    1.96664464e+00   3.40244293e+00  -3.21958661e+00  -3.55791855e+00
    3.50048447e+00   3.57543969e+00   3.18337631e+00   2.51506209e+00]
 [ -3.28262353e+00   2.23276448e+00   3.03206348e+00   3.52331352e+00
    3.36821055e+00   3.35785580e+00  -3.31940198e+00   3.38584709e+00
   -2.13680685e-01   3.22735858e+00   3.24590981e-01  -3.40548015e+00
    2.96721148e+00   3.19257855e+00   3.27172422e+00   2.84745860e+00]
 [ -3.41970015e+00   1.84462130e+00   3.31782937e+00   3.37348819e+00
    2.98789239e+00   3.00193262e+00  -3.38763022e+00   3.18333650e+00
   -8.00710857e-01   2.83950734e+00  -2.20315814e+00  -2.97683716e+00
    3.48448849e+00   3.29870081e+00   2.75485849e+00   2.77590442e+00]
 [ -2.79329753e+00   2.11909008e+00   2.80691266e+00   3.28502440e+00
    3.13834596e+00   2.95176005e+00  -3.14834189e+00   2.85378551e+00
   -2.37326548e-01   2.79517817e+00  -1.32522631e+00  -2.69999361e+00
    3.30033302e+00   2.90448070e+00   2.70115399e+00   2.58068442e+00]
 [ -3.05340338e+00   2.39174104e+00   2.88888741e+00   2.89917016e+00
    3.34429526e+00   3.14526033e+00  -3.40344667e+00   3.45472503e+00
   -6.20785296e-01   3.27184820e+00   9.55332577e-01  -3.41028452e+00
    3.52858734e+00   3.10964060e+00   3.47263765e+00   2.91100621e+00]
 [ -3.33564019e+00   1.71372652e+00   3.08457422e+00   3.00699186e+00
    2.91393280e+00   2.94198775e+00  -3.12381315e+00   3.21423864e+00
    2.20225954e+00   3.02026248e+00  -1.55688763e+00  -3.06443977e+00
    3.41019559e+00   2.99527860e+00   3.30782390e+00   2.84881043e+00]
 [ -3.24177957e+00  -6.70651495e-01   3.35765648e+00   3.31606150e+00
    3.22827291e+00   2.77113628e+00  -3.49963593e+00   2.89688921e+00
    2.27079535e+00   3.40310550e+00  -2.41477227e+00  -3.15101647e+00
    2.93498731e+00   3.46740818e+00   3.45364332e+00   2.71376085e+00]
 [ -2.81013274e+00   1.70297134e+00   2.75901747e+00   3.31154346e+00
    2.94269657e+00   2.69939423e+00  -3.01963520e+00   3.24295092e+00
    2.44063210e+00   3.40964460e+00  -2.53646779e+00  -3.10300398e+00
    2.83056498e+00   3.04417419e+00   3.26913691e+00   2.57607293e+00]
 [ -3.40713668e+00   7.95953631e-01   3.08897471e+00   3.04794359e+00
    2.84013414e+00   2.92457175e+00  -2.90154004e+00   3.44519138e+00
    2.07527232e+00   3.24153757e+00  -2.63065815e+00  -3.07222271e+00
    2.85417700e+00   2.89809275e+00   3.39492106e+00   2.53142905e+00]
 [ -2.83168077e+00   4.86915827e-01   3.31740856e+00   2.83454299e+00
    3.36015415e+00   3.40198803e+00  -2.94009924e+00   3.01306176e+00
    2.32851458e+00   3.43643808e+00  -2.39829731e+00  -2.97645998e+00
    3.34996462e+00   3.30686450e+00   3.24249339e+00   2.50546288e+00]
 [ -3.13415122e+00   1.94711006e+00   2.91239166e+00   3.35379076e+00
    2.96161914e+00   3.18328929e+00  -2.93754625e+00   2.86101174e+00
    2.26831102e+00   3.32380652e+00  -2.64726472e+00  -3.44517303e+00
    3.55351448e+00   3.28440046e+00   3.20265007e+00   2.66770554e+00]
 [ -3.17825079e+00  -5.43188187e-04   3.23144579e+00   3.39242268e+00
    2.99999881e+00   2.97599101e+00  -2.89684653e+00   3.33203745e+00
    2.46000195e+00   2.95008063e+00  -2.52416015e+00  -2.94244981e+00
    3.54878831e+00   3.32849836e+00   3.44125986e+00   2.53416514e+00]
 [ -3.42767835e+00   3.27399343e-01   3.12383223e+00   3.08249831e+00
    3.20249677e+00   2.80983424e+00  -3.04807138e+00   3.34672618e+00
    1.98211873e+00   3.42689061e+00  -2.29854107e+00  -3.07938838e+00
    2.98662567e+00   3.19615746e+00   3.36208439e+00   2.87047791e+00]
 [ -2.83720016e+00   2.44190192e+00   2.91790628e+00   2.90986419e+00
    3.34785819e+00   3.04915261e+00  -2.99561906e+00   2.79838610e+00
    1.56096196e+00   2.97729874e+00  -2.53696513e+00  -3.17992163e+00
    2.83667731e+00   3.08840919e+00   2.89199185e+00   2.83649611e+00]
 [ -2.96755052e+00   1.25321090e+00   2.89765477e+00   3.16290116e+00
    2.96529460e+00   3.27237439e+00  -3.09197974e+00   3.18614292e+00
    2.32030034e+00   2.82865858e+00  -2.28882980e+00  -3.25126219e+00
    3.16188741e+00   3.09647155e+00   2.71667409e+00   2.69619584e+00]
 [ -3.20214748e+00   7.12829292e-01   3.06700253e+00   3.24454093e+00
    2.75757694e+00   3.10202789e+00  -3.18083429e+00   3.18338704e+00
    2.21025085e+00   3.42335367e+00  -2.61020136e+00  -3.03501105e+00
    3.43851256e+00   2.83139277e+00   3.33226109e+00   2.90773845e+00]
 [ -3.24734354e+00   2.84845829e+00   3.47521663e+00   3.42608166e+00
    3.42769361e+00   3.53400302e+00  -3.07523346e+00   3.24777222e+00
    1.52632892e+00   3.49487448e+00  -1.59846783e+00  -3.12262011e+00
    3.62034988e+00   3.04068327e+00   3.52565908e+00   2.82679415e+00]
 [ -2.89275193e+00   1.01379618e-01   3.78766370e+00   2.92617702e+00
    3.01347184e+00   5.52718937e-01  -2.92411256e+00   2.90660977e+00
    8.53798687e-02   3.02318501e+00  -3.53019834e-02  -2.94298530e+00
    2.93995571e+00   3.03695560e+00   3.02548313e+00   2.69492197e+00]
 [ -2.86298966e+00   1.59613311e-01   2.90072107e+00   3.25343013e+00
    3.25609708e+00   2.80668044e+00  -2.94103336e+00   3.12568617e+00
    2.19286346e+00   3.28555751e+00  -2.54049802e+00  -2.89118671e+00
    3.44680810e+00   3.20182467e+00   3.20220828e+00   2.79199743e+00]
 [ -2.95105100e+00   2.49220538e+00   2.62168860e+00   2.88789225e+00
    2.66775608e+00   2.57418418e+00  -3.15079069e+00   2.64789271e+00
   -4.17028457e-01   2.90651178e+00  -1.81217325e+00  -2.77797198e+00
    2.74353504e+00   3.10388589e+00   2.60537434e+00   2.50405788e+00]
 [ -3.30149913e+00  -1.02372909e+00   3.29416227e+00   2.92145252e+00
    3.12349224e+00   3.17033625e+00  -3.11433673e+00   3.31649613e+00
    2.67463183e+00   3.17144513e+00  -2.43410230e+00  -3.09925914e+00
    3.02574825e+00   2.87057829e+00   2.78195214e+00   2.77307296e+00]
 [ -2.92047453e+00   2.46703553e+00   2.89948678e+00   2.82296395e+00
    2.81188703e+00   3.21582770e+00  -2.90564084e+00   3.07102346e+00
    1.43618178e+00   2.78877091e+00  -2.40362072e+00  -3.28291726e+00
    3.52885890e+00   3.03383398e+00   2.82463861e+00   2.54522252e+00]]