Alice
[[ -1.06572639e-03   1.10359816e-03   1.00651651e-03 ...,  -1.07747444e-03
    1.06475083e-03  -1.14316063e-03]
 [ -1.02764880e-03   1.08801154e-03   9.90186585e-04 ...,  -1.14820525e-03
    1.07203971e-03  -1.10327173e-03]
 [ -1.07424136e-03   1.12422241e-03   1.01216428e-03 ...,  -1.18412171e-03
    1.08131208e-03  -1.13705022e-03]
 ..., 
 [ -1.64927971e+00   1.45071149e+00   1.65590811e+00 ...,   1.54579842e+00
    1.61055744e+00  -1.79103017e+00]
 [ -1.55209088e+00   1.25854659e+00   1.27359772e+00 ...,   1.37014425e+00
    1.52090561e+00  -1.36091089e+00]
 [ -1.71382558e+00   1.51546943e+00   1.76792061e+00 ...,   1.55891311e+00
    1.56790543e+00  -1.53420484e+00]]
Bob
[[ -1.07998366e-03   1.07151817e-03   1.09491893e-03 ...,   1.05796265e-03
   -1.09576248e-03   1.09754642e-03]
 [ -1.10725360e-03   1.08444691e-03   1.08600885e-03 ...,   1.10125903e-03
   -1.13922451e-03   1.13156764e-03]
 [ -1.06318388e-03   1.02523097e-03   1.04026904e-03 ...,   1.02440629e-03
   -1.10210024e-03   1.06578495e-03]
 ..., 
 [ -1.54163206e+00   1.35024261e+00   1.63190997e+00 ...,   1.58010662e+00
   -1.65483737e+00   1.45595396e+00]
 [ -1.44339597e+00   1.38032687e+00   1.79202437e+00 ...,   1.70212305e+00
   -1.57081437e+00   1.73771989e+00]
 [ -1.70093822e+00   1.57886767e+00   1.64776361e+00 ...,   1.73853004e+00
   -1.62743223e+00   1.69717944e+00]]
Eve
[[-3.12704611  2.98644781  3.05257654 ..., -2.18477058  3.0952425
  -3.10307789]
 [-2.82206249  2.79030728  2.8786068  ..., -2.12996697  3.11066651
  -2.77286983]
 [-3.25653315  3.06614661  2.97971368 ..., -1.97932887  2.97831917
  -2.96093655]
 ..., 
 [-3.1583724   3.17352009  3.16672039 ..., -2.33000445  3.01377916
  -3.08769917]
 [-2.74866891  2.65550852  2.69933629 ..., -2.07303524  2.73173475
  -2.78476524]
 [-3.09079838  3.27040625  2.98235583 ..., -2.30902648  3.2645874
  -3.24854708]]