Alice
[[ -9.50265618e-04  -1.00603746e-03   9.25236789e-04 ...,   9.88044194e-04
   -9.51465743e-04   9.49425914e-04]
 [ -9.80767421e-04  -1.05572923e-03   9.42620158e-04 ...,   1.02257263e-03
   -9.90309170e-04   9.89073305e-04]
 [ -1.00054382e-03  -1.06800837e-03   9.76974610e-04 ...,   1.05861807e-03
   -1.01840892e-03   1.02501072e-03]
 ..., 
 [ -1.70039129e+00  -1.79512227e+00   1.70841289e+00 ...,   1.88595736e+00
   -1.51520634e+00   1.92990100e+00]
 [ -9.74227309e-01  -9.60818827e-01   1.00011861e+00 ...,   9.82433915e-01
   -9.97070432e-01   9.93516505e-01]
 [ -1.91244018e+00  -1.80477369e+00   1.55693376e+00 ...,   1.77319312e+00
   -1.71950209e+00   1.64528584e+00]]
Bob
[[ -1.11960969e-03   9.49903915e-04   7.18303258e-04 ...,   8.65470618e-04
   -1.12166069e-01   7.93745276e-04]
 [ -1.04559225e-03   8.79289873e-04   6.44843269e-04 ...,   7.68569007e-04
   -1.14588045e-01   7.93551444e-04]
 [ -9.22573148e-04   7.96449487e-04   5.65282535e-04 ...,   6.76157710e-04
   -1.11469910e-01   7.24260870e-04]
 ..., 
 [ -1.71828568e+00   1.75047255e+00   1.90230834e+00 ...,   1.79960763e+00
    2.05962554e-01   1.64527643e+00]
 [ -1.78362322e+00   1.59438109e+00   1.93044448e+00 ...,   1.80274951e+00
    2.25028142e-01   1.71992469e+00]
 [ -1.68549931e+00   1.88534439e+00   1.92295837e+00 ...,   1.73659790e+00
    3.05458486e-01   1.74882531e+00]]
Eve
[[ 3.08260155 -3.15285826 -3.18279123 ...,  3.16006446  3.15644717
  -2.91147089]
 [ 3.15010428 -3.15376544 -3.13701916 ...,  2.93964744  3.25882173
  -3.3135891 ]
 [ 3.20658588 -3.21916437 -3.13085437 ...,  3.24876523  2.83596301
  -2.85159111]
 ..., 
 [ 2.91685557 -2.95154762 -2.81781554 ...,  3.1706512   2.8293004
  -2.97262073]
 [ 2.61535573 -2.59137988 -2.45439768 ...,  2.64141035  2.43168831
  -2.6506381 ]
 [ 2.78453732 -2.97442079 -3.04244447 ...,  3.00038362  3.1002593
  -3.15011716]]