Alice
[[  7.60794245e-03   6.80584786e-03   7.81314541e-03   6.78979233e-03
    8.15687794e-03   2.26507392e-02  -3.96416456e-01   2.01967116e-02]
 [  7.54621066e-03   6.74631400e-03   7.69869890e-03   6.69009844e-03
    8.06316920e-03   2.35987566e-02  -3.98132950e-01   2.01422740e-02]
 [  1.23136593e-02   9.36678424e-03   1.13015668e-02   9.27454233e-03
    1.20670814e-02  -1.40839577e-01  -3.52965921e-01   2.27352977e-02]
 [  1.15445722e-02   1.31330900e-02   1.41155468e-02   1.35557996e-02
    1.37271881e-02   1.05283149e-02  -3.97381723e-01  -4.08846401e-02]
 [  7.56672025e-03   6.60579000e-03   7.64392177e-03   6.62987353e-03
    7.93360732e-03   2.28978898e-02  -3.96858931e-01   1.99054033e-02]
 [  1.12706199e-02   1.27254445e-02   1.37548344e-02   1.31949773e-02
    1.33353211e-02   1.13444841e-02  -3.96069944e-01  -4.16673720e-02]
 [  7.56313652e-03   6.78070402e-03   7.71892071e-03   6.72098203e-03
    8.07304028e-03   2.37402432e-02  -3.96497458e-01   1.96285509e-02]
 [  7.63532147e-03   6.64836820e-03   7.72220641e-03   6.71813497e-03
    8.08527973e-03   2.35027950e-02  -3.96979958e-01   2.00192034e-02]
 [  2.36751795e+00   2.15068460e+00   2.00260329e+00   2.48435831e+00
    2.54796553e+00   4.54878330e-01   1.87951297e-01  -1.87454045e-01]
 [  2.63320327e+00   2.69345474e+00   2.79288054e+00   2.46858048e+00
    2.38789415e+00   3.34098302e-02   8.81054401e-02  -4.12618041e-01]
 [  2.09648037e+00   2.74935842e+00   2.08596373e+00   2.40101790e+00
    2.18683505e+00  -1.76036865e-01  -3.64383385e-02   2.82670379e-01]
 [  1.65143204e+00   2.32479167e+00   2.13137960e+00   1.73907661e+00
    2.14718056e+00  -1.48294076e-01  -3.90284359e-01  -5.02504826e-01]
 [  1.94980991e+00   2.11945963e+00   2.29166245e+00   1.89692378e+00
    2.07838678e+00  -6.46701455e-02   2.93677151e-02  -9.60985795e-02]
 [  2.34632421e+00   2.34428310e+00   2.58386993e+00   2.67796707e+00
    2.37508130e+00   6.27180040e-02  -6.60614297e-02  -3.23983490e-01]
 [  2.68196225e+00   2.06462574e+00   2.41252112e+00   2.10996938e+00
    2.36197472e+00  -2.41852164e-01  -1.59333095e-01   4.97390985e-01]
 [  7.10349143e-01   7.09942877e-01   7.07555115e-01   7.09491968e-01
    7.07056999e-01  -5.37293823e-03   1.02600483e-04   9.99590099e-01]]
Bob
[[  1.13647664e-02  -6.21895585e-03   1.23002902e-02   5.40027213e-05
    1.07375756e-02  -1.13935955e-02   1.12781851e-02  -3.69569093e-01]
 [  1.10578174e-02  -5.94197819e-03   1.19386129e-02   1.02060303e-05
    1.03105400e-02  -1.09409988e-02   1.09038036e-02  -3.70424867e-01]
 [  1.14443051e-02  -6.14144234e-03   1.22826956e-02   2.35717271e-05
    1.07136359e-02  -1.13313757e-02   1.13121988e-02  -3.72364461e-01]
 [  1.12160714e-02  -6.21938333e-03   1.21025471e-02   7.18811934e-05
    1.04477713e-02  -1.11681484e-02   1.11033209e-02  -3.70760918e-01]
 [  1.12801492e-02  -6.08945126e-03   1.22480933e-02  -8.29844066e-05
    1.06606036e-02  -1.13103604e-02   1.12510715e-02  -3.71308237e-01]
 [  1.13617023e-02  -6.15695817e-03   1.22071756e-02  -3.33184653e-06
    1.05885612e-02  -1.13497395e-02   1.13319661e-02  -3.69461209e-01]
 [  1.12937298e-02  -6.16415730e-03   1.22810612e-02  -1.93644155e-05
    1.05154412e-02  -1.12046748e-02   1.12034259e-02  -3.71021152e-01]
 [  1.11014042e-02  -5.97732095e-03   1.19922021e-02   2.97942752e-05
    1.02599533e-02  -1.10439137e-02   1.09944986e-02  -3.70845944e-01]
 [  1.75247717e+00   4.85590696e-01   2.08451271e+00   6.53540641e-02
    2.17715859e+00  -1.88812017e+00   2.52995706e+00   3.76264974e-02]
 [  2.24955368e+00  -3.27329248e-01   2.44238234e+00  -6.38606399e-03
    2.18922949e+00  -1.77723491e+00   2.50544333e+00   4.77726683e-02]
 [  2.34852862e+00   2.72975534e-01   2.52720642e+00  -2.79398978e-01
    2.73648357e+00  -2.54385328e+00   1.97482944e+00  -7.28496397e-03]
 [  2.22793341e+00  -5.99559136e-02   1.92874765e+00   1.80828795e-01
    2.43892813e+00  -2.26783729e+00   1.89311659e+00  -1.85166135e-01]
 [  2.53548574e+00  -9.44778249e-02   2.21506405e+00   6.05026335e-02
    1.98905826e+00  -2.39860058e+00   2.09273219e+00   7.45477378e-02]
 [  2.52863741e+00   1.09529209e+00   2.51428437e+00   1.72121247e-04
    2.36542082e+00  -2.61221242e+00   2.58962488e+00  -3.81031935e-03]
 [  5.09475231e-01   7.38892611e-03   5.10083914e-01   1.00001156e+00
    5.18461406e-01  -5.06250679e-01   5.05873322e-01  -9.26274923e-04]
 [  2.58221173e+00   3.19772586e-02   2.42709637e+00   1.98080146e-04
    2.46971393e+00  -2.68918657e+00   2.71640825e+00   9.93229270e-01]]
Eve
[[ 3.42060494 -2.77038932  3.4707365  -3.34658623 -2.99354649  2.11249423
  -2.48374772  3.03496552]
 [ 2.58063555 -3.53345513  2.80120182 -3.03813601 -3.57826185  1.93499327
  -2.46194267  3.0880444 ]
 [ 3.58057857 -3.35034895  3.02881289 -2.69668269 -3.14272428  2.03980184
  -2.55586696  3.12473869]
 [ 3.21509838 -3.57669878  3.20461178 -2.9728334  -2.89704418  1.92850149
  -1.94878316  2.96300197]
 [ 2.99245858 -2.72100496  2.65386844 -2.59848404 -3.02106547  1.84378135
  -2.53020215  2.79757452]
 [ 2.65850163 -3.61654305  2.71554565 -3.4243679  -3.29507828  2.43232989
  -2.71808314  2.74177265]
 [ 2.25951815 -2.2639029   2.24741983 -2.25883126 -2.25457716 -0.34335831
  -2.57575917  0.16833435]
 [ 2.36714983 -2.85306048  2.89915729 -2.92177057 -2.26282406 -0.44563317
  -2.01693892  2.17522407]
 [ 3.51904368 -2.761343    3.72693419 -3.15770197 -3.16260576  1.86802113
  -2.61347985  2.3986752 ]
 [ 3.23223925 -3.20270205  3.23416901 -3.02034211 -3.29478812  1.61734414
  -3.35543132  2.36889791]
 [ 2.86092997 -2.8972826   3.26514316 -3.04949498 -3.35428548  1.7004323
  -3.41439986  1.93853593]
 [ 2.05378747 -1.98617947  2.06039882 -2.23556566 -2.06790137  1.23118341
  -1.74205232  1.63746607]
 [ 3.62307644 -3.33266473  2.93879199 -3.35632157 -3.12104201  1.71633673
  -2.72339654  2.0631907 ]
 [ 3.23963094 -3.52331996  3.04824471 -3.62566161 -3.57786012  2.31158233
  -2.79384398  2.26463628]
 [ 3.46968031 -3.19757104  3.70272803 -3.28586721 -3.04422426  1.97577524
  -2.76586723  2.08071637]
 [ 2.47762609 -2.46921325  2.49499226 -2.48414779 -2.48253155  0.15488864
  -0.19103089  2.74701023]]