Alice
[[  3.10719144e-02  -4.27647009e-02   6.01416111e-01   1.37770660e-02
   -2.58115113e-01  -3.33230011e-02  -5.93385696e-01  -5.44264875e-02
   -3.23977619e-02  -4.56783809e-02  -4.76053767e-02  -4.69277054e-02
    5.28595820e-02   2.87053064e-02   1.27836224e-02   1.38762919e-02]
 [  3.80945615e-02  -4.18908633e-02   5.90465307e-01   1.59113873e-02
   -2.69655257e-01  -2.75528096e-02  -5.92789471e-01  -5.59288189e-02
   -3.97066996e-02  -4.57454994e-02  -6.23932779e-02  -5.72196543e-02
    5.37352152e-02   1.97376981e-02   1.16194468e-02   1.57188363e-02]
 [  3.54916267e-02  -4.75783721e-02   5.72125316e-01   1.49774384e-02
   -2.85654813e-01  -3.51286344e-02  -5.95907032e-01  -6.17611855e-02
   -3.55853178e-02  -5.00152595e-02  -5.16635217e-02  -5.96700013e-02
    5.93214408e-02   2.81146336e-02   1.33816544e-02   1.53843351e-02]
 [  4.20182161e-02  -3.59893888e-02   5.85009694e-01   2.57746987e-02
   -2.58491397e-01  -1.65807642e-02  -5.91560245e-01  -4.42518815e-02
   -5.03399149e-02  -4.06312384e-02  -9.52343345e-02  -4.18471470e-02
    4.08205055e-02   8.90079606e-03   1.25613930e-02   1.69458203e-02]
 [  3.68068963e-02  -4.92633171e-02   5.76887310e-01   1.92583036e-02
   -2.91657239e-01  -3.09199281e-02  -5.94533205e-01  -6.01826906e-02
   -4.17808257e-02  -5.14354147e-02  -6.48624077e-02  -5.51767088e-02
    5.66374175e-02   2.49062777e-02   1.44203436e-02   1.57515332e-02]
 [  2.44982168e-01   7.68112466e-02   5.08580446e-01   1.75231546e-02
   -2.08765849e-01   6.80543035e-02  -6.59763098e-01  -1.46170445e-02
    5.79247586e-02   8.64926279e-02   6.03332557e-02  -5.90097567e-04
   -7.94334561e-02  -6.64767176e-02  -1.17835766e-02   7.73353636e-01]
 [  3.25399153e-02  -4.85284515e-02   5.84526300e-01   1.59170553e-02
   -2.86005408e-01  -3.69691700e-02  -5.94993949e-01  -6.32821918e-02
   -3.56510989e-02  -5.08124940e-02  -4.75677364e-02  -5.54866716e-02
    5.80401123e-02   3.04190163e-02   1.44942943e-02   1.51382787e-02]
 [  2.96801552e-02  -4.23787571e-02   6.11362815e-01   1.02180345e-02
   -2.45128021e-01  -3.24825421e-02  -5.92877865e-01  -5.35796285e-02
   -2.63341852e-02  -4.42443304e-02  -4.10312861e-02  -4.76562157e-02
    5.24881557e-02   2.89100055e-02   1.16984081e-02   1.35452263e-02]
 [  3.57949175e-02  -4.90131676e-02   5.97598433e-01   1.11937011e-02
   -2.94428885e-01  -4.00655568e-02  -5.96466124e-01  -6.70945197e-02
   -2.88338810e-02  -5.07701151e-02  -3.67003419e-02  -7.38636106e-02
    6.43767640e-02   3.30592282e-02   1.32989567e-02   1.68119762e-02]
 [  4.07843217e-02  -4.12213616e-02   5.76026320e-01   1.64200626e-02
   -2.81437159e-01  -3.16190496e-02  -5.95495760e-01  -5.57396077e-02
   -3.45037654e-02  -4.57303561e-02  -6.11372516e-02  -6.13565259e-02
    5.75689599e-02   2.82761883e-02   1.25996908e-02   1.58717223e-02]
 [  2.99576316e-02  -4.54908498e-02   5.99911273e-01   1.26263648e-02
   -2.56311327e-01  -3.34656946e-02  -5.93298614e-01  -5.44221438e-02
   -2.91619804e-02  -4.70921881e-02  -4.26463149e-02  -4.82281484e-02
    5.47445975e-02   2.94484887e-02   1.21824332e-02   1.43096680e-02]
 [  4.27167416e-02  -4.32880446e-02   5.65398216e-01   1.95510425e-02
   -3.01952481e-01  -3.42579447e-02  -5.94421148e-01  -6.22804016e-02
   -3.90832275e-02  -4.75190356e-02  -6.40435889e-02  -6.98302537e-02
    5.92030510e-02   2.62048915e-02   1.41700814e-02   1.77277531e-02]
 [  4.21869345e-02  -3.73267084e-02   5.95165253e-01   2.34672669e-02
   -2.67976195e-01  -2.01280601e-02  -5.91861546e-01  -5.12142889e-02
   -4.81205657e-02  -4.11795415e-02  -8.54243040e-02  -5.41880094e-02
    4.42875735e-02   9.28936247e-03   1.28101995e-02   1.81181896e-02]
 [  3.71850096e-02  -4.34083268e-02   5.84424675e-01   1.72178000e-02
   -2.75303841e-01  -3.17061767e-02  -5.93307674e-01  -5.49246334e-02
   -3.34684141e-02  -4.61211428e-02  -6.17391057e-02  -5.30832633e-02
    5.41891642e-02   2.89373696e-02   1.39005044e-02   1.50894215e-02]
 [  4.26894687e-02  -5.76383248e-02   5.52704453e-01   2.22512893e-02
   -3.41626614e-01  -3.93358879e-02  -5.96978843e-01  -7.02654123e-02
   -4.78937514e-02  -6.05431013e-02  -6.84603676e-02  -7.04752579e-02
    6.92365468e-02   3.01610567e-02   1.57211032e-02   1.67295840e-02]
 [  3.32000032e-02  -4.55694608e-02   5.86823463e-01   1.31696211e-02
   -2.79315710e-01  -3.85392830e-02  -5.93624711e-01  -6.00098893e-02
   -2.95879189e-02  -4.84714285e-02  -4.29074913e-02  -5.65338247e-02
    5.90971000e-02   3.55982184e-02   1.39159905e-02   1.43305287e-02]
 [  5.75856575e-06  -1.09901594e-03   2.39755143e-04  -2.64275383e-04
   -3.12256481e-04   2.66177254e-03   4.27633822e-05  -1.33454485e-03
    3.58626596e-04  -1.05932332e-03  -1.03081705e-03  -3.47148860e-03
    1.03392056e-03  -2.50957673e-04  -4.11281770e-04  -4.10545757e-03]
 [  1.41189867e-05  -9.16208315e-04   2.62673624e-04  -2.40211943e-04
   -3.00734682e-04   2.48429878e-03  -2.13912117e-05  -1.32299110e-03
    3.02854780e-04  -9.94430389e-04  -1.01973419e-03  -3.60832736e-03
    1.02652679e-03  -2.34283085e-04  -4.07430489e-04  -4.15954599e-03]
 [  1.91768049e-06  -1.03425223e-03   1.78352682e-04  -2.34709805e-04
   -3.24353983e-04   2.65662023e-03   7.28535233e-05  -1.36988855e-03
    3.14483710e-04  -1.10739970e-03  -1.06131402e-03  -3.54775391e-03
    1.02958642e-03  -2.38606823e-04  -3.71037575e-04  -4.16273205e-03]
 [ -1.89724997e-05  -1.01087638e-03   2.20425936e-04  -2.93986290e-04
   -2.40096546e-04   2.70019355e-03   6.48605346e-05  -1.32915284e-03
    3.61639803e-04  -1.04216964e-03  -1.00144104e-03  -3.52013926e-03
    9.94544709e-04  -2.72857491e-04  -4.30851156e-04  -4.19622799e-03]
 [  1.51663698e-06  -1.03439973e-03   7.27994920e-05  -2.55992956e-04
   -4.27774357e-04   2.63854256e-03   1.07538035e-04  -1.31550140e-03
    3.66717577e-04  -1.06541323e-03  -1.04393438e-03  -3.53632984e-03
    1.03013194e-03  -2.63822585e-04  -4.02705045e-04  -4.16254345e-03]
 [  1.04909013e-05  -1.06288726e-03   2.18725516e-04  -2.39248417e-04
   -3.30966344e-04   2.71076499e-03   6.86516796e-05  -1.32318365e-03
    3.58054152e-04  -1.08130532e-03  -1.03822513e-03  -3.48214060e-03
    1.02141546e-03  -2.60993314e-04  -4.35552094e-04  -4.14344063e-03]
 [ -6.71251928e-06  -1.07854872e-03   1.85536250e-04  -2.76993873e-04
   -4.16363619e-04   2.73893401e-03  -6.39488007e-07  -1.37045293e-03
    3.53553332e-04  -1.11531571e-03  -1.05001021e-03  -3.58595722e-03
    1.04316382e-03  -2.53089267e-04  -4.14598995e-04  -4.23685228e-03]
 [ -2.25914227e-05  -1.06692920e-03   8.83948742e-05  -2.55222316e-04
   -2.42397247e-04   2.70811794e-03   3.34957949e-05  -1.35508273e-03
    3.77913006e-04  -1.06160087e-03  -1.03301159e-03  -3.55727621e-03
    1.03549846e-03  -2.82711379e-04  -4.24524653e-04  -4.20987373e-03]
 [  4.90000966e-05  -1.09324872e-03   2.16972578e-04  -2.18923335e-04
   -3.75510252e-04   2.73504551e-03  -6.88413775e-06  -1.36239629e-03
    3.00118903e-04  -1.11850444e-03  -1.04136462e-03  -3.50522553e-03
    1.02158263e-03  -2.03261996e-04  -4.09341679e-04  -4.15675342e-03]
 [  2.57375505e-05  -1.07668794e-03   1.29428023e-04  -2.06056953e-04
   -2.07435281e-04   2.72679375e-03   8.84460533e-05  -1.36203354e-03
    3.92595830e-04  -1.16160593e-03  -1.07605965e-03  -3.57071939e-03
    1.03418226e-03  -2.69003300e-04  -4.07426705e-04  -4.16305149e-03]
 [  2.27220771e-05  -1.08744099e-03   2.42999246e-04  -1.91858038e-04
   -2.36109394e-04   2.64388463e-03   9.50146205e-05  -1.38321007e-03
    3.03341891e-04  -1.10557955e-03  -1.07487291e-03  -3.57082300e-03
    1.06834841e-03  -2.27728844e-04  -3.97093856e-04  -4.17145388e-03]
 [  1.92753614e-05  -1.02395762e-03   1.08728200e-04  -2.60313536e-04
   -3.29424394e-04   2.69807852e-03   7.65687946e-05  -1.34499848e-03
    3.32281517e-04  -1.02492911e-03  -1.01716362e-03  -3.54541070e-03
    1.04524055e-03  -2.62629794e-04  -4.28343716e-04  -4.18116804e-03]
 [  9.11163261e-06  -1.05713215e-03   1.27387757e-04  -2.21737806e-04
   -2.45950243e-04   2.63363495e-03  -3.48768481e-06  -1.36222260e-03
    3.40042490e-04  -1.09764177e-03  -1.06394698e-03  -3.56414914e-03
    1.03555806e-03  -2.61699490e-04  -3.97178519e-04  -4.17352654e-03]
 [  5.19746209e-06  -1.06241659e-03   1.33409485e-04  -2.32146151e-04
   -2.62140937e-04   2.69617350e-03   1.48785461e-04  -1.35899161e-03
    3.21494939e-04  -1.07655698e-03  -1.02217623e-03  -3.50033469e-03
    1.05266727e-03  -2.60049594e-04  -3.86869389e-04  -4.16499330e-03]
 [ -1.01685737e-05  -1.11727265e-03   1.96386449e-04  -2.32736231e-04
   -2.11920284e-04   2.73671094e-03   3.11265721e-05  -1.38766749e-03
    3.64006206e-04  -1.15594536e-03  -1.04625861e-03  -3.52528854e-03
    1.06149993e-03  -2.21888942e-04  -3.96281510e-04  -4.17339196e-03]
 [  1.65040037e-05  -1.10700051e-03   1.39958822e-04  -2.27601005e-04
   -4.00685822e-04   2.69788760e-03   8.39711720e-05  -1.39498885e-03
    3.49330105e-04  -1.12882489e-03  -1.08157424e-03  -3.58443661e-03
    1.07822195e-03  -2.19469948e-04  -3.99255980e-04  -4.17804858e-03]
 [  5.44704318e-01  -1.54235808e-03   1.87196225e-01  -1.00377358e-01
   -3.02083522e-01  -7.74469040e-03  -1.12640071e+00  -6.90626860e-01
   -8.15287769e-01  -1.90279295e-03  -1.07643932e-01  -8.98866653e-01
    8.51132095e-01   5.84555030e-01  -3.90792131e-01   1.23296827e-02]
 [  5.90712607e-01  -4.66261022e-02   1.22602113e-01  -4.07230593e-02
    1.97227597e-02   7.98997134e-02  -4.36317354e-01  -3.77135128e-02
   -6.59208953e-01   5.96234836e-02  -2.51840919e-01  -1.02935183e+00
    9.42150354e-01   6.49376631e-01  -2.71660149e-01   4.49911226e-03]
 [  1.53024763e-01  -2.67335683e-01   2.54086018e-01  -7.48691320e-01
    9.17907655e-02   1.42879710e-01  -2.92127937e-01  -5.91845989e-01
   -3.47735614e-01   3.26565616e-02   1.17584407e-01  -5.83458304e-01
    4.62275505e-01   5.88377118e-01  -2.81157553e-01  -7.45112747e-02]
 [  3.17323916e-02   6.13827445e-02   1.84661403e-01   1.32901203e-02
    1.89076677e-01   1.35425478e-01  -3.12079430e-01  -5.25278509e-01
   -7.01506436e-01   5.26465289e-02   8.96171927e-02  -6.20971143e-01
    5.16558647e-01  -1.27557024e-01  -5.67697406e-01  -1.70318854e-05]
 [  5.65965712e-01  -3.49806825e-04   1.18152842e-01   8.46949279e-01
   -2.69800693e-01  -1.23676728e-03  -3.13689262e-01  -4.07023996e-01
   -6.58558488e-01  -3.26871930e-04  -2.91022390e-01  -8.13811779e-01
    8.73195767e-01   6.66418433e-01  -5.46695888e-01  -2.09492468e-03]
 [  3.50408070e-02   4.43966240e-02   1.55079262e-02   4.41186994e-01
   -2.33062785e-02   3.56912762e-02   1.39717730e-02  -3.69597947e-05
   -3.56747885e-03   6.37246668e-02  -9.77964140e-03  -2.71936264e-02
    4.72311676e-02  -2.15151012e-02  -2.57732980e-02  -9.35510933e-01]
 [  3.31997037e-01  -2.44927090e-02   1.72899980e-02   1.67124167e-01
   -1.04789421e-01   1.28305508e-02  -3.10998768e-01  -6.38961315e-01
   -7.46355355e-01   1.18098231e-02  -2.76585549e-01  -1.01267278e+00
    1.00413132e+00   7.44479537e-01  -2.46817291e-01  -2.14057356e-01]
 [  2.88204432e-01   1.81183740e-01   1.34733126e-01  -3.05024404e-02
   -1.24118896e-02   5.52541792e-01  -1.71861187e-01  -7.37224579e-01
   -5.49127162e-01   1.30685419e-01   4.56279516e-02  -8.88033450e-01
    6.44220591e-01   4.72030878e-01  -2.04376444e-01   1.28117797e-03]
 [  1.34232032e+00  -1.15018338e-01   1.44975305e-01  -4.36261110e-02
   -1.39640734e-01  -2.10155565e-02  -5.25062442e-01  -6.35950565e-01
   -7.07433999e-01  -1.78003505e-01  -1.76283002e-01  -7.22069979e-01
    8.80722821e-01   6.10766709e-01  -4.04027581e-01   4.26266521e-01]
 [  4.83705014e-01   2.57782452e-02   3.17628801e-01  -2.02844381e-01
   -3.11701000e-01   9.16701406e-02  -3.31302047e-01  -9.47652221e-01
   -1.20126590e-01   2.72227135e-02  -2.15240806e-01  -8.68193448e-01
    8.61345172e-01   6.07976735e-01  -3.89397651e-01   1.77857593e-01]
 [  4.09125239e-01   3.20079853e-04   7.28270888e-01   4.61661331e-02
   -2.06325561e-01   2.27082800e-03  -5.88533521e-01  -4.49028045e-01
   -7.09473133e-01   6.12926669e-04  -2.63041615e-01  -8.45471680e-01
    7.51596451e-01   2.91854113e-01  -5.89794874e-01   2.82845227e-03]
 [  3.78452510e-01   1.79681972e-01   6.23387814e-01   2.11253673e-01
    5.74870743e-02  -1.28512636e-01  -5.55093467e-01  -1.03993475e+00
   -1.95717335e-01   4.95242178e-02  -2.96539992e-01  -9.33125615e-01
    8.53824496e-01   6.78879261e-01  -1.10885799e+00  -1.93455905e-01]
 [  1.25364915e-01  -1.61249697e-01   4.24692184e-01  -3.86257172e-01
   -1.18928201e-01   2.02021264e-02  -4.61000711e-01  -4.47269738e-01
   -3.88087690e-01   2.55425982e-02  -3.98855686e-01  -9.68091488e-01
    9.74798977e-01   4.74131286e-01  -6.98758006e-01   1.65773854e-01]
 [  4.21281070e-01   5.51343441e-01  -4.24986519e-02   8.16809386e-03
    1.87757358e-01  -2.91198436e-02  -4.87167358e-01  -7.63187289e-01
   -6.28674865e-01   2.66984195e-01  -1.65339574e-01  -9.71661687e-01
    1.01019108e+00   5.30973554e-01  -5.55141628e-01   1.49868116e-01]
 [  5.11248648e-01   1.20910123e-01   4.33777541e-01   3.38022187e-02
   -2.45711729e-01  -2.25717574e-02  -5.29364407e-01  -6.60941899e-01
   -2.83239424e-01   4.95788008e-01  -2.39011720e-01  -7.69116461e-01
    6.72262788e-01   4.80601847e-01  -3.68292093e-01   2.22396359e-01]
 [  4.39962089e-01   8.81153867e-02   2.40981311e-01  -2.91433126e-01
    1.38077155e-01   1.35747567e-01  -5.09422243e-01  -5.79305649e-01
   -1.02982903e+00   1.03965461e-01  -2.80083954e-01  -7.46052921e-01
    8.35570693e-01   5.10434806e-01  -4.70615834e-01  -5.04671708e-02]]
Bob
[[ -5.93413591e-01   4.15716432e-02   6.64720917e-03  -2.59671826e-02
   -2.58145928e-01  -2.43670754e-02  -5.39754368e-02   3.95430177e-02
   -2.65902504e-02   3.88476774e-02  -6.01329684e-01   5.87661192e-02
   -3.36661972e-02   4.87074964e-02   3.12391184e-02   2.86565907e-02]
 [ -5.92739522e-01   4.05140370e-02   5.52535569e-03  -1.61248278e-02
   -2.69575685e-01  -2.50132084e-02  -5.75828105e-02   3.93866897e-02
   -2.37390250e-02   3.60258184e-02  -5.90452909e-01   7.06271380e-02
   -4.66230735e-02   5.41493818e-02   3.14198360e-02   3.07469275e-02]
 [ -5.95905721e-01   4.71456982e-02   6.16905885e-03  -2.60743089e-02
   -2.85688132e-01  -2.72004772e-02  -6.28485382e-02   4.75487448e-02
   -2.54677925e-02   4.24923748e-02  -5.72116613e-01   6.36427477e-02
   -3.56833860e-02   5.61185777e-02   3.80667150e-02   3.10707148e-02]
 [ -5.91557920e-01   2.93719191e-02   7.32787931e-03  -2.47237226e-03
   -2.58473635e-01  -2.22137570e-02  -5.47630265e-02   2.21369453e-02
   -1.82759017e-02   3.03137265e-02  -5.85011125e-01   8.21958706e-02
   -7.82140568e-02   5.06425351e-02   2.20168158e-02   3.30816023e-02]
 [ -5.94618201e-01   4.44243141e-02   4.85656690e-03  -2.02920195e-02
   -2.91464031e-01  -2.79498044e-02  -6.33257627e-02   4.31176275e-02
   -1.92969721e-02   4.31136489e-02  -5.76913714e-01   6.84313476e-02
   -4.89158444e-02   6.03671968e-02   4.00089584e-02   3.36306803e-02]
 [ -6.60083055e-01   1.25394771e-02  -1.44974608e-02   7.23649636e-02
   -2.08880723e-01   4.15599579e-03  -1.47560425e-02  -9.68566909e-02
   -5.27543604e-01   3.66655327e-02  -5.08462310e-01   3.67873646e-02
   -3.41308746e-03  -2.58100908e-02   4.49416861e-02   5.37884273e-02]
 [ -5.94977856e-01   4.96048331e-02   6.36723358e-03  -2.90832911e-02
   -2.85976887e-01  -2.72241849e-02  -6.32975176e-02   4.79381047e-02
   -2.56842263e-02   4.61110435e-02  -5.84484994e-01   5.94931394e-02
   -3.32427993e-02   5.42161800e-02   3.87558974e-02   2.94932667e-02]
 [ -5.92884243e-01   4.02139947e-02   5.46177104e-03  -2.55124234e-02
   -2.45234236e-01  -2.34682709e-02  -5.05552180e-02   4.13858630e-02
   -2.36392505e-02   3.56741138e-02  -6.11329198e-01   5.38583994e-02
   -2.68666130e-02   4.83638905e-02   3.16897109e-02   2.97171865e-02]
 [ -5.96600592e-01   5.50289713e-02   6.30563963e-03  -3.67788263e-02
   -2.94323325e-01  -2.70663276e-02  -7.33330175e-02   5.77035658e-02
   -3.11900415e-02   4.58222106e-02  -5.97692430e-01   5.63409142e-02
   -1.99578367e-02   5.38824573e-02   4.27202061e-02   2.65693348e-02]
 [ -5.95510781e-01   4.17757109e-02   8.25952832e-03  -2.80770026e-02
   -2.81323522e-01  -2.50241850e-02  -6.42722324e-02   3.85753401e-02
   -3.66527550e-02   3.51936258e-02  -5.76048553e-01   7.16206804e-02
   -4.31839898e-02   4.96193096e-02   2.97812670e-02   3.00792586e-02]
 [ -5.93233705e-01   4.14146483e-02   6.85881730e-03  -2.61008870e-02
   -2.56403178e-01  -2.33548824e-02  -5.37809506e-02   4.38713916e-02
   -2.08584480e-02   3.87109369e-02  -5.99878669e-01   5.41519634e-02
   -2.74711680e-02   5.23486920e-02   3.66921313e-02   2.99414676e-02]
 [ -5.94432354e-01   4.92015146e-02   9.20538884e-03  -2.91889478e-02
   -3.02158445e-01  -2.69653462e-02  -7.46701509e-02   4.50007319e-02
   -3.64171751e-02   4.16531190e-02  -5.65297127e-01   7.21834749e-02
   -4.57108282e-02   5.07720374e-02   3.37140635e-02   2.84524672e-02]
 [ -5.91832340e-01   3.73499431e-02   7.07437703e-03  -6.82143774e-03
   -2.67984718e-01  -2.35288851e-02  -6.28950819e-02   3.14394571e-02
   -1.98246650e-02   3.48523818e-02  -5.95188558e-01   7.69963712e-02
   -6.86411932e-02   5.00341170e-02   2.63951328e-02   2.99583636e-02]
 [ -5.93237877e-01   4.09825891e-02   6.50300784e-03  -2.65245475e-02
   -2.75364369e-01  -2.57280879e-02  -6.15527257e-02   3.79957780e-02
   -2.92470679e-02   3.69414277e-02  -5.84428072e-01   6.62506744e-02
   -4.48393337e-02   5.05562872e-02   3.16595659e-02   3.22449990e-02]
 [ -5.97121716e-01   5.30632846e-02   4.34030220e-03  -2.69167461e-02
   -3.41736436e-01  -3.31390724e-02  -7.62219429e-02   5.56197464e-02
   -2.64078025e-02   5.06955050e-02  -5.52607119e-01   7.83897117e-02
   -4.95292470e-02   7.04502612e-02   4.83593605e-02   3.62851471e-02]
 [ -5.93556464e-01   4.76970933e-02   7.17690913e-03  -3.60406712e-02
   -2.79184580e-01  -2.62115784e-02  -6.31708428e-02   4.52724099e-02
   -3.46651524e-02   4.22620401e-02  -5.86802304e-01   5.89126348e-02
   -2.77118478e-02   4.89650294e-02   3.41795310e-02   2.79621184e-02]
 [  1.04080013e-04   4.74537926e-04   2.61308422e-04  -2.67344702e-04
   -4.87586745e-04   1.13979727e-03  -1.91119243e-03   2.46687530e-04
    5.09871636e-03  -1.70336524e-03  -2.14516054e-04   1.78741419e-03
   -4.93556436e-04   1.61287957e-03   5.65507798e-04   5.12611841e-05]
 [  1.00095182e-04   4.61048767e-04   2.50104087e-04  -2.73123675e-04
   -3.01535329e-04   1.32934388e-03  -1.87053438e-03   2.13139851e-04
    5.09414962e-03  -1.69878616e-03  -3.87762149e-04   1.76811579e-03
   -4.81670955e-04   1.60753401e-03   4.91705316e-04   3.37538659e-05]
 [  4.38437310e-05   4.57236165e-04   1.92416177e-04  -1.88330814e-04
   -2.10780418e-04   1.24234147e-03  -1.84606260e-03   1.35940252e-04
    5.29950252e-03  -1.78192614e-03  -3.09484778e-04   1.76626584e-03
   -4.68926621e-04   1.62111467e-03   5.10847429e-04   3.84060731e-05]
 [  2.45673029e-04   4.47393279e-04   1.99806454e-04  -2.45691219e-04
   -3.54907446e-04   1.26582209e-03  -1.87194161e-03   2.09353879e-04
    5.04405191e-03  -1.67311146e-03  -2.93993216e-04   1.72063801e-03
   -4.54890716e-04   1.51178904e-03   4.90939652e-04   1.17452419e-05]
 [  4.79871560e-05   4.39949712e-04   2.44729861e-04  -2.48422701e-04
   -1.18574651e-04   1.32958835e-03  -1.90363126e-03   2.07986683e-04
    5.19323722e-03  -1.72724505e-03  -3.82389699e-04   1.79755106e-03
   -4.96096618e-04   1.59186171e-03   5.33887825e-04   4.46630074e-05]
 [ -2.92812911e-06   5.45829826e-04   2.70172575e-04  -3.01072054e-04
   -3.87039792e-04   1.07385300e-03  -1.96464779e-03   2.75720435e-04
    5.21189161e-03  -1.68140454e-03  -3.18869599e-04   1.82571087e-03
   -5.25929616e-04   1.64674642e-03   5.92038326e-04   8.76211125e-05]
 [ -6.96969937e-06   4.87607060e-04   2.21824186e-04  -2.68735806e-04
   -2.97841907e-04   1.40189135e-03  -1.90978928e-03   2.08456564e-04
    5.32343239e-03  -1.73153100e-03  -3.26235779e-04   1.88258244e-03
   -5.53229183e-04   1.77440024e-03   5.77884435e-04   1.17950789e-04]
 [  1.43991292e-05   5.29834069e-04   3.05467634e-04  -3.04105517e-04
   -2.84422829e-04   1.38327281e-03  -1.93524396e-03   1.81433934e-04
    5.22687472e-03  -1.70613697e-03  -2.74691440e-04   1.82094728e-03
   -5.21639537e-04   1.64084148e-03   5.57848834e-04   4.85112287e-05]
 [  7.96519525e-05   4.69383638e-04   2.40439040e-04  -2.78347376e-04
   -3.24457476e-04   1.19165971e-03  -1.91760540e-03   2.37098197e-04
    5.16811060e-03  -1.71633367e-03  -3.98115400e-04   1.81881886e-03
   -5.23360388e-04   1.65247056e-03   5.57973108e-04   6.74030671e-05]
 [  2.16846456e-05   5.29238081e-04   2.81594490e-04  -2.93969701e-04
   -3.29066592e-04   1.24914269e-03  -1.94941694e-03   2.47020682e-04
    5.30715706e-03  -1.71883754e-03  -2.38942448e-04   1.86289335e-03
   -5.55460283e-04   1.76819414e-03   5.99666499e-04   9.89286709e-05]
 [  9.11069728e-05   4.58974362e-04   2.64672883e-04  -2.84163078e-04
   -2.01552801e-04   1.43470254e-03  -1.90083834e-03   2.27194891e-04
    5.18503226e-03  -1.72820978e-03  -2.80912296e-04   1.77927257e-03
   -4.93570464e-04   1.62868574e-03   5.37868647e-04   5.43825772e-05]
 [  1.24736223e-04   3.93687777e-04   1.61727919e-04  -2.47706950e-04
   -3.09836090e-04   1.46944157e-03  -1.84878358e-03   1.64701050e-04
    5.11855213e-03  -1.72401685e-03  -2.17789478e-04   1.78100134e-03
   -4.83723794e-04   1.58198585e-03   4.85797005e-04   3.60689846e-05]
 [  1.85921817e-06   4.83957847e-04   2.59351684e-04  -2.62980466e-04
   -3.27294256e-04   1.21597236e-03  -1.92505762e-03   1.76333648e-04
    5.30852983e-03  -1.77789922e-03  -2.66076648e-04   1.83424761e-03
   -5.24892588e-04   1.72100868e-03   5.56672807e-04   8.02994109e-05]
 [  3.39704711e-05   4.90969629e-04   2.55539169e-04  -2.96793180e-04
   -2.91066826e-04   1.30228593e-03  -1.89641071e-03   2.63117225e-04
    4.96997125e-03  -1.64887158e-03  -3.00556450e-04   1.77999982e-03
   -5.12652099e-04   1.56480772e-03   5.38916967e-04   3.97677795e-05]
 [  1.67404622e-04   4.40288946e-04   2.33131243e-04  -2.20108137e-04
   -2.56052735e-04   1.21755432e-03  -1.85572344e-03   1.84373188e-04
    5.14623662e-03  -1.70522276e-03  -2.91300094e-04   1.78157375e-03
   -4.95745800e-04   1.58301985e-03   5.18209185e-04   3.38872160e-05]
 [  8.52073790e-05   4.69065097e-04   2.18377842e-04  -2.46579730e-04
   -3.07110022e-04   1.28063688e-03  -1.92434492e-03   2.37614397e-04
    5.18282270e-03  -1.70511694e-03  -2.54198210e-04   1.80645660e-03
   -4.97794943e-04   1.65276392e-03   5.44273877e-04   6.42138548e-05]
 [ -6.63132906e-01   8.85711014e-01   1.17610127e-01  -6.74988866e-01
   -5.44212103e-01  -1.08067036e-01  -7.08143115e-01  -5.83427958e-02
   -2.94157285e-02   9.62073267e-01  -3.16083878e-01   4.70289528e-01
   -1.01454847e-01   4.79447916e-02   4.60513867e-02  -5.38985193e-01]
 [ -2.78559357e-01   6.20513678e-01   7.33162522e-01  -5.71855903e-01
   -5.50132096e-01   2.01962993e-01  -8.36379349e-01  -1.09211296e-01
   -4.54050064e-01   2.66701609e-01   1.83557600e-01   4.21335876e-01
   -2.80391872e-01  -7.08623230e-01  -3.25766116e-01  -5.99593222e-01]
 [ -5.88626206e-01   4.48905021e-01  -4.58837599e-02  -2.91848868e-01
   -7.51083255e-01   1.59781519e-03  -8.45758677e-01   7.85354234e-04
   -4.09188658e-01   2.06746757e-01  -7.28304327e-01   5.89870691e-01
   -2.63049811e-01   5.59993030e-04   5.66723407e-04  -7.09348381e-01]
 [ -4.43522066e-01   7.59519696e-01  -5.46271265e-01  -2.88537741e-01
   -2.78259695e-01   9.68659520e-02  -5.32807112e-01  -3.22829187e-02
   -3.55155170e-01   7.23629236e-01  -1.74568817e-01   4.29415524e-01
   -1.21182598e-01   3.86806279e-02  -1.30392611e-01  -6.42592251e-01]
 [ -3.13771665e-01   4.06987220e-01   1.55225009e-01  -6.66243553e-01
   -8.73395681e-01  -7.73402397e-04  -8.13521147e-01  -1.91970484e-03
   -5.65907180e-01   2.68912911e-01  -1.18458062e-01   5.46697915e-01
   -2.90821701e-01  -3.91043228e-04  -3.48515692e-04  -6.58425629e-01]
 [ -1.70917705e-01   5.35239518e-01   5.62647462e-01  -5.40692329e-01
   -3.49435955e-01   1.42737284e-01  -9.23770189e-01  -5.89920819e-01
   -4.22368735e-01   3.22170466e-01  -5.97934835e-02   1.24868825e-01
   -1.95477694e-01   1.41265541e-02  -1.80465858e-02  -9.76205230e-01]
 [ -1.12640059e+00   6.90623939e-01   9.81558934e-02  -5.84412217e-01
   -8.52430046e-01  -1.99156962e-02  -8.98492157e-01  -2.90802564e-03
   -5.44948578e-01   3.00596356e-01  -1.88019708e-01   3.91055405e-01
   -1.07577391e-01  -2.55921739e-03  -1.67323370e-03  -8.15419376e-01]
 [ -4.59330946e-01   7.72312880e-01   8.38580787e-01  -6.67737663e-01
   -1.55064970e-01   1.71220064e-01  -1.12695146e+00  -2.27185592e-01
   -4.06572461e-01   5.01857698e-01  -3.19591910e-01   9.93229598e-02
   -4.18314114e-02   7.42416643e-03  -2.21427903e-01  -9.14330661e-01]
 [ -5.13110936e-01   5.06712437e-01   7.23643720e-01  -4.72303361e-01
   -3.69370669e-01  -3.80786955e-02  -6.77046180e-01  -1.44692913e-01
   -2.05742344e-01   4.97877210e-01  -3.57199043e-01   2.82807142e-01
   -3.41386721e-02  -1.48208272e-02   1.95297820e-03  -1.65642440e-01]
 [ -1.68909207e-01   8.08618903e-01   2.24094853e-01  -6.69053316e-01
   -3.07318240e-01   2.32049823e-02  -8.20586622e-01   2.00290978e-02
   -4.54784244e-01   4.14671898e-01  -3.05505186e-01   2.16203988e-01
   -3.18766266e-01  -3.07923496e-01   4.49652039e-02  -6.44580364e-01]
 [ -3.77714485e-01   5.67879081e-01   8.01801622e-01  -5.76913297e-01
   -2.62197077e-01   1.49365544e-01  -7.33843982e-01   1.16993740e-01
   -4.84353662e-01   4.04578447e-01  -4.37733561e-01   2.69171447e-01
   -6.74299538e-01  -1.50531992e-01   5.65740876e-02  -8.70940328e-01]
 [ -2.82891393e-01   4.51779276e-01   3.85499746e-01  -2.83853203e-01
   -7.35977590e-01   1.40228778e-01  -1.36824739e+00  -6.11967444e-02
   -7.13934600e-01   4.99064326e-01  -1.90458558e-02   2.87041217e-01
   -3.14581811e-01   5.25611714e-02   3.62954363e-02  -4.22826022e-01]
 [ -4.23966855e-01   8.76776159e-01   3.55357200e-01  -5.57397544e-01
   -4.25524823e-02   3.00709233e-02  -6.41462505e-01  -8.63573775e-02
   -4.31694299e-01   5.02005577e-01  -3.45471174e-01   3.93036902e-01
   -1.22480609e-01  -5.94832748e-02  -1.51649952e-01  -5.08611619e-01]
 [ -7.33711898e-01   6.21348739e-01   8.73072028e-01   8.84883571e-03
   -5.13417661e-01  -8.52332786e-02  -4.70696419e-01  -1.17169999e-01
   -2.30858967e-01   7.56725371e-01  -2.95851022e-01   4.32620615e-01
   -9.72923338e-02   5.67144901e-02  -1.32873595e-01  -5.71033299e-01]
 [ -5.30210018e-01   1.31321207e-01   5.64626098e-01  -9.15792823e-01
   -4.88521338e-01   1.88421249e-01  -4.54010367e-01   3.31973433e-01
   -3.43701303e-01   8.12746465e-01  -2.55110472e-01   1.06449556e+00
   -1.01674221e-01  -8.36902410e-02  -1.93446185e-02  -4.59170252e-01]
 [ -4.23719734e-01   5.60236037e-01   6.41753614e-01  -5.96469164e-01
   -3.15621257e-01  -1.23314774e+00  -7.02150524e-01   7.20344856e-02
   -8.41845453e-01   3.28093946e-01  -1.89190343e-01   3.30191433e-01
   -2.39676848e-01  -1.02346115e-01  -1.17119469e-01  -6.48213387e-01]]
Eve
[[  7.94801056e-01   1.57330871e+00   1.65401375e+00  -8.09947371e-01
   -3.52429479e-01   1.47546542e+00   1.72039330e+00  -1.09967911e+00
    9.16316688e-01  -1.48004866e+00   8.95684838e-01  -1.29345345e+00
   -1.43545616e+00   9.82415318e-01  -7.22177267e-01  -9.58974659e-01]
 [  8.64547849e-01   1.50392950e+00   1.60514188e+00  -8.63541007e-01
   -3.86378765e-01   1.56216168e+00   1.72067213e+00  -1.14955664e+00
    9.85524774e-01  -1.57242751e+00   8.95834565e-01  -1.39093173e+00
   -1.52722943e+00   1.02513850e+00  -7.83152878e-01  -9.85761285e-01]
 [  8.84111822e-01   1.40355968e+00   1.50719392e+00  -8.93889546e-01
   -3.72892380e-01   1.60399675e+00   1.75111079e+00  -1.22628665e+00
    1.04329288e+00  -1.60855842e+00   9.58662212e-01  -1.46804166e+00
   -1.59674191e+00   1.08372438e+00  -7.97909975e-01  -9.98834908e-01]
 [  8.68107140e-01   1.51445138e+00   1.63633287e+00  -8.71131003e-01
   -4.05032367e-01   1.54993451e+00   1.76809275e+00  -1.07031643e+00
    9.77672100e-01  -1.58129179e+00   7.66271234e-01  -1.32345247e+00
   -1.50699925e+00   1.00394058e+00  -8.14417601e-01  -1.00154161e+00]
 [  9.08438444e-01   1.42270458e+00   1.51817250e+00  -9.28954959e-01
   -3.89967024e-01   1.64906120e+00   1.74429178e+00  -1.24242342e+00
    1.07701802e+00  -1.65904260e+00   9.42972720e-01  -1.49101341e+00
   -1.64401877e+00   1.11515558e+00  -8.40423703e-01  -1.01402056e+00]
 [  1.31904352e+00   7.39696622e-01   1.00692308e+00   2.75251828e-02
   -1.45310029e-01   2.89403737e-01   1.68892121e+00  -8.54364574e-01
    6.26889169e-01  -3.67587805e-01   1.70081079e-01  -7.57153094e-01
   -5.47398269e-01   5.68614066e-01  -2.14614078e-01   1.09514689e+00]
 [  8.71854603e-01   1.46385956e+00   1.54235029e+00  -8.87680292e-01
   -3.58242393e-01   1.59299409e+00   1.72748971e+00  -1.22918701e+00
    1.03565669e+00  -1.59640157e+00   9.68203843e-01  -1.45030689e+00
   -1.58339417e+00   1.08442748e+00  -7.88616121e-01  -9.93348598e-01]
 [  7.52884030e-01   1.62420273e+00   1.69687545e+00  -7.68554211e-01
   -3.53898793e-01   1.42451215e+00   1.70701885e+00  -1.05796003e+00
    8.54639649e-01  -1.42414069e+00   8.94323885e-01  -1.23900628e+00
   -1.36468291e+00   9.36060488e-01  -6.81345880e-01  -9.33998048e-01]
 [  9.03142571e-01   1.47365057e+00   1.52319610e+00  -8.93943191e-01
   -3.56307954e-01   1.61830807e+00   1.66914606e+00  -1.27664387e+00
    1.05406272e+00  -1.61446166e+00   1.02829826e+00  -1.52721417e+00
   -1.61354542e+00   1.10661435e+00  -7.82014966e-01  -9.94400263e-01]
 [  9.01473999e-01   1.42049301e+00   1.53227282e+00  -8.84745419e-01
   -3.72001022e-01   1.57522511e+00   1.75192332e+00  -1.18122733e+00
    1.03025675e+00  -1.58479297e+00   9.02392030e-01  -1.44003272e+00
   -1.57839787e+00   1.06764448e+00  -8.02574217e-01  -9.92174745e-01]
 [  7.78365493e-01   1.56427729e+00   1.51756084e+00  -8.04557085e-01
   -3.56398046e-01   1.47934890e+00   1.72611904e+00  -1.10449350e+00
    9.05253410e-01  -1.47902691e+00   9.17497218e-01  -1.29839671e+00
   -1.42837906e+00   9.79837596e-01  -7.11640477e-01  -9.56647813e-01]
 [  9.66616213e-01   1.33141971e+00   1.44253719e+00  -9.43070292e-01
   -3.74943584e-01   1.66251576e+00   1.73730528e+00  -1.27620733e+00
    1.12449288e+00  -1.67523229e+00   9.48917150e-01  -1.56600761e+00
   -1.68773937e+00   1.14093399e+00  -8.50081205e-01  -1.02040899e+00]
 [  8.93629968e-01   1.52882767e+00   1.63305664e+00  -8.82935524e-01
   -3.98481995e-01   1.58556759e+00   1.71602261e+00  -1.13002920e+00
    1.00746238e+00  -1.61362410e+00   8.27980578e-01  -1.39811671e+00
   -1.54296792e+00   1.03114283e+00  -8.12429905e-01  -1.00405908e+00]
 [  8.68591309e-01   1.47546256e+00   1.57532966e+00  -8.70622039e-01
   -3.74246091e-01   1.55732632e+00   1.74188101e+00  -1.16030657e+00
    1.00298381e+00  -1.56821597e+00   8.95824492e-01  -1.39725327e+00
   -1.54657459e+00   1.05327690e+00  -7.87780821e-01  -9.85750139e-01]
 [  1.05760145e+00   1.22260964e+00   1.30367577e+00  -1.07010460e+00
   -4.02318865e-01   1.80515814e+00   1.72725344e+00  -1.44510567e+00
    1.28898048e+00  -1.81428802e+00   1.04812682e+00  -1.74429440e+00
   -1.89888251e+00   1.29176140e+00  -9.72786903e-01  -1.06738019e+00]
 [  8.53435516e-01   1.47307467e+00   1.56082559e+00  -8.57369781e-01
   -3.46601337e-01   1.54189563e+00   1.72275865e+00  -1.18747318e+00
    9.98681962e-01  -1.54338181e+00   9.51660991e-01  -1.40607345e+00
   -1.53613865e+00   1.05525136e+00  -7.60384083e-01  -9.75735366e-01]
 [ -6.20487213e-01   7.74729997e-02   6.87043667e-01   3.08034241e-01
    9.36302781e-01  -1.64714658e+00   7.95167625e-01   9.81527343e-02
   -3.76769483e-01   1.44557869e+00  -1.25914621e+00   6.28089756e-02
    1.08387493e-01  -2.47347444e-01   1.42050356e-01   4.42753822e-01]
 [ -1.79901242e-01   3.40896308e-01   5.73095441e-01   9.65042189e-02
    5.74793994e-01  -1.23655367e+00   5.31377077e-01  -9.67810210e-03
   -1.29716069e-01   1.05096197e+00  -8.72928917e-01  -3.64729494e-01
   -6.84986562e-02   1.44682713e-02   3.68023366e-02   4.20489937e-01]
 [  4.53399360e-01   1.96745968e+00   7.53892124e-01   4.23219875e-02
    2.62084976e-02   2.07299381e-01   1.46854281e+00  -4.78906095e-01
    9.74976480e-01  -1.34611279e-01  -3.46393496e-01  -9.55843985e-01
   -7.53724933e-01   1.76457211e-01  -5.88865161e-01  -2.26236507e-01]
 [ -7.62225389e-01  -2.97821611e-01   5.50750077e-01   9.44657445e-01
    6.31781936e-01  -1.86173403e+00   4.36005920e-01   1.80029228e-01
   -3.22580189e-01   1.62751138e+00  -1.63615632e+00   3.51646602e-01
    3.15981925e-01  -7.17133820e-01   1.09054893e-01   7.06981957e-01]
 [  7.87207305e-01   4.77840573e-01   5.00417471e-01  -2.11444050e-01
    6.74826384e-01   3.83249074e-01   6.81989551e-01  -2.85188228e-01
    1.05003452e+00  -1.74624890e-01  -1.75858606e-02  -1.05494952e+00
   -1.10064971e+00   9.92305338e-01  -8.51011515e-01   2.77946532e-01]
 [  2.56653577e-01   3.11274409e-01   1.05363417e+00  -6.76522851e-01
    4.94926631e-01  -1.97908178e-01   9.92149532e-01  -2.42463231e-01
    1.82831690e-01   8.01732421e-01  -1.78871259e-01  -7.40813553e-01
   -4.77251112e-01   6.56790659e-02  -3.21415141e-02  -1.62257478e-01]
 [  5.99406362e-01  -1.49613693e-01   8.68039131e-01   2.54630279e-02
    3.89629930e-01   2.00385347e-01   1.90108871e+00  -8.02239239e-01
    9.65757966e-01  -1.52265400e-01   2.25181565e-01  -1.40922785e+00
   -1.17333674e+00   6.83492780e-01  -5.65988779e-01  -3.03178310e-01]
 [ -2.65149802e-01   3.79005969e-01   7.58871913e-01  -2.86370188e-01
    5.53272307e-01  -1.02784467e+00   8.18720102e-01   2.38681287e-01
   -2.43064258e-02   7.64312327e-01  -1.00709689e+00  -2.37162828e-01
   -7.52110779e-02  -1.43781811e-01   1.89387828e-01   3.11281532e-01]
 [ -5.09343028e-01   1.57982379e-01   6.66779518e-01  -2.40398571e-01
    5.93802750e-01  -1.39682066e+00   6.10296369e-01   5.09092808e-02
    3.96745324e-01   1.25799763e+00  -1.02229083e+00  -1.36727840e-01
    1.43591970e-01   2.94743180e-02   1.47979274e-01   2.09892273e-01]
 [ -1.83959268e-02   1.92020476e-01   8.14292908e-01   2.82674402e-01
    8.67530584e-01  -1.60587120e+00   7.33873427e-01  -2.11426546e-03
   -9.19351075e-03   1.08029616e+00  -9.55434680e-01   3.63932736e-02
    3.68737400e-01  -7.67707303e-02   1.12875983e-01   3.98288488e-01]
 [ -2.07182691e-01   8.22789848e-01   9.05467629e-01  -2.88518727e-01
    6.46484077e-01  -7.22005010e-01   6.14188850e-01  -1.19941518e-01
    1.88396592e-02   1.09548903e+00  -9.39634025e-01  -3.49172592e-01
    3.41554284e-01  -1.26593292e-01   2.14683995e-01  -1.09892786e-02]
 [ -1.15938276e-01   7.68927872e-01   5.61666727e-01  -1.12852104e-01
    5.32269716e-01  -8.85652840e-01   7.83409774e-01   3.01877931e-02
    1.95330262e-01   8.24288964e-01  -6.81719959e-01  -3.26796025e-01
   -2.95401782e-01   2.65774429e-01  -1.67101637e-01   1.71364963e-01]
 [  5.17590642e-01   8.13626826e-01   9.46967065e-01  -1.40123099e-01
    7.35537946e-01  -8.16419303e-01   8.46706212e-01  -2.25800499e-01
   -1.10782132e-01   1.00647593e+00  -8.69151533e-01  -4.13072675e-01
    7.27617741e-02  -6.12453334e-02   1.62426293e-01  -3.26225758e-01]
 [ -1.69078395e-01   3.14904302e-01   8.24394286e-01  -1.71474248e-01
    5.76816261e-01  -9.97904539e-01   4.19683754e-01  -2.40127102e-01
    5.12752756e-02   8.83874655e-01  -1.15134895e+00  -1.65382713e-01
   -6.37495443e-02  -1.30689293e-01   1.37463182e-01   7.64865428e-02]
 [ -2.69214392e-01   2.11378619e-01   4.22836393e-01  -1.02517545e-01
    1.12912714e+00  -1.02281201e+00   5.74731469e-01   6.16858900e-01
   -1.27702847e-01   7.34895587e-01  -9.95956004e-01   1.76332101e-01
    2.52078772e-02  -5.53673506e-02   3.05923801e-02   4.23018396e-01]
 [  1.00157094e+00   5.24451375e-01   1.05931234e+00  -7.10213900e-01
    3.21699589e-01   3.25834990e-01   1.65128303e+00  -2.61634022e-01
    3.32126826e-01  -2.60843486e-01   1.49122085e-02  -6.28156126e-01
   -7.01372027e-01   4.54427034e-01  -5.10335028e-01   8.84896517e-01]
 [  9.29603815e-01  -4.29576129e-01   8.06259513e-01  -2.66849458e-01
    2.43669868e-01   1.62225217e-01   1.73967302e+00  -8.70635271e-01
    1.25196314e+00  -2.21701130e-01   4.69874054e-01  -1.14709747e+00
   -1.26972759e+00   8.89521480e-01  -5.46922386e-01  -8.54289606e-02]
 [ -2.89263070e-01   3.92631084e-01   5.31275868e-01  -9.67400521e-02
    7.82059669e-01  -1.45989466e+00   8.66015077e-01   1.98481292e-01
   -4.67369318e-01   1.39394557e+00  -1.14652073e+00  -1.13303825e-01
    3.91535312e-01  -7.71473050e-02   2.38177061e-01   5.50298989e-01]
 [  1.01135039e+00   5.49099684e-01   8.04665446e-01  -1.12477088e+00
   -1.92692503e-01   6.75439179e-01   1.53873932e+00  -9.11746740e-01
    7.05306172e-01  -8.71637940e-01   8.03302348e-01  -1.26179993e+00
   -1.52151024e+00   1.21097684e+00  -8.82640719e-01  -7.99811900e-01]
 [ -2.51771212e-01   6.44080937e-01   9.17630374e-01  -2.43989751e-01
    4.55310762e-01  -8.94864738e-01   7.78496742e-01  -1.60735548e-01
    2.86392331e-01   7.30212629e-01  -8.41558397e-01  -4.40938950e-01
   -1.60637219e-02   3.32640588e-01  -1.00198798e-02   1.19783759e-01]
 [  8.08634698e-01   2.85956442e-01   1.82803683e-02  -1.54092029e-01
    3.77124876e-01  -4.87870956e-03   5.89383900e-01  -4.59837615e-01
    9.26740825e-01  -2.23887399e-01   1.24833852e-01  -6.75215483e-01
   -1.16751933e+00   7.67243385e-01  -8.05445850e-01   6.24142766e-01]
 [ -2.35814303e-01   4.59070921e-01   8.22587490e-01  -2.88991034e-02
    9.46239173e-01  -6.35692477e-01   5.37223339e-01  -2.28446752e-01
   -2.10967615e-01   5.48725307e-01  -1.07721388e+00  -2.86021773e-02
    9.94998664e-02  -1.28116637e-01  -6.61124960e-02   9.94610563e-02]
 [ -1.73051149e-01   4.80528772e-01   7.05939829e-01   1.91228226e-01
    8.71526957e-01  -1.17457032e+00   9.63328719e-01  -1.12601049e-01
   -4.58679572e-02   1.22171450e+00  -1.03162968e+00  -6.25554502e-01
   -4.79285777e-01  -3.23741734e-01   7.10573867e-02   3.44293147e-01]
 [  2.18368441e-01   4.13116038e-01   9.02819514e-01   2.96167970e-01
    6.24888718e-01  -6.98717535e-01   6.61385000e-01   1.04404576e-02
   -3.37591879e-02   1.10117126e+00  -9.53311384e-01  -6.18410707e-02
    2.36291513e-01  -1.51525512e-01   6.86484948e-02   4.41782564e-01]
 [  1.67900598e+00   5.58234513e-01   8.57561827e-01  -2.63411850e-01
    5.47919393e-01  -1.91718116e-01   1.21829450e+00  -3.33591640e-01
    3.24876904e-01   3.92220378e-01  -3.44880044e-01  -3.64899516e-01
   -2.82003194e-01   1.51475698e-01  -1.63130701e-01   6.14218056e-01]
 [ -9.84915569e-02   1.98077559e-01   6.31785214e-01  -7.38150105e-02
    8.55742753e-01  -1.28762782e+00   7.89905310e-01   4.93760668e-02
   -2.58331090e-01   1.68728375e+00  -1.31577277e+00   2.15564598e-03
    1.13830686e-01  -4.14759338e-01   5.42287409e-01   7.32422709e-01]
 [  5.24638474e-01   2.11863184e+00   6.77139223e-01   4.58974130e-02
    8.99466425e-02   1.11319169e-01   1.45697021e+00  -6.82054758e-01
    9.62779164e-01  -1.56308666e-01  -3.64410818e-01  -1.14848125e+00
   -1.07199311e+00   6.05019331e-01  -8.95348668e-01  -3.68621230e-01]
 [ -4.88130867e-01   5.05042493e-01   8.47432494e-01   2.59258747e-01
    6.89916253e-01  -1.12432063e+00   9.35258269e-01  -5.69331527e-01
   -6.09196723e-01   1.02826536e+00  -8.89797270e-01  -3.07051241e-01
    2.55311310e-01  -1.57280907e-01  -7.67247736e-01   3.36088866e-01]
 [ -3.46767694e-01  -1.62759811e-01   6.34459317e-01   7.77377546e-01
    9.73491728e-01  -1.30451572e+00   5.89551866e-01   2.73690373e-02
   -5.13146698e-01   1.68976557e+00  -1.29427469e+00   7.19980299e-02
    4.29503977e-01  -4.52425510e-01   3.50390822e-01   9.98431385e-01]
 [ -1.69065639e-01   1.95184946e-01   6.61639750e-01   4.70303267e-01
    8.66221666e-01  -1.34885979e+00   6.30075395e-01   5.16926870e-02
   -1.51928142e-01   1.39569449e+00  -1.16126561e+00   2.56827414e-01
   -4.87252325e-02  -5.83670318e-01   2.49110088e-01   6.85765803e-01]
 [ -5.67208789e-02  -1.98377762e-02   6.91471875e-01   3.17140073e-02
    9.87392366e-01  -1.54810631e+00   1.31706446e-01   1.08422123e-01
   -3.24897498e-01   1.46186340e+00  -1.28048611e+00   1.38383895e-01
    3.72310221e-01  -4.85599905e-01   3.17760468e-01   8.10571074e-01]
 [ -3.87734026e-01   7.14175776e-02   3.14972669e-01  -2.26881936e-01
    1.25453389e+00  -1.45231271e+00   6.61664128e-01   4.60094362e-01
   -1.22526474e-01   1.23119760e+00  -1.37254274e+00   1.30117431e-01
    4.03273940e-01  -2.30717450e-01   4.79222953e-01   6.98722661e-01]]