Alice
[[ -1.23163220e-03   7.96602387e-03   6.21611066e-03   4.51860344e-03
   -7.97107723e-03   7.08166091e-03  -7.90937152e-03  -8.25294759e-03
   -4.18850733e-03   2.56268628e-04  -4.95793531e-03  -1.71544531e-03
    5.11321984e-03   6.84195012e-02  -6.20023068e-03  -4.59810300e-03]
 [ -1.95899978e-03   4.96425759e-03   7.39323115e-03   6.98265852e-03
   -4.06590896e-03   6.28976244e-03  -3.76901450e-03  -4.24096594e-03
   -5.34046395e-03   1.81635621e-03  -6.78675249e-03  -2.62769870e-03
    7.24440021e-03  -7.07136979e-03   5.21797966e-03  -7.42671546e-03]
 [ -1.32728438e-03   8.46170913e-03   5.30880829e-03  -6.30413890e-02
   -7.89309200e-03   7.13694887e-03  -7.73017248e-03  -8.41457769e-03
    5.48043940e-03   6.50028524e-04  -5.38402144e-03  -2.38837954e-03
    5.75319258e-03  -5.03427442e-03   1.07141095e-03  -5.27852075e-03]
 [ -2.21953844e-03   7.76088657e-03   5.92578994e-03   6.08195597e-03
   -7.24666519e-03   7.54232146e-03  -7.32338009e-03  -8.10153875e-03
    7.88722653e-03   1.94111152e-03  -5.63761359e-03  -3.24210455e-03
    6.18861243e-03  -5.94216632e-03   6.58584200e-03   5.62188029e-02]
 [ -6.35616621e-03  -5.37784696e-02   3.03588132e-03   3.42530385e-03
   -8.79531167e-03   3.63454595e-03  -8.46455339e-03  -8.60066898e-03
    1.06017422e-02   6.07996574e-03  -3.46501730e-03  -6.58544200e-03
    3.32489563e-03  -3.51725216e-03  -6.67886715e-03  -2.48608901e-03]
 [ -2.64868094e-03   7.95077998e-03   5.13163116e-03   5.24027133e-03
   -7.78816640e-03   7.42992759e-03  -7.31096743e-03  -7.68271694e-03
    7.24643562e-03   2.36488110e-03  -4.93684830e-03  -3.18130828e-03
   -5.83095439e-02  -4.63081943e-03   1.14938419e-03  -4.74882405e-03]
 [ -7.46056857e-03   4.15484048e-03   4.58773924e-03   3.67770367e-03
    5.01309820e-02   4.02513333e-03  -7.10429018e-03  -5.12128929e-03
    1.30431019e-02   7.47082196e-03  -3.65110137e-03  -7.50268809e-03
    3.76896397e-03  -3.87414941e-03  -1.40546393e-02  -2.44711176e-03]
 [ -1.51727523e-03   5.47564263e-03   7.13553745e-03   7.08313240e-03
   -3.74231394e-03   5.74827148e-03  -4.24694177e-03  -4.31094039e-03
   -4.97118756e-03   1.40850514e-03  -6.42220024e-03  -2.09590094e-03
    6.16322132e-03  -6.91533741e-03   5.05905086e-03  -6.36718329e-03]
 [ -1.56987761e-03   5.05825086e-03   7.76371639e-03   7.13107968e-03
   -3.98993399e-03   5.99534484e-03  -3.95254232e-03  -4.29769373e-03
   -3.97935184e-03   1.47733232e-03  -6.31278101e-03  -2.15518149e-03
    6.75894413e-03  -6.56687561e-03   5.54595701e-03  -7.20301364e-03]
 [ -7.27090938e-03   4.08622017e-03   4.25887806e-03   2.98502110e-03
   -8.67485907e-03   3.24176042e-03  -8.91677942e-03   5.28722815e-02
    1.16045084e-02   7.17508793e-03  -2.79220915e-03  -7.52511574e-03
    2.83449818e-03  -3.57993995e-03  -1.28358211e-02  -3.10182129e-03]
 [ -1.90819940e-03   4.73122532e-03   6.75526494e-03   6.50606398e-03
   -3.63525189e-03   5.60710719e-03  -3.26415687e-03  -4.20404598e-03
   -5.31996787e-03   1.72467029e-03  -6.02921192e-03  -2.50544632e-03
    6.19677734e-03  -6.56783115e-03   4.48937668e-03  -7.20268581e-03]
 [ -1.76523079e-03   4.74067265e-03   6.94517093e-03   7.05939066e-03
   -3.76276998e-03   5.87942172e-03  -4.51951800e-03  -4.44353325e-03
   -4.30623582e-03   1.64294732e-03  -6.52369764e-03  -2.36151507e-03
    6.46656612e-03  -7.28247967e-03   5.47149917e-03  -7.04046106e-03]
 [ -6.96572522e-03   3.85539210e-03   5.01720980e-03   3.89766344e-03
   -6.15541544e-03   4.32649488e-03   4.87532504e-02  -5.03766211e-03
    1.24201961e-02   7.00663589e-03  -3.65078240e-03  -7.14369304e-03
    3.29555827e-03  -4.44243243e-03  -1.41046364e-02  -3.10203223e-03]
 [ -4.36376128e-03   8.34619533e-03   3.95619636e-03   3.35741998e-03
   -8.95601511e-03  -5.79572544e-02  -8.61918833e-03  -8.93520191e-03
    9.53403581e-03   4.18470614e-03  -3.28596402e-03  -5.32507570e-03
    3.68594658e-03  -3.87295685e-03  -5.58171049e-03  -2.80888984e-03]
 [ -5.93808945e-04   8.08868557e-03  -6.97119012e-02   4.70984960e-03
   -7.39410101e-03   7.04758940e-03  -8.01685546e-03  -8.63660313e-03
   -6.15101820e-03   2.37283250e-03  -5.19055128e-03  -2.30756984e-03
    5.32988319e-03  -5.99906826e-03  -7.57364929e-03  -4.54740738e-03]
 [ -1.08615309e-03   8.30345787e-03   5.89539716e-03   5.89668471e-03
   -7.91226327e-03   7.88049027e-03  -7.75738666e-03  -7.90984929e-03
    6.24315115e-03   1.23264163e-03   6.08252287e-02  -2.58598104e-03
    6.17013546e-03  -5.75482845e-03   1.97995643e-04  -5.36914682e-03]
 [ -1.89147747e+00   1.90910625e+00  -1.66614413e-01   1.87653184e+00
   -1.59476817e+00   1.46724176e+00  -1.83444560e+00  -1.46211076e+00
    1.42578506e+00   1.82199776e+00  -1.72837555e+00  -1.42360997e+00
    1.60949814e+00  -2.39610597e-01  -2.21503735e+00  -1.47015417e+00]
 [ -1.87412512e+00   1.69147801e+00  -2.01384380e-01   1.55080152e+00
   -1.83920205e+00   1.95766401e+00  -2.03640246e+00  -1.90834749e+00
    1.42027104e+00   1.94402778e+00  -1.59210312e+00  -1.50592530e+00
    1.82119071e+00   2.61929870e-01  -2.41467237e+00  -1.78851891e+00]
 [ -1.52023733e+00   1.49284184e+00  -8.37660860e-03   1.96699643e+00
   -1.52751148e+00   1.39402735e+00  -1.79165161e+00  -2.02250218e+00
    1.89703834e+00   1.44586945e+00  -2.07038260e+00  -1.96736431e+00
    1.70788443e+00  -9.74555537e-02  -2.15878153e+00  -1.90900457e+00]
 [ -1.56282914e+00   1.87617195e+00   1.83056574e-02   1.79343891e+00
   -1.70493591e+00   1.78968894e+00  -1.38708520e+00  -1.88592398e+00
    1.73425007e+00   1.77408576e+00  -1.79678869e+00  -1.89875364e+00
    1.92888379e+00  -8.67139474e-02  -1.60294330e+00  -1.41208494e+00]
 [ -2.09079480e+00   1.80953038e+00  -1.99230760e-01   2.01137185e+00
   -1.61364281e+00   2.08221674e+00  -1.64802301e+00  -1.42627847e+00
    2.00425553e+00   1.63631940e+00  -1.89986157e+00  -1.85817075e+00
    1.62307680e+00  -2.52194315e-01  -2.27577043e+00  -1.97578311e+00]
 [ -5.81251323e-01   5.85849404e-01  -8.48912634e-03   6.03695631e-01
   -5.81606030e-01   5.92924416e-01  -5.84968388e-01  -5.90806067e-01
    5.83698213e-01   5.87303102e-01  -6.04040205e-01  -5.82454503e-01
    5.95446110e-01   7.41679873e-03   5.23406088e-01  -6.04078770e-01]
 [ -1.53639472e+00   1.69858503e+00  -4.75722775e-02   1.78370225e+00
   -1.66171992e+00   1.83005965e+00  -1.79514468e+00  -1.51423895e+00
    1.75669050e+00   1.58266771e+00  -1.90477288e+00  -1.51555908e+00
    1.69464195e+00  -9.89128202e-02  -2.28704929e+00  -1.71865761e+00]
 [ -2.12292695e+00   1.47378170e+00   2.43069217e-01   1.95110500e+00
   -2.03051329e+00   1.95055687e+00  -2.05196261e+00  -1.84867680e+00
    1.49929690e+00   1.73801172e+00  -1.85604084e+00  -1.54787993e+00
    1.79944444e+00   8.49500895e-02  -2.08931637e+00  -1.46707761e+00]
 [ -1.75214803e+00   1.63931787e+00   1.59017026e-01   1.78180146e+00
   -1.95294213e+00   1.50300634e+00  -1.86451745e+00  -1.56875169e+00
    1.96967351e+00   1.91107821e+00  -1.96393347e+00  -1.73299444e+00
    1.97356427e+00  -1.39273793e-01  -2.09965587e+00  -1.87303114e+00]
 [ -1.59432173e+00   1.91699040e+00  -5.49158687e-03   1.85110903e+00
   -1.82218921e+00   1.79240918e+00  -1.67545736e+00  -1.54436636e+00
    1.56567121e+00   1.98832464e+00  -1.67949462e+00  -1.79962432e+00
    1.88546228e+00   2.51460463e-01  -2.25917768e+00  -1.92317295e+00]
 [ -1.94602442e+00   1.66944921e+00  -6.94740787e-02   1.44625080e+00
   -1.75767422e+00   1.50631940e+00  -1.68994462e+00  -2.01126671e+00
    1.86888218e+00   1.84807277e+00  -1.98674333e+00  -2.03123260e+00
    1.63958919e+00   1.51964769e-01  -1.86279535e+00  -1.98405993e+00]
 [ -1.92879319e+00   1.81029963e+00   2.66973406e-01   1.83184052e+00
   -1.69600558e+00   2.02657747e+00  -1.73923111e+00  -1.62064135e+00
    1.82291937e+00   1.37508810e+00  -1.54299259e+00  -1.92764354e+00
    1.95448148e+00  -5.55412248e-02  -1.95977604e+00  -1.91477168e+00]
 [ -1.56981099e+00   1.98392141e+00  -5.62299900e-02   1.58525360e+00
   -1.87327147e+00   1.70302856e+00  -1.73877108e+00  -1.90056729e+00
    1.86507440e+00   1.90830898e+00  -1.63195276e+00  -1.72128403e+00
    1.55980206e+00  -5.27551910e-03  -2.28155637e+00  -1.93130445e+00]
 [ -1.62351835e+00   1.77607536e+00   2.29772717e-01   1.94191206e+00
   -1.77786899e+00   1.51665890e+00  -1.56858313e+00  -2.01296353e+00
    1.93242526e+00   2.04142737e+00  -1.54460430e+00  -1.56821012e+00
    1.63570237e+00  -5.82266077e-02  -2.14731193e+00  -2.01138377e+00]
 [ -1.63487685e+00   1.86734664e+00   2.50376374e-01   1.71618760e+00
   -1.83451855e+00   2.00898910e+00  -1.97514343e+00  -1.73672223e+00
    1.82808864e+00   1.79348016e+00  -1.66275346e+00  -1.69956863e+00
    2.08915973e+00   7.27339759e-02  -2.25044918e+00  -2.00708508e+00]
 [ -1.89580154e+00   1.95755291e+00   3.13854311e-03   1.76945007e+00
   -1.76085985e+00   2.05262208e+00  -1.63237834e+00  -1.96864820e+00
    1.83615482e+00   1.69054568e+00  -1.95608521e+00  -2.08661199e+00
    1.83775449e+00  -1.35334805e-01  -2.20764971e+00  -1.47108841e+00]]
Bob
[[  3.19661386e-03  -3.60718602e-03  -3.50766699e-03   3.65217729e-03
   -3.63844843e-03  -2.15286702e-01   3.55892116e-03   3.45850270e-03
    3.55903339e-03  -3.48497555e-03   3.43369273e-03   3.44161363e-03
   -3.65491305e-03  -3.32779507e-03  -3.54949082e-03   3.60887358e-03]
 [  3.03451531e-03  -3.38961510e-03  -3.32849543e-03   3.54497740e-03
   -3.42815719e-03  -2.14279950e-01   3.37050250e-03   3.28931282e-03
    3.39583890e-03  -3.30047356e-03   3.26110655e-03   3.30997142e-03
   -3.44293076e-03  -3.19983601e-03  -3.37553700e-03   3.42113036e-03]
 [  3.12500354e-03  -3.49602709e-03  -3.48303840e-03   3.64535442e-03
   -3.55126592e-03  -2.14671075e-01   3.48627963e-03   3.38283973e-03
    3.49944760e-03  -3.39488429e-03   3.41252214e-03   3.39181651e-03
   -3.53276148e-03  -3.27566196e-03  -3.47600505e-03   3.57447891e-03]
 [  3.04436707e-03  -3.40525433e-03  -3.36163933e-03   3.49636353e-03
   -3.45573528e-03  -2.15331927e-01   3.37030389e-03   3.31562664e-03
    3.40702408e-03  -3.30854184e-03   3.31463898e-03   3.33374366e-03
   -3.44194798e-03  -3.15528712e-03  -3.39140720e-03   3.46701150e-03]
 [  3.20405699e-03  -3.55103286e-03  -3.54496879e-03   3.77719547e-03
   -3.65445041e-03  -2.15036005e-01   3.54641094e-03   3.55613139e-03
    3.65607813e-03  -3.50298244e-03   3.55991698e-03   3.56563949e-03
   -3.62658594e-03  -3.35212331e-03  -3.62719246e-03   3.65309301e-03]
 [  2.95370584e-03  -3.34259425e-03  -3.30015947e-03   3.52262426e-03
   -3.38400714e-03  -2.17096314e-01   3.31261056e-03   3.25870025e-03
    3.36217531e-03  -3.29508143e-03   3.25178239e-03   3.29931756e-03
   -3.40299448e-03  -3.09174019e-03  -3.38519225e-03   3.42080370e-03]
 [  3.05018947e-03  -3.46697588e-03  -3.41935409e-03   3.66638484e-03
   -3.51909432e-03  -2.18107238e-01   3.42272129e-03   3.38457990e-03
    3.47189652e-03  -3.39490641e-03   3.42045375e-03   3.44810542e-03
   -3.55638657e-03  -3.17868963e-03  -3.50479758e-03   3.55088315e-03]
 [  3.23374569e-03  -3.59607302e-03  -3.50261410e-03   3.60213453e-03
   -3.61838937e-03  -2.13847697e-01   3.54169426e-03   3.41285253e-03
    3.53884464e-03  -3.45068425e-03   3.43083660e-03   3.40996729e-03
   -3.60779627e-03  -3.31026642e-03  -3.52041703e-03   3.58789228e-03]
 [  3.05110775e-03  -3.39123281e-03  -3.37456982e-03   3.54221533e-03
   -3.50470771e-03  -2.15474665e-01   3.38582927e-03   3.34361871e-03
    3.43589648e-03  -3.32140760e-03   3.38221947e-03   3.37682874e-03
   -3.49120842e-03  -3.17361043e-03  -3.40951956e-03   3.49068874e-03]
 [  3.05683003e-03  -3.42678325e-03  -3.34971654e-03   3.48306959e-03
   -3.45569034e-03  -2.14828432e-01   3.41889262e-03   3.32012167e-03
    3.40927928e-03  -3.33164865e-03   3.23093846e-03   3.33355530e-03
   -3.45758512e-03  -3.18112224e-03  -3.40226642e-03   3.44481622e-03]
 [  3.13977594e-03  -3.51885473e-03  -3.49102053e-03   3.65431444e-03
   -3.59095470e-03  -2.15196729e-01   3.49671626e-03   3.47077055e-03
    3.51705356e-03  -3.41971056e-03   3.46096442e-03   3.44195776e-03
   -3.57236946e-03  -3.32994224e-03  -3.50899599e-03   3.56977060e-03]
 [  3.05840443e-03  -3.42143094e-03  -3.40425968e-03   3.55421193e-03
   -3.50194331e-03  -2.14211717e-01   3.40460869e-03   3.32363928e-03
    3.43275070e-03  -3.28347832e-03   3.34534305e-03   3.31820734e-03
   -3.44699272e-03  -3.25640780e-03  -3.38301482e-03   3.45286378e-03]
 [  3.02135036e-03  -3.41425161e-03  -3.38219665e-03   3.67207616e-03
   -3.49528692e-03  -2.14408591e-01   3.39663727e-03   3.37389763e-03
    3.44582647e-03  -3.33337765e-03   3.40189761e-03   3.43501894e-03
   -3.48140765e-03  -3.27181933e-03  -3.44347651e-03   3.49457539e-03]
 [  3.06253834e-03  -3.37550347e-03  -3.36208218e-03   3.62856989e-03
   -3.53267905e-03  -2.17412308e-01   3.37195233e-03   3.35825700e-03
    3.45861306e-03  -3.34884692e-03   3.34431371e-03   3.42471013e-03
   -3.47345951e-03  -3.21313529e-03  -3.43241589e-03   3.49479239e-03]
 [  3.21439141e-03  -3.63094686e-03  -3.53681250e-03   3.73631949e-03
   -3.65357939e-03  -2.16943353e-01   3.56159988e-03   3.51748755e-03
    3.56126972e-03  -3.50629794e-03   3.49289807e-03   3.54972784e-03
   -3.65989353e-03  -3.36017227e-03  -3.58556164e-03   3.67337791e-03]
 [  3.36752366e-03  -3.75270820e-03  -3.64760892e-03   3.66761442e-03
   -3.77068436e-03  -2.15543449e-01   3.70085496e-03   3.56533704e-03
    3.69754806e-03  -3.62693449e-03   3.52783478e-03   3.57659650e-03
   -3.76653881e-03  -3.42797092e-03  -3.69285396e-03   3.72782163e-03]
 [  1.68367255e+00  -1.80357611e+00  -1.59138215e+00   4.65262644e-02
   -1.58761275e+00   1.57281780e+00   1.48300195e+00   1.89261258e+00
    1.46594584e+00  -1.34427190e+00   1.57314253e+00   1.82307494e+00
   -1.95359349e+00   1.92566931e-01  -1.64939439e+00   1.67121553e+00]
 [  2.40105176e+00  -2.33253002e+00  -2.33311915e+00  -9.22603235e-02
   -2.31920338e+00   2.17493343e+00   2.26341295e+00   2.38892198e+00
    1.78249347e+00  -2.36864853e+00   2.33404136e+00   2.38255095e+00
   -2.38630772e+00   8.41012895e-02  -2.37286329e+00   2.29801226e+00]
 [  2.22299838e+00  -2.19057083e+00  -2.02705097e+00   1.24713767e+00
   -2.27585983e+00   2.08770585e+00   2.12083793e+00   2.21103621e+00
    2.02263474e+00  -2.11242819e+00   2.07016611e+00   2.01012635e+00
   -2.08673072e+00   9.68405530e-02  -2.10293794e+00   2.21467042e+00]
 [  2.36538744e+00  -2.23846674e+00  -2.21691561e+00  -3.14798653e-02
   -2.29679060e+00   2.16045594e+00   2.21363592e+00   2.27847719e+00
    2.32920647e+00  -2.17962384e+00   2.26594090e+00   1.93750596e+00
   -2.14751744e+00   3.53343934e-02  -2.34106946e+00   2.16618252e+00]
 [  2.36576104e+00  -2.28384280e+00  -2.26594663e+00  -1.18727230e-01
   -2.32148218e+00   2.23002028e+00   2.25179768e+00   1.84591568e+00
    2.29821205e+00  -2.34734869e+00   2.34503937e+00   2.32237458e+00
   -2.25541091e+00   1.06336504e-01  -2.27796245e+00   2.29342628e+00]
 [  2.41813779e+00  -2.24287581e+00  -2.29995918e+00  -8.08799490e-02
   -2.42053127e+00   2.22266459e+00   1.97183490e+00   2.36870146e+00
    2.45631862e+00  -2.34669113e+00   2.30762577e+00   2.43670845e+00
   -2.33654761e+00   7.41674304e-02  -2.44213247e+00   2.25774240e+00]
 [  2.26053286e+00  -2.14487743e+00  -2.24010348e+00  -1.20288104e-01
   -1.75350165e+00   2.18190360e+00   2.20782900e+00   2.21767235e+00
    2.24154210e+00  -2.23557425e+00   2.24524093e+00   2.28043485e+00
   -2.14360023e+00   1.05960548e-01  -2.08981252e+00   2.14592028e+00]
 [  2.34442997e+00  -2.39374113e+00  -2.42447567e+00  -1.19867124e-01
   -2.40156913e+00   2.30727243e+00   2.44164133e+00   2.41897845e+00
    2.42155719e+00  -2.37013173e+00   2.42233801e+00   2.35507679e+00
   -1.92842913e+00   1.07657611e-01  -2.34085131e+00   2.38486958e+00]
 [  2.11718583e+00  -1.82211912e+00  -1.83287132e+00   1.24673210e-01
   -1.90309477e+00   1.94779372e+00   2.01223660e+00   2.02060223e+00
    2.10214615e+00  -2.09679413e+00   1.87713492e+00   2.03941393e+00
   -1.95646405e+00  -6.38322681e-02  -2.10035419e+00   1.89060009e+00]
 [  1.70789790e+00  -1.58513868e+00  -1.51638794e+00  -3.76661032e-01
   -1.85196567e+00   1.55751300e+00   1.68424153e+00   1.71409857e+00
    1.52095795e+00  -1.74434400e+00   1.99635708e+00   1.44975138e+00
   -1.94787180e+00   5.90143912e-02  -1.61851144e+00   1.97038770e+00]
 [  2.20612884e+00  -2.14021683e+00  -2.36304379e+00  -3.86233367e-02
   -2.31430292e+00   2.17868519e+00   2.43393803e+00   2.24626374e+00
    2.29067373e+00  -2.01117229e+00   2.20003986e+00   2.18561721e+00
   -2.40878582e+00   3.55802663e-02  -2.31795597e+00   2.32158852e+00]
 [  1.35336351e+00  -1.61685538e+00  -1.95629191e+00  -7.47532472e-02
   -1.83395875e+00   2.22264385e+00   1.93509591e+00   1.40263200e+00
    1.93814313e+00  -1.70263219e+00   1.31968737e+00   1.50521362e+00
   -1.67404079e+00   4.40365225e-02  -1.66139472e+00   1.49865425e+00]
 [  1.71135819e+00  -2.24080920e+00  -2.10045171e+00  -3.50860693e-02
   -2.10941052e+00   1.96459579e+00   2.31472063e+00   2.20133519e+00
    2.18371010e+00  -2.36812568e+00   2.34868383e+00   2.37664342e+00
   -2.12042618e+00   3.56583707e-02  -2.23367691e+00   2.23137689e+00]
 [  2.36085415e+00  -2.21694779e+00  -2.14363098e+00  -9.95984972e-02
   -2.17877054e+00   2.11510873e+00   2.18609619e+00   2.27974534e+00
    2.16886973e+00  -2.12093639e+00   2.17452002e+00   2.32311058e+00
   -2.17662334e+00  -1.22734356e+00  -2.25406909e+00   2.18882537e+00]
 [  2.12094259e+00  -2.04699469e+00  -2.09050179e+00  -3.03376645e-01
   -2.21936464e+00   1.35565972e+00   2.18275452e+00   2.15630484e+00
    2.21019340e+00  -2.11272836e+00   2.01733017e+00   2.02530479e+00
   -1.95715868e+00   2.58084655e-01  -1.97606790e+00   1.98077798e+00]
 [  2.28337026e+00  -2.33330393e+00  -2.31933260e+00   5.49471332e-03
   -2.11303258e+00   1.93487740e+00   2.23028994e+00   2.20272970e+00
    2.45312071e+00  -2.41564727e+00   2.31524014e+00   2.43039346e+00
   -2.40361524e+00   3.67708271e-04  -1.96315551e+00   2.18938017e+00]]
Eve
[[-3.21106434  3.11296773 -0.7972492  -3.47127199 -2.97901797  3.02036214
   2.84131885 -3.05635858 -3.43459439  3.41027451 -3.1271503  -3.35075378
   3.12237358  0.42181891  3.12372255  3.44776392]
 [-3.33244467  2.96291375 -0.44944569 -3.32559872 -3.55995274  3.02377748
   3.4503274  -3.57694817 -3.32087827  2.98172188 -3.40593863 -3.48034883
   3.14622188  0.28126752  3.06110525  3.21490097]
 [-3.45295262  3.22148848 -3.31405997 -3.09521842 -3.50764441  3.03347278
   3.47377777 -3.5792799  -3.00301242  3.29728055 -3.26355481 -3.18969226
   3.04786825  1.9182688   2.99687505  3.19559216]
 [-3.25193954  3.19839621 -1.21925652 -3.28317189 -2.99473548  3.07434821
   3.55962729 -3.40993452 -3.02739739  2.94088387 -3.22603321 -3.0428195
   3.61486673  1.16052294  3.17058444  3.01886201]
 [-3.32294059  3.01537347 -0.14513224 -3.19408536 -3.32673836  3.47756696
   3.37282133 -3.42504621 -2.85266232  2.92637563 -2.92882061 -3.29084253
   3.30934691  0.05068891  2.88329554  3.17223859]
 [-3.17556667  3.43585968 -0.63871062 -3.28287244 -3.48049188  3.57603645
   3.23498869 -3.39010692 -3.35846162  3.24752569 -3.08316803 -3.46795607
   3.10801339  0.61323965  3.32376909  3.55235839]
 [-3.25511408  3.3766408  -0.42092797 -2.80993867 -3.47397494  3.48152661
   3.14234304 -2.87272334 -3.29390192  3.17586279 -2.95472407 -3.17553854
   2.96222806  0.25591823  2.78054094  3.13687491]
 [-3.50056267  3.06061697 -0.20940846 -3.47636724 -3.38467431  2.98349786
   3.07424879 -3.22524023 -3.06781244  2.97833943 -3.21715975 -3.52526426
   3.21415949  0.20532952  3.39492893  3.32646346]
 [-3.21839118  3.33429217 -1.88740361 -3.0893693  -3.56486511  2.97229624
   3.3047297  -3.22590232 -3.50801325  3.5038054  -2.88268304 -3.35244465
   3.39154458  1.3943435   3.17832255  3.41214108]
 [-3.51859808  3.21074677 -0.40163499 -3.30789566 -3.23105955  3.45670867
   3.36547256 -3.14627385 -3.5069294   3.07229543 -3.53853464 -2.92406082
   2.99501514  1.43028927  3.34258389  3.25909853]
 [-3.537848    3.51261306 -1.72296417 -3.17460561 -3.51929402  3.00222588
   3.31211209 -2.99167991 -3.38231397  3.23463774 -3.53138852 -3.33839607
   3.48584056  1.69359601  3.21145701  3.57062125]
 [-3.18021822  3.45104003 -1.68464291 -3.04663038 -3.14103222  3.44852424
   3.31646633 -3.57476234 -3.50952578  3.39048481 -3.43809605 -3.47337317
   3.27777028  1.92105353  3.49401808  3.44725347]
 [-3.13934612  3.46001029 -1.14953935 -3.00245714 -2.93390632  3.51909757
   3.34327054 -3.42632079 -3.4024539   3.11881709 -2.96378279 -3.28801227
   3.20041609  0.5284574   3.0750668   3.2419591 ]
 [-3.56034541  3.40155983 -1.88945377 -3.17737532 -3.50820804  3.6384635
   3.33633375 -3.02610493 -3.41325665  3.44166899 -3.26674414 -3.41244268
   3.57636499  2.85369658  2.93305016  3.56450176]
 [-2.97871089  2.89723611  0.8858605  -2.9306016  -3.22742438  3.33727574
   3.36582494 -3.16350842 -3.34650946  3.50507069 -3.39068079 -3.46751022
   3.10456347 -0.99440247  3.19273949  3.24389839]
 [-3.46038437  3.56261587 -1.85023284 -3.48978925 -3.28987026  3.62913489
   3.34845328 -3.54904175 -3.64657879  3.58934832 -3.50057936 -3.45736694
   3.03055573  2.13566613  3.54905343  3.26444435]
 [-3.49753261  3.25429249 -1.84955287 -3.31532907 -3.20384717  3.35735369
   3.51726198 -3.13893938 -3.5400939   3.17535233 -3.46516943 -3.55695868
   3.20340204  1.61265349  3.05542898  3.26071095]
 [-3.21617651  3.47781444 -1.34055829 -2.92570233 -3.33063269  3.41359067
   2.95690727 -3.05347061 -3.29624534  2.93656659 -3.38109374 -3.15578938
   3.05571437  1.75469124  2.96086502  2.98667479]
 [-3.09879971  3.15855217 -1.62173057 -3.31623363 -3.24982786  3.53062248
   2.81762743 -3.21102905 -2.99276352  3.00043869 -3.34214759 -3.26207232
   3.19659925  1.56189322  3.07114553  3.06381845]
 [-2.608109    2.75454807 -1.37208045 -2.86559939 -3.02427483  2.46528125
   2.75498724 -2.86863303 -2.93956041  2.47504902 -3.00152659 -2.96137691
   3.00402522  1.42447853  3.08520389  2.94623208]
 [-3.25109768  3.34122896 -1.53324938 -3.36409903 -3.27286553  3.53546453
   3.14636612 -2.98551154 -2.93861413  3.18791127 -3.32965851 -3.08339405
   3.235255    1.45658088  3.43161559  2.83597088]
 [-3.47865272  3.53700781 -0.04298905 -3.79778767 -3.35021544  3.61349273
   3.74423075 -3.89895797 -3.61662698  3.6854465  -3.88101053 -3.65293264
   3.52851105  0.04353021  3.65971112  3.85757732]
 [-3.05492377  3.04117608 -1.59329951 -3.2050209  -2.89142537  3.07968521
   2.77742863 -3.14689636 -3.07346869  3.14160299 -3.02436185 -2.87419271
   3.32490516  1.5777297   2.95467639  3.31787562]
 [-2.96136951  3.41551018 -1.6173774  -3.11451912 -3.28975058  3.04520988
   3.45738602 -3.2125783  -3.21219707  3.47643185 -3.46469331 -3.40876603
   3.54222965  1.33815885  3.01233077  3.31975722]
 [-3.00502133  3.08316326 -1.74826252 -3.30859733 -3.35767722  2.99618816
   3.04369617 -3.50136638 -3.44936657  3.30653548 -3.01879764 -3.43222785
   3.51431942  1.78347075  3.2321012   2.98201656]
 [-3.505404    3.35501099 -1.42634499 -3.42636395 -3.40648818  3.10279059
   3.28037429 -3.31651282 -3.29368949  3.23090768 -3.19940996 -2.92283106
   3.20779777  1.47459877  3.05835056  3.04824495]
 [-3.20482945  2.99310946 -1.74923193 -3.44648862 -3.09004498  3.46478701
   3.29434943 -3.33197188 -3.50631118  3.45551705 -3.26241469 -3.04521418
   3.41401148  1.61936462  2.95350647  3.11679816]
 [-3.38597941  3.38416958 -1.81921756 -2.93123388 -3.00025225  3.23585629
   2.92407799 -3.51644349 -2.95813203  3.21197867 -3.15856695 -3.342834
   3.31262541  1.75293982  3.46112204  3.51756239]
 [-3.4293766   2.88425994 -1.65911531 -3.20464277 -2.96341491  3.02271247
   3.33467364 -2.83677149 -2.90102601  3.37188268 -3.25778604 -3.12396479
   3.39339161  1.68412817  2.81527686  3.02369738]
 [-3.42183566  3.31420374 -1.61849701 -3.035043   -3.0501554   3.44971561
   3.02481198 -3.50077224 -3.41625261  3.33420324 -2.9351368  -3.40168881
   3.37431979  1.13358295  3.25730228  3.10004807]
 [-3.18400383  3.5938983  -1.76260412 -3.15208125 -2.94045234  3.48432779
   3.47853708 -3.53139234 -2.94939375  3.35776258 -3.58515763 -3.36954188
   3.11277032  1.69352674  2.94963384  3.11285233]
 [-3.08726192  3.24371386 -1.46484649 -3.39825416 -3.26734018  3.21624374
   3.36046958 -3.02597356 -3.32113147  3.17943501 -2.98981857 -3.42684102
   3.23961997  1.80710435  3.32662845  3.18121243]]