Alice
[[ -5.25894389e-03   2.32547708e-03   3.17001855e-03  -6.54631015e-03
    5.02563920e-03   6.24524662e-03   6.75220741e-03   5.20487782e-03
   -3.80085572e-03  -4.93996427e-04   1.37947896e-03  -3.34522175e-03
   -2.26410711e-03  -2.39501870e-03   7.70127110e-04  -2.00904557e-03]
 [ -5.03087183e-03   1.82363752e-03   2.72860774e-03  -6.91548316e-03
    4.77065379e-03   6.02351129e-03   6.22014888e-03   5.00215916e-03
   -3.84337292e-03  -5.23890252e-04   1.38889090e-03  -3.41585977e-03
   -2.07498739e-03  -2.73395330e-03   7.98617257e-04  -1.26597879e-03]
 [ -5.20929042e-03   1.00261834e-03   2.08514184e-03  -6.53248187e-03
    4.68951743e-03   5.95193822e-03   5.97364735e-03   4.37946338e-03
   -2.99114990e-03  -6.87562395e-04   1.56063959e-03  -2.82571185e-03
   -2.48261029e-03  -2.12788698e-03   9.26939887e-04  -2.01649638e-03]
 [ -4.69602179e-03   2.28964677e-03   2.88810953e-03  -7.61846313e-03
    5.20152273e-03   6.51523052e-03   6.69741305e-03   5.80928847e-03
   -4.01453162e-03  -9.46940039e-04   1.67195883e-03  -4.00336226e-03
   -2.67742458e-03  -2.50391639e-03   1.15677586e-03  -9.43489373e-04]
 [ -5.14640892e-03  -1.62525885e-02   4.65890300e-03  -4.15944494e-04
   -4.48723026e-02   3.02259182e-03   1.38588436e-03   6.08427357e-03
   -8.34123977e-03  -5.36969211e-03   3.81736457e-03  -4.97645978e-03
    3.42397690e-02  -8.08566529e-03   4.85640578e-03   1.32953478e-02]
 [ -4.81993193e-03   3.26947402e-03   2.67719477e-03  -7.13697355e-03
    5.16161462e-03   5.87275112e-03   6.01885328e-03   5.29574277e-03
   -4.53821989e-03  -4.29665379e-04   9.90099274e-04  -3.72770987e-03
   -2.17389758e-03  -2.18745274e-03   5.97180973e-04  -1.44728331e-03]
 [ -4.85358667e-03   1.99963315e-03   3.29249026e-03  -6.22200081e-03
    4.83780960e-03   5.87535789e-03   6.54188264e-03   5.20029524e-03
   -3.96106532e-03  -1.09449378e-03   1.68674462e-03  -3.76533112e-03
   -2.59844866e-03  -2.84977886e-03   1.27396756e-03  -8.47843767e-04]
 [  4.89034392e-02   3.70319089e-04   4.51327069e-03  -2.52029067e-03
    2.15139007e-03   3.50400433e-03   2.01769499e-03   3.75410146e-03
   -5.40685421e-03  -6.47947425e-03   4.90546692e-03  -4.61069169e-03
   -9.19813477e-03  -7.44278077e-03   6.05764892e-03   1.33266402e-02]
 [  4.40542426e-05  -1.65333450e-02   1.81269124e-02  -7.81069568e-04
   -9.14174016e-04  -4.69904247e-04   1.08760269e-03   5.10916626e-03
    3.95503156e-02  -4.77040745e-03   5.80949429e-03   3.91351841e-02
   -6.35514362e-03  -8.96943267e-03   4.39960789e-03  -1.68582592e-02]
 [ -8.49469192e-03   3.14271124e-03   4.47426131e-03  -3.50552867e-03
    3.18942149e-03  -5.19805960e-02   3.62817803e-03   6.52925111e-03
   -6.99824095e-03  -3.82069475e-03   2.86493974e-04  -3.91982915e-03
   -7.44181033e-03  -6.53238874e-03   2.56537856e-03   1.19513394e-02]
 [ -7.19956541e-03   3.18151363e-03   4.84323176e-03  -4.04755725e-03
    2.37378222e-03   4.78339102e-03  -5.42618185e-02   6.27006870e-03
   -6.68690493e-03  -2.21317960e-03   3.32918228e-03  -6.14558626e-03
   -7.09996372e-03  -6.17286237e-03   3.01868701e-03  -2.79243826e-03]
 [ -4.90450859e-03   2.08811252e-03   2.57344032e-03  -7.42631359e-03
    4.97993035e-03   6.44095894e-03   6.77725021e-03   5.68836648e-03
   -3.65938153e-03  -4.46438120e-04   1.04880054e-03  -3.92041728e-03
   -1.98804401e-03  -2.29538931e-03   6.35150005e-04  -6.94329094e-04]
 [ -4.74930508e-03   2.64734938e-03   2.84310780e-03  -7.07350997e-03
    5.50483773e-03   6.26592711e-03   6.95506902e-03   5.65686077e-03
   -4.66399966e-03  -1.10906037e-03   1.94740121e-03  -3.94973997e-03
   -2.81882961e-03  -2.53006490e-03   1.35612092e-03  -2.00579618e-03]
 [ -6.35624025e-03  -1.49095580e-02  -4.07060832e-02   8.86640046e-04
    1.83666975e-03   3.75420996e-03   3.24322376e-04   4.76331357e-03
    3.42154317e-02  -6.19996851e-03   4.64648427e-03  -9.73860174e-03
   -8.75464082e-03   3.27925831e-02   5.20959310e-03   1.73016079e-02]
 [ -4.12894739e-03  -1.75031442e-02   4.42863302e-03  -1.63511385e-03
    2.99719302e-03   1.95931201e-03   1.31933729e-03  -5.07407039e-02
   -6.45411341e-03  -3.00817937e-03   4.06912016e-03  -6.74950751e-03
   -8.33941344e-03  -7.83406850e-03   3.82902566e-03  -1.37312245e-03]
 [ -7.15172663e-03   3.68467742e-03   4.82543232e-03   5.90183139e-02
    2.67737429e-03   4.59659705e-03   4.25598631e-03   6.67774724e-03
   -6.78513944e-03  -1.83611060e-03   2.50620139e-03  -6.08673785e-03
   -7.10312603e-03  -6.25577755e-03   1.57081673e-03  -2.71053473e-03]
 [ -1.96016514e+00  -1.97293627e+00   1.95994174e+00   8.92627165e-02
    1.91760302e+00   1.94861448e+00   1.74064803e+00   2.00385046e+00
    1.90820947e-01  -1.96033096e+00   1.99605250e+00  -1.96827030e+00
   -2.05704403e+00  -2.18310189e+00   2.03916073e+00  -2.45639041e-01]
 [ -1.91214991e+00  -1.83969784e+00   1.94052529e+00   6.22319654e-02
    1.89936650e+00   1.77235043e+00   2.03945374e+00   1.69445407e+00
   -2.15751812e-01  -1.85327184e+00   1.52921176e+00  -1.96574450e+00
   -1.95182550e+00  -2.11789751e+00   1.78071535e+00  -7.84155279e-02]
 [ -2.26536870e+00  -2.12352777e+00   1.67885387e+00  -7.96050355e-02
    2.14238858e+00   1.97805154e+00   1.93989801e+00   2.18966007e+00
   -2.74912685e-01  -1.93402159e+00   2.02471232e+00  -1.80693567e+00
   -1.92136765e+00  -1.92721593e+00   1.78760624e+00  -2.12889358e-01]
 [ -1.88188815e+00  -1.74051082e+00   1.74488711e+00   1.43612877e-01
    1.91770267e+00   2.08998752e+00   1.95938456e+00   1.91605246e+00
    5.52268744e-01  -1.81762791e+00   2.09475112e+00  -2.03099418e+00
   -2.21731472e+00  -1.95038080e+00   1.95680642e+00   1.09266855e-01]
 [ -1.57664311e+00  -2.06108737e+00   2.00747061e+00   1.84530392e-02
    2.11551642e+00   1.90985477e+00   1.92868161e+00   2.14092135e+00
    4.23323065e-01  -2.08876538e+00   1.84785569e+00  -1.92149007e+00
   -2.00349140e+00  -1.93314290e+00   2.03788018e+00   4.33654077e-02]
 [ -2.57940340e+00  -2.54292941e+00   2.71420240e+00  -8.27634692e-01
    2.64433360e+00   2.62608671e+00   2.74406481e+00   2.52388000e+00
    8.78906250e-02  -2.65804505e+00   2.62977314e+00  -2.73993063e+00
   -2.56483173e+00  -2.63066435e+00   2.72988725e+00   8.89344811e-02]
 [ -1.75214028e+00  -1.62769091e+00   2.02853274e+00   2.82590687e-01
    1.70367670e+00   2.02817106e+00   1.61759853e+00   1.71652198e+00
    1.61758855e-01  -1.89332449e+00   1.67660677e+00  -1.80062747e+00
   -1.98952961e+00  -2.01467824e+00   1.76969218e+00   1.95631050e-02]
 [ -2.48391390e+00  -2.35271311e+00   2.38954234e+00   1.09942853e-01
    2.38339949e+00   2.33698678e+00   2.44248724e+00   2.34126973e+00
    1.42625511e+00  -2.49137664e+00   2.39950943e+00  -2.43874836e+00
   -2.40324521e+00  -2.43399119e+00   2.42490125e+00   9.25615802e-02]
 [ -1.83628893e+00  -2.24788761e+00   2.03910542e+00  -1.64491057e-01
    2.10765982e+00   1.88468254e+00   1.77296770e+00   1.89296746e+00
   -2.99878627e-01  -1.76470852e+00   2.10154700e+00  -1.79400671e+00
   -2.12560773e+00  -1.72863662e+00   1.71276391e+00   3.31458561e-02]
 [ -2.13379097e+00  -2.17318630e+00   1.79455161e+00   6.16315231e-02
    2.00476742e+00   2.19912601e+00   1.73835540e+00   1.68254995e+00
   -1.33184314e-01  -1.70302761e+00   1.60900605e+00  -1.63175118e+00
   -1.87711012e+00  -1.58467567e+00   2.01385689e+00   8.28626677e-02]
 [ -1.76529479e+00  -1.68496537e+00   1.98984885e+00  -1.60705194e-01
    2.04152751e+00   1.83806574e+00   1.89247251e+00   2.03886342e+00
   -1.64516106e-01  -1.98157990e+00   2.21736145e+00  -1.81518340e+00
   -1.74772108e+00  -2.12475467e+00   1.95929980e+00  -7.08326697e-02]
 [ -2.27019835e+00  -2.11301875e+00   2.01260352e+00  -7.89411291e-02
    2.11366224e+00   1.69097817e+00   2.01510501e+00   1.89809763e+00
   -8.74585062e-02  -1.97902191e+00   1.97861946e+00  -1.79503095e+00
   -1.76648271e+00  -1.94968176e+00   2.23488951e+00   2.37136260e-02]
 [ -1.93295407e+00  -1.70152056e+00   2.04406762e+00  -2.95731723e-02
    1.60090029e+00   2.12206626e+00   2.17527843e+00   2.13364315e+00
   -3.94235030e-02  -2.02594948e+00   1.82128870e+00  -2.17754960e+00
   -2.05202818e+00  -1.57602572e+00   1.69811940e+00  -9.12711322e-02]
 [ -1.69377840e+00  -2.13117552e+00   1.80974555e+00  -1.75389692e-01
    2.06830835e+00   1.94906855e+00   2.09891891e+00   2.00320292e+00
    3.58710140e-01  -1.72714400e+00   1.79684484e+00  -1.92862773e+00
   -1.61192894e+00  -2.20716524e+00   1.53204787e+00  -2.63392240e-01]
 [ -2.09214449e+00  -1.92660916e+00   2.02373385e+00   2.87683755e-01
    1.88692880e+00   2.18307543e+00   2.14138460e+00   2.06192541e+00
   -7.81725943e-01  -1.93607140e+00   2.18388343e+00  -2.13401175e+00
   -1.72483671e+00  -1.67275941e+00   2.07397342e+00   1.87718809e-01]
 [ -4.01263624e-01  -4.10533488e-01   4.03778255e-01   9.66053642e-03
    4.11831677e-01   4.09918696e-01   4.09782887e-01   4.15796518e-01
    2.05239356e-02  -4.01935011e-01   4.04034734e-01  -4.02702451e-01
   -4.09018457e-01  -4.04584527e-01   4.07388389e-01   9.94084477e-01]]
Bob
[[  2.33654305e-03   1.94812578e-03  -2.09334656e-03  -2.29492178e-03
   -2.39968509e-03  -9.86614730e-03   1.92611408e-03  -1.05509534e-02
    1.97087764e-03   1.89386017e-03  -2.06198962e-03  -2.13341066e-03
   -2.11331411e-03   2.39578076e-03   1.55819755e-03  -2.22814530e-01]
 [  2.28687096e-03   1.90474489e-03  -2.05995468e-03  -2.21476262e-03
   -2.33567553e-03  -9.44161881e-03   1.80971797e-03  -9.59676970e-03
    1.89779326e-03   1.85278861e-03  -2.04706378e-03  -2.06268649e-03
   -2.08874652e-03   2.34540738e-03   1.53936376e-03  -2.21065938e-01]
 [  2.39352998e-03   1.94476801e-03  -2.11055251e-03  -2.33374606e-03
   -2.44088937e-03  -9.66295227e-03   1.94072374e-03  -1.03451880e-02
    1.98770105e-03   1.93281216e-03  -2.10040156e-03  -2.10362347e-03
   -2.11138930e-03   2.44431174e-03   1.52717333e-03  -2.19577357e-01]
 [  2.39259657e-03   1.96219468e-03  -2.14795768e-03  -2.42299144e-03
   -2.49679317e-03  -1.02877086e-02   1.96738285e-03  -1.03424508e-02
    1.99646945e-03   1.97838899e-03  -2.14230502e-03  -2.17628502e-03
   -2.16186070e-03   2.49045342e-03   1.58681534e-03  -2.25433290e-01]
 [  2.56152707e-03   2.14927085e-03  -2.34208861e-03  -2.55850330e-03
   -2.64561479e-03  -9.71402973e-03   2.13880488e-03  -1.01247635e-02
    2.16598040e-03   2.13135593e-03  -2.30765226e-03  -2.33796635e-03
   -2.31845863e-03   2.64179986e-03   1.75744051e-03  -2.23951727e-01]
 [  2.37627677e-03   1.95881561e-03  -2.15376052e-03  -2.35703960e-03
   -2.44386564e-03  -9.56768729e-03   1.91241002e-03  -9.92904231e-03
    1.97794545e-03   1.94089836e-03  -2.10322929e-03  -2.16327747e-03
   -2.13012169e-03   2.43928563e-03   1.54763367e-03  -2.21558630e-01]
 [  2.55897525e-03   2.14488246e-03  -2.34339363e-03  -2.49657896e-03
   -2.60176277e-03  -9.30315256e-03   2.12153560e-03  -1.00430725e-02
    2.14565243e-03   2.09925184e-03  -2.29928363e-03  -2.30466761e-03
   -2.30740686e-03   2.63165683e-03   1.69738603e-03  -2.23715276e-01]
 [  2.73800944e-03   2.30862829e-03  -2.48510926e-03  -2.67459848e-03
   -2.78650946e-03  -9.86476988e-03   2.29209755e-03  -1.01134907e-02
    2.30650557e-03   2.24950793e-03  -2.46063550e-03  -2.45547504e-03
   -2.49252305e-03   2.80267908e-03   1.89447473e-03  -2.20611319e-01]
 [  2.21972005e-03   1.80673494e-03  -1.98690942e-03  -2.19882070e-03
   -2.31146161e-03  -9.72077902e-03   1.80050568e-03  -9.84442048e-03
    1.83802948e-03   1.78613712e-03  -1.96349574e-03  -2.00600759e-03
   -2.02193577e-03   2.30402942e-03   1.44180807e-03  -2.21002907e-01]
 [  2.56217434e-03   2.16406398e-03  -2.32269196e-03  -2.59530125e-03
   -2.68941349e-03  -9.93825309e-03   2.17311340e-03  -9.79753491e-03
    2.20634369e-03   2.17842357e-03  -2.32928619e-03  -2.38009426e-03
   -2.30661966e-03   2.64214445e-03   1.78809045e-03  -2.21514240e-01]
 [  2.44980375e-03   2.06616707e-03  -2.26109894e-03  -2.42574466e-03
   -2.51481310e-03  -9.27032996e-03   2.03127065e-03  -9.74328257e-03
    2.10708450e-03   2.03290395e-03  -2.20099441e-03  -2.24177446e-03
   -2.24102847e-03   2.51550018e-03   1.69167062e-03  -2.21343324e-01]
 [  2.45520077e-03   2.03831494e-03  -2.22281553e-03  -2.39671883e-03
   -2.49628513e-03  -9.75302700e-03   1.99520448e-03  -9.73682012e-03
    2.05023843e-03   2.01065768e-03  -2.15280545e-03  -2.19649239e-03
   -2.20293319e-03   2.52548140e-03   1.60773937e-03  -2.21685201e-01]
 [  3.70328128e-03   7.30385445e-03  -7.21231615e-03  -7.36111775e-04
   -2.01116409e-03  -9.22233332e-03   4.15495969e-03   1.15634486e-01
    7.32446881e-03   5.79282781e-03  -7.24382652e-03  -6.48395531e-03
   -5.30679850e-03   1.16992614e-03   1.26814917e-02  -2.77775139e-01]
 [  5.61496010e-03   5.34080388e-03  -4.06554807e-03  -7.51905190e-03
   -7.34266406e-03   1.15902454e-01   6.65184250e-03  -5.99494996e-03
    4.53674654e-03   5.50941471e-03  -5.66075509e-03  -6.25416311e-03
   -5.30636543e-03   4.66383994e-03   6.51225075e-03  -2.81849265e-01]
 [  2.32261349e-03   1.90293079e-03  -2.10051029e-03  -2.30117445e-03
   -2.39087641e-03  -9.42974351e-03   1.89057656e-03  -1.09087499e-02
    1.95237820e-03   1.91524962e-03  -2.09559524e-03  -2.11513857e-03
   -2.11340073e-03   2.39067501e-03   1.50489889e-03  -2.22828388e-01]
 [  2.28398759e-03   1.86260929e-03  -2.04149424e-03  -2.21673935e-03
   -2.30070087e-03  -9.85360425e-03   1.81558868e-03  -1.01031326e-02
    1.86422246e-03   1.81625795e-03  -2.00777804e-03  -2.03312235e-03
   -2.02953303e-03   2.34693731e-03   1.45873916e-03  -2.21145064e-01]
 [  2.64915752e+00   2.83259654e+00  -2.90487695e+00  -2.82833672e+00
   -2.63795042e+00   1.37285134e-02   2.80084729e+00  -1.81939170e-01
    2.68106079e+00   2.80782437e+00  -2.75994372e+00  -2.82143736e+00
   -2.62933874e+00   2.86374092e+00   2.84798503e+00  -6.50257841e-02]
 [  2.53000784e+00   2.57248807e+00  -2.74748802e+00  -2.68577862e+00
   -2.37109160e+00   1.41828105e-01   2.28610349e+00  -7.93454766e-01
    2.78257799e+00   2.46552992e+00  -2.42177916e+00  -2.10674715e+00
   -2.36996508e+00   2.71076441e+00   2.30824971e+00   7.84709081e-02]
 [  2.52304196e+00   2.60313749e+00  -2.92678738e+00  -2.86966896e+00
   -2.63658381e+00   8.79423693e-02   2.75205946e+00  -1.76991552e-01
    2.68222976e+00   2.72324324e+00  -2.51476955e+00  -2.71309781e+00
   -2.83655548e+00   2.79631114e+00   2.69569397e+00  -4.50866818e-02]
 [  2.78272963e+00   2.56843019e+00  -2.50983906e+00  -2.51684213e+00
   -2.59313703e+00  -4.74355310e-01   2.71391129e+00  -1.55419230e-01
    2.76022744e+00   2.91694021e+00  -2.82991433e+00  -2.94075012e+00
   -2.84625578e+00   2.84434652e+00   2.52368474e+00   2.81887967e-02]
 [  2.75297260e+00   2.41196036e+00  -2.50438309e+00  -2.72883129e+00
   -2.39807296e+00   7.07807019e-02   2.64130068e+00  -7.63050094e-02
    2.57074213e+00   2.48221898e+00  -2.44070601e+00  -2.69757962e+00
   -2.78261638e+00   2.58255982e+00   2.48221445e+00   3.38141411e-03]
 [  3.04417849e+00   2.89794683e+00  -2.77611828e+00  -2.61092472e+00
   -2.67488265e+00   8.97482187e-02   2.70515752e+00  -2.00438097e-01
    2.86237788e+00   2.55914903e+00  -2.71623230e+00  -2.60513592e+00
   -2.76161551e+00   2.86987829e+00   2.76080251e+00  -6.27758279e-02]
 [  2.89004087e+00   2.97134495e+00  -2.88003278e+00  -2.96946502e+00
   -2.83214688e+00   8.30687955e-02   2.73606491e+00  -1.58355266e-01
    2.97062135e+00   2.89224172e+00  -2.84522390e+00  -2.70859003e+00
   -2.69498801e+00   2.66957188e+00   2.91127658e+00   3.09039634e-02]
 [  2.54233742e+00   2.83022070e+00  -2.81398129e+00  -2.88633990e+00
   -2.81489563e+00   7.48676211e-02   2.75890708e+00  -4.48415786e-01
    2.98390269e+00   2.85880494e+00  -2.66074514e+00  -2.52263784e+00
   -2.62616515e+00   2.75393724e+00   2.55601907e+00   4.44088280e-02]
 [  2.73290372e+00   2.43849969e+00  -2.81269979e+00  -2.55063629e+00
   -2.77148628e+00   5.13455309e-02   2.78704858e+00  -3.16646188e-01
    2.33012795e+00   2.75960660e+00  -2.71202278e+00  -2.87482381e+00
   -2.85879946e+00   2.58118439e+00   2.54487205e+00  -1.32494541e-02]
 [  2.26507545e+00   1.98907268e+00  -2.24457073e+00  -2.12498617e+00
   -2.00830746e+00  -1.07345305e-01   2.30605173e+00  -6.57729283e-02
    1.94358265e+00   2.41481781e+00  -2.39480281e+00  -2.63619018e+00
   -2.55646539e+00   2.23714471e+00   2.43640733e+00   3.95793527e-01]
 [  2.18224549e+00   2.35778737e+00  -2.34398890e+00  -2.41587377e+00
   -2.46160698e+00  -9.96217206e-02   2.47266126e+00  -1.01997003e-01
    2.48375034e+00   2.47705555e+00  -2.13880992e+00  -2.38141274e+00
   -2.30280495e+00   2.29861283e+00   2.59278011e+00  -4.32236314e-01]
 [  2.57479644e+00   2.48573637e+00  -3.00701714e+00  -2.49077702e+00
   -2.81304860e+00  -1.15783932e-03   2.45100355e+00   6.54473841e-01
    2.66503453e+00   2.45560861e+00  -2.75663400e+00  -2.59276009e+00
   -2.72574520e+00   2.62992358e+00   2.25275803e+00   1.66347787e-01]
 [  2.51121020e+00   2.77542067e+00  -2.41520882e+00  -2.62566590e+00
   -2.90169835e+00   4.73915339e-02   2.96352100e+00  -5.02419591e-01
    2.54883099e+00   2.57827449e+00  -2.71407175e+00  -2.72115707e+00
   -2.42643023e+00   2.77608466e+00   2.58282542e+00  -4.35294360e-02]
 [  2.61981130e+00   2.77670383e+00  -2.34012747e+00  -2.40768099e+00
   -2.58595800e+00  -2.40876172e-02   2.47551441e+00   5.58149517e-01
    2.53042197e+00   2.50580049e+00  -2.66668057e+00  -2.48136973e+00
   -2.53926611e+00   2.54648232e+00   2.99137449e+00  -3.72133553e-02]
 [  2.49991012e+00   2.45201230e+00  -2.02163076e+00  -2.56498361e+00
   -2.40199709e+00  -1.63169965e-01   2.04925084e+00   6.66631432e-03
    2.32265162e+00   2.21391940e+00  -2.65784812e+00  -2.08001280e+00
   -2.01648450e+00   2.05701709e+00   2.51905346e+00   1.53828546e-01]
 [  2.47031331e+00   2.70064473e+00  -2.17127919e+00  -2.67848134e+00
   -2.71389842e+00   1.11175820e-01   2.65198898e+00  -2.14584112e-01
    2.63068366e+00   2.77414274e+00  -2.38131595e+00  -2.87614059e+00
   -2.78003621e+00   2.83672023e+00   2.46337008e+00   7.03908026e-01]]
Eve
[[ 2.98975682  3.34475756  2.95282197  1.95020103  3.43196869 -3.39515877
   3.10680652 -3.05847955  2.06289411  3.34264779  3.36563182  3.57540941
   3.2142508  -3.1589787  -2.99504781 -3.39149833]
 [ 3.21904922  3.33530164  3.44442487  2.15077925  3.06124783 -3.35352492
   3.39937973 -3.1811769   2.42846513  3.47015524  3.27478266  3.08786607
   3.18338442 -3.06067753 -3.35202265 -3.19005203]
 [ 3.67610574  3.29584742  3.56076241  2.06168342  3.04624081 -3.34003067
   3.22329783 -3.11276817  0.17541416  3.37350488  3.23546267  3.12277889
   3.53168559 -3.11676526 -2.99424934 -3.30743718]
 [ 3.48018789  2.87651777  3.04997611  2.87834835  3.29729819 -3.05811334
   3.36989617 -2.8034153   2.14419484  2.97532368  3.13555908  3.08090878
   3.04959369 -3.05436254 -3.33847618 -2.95786953]
 [ 3.31993222  3.48517203  3.14925551  2.11557412  3.42671633 -3.08038306
   3.0578258  -3.33984447  1.93719494  2.93049526  3.32126236  3.02786064
   3.22192144 -3.01000786 -3.25567818 -3.0830791 ]
 [ 3.13643456  3.35689521  3.53985071  2.14736509  3.21450043 -3.51404738
   3.49496984 -3.21049857  1.95595694  3.4044795   3.29182553  3.19579577
   3.60145831 -3.03592086 -3.47469449 -3.12510133]
 [ 3.46266079  3.00025892  3.44517803  2.22559738  3.56950808 -3.43865991
   3.31731153 -3.25112462  1.74175584  2.98774576  3.46337318  3.29511094
   3.02214122 -3.42858005 -3.01174831 -2.81637788]
 [ 3.17684627  3.46551371  3.10444856  2.02753115  2.97652316 -2.92029357
   2.92204952 -3.03144622  1.78671861  3.08490729  3.06686592  3.26899576
   3.33969235 -3.13984895 -3.49176455 -3.18575644]
 [ 3.45205665  3.41528273  3.24193358  2.08171868  3.53941011 -3.44744778
   3.09174204 -2.90792608  2.87720394  3.40881824  3.15807652  3.44426918
   3.19246984 -3.45873666 -3.19468164 -3.25966001]
 [ 3.21575904  3.29895329  3.09939742  1.80168164  2.89069223 -3.05693698
   3.22704625 -3.16278815  1.92017853  3.18535805  3.05372953  2.99161911
   3.40201092 -3.04300666 -2.99509907 -2.76306462]
 [ 2.97313452  3.22693276  3.17529178  1.79321921  3.43359113 -3.06394577
   3.21462512 -2.9278059   1.87111425  3.21257424  3.37689805  3.22360992
   3.36326194 -3.13901877 -2.92799258 -3.15528345]
 [ 3.41044569  3.17029428  3.15062904  1.98121607  3.30571699 -3.0575583
   3.0699892  -3.31026816 -0.41325516  2.99248862  3.40937686  3.28467655
   2.90789151 -3.49066734 -3.50244236 -3.35470581]
 [ 3.44188881  2.91400695  3.56793141  1.86937368  2.9680047  -3.2423749
   3.2006104  -2.90547919  2.17343974  2.93005776  3.07632542  3.20882416
   3.05280423 -2.9183774  -3.28499293 -3.36450672]
 [ 3.44589686  3.40519929  2.99102592  1.79736865  3.07276917 -2.99598193
   3.13046336 -3.17255545 -0.27449232  3.42516398  2.90049195  3.49808097
   3.12026572 -2.96752262 -2.99074388 -3.01221204]
 [ 3.22930121  2.99768877  3.06988907  2.24119711  3.27592182 -3.29194689
   2.89769268 -3.03901792  1.60554385  2.8978219   3.20965123  3.44634128
   3.4481461  -3.35849547 -3.14080024 -3.07724595]
 [ 3.3049705   2.95627189  3.13989091  2.16301727  3.41666818 -2.81717658
   3.09096575 -3.19294882  0.85660154  3.01900697  3.23852897  2.95302486
   2.84287834 -3.0498395  -3.33904004 -3.08603787]
 [ 3.343714    3.46601152  2.94042826  1.47262108  3.15195704 -2.90529394
   2.89482808 -3.48580384  1.7350719   3.36855054  2.93111539  3.32914042
   3.29974174 -2.879673   -3.24640346 -3.2112515 ]
 [ 3.29368114  2.8560636   2.81688118  1.61704755  3.00822425 -3.33202648
   3.12764382 -3.3133111   1.32661784  3.34452367  3.09493327  2.91622353
   3.20818663 -2.87822223 -3.34566331 -3.02522874]
 [ 3.24293566  3.09878254  3.49220228  1.9025234   3.30650616 -3.22895622
   3.01870775 -3.24706864  1.42059159  2.86363983  3.38276768  3.46766186
   3.54496837 -3.02365088 -3.10647845 -2.78662467]
 [ 3.39151263  3.49992347  3.28466654  1.32645333  3.45218015 -3.1531918
   3.00090885 -3.45431423  1.57317603  3.42945862  3.43118286  3.33715701
   3.03323102 -3.21435404 -2.8832767  -3.19207406]
 [ 3.28895879  3.11944675  3.24546957  1.32164943  2.96414089 -3.49573421
   2.78533411 -3.42874813  1.82033789  2.83863831  2.92486358  3.04179883
   2.7995522  -3.26136637 -3.29271746 -3.26622438]
 [ 3.39981532  3.76763511  3.10584474  3.09663367  3.5701952  -3.12020564
   3.36306787 -3.35556483  1.85363626  3.07759142  3.4755981   3.06764984
   3.46283507 -3.66908383 -3.11674333 -3.53820562]
 [ 3.23538399  3.15600371  2.86645579  1.13404226  3.36383247 -3.48502755
   3.24823117 -3.48356676  1.57815528  3.20921397  3.36597157  3.34645772
   3.07729149 -3.4491508  -3.18600416 -3.22710991]
 [ 3.50867248  3.51094961  3.24007034  2.14876223  3.4027195  -2.95650506
   3.1030767  -3.501333    3.12698936  3.57209063  3.32678628  3.15978456
   3.41931653 -3.51767874 -2.927881   -3.01925278]
 [ 3.43075633  3.52408743  3.17714429  1.51018894  3.17955494 -3.4316895
   3.17088032 -2.9700439   1.25377882  3.48357272  3.14534211  3.04886985
   3.2230885  -3.47919917 -2.9645412  -3.12986207]
 [ 2.9514091   3.4469583   3.32694292  1.8211478   3.31509042 -2.86884618
   3.17770791 -3.47307205  1.35212874  3.28447127  3.46768332  3.07926202
   3.47608876 -3.01684713 -3.38163328 -3.34575582]
 [ 3.2483964   3.47110748  2.92528701  1.72445822  3.24407315 -3.10638404
   3.04894543 -2.91316819  1.24404407  2.95866847  2.86427164  3.02036691
   3.06531334 -3.12117529 -2.88038993 -2.55377817]
 [ 2.90906692  3.27138972  2.95663381  1.68134034  3.01379228 -3.10470319
   3.28679919 -3.33069897  1.43571115  3.24129748  3.34441376  3.44848847
   2.87286234 -2.93459082 -2.83836865 -2.87200999]
 [ 3.14812636  3.40508676  3.4127357   1.40615535  3.14334249 -3.30650592
   3.06007934 -3.43138719  1.13752937  3.02097607  3.18433142  3.01447129
   3.44577551 -3.10920811 -3.16621447 -3.23386931]
 [ 3.06214213  3.19424772  3.45809722  1.80973411  3.36787844 -3.50484324
   3.28862524 -2.93468809  1.49696863  3.07335067  2.8759203   3.5172565
   3.55610037 -3.4339087  -3.15405774 -3.0352571 ]
 [ 3.48188567  3.03943515  3.37803841  1.82007611  3.18311453 -3.25229144
   2.89597487 -3.03941488  0.82567143  3.41838813  2.87465715  3.14488268
   2.80422735 -3.39240813 -3.34728575 -2.90093541]
 [ 3.4811976   3.42678547  3.58876634  0.06841435  3.64038467 -3.52152491
   3.93060875 -3.933851    0.23636515  3.81814003  3.79510307  3.50159144
   3.97033548 -3.50746822 -3.87100077 -2.71071768]]