Alice
[[  3.33840173e-04   4.33764867e-02  -2.85143442e-02   1.01480007e+00]
 [  1.49861575e-04   1.84092745e-01  -7.23703682e-01   3.74868095e-01]
 [  1.98628608e-04   3.04921698e-02  -4.48920041e-01   2.36112624e-01]
 [ -5.02447765e-05   1.20033342e-02   1.00522566e+00   4.17170882e-01]
 [  9.99460816e-01   5.26945441e-05  -1.34749644e-05   1.05197847e+00]
 [  4.94636834e-06   5.00951501e-07  -5.68111682e-06  -2.46326144e-05]
 [ -8.88694831e-06   3.71920978e-05  -2.60234701e-05   3.38819700e-06]
 [ -1.45814201e-05   4.43571989e-05   7.41855183e-06   1.12833322e-05]
 [ -5.98462997e-03   8.39526415e-01   4.91635412e-01  -3.36940885e-01]
 [ -8.75758822e-04  -1.50157046e-02   7.81302929e-01  -6.28616475e-03]
 [  1.04198229e+00   4.17628093e-03   1.24151778e+00  -3.32907259e-01]
 [  7.37611263e-05  -6.57492206e-02   8.48549902e-02  -6.42392218e-01]]
Bob
[[ -9.58048506e-04   2.60408409e-02  -1.07248248e-04   6.10069513e-01]
 [ -9.68249083e-01   5.66736281e-01   2.83769555e-02  -1.81147989e-04]
 [ -2.35314686e-02   4.57720220e-01  -1.23299044e-02   1.35846198e-01]
 [  2.59350725e-02  -1.00171685e+00  -1.59852728e-02   2.54308283e-01]
 [ -4.18988602e-05  -2.77063500e-05  -2.53289109e-05  -6.60702653e-06]
 [ -6.80563171e-05  -3.09765164e-05  -7.82569987e-06   5.98099541e-06]
 [ -4.83631447e-05  -4.39704527e-05  -2.72521775e-05   3.13791566e-06]
 [ -4.55972913e-05  -1.48806357e-05   6.71954967e-06  -1.06379903e-05]
 [ -1.78633054e-05   2.56725434e-05   1.00069165e+00   1.05259037e+00]
 [ -8.81888345e-02  -1.07025898e+00  -3.00231557e-02   2.90792167e-01]
 [ -1.56833548e-02  -8.29170942e-01   7.81232724e-04  -2.45179720e-02]
 [  6.69284418e-05  -2.30187470e-05   1.00481592e-03   5.31269288e-05]]
Eve
[[  2.76775569e-01  -3.44833895e-03   7.10293427e-02  -1.84570873e+00]
 [ -1.22174241e-01  -1.32960927e+00   4.30407465e-01  -3.79443504e-02]
 [  7.61554763e-02   5.90546653e-02  -6.72832727e-01  -2.40927711e-01]
 [  1.13685854e-01  -2.78780609e-02   7.61711478e-01  -4.85243857e-01]
 [  2.83797884e+00   3.10709234e-04   1.49395113e-04  -2.70489955e+00]
 [ -8.47988486e-01  -1.32484221e+00  -6.95822239e-01  -1.59108829e+00]
 [  1.61616877e-01  -3.88493270e-01  -9.64890957e-01   1.38333842e-01]
 [  6.50335625e-02   6.09020644e-04   1.05423224e-03  -2.88618684e-01]
 [  2.49950141e-01  -1.65370655e+00   7.29058564e-01   1.35364756e-01]
 [ -1.16292693e-01   3.81313443e-01   6.82223022e-01  -1.34657398e-01]
 [  2.30734661e-01  -4.17022675e-01   2.39068341e+00   8.52173846e-03]
 [ -3.19549114e-01   6.16305284e-02   1.49111584e-01  -9.51679111e-01]]