Alice
[[  1.92959839e-03   3.61225873e-01   4.30827873e-04  -5.20297922e-02]
 [  3.19214091e-02  -6.73986152e-02   1.04929442e-02  -9.26414490e-01]
 [  2.00104785e+00   9.31001604e-02  -6.53790175e-06   1.34786096e-04]
 [ -9.55671538e-04   3.62036645e-01  -3.05800995e-07  -2.86576425e-04]
 [ -4.49144391e-05   5.75435519e-01  -8.01338228e-06  -2.57838947e-05]
 [ -3.70897433e-05   5.83206058e-01   5.91744265e-06  -2.81164139e-05]
 [ -4.77166941e-05   5.91289282e-01  -2.47963249e-06   1.11509753e-05]
 [ -6.95255003e-05   5.92101991e-01   4.09522784e-07  -3.75797790e-05]
 [  1.66906416e-02   1.46024704e-05   5.81094297e-04   1.06042612e+00]
 [ -1.34787813e-01   6.93984388e-04  -3.41429226e-02  -2.46745959e-01]
 [  1.26957333e+00  -1.76260829e-01  -2.64912337e-01  -3.89657170e-01]
 [ -8.79665604e-05   2.18266541e-05  -9.99927342e-01  -1.48521021e-05]]
Bob
[[  5.41135445e-02  -1.68953799e-02   7.68106329e-05  -1.31710167e-05]
 [ -1.48712825e-02  -2.97363192e-01  -1.18782755e-03   6.15794033e-06]
 [ -6.28763664e-05  -1.04861625e-03   2.14686970e-05  -1.52914654e-05]
 [  5.30071193e-05   8.26412172e-04   1.05877723e-06   1.00002110e+00]
 [ -1.10390392e-05   4.17155170e-05   3.17829472e-06   9.99988377e-01]
 [  9.72641706e-01  -1.43654300e-02  -9.63126786e-06   3.69668828e-06]
 [ -1.03380607e-05  -1.20783516e-05  -6.00275712e-07  -9.99995589e-01]
 [ -1.17706204e-05   1.77357360e-05   1.58494686e-06   1.00001311e+00]
 [ -1.27182975e-01   1.75133497e-01   4.12492285e-04   3.79094519e-02]
 [ -1.96667352e-05   1.24534185e-04  -1.00001657e+00  -7.44602003e-05]
 [ -7.34632835e-02  -6.18992075e-02   8.69663179e-01   6.75802454e-02]
 [ -1.04132390e+00   3.22759330e-01  -8.58516525e-03  -2.03413586e-03]]
Eve
[[  1.63215685e+00   1.43160343e-01   3.81895894e-04   1.02939650e-01]
 [  3.70290488e-01   4.04411815e-02  -6.92496225e-02  -1.77816832e+00]
 [  1.75140071e+00   1.82939798e-01   1.31424313e-04   8.53872299e-02]
 [  1.61319637e+00   1.37478158e-01   3.57104145e-05   9.10560787e-02]
 [  1.50176370e+00   1.99847072e-01   2.61249125e-01  -5.13338268e-01]
 [  2.02342796e+00   1.87363124e+00   1.92975102e-04   1.97655141e-01]
 [  2.57399112e-01  -5.20346919e-04   5.80137014e-01  -8.65321517e-01]
 [  8.41544986e-01   3.15095246e-01   9.26794037e-02  -1.14853823e+00]
 [  1.30291414e+00   2.04417571e-01   1.11062196e-03   2.44073558e+00]
 [  1.17970669e+00  -6.63362503e-01  -1.04548164e-01  -6.59858584e-01]
 [  1.67214131e+00   3.57466489e-01  -4.04087067e-01  -1.84107885e-01]
 [  1.38231587e+00   1.95040450e-01   3.13914943e+00   8.00542608e-02]]