Alice
[[ -5.24417400e-01   7.62898922e-01   7.14472961e-03   1.38820559e-02
   -2.10040472e-02  -5.26066720e-02  -7.64026642e-02   1.38686270e-01]
 [ -1.36485323e-01   2.52089538e-02  -5.04129007e-02  -1.71188693e-02
    3.13922251e-03   6.41955212e-02  -1.62345171e-02   5.56845628e-02]
 [ -2.33895421e-01   1.96181480e-02  -1.04675353e-01   1.20173795e-02
    8.37036874e-04  -3.74077074e-03  -5.55651903e-04   5.38024977e-02]
 [ -2.36187309e-01   1.22804958e-02  -1.24006256e-01   1.44448346e-02
    4.06777393e-03  -3.83691117e-02   1.02415320e-03   4.72921915e-02]
 [ -2.32021838e-01   2.50044446e-02  -9.91649553e-02   1.31067690e-02
   -3.74518568e-03  -4.64644399e-04  -2.77189334e-04   5.44501357e-02]
 [  1.23904971e-02   3.21325287e-02   5.75654581e-02   7.50326440e-02
   -4.91794139e-01   1.26010224e-01  -1.20379865e-01   4.41111289e-02]
 [ -1.32037386e-01   2.95775998e-02  -3.78510095e-02  -3.00955791e-02
    3.23246350e-03   1.12026989e-01  -2.50596311e-02   6.94436505e-02]
 [ -2.33398914e-01   2.42875814e-02  -1.01398103e-01   8.56326800e-03
   -9.09028924e-04   6.58493210e-03  -2.88546854e-03   5.78914918e-02]
 [ -1.36455044e-01   1.37845594e-02  -2.52200477e-02   1.83933340e-02
   -8.68813973e-03   7.05558583e-02  -1.08896347e-05   4.08186093e-02]
 [ -1.35939404e-01   1.37453638e-02  -2.51016840e-02   1.83241945e-02
   -8.63835681e-03   7.02743381e-02  -1.89039110e-05   4.06586789e-02]
 [ -1.35552645e-01   1.35648819e-02  -2.50602476e-02   1.82953458e-02
   -8.66084080e-03   7.01133534e-02  -3.68175824e-06   4.06096429e-02]
 [ -1.35378107e-01   1.36470450e-02  -2.50092372e-02   1.82456747e-02
   -8.61895457e-03   6.99758157e-02  -1.04072042e-05   4.04571481e-02]
 [ -1.35601863e-01   1.36777917e-02  -2.50919219e-02   1.83260106e-02
   -8.67921300e-03   7.01895505e-02  -1.25694160e-05   4.05667908e-02]
 [ -1.35045797e-01   1.36098703e-02  -2.49239523e-02   1.81834698e-02
   -8.59222375e-03   6.97740465e-02   1.02180484e-05   4.03735600e-02]
 [ -1.34608731e-01   1.37101728e-02  -2.48079002e-02   1.81677248e-02
   -8.59339722e-03   6.95201978e-02  -9.55844371e-06   4.02883403e-02]
 [ -1.35020092e-01   1.35079529e-02  -2.49397662e-02   1.82190705e-02
   -8.62204563e-03   6.98117986e-02   6.44085048e-07   4.04249355e-02]
 [ -9.43267703e-01  -4.09940660e-01  -4.63227570e-01  -3.38668942e-01
    5.79352975e-02   2.49700829e-01  -6.12574518e-02  -2.41863038e-02]
 [ -1.00150633e+00   4.50208992e-01  -4.97166663e-01  -3.48423541e-01
    9.88962948e-02   3.43732536e-01   4.71300840e-01  -5.02145171e-01]
 [  7.05092738e-04   5.54908335e-01   5.52956189e-04   1.82485628e+00
    1.43185281e-03  -4.96033099e-05   1.58342969e-04   6.63060844e-01]
 [  6.71770395e-05   4.85944673e-02   6.28464331e-05   3.04645061e-01
    1.33758280e-04   1.30035260e-05  -1.00004637e+00   8.69236588e-02]
 [ -1.05153167e+00   3.72585207e-02  -2.67520070e-01  -3.44619490e-02
   -6.88769519e-01   2.46925876e-02   1.17560543e-01  -6.01424463e-02]
 [ -8.16794693e-01   7.97975123e-01  -7.02225268e-01  -2.85249382e-01
    2.50556827e-01   7.24240184e-01  -5.06312214e-02   7.01923892e-02]
 [  3.49493610e-04   2.92323440e-01   1.30275119e-04   1.14872897e+00
    6.35644479e-04   2.93116282e-05   8.68845163e-05   3.94540578e-01]
 [ -7.71999240e-01   6.90376937e-01  -2.39005655e-01   4.32004094e-01
    4.03657630e-02   4.79748309e-01   5.79177178e-02  -1.27208441e-01]]
Bob
[[  1.02355614e-01   1.54921860e-01  -9.40159708e-02   3.29773664e-01
   -4.77569317e-03  -6.07412420e-02   1.95593238e-01   1.32436519e-02]
 [ -1.19855724e-01   3.25952061e-02  -1.22766890e-01   4.00242209e-01
    2.43573133e-02  -1.27496114e-02   2.57385731e-01   1.03248574e-01]
 [ -9.40613300e-02   7.95930531e-03  -1.43445089e-01   4.63411748e-01
    3.54870372e-02  -4.13141027e-02   3.02257657e-01   8.29120353e-03]
 [ -1.02399819e-01   6.38258224e-03  -1.75517783e-01   5.32836020e-01
    4.42117825e-02  -5.84993511e-02   3.61839771e-01  -4.71447100e-04]
 [ -9.81203541e-02   8.69128667e-03  -1.38923720e-01   4.42813218e-01
    3.07184979e-02  -3.83960046e-02   2.91317731e-01   9.08341445e-03]
 [ -4.83352207e-02   8.42827633e-02  -1.58829764e-01   4.69729573e-01
    7.68395782e-01  -6.72044903e-02   3.25759888e-01  -5.76891452e-02]
 [ -1.24678575e-01   4.70917784e-02  -1.07184961e-01   3.51943076e-01
    2.02502795e-02   6.66615972e-03   2.24369332e-01   1.34797424e-01]
 [ -1.11940227e-01   1.27869667e-02  -1.54708892e-01   4.94267732e-01
    3.48462649e-02  -4.12052870e-02   3.24641347e-01   2.95540709e-02]
 [ -6.05354644e-02  -3.20067847e-05  -7.12772384e-02   2.66373485e-01
    8.74047726e-03  -3.27116996e-02   1.50911868e-01   7.50129893e-02]
 [ -5.52616231e-02  -2.78070474e-05  -6.49577230e-02   2.42468193e-01
    7.97434337e-03  -2.97895148e-02   1.37573421e-01   6.83686510e-02]
 [ -5.24237119e-02   8.56931183e-06  -6.14716485e-02   2.30270073e-01
    7.53776170e-03  -2.81595644e-02   1.30295351e-01   6.47104755e-02]
 [ -6.14323393e-02  -2.89989857e-05  -7.21667707e-02   2.70170718e-01
    8.85236915e-03  -3.30748707e-02   1.52802154e-01   7.59271532e-02]
 [ -5.66191673e-02   7.83356154e-06  -6.64669499e-02   2.49522090e-01
    8.16356763e-03  -3.04609053e-02   1.40835181e-01   6.99556991e-02]
 [ -5.67525364e-02  -1.91944400e-05  -6.66783005e-02   2.49688417e-01
    8.19030125e-03  -3.05540320e-02   1.41201481e-01   7.01478571e-02]
 [ -6.14232570e-02  -2.25746317e-05  -7.21823722e-02   2.69068092e-01
    8.86540022e-03  -3.31021510e-02   1.52882859e-01   7.60129541e-02]
 [ -5.38599268e-02  -9.34680975e-06  -6.31838292e-02   2.37910360e-01
    7.75813870e-03  -2.89408956e-02   1.33848801e-01   6.64781705e-02]
 [ -2.70172805e-01  -6.87596083e-01   2.05026197e-04  -1.71347638e-05
    5.42891445e-04   1.21590450e-01  -3.98843054e-04  -2.41203234e-05]
 [  1.07432640e+00  -3.77668858e-01   8.35339949e-02  -5.66549413e-02
    1.13185264e-01   8.84390324e-02   4.59546089e-01   2.87604127e-02]
 [ -2.00895853e-02  -5.15740454e-01  -4.23089087e-01  -1.09942742e-01
   -7.24302530e-02   5.55384815e-01   5.80431163e-01   4.20015723e-01]
 [ -9.86441433e-01   3.26193981e-02  -2.61940788e-02   7.44816959e-02
   -1.30487010e-02   5.19144163e-02   5.05586922e-01   4.20073986e-01]
 [  5.97079024e-02  -4.78590243e-02  -9.59367454e-02  -4.57931161e-02
    4.05441940e-01   1.47031531e-01   7.48872101e-01   3.10336053e-01]
 [ -5.29382825e-01  -8.63083079e-03  -1.31894052e-01  -8.49680752e-02
    2.16854468e-01  -2.18659744e-01   1.04513383e+00   6.74117684e-01]
 [  2.16906428e-01  -4.36749339e-01  -3.54445964e-01   1.14944272e-01
    2.64256537e-01   3.93013000e-01   5.21786153e-01   1.42567664e-01]
 [ -1.55264631e-01  -8.41981053e-01  -1.23575717e-01   2.09860295e-01
   -6.59840167e-01  -5.90610467e-02   6.34821236e-01   3.82445380e-02]]
Eve
[[ -2.55635470e-01   1.16895509e+00  -3.56642544e-01  -8.42683196e-01
    2.95514315e-01   5.24230897e-01   8.96745473e-02  -3.16903293e-01]
 [ -1.50553077e-01   3.77586484e-02   5.86687364e-02  -5.63861206e-02
   -3.92022048e-04   4.47003581e-02   2.37129303e-03  -1.36777735e-03]
 [ -2.85013705e-01  -6.63156211e-02  -6.24940544e-02  -3.88244212e-01
    3.15308012e-02   4.45700735e-01  -1.60206258e-02  -1.84446812e-01]
 [ -3.71517569e-01  -1.01370536e-01  -7.51785338e-02  -5.03890216e-01
    3.87829579e-02   5.69863915e-01  -2.30181590e-02  -2.35295847e-01]
 [ -2.72556901e-01  -6.22942336e-02  -6.69029504e-02  -3.71469110e-01
    3.60273197e-02   4.30537283e-01  -1.62439980e-02  -1.76703796e-01]
 [ -7.34458089e-01  -1.04668632e-01   3.84915411e-01  -2.01598648e-02
   -1.15441585e+00  -2.26338565e-01   8.74347463e-02   5.80208637e-02]
 [ -8.69600549e-02   9.04834121e-02   1.14085555e-01   8.23112801e-02
   -1.41391996e-02  -1.11039273e-01   8.20701290e-03   7.94535801e-02]
 [ -3.08443606e-01  -5.42844050e-02  -5.00316471e-02  -3.57365221e-01
    3.16047147e-02   4.13896352e-01  -1.54082226e-02  -1.66844711e-01]
 [  1.28544974e+00  -3.06746632e-01  -1.47422814e+00  -1.58069789e+00
    3.41042578e-02   1.23504639e+00   1.55508444e-02  -1.58340394e+00]
 [ -3.88389021e-01   1.84265375e+00  -6.86428547e-01  -2.35440865e-01
   -5.08742630e-01   4.54464525e-01  -1.01113722e-01  -3.69980454e-01]
 [ -1.47428453e+00   1.70886740e-01   7.47827530e-01   9.62631851e-02
   -4.45116349e-02  -4.67081785e-01   1.45928711e-01  -3.42853695e-01]
 [ -4.14749444e-01  -7.01098800e-01  -6.44343436e-01  -1.36784363e+00
    4.93936062e-01   2.33348250e-01  -8.12933445e-02  -9.38379169e-01]
 [ -8.48097086e-01  -1.18908428e-01   2.27943301e-01  -8.41316953e-02
   -7.01459825e-01  -2.94748217e-01   2.92737991e-01  -6.04883709e-04]
 [ -8.66885304e-01  -1.06572628e+00  -1.49022269e+00  -1.72743547e+00
   -7.26195648e-02   1.84436902e-01  -4.44971435e-02  -7.70034075e-01]
 [ -1.75489891e+00  -5.58184013e-02   8.07339311e-01   1.10378194e+00
    6.29673600e-02  -6.27197742e-01   6.52765036e-02  -2.21086249e-01]
 [ -1.23974109e+00  -3.79726617e-03  -6.75090104e-02   2.51357742e-02
    7.35685527e-01  -6.00951076e-01   1.64841879e-02  -1.05236208e+00]
 [ -1.09435081e+00  -1.20199358e+00   9.91105556e-01   8.39887932e-02
   -1.23619951e-01  -8.75192046e-01  -3.10581774e-02   1.32526606e-01]
 [ -1.90064669e+00   6.24524951e-01   1.42500257e+00   1.09888959e+00
    3.78426462e-02  -9.46184218e-01  -1.23301506e-01  -8.76814034e-03]
 [  9.81612980e-01  -1.24691999e+00  -2.50675607e+00  -2.78392458e+00
   -1.00296810e-02   2.45865130e+00   3.73819709e-01  -7.35662103e-01]
 [ -1.64964750e-01  -2.34667018e-01  -3.35775137e-01  -7.82045245e-01
   -5.49732707e-03   3.70366156e-01   2.39120126e+00  -1.58590019e-01]
 [ -1.39823020e+00   2.84095220e-02   4.04395044e-01   1.14638381e-01
   -1.78695118e+00  -7.47097209e-02  -2.53006577e-01   1.47889525e-01]
 [ -1.68576753e+00  -2.49786731e-02   1.61515820e+00   7.34430373e-01
   -1.46935627e-01  -1.88454163e+00   5.61712980e-02   1.88164473e-01]
 [ -4.98340815e-01  -7.87068725e-01  -1.19681811e+00  -2.09448624e+00
   -2.79894900e-02   1.37872529e+00   2.19537109e-01  -4.18261260e-01]
 [ -1.34511209e+00  -7.64279544e-01   7.45956123e-01  -6.06144607e-01
   -3.80557217e-02  -8.79513144e-01  -1.74062550e-02  -1.46603122e-01]]