Alice
[[  1.54533051e-02  -1.68881211e-02   5.65884948e-01  -3.08289640e-02
   -1.25119492e-01   2.93699671e-02   2.82085408e-02  -1.23920441e-02
   -1.23351321e-01   7.12060463e-03  -8.50819945e-02  -1.96106657e-01
   -5.54607622e-02   5.82442470e-02  -1.03828683e-01   1.25912890e-01]
 [  6.70518950e-02   3.50158773e-02  -2.95972126e-03  -4.01597284e-02
   -7.99841285e-02   1.14056081e-01  -7.42349923e-02  -3.15160267e-02
   -1.16716214e-01  -1.12204598e-02  -4.33943123e-02  -7.37517476e-02
   -4.51744534e-02   6.54564053e-02  -1.23225629e-01   8.22032914e-02]
 [  4.36987691e-02   7.61856213e-02   2.01833132e-03  -4.50915545e-02
   -4.35059331e-02   9.83305871e-02  -3.93225551e-02  -2.26505622e-02
    2.09528934e-02  -1.29617713e-02  -1.45460702e-02  -3.91710326e-02
   -6.16406612e-02   5.37637360e-02  -6.44185841e-02   7.23105967e-02]
 [  6.69764578e-02   9.43486113e-03   1.19515264e-03  -3.29048708e-02
   -6.40067011e-02   1.43646047e-01  -5.00313714e-02  -6.79515600e-02
   -1.12964034e-01  -4.46144771e-03  -2.77583897e-02  -6.47111610e-02
   -4.68257554e-02   3.34301926e-02  -8.38100910e-02   7.33233914e-02]
 [  4.55178358e-02   1.41906086e-02  -4.59448015e-03  -2.47538909e-02
   -5.92775457e-02   8.64474699e-02  -7.45241940e-02  -2.72134040e-02
   -1.58719383e-02  -7.56436167e-03  -2.23700833e-02  -6.09772801e-02
   -6.10836670e-02   6.94561079e-02  -6.50477111e-02   5.76034002e-02]
 [  8.04197490e-02   3.09222154e-02  -1.03140725e-02  -3.40960547e-02
   -8.31424445e-02   1.63644910e-01  -7.69338682e-02  -3.91462073e-03
   -1.03954524e-01  -1.18867056e-02  -2.76392642e-02  -8.43369216e-02
   -4.32722010e-02   4.99970503e-02  -8.50009397e-02   6.49786070e-02]
 [  5.30945249e-02   4.03230116e-02   8.27008206e-03  -3.61200161e-02
   -3.65975201e-02   9.24474299e-02  -5.65124638e-02  -6.86674118e-02
   -6.08770251e-02  -1.51347639e-02  -1.10571226e-02  -7.35022128e-02
   -8.63115340e-02   5.61481006e-02  -3.71517017e-02   3.91574651e-02]
 [  5.15571944e-02   1.17523558e-01   1.45936972e-02  -4.03464772e-02
   -6.38369322e-02   1.71015449e-02  -5.37600368e-02  -1.85217597e-02
   -3.10522523e-02  -1.20013086e-02  -1.46667045e-02  -1.76040772e-02
   -5.50839491e-02   5.26871048e-02  -2.98489649e-02   7.86066800e-02]
 [  7.00157136e-02   6.07575662e-02   6.46658882e-04  -3.43087651e-02
   -8.17809924e-02  -5.42682549e-03  -9.68047753e-02  -1.39796296e-02
   -1.35777667e-01  -2.26474032e-02  -2.55015157e-02  -5.36251999e-02
   -6.54635578e-02   9.79411304e-02  -6.89828992e-02   5.99551797e-02]
 [  6.47066832e-02   3.17649767e-02   1.06877144e-02  -9.94757097e-03
   -6.28157631e-02   6.37866035e-02  -5.87348789e-02  -2.77103577e-02
   -1.39058856e-02  -1.95286181e-02  -3.38091142e-02  -1.10879257e-01
   -4.67172563e-02   7.21063986e-02  -3.44594494e-02   3.24779376e-02]
 [  7.79234394e-02  -9.94175766e-03   1.06962835e-02  -1.65678039e-02
   -4.49630432e-02   1.61599722e-02  -3.19930166e-02  -2.77366459e-01
   -9.61275175e-02  -1.85755268e-02  -9.47018638e-02  -4.43516225e-02
   -5.86984865e-02   2.38333158e-02  -2.34000776e-02   7.73915946e-02]
 [  1.02923758e-01   9.36561972e-02   1.43491281e-02  -5.95538691e-02
   -6.90713525e-02   1.75632671e-01  -2.16228683e-02  -2.89180223e-02
   -6.54340908e-02  -9.54024773e-03  -3.22985128e-02  -7.00110123e-02
   -6.32937774e-02   4.47801724e-02  -4.39846702e-02   7.73670003e-02]
 [  7.45023862e-02  -2.66061630e-02  -3.34735843e-04   1.23696942e-02
   -3.54584232e-02   1.27622753e-01  -1.40580293e-02  -3.10803443e-01
   -5.10478802e-02  -1.68389478e-03  -3.08232252e-02  -5.30231297e-02
   -2.97707096e-02  -4.67269942e-02  -1.69627145e-02   6.13629632e-02]
 [  4.90870439e-02   2.92609669e-02   1.14337511e-01   8.07215739e-03
   -1.29683297e-02  -9.30810720e-03  -1.65728420e-01   1.31825013e-02
    2.98866313e-02   2.15295870e-02  -7.24910647e-02  -8.48856717e-02
   -4.16609161e-02   1.02001533e-01  -2.11919323e-02  -2.68321425e-01]
 [  6.48700073e-02   1.36747599e-01   1.27861537e-02  -4.08151783e-02
   -7.50515461e-02  -3.07425242e-02  -5.64764887e-02   1.68707240e-02
   -5.72807109e-03  -1.80820208e-02  -2.95350086e-02  -2.86823213e-02
   -5.40679097e-02   8.84207115e-02  -3.71474847e-02   7.50349909e-02]
 [  8.57828707e-02   3.80913354e-02   3.04249907e-03  -3.42440456e-02
   -7.48318732e-02   6.89823255e-02  -4.59349044e-02  -5.06399348e-02
   -1.19133085e-01  -1.16313137e-02  -4.68729660e-02  -6.72798157e-02
   -4.15411778e-02   6.75411373e-02  -7.75505677e-02   6.91244006e-02]
 [ -2.17184355e-03  -2.04917025e-02  -3.83850769e-04  -1.11620231e-02
    1.33764767e-03   9.47780535e-03   7.01372745e-03  -4.11332259e-03
   -1.06962433e-03   4.16068593e-03  -1.50045743e-02   3.20804231e-02
   -1.85820013e-02  -1.94530394e-02   1.74258687e-02   2.83296034e-02]
 [  1.82381775e-02  -2.08433531e-02  -1.87976263e-03  -7.30207143e-03
   -8.09571997e-04   2.24441085e-02   1.82138979e-02   9.90023743e-03
    1.45829860e-02   3.56560084e-03  -3.17238234e-02   2.12200247e-02
    2.06965208e-03  -1.28950141e-02   4.06205915e-02   4.58190497e-03]
 [ -1.98405609e-02   1.80840157e-02   1.73040759e-03   8.08190089e-03
    2.44970969e-03  -1.19482847e-02  -8.11690278e-03  -7.16070784e-03
   -2.40603322e-03  -4.77910321e-03  -2.62997230e-03  -1.81114785e-02
    3.16783376e-02   5.02889603e-03  -3.26952152e-02  -1.08711757e-02]
 [ -2.91322507e-02   3.01822294e-02   3.30344285e-03   9.24444757e-03
    2.88721058e-03  -2.57918723e-02  -2.09735483e-02  -1.78825445e-02
   -1.66319143e-02  -1.10903606e-02   2.02564579e-02  -2.44493745e-02
    2.01728009e-02   9.45413020e-03  -5.82887195e-02  -8.45822413e-03]
 [  1.59503166e-02  -4.73100971e-03  -5.48691838e-04  -3.88524495e-03
   -1.91176496e-03   6.19672146e-03   2.83929682e-03   2.46442342e-03
   -6.59153098e-04  -2.95099732e-03   4.13638214e-03   5.81600750e-03
   -1.62515789e-02  -2.74109887e-04   1.54266097e-02  -8.15338106e-04]
 [ -2.64000054e-02   7.95668177e-03   1.61800790e-03   3.28828045e-03
    3.82786547e-03  -8.40602070e-03  -4.67290916e-03  -9.73887555e-03
   -2.14047218e-03  -9.88302985e-04  -1.30950119e-02  -2.28952593e-03
    2.74133980e-02  -5.70605975e-03  -2.74115559e-02   5.02393115e-03]
 [ -1.94877014e-02   1.82695724e-02   2.22283672e-03   4.93980944e-03
    1.91892043e-03  -1.73173286e-02  -1.42800119e-02  -1.25686526e-02
   -1.25001939e-02  -6.77163107e-03   1.55428629e-02  -1.33499345e-02
    7.97087979e-03   5.15661249e-03  -3.79135013e-02  -2.08228547e-03]
 [ -3.41461115e-02   1.54139390e-02   2.85772188e-03   2.43046531e-03
    3.78981279e-03  -2.25964319e-02  -1.80777945e-02  -1.97404046e-02
   -1.84282120e-02  -4.23175050e-03   1.71423908e-02  -4.04280936e-03
    1.85290922e-03  -1.65915780e-03  -4.86630015e-02   1.41118784e-02]
 [ -2.95920414e-03  -4.66516986e-03   3.22932057e-04  -4.14705882e-03
    6.78381592e-04   5.46013471e-04  -3.30668263e-04  -4.60821437e-03
   -3.96602927e-03  -6.55048061e-04  -1.26112020e-03   1.10527715e-02
   -8.99044611e-03  -6.82088500e-03   2.18001078e-04   1.12594105e-02]
 [ -2.53086723e-02   2.24762671e-02   2.98770820e-03   3.51589476e-03
    8.95105302e-04  -3.39585915e-02  -2.94638183e-02  -1.98972579e-02
   -3.09446901e-02  -4.82767494e-03   5.92807010e-02  -1.49798719e-02
   -3.41902710e-02   1.26323523e-02  -5.58221340e-02   1.18560996e-02]
 [  1.79997776e-02  -1.57282371e-02  -1.24468142e-03  -7.92186614e-03
   -1.68571318e-03   1.32818436e-02   9.03774612e-03   4.89655416e-03
    3.40814795e-03   1.21425686e-03  -6.54275576e-03   1.83287971e-02
   -2.04945505e-02  -7.67303118e-03   2.95945853e-02   8.43079574e-03]
 [ -2.30028145e-02   8.25448148e-03   1.60217565e-03   2.32797349e-03
    2.98496638e-03  -1.05175879e-02  -7.45913386e-03  -1.05644362e-02
   -6.23836182e-03  -1.66659022e-03  -2.16508959e-03  -2.23022024e-03
    1.46606453e-02  -3.42752412e-03  -2.76606511e-02   6.64810836e-03]
 [ -1.72084663e-02  -5.73630678e-04   1.54683401e-03  -5.39028458e-03
    1.92031334e-03  -1.13889659e-02  -1.06570674e-02  -1.48226023e-02
   -1.66317634e-02  -1.34612934e-03   1.63818412e-02   1.37339476e-02
   -2.40837708e-02  -7.96215050e-03  -2.05869488e-02   2.44886372e-02]
 [ -2.19314341e-02   4.39333962e-03   2.01731152e-03  -3.38473869e-03
    2.33098678e-03  -1.55836316e-02  -1.38645666e-02  -1.69959161e-02
   -1.86878406e-02  -2.52587418e-03   1.96588766e-02   8.72544106e-03
   -1.99484155e-02  -5.74509008e-03  -2.97448486e-02   2.23684348e-02]
 [ -1.02807367e-02  -1.56111037e-02  -9.26708890e-05  -7.06970179e-03
    2.64667766e-03   8.55977368e-03   7.98173994e-03  -3.90569982e-03
    3.65413260e-03   4.34899051e-03  -2.67969966e-02   2.49171276e-02
    4.61783446e-03  -1.88954193e-02   9.35469102e-03   2.17228364e-02]
 [  5.69837354e-03   5.32635255e-03   5.41545625e-04  -7.49552448e-04
   -9.89340595e-04  -3.38817365e-03  -4.86431411e-03  -3.52502428e-03
   -6.82166405e-03  -6.08454878e-03   1.31740645e-02  -2.55635171e-03
   -1.16541060e-02   3.38509982e-03  -4.67933342e-03  -2.88486225e-03]
 [  5.44434823e-02   1.20221168e-01  -3.71521145e-01   1.12835109e-01
   -7.37807006e-02  -4.13142562e-01  -1.96090356e-01   1.84371024e-01
   -3.41812551e-01   2.22815514e-01  -2.71776438e-01   9.50821936e-02
    2.89179116e-01  -1.03972703e-01   5.69045171e-02  -1.04122497e-01]
 [ -1.98127985e-01   3.28222811e-01   1.17159761e-01  -2.57693101e-02
    9.30904523e-02  -2.79091001e-01  -4.01774228e-01  -2.22706780e-01
   -3.89312267e-01   2.50553936e-02   2.08563030e-01   2.27499470e-01
   -4.63079251e-02   3.89282614e-01   2.24804863e-01  -2.73217224e-02]
 [ -4.43471316e-03  -1.97556894e-02  -3.62370163e-02   5.73772797e-03
   -5.81071116e-02   1.82662964e-01   4.81151529e-02  -5.64990267e-02
   -3.23491633e-01   1.85670629e-02   1.06280511e-02   9.98074096e-03
   -2.23488919e-03  -2.87888441e-02  -6.73509156e-03  -7.62981246e-04]
 [ -1.52860135e-01  -1.28386077e-03  -7.06535811e-03  -3.21346343e-01
   -1.28870443e-01   5.80813348e-01  -5.99233024e-02  -8.19623377e-03
    2.28108726e-02  -7.45020986e-01   2.27259733e-02   1.67742483e-02
    3.71918865e-02  -9.59328115e-02  -4.88506928e-02   1.62549561e-03]
 [ -8.36431514e-04   1.03251986e-01  -2.18730032e-01   2.73622368e-02
   -3.75359058e-02   2.31665418e-01   1.99608907e-01  -1.00987293e-01
   -1.77535877e-01  -8.06954652e-02   1.68173835e-02  -3.64370011e-02
    6.83316514e-02  -5.68381511e-02   6.40108511e-02  -8.90553474e-01]
 [  1.22435011e-01   3.11120134e-02   9.84294433e-03  -5.29111475e-02
   -6.58487380e-02  -7.09452704e-02   1.36721777e-02   3.11285835e-02
   -7.03573301e-02   6.41514659e-02   1.08339734e-01  -8.52423787e-01
    3.02130971e-02   1.77944422e-01  -5.03225923e-02  -1.19141787e-01]
 [  1.52773023e-01   1.33971369e-03   7.07374141e-03  -6.78803205e-01
    1.28802747e-01   4.19202566e-01   5.98438978e-02   8.27639829e-03
   -2.28901766e-02  -2.55095661e-01  -2.23984923e-02  -1.68174170e-02
   -3.73276919e-02   9.59602743e-02   4.87799644e-02  -1.86020916e-03]
 [ -1.48765609e-01   3.07651013e-01  -2.72395760e-01   2.32431218e-01
    2.80894995e-01  -1.88214719e-01  -3.08031559e-01  -2.91286170e-01
   -2.01602146e-01  -4.49658372e-02   1.75047681e-01  -2.72200346e-01
    8.40659514e-02   4.29030806e-01  -5.79171218e-02   5.65768890e-02]
 [ -2.66568393e-01   8.29806179e-02   6.90946802e-02   1.11409627e-01
    1.42110616e-01  -2.94297248e-01   1.60866439e-01  -4.01480906e-02
   -1.91895902e-01  -1.88239053e-01  -2.60547906e-01  -1.59490019e-01
    5.38113475e-01  -1.07435815e-01   7.35713467e-02  -1.54162392e-01]
 [ -3.64983022e-01   6.71554357e-03   1.09663084e-01   2.94955261e-02
    1.79959256e-02  -1.35857582e-01   7.54625276e-02  -1.92773268e-01
   -1.20220311e-01   1.68682672e-02  -6.12749718e-03   1.57079697e-01
    3.20892930e-02   1.11554548e-01  -1.34911567e-01  -7.47843459e-02]
 [ -1.35085300e-01   9.39414948e-02  -1.82826295e-01  -1.59248561e-01
    2.11459965e-01  -1.92434222e-01  -4.82931793e-01  -1.00466721e-01
   -1.57522723e-01  -3.41854542e-02  -5.80748133e-02  -1.31981716e-01
    1.06643990e-01   1.46398479e-02   1.53972078e-02  -5.52441180e-02]
 [ -3.52309123e-02  -7.92067870e-02  -3.78365666e-02   1.13735031e-02
    8.89531225e-02   5.02212465e-01  -8.45403746e-02  -5.96369617e-03
   -2.67519414e-01   4.03480278e-03   1.46270189e-02  -9.77842212e-02
    2.98072696e-02  -1.25855356e-01  -4.84031700e-02   2.40511186e-02]
 [ -3.42222452e-02   3.70362550e-02  -1.16502903e-02   3.16817779e-03
    3.28120232e-01   1.00108139e-01   2.14572623e-02  -1.48651510e-01
   -1.84995502e-01   6.85283616e-02   6.93436563e-02   1.18573062e-01
   -9.92869437e-02   6.19359501e-02  -1.11687131e-01  -2.57761907e-02]
 [  1.98166996e-01  -4.95102815e-02   1.79061979e-01   6.27052039e-02
   -4.91909720e-02  -3.78092974e-02  -1.28508091e-01   8.63200128e-02
   -4.29331064e-02   1.29195333e-01   1.81425661e-01   1.59675226e-01
    3.23247351e-02   2.24127769e-01  -3.88594866e-02  -2.12101117e-01]
 [  1.22365586e-01  -5.60994679e-03   6.30819142e-01   9.80103388e-03
    5.67131303e-02   2.49916121e-01  -1.80504665e-01  -8.55425447e-02
    6.67104796e-02  -2.57494990e-02   1.91834465e-01   8.10730681e-02
   -2.57180911e-03  -8.59432388e-03  -2.89823741e-01  -1.44455165e-01]
 [ -1.96424425e-01   3.16945046e-01   2.82990307e-01   1.05480261e-01
    3.87665570e-01   1.94868982e-01   1.78592175e-01   2.01512799e-01
   -3.61630470e-01   7.43964687e-02   1.87451527e-01   3.50904539e-02
   -9.29884836e-02   1.06744140e-01  -5.63703477e-01  -3.06723952e-01]]
Bob
[[ -6.19763769e-02  -5.77647351e-02   1.35502955e-02  -1.10330053e-01
    1.90704837e-02   4.38638888e-02  -1.09928153e-01  -4.51192483e-02
    8.75154510e-02  -4.68818285e-02   8.78596827e-02   4.09775861e-02
   -7.73217948e-03   2.29749996e-02   6.64444685e-01  -1.06841095e-01]
 [ -5.21161258e-02  -3.23532820e-02  -6.90975562e-02  -6.50385022e-02
   -1.05835553e-02   5.69113642e-02  -6.72487095e-02  -1.06602229e-01
    5.05093709e-02  -5.54913692e-02   4.99250144e-02   7.32061118e-02
    1.85601171e-02  -6.11701012e-02   1.40277734e-02  -1.13612100e-01]
 [ -7.79728591e-02  -4.56345640e-03   1.28642097e-01  -7.85281882e-02
   -9.18774400e-03   2.88642570e-02  -8.44001547e-02  -4.12021652e-02
    6.21249788e-02  -6.92658722e-02   1.48102846e-02   3.90601461e-03
    6.83275703e-03  -6.91668913e-02   4.02731076e-03  -3.39499824e-02]
 [ -3.99912819e-02  -7.62023255e-02  -9.35706273e-02  -9.41449627e-02
   -1.56307518e-02   6.16487861e-02  -9.66146216e-02  -9.10384059e-02
    6.06031977e-02  -6.87023327e-02   4.20881175e-02   4.99205738e-02
    1.74644403e-02  -4.06397246e-02   1.19232703e-02  -5.62831946e-02]
 [ -7.34914094e-02  -5.03861532e-03   4.07429971e-02  -9.59966406e-02
   -5.80680836e-03   4.85092588e-02  -1.08514704e-01  -4.36324626e-02
    5.44885173e-02  -7.47221559e-02   4.18239832e-02   1.58761465e-03
    1.30276224e-02  -2.16812529e-02   1.68870669e-02  -9.18325707e-02]
 [ -4.33282852e-02  -2.78112870e-02  -5.47799729e-02  -7.94735849e-02
    2.18079090e-02   6.02493174e-02  -7.65131190e-02  -8.16670135e-02
    5.67497015e-02  -7.26982132e-02   8.30945373e-02   7.32597113e-02
    2.21176390e-02  -4.95959036e-02   1.67454556e-02  -9.46941003e-02]
 [ -9.84016955e-02  -4.98206727e-02  -1.98063049e-02  -8.17344263e-02
   -5.33821201e-03   1.93004478e-02  -8.12806264e-02  -2.49040276e-02
    6.26054555e-02  -1.04098402e-01   2.74436940e-02   2.36663152e-03
    1.50797246e-02  -3.02758403e-02   6.90359483e-03  -2.24012192e-02]
 [ -6.87044412e-02  -4.13994789e-02  -2.30849218e-02  -9.07969102e-02
   -1.69932395e-02   2.12123636e-02  -9.14888456e-02  -5.29072620e-02
    7.93938711e-02  -7.04426616e-02   9.90139917e-02  -5.88959120e-02
    2.27311105e-02  -1.13884218e-01   5.39189717e-03  -6.09692186e-03]
 [ -9.62463841e-02   4.32139821e-03  -1.48887470e-01  -8.81006345e-02
    9.42850113e-03   1.94514524e-02  -9.00543854e-02  -4.52288799e-02
    6.78137764e-02  -5.38294204e-02   7.33499601e-02  -2.22361442e-02
    9.99564398e-03  -5.31854443e-02   1.60040129e-02  -1.12226769e-01]
 [ -6.77765161e-02  -3.34555991e-02   2.08929554e-03  -5.70994951e-02
    4.59775664e-02   1.77615911e-01  -5.98815829e-02  -7.30956048e-02
    5.10252751e-02  -7.00131804e-02   7.35599473e-02  -1.79864205e-02
    2.44791284e-02  -2.42845975e-02  -2.32031322e-04  -5.72596341e-02]
 [ -1.05910778e-01  -1.77087694e-01  -1.08923741e-01  -8.32917094e-02
   -3.41319405e-02   3.56075615e-02  -8.55544433e-02  -6.58734068e-02
    5.22274710e-02  -6.20930493e-02   9.34836268e-03  -3.88711318e-02
    3.40399407e-02  -1.52011088e-03   3.32264341e-02  -6.54562237e-03]
 [ -5.47591895e-02  -1.01068392e-01  -4.11049314e-02  -8.25872645e-02
   -1.44838328e-02   3.64563055e-02  -8.29116255e-02  -1.16711885e-01
    8.31163079e-02  -1.14382572e-01   7.75335506e-02   3.85932885e-02
    3.63790803e-02  -1.26352370e-01  -1.16763564e-04  -1.67567434e-03]
 [ -3.19207981e-02  -2.28826433e-01  -4.47816122e-03  -9.41402465e-02
   -3.99658978e-02   5.92811592e-02  -8.70899484e-02  -5.38417362e-02
    4.74530980e-02  -4.45330553e-02   2.33912244e-02   5.15128765e-03
    3.31234150e-02   2.21859943e-02   4.33715694e-02   7.69431591e-02]
 [  1.71800740e-02  -9.43231061e-02  -1.19417220e-01  -7.42265135e-02
   -6.60927773e-01   7.37565979e-02  -6.46876916e-02  -8.42100307e-02
   -1.89274177e-02  -8.12284276e-02   7.89646432e-02   5.20820729e-02
   -2.31906008e-02  -8.95425454e-02   1.45837283e-02  -3.33931521e-02]
 [ -7.67799690e-02  -4.69223550e-03   1.16635477e-02  -6.61244169e-02
   -3.14706005e-03   3.92802209e-02  -6.90772757e-02  -6.96124062e-02
    6.38503581e-02  -4.87225018e-02   9.62440744e-02  -6.41089454e-02
    2.57623289e-02  -1.28564388e-01   4.67344094e-03  -5.04201576e-02]
 [ -5.25087118e-02  -6.23001009e-02  -1.30254149e-01  -8.01858231e-02
   -4.02869191e-03   5.15161864e-02  -8.35947990e-02  -1.06021613e-01
    5.08192033e-02  -4.91675474e-02   4.52415682e-02   2.24295780e-02
    2.44446602e-02  -6.40845969e-02   1.27995759e-02  -8.48442167e-02]
 [ -8.02985858e-03   3.58188748e-02   1.22564007e-02  -1.40463725e-01
   -9.45466012e-03   3.59502137e-02  -1.29799306e-01   4.35428321e-02
   -5.53143211e-03   3.01370546e-02  -4.42309976e-02  -6.84597716e-02
   -1.86046921e-02   2.61175763e-02   1.58877615e-02  -1.74537487e-02]
 [  4.36295150e-03   2.29151500e-03  -2.96535045e-02  -9.79092494e-02
   -2.47902349e-02   7.55288899e-02  -9.55003500e-02   5.60923479e-04
    7.96082988e-03   8.99759959e-03  -1.44868940e-02  -6.11840747e-02
   -8.67304672e-03   3.63498693e-03  -1.54203596e-02   2.73352070e-03]
 [  6.90719113e-03   2.03094003e-03  -1.98977590e-02  -1.01335518e-01
   -1.49953319e-02   1.02325575e-02  -9.94163677e-02   1.01804649e-02
   -5.69800427e-03   2.59258016e-03  -1.02187581e-02  -5.33962063e-02
    3.05059343e-03   4.95760376e-03   7.24420371e-03  -1.13324691e-02]
 [  1.31779099e-02  -1.19199948e-02  -4.06768359e-02  -9.81982797e-02
   -2.38720663e-02   2.89852489e-02  -9.94359925e-02  -6.65529398e-03
   -7.15984206e-04  -5.97120542e-03   8.18128174e-04  -5.82681224e-02
    7.65222218e-03  -3.90150049e-03  -5.13856858e-03  -4.34242794e-03]
 [  1.96943781e-03   7.38464575e-03  -9.20194108e-03  -7.78366625e-02
   -1.03178257e-02   1.75781175e-02  -7.48483762e-02   1.20707201e-02
   -2.72363937e-03   7.25843245e-03  -1.34128984e-02  -4.08988334e-02
   -2.70059914e-03   7.14069791e-03   4.53199726e-03  -7.74683943e-03]
 [  1.73529144e-02  -2.47334149e-02  -5.75618669e-02  -7.91942179e-02
   -3.07376627e-02   5.29856086e-02  -8.34958404e-02  -2.46654414e-02
    6.46444922e-03  -1.32459477e-02   1.18689006e-02  -5.53158671e-02
    9.79462545e-03  -1.27556836e-02  -2.04417277e-02   5.58268838e-03]
 [  2.03555189e-02  -2.67042890e-02  -5.58011532e-02  -8.85062888e-02
   -2.70445943e-02   1.53755834e-02  -9.34956893e-02  -2.02000141e-02
   -1.79438782e-03  -1.82461031e-02   1.52762039e-02  -5.51301241e-02
    1.79858599e-02  -1.28080696e-02  -7.31982430e-03  -3.10262898e-03]
 [  2.27295049e-03   7.43533671e-03  -7.76040927e-03  -7.78953582e-02
   -9.03702900e-03   9.15983692e-03  -7.49987885e-02   1.34040825e-02
   -4.45956225e-03   6.44895434e-03  -1.29565643e-02  -3.97366807e-02
   -1.21744489e-03   7.29776127e-03   7.49610364e-03  -9.55709442e-03]
 [  1.23638567e-02  -1.65003333e-02  -4.73918729e-02  -7.38284513e-02
   -2.79381629e-02   6.37696162e-02  -7.61583224e-02  -1.86944138e-02
    8.58569145e-03  -6.07828982e-03   4.50131204e-03  -5.19773029e-02
    2.85354559e-03  -8.27606767e-03  -2.14459728e-02   6.94715371e-03]
 [  1.43552264e-02  -1.60969105e-02  -3.78298387e-02  -7.73616657e-02
   -1.88851636e-02   4.81550768e-03  -8.00488442e-02  -9.25966632e-03
   -3.84448841e-03  -1.13879424e-02   7.67458696e-03  -4.49890345e-02
    1.30553255e-02  -6.66547706e-03  -5.60431508e-04  -5.95131656e-03]
 [  8.75944179e-03  -6.42508548e-03  -2.98196655e-02  -7.92649165e-02
   -1.88133195e-02   3.02596111e-02  -7.94574693e-02  -3.21168010e-03
    6.34227355e-04  -1.78200915e-03  -2.48594792e-03  -4.71872874e-02
    3.13725928e-03  -1.33126776e-03  -5.20275766e-03  -2.65850150e-03]
 [  2.25733072e-02  -3.04987170e-02  -5.17152920e-02  -7.60225058e-02
   -2.06057671e-02  -2.42740139e-02  -8.22783560e-02  -1.94264483e-02
   -8.79797153e-03  -2.48434320e-02   2.21637227e-02  -4.38289754e-02
    2.63862330e-02  -1.48149431e-02   3.50122852e-03  -9.10558831e-03]
 [  1.17034893e-02  -4.94319713e-03  -1.69218220e-02  -9.22414511e-02
   -7.02922978e-03  -5.17295487e-02  -9.25168917e-02   1.15216048e-02
   -1.72852539e-02  -8.58659949e-03   5.91452757e-04  -4.14226763e-02
    1.73608102e-02   1.65417988e-03   2.48586219e-02  -2.18314137e-02]
 [ -1.50003983e-02   4.59138602e-02   3.76149900e-02  -1.06443636e-01
    4.98892553e-03   4.91152052e-03  -9.41732228e-02   5.48652261e-02
   -9.94473789e-03   3.46261784e-02  -4.82604802e-02  -4.36699018e-02
   -2.10845806e-02   3.14158015e-02   2.73157787e-02  -2.14512330e-02]
 [ -5.78241830e-04   1.86860636e-02   4.85262499e-05  -1.12997964e-01
   -8.77390243e-03   7.64783937e-03  -1.06983699e-01   2.81206872e-02
   -8.15353729e-03   1.46475332e-02  -2.53358912e-02  -5.46576530e-02
   -5.37768425e-03   1.53606478e-02   1.59892607e-02  -1.65176839e-02]
 [  1.04789222e-02  -2.86150095e-03  -3.30959819e-02  -1.20962575e-01
   -2.27274224e-02   2.66652033e-02  -1.19843118e-01   4.82228864e-03
   -3.44277057e-03   5.57608437e-04  -8.65464099e-03  -6.72672838e-02
    4.08718316e-03   2.40825536e-03   1.52299786e-03  -9.44911689e-03]
 [ -1.54239461e-02   2.82931942e-02  -2.02240348e-01   9.09678414e-02
   -7.70889446e-02   9.84900370e-02  -7.93452263e-02  -1.14963800e-02
   -4.52276021e-02   4.08771008e-01  -2.09810417e-02  -4.24820073e-02
    3.95230018e-02  -9.44769681e-02  -7.50423372e-02   1.93579137e-01]
 [  8.47393498e-02   1.04932383e-01  -1.60214603e-01   6.26593679e-02
    4.24627550e-02   6.95210765e-04   9.51791406e-02  -1.37130901e-01
    1.43738359e-01   2.24307641e-01   8.50522965e-02  -2.18343884e-01
   -2.02472851e-01  -1.89300328e-01  -1.14404388e-01  -1.43344983e-01]
 [  8.27533007e-02  -7.14455470e-02  -1.29300401e-01   1.48275733e-01
   -1.27431154e-01   9.53316409e-03   5.70140854e-02   8.24911892e-03
   -7.83684924e-02   7.48733580e-02  -3.37294936e-02   5.63456751e-02
    9.89003479e-02  -3.70858125e-02   4.81403559e-01  -2.56625026e-01]
 [  1.63842202e-03  -1.96692675e-01  -3.74159366e-01  -2.28597447e-01
    1.41940549e-01  -3.32409084e-01   1.68605328e-01   1.10498801e-01
   -2.44102955e-01   1.99730799e-01  -9.71198361e-03  -1.09031513e-01
    6.62786439e-02   2.13352010e-01   1.21771164e-01  -4.16663736e-02]
 [  3.28377932e-02  -1.78264752e-02  -1.26964375e-01  -2.11923141e-02
    9.74808913e-03  -1.01448530e-02  -1.48109719e-01   1.18505292e-01
    1.55368056e-02  -1.17127523e-01   3.80035564e-02   1.51984328e-02
   -3.81334186e-01  -1.03427768e-01  -2.06904095e-02  -1.52166402e-02]
 [ -1.49602685e-02   3.80772613e-02  -1.21847689e-01   7.98589438e-02
   -3.32039446e-02   1.23663060e-02   9.67736617e-02  -2.07840297e-02
   -6.88541085e-02   2.82934368e-01  -1.23505481e-02   1.39586078e-02
   -4.94434917e-03   2.27728169e-02  -3.48855518e-02  -3.75710018e-02]
 [ -4.75458503e-02  -2.04389796e-01  -4.86734748e-01   5.26742153e-02
   -2.45792359e-01   3.42313647e-02   7.22808093e-02  -1.74296394e-01
   -5.23722805e-02  -4.92973626e-03   5.52537106e-02  -1.66779846e-01
    8.03821832e-02  -1.85004115e-01  -2.47945085e-01   7.40196034e-02]
 [  1.55755952e-01  -6.27843857e-01  -3.18854094e-01   1.38872862e-02
    1.36790693e-01  -1.15885042e-01  -7.42085651e-02  -5.08051626e-02
   -4.24885228e-02   4.08745743e-02   3.39135826e-01  -2.18840688e-01
   -6.85684606e-02  -1.81513593e-01  -1.68806866e-01  -2.02910602e-02]
 [  1.53869996e-02   4.77823950e-02   7.51234144e-02   1.49991876e-02
   -7.54530914e-03   1.61428824e-02   2.92637013e-02   1.80782489e-02
   -3.15382518e-02   6.46935310e-03  -2.15712916e-02  -5.01270518e-02
   -5.80154359e-02   2.58199498e-02  -1.59407537e-02   3.56518924e-02]
 [  5.95291238e-03  -1.65227920e-01  -1.89940277e-02   7.85718918e-01
   -3.20746392e-01   2.33311485e-02   2.29242593e-01   6.60326779e-02
   -1.07789852e-01   2.63828814e-01  -7.08879679e-02   3.60010177e-01
    5.98105378e-02  -2.65303582e-01   3.08951765e-01  -1.79334760e-01]
 [ -5.78873336e-01   4.39435132e-02  -1.12463176e-01  -6.17097244e-02
   -9.41995531e-02  -3.99463177e-02   1.22266356e-02  -3.14126872e-02
    2.98590600e-01   7.47782439e-02   4.43440154e-02  -4.03386950e-02
    5.77963656e-03  -6.03565015e-02  -7.24573508e-02   1.94922075e-01]
 [  1.88846096e-01   8.40992555e-02  -1.61192000e-01  -2.17075810e-01
   -1.86225265e-01   6.83946550e-01  -7.85032138e-02  -2.98507124e-01
    5.04394658e-02   1.27521470e-01   1.50999323e-01  -1.19035840e-01
   -1.30446881e-01  -2.92557627e-01   1.84377313e-01  -1.63902774e-01]
 [  2.72781581e-01   5.50938100e-02  -1.85663700e-01  -1.76233277e-02
    7.74447620e-02  -7.14321584e-02   8.23754519e-02  -7.74852335e-02
   -6.52791798e-01   1.98792726e-01   2.03616872e-01  -6.51715621e-02
   -7.08533823e-02   2.49959296e-03   1.19935710e-03   8.99646878e-02]
 [  3.92010659e-01   4.49628942e-02  -1.17911048e-01  -1.15789324e-01
   -2.31234357e-01   1.47305429e-01  -6.60034865e-02  -5.88452220e-01
   -1.55808941e-01   2.83549339e-01   1.27718002e-01  -2.61582911e-01
    1.51211455e-01  -3.30497958e-02  -8.26254338e-02   1.49403870e-01]
 [  2.15251595e-02  -7.75641948e-02  -2.18173802e-01   7.81349093e-02
    1.06868297e-01   8.90560374e-02  -1.49581477e-01   1.52394399e-01
    1.02223083e-01  -3.43526930e-01   2.00123444e-01  -2.59459525e-01
    1.63874358e-01  -1.51085973e-01   6.72587827e-02  -7.10961163e-01]
 [  1.29311964e-01   2.83247884e-02  -2.84387678e-01  -1.37625262e-01
    5.45438707e-01   2.95767710e-02   1.25517964e-01  -5.30912690e-02
   -1.75790861e-01  -7.30081424e-02  -1.61423662e-03  -1.51433319e-01
    2.70058843e-03   6.52588345e-03   1.08926632e-01  -1.39207736e-01]]
Eve
[[  1.45853072e-01  -4.63475019e-01  -1.34785903e+00  -2.09477901e-01
    1.40160583e-02   3.06600183e-01   3.84137958e-01   1.20825537e-01
   -4.88461137e-01  -3.22722048e-01   1.03440009e-01   5.75748205e-01
    6.30938336e-02   3.14942271e-01   4.71294284e-01  -6.72764480e-02]
 [ -8.64813551e-02  -5.57309628e-01   1.57518238e-01  -1.78126425e-01
   -2.40549818e-02   5.14518738e-01   6.16927803e-01   1.06582269e-01
   -6.23834670e-01  -1.46572217e-01  -3.17259990e-02   3.17297518e-01
    6.38164505e-02   5.02610505e-01   4.61828798e-01  -5.09257019e-02]
 [  1.23725040e-02  -6.64378822e-01   2.97966581e-02  -1.58627495e-01
   -5.25403321e-02   4.84209567e-01   8.12979817e-01   7.66448975e-02
   -1.85485825e-01  -2.23890290e-01  -2.97722518e-02   1.68968230e-01
   -1.65623371e-02   7.65506446e-01   2.32309058e-01   1.41679198e-01]
 [ -2.02120729e-02  -6.00184560e-01   8.20234865e-02  -1.44430384e-01
    1.20950863e-02   5.01097798e-01   6.17345333e-01   2.33437866e-01
   -5.56503117e-01  -1.01803012e-01  -9.39884037e-03   2.32921660e-01
    5.34183122e-02   5.71680307e-01   3.29257131e-01  -4.41712625e-02]
 [  3.38413902e-02  -6.60172284e-01   7.74569511e-02  -1.41661659e-01
   -7.47434124e-02   4.18502152e-01   5.78355730e-01   1.10116094e-01
   -3.24238062e-01  -2.14274853e-01  -5.56844622e-02   2.80376494e-01
    5.90587221e-03   5.93031526e-01   3.32623839e-01   6.43202513e-02]
 [ -4.53925431e-02  -6.92110240e-01   1.21892400e-01  -1.96887627e-01
   -2.65777186e-02   6.12542450e-01   6.52337551e-01   6.81997761e-02
   -6.01407111e-01  -1.55600175e-01   5.68874227e-03   3.63062680e-01
    5.65746315e-02   6.92448556e-01   4.27823186e-01  -9.04726982e-02]
 [  9.78107750e-02  -5.79935789e-01   2.80001350e-02  -1.64872110e-01
   -1.94944385e-02   3.52504998e-01   6.10910952e-01   2.08170250e-01
   -3.72923076e-01  -1.30368322e-01  -1.52406439e-01   1.47250503e-01
   -1.90286357e-02   6.26230955e-01   1.33079231e-01   7.63488933e-02]
 [ -8.96803439e-02  -3.65370303e-01  -2.45189276e-02  -1.60646364e-01
    6.49265647e-02   2.18337506e-01   5.04374325e-01   1.05856510e-03
   -2.84445196e-01  -1.39533922e-01  -1.25654742e-01   1.12660145e-02
    1.09937884e-01   6.49033785e-01   8.29788148e-02   3.90249304e-02]
 [ -8.51210505e-02  -2.51563728e-01   1.43964961e-01  -1.69351786e-01
    3.52132432e-02   1.22850209e-01   2.72123009e-01  -2.52549741e-02
   -6.24521255e-01  -1.05997995e-01  -2.13473782e-01   1.15587018e-01
    1.48636132e-01   3.02398682e-01   2.79791564e-01  -1.18956022e-01]
 [  1.46981636e-02  -5.69713295e-01   1.58242919e-02  -1.52492315e-01
   -9.83597711e-02   3.50025862e-01   4.28505063e-01   1.72069684e-01
   -3.08456689e-01  -2.08598450e-01  -8.19188431e-02   3.75721157e-01
   -3.81183885e-02   5.16527474e-01   2.97800094e-01  -1.11614384e-01]
 [ -2.64707822e-02  -3.54984105e-01   1.58062465e-02  -5.68986572e-02
    5.86113036e-02   3.07902992e-02   2.75049478e-01   7.76250899e-01
   -4.46763605e-01  -8.06139410e-02  -2.48677060e-01   2.11744010e-02
    6.19341955e-02   3.40040058e-01   2.70710699e-02   1.02463849e-02]
 [ -3.19978856e-02  -7.23208427e-01   1.07869152e-02  -2.21090585e-01
    3.74136791e-02   6.31105304e-01   9.65649128e-01   1.52140602e-01
   -4.88393068e-01  -1.53069928e-01  -3.14169340e-02   1.81349084e-01
    3.39129195e-02   9.19556141e-01   2.49163255e-01   2.82709338e-02]
 [ -1.55668007e-02  -6.50706351e-01  -1.08627513e-01  -2.89552536e-05
    8.03217366e-02   3.24419856e-01   4.31815922e-01   9.53539252e-01
   -2.32603177e-01  -5.90332597e-02   5.14878333e-03   7.54419267e-02
    3.73854898e-02   6.99869871e-01  -5.48263639e-02   8.44906792e-02]
 [ -1.88167039e-02   4.86497015e-01  -3.30530316e-01  -6.85839579e-02
    4.12004665e-02  -1.33680418e-01  -5.54129243e-01  -7.86009133e-02
    2.81390771e-02  -3.41305807e-02  -1.48396641e-01   1.12233691e-01
   -1.34294471e-02  -5.81104219e-01  -5.89191075e-03   1.27668619e+00]
 [ -1.52741566e-01  -2.68381029e-01   2.54784431e-02  -1.67108849e-01
    2.03175992e-02   1.54114008e-01   4.48221862e-01  -8.62437040e-02
   -2.62868941e-01  -1.85060486e-01  -1.48646012e-01   7.72577673e-02
    1.02242485e-01   5.08924961e-01   1.77050784e-01   5.32871624e-03]
 [ -1.01730272e-01  -3.69123399e-01   1.26229018e-01  -1.44336760e-01
    2.36855112e-02   3.12714845e-01   4.69226807e-01   1.70339957e-01
   -5.94303191e-01  -9.48929340e-02  -8.84990618e-02   1.89638644e-01
    8.91424343e-02   3.53617817e-01   3.39614511e-01  -1.22284785e-01]
 [ -8.02388012e-01   8.11125059e-03  -1.61465436e-01  -1.08583950e-01
    9.92383808e-02   3.21461439e-01   1.95170775e-01  -2.08850190e-01
    1.06133036e-01  -2.51482189e-01   5.87611832e-02   2.76882350e-01
   -3.82867932e-01  -3.38299274e-01  -7.59322286e-01   5.82647443e-01]
 [  1.20982863e-01  -3.15365545e-03   1.09072462e-01  -7.24891275e-02
    8.91137198e-02  -3.30321610e-01  -8.29562470e-02   1.44904464e-01
   -2.14757472e-01  -7.56205618e-02   2.84562916e-01   2.14733019e-01
    1.79416105e-01   4.59015071e-02   5.49415171e-01   1.20266825e-01]
 [ -1.26269072e-01   1.72719195e-01  -6.91952705e-01   5.02286740e-02
    3.67668644e-02  -5.56455925e-02  -1.46602690e-01   2.50138398e-02
   -1.17762178e-01  -1.44331113e-01  -5.27957529e-02   2.73653388e-01
    8.22219253e-02  -1.27878323e-01   1.51582658e-01   1.08283110e-01]
 [ -3.25415343e-01   4.12115186e-01  -2.89970368e-01   5.70955803e-04
    1.09856250e-02  -4.90424007e-01  -4.82357591e-01   1.63531378e-01
   -1.10398769e-01   2.02713564e-01  -3.54347825e-01  -8.60449910e-01
   -5.33511758e-01  -3.62292796e-01  -1.44740209e-01  -4.81422126e-01]
 [ -1.46149009e-01   5.62208235e-01   4.96070683e-02   3.26106757e-01
   -3.70191759e-03  -2.23092571e-01  -6.14315510e-01   1.40241072e-01
    7.66076222e-02   4.87773508e-01  -2.31627807e-01  -4.57456142e-01
   -3.27440947e-01  -7.20909178e-01  -1.31209657e-01  -1.55247346e-01]
 [ -4.07817096e-01  -1.29203990e-01  -2.85724606e-02  -1.74607206e-02
    7.96775445e-02   2.30059415e-01   1.45746469e-01  -1.23776518e-01
    1.14508815e-01   2.32126880e-02  -3.29177678e-01   3.77198979e-02
    1.09999083e-01   1.59874037e-01  -9.27513093e-02  -5.37028313e-02]
 [  2.02011555e-01   6.16933167e-01   4.44772243e-01   6.90404624e-02
    7.27417246e-02  -3.43102038e-01  -3.40289921e-01   1.89923644e-01
   -2.93271482e-01  -9.70307589e-02   2.29073107e-01  -1.46338744e-02
   -3.25250417e-01  -2.45002419e-01   3.48077714e-01   4.81706768e-01]
 [  9.21505764e-02   1.20874792e-01   2.21394002e-01  -5.09857647e-02
   -7.44740143e-02  -1.33781463e-01   6.14853315e-02   3.09480995e-01
   -2.65533745e-01  -7.53464848e-02   1.58387758e-02  -1.35336637e-01
   -1.27426103e-01   2.15747021e-02   2.45616511e-01  -1.07928053e-01]
 [ -1.39044270e-01  -1.26595706e-01  -2.55753726e-01  -1.55576766e-01
    7.55819678e-02   2.67980516e-01   4.87513654e-02  -6.14258312e-02
    1.44484594e-01  -3.42191070e-01   1.15242191e-01   8.54814425e-03
   -4.23232853e-01   3.57499033e-01   1.24278918e-01  -2.41463989e-01]
 [ -1.48449719e+00   1.06935613e-01  -9.04748499e-01  -2.48432636e-01
   -3.18218708e-01   4.01854664e-01   8.63899529e-01   1.38266587e+00
   -1.05413067e+00  -1.98710084e+00   1.44214571e-01  -1.97443902e-01
    3.29969898e-02   9.46871698e-01   1.22074366e+00   1.36678314e+00]
 [ -3.82764190e-02   1.73070148e-01  -5.15251048e-02   2.02129669e-02
    9.05624852e-02   5.05802333e-02  -3.39046866e-02  -6.53017983e-02
    2.46240467e-01   3.19782555e-01  -9.38878477e-01  -3.39535564e-01
    6.01337194e-01  -4.30441871e-02  -1.42124623e-01  -6.08861819e-02]
 [ -2.00761139e-01   6.04648054e-01  -4.43259537e-01   4.11840975e-01
    1.26449361e-01  -4.29181546e-01  -4.01567519e-01  -4.53539282e-01
    2.07314435e-02   5.02288342e-01   4.30440426e-01   8.65887642e-01
    3.14512819e-01  -7.22016871e-01   2.34212980e-01   5.01510382e-01]
 [ -3.36518943e-01  -1.47139039e-02   8.65497999e-03  -1.22848496e-01
    1.66613996e-01  -2.63137370e-01  -3.04245204e-01   6.80929944e-02
   -4.52281475e-01   2.44040892e-01   8.71899724e-01  -3.65140945e-01
   -1.16636157e+00  -2.17233464e-01  -6.23297207e-02  -4.39220637e-01]
 [ -5.71107984e-01   5.34057081e-01   3.50790061e-02   2.43417352e-01
   -1.15029630e-03  -2.33936533e-01  -5.82594872e-01  -3.48657101e-01
    2.47991651e-01   2.09446535e-01   5.04279494e-01   6.79445446e-01
   -3.71852905e-01  -6.94994092e-01  -2.45454460e-02   2.56569207e-01]
 [  5.63791096e-01   4.66290623e-01  -2.64882177e-01   1.22528151e-01
   -6.19931445e-02  -4.17716324e-01  -4.15566444e-01   4.82208520e-01
   -3.58204335e-01  -1.04949020e-01   1.32605225e-01   2.01465786e-01
    3.05030257e-01  -2.56925344e-01   1.02442408e+00  -2.37546384e-01]
 [  3.72643948e-01  -3.76116574e-01  -3.82853001e-01  -1.08373843e-01
   -1.05474763e-01  -1.41203403e-01  -7.19703063e-02  -1.64495828e-03
   -1.78276971e-01   4.67228532e-01   1.37783244e-01  -5.04537933e-02
   -4.99389350e-01   2.95799792e-01   1.66624531e-01  -7.12080061e-01]
 [ -5.83358072e-02   9.94352460e-01   2.48556212e-01   1.91388547e-01
    1.75615698e-01  -5.02948403e-01  -1.23798966e+00  -2.36068517e-01
    2.01474696e-01   1.77265897e-01  -6.91525400e-01   2.77435333e-01
    5.88694692e-01  -9.86148417e-01  -1.91928938e-01  -4.43616897e-01]
 [  7.44598210e-02   7.59949684e-01  -6.69470802e-02   1.76897913e-01
   -1.64831951e-01  -3.85173380e-01  -8.74763012e-01   4.35241550e-01
   -5.08845150e-01   2.12362241e-02   1.63793966e-01  -9.84954312e-02
    8.56125075e-03  -8.71157110e-01  -1.73842460e-01  -2.70177692e-01]
 [  1.30209282e-01  -1.23611557e+00   3.58237065e-02   3.21366377e-02
   -2.21628517e-01   5.75663030e-01   1.02370894e+00   3.56258214e-01
   -1.21866059e+00  -2.68795520e-01   2.53505021e-01   3.30498934e-01
    1.73915476e-02   1.05734301e+00   1.09363735e-01   7.27556705e-01]
 [  2.43080959e-01  -9.87577677e-01  -3.55430730e-02  -1.11209512e+00
    7.75297955e-02   1.30824208e+00   9.66505885e-01   2.76340634e-01
   -1.42800704e-01  -1.35444546e+00   2.42799535e-01  -2.33887225e-01
    8.97793919e-02   1.03602135e+00   5.15211895e-02  -1.55183211e-01]
 [  9.43578556e-02  -1.21831155e+00   2.31835276e-01  -4.44095135e-02
   -4.93862964e-02   8.40196073e-01   1.18891180e+00   3.99227619e-01
   -5.08057177e-01   6.14468381e-02   4.80437726e-02   1.71919018e-01
   -1.31609440e-01   1.28222203e+00   7.73535296e-02   1.10018981e+00]
 [ -2.13515535e-01  -8.90654922e-02   2.20965594e-01  -3.50141712e-02
    3.46404672e-01  -2.08990484e-01   2.32388631e-01  -1.02617979e-01
   -1.15982644e-01   6.54308572e-02  -6.70157149e-02   1.40589833e+00
    1.88302308e-01  -2.57461201e-02  -2.09703654e-01   2.51211852e-01]
 [ -2.30412647e-01  -1.10621047e+00  -7.06142485e-02  -1.15282321e+00
   -7.79307932e-02   9.35355306e-01   1.11253190e+00  -1.16524681e-01
   -2.17711359e-01  -9.12316382e-01  -1.61108449e-01   4.28836614e-01
   -1.47573650e-01   9.91273582e-01   5.77244274e-02   2.39775136e-01]
 [  4.22217995e-01   1.23681355e+00   2.93575823e-01   7.87313282e-02
   -2.17435494e-01  -6.66673303e-01  -1.18442500e+00   2.76152492e-01
   -6.14280105e-02   9.47913155e-02   6.68186396e-02   3.76906067e-01
    1.45307720e-01  -1.33975732e+00  -3.15381050e-01   4.61357422e-02]
 [  1.69422328e-01   1.29810202e+00   1.41109109e-01   2.63888896e-01
    1.97532222e-01  -6.82663023e-01  -1.26187062e+00   1.24933526e-01
   -3.08380350e-02   9.37613323e-02  -2.15156049e-01   8.52745891e-01
    9.23193455e-01  -1.67356169e+00  -2.43923083e-01   2.01597624e-02]
 [  3.95020425e-01   5.96190512e-01   7.50256702e-02   7.39946514e-02
   -1.75492585e-01  -1.94547713e-01  -7.01349974e-01   4.90359962e-01
   -2.91480452e-01   1.14254549e-01  -2.33941842e-02  -7.22937644e-01
    2.67194092e-01  -5.88049591e-01  -1.49935735e-02   3.62275690e-02]
 [  5.35743713e-01   1.12123370e+00   2.20056728e-01  -2.32426226e-02
   -1.42207041e-01  -4.35717940e-01  -1.28030503e+00   1.46250173e-01
    8.24786574e-02   1.16925403e-01  -9.88139436e-02  -1.55873373e-01
    2.36392878e-02  -1.33441710e+00  -2.58075327e-01  -2.90825337e-01]
 [  6.01694509e-02  -2.17892241e+00  -1.25882402e-01  -9.16873068e-02
   -1.58089131e-01   9.68128800e-01   2.34813929e+00   1.83270410e-01
   -8.69134784e-01   6.85640574e-02   2.63947457e-01   6.69325590e-01
   -8.61232430e-02   2.19415426e+00   3.31639320e-01   6.47763982e-02]
 [  2.59776443e-01  -5.11076331e-01  -1.01142891e-01   4.27067280e-02
   -4.57910031e-01   2.13375688e-01   1.20959515e-02   6.97350681e-01
   -7.39454269e-01  -1.14324674e-01   6.14124358e-01  -5.98146558e-01
   -2.19870910e-01   1.92313209e-01   4.38854992e-01   2.55620718e-01]
 [  2.44507939e-03   7.85810649e-01  -2.07059644e-02   8.77494439e-02
   -1.58242479e-01  -2.57708609e-01  -6.54900789e-01  -7.69441656e-04
    3.91313396e-02  -5.08409888e-02  -1.30969202e-02  -2.40724623e-01
    5.67584746e-02  -8.27701926e-01   7.41158128e-02   7.50157610e-02]
 [ -2.04590216e-01  -7.31786072e-01  -1.11484277e+00  -1.35093734e-01
   -1.18240744e-01   6.07613623e-01   6.20513618e-01   2.64031798e-01
   -9.35112908e-02  -3.06318644e-02   1.04843840e-01  -3.78084838e-01
   -1.72068313e-01   8.77579629e-01   4.80799645e-01   2.89930582e-01]
 [  3.40878278e-01  -7.55486667e-01  -8.82328868e-01   2.38353163e-01
    6.55158386e-02   3.10465097e-01   1.01431739e+00  -4.24169987e-01
   -1.04041964e-01   2.72342086e-01  -2.16035828e-01  -7.66221225e-01
   -7.43344352e-02   8.94921064e-01   5.32715142e-01   3.52666259e-01]]