Alice
[[ -3.11900722e-03   2.49297218e-03   2.27709441e-03  -2.73550930e-03
   -2.30887928e-03  -3.03690461e-03   6.52584620e-03  -2.84239207e-03
   -2.18779291e-03   2.09988266e-01   2.69503519e-03   2.31848052e-03
   -2.83507910e-03  -2.66431528e-03  -2.05418700e-03  -2.75335927e-03]
 [ -3.16328206e-03   2.57588946e-03   2.33940245e-03  -2.81185727e-03
   -2.38263258e-03  -3.35567025e-03   6.60885032e-03  -2.86246301e-03
   -2.25656200e-03   2.07066193e-01   2.75586755e-03   2.38484074e-03
   -2.87963706e-03  -2.71659694e-03  -2.10862723e-03  -2.79513909e-03]
 [ -3.10460455e-03   2.50598392e-03   2.30831117e-03  -2.75232457e-03
   -2.39895773e-03  -3.13571375e-03   6.07195823e-03  -2.83901137e-03
   -2.21778336e-03   2.07124531e-01   2.71234009e-03   2.39872350e-03
   -2.86274217e-03  -2.72957003e-03  -2.07857322e-03  -2.79423082e-03]
 [ -3.02979187e-03   2.44761072e-03   2.27598194e-03  -2.68983003e-03
   -2.28856388e-03  -3.04452982e-03   5.91084734e-03  -2.76902644e-03
   -2.14541424e-03   2.06696197e-01   2.65276944e-03   2.30354420e-03
   -2.77562952e-03  -2.61282013e-03  -1.98821677e-03  -2.69749411e-03]
 [ -3.14346841e-03   2.60742684e-03   2.34166579e-03  -2.78901192e-03
   -2.35086051e-03  -3.34046595e-03   6.22080546e-03  -2.84359697e-03
   -2.27865460e-03   2.07250088e-01   2.71693268e-03   2.31909845e-03
   -2.87034386e-03  -2.66109291e-03  -2.11602985e-03  -2.74637737e-03]
 [ -3.14151729e-03   2.58796010e-03   2.32728710e-03  -2.79942155e-03
   -2.36517587e-03  -3.23654362e-03   6.48794090e-03  -2.83088256e-03
   -2.27477937e-03   2.08712608e-01   2.72143632e-03   2.37255078e-03
   -2.87567731e-03  -2.70915776e-03  -2.07541860e-03  -2.76495120e-03]
 [ -3.12389689e-03   2.51645292e-03   2.29588780e-03  -2.76593398e-03
   -2.39826343e-03  -3.11938650e-03   6.56188419e-03  -2.82657146e-03
   -2.29261746e-03   2.08799303e-01   2.71900254e-03   2.37623299e-03
   -2.86860531e-03  -2.70356797e-03  -2.14283774e-03  -2.79779197e-03]
 [ -3.04289837e-03   2.40809587e-03   2.16513197e-03  -2.67616333e-03
   -2.30235094e-03  -3.01976362e-03   6.24745898e-03  -2.73253582e-03
   -2.19459832e-03   2.07068622e-01   2.63381936e-03   2.30897800e-03
   -2.75357789e-03  -2.64345505e-03  -2.00715032e-03  -2.73349369e-03]
 [ -3.46458168e-03   2.87571736e-03   2.64119240e-03  -3.10395169e-03
   -2.64061103e-03  -3.70730646e-03   6.87177852e-03  -3.15610738e-03
   -2.52750376e-03   2.06671089e-01   3.04288417e-03   2.66394950e-03
   -3.15950229e-03  -2.99181254e-03  -2.34545185e-03  -3.08622210e-03]
 [ -1.73894095e-03   4.51473519e-03   5.87761495e-03  -2.92711006e-03
   -5.12234634e-03  -2.77774944e-03  -2.85802186e-02  -1.67910662e-03
   -6.12704223e-03   2.15222776e-01   3.92473675e-03   5.01603354e-03
   -2.90121650e-03  -4.17071069e-03  -5.99298393e-03  -3.59438267e-03]
 [ -3.08636529e-03   2.50705495e-03   2.28470657e-03  -2.74464977e-03
   -2.33564619e-03  -3.19547975e-03   6.32323045e-03  -2.80156801e-03
   -2.21362012e-03   2.08833590e-01   2.67455354e-03   2.32792902e-03
   -2.82254023e-03  -2.66689761e-03  -2.07358343e-03  -2.75291596e-03]
 [ -3.24240443e-03   2.58702715e-03   2.35222001e-03  -2.86783837e-03
   -2.41053430e-03  -3.34929535e-03   6.68976549e-03  -2.93467380e-03
   -2.29848968e-03   2.08044708e-01   2.79653305e-03   2.43681925e-03
   -2.92414217e-03  -2.77980394e-03  -2.12252582e-03  -2.86044879e-03]
 [ -2.98099010e-03   2.43680179e-03   2.19714479e-03  -2.66292947e-03
   -2.19946750e-03  -3.13055539e-03   5.78122726e-03  -2.68892478e-03
   -2.11187452e-03   2.07433254e-01   2.58222083e-03   2.19856645e-03
   -2.71468097e-03  -2.53767404e-03  -1.94870727e-03  -2.58236285e-03]
 [ -1.89591711e-03   4.64720419e-03   6.13641972e-03  -3.07967560e-03
   -5.39566157e-03  -2.71528354e-03  -2.95029059e-02  -1.86870666e-03
   -6.32781256e-03   2.12796777e-01   4.09350684e-03   5.27878897e-03
   -3.15489899e-03  -4.39909520e-03  -6.22703927e-03  -3.82454577e-03]
 [ -3.14571732e-03   2.55539455e-03   2.26896652e-03  -2.81092152e-03
   -2.36658030e-03  -3.29891150e-03   5.98201016e-03  -2.84092757e-03
   -2.24725413e-03   2.05141023e-01   2.76229554e-03   2.37699412e-03
   -2.85228202e-03  -2.71303300e-03  -2.04849569e-03  -2.78376602e-03]
 [ -3.01997480e-03   2.41974299e-03   2.10932340e-03  -2.65264581e-03
   -2.18738546e-03  -3.14989570e-03   5.93555113e-03  -2.69393600e-03
   -2.10112170e-03   2.06442982e-01   2.58803298e-03   2.20215553e-03
   -2.71404232e-03  -2.56141578e-03  -1.90707867e-03  -2.62843817e-03]
 [ -1.88078332e+00   1.97092855e+00   1.45421028e+00  -2.06720924e+00
   -1.80515313e+00  -2.95818257e+00   1.49891663e+00  -1.55476141e+00
   -1.76253426e+00  -2.28050733e+00   1.35532010e+00   1.66790867e+00
   -1.71522963e+00  -1.94012117e+00  -1.48946512e+00  -1.92354763e+00]
 [ -2.12031341e+00   1.77745557e+00   2.20905209e+00  -2.18348813e+00
   -2.00752425e+00  -2.71900463e+00   7.96077430e-01  -2.14616513e+00
   -1.99996436e+00  -1.78835297e+00   2.05926800e+00   2.15296245e+00
   -2.07978225e+00  -1.84977102e+00  -1.65125966e+00  -1.83730996e+00]
 [ -2.38201976e+00   1.73586643e+00   1.85666192e+00  -2.06942868e+00
   -2.19111443e+00  -2.03030109e+00  -4.50856358e-01  -2.31291270e+00
   -2.14579535e+00  -2.14726877e+00   1.91161156e+00   2.00816178e+00
   -2.22132635e+00  -1.84589529e+00  -2.10128379e+00  -2.29654789e+00]
 [ -2.26597738e+00   1.94190598e+00   1.93110359e+00  -2.08756328e+00
   -1.70527565e+00  -2.34237647e+00  -8.38678718e-01  -2.18592930e+00
   -1.95987904e+00  -1.75636852e+00   2.05005646e+00   2.24404621e+00
   -2.28842759e+00  -2.15638089e+00  -1.84444368e+00  -2.13910222e+00]
 [ -1.87798321e+00   1.82909095e+00   2.58967352e+00  -1.86786377e+00
   -1.90677071e+00  -2.59096241e+00   1.33256372e-02  -2.05026627e+00
   -1.95904291e+00  -1.90968668e+00   2.00759697e+00   1.82205021e+00
   -1.99519694e+00  -2.27681589e+00  -2.05586696e+00  -2.00129533e+00]
 [ -1.64185214e+00   1.84295988e+00   2.14454532e+00  -1.71254897e+00
   -2.05123520e+00  -2.78392601e+00   4.31894362e-01  -1.85226250e+00
   -2.04136634e+00  -2.06449389e+00   1.50900388e+00   1.98315740e+00
   -2.01133180e+00  -1.57777190e+00  -1.86107326e+00  -1.53976297e+00]
 [ -2.70763040e+00   2.95027828e+00   2.09935570e+00  -2.69348884e+00
   -2.74886179e+00  -2.27422309e+00   1.15792036e+00  -3.02578783e+00
   -2.63172507e+00  -2.26139426e+00   3.05114937e+00   2.77896452e+00
   -2.83957338e+00  -2.67683744e+00  -3.03991675e+00  -2.68259072e+00]
 [ -2.38266706e+00   2.13186431e+00   1.73867536e+00  -2.01435041e+00
   -2.11293197e+00  -1.78969538e+00  -1.69090033e+00  -2.25295687e+00
   -2.40105796e+00  -1.62771308e+00   2.19769049e+00   2.02261496e+00
   -2.12391520e+00  -2.31874657e+00  -1.89197159e+00  -2.16322255e+00]
 [ -2.13322902e+00   2.31571937e+00   1.64334071e+00  -2.08165717e+00
   -1.99772000e+00  -1.64976311e+00  -1.24534047e+00  -2.16361046e+00
   -2.23666143e+00  -1.67093360e+00   1.89154541e+00   2.10160661e+00
   -1.79601002e+00  -2.09481502e+00  -2.41377497e+00  -2.05825853e+00]
 [ -1.74341440e+00   2.16162944e+00   1.89722431e+00  -1.75798893e+00
   -2.12872076e+00  -1.95987821e+00  -6.54569745e-01  -1.97437572e+00
   -1.81852388e+00  -1.97096825e+00   2.38413501e+00   2.04254508e+00
   -2.17096996e+00  -1.99115622e+00  -1.77177572e+00  -2.20605946e+00]
 [ -1.80464125e+00   1.95532894e+00   2.42961550e+00  -2.27333617e+00
   -2.06613588e+00  -1.82625687e+00  -1.05410385e+00  -1.67234588e+00
   -1.72414517e+00  -2.11426735e+00   1.86197758e+00   2.13555264e+00
   -1.79072869e+00  -1.81196749e+00  -2.35718870e+00  -2.09527278e+00]
 [ -2.09062767e+00   1.77348459e+00   1.98597181e+00  -2.15806246e+00
   -1.73928225e+00  -2.52980447e+00   3.46473306e-01  -1.72620988e+00
   -2.05081940e+00  -1.84718978e+00   1.91772008e+00   1.99453306e+00
   -1.71591568e+00  -2.15962315e+00  -1.84638512e+00  -1.64969814e+00]
 [ -1.85241389e+00   1.79671347e+00   1.91736507e+00  -1.96868658e+00
   -2.02987552e+00  -2.57534122e+00   1.52273074e-01  -1.73588681e+00
   -2.06925869e+00  -2.16128016e+00   1.65224469e+00   2.20207953e+00
   -1.98147047e+00  -2.25320673e+00  -2.13001776e+00  -1.88497007e+00]
 [ -2.12238836e+00   2.02228689e+00   1.91165638e+00  -1.57848811e+00
   -2.06180263e+00  -2.56462789e+00   1.06253278e+00  -1.72944331e+00
   -2.05639648e+00  -1.96431351e+00   2.16086173e+00   1.71902800e+00
   -1.92081821e+00  -2.02172279e+00  -1.91281390e+00  -2.08796215e+00]
 [ -1.74681735e+00   2.17578745e+00   2.51208162e+00  -2.19886708e+00
   -2.09260654e+00  -2.10601401e+00   4.60880734e-02  -1.98408020e+00
   -2.03295469e+00  -2.00964618e+00   2.23608613e+00   1.82832325e+00
   -1.89858806e+00  -1.77021575e+00  -1.99183357e+00  -2.18767834e+00]
 [ -4.59073871e-01   4.63752419e-01   5.33492804e-01  -4.68572438e-01
   -4.66064960e-01   5.96120298e-01   3.48639712e-02  -4.57444012e-01
   -4.58054811e-01  -4.78432208e-01   4.52092618e-01   4.60869938e-01
   -4.59969968e-01  -4.62391526e-01  -4.49802190e-01  -4.57856148e-01]]
Bob
[[ -3.85271339e-03  -3.18465941e-03   2.06596870e-03  -1.80729374e-03
    2.99363420e-03  -3.13950819e-03   1.04923081e-02  -9.65642917e-04
    1.20202696e-03  -1.92300649e-03   1.85699726e-03   2.76755099e-03
   -2.76683411e-03   3.38405347e-03  -2.53274175e-03  -2.14388520e-01]
 [ -3.71839432e-03  -2.90381932e-03   1.86180056e-03  -1.63336191e-03
    2.71372870e-03  -2.86342739e-03   1.02877030e-02  -7.24771759e-04
    9.91065870e-04  -1.72531523e-03   1.66935066e-03   2.51032971e-03
   -2.52269045e-03   3.13317054e-03  -2.34281062e-03  -2.12584868e-01]
 [ -4.01594909e-03  -3.14754923e-03   2.11881497e-03  -1.83777767e-03
    2.92235613e-03  -3.09621310e-03   1.04434714e-02  -8.77517101e-04
    1.18863804e-03  -1.95526588e-03   1.88789493e-03   2.76274676e-03
   -2.79897777e-03   3.43347550e-03  -2.58351117e-03  -2.15335816e-01]
 [ -3.68917757e-03  -3.10444576e-03   1.97458547e-03  -1.63628603e-03
    2.92384066e-03  -3.05029168e-03   1.03099132e-02  -9.67475236e-04
    1.14621955e-03  -1.85315753e-03   1.75037561e-03   2.70850700e-03
   -2.69442168e-03   3.27087217e-03  -2.40581390e-03  -2.12180346e-01]
 [ -3.77090578e-03  -3.11189261e-03   2.01879325e-03  -1.80028239e-03
    2.92639830e-03  -3.05174827e-03   1.04108946e-02  -8.62258370e-04
    1.12926483e-03  -1.87259505e-03   1.77526148e-03   2.70612561e-03
   -2.70272302e-03   3.32553661e-03  -2.47763935e-03  -2.15016380e-01]
 [ -3.80020682e-03  -3.17913736e-03   2.12583458e-03  -1.75367889e-03
    2.95528001e-03  -3.08011286e-03   1.07766539e-02  -9.13329481e-04
    1.18994375e-03  -1.96569040e-03   1.83809409e-03   2.77369609e-03
   -2.79183523e-03   3.42778419e-03  -2.53518159e-03  -2.12842748e-01]
 [ -3.88641120e-03  -3.01124319e-03   1.94503157e-03  -1.63944904e-03
    2.85769673e-03  -2.96280999e-03   1.02893356e-02  -8.12552753e-04
    1.04997726e-03  -1.79872348e-03   1.76219700e-03   2.61375890e-03
   -2.61136610e-03   3.21087311e-03  -2.41956138e-03  -2.16628760e-01]
 [ -3.98380915e-03  -3.18909856e-03   2.10378738e-03  -1.87982211e-03
    2.99622165e-03  -3.08830105e-03   1.05406856e-02  -1.09829311e-03
    1.30431214e-03  -1.97965768e-03   1.88254693e-03   2.77549215e-03
   -2.74503930e-03   3.38338036e-03  -2.53886799e-03  -2.13374078e-01]
 [ -3.99712054e-03  -3.03528598e-03   2.04394013e-03  -1.56038743e-03
    2.80003482e-03  -2.93196435e-03   1.06238034e-02  -9.01697029e-04
    1.16555404e-03  -1.89172430e-03   1.78351079e-03   2.60979123e-03
   -2.65368982e-03   3.24455090e-03  -2.44420115e-03  -2.13410154e-01]
 [ -3.87415360e-03  -3.22622992e-03   2.13833782e-03  -1.72672467e-03
    2.93955137e-03  -3.06624779e-03   1.07834768e-02  -9.66538209e-04
    1.25400000e-03  -1.98199437e-03   1.86496612e-03   2.79503176e-03
   -2.80284160e-03   3.40727554e-03  -2.60313298e-03  -2.14518696e-01]
 [ -3.88346286e-03  -3.20758251e-03   2.04260810e-03  -1.75826170e-03
    2.89689633e-03  -2.99472176e-03   1.00368401e-02  -9.26885754e-04
    1.21906481e-03  -1.88851601e-03   1.77291804e-03   2.72358884e-03
   -2.67262850e-03   3.40106757e-03  -2.55527487e-03  -2.12448046e-01]
 [  1.24579407e-02   2.37108790e-03   9.09170881e-03  -1.14367055e-02
    3.43558355e-03   2.49005458e-03  -1.34137616e-01  -2.08504386e-02
    1.82802565e-02  -1.02647571e-02   1.32749341e-02   9.57723707e-04
   -1.82266848e-03  -5.17286174e-03  -5.55180805e-03  -2.29012549e-01]
 [ -3.99246113e-03  -3.21619981e-03   2.15431745e-03  -1.79928786e-03
    3.05047981e-03  -3.16999853e-03   1.04814861e-02  -1.03943073e-03
    1.27309712e-03  -1.99449062e-03   1.91820285e-03   2.81315274e-03
   -2.81815557e-03   3.46377469e-03  -2.59196246e-03  -2.13957936e-01]
 [ -3.88810923e-03  -3.21110315e-03   2.02889484e-03  -1.75703724e-03
    2.99979071e-03  -3.08574294e-03   1.02619044e-02  -9.96228657e-04
    1.19205902e-03  -1.90336164e-03   1.78667856e-03   2.76816287e-03
   -2.73057399e-03   3.35913687e-03  -2.52053794e-03  -2.16579914e-01]
 [ -3.79265193e-03  -3.17825843e-03   2.10250821e-03  -1.70893804e-03
    2.91297655e-03  -3.07825999e-03   1.04485992e-02  -8.50865908e-04
    1.15484325e-03  -1.91333145e-03   1.83748081e-03   2.75194179e-03
   -2.76272907e-03   3.36737698e-03  -2.57897074e-03  -2.13470459e-01]
 [ -3.90820578e-03  -3.14671174e-03   2.02572602e-03  -1.73125335e-03
    2.94974726e-03  -3.08088958e-03   1.04575483e-02  -8.69223499e-04
    1.13041396e-03  -1.89077004e-03   1.81322661e-03   2.73233093e-03
   -2.71592382e-03   3.30996816e-03  -2.52228789e-03  -2.15473309e-01]
 [ -2.02935243e+00  -2.16228843e+00   2.10047317e+00  -2.09398675e+00
    2.29557681e+00  -1.90496290e+00   6.82265341e-01  -2.24120641e+00
    2.19345260e+00  -1.85983682e+00   1.96131206e+00   1.92101216e+00
   -2.29079103e+00   1.90788126e+00  -1.99544346e+00   2.39550781e+00]
 [ -2.18107080e+00  -1.70397329e+00   2.22684288e+00  -1.59790099e+00
    1.88977933e+00  -2.17776895e+00   1.45325456e-02  -1.86238730e+00
    1.85348308e+00  -2.27893257e+00   1.87201285e+00   2.29666901e+00
   -1.73141086e+00   1.82196426e+00  -2.11683440e+00   2.59804678e+00]
 [ -1.80060375e+00  -1.94113696e+00   1.86876631e+00  -1.58987653e+00
    2.23191237e+00  -1.84252954e+00  -1.23871274e-01  -2.11256599e+00
    1.91640818e+00  -1.78420341e+00   1.80846906e+00   2.30102515e+00
   -2.19000888e+00   1.84422290e+00  -2.07248950e+00   2.07351065e+00]
 [ -2.10702968e+00  -2.08455229e+00   2.03710818e+00  -1.89873540e+00
    2.02526498e+00  -1.78711188e+00   3.58807713e-01  -2.25387263e+00
    2.25939631e+00  -1.96652997e+00   2.22614503e+00   1.69187737e+00
   -2.09047389e+00   1.82983220e+00  -1.76853383e+00   2.40627170e+00]
 [ -2.24747944e+00  -2.31362009e+00   1.92536521e+00  -1.95767236e+00
    1.75263596e+00  -2.12820458e+00  -7.00649619e-02  -1.67411053e+00
    2.03468418e+00  -2.25628352e+00   2.13791513e+00   2.07907081e+00
   -2.17097878e+00   2.24756289e+00  -2.16410828e+00   2.14823222e+00]
 [ -2.20831370e+00  -1.74808776e+00   1.90599680e+00  -1.99434280e+00
    1.95041573e+00  -2.23076487e+00   4.36756760e-01  -2.13856149e+00
    2.03792810e+00  -2.00212908e+00   2.00367928e+00   2.25970101e+00
   -1.69196212e+00   2.14669728e+00  -2.05587077e+00   2.37916589e+00]
 [ -2.38096929e+00  -2.30105019e+00   2.25645041e+00  -1.39906323e+00
    1.91998863e+00  -2.32060862e+00   1.05330861e+00  -2.09683299e+00
    2.29914236e+00  -2.38936377e+00   2.20534921e+00   2.26124907e+00
   -2.44186807e+00   2.52080297e+00  -2.21972013e+00   2.10125542e+00]
 [ -2.18450093e+00  -2.33428836e+00   1.81777859e+00  -2.01719642e+00
    2.17296576e+00  -1.95875442e+00   5.43509185e-01  -2.31756663e+00
    1.79739726e+00  -1.91738772e+00   1.75506616e+00   2.06195521e+00
   -1.89052713e+00   1.81320179e+00  -2.00315380e+00   2.11615944e+00]
 [ -2.19081807e+00  -1.93986249e+00   2.30699587e+00  -1.75469565e+00
    1.94800067e+00  -2.27837396e+00  -2.80329555e-01  -1.75182295e+00
    1.78464293e+00  -1.78315997e+00   2.28402281e+00   1.68902469e+00
   -2.33992028e+00   2.35846233e+00  -2.00147653e+00   2.41405034e+00]
 [ -5.92779160e-01  -5.92713296e-01   5.83153486e-01  -1.56547391e+00
    6.36971295e-01  -5.89303613e-01   3.68622392e-02  -5.79145849e-01
    5.80958307e-01  -5.85070670e-01   5.79931676e-01   5.91048479e-01
   -5.87535024e-01   5.89505374e-01  -5.85307837e-01   6.41189337e-01]
 [ -1.65386140e+00  -2.32558608e+00   2.10253644e+00  -2.08353591e+00
    2.16389728e+00  -2.20924020e+00   9.73882526e-02  -2.20058012e+00
    2.26262856e+00  -2.07255077e+00   2.39053774e+00   2.16711402e+00
   -1.93016458e+00   1.87160122e+00  -1.84041429e+00   2.36632085e+00]
 [ -1.74668849e+00  -1.73806417e+00   2.15290356e+00  -1.97542155e+00
    1.76405776e+00  -2.12737417e+00  -4.61852103e-02  -2.32787561e+00
    1.98645639e+00  -2.39151382e+00   2.20572972e+00   2.05480146e+00
   -1.82055235e+00   1.93025911e+00  -2.07711077e+00   2.10405469e+00]
 [ -1.83248639e+00  -1.78140390e+00   2.01397967e+00  -1.88703454e+00
    1.85085404e+00  -2.28044319e+00   4.81476843e-01  -1.79247200e+00
    2.21045327e+00  -2.32502627e+00   1.71656895e+00   2.05697775e+00
   -1.89054835e+00   2.34081006e+00  -2.34767938e+00   2.20053887e+00]
 [ -2.02795291e+00  -1.93836343e+00   2.23222232e+00  -2.14073968e+00
    1.84104586e+00  -1.78505349e+00   1.52161390e-01  -2.04663682e+00
    2.06258941e+00  -2.37075758e+00   2.26630926e+00   2.23099279e+00
   -2.26433682e+00   2.11243749e+00  -2.00313330e+00   2.28394485e+00]
 [ -2.18859196e+00  -2.34622860e+00   2.23749423e+00  -1.62152326e+00
    2.17601490e+00  -2.08828235e+00  -2.53959000e-01  -1.83980262e+00
    1.96936357e+00  -1.80031049e+00   1.78463495e+00   1.85649860e+00
   -1.94694996e+00   2.32096100e+00  -2.07726407e+00   2.10160756e+00]
 [ -2.16395307e+00  -2.26192188e+00   1.82069480e+00  -2.19774342e+00
    1.99004471e+00  -1.81901705e+00   2.05651313e-01  -2.33055329e+00
    2.29849148e+00  -1.78670907e+00   2.32963800e+00   1.97035384e+00
   -2.28162527e+00   1.87723041e+00  -2.14047170e+00   2.16154313e+00]]
Eve
[[-2.88045359  2.8693285   3.46295118 -3.12028289  3.27286601 -3.26622939
   2.72694135  3.47222281  3.4559691  -2.94762993  3.42942262  3.41920924
   2.81025338 -3.12302303 -3.17271137  2.91930103]
 [-3.0625391   2.84098625  3.16335392 -2.9103725   2.93513131 -3.38161397
   2.4513166   3.30208898  3.1712091  -3.25854921  2.86605501  3.18984342
   3.02206349 -3.4136107  -3.17186999  3.38832521]
 [-3.35621262  3.28795004  3.11139703 -2.91669202  2.93130493 -3.43544292
   2.44877958  3.50134015  3.12244987 -3.26267219  3.0620954   2.89805865
   3.24220848 -3.06192374 -3.22204995  3.05415392]
 [-3.44011211  2.98995781  3.13218451 -3.13892698  3.02884269 -3.2451117
   2.54718566  2.84123254  3.43109822 -3.38277459  3.41204286  3.24930549
   3.40841317 -3.11716843 -3.26366067  2.87991142]
 [-2.79049277  3.01650596  3.40326047 -3.19160271  3.35095358 -2.95862412
   2.15815783  3.07353663  3.28230286 -2.76428938  3.39184189  3.10333395
   3.3575418  -3.15282893 -3.15822101  2.76437426]
 [-3.26608324  3.38010788  3.40841746 -3.4877975   3.03720212 -2.87997198
   2.21705151  3.20442486  3.01183009 -2.83196282  3.13035488  2.84661818
   2.90104389 -3.34960818 -3.45675993  2.95240045]
 [-3.04651451  3.19035625  3.1886344  -3.26841354  3.41760468 -3.11738086
   2.92636847  3.09279823  2.91731358 -3.09722757  3.19684911  2.87708807
   3.21135187 -3.16801333 -3.06722212  3.39300299]
 [-3.24120855  3.38124776  3.30294514 -3.41084146  2.79897285 -3.45950413
   2.68661022  3.44648695  3.43778753 -3.3201201   3.43811584  3.26159477
   3.38371277 -2.84286547 -3.20825839  3.16575766]
 [-3.12082314  3.4099195   3.17399073 -2.85321665  3.11550617 -2.75843787
   2.28749371  3.25106931  3.18436861 -2.93236661  3.1462481   3.27084923
   3.3436482  -2.91641498 -3.30098438  2.93766618]
 [-2.92175174  2.9132266   2.54031086 -2.89862442  2.90710211 -3.53873825
   0.13558272  2.88910341  2.91543484 -0.48093075  2.89266109  2.89357471
   2.89850807 -2.9115181  -2.90305066  2.90438151]
 [-3.43840003  2.80544567  2.86991477 -3.11552835  2.84325099 -3.31240964
   2.24040174  3.43954277  3.22723174 -2.94424486  3.48737144  3.3086791
   2.99399304 -3.24640632 -2.87294149  3.31559873]
 [-3.35741615  2.99682069  3.04373002 -3.11586928  3.14125991 -3.36109352
   2.22101641  3.25829053  3.23482132 -2.76061749  2.74587655  3.16992497
   2.87990475 -3.03312778 -2.87114143  3.40849137]
 [-2.85096788  2.78812313  3.28560638 -2.86594462  3.31856418 -3.06958723
   2.52998567  3.27786803  3.16719532 -3.15999913  3.0133698   2.95825028
   2.96762848 -2.72582865 -2.96237326  3.24056005]
 [-2.80595756  3.16930413  3.22410035 -3.31713152  2.87515736 -3.0382359
   2.26777983  3.28869247  3.25084972 -3.24054003  3.12744403  2.86452341
   2.70927739 -2.91613913 -2.97778702  3.36185598]
 [-2.90483069  3.35380697  3.12189341 -3.21017265  3.34521365 -3.32997465
   2.0712285   3.40066385  3.12522602 -3.08818674  3.05482817  3.15176129
   3.23654842 -3.22466469 -3.20503831  3.47267485]
 [-3.32602906  3.04582024  3.41284132 -3.03264284  2.81920958 -3.14283061
   2.43716717  2.91379833  2.78778124 -2.89746284  2.89300227  3.4365809
   3.11969876 -2.85147023 -3.33531189  2.98886585]
 [-2.70695043  3.08272099  2.64166737 -2.885432    3.18235159 -3.16783857
   2.59291744  2.84945202  3.18654037 -3.19147468  2.90021229  2.94097781
   2.85674596 -3.15092754 -3.2186892   2.69913054]
 [-3.35574341  3.41556907  2.78576899 -3.35181236  2.8707788  -2.84696698
   2.36857247  3.2909627   2.83926916 -3.23171449  2.98749399  3.2112844
   3.382833   -3.02919197 -2.9054029   2.98378444]
 [-2.9751451   3.23590279  3.10100627 -2.94031382  3.10922623 -3.44170356
  -0.92564547  2.9298811   3.385185   -3.04806995  3.49411321  3.0770812
   3.28848028 -3.39608121 -3.01355052  3.05441523]
 [-2.77415252  3.44962883  2.75649166 -2.89685607  3.20102692 -2.80095172
  -1.04839265  2.97328711  2.86948705 -2.99258542  3.29317951  3.24712324
   2.8968935  -3.03013039 -2.84323263  3.29333472]
 [-3.0539639   2.76570892  2.80167508 -2.9148643   3.2047689  -2.81749725
   1.31150043  2.9941721   3.2807014  -3.31754231  3.0142386   3.01336432
   2.88471198 -2.71392798 -3.29714704  2.79162645]
 [-3.26688766  2.99756765  3.07680774 -2.70780206  3.23922634 -3.0024929
   2.3975215   3.07022691  3.073066   -3.25447273  3.04776907  2.91425872
   3.19335961 -3.10566854 -3.05300093  3.24148679]
 [-3.38424897  3.21080041  3.38917542 -3.53292251  3.50583315 -3.26514554
   3.11289763  3.02900743  3.63974309 -3.19723392  3.47119856  3.02609992
   2.93009806 -3.61433935 -3.65532064  3.01298618]
 [-3.30052638  2.78075385  3.09124088 -3.43466187  3.11355639 -3.07135892
  -1.69370615  3.09503055  2.87746525 -2.79866242  3.08197141  3.06600618
   3.10699797 -3.16031146 -3.34705925  3.28203058]
 [-2.74164963  3.37814879  2.64162636 -2.87456203  2.87006021 -2.71630907
  -1.70596993  2.98489547  3.14897895 -3.04236722  3.35339618  3.01557183
   3.13390017 -3.32880139 -3.0818429   3.16987324]
 [-3.39959812  2.9307251   2.83722234 -3.16267443  3.18236446 -3.25811958
  -0.94136792  3.31379843  3.32751083 -3.32352209  2.82692003  2.91083837
   3.38430095 -2.80625534 -2.93352342  3.14365125]
 [-3.15750599  2.89584994  3.01127148 -3.02877069  2.92455316 -3.37113476
  -1.45183992  2.87705517  2.97876954 -3.26764536  3.10609078  2.86185384
   3.03553534 -2.75946832 -2.98635554  3.41563606]
 [-3.36454248  3.03882957  2.93820858 -2.84096527  3.06938362 -3.17070985
   2.5788033   3.34926939  3.18746901 -2.75641489  3.24701691  3.20549703
   3.16652131 -3.00227952 -2.86553931  3.18256545]
 [-3.3881855   3.33639455  2.82414126 -3.25441694  2.83618665 -3.30317903
   1.98665738  2.81548119  3.11936569 -3.18148541  2.88199091  3.24651504
   3.26514125 -3.32696748 -2.79773688  3.26187205]
 [-3.25654554  2.76065874  2.83139992 -2.97680163  3.10992455 -3.0875442
   2.3860538   3.15282774  3.13452554 -3.0835712   3.19881558  2.84254146
   3.08779192 -3.00844002 -2.88110781  2.81622338]
 [-3.45752406  3.42742348  2.89971828 -3.11782265  2.83619714 -3.31352329
   0.28200877  3.03495765  2.86891556 -3.43767595  3.31596398  2.92051768
   3.0635891  -3.31490254 -3.09955955  3.1407218 ]
 [-2.76580024  2.79310918  2.48238492 -2.80534387  2.79387903  0.4316583
   0.28805706  2.78694391  2.76689076 -3.23133755  2.77603292  2.81433868
   2.80285621 -2.78225064 -2.76843739  2.78746939]]