Alice
[[ -3.94443842e-03  -9.52553656e-03   1.10422209e-01   2.45158505e-02
    3.31576914e-02  -2.71932967e-03   3.14301886e-02   4.41142917e-02
   -2.37349458e-02  -1.33191282e-03   4.20195423e-02  -1.68372951e-02
   -1.00313477e-01  -9.73959565e-02  -7.51417354e-02   4.35509868e-02]
 [  9.98989772e-03  -2.06592567e-02   1.33377746e-01   1.61908958e-02
    2.63343994e-02  -5.31327464e-02   3.15445773e-02   2.30627507e-02
   -4.96846698e-02  -1.81880360e-03   1.03373285e-02  -3.19805816e-02
   -1.04024015e-01  -9.89282653e-02  -1.59508690e-01   3.75993885e-02]
 [ -2.13154964e-03  -1.34629384e-02   1.78844541e-01   7.85570405e-03
    1.45891355e-02  -2.84641962e-02   2.36821901e-02   7.71849155e-02
    1.07627682e-01  -2.79097073e-02  -9.82034858e-03  -6.68086065e-03
   -1.04324281e-01  -9.54313502e-02  -6.84451237e-02   8.06708112e-02]
 [  6.06046915e-01  -2.68711802e-03   7.86098465e-02   5.14636189e-02
    4.58687544e-02  -1.51471468e-02   6.26472905e-02  -4.49434854e-02
   -1.43889681e-01   1.56529676e-02   5.37633486e-02  -6.23698719e-02
   -9.65596959e-02  -9.47142392e-02  -2.35050898e-02  -9.74221714e-03]
 [ -4.15807310e-03  -3.04091666e-02   1.32514909e-01   2.99960338e-02
    2.38529928e-02   2.12097447e-02   1.93518624e-02   3.08294501e-02
   -8.30168277e-02  -2.35254783e-02   1.23959981e-01   6.43766373e-02
   -1.03038058e-01  -1.00073226e-01  -5.04207201e-02   6.35348484e-02]
 [  1.12274932e-02  -8.94957571e-04   1.15389332e-01   2.60568559e-02
    2.26610359e-02  -4.59253676e-02   5.90288863e-02   2.48097014e-02
   -8.15858245e-02  -2.73564062e-03   3.58793102e-02  -1.69918239e-02
   -1.02589071e-01  -9.50243697e-02  -2.39358991e-01   3.01879141e-02]
 [  7.52356090e-03  -3.37728225e-02   1.37400985e-01   2.06823088e-02
    2.99442094e-02  -6.61696941e-02   2.23675258e-02   2.10765172e-02
   -3.17125171e-02  -6.48113154e-03  -6.05399488e-03  -5.12641482e-02
   -1.02597706e-01  -9.84688848e-02  -5.40823415e-02   3.98553833e-02]
 [ -9.46237985e-03  -1.22666648e-02   1.21686935e-01   3.36605012e-02
    2.18256488e-02  -3.91995953e-03   4.86296564e-02   2.78192777e-02
   -6.21008016e-02  -7.46367639e-03   7.30150267e-02  -1.17052076e-02
   -1.06738135e-01  -9.93799865e-02  -7.54031464e-02   4.04477902e-02]
 [ -1.02002192e-02  -6.25388511e-03   8.75773802e-02   1.15263592e-02
    3.20231058e-02   1.51823144e-02   2.41367351e-02   6.33759722e-02
    2.81625502e-02   1.33533403e-03   2.17548087e-02  -9.92635731e-03
   -9.39043388e-02  -1.05001763e-01  -8.56605843e-02   5.03249466e-02]
 [ -6.20981969e-04  -3.36238146e-02   1.32631883e-01   2.79826559e-02
    1.77259482e-02  -3.85183208e-02   1.12197874e-02   2.61825286e-02
   -4.43572588e-02  -2.05076877e-02   4.96042259e-02  -8.83911457e-03
   -1.01611070e-01  -9.82510448e-02  -5.00568189e-02   4.48232032e-02]
 [ -5.09302970e-03  -1.26475608e-02   1.31188333e-01   4.35585827e-02
    3.32017243e-02   6.38381857e-03   3.99340205e-02   3.57581899e-02
   -6.26275241e-02  -1.36326570e-02   9.79220644e-02   1.40900863e-02
   -1.06553629e-01  -9.62502435e-02  -6.04427233e-02   4.95162047e-02]
 [  7.40575790e-03  -1.69170480e-02   1.43369362e-01   6.29072264e-02
    5.49487062e-02  -4.22683060e-02   3.96496989e-02   5.08271381e-02
   -2.70476509e-02  -2.74507832e-02   6.07757941e-02   2.39527202e-03
   -1.01487011e-01  -9.08445269e-02  -4.77038398e-02   5.81033416e-02]
 [  3.49037373e-03  -1.87968519e-02   1.17245384e-01   4.94209118e-02
    3.88016552e-02  -6.22430518e-02   4.53203470e-02   2.65795738e-02
   -9.66228619e-02  -9.08810366e-03   3.75669636e-02  -3.86998579e-02
   -1.01484828e-01  -9.53555033e-02  -1.91433027e-01   2.55519170e-02]
 [ -2.66822823e-03  -4.79730554e-02   1.34394377e-01   6.00202642e-02
    5.52314967e-02  -6.65190965e-02   5.09065855e-03   3.40049453e-02
   -8.94743875e-02  -1.07216621e-02   2.72201095e-02  -6.69485331e-02
   -1.05125219e-01  -1.01926103e-01  -7.49714971e-02   2.64834184e-02]
 [ -8.60164780e-03  -1.75615102e-02   1.07078969e-01   2.19365861e-02
    1.67167205e-02  -2.61209696e-03   2.61523686e-02   3.54807973e-02
   -3.08680870e-02  -1.06250057e-02   5.67113794e-02  -2.84595555e-03
   -9.84193534e-02  -9.82500911e-02  -5.35863526e-02   4.51944470e-02]
 [ -4.16872557e-04  -2.01450028e-02   1.09483548e-01   3.85617651e-02
    2.48038638e-02  -2.16440652e-02   3.48566473e-02   2.25594025e-02
   -7.98845589e-02  -1.28833642e-02   7.19598606e-02  -7.95951393e-03
   -1.00901186e-01  -9.67714041e-02  -4.38227579e-02   3.57686765e-02]
 [  1.84995774e-02  -1.10498257e-02   5.66880256e-02   2.64140125e-02
    3.29448059e-02  -3.60619649e-02   5.40894978e-02   2.06613936e-03
   -2.26742849e-02   1.18350424e-03   1.48155065e-02  -9.40259639e-03
   -7.75967762e-02  -8.24794546e-02   2.22199000e-02   4.57865298e-02]
 [  1.88948121e-02  -1.08088683e-02   5.69392368e-02   2.95790657e-02
    2.64282692e-02  -3.52396034e-02   5.19393682e-02   2.94187479e-03
   -2.36400496e-02   4.33086854e-04   1.68817639e-02  -1.11196013e-02
   -7.87796453e-02  -8.31559300e-02   2.35993955e-02   4.52483930e-02]
 [  1.80142652e-02  -1.08413054e-02   5.70956580e-02   3.53948846e-02
    1.57396533e-02  -3.37573476e-02   4.75945622e-02   4.90210345e-03
   -2.42492314e-02  -1.47348491e-03   2.06705574e-02  -1.36808893e-02
   -7.96345398e-02  -8.45285803e-02   2.75561865e-02   4.31354009e-02]
 [  1.86139587e-02  -1.04992110e-02   5.66574261e-02   3.44108008e-02
    1.62074175e-02  -3.36285122e-02   4.79698181e-02   4.54795081e-03
   -2.44505461e-02  -1.04758528e-03   2.00886969e-02  -1.34709794e-02
   -7.93931633e-02  -8.35803151e-02   2.60995217e-02   4.35122848e-02]
 [  1.79236699e-02  -1.02647860e-02   5.71826659e-02   4.64045107e-02
   -6.75362069e-03  -3.04781497e-02   3.93308252e-02   8.44069663e-03
   -2.64619272e-02  -4.65866691e-03   2.79169306e-02  -1.90634932e-02
   -8.19491744e-02  -8.63230452e-02   3.33428048e-02   3.98539416e-02]
 [  1.79989208e-02  -1.05171744e-02   5.64252436e-02   3.68956961e-02
    1.13892341e-02  -3.27348858e-02   4.56156582e-02   5.43238176e-03
   -2.44637486e-02  -2.01309915e-03   2.17040628e-02  -1.44946557e-02
   -7.92042091e-02  -8.37801620e-02   2.80469786e-02   4.21681628e-02]
 [  1.76038202e-02  -1.14851147e-02   5.61962575e-02   2.40134187e-02
    3.83169800e-02  -3.65424193e-02   5.51796667e-02   1.49846717e-03
   -2.13337466e-02   1.53615559e-03   1.32706203e-02  -7.94906169e-03
   -7.58872703e-02  -8.17535967e-02   2.18312405e-02   4.55434360e-02]
 [  1.87545028e-02  -1.02073271e-02   5.67469858e-02   3.91802117e-02
    6.24944409e-03  -3.22207808e-02   4.43815514e-02   6.02347171e-03
   -2.56162398e-02  -2.40698713e-03   2.32250895e-02  -1.59276836e-02
   -8.05810541e-02  -8.42504874e-02   2.84877885e-02   4.21997905e-02]
 [  1.82012990e-02  -1.04918266e-02   5.55155426e-02   3.14451307e-02
    2.07579583e-02  -3.36247012e-02   4.85583059e-02   3.75492126e-03
   -2.33970620e-02  -4.11170186e-04   1.81830432e-02  -1.20470328e-02
   -7.71890953e-02  -8.15752074e-02   2.45977528e-02   4.31265309e-02]
 [  1.80586949e-02  -1.14051010e-02   5.52179143e-02   1.55794714e-02
    5.31023480e-02  -3.81914824e-02   6.04481958e-02  -1.25734368e-03
   -2.00307164e-02   4.13417304e-03   7.82075431e-03  -4.14846325e-03
   -7.34822899e-02  -7.89167657e-02   1.64518598e-02   4.77158725e-02]
 [  1.82097945e-02  -1.03968214e-02   5.70901930e-02   4.17585410e-02
    2.39533815e-03  -3.17820795e-02   4.27782722e-02   6.93902420e-03
   -2.56906152e-02  -3.32601089e-03   2.48841550e-02  -1.68394540e-02
   -8.10494050e-02  -8.54429081e-02   3.05414852e-02   4.13743444e-02]
 [  1.87244173e-02  -1.02195349e-02   5.69295920e-02   4.03677113e-02
    4.37377812e-03  -3.19810323e-02   4.37456928e-02   6.36737095e-03
   -2.57964339e-02  -2.74454080e-03   2.38958970e-02  -1.63954534e-02
   -8.09994489e-02  -8.46837610e-02   2.91762762e-02   4.20204736e-02]
 [  1.84417237e-02  -1.04969880e-02   5.80146946e-02   4.50075902e-02
   -2.71668355e-03  -3.15280594e-02   4.14446667e-02   7.85702467e-03
   -2.65374426e-02  -4.14912868e-03   2.69127134e-02  -1.83761343e-02
   -8.28398243e-02  -8.72028396e-02   3.25720496e-02   4.11696620e-02]
 [  1.84754040e-02  -1.05246762e-02   5.54347336e-02   2.91270688e-02
    2.50901785e-02  -3.42491455e-02   5.03186844e-02   2.96122720e-03
   -2.31506471e-02   3.09440278e-04   1.66921988e-02  -1.09614981e-02
   -7.68196806e-02  -8.10508728e-02   2.30496954e-02   4.39757593e-02]
 [  1.79912094e-02  -1.08890831e-02   5.68359569e-02   3.29221189e-02
    2.04676315e-02  -3.42702381e-02   4.92186435e-02   4.15901793e-03
   -2.36390419e-02  -8.56707455e-04   1.90705918e-02  -1.24776987e-02
   -7.88137317e-02  -8.38016793e-02   2.61864252e-02   4.36428860e-02]
 [  1.83850788e-02  -1.10044982e-02   5.63178360e-02   2.61728596e-02
    3.30507047e-02  -3.58519368e-02   5.38301915e-02   1.94650376e-03
   -2.24738941e-02   1.17086875e-03   1.46839349e-02  -9.23683215e-03
   -7.70899728e-02  -8.18859786e-02   2.20729709e-02   4.54852059e-02]
 [  2.56920513e-02  -4.17708755e-02   3.96140255e-02   5.67902885e-02
   -8.86829570e-02  -1.77787930e-01   1.18306302e-01   1.84583127e-01
   -3.54588509e-01  -6.76120222e-02  -5.46255149e-02   2.65169829e-01
   -3.20432782e-02   2.43251503e-01   2.81177163e-02   2.13373616e-01]
 [  1.05020277e-01  -3.08117032e-01   3.33592206e-01   9.97849926e-02
    2.30974749e-01  -1.59736961e-01   1.37601808e-01  -4.76332530e-02
   -1.46489099e-01   2.07702965e-01  -4.04187106e-02  -2.71440208e-01
   -4.48745370e-01   1.17398530e-01   3.34075950e-02   1.28341511e-01]
 [  1.54646486e-01  -3.52189630e-01   1.10412076e-01   2.87918985e-01
   -8.47269967e-02  -6.06974773e-02   1.90016881e-01   1.89393461e-01
    3.26145031e-02  -2.28265062e-01   1.70986101e-01   2.18280643e-01
   -3.35103422e-01  -2.44307774e-03  -4.11754042e-01  -2.10801572e-01]
 [  2.66517073e-01  -1.94752157e-01   4.09319848e-01   1.06181644e-01
   -2.04588667e-01  -2.78936446e-01   2.10885659e-01   6.26998618e-02
   -1.92574903e-01  -3.34152877e-01  -1.60079241e-01  -8.17398205e-02
   -2.69286424e-01  -1.63194269e-01  -3.48379523e-01   1.54537663e-01]
 [  4.45994921e-02  -7.85753056e-02  -2.94127017e-01  -2.55446192e-02
    1.46344248e-02  -1.44328564e-01   1.33487850e-01   5.28723784e-02
   -7.48710260e-02  -1.23592071e-01   7.55534181e-03  -1.07318670e-01
   -1.27669349e-02   1.30165620e-02  -4.62195352e-02   4.56056967e-02]
 [  1.81203857e-01  -1.11530110e-01   4.32022801e-03   1.84803918e-01
   -7.54641220e-02  -4.10347223e-01  -3.64746451e-01  -1.00603916e-01
   -1.43818324e-02   2.00050935e-01   2.20268276e-02  -7.10228644e-03
   -8.00782293e-02  -1.56402633e-01  -2.15162244e-02  -4.19879742e-02]
 [ -3.35712321e-02  -1.61223605e-01   2.47026518e-01  -7.64971897e-02
    1.81341857e-01   8.35223868e-02   5.99578470e-02  -2.97894776e-02
    9.55606177e-02  -5.58782399e-01  -5.63500039e-02  -6.89899698e-02
   -1.26909122e-01   1.32496595e-01   9.53243226e-02   3.14872205e-01]
 [  2.95952260e-01  -1.43004343e-01   3.35551202e-01   3.10729086e-01
   -3.68745536e-01  -1.21528454e-01   3.95116001e-01   2.93090433e-01
   -1.75620049e-01  -1.02041543e-01   3.94191921e-01   3.19211811e-01
   -1.28166348e-01   3.46584544e-02  -1.45994261e-01   7.14372873e-01]
 [  1.44131973e-01  -2.03307092e-01  -5.22001348e-02   3.00145984e-01
    1.00260312e-02  -2.26998776e-01   1.37283877e-01   1.94974970e-02
   -2.14449540e-02  -2.27648821e-02  -4.88861836e-03  -4.48096186e-01
    8.12133849e-02   4.07592133e-02   3.59337069e-02   3.62530559e-01]
 [ -1.86655134e-01   5.43508530e-02   9.53314453e-02  -4.02502865e-02
   -2.86933213e-01  -3.07782814e-02   3.83688122e-01  -5.93319684e-02
   -1.00509554e-01   1.42999962e-01   1.38653427e-01   7.11753517e-02
    5.44382259e-02   5.34389131e-02   9.35756117e-02  -6.69378741e-03]
 [  7.19967410e-02  -1.01038449e-01   2.83582002e-01   7.34109953e-02
   -1.84980318e-01  -3.25944573e-01   3.48434955e-01   1.74316436e-01
    5.27045922e-03  -2.45706350e-01   8.84552658e-01  -6.69415668e-02
   -1.58121049e-01   2.79594082e-02  -1.95751682e-01   1.52350500e-01]
 [  1.44569352e-01  -5.94949350e-02   1.62028655e-01   1.07727963e-02
   -8.60926434e-02  -5.89572430e-01   2.84886509e-01   3.19144398e-01
    9.80047733e-02  -2.44149044e-01   1.88460797e-02  -3.35418850e-01
    3.78066689e-01   1.39626265e-01   1.77416503e-01   2.21895367e-01]
 [  1.06444120e-01  -1.36286587e-01   9.20600444e-03   1.34010702e-01
    9.12240371e-02  -8.50629285e-02   2.12319598e-01   1.09858297e-01
   -1.81220639e-02  -7.16907531e-02   4.79386374e-03  -8.46410915e-02
    5.01029603e-02  -2.22780686e-02   3.35978031e-01   3.45703095e-01]
 [  1.60058558e-01  -1.81513816e-01  -2.36407220e-02   2.40568757e-01
   -6.16596900e-02  -5.10106504e-01   3.73382896e-01  -9.60968249e-03
    4.27065231e-03  -7.21461251e-02  -4.50526476e-02  -9.64903086e-02
   -6.67307898e-02  -4.14412111e-01   8.73525962e-02   4.23707336e-01]
 [  7.22983360e-01   1.36999071e-01  -5.38082942e-02  -2.21554726e-01
   -9.18058082e-02  -6.94271326e-02  -8.29635262e-02   1.47508040e-01
   -7.66306743e-02  -9.40377563e-02  -2.29171198e-02   1.64555416e-01
   -1.50192365e-01  -4.67554070e-02  -2.95989096e-01   7.62475133e-02]
 [  3.38770330e-01   1.45383477e-01   2.19167218e-01  -3.78117025e-01
   -7.91932270e-02  -3.87775093e-01   3.07807297e-01   1.28682315e-01
   -1.28957089e-02  -1.86796430e-02  -2.56294161e-01   1.54318899e-01
   -1.66043401e-01  -7.84380734e-02   1.40493259e-01  -7.01791570e-02]]
Bob
[[ -3.16928290e-02   1.86702479e-02   2.08022743e-02  -5.08499183e-02
   -1.18537650e-01  -1.76635701e-02  -3.65526490e-02  -3.96278687e-03
    8.76069665e-02   1.75689906e-02  -7.43961195e-04  -1.10905409e-01
   -1.09666623e-01   6.25715032e-02  -9.60953441e-03  -4.33619730e-02]
 [ -5.33565283e-02   2.23996323e-02   1.55318994e-02  -6.00452768e-03
   -1.35021269e-01  -1.46260401e-02  -4.77464907e-02   2.67853346e-02
    8.07713270e-02   3.76596227e-02  -6.78388076e-03  -1.07838377e-01
   -1.26588434e-01   3.00180148e-02  -5.98598644e-03  -4.72667813e-02]
 [  1.47823587e-01  -1.98364304e-03   3.57204117e-02  -5.80075942e-02
   -1.62515059e-01  -2.05896217e-02  -5.10362871e-02   2.05493812e-02
    8.76823142e-02   2.96677239e-02   7.75870681e-02  -1.14019409e-01
   -1.11865006e-01   1.09622963e-01   1.31307794e-02  -7.76824728e-02]
 [ -1.46580711e-02   1.69088319e-01   9.16634500e-02  -6.17570654e-02
   -1.11208290e-01   9.76708066e-03   1.45118050e-02   3.00346240e-02
    7.30282813e-02  -2.84718059e-04   3.12441471e-03  -1.02927424e-01
   -8.13372210e-02   4.13951911e-02  -5.38504004e-01   6.51483461e-02]
 [ -1.14807762e-01   7.03781992e-02  -1.68758836e-02  -5.09068668e-02
   -1.19320616e-01  -2.48595569e-02  -1.69187300e-02  -4.11817282e-02
    1.53895140e-01  -6.26814598e-03  -3.09865829e-02  -1.02293469e-01
   -8.95168632e-02   6.35449216e-02  -4.27049212e-03  -6.00183457e-02]
 [ -8.73305053e-02   5.58089539e-02   1.14284065e-02  -6.28800457e-03
   -1.16090573e-01  -2.82783005e-02  -5.61348498e-02   5.97882754e-05
    8.06763768e-02   3.73202041e-02   4.66847996e-04  -1.05443671e-01
   -1.38911098e-01   4.28262241e-02  -1.65066253e-02  -1.93331633e-02]
 [ -3.84556018e-02  -3.72743979e-03   2.81855855e-02  -1.90054774e-02
   -1.41585290e-01   5.26563171e-03  -3.89529504e-02   5.40399253e-02
    8.86455104e-02   4.62909862e-02  -1.41442223e-02  -1.10037036e-01
   -1.05184726e-01   7.01575715e-04  -3.59956990e-03  -5.68245910e-02]
 [ -7.06260577e-02   3.27520669e-02   1.85992476e-02  -5.14894798e-02
   -1.20126039e-01  -1.43370163e-02  -4.17925566e-02  -1.76587068e-02
    9.60742757e-02   5.32430271e-03   2.89120420e-04  -1.11489922e-01
   -1.07033119e-01   4.86898497e-02  -1.92174707e-02  -4.59641442e-02]
 [  2.56366022e-02   5.59705216e-03   7.09578535e-03  -4.40846011e-02
   -1.03658773e-01  -3.72438394e-02  -3.59052531e-02   7.32288184e-03
    8.34075958e-02   1.55520365e-02  -6.78159017e-03  -1.08825400e-01
   -1.17099993e-01   1.09812990e-01  -2.84087984e-03  -4.95135188e-02]
 [ -5.46388142e-02   2.85471547e-02   7.24523375e-03  -1.96597446e-02
   -1.18162550e-01  -3.58012109e-03  -3.36502343e-02   1.18413270e-02
    9.75012034e-02   2.72983033e-02  -2.12208740e-02  -1.03513941e-01
   -9.37041044e-02   2.22242102e-02  -1.03607476e-02  -6.52466565e-02]
 [ -7.50140175e-02   5.57639226e-02   1.32374177e-02  -6.20064884e-02
   -1.20390467e-01  -1.32508585e-02  -3.15952115e-02  -4.20724526e-02
    9.96709764e-02   4.14145226e-03  -8.59476440e-03  -1.05774716e-01
   -9.84155461e-02   4.86429520e-02  -2.06253175e-02  -3.61363217e-02]
 [ -4.10213731e-02   6.51813000e-02   3.23538780e-02  -6.61702827e-02
   -1.20463490e-01   6.94303354e-03  -2.72163991e-02  -1.41186183e-02
    1.02067851e-01   5.11438027e-02   5.29914489e-03  -1.04278684e-01
   -9.94623676e-02   1.70496777e-02  -2.81449296e-02  -1.17398640e-02]
 [ -1.28484190e-01   6.30863011e-02   1.17135663e-02  -1.09200934e-02
   -1.05959594e-01  -4.13192529e-03  -4.50207405e-02   8.64517875e-03
    7.85678700e-02   6.98090866e-02   3.45230522e-03  -1.03021733e-01
   -1.27356321e-01  -8.10494530e-04  -4.46907394e-02  -1.85367633e-02]
 [ -1.47920281e-01   4.17507328e-02   1.30092213e-02  -2.44281869e-02
   -1.24873832e-01   2.22756043e-02  -2.59715747e-02   3.20151076e-02
    8.23417157e-02   9.61259604e-02  -6.31966069e-03  -1.08546905e-01
   -1.05475999e-01  -4.20589484e-02  -5.43667302e-02  -4.14672643e-02]
 [ -3.79254781e-02   2.03963183e-02   6.56927563e-03  -3.75899561e-02
   -1.05987765e-01  -1.94054432e-02  -3.46493796e-02  -2.50841677e-03
    9.70692113e-02   8.44025705e-03  -1.33678773e-02  -1.03814252e-01
   -9.64626968e-02   6.13738522e-02  -8.17900710e-03  -5.84626645e-02]
 [ -1.00618564e-01   3.86755429e-02   1.73581336e-02  -4.20859717e-02
   -1.00762278e-01  -2.80596409e-03  -2.97464170e-02  -8.67418107e-03
    1.01831049e-01   1.79769881e-02  -1.29228458e-02  -1.02465682e-01
   -8.88429359e-02   1.83275230e-02  -1.60808712e-02  -3.99554111e-02]
 [ -1.12643940e-02  -4.81346389e-03   3.06032728e-02  -3.12156808e-02
   -5.52089922e-02   5.97647391e-04  -1.61261316e-02   3.28083411e-02
    8.86269957e-02  -5.50634414e-03  -5.58347143e-02  -7.19400421e-02
   -7.23094270e-02   1.99656468e-02   1.56311726e-03  -8.12653638e-03]
 [ -1.10262092e-02  -4.88195755e-03   2.76105348e-02  -2.91066542e-02
   -5.91096804e-02  -1.47730275e-03  -1.67394187e-02   3.53499800e-02
    8.86416510e-02  -4.43108799e-03  -6.71511739e-02  -7.25153089e-02
   -7.30860978e-02   1.90800857e-02   2.15674029e-03  -7.01296749e-03]
 [ -1.06924744e-02  -4.74880589e-03   2.60894485e-02  -2.77663842e-02
   -5.85899092e-02  -1.94429909e-03  -1.64049603e-02   3.50200832e-02
    8.61938521e-02  -4.03793994e-03  -6.81905299e-02  -7.06747919e-02
   -7.12600350e-02   1.83332786e-02   2.31301668e-03  -6.41481113e-03]
 [ -6.67575002e-03  -4.96720616e-03  -1.20923603e-02  -2.12893196e-04
   -1.02546729e-01  -2.71358490e-02  -2.25409623e-02   6.35054708e-02
    8.02019760e-02   8.15675315e-03  -2.01314375e-01  -7.25155845e-02
   -7.54917562e-02   6.56931335e-03   9.71925445e-03   8.46248213e-03]
 [ -1.07960599e-02  -4.90045175e-03   2.56618485e-02  -2.76575778e-02
   -6.10436946e-02  -2.66365591e-03  -1.69542283e-02   3.66032422e-02
    8.80319551e-02  -3.83621198e-03  -7.33441636e-02  -7.23079443e-02
   -7.29842633e-02   1.84442978e-02   2.51506222e-03  -6.23209728e-03]
 [ -1.12181641e-02  -4.74749925e-03   3.07770129e-02  -3.12760100e-02
   -5.38967289e-02   1.00878836e-03  -1.58553049e-02   3.20744663e-02
    8.77254307e-02  -5.52038150e-03  -5.31868860e-02  -7.10693374e-02
   -7.14101121e-02   1.99293103e-02   1.35185895e-03  -8.30422994e-03]
 [ -1.18973413e-02  -4.87618009e-03   3.52156349e-02  -3.47360559e-02
   -5.12271933e-02   3.35016660e-03  -1.56419091e-02   3.02019473e-02
    9.07985866e-02  -6.84338203e-03  -4.20075990e-02  -7.28752390e-02
   -7.29902536e-02   2.15636753e-02   7.29275984e-04  -9.97445546e-03]
 [ -1.15733594e-02  -4.93396167e-03   3.17825079e-02  -3.22870016e-02
   -5.56485318e-02   1.02998363e-03  -1.63610317e-02   3.30348909e-02
    9.05500054e-02  -5.77891385e-03  -5.48722334e-02  -7.33748898e-02
   -7.37070367e-02   2.05196347e-02   1.44085300e-03  -8.56215879e-03]
 [ -1.17677562e-02  -4.97339945e-03   3.29746269e-02  -3.31799015e-02
   -5.45002446e-02   1.77264540e-03  -1.62257198e-02   3.23324539e-02
    9.10257995e-02  -6.10819273e-03  -5.10813668e-02  -7.35301748e-02
   -7.37968981e-02   2.09954586e-02   1.17355457e-03  -9.09575168e-03]
 [ -1.11517822e-02  -4.83165402e-03   2.88588367e-02  -2.99678538e-02
   -5.72174266e-02  -5.44498558e-04  -1.64003819e-02   3.41361426e-02
    8.84091407e-02  -4.90635121e-03  -6.19352125e-02  -7.20662102e-02
   -7.25671425e-02   1.94532517e-02   1.81026792e-03  -7.51861697e-03]
 [ -1.18937269e-02  -4.80839144e-03   3.50084417e-02  -3.45842615e-02
   -5.15337624e-02   3.21684754e-03  -1.56895686e-02   3.04175112e-02
    9.06264186e-02  -6.74353819e-03  -4.30195257e-02  -7.28996173e-02
   -7.30319545e-02   2.14277860e-02   7.95517291e-04  -9.82193463e-03]
 [ -1.13536259e-02  -4.90964856e-03   3.00190672e-02  -3.09344735e-02
   -5.70740253e-02   2.01184994e-05  -1.65042710e-02   3.39515246e-02
    8.96514207e-02  -5.20539936e-03  -5.99142164e-02  -7.29189292e-02
   -7.33353645e-02   1.99465789e-02   1.76327350e-03  -7.87959713e-03]
 [ -1.17122503e-02  -4.84192465e-03   3.41592506e-02  -3.39307748e-02
   -5.20917103e-02   2.75088078e-03  -1.57747418e-02   3.07410657e-02
    9.00865123e-02  -6.54303934e-03  -4.51652855e-02  -7.24913031e-02
   -7.26931617e-02   2.11053416e-02   1.04609819e-03  -9.48693883e-03]
 [ -1.17493877e-02  -4.92991088e-03   3.26880403e-02  -3.29506211e-02
   -5.48816063e-02   1.55788043e-03  -1.62877627e-02   3.25536281e-02
    9.09906030e-02  -5.99669758e-03  -5.22612669e-02  -7.35483021e-02
   -7.38703310e-02   2.08620634e-02   1.30280002e-03  -8.92992783e-03]
 [ -1.10329436e-02  -4.97008953e-03   2.64820345e-02  -2.83965841e-02
   -6.13888688e-02  -2.43102480e-03  -1.71138979e-02   3.67668048e-02
    8.93364325e-02  -4.06909641e-03  -7.27289617e-02  -7.33108670e-02
   -7.39289820e-02   1.88366622e-02   2.45249947e-03  -6.49430417e-03]
 [ -1.11030675e-02  -4.94546350e-03   2.67030075e-02  -2.85979677e-02
   -6.13667481e-02  -2.34379875e-03  -1.71318222e-02   3.67448181e-02
    8.96397457e-02  -4.08605207e-03  -7.24132285e-02  -7.35235736e-02
   -7.41780475e-02   1.89355146e-02   2.39782361e-03  -6.57886639e-03]
 [ -2.89507270e-01  -2.87494898e-01  -1.69100642e-01   8.61669630e-02
   -8.08235351e-03   3.21579166e-02  -7.21210763e-02  -3.88525426e-02
    1.79146267e-02  -1.45175196e-02  -4.44995724e-02  -2.46519282e-01
   -3.17155242e-01  -8.76932219e-03  -7.81576931e-01  -1.78623080e-01]
 [ -2.03154776e-02  -1.63261473e-01  -3.27759795e-02  -1.50343388e-01
   -4.37188953e-01  -1.91501513e-01  -7.11383298e-02  -3.30066264e-01
    2.14214608e-01  -3.24081570e-01  -5.45712793e-03  -9.46429670e-02
    1.37444317e-01  -5.70558421e-02   3.19189847e-01  -9.68712345e-02]
 [ -7.70063028e-02  -8.56731534e-02  -1.36214435e-01   1.28538534e-01
    1.51791811e-01  -3.03837925e-01  -1.78734273e-01  -1.49863353e-03
   -8.93518850e-02   9.33351591e-02  -1.07293976e-02  -2.04373114e-02
   -3.90928015e-02  -1.55229166e-01   7.11718723e-02  -4.17592786e-02]
 [  8.86908267e-03  -9.30082723e-02  -1.32279977e-01   1.38084292e-01
   -9.31816474e-02  -3.27816904e-02  -2.13273719e-01   1.79812238e-01
   -3.17520559e-01   7.26071596e-02  -3.04933786e-01  -2.25041330e-01
   -1.15334302e-01   1.46212563e-01   2.57966429e-01   3.33772689e-01]
 [  7.89687783e-02  -1.59016684e-01   6.64012507e-02   1.81519598e-01
   -3.72145623e-02  -1.75186515e-01   4.39077243e-02  -6.80250227e-01
    1.23272702e-01  -9.39116850e-02   7.26240799e-02  -6.30490035e-02
   -1.11840859e-01   6.79425150e-02   2.06238568e-01  -1.74923629e-01]
 [ -1.50041908e-01  -4.73476946e-02  -1.44593552e-01   3.29252258e-02
   -4.37921971e-01  -4.69758868e-01  -1.97053194e-01  -2.59938926e-01
    1.75129235e-01  -3.08402777e-01  -3.34831662e-02   2.48294212e-02
   -8.74342546e-02   1.00834243e-01   1.16125420e-01  -6.23567104e-02]
 [ -1.62426457e-01  -1.23584971e-01  -3.08817148e-01   2.11834446e-01
   -4.53282036e-02  -6.71271980e-01  -1.21413711e-02  -2.25429073e-01
   -1.07251056e-01  -1.28679127e-01  -1.21967860e-01  -1.37239233e-01
   -2.17748687e-01  -1.67291816e-02   5.46699762e-02  -1.83221146e-01]
 [  1.02382824e-01  -4.15412188e-01  -9.90400389e-02   2.27756232e-01
   -9.95285586e-02  -7.92572126e-02   1.12447599e-02  -1.04362909e-02
    2.47163121e-02  -4.53529030e-01  -1.14547290e-01   1.28430715e-02
   -1.85364604e-01  -1.67367920e-01   1.32203162e-01  -9.82289612e-02]
 [ -3.71160638e-03  -8.78598690e-02   1.08163752e-01   8.23806450e-02
    2.60391030e-02  -2.10975185e-01   1.01776347e-02   8.05057213e-02
    8.83913860e-02  -2.02970207e-01  -1.42398819e-01  -1.39473248e-02
   -7.90589899e-02  -1.04854159e-01   4.28696014e-02  -1.33155107e-01]
 [  9.82235186e-03  -5.05185485e-01   3.17334563e-01   3.55329096e-01
   -7.56390467e-02  -1.89544171e-01  -3.96099985e-02   6.70173019e-02
   -1.03553548e-01  -3.38787794e-01  -2.12376818e-01  -7.80589506e-02
    9.05895606e-02   3.11622676e-02   1.66097894e-01   8.76331851e-02]
 [ -2.71561533e-01  -4.84940708e-01   2.63102770e-01  -8.67836177e-02
   -3.29345286e-01  -9.49850753e-02  -1.55596495e-01   2.24682108e-01
    1.91986680e-01   2.87793372e-02  -2.89336532e-01  -2.68220454e-01
   -1.25803217e-01  -1.91727474e-01   3.06492031e-01  -3.27601284e-02]
 [ -1.54589474e-01  -2.90238932e-02   3.71238925e-02  -4.78794314e-02
    1.45825148e-02  -4.96741176e-01   9.16209891e-02   8.78240690e-02
   -1.52575120e-01  -3.30727786e-01   1.32997349e-01  -6.65864348e-02
   -1.63101360e-01  -2.54626442e-02   3.70506316e-01   7.91732818e-02]
 [  2.76268989e-01  -2.55544577e-02   2.69411057e-01  -1.81282347e-03
    1.33441165e-01  -2.94664741e-01  -2.30181396e-01  -1.63626060e-01
    9.74823609e-02  -2.41684660e-01  -2.90203770e-03   4.57105935e-01
   -1.45222828e-01  -4.88435894e-01   2.50313699e-01  -3.22943151e-01]
 [ -2.15735242e-01  -4.12031412e-01  -1.08418137e-01  -8.07794109e-02
   -1.10070720e-01  -1.69764504e-01  -5.28407097e-02   1.35275736e-01
    1.64471418e-02  -3.52180511e-01  -1.28013212e-02   5.99545091e-02
   -3.12811702e-01  -5.27595997e-01   2.39337459e-01  -2.16294050e-01]
 [ -1.71296466e-02  -2.55053490e-01   1.28223211e-01  -1.02061212e-01
    1.89952143e-02   1.79904982e-01   2.37507746e-01   1.27965892e-02
    2.51487177e-02  -1.59638360e-01   4.43017557e-02  -4.04115207e-02
   -6.72447681e-01  -1.71528220e-01   1.40665889e-01  -6.05253316e-02]
 [ -3.08626462e-02  -5.42271771e-02  -3.94697547e-01   2.59998173e-01
   -3.31498027e-01  -6.94561362e-01  -2.30533361e-01   7.46694729e-02
   -1.63763657e-01  -2.85248280e-01   1.05771519e-01  -3.11818928e-01
   -5.93060115e-03  -3.00351441e-01   1.94362536e-01  -7.90863708e-02]]
Eve
[[  1.66729584e-01   8.36172849e-02   1.00005567e-01  -5.30462898e-02
   -8.19099844e-02   1.45683378e-01  -1.25806466e-01   7.90040046e-02
   -1.06107898e-01   7.57020786e-02  -4.94688973e-02   8.99197087e-02
   -9.12174676e-03  -1.39674200e-02  -1.22914843e-01  -9.12040286e-03]
 [  1.56667650e-01   9.31131989e-02   1.76519036e-01  -5.50502390e-02
    4.74507213e-02   2.38532975e-01  -1.15515240e-01   1.24352805e-01
   -3.65724899e-02   7.03080148e-02   9.67786089e-03   5.52573837e-02
    9.34761763e-03  -8.36894661e-02  -3.13563257e-01   4.66023795e-02]
 [  2.19403747e-02   7.13873729e-02   3.50136459e-01  -4.53212485e-02
    5.10814451e-02   2.19448298e-01  -1.76540762e-01   5.82574047e-02
   -6.03617609e-01   1.05762042e-01   8.69653448e-02   1.45020813e-01
   -3.09293773e-02   1.00775529e-02  -8.46585631e-02  -1.62826493e-01]
 [ -1.21023011e+00  -9.28708762e-02   1.28763374e-02   1.80692419e-01
   -3.36764753e-02  -2.74882354e-02   2.07911193e-01   1.84721857e-01
    1.69865325e-01   9.74898972e-03   1.48660624e-02   2.59766914e-02
   -1.70884520e-01   2.47456878e-02  -3.03504109e-01   1.01647928e-01]
 [  3.10059309e-01   1.70187384e-01   7.85724372e-02  -8.75551999e-03
   -1.84496522e-01   2.59586066e-01  -1.94810227e-01   1.60615146e-01
    2.64480431e-02   1.56272247e-01  -2.19405562e-01  -1.45253971e-01
    3.60216498e-02  -7.93445557e-02   3.87677588e-02   1.50985029e-02]
 [  2.35948503e-01   1.20967090e-01   1.07476592e-01  -1.00591667e-01
   -1.41344499e-03   2.56005287e-01  -1.69467047e-01   1.53274745e-01
    9.50954482e-02   1.06029384e-01  -5.09414338e-02   3.93122807e-02
   -1.19187115e-02  -8.34599063e-02  -4.94650573e-01   1.00748122e-01]
 [  6.11929968e-02   3.02324742e-02   2.23689392e-01  -1.03407318e-03
    8.21094662e-02   1.50401592e-01  -4.59407978e-02   5.75318225e-02
   -6.88534006e-02   2.51204520e-02   7.60653242e-02   4.74210382e-02
    3.26089337e-02  -9.57271531e-02  -1.08781680e-01   2.66144965e-02]
 [  2.22631648e-01   8.94953087e-02   1.04223810e-01  -3.26910131e-02
   -1.07198283e-01   1.52953580e-01  -1.44025385e-01   1.20779142e-01
   -5.14864805e-04   9.88078192e-02  -9.79042128e-02   4.64238301e-02
   -9.89348162e-04  -5.03897592e-02  -1.23663642e-01   3.95469256e-02]
 [  1.38880923e-01   1.20262764e-01   2.12128181e-02  -8.00907537e-02
   -5.40590286e-02   1.82622731e-01  -1.74583986e-01   6.11821860e-02
   -2.71823406e-01   8.74085054e-02  -2.45908350e-02   1.48061037e-01
   -2.48075817e-02   8.08099583e-02  -1.13226973e-01  -1.05206922e-01]
 [  1.46307796e-01   8.16756710e-02   1.58466652e-01   1.34120230e-02
   -2.49236468e-02   2.05820203e-01  -9.08588395e-02   9.72570181e-02
   -6.22529350e-02   9.38596576e-02  -6.02556467e-02  -2.17460897e-02
    1.94154102e-02  -9.30717066e-02  -6.40547797e-02   3.72820497e-02]
 [  2.38664418e-01   1.00627393e-01   1.27740517e-01  -3.71773988e-02
   -1.93221152e-01   1.39902562e-01  -1.24902666e-01   1.17477097e-01
   -2.46333028e-03   1.14922620e-01  -1.58369750e-01  -2.33606203e-03
   -3.16666177e-04  -7.38501772e-02  -9.68203619e-02   5.83586991e-02]
 [  9.81863067e-02   4.34720293e-02   2.33585700e-01  -4.39990014e-02
   -1.40104264e-01   6.87872991e-02  -3.28914002e-02   2.59688515e-02
   -4.14173156e-02   7.84779564e-02  -5.53685687e-02  -2.94970740e-02
    1.78425889e-02  -1.31945699e-01  -1.61451131e-01   8.96363556e-02]
 [  1.86969578e-01   8.93842950e-02   1.27689674e-01  -7.13996962e-02
   -2.17067171e-02   1.88908339e-01  -8.75572711e-02   1.01824351e-01
    2.01270789e-01   7.85280615e-02  -2.35452224e-02   6.84280088e-03
    2.87529640e-02  -1.47572264e-01  -4.50836480e-01   1.50635928e-01]
 [  1.11503832e-01   5.02218455e-02   1.97921932e-01  -1.76770575e-02
   -2.77845431e-02   1.18069477e-01   7.26816570e-03   4.43877615e-02
    1.91814482e-01   2.80454420e-02   3.15245725e-02  -3.66112567e-03
    7.97508880e-02  -1.88944072e-01  -2.12623775e-01   1.38195187e-01]
 [  1.79429963e-01   9.70181599e-02   6.81494102e-02  -1.64633989e-02
   -6.60253838e-02   1.83999985e-01  -1.45750642e-01   9.80654508e-02
   -9.94596556e-02   1.00308172e-01  -7.94875696e-02   3.68198901e-02
   -2.59283418e-03  -1.50215849e-02  -4.59265038e-02  -1.92373563e-02]
 [  1.93037808e-01   6.95792660e-02   8.65257010e-02  -7.31724733e-03
   -9.15359855e-02   1.35430112e-01  -9.09255370e-02   8.97696018e-02
    9.45292115e-02   8.02261978e-02  -9.54723209e-02  -2.53380910e-02
    1.68501735e-02  -8.29293877e-02  -6.53307885e-02   7.91510940e-02]
 [ -1.21776903e+00   2.12876230e-01   9.41933990e-02  -1.20634206e-01
   -2.37172529e-01   2.79833190e-02  -2.11543173e-01  -1.83608159e-01
    4.09033477e-01   1.04208197e-02  -1.16375662e-01   4.13121693e-02
   -2.28435591e-01  -7.24411756e-02  -2.36819521e-01  -2.41595700e-01]
 [  8.61435309e-02   4.66098152e-02   2.28852257e-01  -3.76550168e-01
   -5.54831922e-01   2.87218660e-01  -4.80339259e-01   3.65084648e-01
   -2.30077967e-01   1.37899801e-01   7.73737729e-02   9.29803327e-02
   -4.69242334e-01  -1.16486251e-01   1.34568252e-02  -8.55129361e-02]
 [ -1.52441179e-02  -3.05978954e-02  -3.70619059e-01  -1.38385609e-01
   -5.64564876e-02   1.74562350e-01  -2.21451089e-01  -1.08947434e-01
   -2.75096536e-01   3.73220928e-02  -1.59911439e-01  -4.43591326e-02
    2.40582079e-01  -5.52617252e-01   4.37524691e-02  -1.80819660e-01]
 [  8.14266443e-01   2.52808332e-01  -7.05910772e-02  -8.54657590e-01
    8.75016034e-01   9.65681434e-01  -8.65890026e-01   1.29924953e-01
   -3.95448029e-01   3.21880817e-01  -7.99919665e-01   5.80154002e-01
   -4.62367773e-01   3.08870465e-01   5.54268479e-01  -4.64949578e-01]
 [  5.81420995e-02   9.43463147e-02   7.60121047e-02   2.96158969e-01
   -1.09390438e+00   4.87566203e-01  -7.93897927e-01   1.09777324e-01
   -5.27926534e-02  -1.56771064e-01   1.75723553e-01  -2.42468461e-01
   -2.21848980e-01   1.58695236e-01  -3.44340988e-02  -4.40485924e-01]
 [  5.55186987e-01   5.69661200e-01  -6.17395453e-02  -5.48148215e-01
   -6.76245868e-01   6.40811145e-01  -1.00836074e+00   4.13343728e-01
   -3.84991527e-01   3.76727551e-01  -3.43790382e-01   2.70343989e-01
   -2.21942127e-01   3.68676096e-01   2.44039252e-01  -4.68932688e-01]
 [  1.64081931e-01   1.19653568e-01   1.49172157e-01  -6.85304999e-02
   -6.29367411e-01   6.00739121e-01  -1.12353373e+00   2.13960424e-01
   -2.35575229e-01   2.58459330e-01  -1.60624564e-01   5.72766848e-02
   -8.96737278e-02  -2.35546350e-01  -1.25733465e-02  -5.07226408e-01]
 [  5.06967723e-01  -2.52962075e-02  -7.14865001e-03  -5.19613028e-01
    1.74306318e-01   3.25936466e-01  -2.18601767e-02   3.04854333e-01
   -7.08168671e-02   3.20672989e-02  -4.30101492e-02   1.00962244e-01
    2.63053714e-03  -5.48144914e-02   1.47069991e-01  -1.43525183e-01]
 [ -5.21427810e-01  -6.78367838e-02  -7.65812919e-02  -3.34917784e-01
    8.95550326e-02   1.94378257e-01  -1.05691031e-01   2.15073496e-01
    1.12672389e-01   1.23763397e-01   3.33511904e-02   6.91652820e-02
    1.03937425e-01  -8.87094513e-02  -7.22675920e-02  -2.00598404e-01]
 [  4.58272159e-01   3.69420707e-01   9.54603925e-02  -2.15845615e-01
    1.96149632e-01   4.00612533e-01  -1.65657148e-01  -2.15038240e-01
   -1.83877826e-01   2.67985582e-01  -2.90822595e-01   3.95289809e-01
   -2.29298040e-01   1.53304368e-01   2.94503182e-01  -9.11697149e-02]
 [ -3.91299695e-01   1.87255576e-01   2.82847762e-01  -6.15912318e-01
    4.69580770e-01  -1.18538707e-01  -1.60058901e-01  -1.61269575e-01
    2.49005631e-01   8.83531868e-02  -4.86120731e-01   7.88838193e-02
   -4.48241830e-01   7.10713118e-02   3.10409784e-01  -5.39283343e-02]
 [ -6.68062046e-02   8.56044367e-02   1.53127015e-01  -6.34425581e-01
    2.94945240e-01   2.25648656e-01  -6.66749299e-01   1.41513646e-01
    5.32476678e-02   3.47168207e-01  -5.24647422e-02   2.68527389e-01
   -3.61836880e-01  -2.02623993e-01   2.54760444e-01  -1.83932871e-01]
 [  7.09941924e-01   3.45376581e-01  -5.24702132e-01  -2.20183119e-01
   -2.57733285e-01   3.06752801e-01  -4.66888845e-01   6.32628858e-01
   -4.75323617e-01   5.02592087e-01  -2.33047262e-01   8.64372104e-02
    5.99055290e-01  -9.25361395e-01   4.35590371e-02   1.25111431e-01]
 [  3.80519837e-01   1.85746491e-01  -5.83405077e-01  -6.63573220e-02
    2.92960405e-01   2.73890674e-01  -4.21588928e-01   3.46621275e-01
   -5.75453341e-01   2.25364417e-01   2.16902997e-02   1.62432626e-01
    8.54152083e-01  -7.23191798e-01  -7.61076510e-02   1.33394286e-01]
 [ -9.81878340e-02  -1.31293029e-01  -4.91040945e-02   1.63464919e-01
   -2.47044098e-02  -1.02757968e-01   2.85816461e-01  -6.09847754e-02
   -1.31370127e-01  -2.85561591e-01   1.99409977e-01   7.07128793e-02
   -2.80059818e-02  -1.05926119e-01  -4.59681898e-01   1.63465053e-01]
 [  4.19446260e-01   2.30720177e-01   3.30897003e-01  -3.94824564e-01
   -1.50917768e-01   3.75361770e-01  -5.76918423e-01   4.67659742e-01
   -3.66612971e-01   1.80014789e-01  -1.16308905e-01   2.66028970e-01
   -7.77068734e-02   9.26863402e-02   3.30505788e-01  -1.42377451e-01]
 [  1.01705916e-01   1.29313424e-01   1.96798280e-01   2.35187143e-01
    7.22104982e-02  -9.22845863e-03  -2.26874024e-01  -9.80258659e-02
    2.53189415e-01  -4.58374992e-02  -1.98738664e-01  -2.05148548e-01
   -2.96124011e-01  -1.31622076e-01  -3.97320211e-01   1.27093226e-01]
 [ -3.68880212e-01  -8.61845538e-02   1.29868135e-01  -2.35750023e-02
   -2.53343284e-02   7.46618956e-02   2.00067759e-01  -3.78491431e-02
    1.03108268e-02   5.21461107e-02  -5.82324993e-03   8.52456912e-02
   -1.62028447e-01  -2.48929679e-01  -4.33636904e-01  -1.89529970e-01]
 [  4.29799408e-01   6.19624436e-01  -3.95785391e-01  -3.88432413e-01
    2.98036724e-01   5.75557470e-01  -5.80789447e-01   6.74896836e-01
   -5.47295570e-01   5.70738018e-01   2.16347188e-01  -2.13644117e-01
   -2.14369193e-01  -9.19380337e-02  -6.13497019e-01   1.05771196e+00]
 [  2.43083294e-02   5.51334798e-01   1.07851028e-01  -4.54765379e-01
    4.43642467e-01   4.35021520e-01  -3.36807668e-01   2.93418407e-01
   -5.37494481e-01   5.98603129e-01  -1.95136040e-01  -1.56741306e-01
   -4.20674771e-01   2.83295233e-02  -5.40667474e-01   6.27020597e-01]
 [  7.50142187e-02   3.32413316e-02  -4.19597983e-01  -1.00079022e-01
   -1.58445444e-02   4.66199398e-01  -2.38687515e-01   3.52550238e-01
   -2.47852117e-01   1.90562546e-01   5.01954079e-01   2.01281294e-01
    2.96637207e-01  -2.47353297e-02   2.14137077e-01   1.03819519e-01]
 [ -3.09041709e-01  -2.04037532e-01   2.86772251e-01  -4.78989482e-02
   -1.57280311e-01  -7.68614933e-02   4.16125953e-01   4.09085304e-02
   -1.11325376e-01  -3.52044374e-01  -6.78999603e-01   2.23191842e-01
   -2.66038120e-01  -7.13903233e-02  -1.28959790e-01  -3.59118760e-01]
 [  6.69569001e-02  -2.76270919e-02   3.04708481e-01   4.56170216e-02
   -1.11434394e-02   1.60465166e-01  -4.34410185e-01   1.33270383e-01
    2.87350416e-02   3.06265712e-01  -3.26978147e-01  -2.93625891e-01
   -7.20290393e-02  -4.00183350e-02  -5.15673339e-01   3.51467617e-02]
 [  2.24272370e-01   4.13472414e-01   1.55020386e-01  -4.38725442e-01
    5.26717484e-01   7.19822943e-01  -6.89092040e-01   9.71972495e-02
   -4.94694471e-01   6.01919174e-01  -1.53724682e+00  -2.27093890e-01
   -1.29568264e-01  -3.85871045e-02  -4.17392164e-01   2.09011257e-01]
 [  7.03312531e-02   5.59874356e-01  -5.10724783e-01  -3.36532235e-01
   -4.16448340e-02   7.21755743e-01  -4.29906875e-01   1.05834410e-01
   -4.91623580e-01   2.11836919e-01  -1.02186806e-01   9.40486968e-01
    5.95735192e-01  -1.58875838e-01   3.12354922e-01  -1.50001589e-02]
 [  6.96741976e-03  -2.02765223e-02   1.26783187e-02   1.16974100e-01
    6.88363016e-02  -2.41132677e-01   6.11102022e-02  -2.37230971e-01
    1.41573876e-01  -2.34338373e-01  -7.14483783e-02  -8.18088800e-02
    1.04607092e-02  -6.08430915e-02  -1.73908964e-01  -7.83855002e-03]
 [  2.18922362e-01   2.73375332e-01   4.43168908e-01  -3.53780448e-01
    5.83640695e-01   7.65250444e-01  -6.54306531e-01   2.30650932e-01
   -3.74190629e-01   3.78882289e-01  -1.65325332e+00   4.69624288e-02
   -8.28781277e-02  -1.21142805e-01  -2.75305599e-01  -1.00466169e-01]
 [  5.04048705e-01   1.07776411e-01  -3.50233674e-01  -3.18387091e-01
    2.43906826e-01   7.44794190e-01  -6.72059119e-01   1.40747517e-01
   -5.64975977e-01   1.94930479e-01  -3.97491962e-01   4.78465140e-01
    5.19331396e-01  -1.76016480e-01   1.45675927e-01  -8.01000893e-02]
 [ -1.67800948e-01   4.01395828e-01  -1.57816917e-01  -2.90652543e-01
   -1.37906983e-01   6.00458205e-01  -2.74064034e-01   1.32116929e-01
   -1.69786781e-01   1.54159874e-01  -1.46560580e-01   5.11189461e-01
    3.61642301e-01  -1.71244666e-01   3.07748407e-01  -3.38281807e-03]
 [ -2.17459649e-01   3.15489508e-02  -4.93649975e-04  -1.28136709e-01
    1.38652831e-01   2.64188647e-01  -4.70898628e-01   2.19670564e-01
   -4.15522128e-01   5.02569489e-02  -1.17977172e-01  -2.51998752e-01
   -1.06500745e-01   7.98051476e-01  -7.09522426e-01   2.75777876e-01]
 [ -9.28461313e-01  -9.49799195e-02   6.67092353e-02   1.64648011e-01
    2.03663081e-01   5.97790927e-02   3.67583334e-02  -4.52092811e-02
    7.20332637e-02  -1.23094566e-01   2.96619833e-02  -1.09794237e-01
   -9.21629444e-02   1.92294732e-01  -1.30118355e-01   1.51882127e-01]
 [  1.46436021e-01   1.68332502e-01   1.40906945e-01   5.31858087e-01
    1.06019489e-01   7.81170279e-02   1.14842296e-01  -1.48805724e-02
   -2.56325472e-02   1.20889612e-01   4.70629752e-01  -2.46171266e-01
   -1.94913238e-01   4.90197241e-02  -2.26536602e-01   3.61656040e-01]]