Alice
[[  1.11618452e-03   1.10048614e-03   1.24688784e-03 ...,   1.13266113e-03
   -1.18467072e-03   1.08762179e-03]
 [  1.12891046e-03   1.21411635e-03   1.28683669e-03 ...,   1.23748288e-03
   -1.17113697e-03   1.21469598e-03]
 [  1.15389272e-03   1.18754199e-03   1.28953287e-03 ...,   1.21368736e-03
   -1.21954095e-03   1.17119867e-03]
 ..., 
 [  1.32683527e+00   1.37035525e+00   1.40814865e+00 ...,   1.25606096e+00
   -1.21263623e+00   1.33135712e+00]
 [  1.34274840e+00   1.41374767e+00   1.56649673e+00 ...,   1.40752685e+00
   -1.42799461e+00   1.37795174e+00]
 [  1.64563406e+00   1.53711808e+00   1.38551748e+00 ...,   1.62012744e+00
   -1.17818415e+00   1.51805818e+00]]
Bob
[[ -1.18503056e-03  -1.17852341e-03   1.19531364e-03 ...,  -1.17656437e-03
    1.16141106e-03  -1.25837338e-03]
 [ -1.15823455e-03  -1.20434037e-03   1.26384734e-03 ...,  -1.19716325e-03
    1.20731688e-03  -1.27938995e-03]
 [ -1.09324697e-03  -1.13987131e-03   1.19408686e-03 ...,  -1.13661960e-03
    1.14417728e-03  -1.22277846e-03]
 ..., 
 [ -1.46089876e+00  -1.34969509e+00   1.34831727e+00 ...,  -1.29922855e+00
    1.47683179e+00  -1.38597858e+00]
 [ -1.49892557e+00  -1.36132300e+00   1.49004853e+00 ...,  -1.25131202e+00
    1.49612522e+00  -1.45048404e+00]
 [ -1.50188780e+00  -1.63595891e+00   1.46456468e+00 ...,  -1.30603778e+00
    1.34837568e+00  -1.23895574e+00]]
Eve
[[-3.02397847 -2.83387637  3.27107263 ..., -3.10989857  3.28207803
  -2.84550881]
 [-2.9028008  -3.28252745  3.33009171 ..., -3.08516955  3.32897067
  -2.99404502]
 [-3.24437165 -3.29161263  3.2619319  ..., -2.97430325  3.36341023
  -3.00818038]
 ..., 
 [-3.01813221 -2.94358969  2.95164895 ..., -3.24388146  2.98163724
  -3.32029319]
 [-2.81805468 -3.19478273  3.02725387 ..., -3.24906468  3.18040657
  -3.12922478]
 [-2.72268009 -2.86626029  3.17538309 ..., -2.80973697  2.98086858
  -3.16681099]]