Alice
[[  3.21248174e-03   3.39578185e-03  -3.38134705e-03   3.33394227e-03
    3.32439062e-03   3.37758008e-03  -3.49439052e-03   3.21426359e-03
    3.52506153e-03  -3.53244599e-03  -3.46895796e-03  -3.39377462e-03
   -3.34963598e-03  -3.35409096e-03   2.18817025e-01   3.32645164e-03]
 [  2.96520698e-03   3.16744181e-03  -3.13883019e-03   3.13463132e-03
    3.09233321e-03   3.16489022e-03  -3.19475913e-03   2.93628289e-03
    3.24088591e-03  -3.27714882e-03  -3.16421269e-03  -3.17640044e-03
   -3.12137674e-03  -3.14692128e-03   2.21116170e-01   3.09608574e-03]
 [  3.07648978e-03   3.26236547e-03  -3.22529743e-03   3.24848853e-03
    3.17560392e-03   3.25409765e-03  -3.31367692e-03   3.04055493e-03
    3.36074177e-03  -3.40072298e-03  -3.33425659e-03  -3.23137222e-03
   -3.21556884e-03  -3.26369470e-03   2.17075408e-01   3.20153055e-03]
 [  2.91105150e-03   3.08847078e-03  -3.05470708e-03   3.03529529e-03
    3.02260369e-03   3.07291164e-03  -3.13734030e-03   2.87953182e-03
    3.19215795e-03  -3.21172085e-03  -3.14970012e-03  -3.07130581e-03
   -3.05427494e-03  -3.06115835e-03   2.17426032e-01   3.01397988e-03]
 [  2.86515872e-03   3.05575482e-03  -3.01596476e-03   2.99214618e-03
    2.99305166e-03   3.04161641e-03  -3.05171148e-03   2.86667747e-03
    3.15899891e-03  -3.16662272e-03  -3.05368844e-03  -3.02728266e-03
   -2.99399532e-03  -3.02578346e-03   2.20469221e-01   2.96936510e-03]
 [  2.96521047e-03   3.12386872e-03  -3.09585175e-03   3.07562319e-03
    3.06199375e-03   3.12342262e-03  -3.15948389e-03   2.94231507e-03
    3.24120373e-03  -3.28263687e-03  -3.19645694e-03  -3.11089470e-03
   -3.08383582e-03  -3.10761714e-03   2.19024584e-01   3.07241478e-03]
 [  3.06630647e-03   3.21049313e-03  -3.18485545e-03   3.16821411e-03
    3.15060886e-03   3.20776226e-03  -3.29878367e-03   3.01842741e-03
    3.34685831e-03  -3.35580949e-03  -3.30716581e-03  -3.20608262e-03
   -3.23070306e-03  -3.20810429e-03   2.19971165e-01   3.14857787e-03]
 [  2.92909378e-03   3.09984153e-03  -3.05197015e-03   3.05311661e-03
    3.02271638e-03   3.08473199e-03  -3.11419391e-03   2.88973586e-03
    3.21509782e-03  -3.23427469e-03  -3.13789491e-03  -3.07087670e-03
   -3.06946109e-03  -3.08563444e-03   2.17397034e-01   3.02922446e-03]
 [  2.98438757e-03   3.19192442e-03  -3.15022655e-03   3.12495488e-03
    3.09138815e-03   3.17017059e-03  -3.21317883e-03   2.99033802e-03
    3.29112750e-03  -3.30506545e-03  -3.20853572e-03  -3.13384319e-03
   -3.14826262e-03  -3.13406321e-03   2.18872041e-01   3.11307469e-03]
 [  2.82502174e-03   2.96864146e-03  -2.98470608e-03   2.94265593e-03
    2.91546318e-03   2.99064629e-03  -3.02558066e-03   2.78254598e-03
    3.10957758e-03  -3.11476970e-03  -2.99561466e-03  -3.00232205e-03
   -2.93850317e-03  -2.98800319e-03   2.16949016e-01   2.93885428e-03]
 [  3.10659525e-03   3.27377743e-03  -3.22841411e-03   3.20403115e-03
    3.21710436e-03   3.24654393e-03  -3.33507219e-03   3.08207073e-03
    3.39763402e-03  -3.38780670e-03  -3.31664993e-03  -3.26435873e-03
   -3.24387220e-03  -3.24234320e-03   2.17204541e-01   3.19849304e-03]
 [  3.16097611e-03   3.32186930e-03  -3.29824141e-03   3.29230353e-03
    3.27969925e-03   3.32600274e-03  -3.38962139e-03   3.13174212e-03
    3.45755368e-03  -3.46571417e-03  -3.38634220e-03  -3.32206627e-03
   -3.26085859e-03  -3.32761789e-03   2.20112920e-01   3.26135056e-03]
 [  2.99561326e-03   3.17743910e-03  -3.16283363e-03   3.14846775e-03
    3.13769770e-03   3.15790251e-03  -3.22171510e-03   2.98782717e-03
    3.30309314e-03  -3.30085307e-03  -3.22064990e-03  -3.18454998e-03
   -3.15934606e-03  -3.16644297e-03   2.20717132e-01   3.09274346e-03]
 [  2.89980578e-03   3.10573471e-03  -3.05716787e-03   3.05800303e-03
    3.01603484e-03   3.05569218e-03  -3.14735295e-03   2.89649004e-03
    3.21843498e-03  -3.20975669e-03  -3.15896608e-03  -3.08302767e-03
   -3.06612556e-03  -3.06946551e-03   2.19478846e-01   3.01203527e-03]
 [  2.92627770e-03   3.10660526e-03  -3.09638889e-03   3.08478763e-03
    3.04711214e-03   3.12129501e-03  -3.16762272e-03   2.93375738e-03
    3.25061497e-03  -3.26597481e-03  -3.20902653e-03  -3.14860325e-03
   -3.08713876e-03  -3.11102299e-03   2.21178785e-01   3.02881817e-03]
 [  3.21954046e-03   3.36834788e-03  -3.37917055e-03   3.34672816e-03
    3.30951414e-03   3.39567964e-03  -3.38755921e-03   3.17596644e-03
    3.48380813e-03  -3.51090450e-03  -3.42625240e-03  -3.36332782e-03
   -3.32082249e-03  -3.37608485e-03   2.17669517e-01   3.33007914e-03]
 [  2.68351388e+00   2.20564413e+00  -2.49682331e+00   2.49020171e+00
    2.46945047e+00   2.57628155e+00  -1.39662802e-01   2.57075548e+00
    2.46641612e+00  -2.39432263e+00   9.05617476e-02  -2.58316755e+00
   -2.33231091e+00  -2.41509795e+00   4.22621183e-02   2.48898578e+00]
 [  2.76095581e+00   2.89826751e+00  -2.81128120e+00   2.81527901e+00
    2.83286285e+00   2.84035420e+00   4.78051640e-02   2.84164596e+00
    2.89127636e+00  -2.93031454e+00   8.28608200e-02  -2.37768936e+00
   -2.67686152e+00  -2.82627082e+00   2.81674806e-02   2.67764902e+00]
 [  2.04432106e+00   2.58710337e+00  -2.22646403e+00   2.49658298e+00
    2.32792640e+00   1.86001313e+00   2.11166069e-01   1.99424851e+00
    2.12499905e+00  -2.41403294e+00  -6.98275045e-02  -2.04589295e+00
   -2.18502641e+00  -2.25094008e+00   2.79857032e-02   2.60448122e+00]
 [  2.83229303e+00   2.76333261e+00  -2.71248579e+00   2.91084337e+00
    2.78050947e+00   2.73671269e+00   1.15487583e-01   2.59688592e+00
    2.63684702e+00  -2.59355903e+00   9.39710811e-02  -2.90128231e+00
   -2.73764420e+00  -2.53188705e+00   3.63706909e-02   2.57094121e+00]
 [  2.71682572e+00   2.43904281e+00  -2.70395303e+00   2.48505521e+00
    2.33033609e+00   2.65174699e+00   4.28634174e-02   2.67452002e+00
    2.81567550e+00  -2.72078586e+00   8.13211650e-02  -2.77318430e+00
   -2.83804727e+00  -2.60585570e+00   2.49185730e-02   2.57060409e+00]
 [  2.73199296e+00   2.89347577e+00  -2.81087923e+00   2.61496043e+00
    2.81561685e+00   2.87221527e+00   2.21806746e-02   2.82201385e+00
    2.78169227e+00  -2.73813748e+00   3.16893458e-02  -2.84665585e+00
   -2.83728719e+00  -2.53932571e+00   3.10347341e-02   2.88200045e+00]
 [  2.15709233e+00   2.42860723e+00  -2.07393837e+00   2.09002900e+00
    2.55718875e+00   2.27983499e+00   5.16000278e-02   2.32022214e+00
    2.39766788e+00  -2.11520648e+00   2.81333476e-01  -1.92876852e+00
   -1.90489936e+00  -2.59605598e+00  -3.57389987e-01   2.01225686e+00]
 [  1.96171331e+00   2.04933429e+00  -2.62270522e+00   2.55366683e+00
    2.33827925e+00   2.43327546e+00  -1.08637568e-03   2.44707727e+00
    2.51794887e+00  -2.63035083e+00   3.09034586e-01  -2.15832019e+00
   -2.38216090e+00  -2.58138847e+00  -1.73302487e-01   2.61723375e+00]
 [  2.51812744e+00   2.53670096e+00  -2.13580942e+00   2.08185792e+00
    2.10686326e+00   2.52861810e+00   4.30664748e-01   2.25728321e+00
    2.15118051e+00  -2.12024331e+00   4.77144383e-02  -2.49507666e+00
   -2.63864684e+00  -2.16563368e+00  -1.77376315e-01   1.99378109e+00]
 [  2.78872085e+00   2.48895979e+00  -2.72237968e+00   2.84193850e+00
    2.72439194e+00   2.77311969e+00   4.29146476e-02   2.79797268e+00
    2.55024743e+00  -2.68513727e+00   6.93261102e-02  -2.73274565e+00
   -2.68743300e+00  -2.60873985e+00   2.79672947e-02   2.69263959e+00]
 [  2.78084230e+00   2.61431456e+00  -2.79500008e+00   2.85896111e+00
    2.68423128e+00   2.51649523e+00  -6.09400962e-03   2.84829569e+00
    2.86486769e+00  -2.64274812e+00  -1.31766368e-02  -2.67854238e+00
   -2.93136525e+00  -3.15217185e+00   2.78421603e-02   2.86788201e+00]
 [  2.71697664e+00   2.56990004e+00  -2.67672873e+00   2.62971687e+00
    2.77449489e+00   2.64669847e+00  -1.78010300e-01   2.65455437e+00
    2.70246840e+00  -2.75643277e+00   2.02520844e-02  -2.77257395e+00
   -2.50424337e+00  -2.73793840e+00   1.91442054e-02   2.75014687e+00]
 [  2.68712211e+00   2.84154034e+00  -2.66743231e+00   2.78589296e+00
    2.76168847e+00   2.72068906e+00   4.86349314e-02   2.77566385e+00
    2.51444077e+00  -2.59011149e+00   7.74053335e-02  -2.82348752e+00
   -2.49500465e+00  -2.54495692e+00   2.79721450e-02   2.77174640e+00]
 [  2.87974262e+00   2.86745858e+00  -2.80824852e+00   2.58097076e+00
    2.85041714e+00   2.87179613e+00   4.37469967e-02   2.72517490e+00
    2.74298358e+00  -2.78195643e+00   5.31797186e-02  -2.89869118e+00
   -2.82253790e+00  -2.81535625e+00   2.93919239e-02   2.65273428e+00]
 [  2.72641063e+00   2.79236341e+00  -2.79276085e+00   2.86301947e+00
    2.78668642e+00   2.67616153e+00  -1.35838675e+00   2.63029456e+00
    2.72703528e+00  -2.66089487e+00   1.60359628e-02  -2.77156377e+00
   -2.66149378e+00  -2.73089647e+00   2.34440845e-02   2.73276377e+00]
 [  2.68818617e+00   2.63419700e+00  -2.61036825e+00   2.63221240e+00
    2.58541036e+00   2.69123769e+00   1.21569224e-02   2.68515277e+00
    2.65108514e+00  -2.75870204e+00  -1.40321720e+00  -2.72552872e+00
   -2.80999804e+00  -2.64936209e+00   2.93015707e-02   2.70504189e+00]]
Bob
[[  9.42771137e-03   7.18344562e-03   4.23540454e-03   6.53410750e-03
   -6.80653844e-03   2.33060331e-03  -2.80917296e-03  -4.40935092e-03
    4.02752450e-03  -4.56819795e-02  -1.27242610e-03  -4.76184580e-03
   -5.75514184e-03  -3.69745493e-03   1.19296531e-03  -3.32879717e-03]
 [ -3.36705451e-03   5.98498993e-03   1.81758835e-03   3.81580042e-03
   -5.40126953e-03   4.81048506e-03  -1.67781522e-03  -1.95770035e-03
    2.06348952e-03   6.03545643e-03   5.05589396e-02  -5.64143527e-03
   -5.86577132e-03  -5.70498174e-03   7.23749353e-03  -6.16106810e-03]
 [ -3.78667424e-03   4.22707386e-03   3.43591004e-04   2.44157645e-03
   -3.67131573e-03   5.23413159e-03  -8.02551687e-04  -7.59776565e-04
    5.72487072e-04   4.11675638e-03  -5.98834828e-03  -3.65698733e-03
   -3.86076677e-03  -5.14074275e-03   5.70325274e-03  -5.86160971e-03]
 [  1.25180539e-02  -4.54518571e-02   5.74363442e-03   6.88197743e-03
   -6.32686261e-03   3.14123929e-03  -3.66103905e-03  -5.67596080e-03
    5.10561466e-03   4.82405256e-03  -1.63815217e-03  -4.45543788e-03
   -5.65322349e-03  -3.27906222e-03   1.65341608e-03  -2.60275695e-03]
 [  4.69902623e-03   6.28943415e-03   3.40027991e-03   5.27472189e-03
   -6.85495185e-03   2.95633660e-03  -2.38566217e-03  -3.30874347e-03
    3.42790922e-03   6.00876939e-03  -1.88371364e-03  -4.88300622e-03
   -6.28359988e-03   4.85494137e-02   3.79329710e-03  -3.68453958e-03]
 [ -1.20357014e-02   5.43270865e-03   4.94082319e-03   1.11418646e-02
   -4.38838778e-03   1.46819570e-03  -3.08467029e-03  -3.03737330e-03
    5.42783132e-03   5.48380241e-03   3.43743959e-05   2.88220439e-02
   -5.71847055e-03  -3.42423562e-03  -5.45666628e-02  -2.40086461e-03]
 [  1.26598952e-02   5.01654344e-03   4.79275128e-03   6.26142975e-03
    4.25667353e-02   3.32291704e-03  -3.07028228e-03  -4.90211649e-03
    4.73937578e-03   3.66359460e-03  -2.12358125e-03  -5.24753984e-03
   -4.32067644e-03  -3.52758565e-03   1.72484631e-03  -3.34891956e-03]
 [ -3.37992003e-03   4.91927331e-03   7.32623797e-04   1.75835507e-03
   -3.08798347e-03   5.48417494e-03  -1.08401140e-03  -1.24538958e-03
    1.00173266e-03   4.55671642e-03  -6.76013064e-03  -3.39641282e-03
   -4.95772343e-03  -5.38988505e-03   6.60110870e-03  -6.60223654e-03]
 [ -1.12291658e-02   4.19559563e-03   1.83868641e-03   1.31606846e-03
   -4.85550612e-03   5.65754669e-03  -1.83940388e-03  -2.44935765e-03
    1.72837975e-03   4.21802979e-03  -5.73713705e-03  -2.87414808e-03
   -4.08604927e-03  -5.08805132e-03   7.43379816e-03  -5.50083164e-03]
 [  1.14489514e-02   6.34391420e-03   5.20933373e-03   7.31232809e-03
   -6.15789788e-03   2.96063209e-03  -3.33581446e-03  -4.90419241e-03
    4.66693984e-03   4.53797635e-03  -2.06545251e-03  -5.90992486e-03
    4.45296727e-02  -2.98299082e-03   1.59036589e-03  -3.82968481e-03]
 [ -2.95881392e-03   4.60787117e-03   6.99110446e-04   2.66894489e-03
   -4.63088695e-03   6.58059353e-03  -1.12095487e-03  -1.18146348e-03
    1.00117805e-03   5.01767267e-03  -6.69345725e-03  -3.87252914e-03
   -4.52590361e-03  -5.55242505e-03   5.76796895e-03  -7.01147644e-03]
 [  3.78882699e-03   5.55548491e-03   1.94506370e-03   5.48534328e-03
   -6.20547263e-03   3.48969852e-03  -2.46538152e-03  -3.96188209e-03
    2.75141886e-03   5.72583685e-03  -2.24139891e-03  -5.35648223e-03
   -6.54891180e-03  -4.19109408e-03   4.33512498e-03   5.60192391e-02]
 [ -3.17855785e-03   4.22755582e-03   8.42803682e-04   2.28036358e-03
   -4.25502844e-03   5.67767397e-03  -1.08246726e-03  -1.34160626e-03
    1.11983239e-03   5.17261168e-03  -5.78547129e-03  -3.65176331e-03
   -4.14580014e-03  -4.77221049e-03   6.73301052e-03  -6.05470827e-03]
 [  2.46605137e-03   6.43363409e-03   2.65873247e-03   4.78971703e-03
   -6.21456048e-03  -4.91132475e-02  -1.92828535e-03  -2.55774707e-03
    2.65758857e-03   5.21347858e-03  -2.79081892e-03  -4.85986425e-03
   -5.92956226e-03  -5.05861733e-03   4.34956932e-03  -4.86142747e-03]
 [  2.01600175e-02   3.18334927e-03   4.29162197e-03  -3.59974094e-02
   -3.50471889e-03   2.23021139e-03  -2.89117824e-03  -3.87130049e-03
    4.46826965e-03   3.06587853e-03  -1.36526476e-03   3.65097523e-02
   -3.75694828e-03  -2.82401266e-03   1.28490906e-02  -3.19650327e-03]
 [ -4.04582266e-03   3.52653465e-03   2.83143774e-04   2.42079142e-03
   -4.84774541e-03   6.81695249e-03  -7.96796696e-04  -7.04047503e-04
    5.42308611e-04   4.77484334e-03  -6.52876589e-03  -3.70790274e-03
   -4.77791252e-03  -5.55320596e-03   5.97633095e-03  -5.84908854e-03]
 [  2.06269956e+00   2.03168130e+00   2.11338329e+00   1.63500535e+00
   -2.12675524e+00   1.72115862e+00   4.08829339e-02  -2.06915092e+00
    2.18838310e+00   1.79214227e+00   2.16198111e+00   1.87767363e+00
   -1.81430566e+00  -2.18621683e+00   8.47598538e-03   8.97932574e-02]
 [  2.09535074e+00   2.14194345e+00   1.80922377e+00   2.05979371e+00
   -2.02628899e+00   2.06281376e+00   5.31430542e-02  -1.81942439e+00
    2.20136356e+00   1.75036359e+00   2.22986436e+00   1.94439673e+00
   -2.17162347e+00  -2.21213078e+00   1.06986001e-01   3.09661657e-01]
 [  2.21434355e+00   2.07215142e+00   2.05675149e+00   2.26094532e+00
   -2.13624263e+00   2.07172132e+00   4.68508527e-02  -2.06234479e+00
    1.75786281e+00   2.07753658e+00   1.66885865e+00   1.82815194e+00
   -2.08706951e+00  -1.72621489e+00  -1.52814209e-01  -3.17362994e-01]
 [  1.76437616e+00   2.01080251e+00   2.19221139e+00   2.21776819e+00
   -1.85984600e+00   2.20498729e+00   2.65965879e-01  -2.22771668e+00
    1.93345761e+00   2.16014743e+00   2.04935741e+00   2.17424202e+00
   -2.17916393e+00  -2.05972195e+00  -2.26084828e-01  -2.80903816e-01]
 [  1.87236595e+00   1.92567086e+00   2.07133269e+00   2.17151403e+00
   -2.22559714e+00   2.11687279e+00  -4.78217900e-02  -1.94120574e+00
    1.78058887e+00   2.23166275e+00   2.13383794e+00   2.14868903e+00
   -2.02095819e+00  -1.85866594e+00   9.30170864e-02   3.39933559e-02]
 [  1.97163737e+00   2.06007290e+00   1.71631336e+00   2.23597145e+00
   -2.01551223e+00   2.07332778e+00   2.19107985e-01  -2.36960006e+00
    1.95045948e+00   2.21272779e+00   1.98209429e+00   2.14599037e+00
   -2.10128903e+00  -1.97543955e+00   1.30334556e-01  -2.35136926e-01]
 [  1.99677634e+00   1.93184900e+00   2.04965019e+00   2.09236693e+00
   -1.69132137e+00   1.99725389e+00  -1.60134748e-01  -1.77601385e+00
    1.74014735e+00   1.75277841e+00   1.74865425e+00   2.06265974e+00
   -1.69511926e+00  -1.90314710e+00   4.16941345e-01  -7.95181021e-02]
 [  1.85984957e+00   1.93847156e+00   1.84728134e+00   1.86897755e+00
   -1.71754825e+00   1.89761364e+00   3.36773545e-02  -1.72203600e+00
    1.67813122e+00   1.74131358e+00   1.91777170e+00   2.09930730e+00
   -1.85206342e+00  -2.30802226e+00   7.13411048e-02  -2.69449204e-01]
 [  2.13233018e+00   1.98181152e+00   1.84481597e+00   2.17994404e+00
   -2.32458067e+00   2.03284931e+00  -9.85603482e-02  -2.14492130e+00
    1.91974199e+00   2.00730419e+00   2.11610246e+00   2.10803962e+00
   -1.95026398e+00  -2.27338576e+00   1.40147684e-02  -1.09083347e-01]
 [  2.18895483e+00   1.88575327e+00   2.17879128e+00   2.02902269e+00
   -1.91841662e+00   1.95599675e+00   2.32467614e-02  -1.99907398e+00
    2.06676602e+00   2.06018281e+00   2.25354362e+00   2.21575761e+00
   -2.02034354e+00  -2.19422865e+00   5.75025566e-02   7.21326694e-02]
 [  2.03821921e+00   2.04014349e+00   1.98853278e+00   1.69849062e+00
   -1.79809368e+00   2.19721246e+00   1.02829225e-01  -1.70732737e+00
    2.21749568e+00   2.18397546e+00   2.00400972e+00   2.15524292e+00
   -2.06344676e+00  -1.84205377e+00   2.36959830e-01  -1.02333367e-01]
 [  2.07569623e+00   2.14327216e+00   2.04701543e+00   1.98698771e+00
   -2.26306748e+00   2.07550573e+00  -9.62168798e-02  -2.08214545e+00
    1.88155651e+00   1.99636161e+00   2.06228232e+00   1.66023719e+00
   -1.80146730e+00  -1.68435502e+00   1.90041676e-01   9.30465534e-02]
 [  1.84230542e+00   1.65916455e+00   1.72280622e+00   2.12461543e+00
   -1.86709380e+00   2.09131861e+00  -2.71734864e-01  -1.80133307e+00
    2.37532115e+00   2.17243171e+00   1.99481940e+00   2.00093651e+00
   -2.18451738e+00  -1.84695446e+00  -3.15953828e-02   7.53855556e-02]
 [  1.74520099e+00   2.16397047e+00   2.06702805e+00   1.74596214e+00
   -2.18856573e+00   1.88490188e+00   1.18165657e-01  -1.81583583e+00
    2.18072462e+00   2.07675862e+00   2.19689345e+00   2.08588815e+00
   -2.09229469e+00  -2.06101561e+00   6.69289604e-02   7.63557032e-02]
 [  5.74836850e-01   5.74013352e-01   5.55940628e-01   5.75247228e-01
   -5.77031732e-01   5.84875405e-01  -9.93581057e-01  -5.66563189e-01
    5.58140457e-01   5.71529388e-01   5.87928295e-01   5.83135962e-01
   -5.76562822e-01  -5.84524512e-01   6.80350699e-04   3.90581950e-03]
 [  2.07188392e+00   1.96312797e+00   2.22937012e+00   1.60971725e+00
   -1.75133276e+00   1.86730683e+00   1.70092374e-01  -2.20480847e+00
    2.01235747e+00   1.88153398e+00   2.03008056e+00   1.90433359e+00
   -1.96201360e+00  -2.06212640e+00   2.85293087e-02  -1.46210447e-01]]
Eve
[[ 3.52769661  3.32479787  3.29845691 -3.56708813 -2.9251163   2.9534297
  -1.96229565  3.4581635  -3.51707172  3.44051576  2.1767199   3.45795083
   3.36982608 -3.33781672  3.29201007 -3.31649876]
 [ 3.28920746  3.16495299  3.01652074 -3.21372509 -3.44116521  3.51392317
  -1.92217147  3.18722224 -3.39020729  3.20793772  1.70245099  3.18980742
   2.94076443 -3.00825644  3.17411971 -3.52078605]
 [ 3.39485168  3.27406836  3.27428293 -2.98264575 -3.23555613  3.4036994
  -1.94173527  3.1102519  -3.15384984  3.11446738  2.24952102  3.30358505
   3.20175934 -3.14627504  2.87798953 -3.2675426 ]
 [ 3.54731321  3.10127282  3.14644098 -3.21852565 -2.87990451  3.5451653
  -2.04875755  3.38155556 -3.26949501  3.54126215  1.77748108  3.53249145
   3.41332865 -3.50875115  3.36303234 -3.0829041 ]
 [ 3.4053278   3.4088254   3.27315044 -3.52036858 -3.44282794  3.36125803
  -1.8019582   3.33390307 -3.44718289  3.17020011  1.78425992  3.55399823
   2.97584128 -3.10527968  3.35866547 -3.18092036]
 [ 2.97064567  3.49218082  3.15956688 -3.40329385 -3.45702171  3.33437705
  -2.01394367  3.27184629 -3.59343219  3.4271369   2.05460596  3.04355907
   3.14051008 -3.26186132  2.98035741 -3.43135715]
 [ 2.78210711  2.9307518   2.83355117 -2.79539585 -3.2944932   2.68391395
  -1.66868162  3.17963719 -2.711797    2.98311949  1.89989376  3.15662193
   3.17470956 -2.59497929  2.73206782 -2.6778183 ]
 [ 3.44419169  3.37759566  2.90699816 -3.28917265 -3.24940014  2.88337994
  -2.21386576  2.88746428 -2.96717143  3.25864077  2.07371235  3.33927345
   3.40751672 -3.38167548  3.37654924 -3.22613549]
 [ 3.05211997  3.14697576  3.3437562  -3.08756638 -3.45087838  3.12581563
  -1.71337867  2.97243333 -3.44442225  3.51570082  1.95959997  3.1231997
   3.53857422 -3.03061438  2.98235297 -2.89604521]
 [ 2.98360491  2.88259554  3.23218584 -2.92098999 -3.16784     3.26842189
  -1.91178167  2.97677183 -3.12243366  3.41944265  2.0551734   3.45851398
   3.11226368 -3.26382661  3.05747056 -3.52902484]
 [ 3.05436921  3.20872593  3.1190455  -3.19540453 -2.87428045  2.90247679
  -1.77250028  2.79954267 -3.10422277  3.09201217  1.57464862  2.8962245
   3.19083762 -2.92167139  2.67980814 -2.94782877]
 [ 3.37255883  3.31406379  3.17891693 -3.22385693 -2.98604798  3.14731812
  -2.14835238  3.15605688 -3.19509602  3.22193909  1.74219525  3.11894059
   3.24548912 -3.03343129  3.23034739 -3.03242946]
 [ 3.20461941  3.09475088  3.29758596 -2.87262678 -3.30404377  3.41774297
  -1.97248363  3.06065345 -3.11797833  3.30495477  2.18283367  3.24986124
   3.2709372  -3.1677506   2.68838668 -3.35766506]
 [ 3.33616543  3.11460757  3.4760015  -2.983881   -3.40997219  3.14052629
  -2.16817045  3.44996834 -3.16750741  2.88737488  2.22371221  3.34381056
   3.10773206 -3.14240813  2.99792981 -3.53951144]
 [ 3.45904827  3.43084693  3.71996284 -3.69740319 -3.68124795  3.80022621
  -0.0901215   3.61412621 -3.62784958  3.56375885  0.06207862  3.73226476
   3.58346248 -3.61271071  2.84259987 -3.51141214]
 [ 3.27292013  2.93448067  3.41842341 -3.32056928 -2.99863529  3.39360642
  -1.89523244  3.41556787 -2.9370265   3.36626339  1.85151803  3.09934974
   3.16277719 -3.22996378  3.04005003 -3.29202914]
 [ 3.43596411  2.94996476  2.99996924 -3.11143303 -3.02420092  3.41618538
  -1.48086464  3.09208155 -2.85434413  3.01944685  0.40428388  3.45544887
   2.85615754 -3.11975813  2.91545033 -2.89308143]
 [ 3.03158593  3.17243695  3.10035062 -3.1990068  -3.34578443  3.34721088
  -0.7546916   3.17958617 -3.29285312  2.90497541  0.44247121  3.11851072
   3.5843873  -3.10976815  3.45637894 -3.28821802]
 [ 3.31473756  3.03144574  2.76178074 -3.13686562 -2.98345304  3.18434882
  -0.48886257  3.27694535 -3.29504728  3.32847404  1.07644105  3.15696573
   2.95885658 -2.81268287  2.92812777 -2.94808936]
 [ 3.42957759  3.22447324  3.25073791 -3.53886032 -3.12306213  3.07672286
   0.26517704  3.5160501  -3.46073103  3.4764998   0.22643276  3.32568765
   3.43739891 -3.21899199  3.32252479 -3.54037285]
 [ 3.11035252  3.29376531  2.97818375 -3.48023367 -3.32533431  2.8928287
  -0.79239881  3.18442559 -3.16758513  3.35187125  0.39913219  3.45830655
   3.00495505 -3.3360281   2.79188538 -3.088094  ]
 [ 2.97902942  3.33039379  3.27886391 -3.60437393 -3.37860465  3.40713477
  -1.940997    3.31800818 -3.24460626  3.45830369  1.95386934  3.23669147
   3.56104612 -3.20006132  3.23586774 -3.45932913]
 [ 3.06028008  2.9321692   3.23838234 -3.02173042 -2.99219799  3.15480661
  -0.4526653   2.69614148 -3.19267797  2.80474949  0.94886804  2.76697588
   2.91515636 -3.11285782  3.03992176 -2.70858812]
 [ 2.79373813  3.33914757  2.9048295  -3.03846097 -3.24095201  3.05405474
  -1.40778732  2.73018408 -3.12962246  3.3279326  -0.15306906  3.27185845
   3.07432747 -2.98136973  3.24782467 -3.34074426]
 [ 2.87934947  2.90672088  3.0564146  -3.24275994 -3.03880239  3.2784996
  -0.08845783  3.03738236 -3.19054627  2.82301164  0.89354217  2.83228016
   3.11643386 -3.02733755  2.72797704 -2.93035913]
 [ 3.49766874  3.4472816   3.41164804 -3.31205368 -3.00851631  3.16448617
  -0.92994314  3.04873896 -2.86414909  3.5221808   0.72149593  3.06646204
   2.97181654 -3.37042308  2.77017236 -3.42441869]
 [ 3.40532422  3.4669764   3.39471316 -3.18781948 -3.19427562  3.25134683
  -2.31231952  3.39069033 -3.29297113  3.11671615  2.50983453  3.09524369
   3.41732407 -3.09700608  3.26846218 -3.4924233 ]
 [ 3.4133718   3.00500607  3.48221922 -3.564533   -3.04437757  3.47354126
   1.42608476  2.98862481 -3.43709588  3.2304368   2.00636935  3.08966517
   3.15030766 -3.42626405  3.02576375 -3.5714879 ]
 [ 3.07031107  3.5420661   2.86317873 -3.48090577 -3.45154476  3.00924134
  -1.10441959  3.18375683 -2.94172955  3.27899623  0.4735001   3.09030223
   3.32608676 -2.85098553  2.98417115 -3.29120231]
 [ 3.20155621  3.08351398  3.56002712 -3.10701561 -3.48658347  3.56708407
  -1.38944888  3.17644238 -2.99553251  3.52558827  1.17140961  3.11572123
   3.27765942 -3.14497399  3.28623533 -3.4254446 ]
 [ 3.48990393  3.18526101  3.21368909 -3.56887984 -3.44688225  3.11327744
  -3.10034156  3.08346605 -3.08847713  2.92215323  1.86702085  2.87923169
   3.27354693 -3.25419545  3.24353218 -3.08628869]
 [ 3.2243681   3.06709933  3.21685219 -3.51378989 -3.44587421  2.92684841
  -2.18974733  3.24248958 -3.54065537  2.95038867  3.00586367  3.03610682
   3.1011095  -3.4780724   3.3965137  -3.31801105]]