Alice
[[-0.01746622 -0.0124427  -0.01631415 -0.01131902  0.01519095  0.01234585
   0.01699107  0.02171978]
 [-0.01684244 -0.0130316  -0.01603933 -0.01139245  0.01472819  0.01232197
   0.01666644  0.02156591]
 [-0.01790874 -0.0131221  -0.01623422 -0.01175259  0.01574506  0.01224893
   0.0168332   0.02137186]
 [ 0.08682853 -0.031432    0.05007068 -0.02365895  0.01602595  0.00317435
  -0.04803368  0.04708326]
 [-0.01462051 -0.03349542 -0.03410314 -0.01924097  0.00695456  0.00684878
  -0.05140336 -0.10324349]
 [-0.01782934  0.04726097 -0.03463378  0.03541884 -0.07718509  0.02348603
  -0.04634828  0.04700176]
 [-0.01706827 -0.01331419 -0.01647376 -0.01193857  0.01616053  0.01282778
   0.01702677  0.02125781]
 [-0.01766591 -0.01303754 -0.01646867 -0.01162291  0.01526094  0.01247868
   0.01708116  0.02110812]
 [ 0.11573185 -1.12389302 -1.49245238 -1.06228149  0.37805682  1.49076748
  -0.0399557   1.23541033]
 [-0.0451581  -2.09647727 -2.26079535 -2.42028952 -0.04745634  2.30633569
   0.13555235  2.39926815]
 [-0.00613723 -2.27976775 -2.15704823 -2.30612469  0.00474103  2.30518579
  -0.97337312  2.0312171 ]
 [-0.13106373 -1.0012629  -1.5880903  -1.6157949   0.45565405  1.57626939
   0.32091445  1.55589938]
 [ 0.56539303 -1.72905469 -1.25494611 -1.26032615 -1.34762716  1.40951431
   0.05138839  1.26866817]
 [-0.47149163 -1.38855636 -1.17814708 -1.61136734  0.71855694  1.44125009
   0.06332774  1.54138279]
 [ 0.25965241 -1.60765779 -1.21831167 -1.21021974 -0.592206    0.76855338
  -0.06271622  1.11926174]
 [-0.12317329 -2.21306324 -2.26775885 -2.2099998   0.07152933  2.1794405
   0.22434355  2.31569242]]
Bob
[[ -1.86786130e-02  -1.75658055e-02   2.92275157e-02  -1.73085034e-02
   -2.48862058e-02   1.83260199e-02   2.12428551e-02  -1.46845393e-02]
 [ -1.87365096e-02  -1.75866596e-02   2.89763790e-02  -1.73522364e-02
   -2.49861535e-02   1.81822386e-02   2.10247841e-02  -1.46911796e-02]
 [ -1.26454933e-02  -2.11000890e-02  -9.73307937e-02  -7.00262608e-03
   -2.66157165e-02   1.45717692e-02   8.26869812e-03  -1.21897906e-02]
 [ -1.24499882e-02  -2.13762634e-02  -9.70313773e-02  -6.99178409e-03
   -2.67114509e-02   1.45065859e-02   8.28690547e-03  -1.26386806e-02]
 [ -3.51577289e-02   1.11513793e-01  -8.09852686e-03  -4.33398597e-02
    5.01382388e-02   4.10599671e-02   3.41085419e-02   8.29981416e-02]
 [ -1.84842087e-02  -1.74198262e-02   2.89325379e-02  -1.71864256e-02
   -2.45351363e-02   1.80666372e-02   2.07140949e-02  -1.45396730e-02]
 [ -1.84683185e-02  -1.76985078e-02   2.87679639e-02  -1.74110327e-02
   -2.47130319e-02   1.80822387e-02   2.11513266e-02  -1.47535922e-02]
 [ -1.84991695e-02  -1.76751539e-02   2.83552650e-02  -1.73651353e-02
   -2.45412420e-02   1.81770623e-02   2.11721677e-02  -1.49570834e-02]
 [ -2.63505602e+00   3.01137194e-02   1.08615190e-01  -2.63663077e+00
   -2.58658481e+00   2.58374572e+00   2.47570467e+00   6.53910816e-01]
 [ -1.69119120e+00   4.11998987e-01  -2.48339802e-01  -2.16777563e+00
   -2.45657945e+00   1.56600368e+00   1.33766341e+00   3.66246738e-02]
 [ -2.01161647e+00  -6.41128123e-02   1.99728623e-01  -1.56400406e+00
   -1.80668008e+00   2.23666930e+00   1.37583780e+00   8.70149955e-02]
 [ -1.76330006e+00   8.63898933e-01   5.55206656e-01  -1.51433194e+00
   -1.73538995e+00   1.52692521e+00   1.49791455e+00  -1.19896032e-01]
 [ -2.27823400e+00  -4.67393026e-02   1.85090259e-01  -2.62764740e+00
   -2.50455880e+00   2.40233850e+00   2.62130833e+00  -1.70367628e-01]
 [ -1.30509067e+00  -4.31903154e-01  -1.55057624e-01  -1.57621241e+00
   -1.66243601e+00   1.66994846e+00   1.49566257e+00   1.92391932e-01]
 [ -2.61870599e+00  -3.58240128e-01  -7.66797364e-01  -2.53185344e+00
   -2.53178167e+00   2.47184348e+00   2.78185725e+00  -2.06171364e-01]
 [ -2.41665149e+00  -2.41179019e-03   1.62078798e-01  -2.25739884e+00
   -2.20588183e+00   2.13917661e+00   2.83090687e+00  -1.08126983e-01]]
Eve
[[-2.68635273 -3.43827009  3.80653405 -3.48801708 -1.36692917 -3.80228353
  -0.10046205  3.66366959]
 [ 0.13814527 -3.28628898  3.71566963 -3.20348668  0.59598559 -3.80222869
  -1.23754001  3.64593172]
 [-2.08025932 -3.89710951  3.07039714 -3.03656673 -1.2389183  -2.98832202
  -1.29662025  3.02377558]
 [-0.17350315 -3.15614343  3.66336012 -3.76411152  1.12977242 -3.73549724
  -0.20993482  3.66816497]
 [-1.67251003 -3.24573517  3.40606189 -3.63328958 -0.93437541 -3.85391402
  -1.20306468  3.6676693 ]
 [-1.73133838 -3.54956985  3.33226657 -3.7041285  -1.40172863 -3.36279392
  -2.49320841  3.74074054]
 [ 0.11777657 -3.54417396  3.54225826 -3.46080852 -3.14109111 -3.29045272
  -3.68831563  3.59779167]
 [-0.23624921 -3.40209198  3.68086767 -3.73056316 -1.17532682 -3.49337816
  -0.53790295  3.70434022]
 [-0.84802628 -3.81285644  3.30273104 -2.92703366 -0.05844657 -3.10536051
  -1.42642903  2.99561644]
 [-2.22778773 -3.86786294  3.48064899 -3.21031785 -2.48433852 -3.14789534
  -1.44231856  3.6266892 ]
 [-0.76695073 -3.98246884  3.71307802 -3.95366693 -0.75013381 -3.35056734
  -3.13715291  3.55379772]
 [-1.08298337 -3.04550457  3.78365278 -3.44477677  0.74897462 -3.22387338
  -0.27680549  3.18181682]
 [ 1.4457134  -3.33862901  3.8439579  -3.6652627  -2.65137029 -3.53800583
  -0.24889547  2.98845553]
 [-0.73672259 -3.47148919  3.53695893 -3.02462482  0.54332596 -3.37848997
  -1.14204872  3.41428065]
 [-0.05112763 -3.26225162  3.41168904 -3.36779213 -0.36147025 -3.97227216
   0.30272272  3.54545736]
 [-1.71885896 -3.29384851  3.40119886 -3.16546655 -3.16344523 -3.82143188
  -1.11701667  3.67674136]]