Alice
[[  1.01110838e-01   1.20419209e-04   2.49862447e-01   1.20262682e-01
    2.22931057e-01   1.00640692e-01  -2.45903373e-01  -5.12104370e-02]
 [  1.01630598e-01   1.20966615e-04   2.49814689e-01   1.19569294e-01
    2.23825574e-01   1.00950137e-01  -2.47978240e-01  -5.12864627e-02]
 [  5.16349599e-02  -7.83681389e-05   2.69605815e-01  -2.46725772e-02
   -4.13064137e-02  -2.01246166e+00  -9.78072137e-02  -8.32675844e-02]
 [  1.01918489e-01   1.06119034e-04   2.49066114e-01   1.20889366e-01
    2.24509984e-01   1.01636931e-01  -2.48030737e-01  -5.12334034e-02]
 [  1.00921586e-01   1.02025580e-04   2.49948055e-01   1.20327003e-01
    2.22526088e-01   1.00226775e-01  -2.44810015e-01  -5.11475690e-02]
 [ -1.33094653e-01   5.17988980e-01  -1.57937467e-01   1.51743010e-01
   -1.34932622e-01   8.78109559e-02  -2.33088732e-01   3.47103514e-02]
 [  1.01376571e-01   1.16072566e-04   2.50047475e-01   1.21743813e-01
    2.23313287e-01   1.02180518e-01  -2.47403890e-01  -5.13179079e-02]
 [  9.61540267e-02  -3.01116597e-05  -3.80319357e-01   1.37193292e-01
    7.00905994e-02   5.71886264e-02  -6.38724305e-03   2.12741122e-02]
 [  9.57466313e-04  -8.30995705e-05  -5.02134717e-05   2.52945185e-01
   -1.02804019e-03   1.24969322e-03   2.53128052e-01   1.00986962e-03]
 [  9.77701740e-04  -6.40569488e-05  -3.35140903e-05   2.53661901e-01
   -1.01280981e-03   1.21549331e-03   2.53905863e-01   1.02990645e-03]
 [  9.82949627e-04  -6.26916735e-05  -4.31673907e-05   2.52565324e-01
   -1.03463395e-03   1.17386016e-03   2.52792567e-01   1.06451090e-03]
 [  9.43489082e-04  -7.14422858e-05  -8.62076049e-05   2.53167748e-01
   -9.88566200e-04   1.20279391e-03   2.53429055e-01   1.01589388e-03]
 [  9.79545526e-04  -7.24060737e-05  -1.18538279e-04   2.51722902e-01
   -1.00486819e-03   1.20691501e-03   2.51928449e-01   1.01146207e-03]
 [  9.37894161e-04  -9.42737461e-05  -1.61389944e-05   2.53914982e-01
   -1.04068068e-03   1.25846569e-03   2.54086345e-01   1.00741652e-03]
 [  9.55334515e-04  -6.37792109e-05  -5.34599858e-05   2.52843678e-01
   -9.82832862e-04   1.18945760e-03   2.53061026e-01   9.66571679e-04]
 [  1.01178850e-03  -6.18727063e-05  -5.64564325e-05   2.53049582e-01
   -9.87923238e-04   1.19969982e-03   2.53237247e-01   9.99128213e-04]
 [  4.82510865e-01  -5.02945781e-01   1.44275832e+00  -3.05217281e-02
    5.64932786e-02   2.50589669e-01  -5.81002310e-02  -5.92288792e-01]
 [  3.84757549e-01  -6.49734914e-01   1.03553009e+00   9.55270370e-04
    1.21723846e-01  -8.50492865e-02   3.58773410e-01  -7.40523860e-02]
 [ -2.37000608e+00  -1.56651199e+00   4.07598674e-01  -1.18575748e-02
   -8.59507099e-02  -1.25976562e-01   1.82588011e-01   2.03518197e-01]
 [ -1.15836814e-01  -1.44553852e+00   9.93929744e-01   1.51883572e-01
    3.57825756e-01  -1.89881027e-01   1.63323611e-01  -4.19845730e-01]
 [  2.38642111e-01  -8.08946073e-01   1.26143241e+00  -1.28114343e-01
    7.35014737e-01  -3.28540176e-01   1.69252038e-01  -8.52375150e-01]
 [ -1.49525538e-01  -9.12117541e-01   1.31482410e+00   1.05137527e-01
    6.78780824e-02  -1.63063228e-01   5.09491384e-01  -2.13680610e-01]
 [  3.16546321e-01  -1.04616320e+00   1.14674413e+00  -3.51355582e-01
    3.18737447e-01  -6.70592070e-01   1.89480156e-01  -2.75794238e-01]
 [  1.23128153e-01  -1.18260503e+00   3.96708161e-01   8.61850660e-03
   -2.64545679e-02   3.56792547e-02  -1.58137754e-01  -1.81109726e-03]]
Bob
[[  2.94391122e-02  -7.76427761e-02  -3.32640018e-03   1.32779881e-01
   -2.22342208e-01   6.75771311e-02  -9.69442990e-05   2.49443799e-01]
 [  2.94983312e-02  -7.80347958e-02  -3.33562633e-03   1.33320555e-01
   -2.23278075e-01   6.78970590e-02  -2.03717369e-04   2.49472529e-01]
 [  5.17507493e-02  -4.61432375e-02   3.08099645e-03   2.91423257e-02
    4.78215218e-02   1.36919636e-02  -1.96530652e+00   2.75524348e-01]
 [  2.94820927e-02  -7.80369192e-02  -3.36250756e-03   1.33894116e-01
   -2.24015579e-01   6.80341423e-02  -1.59682633e-04   2.48481646e-01]
 [  2.93699987e-02  -7.74637759e-02  -3.31149623e-03   1.32369086e-01
   -2.21923411e-01   6.74738213e-02  -2.44257652e-04   2.49569893e-01]
 [ -4.69223447e-02  -2.17706084e+00   1.10915995e+00   7.45952176e-03
    1.43969133e-01  -8.08344334e-02   3.03974818e-03  -1.59374490e-01]
 [  2.93001737e-02  -7.84627125e-02  -3.44944536e-03   1.33950114e-01
   -2.22805291e-01   6.79329634e-02   7.00708697e-05   2.49664053e-01]
 [ -2.54208129e-03  -5.27085103e-02   9.87348496e-04   7.65345842e-02
   -8.11000466e-02   1.74301602e-02  -3.23107728e-04  -3.76594126e-01]
 [  1.36577743e-04   1.37389882e-03   1.07590655e-04   4.06468695e-04
    1.75730907e-04  -1.12255810e-04   4.69124876e-04  -1.02082838e-03]
 [  1.49659652e-04   1.40391733e-03   1.23356673e-04   3.65148619e-04
    1.79124341e-04  -8.41195288e-05   4.92487394e-04  -1.01843465e-03]
 [  1.47614162e-04   1.48456509e-03   1.32781963e-04   4.15123737e-04
    2.18053479e-04  -1.06676147e-04   4.28854430e-04  -1.08476996e-03]
 [  1.64561614e-04   1.36370037e-03   1.12130758e-04   3.32940283e-04
    1.62726021e-04  -8.20980131e-05   4.29306558e-04  -9.49098263e-04]
 [  9.80795885e-05   1.31595985e-03   1.12835565e-04   3.49116890e-04
    1.92861786e-04  -6.54117976e-05   3.90117522e-04  -9.11962823e-04]
 [  9.42888073e-05   1.41661405e-03   1.27711523e-04   4.00116754e-04
    1.94632972e-04  -9.19493032e-05   4.69950668e-04  -1.08688499e-03]
 [  1.23726582e-04   1.37735868e-03   1.20416960e-04   3.73498973e-04
    1.95555200e-04  -1.23168415e-04   4.77846130e-04  -1.00754341e-03]
 [  1.31025081e-04   1.20561442e-03   1.08552944e-04   3.33936361e-04
    1.86157573e-04  -1.04193285e-04   4.19227377e-04  -8.73627898e-04]
 [  2.57498115e-01  -7.49804854e-01  -1.43508542e+00  -2.25287631e-01
   -2.17752144e-01  -1.65411960e-02   1.31934330e-01   1.30544603e+00]
 [ -3.44099313e-01  -1.48857605e+00   1.70854282e+00   3.45306545e-01
    9.37305316e-02   9.31742489e-02   2.20847741e-01   9.45175231e-01]
 [  2.04432663e-03  -1.18397713e+00  -1.23463728e-01   1.58979326e-01
    2.95238961e-02   8.74737743e-03  -1.49847176e-02   3.98618639e-01]
 [ -7.98150359e-05   3.62004008e-04   3.73939605e-04   1.00028849e+00
   -5.69687691e-04  -9.99974549e-01  -2.80100643e-03  -3.72946117e-04]
 [  8.39532256e-01  -8.81209254e-01  -7.61528537e-02   2.07266897e-01
   -7.12686360e-01  -2.05722630e-01   3.56756717e-01   1.23459029e+00]
 [  4.33078259e-01  -1.05970216e+00   1.67708486e-01   5.87329984e-01
   -3.08631152e-01  -7.53020644e-02  -7.49366879e-01   1.29462373e+00]
 [ -1.37156938e-04   3.95424227e-04  -5.56694460e-04  -1.93007829e-04
    2.04097154e-03  -1.51680876e-03  -3.39756673e-03   9.64896608e-05]
 [  9.21298504e-01  -9.01553988e-01  -3.19018185e-01   5.87918460e-01
   -2.99385518e-01  -2.91437030e-01  -2.73907304e-01   1.71215618e+00]]
Eve
[[-0.01612464 -0.91814846  1.54110491 -0.13128997 -0.5320369  -0.32198927
   0.11419803 -0.2342681 ]
 [-0.01640565 -0.91927141  1.54354537 -0.13087338 -0.53436869 -0.39268589
   0.10214704 -0.2308507 ]
 [ 0.21311289 -0.76312578  1.49829066 -0.06711926 -0.29469413  3.34011745
   0.54815137 -0.1006031 ]
 [-0.01607136 -0.92179352  1.54180193 -0.13222587 -0.54114801 -0.39026958
   0.09929182 -0.23514467]
 [-0.01663389 -0.91597712  1.54023325 -0.13080582 -0.52629083 -0.36968771
   0.11506493 -0.23242812]
 [-2.48711801 -2.96357489  0.50169563  0.0327521  -1.3917954  -0.10842307
   0.15121819 -1.05078268]
 [-0.01417962 -0.92389858  1.54530203 -0.13321258 -0.53374666 -0.30412298
   0.10667697 -0.2396753 ]
 [ 0.2354705  -0.73576051 -0.76997375 -0.08593473 -1.04541087  0.02474705
   0.90136439 -0.88631344]
 [ 2.39254785  0.05588336  1.28429997  0.13780636  0.06112234  0.66303128
   0.85838491 -0.17458798]
 [-1.80538142 -3.09132242  0.3619689  -0.3792268  -2.43982577  0.23941442
   1.1255424  -1.52159512]
 [ 0.40903884 -1.42138743  0.7818597   0.21817461 -0.43080184  1.23359179
   0.46137786 -0.53861201]
 [ 0.14243531 -0.94452095  0.49640399 -2.48525429 -1.69008839  0.08247521
  -1.75746727 -2.06811118]
 [ 0.71980923 -0.72837687  1.33332193  0.04269129  0.28923908  0.00732498
   0.24784616  0.15989551]
 [-0.49277106 -1.45257878  0.82603055  0.52546036 -0.07160603  1.97890556
  -0.96386105  1.08020306]
 [ 0.16244446 -0.91251594  0.49789479 -0.11714552 -1.22462523  0.01161313
  -1.11233866 -1.2010237 ]
 [ 1.13946807 -0.58379853  1.52308559  0.7734136   1.26440454  1.51018965
  -0.8103981   2.05741   ]
 [ 1.02085698 -0.35622051  1.16679037 -0.2723054   0.59692144  1.17565584
   0.18223166  0.93956798]
 [ 0.26169896 -1.64277554  0.89418739 -0.13678196 -1.1001879   0.25906378
   1.15473866  0.34974062]
 [-2.82414913 -2.4902966   0.13661057  0.09532849 -1.21831512  0.18711114
   0.32226279 -0.99735051]
 [-1.09972191 -1.80303597  0.68419778  0.31230104 -1.02566755  0.33036852
  -0.61580878  0.71660942]
 [ 0.96698642 -0.44657487  1.34194267 -0.33623567 -0.14995708 -0.37054393
   0.42164886 -0.15677677]
 [ 0.02697654 -0.13860661  1.01041174  0.58339     0.40119711  0.89560902
  -1.36268032  0.80544925]
 [ 0.64323145 -0.31256875  1.15831769  0.04888995  0.40540075  2.66457462
  -0.12990023  0.54010534]
 [ 0.02039582 -0.83408928  0.26818481 -0.21967387 -0.92158979  1.35191524
   0.65982515 -0.49732   ]]