Alice
[[  4.14467305e-02  -4.35025394e-02   2.04813182e-02   3.28368656e-02
   -6.28845319e-02  -1.20628905e-02   1.12093575e-01   1.19979246e-04
   -4.47557028e-03  -5.26777236e-03  -8.63158423e-03   4.17901017e-03
   -8.09709206e-02  -1.09822229e-02   2.41944077e-03  -3.92432325e-03]
 [  4.16518450e-02  -2.98282541e-02   1.20698651e-02   3.56842987e-02
   -5.99939413e-02  -6.24579610e-03   1.03473321e-01   6.45241700e-04
    1.60956604e-03  -6.61046943e-03  -1.08876647e-02   4.63944906e-03
   -8.42429176e-02  -1.08745359e-02   3.09652858e-03  -3.98952048e-03]
 [  4.15471755e-02  -3.71089876e-02   1.72759686e-02   3.00708935e-02
   -5.74879088e-02  -1.16512822e-02   1.03998624e-01   3.33226460e-04
   -2.28060386e-03  -6.19097659e-03  -9.37883463e-03   4.73773899e-03
   -8.42653289e-02  -1.01763560e-02   1.92985917e-03  -4.03070636e-03]
 [  4.10510935e-02  -3.66036706e-02   1.80202331e-02   3.24101374e-02
   -5.99972829e-02  -1.02355676e-02   1.07451595e-01   3.36603494e-04
   -2.75919749e-03  -5.80932526e-03  -8.67789984e-03   4.13023122e-03
   -8.09979513e-02  -1.09908869e-02   2.09825858e-03  -3.82539025e-03]
 [  4.18687090e-02  -3.99555229e-02   1.95439123e-02   2.74863113e-02
   -5.63987941e-02  -1.39542399e-02   1.04383759e-01   3.20309075e-04
   -4.13243007e-03  -6.01109350e-03  -8.46726354e-03   4.61949641e-03
   -8.38557780e-02  -9.80093237e-03   1.37459976e-03  -3.98167642e-03]
 [  2.97460835e-02   3.48122828e-02  -2.84941997e-02  -1.42922613e-03
   -4.18354794e-02  -9.25758202e-03   7.98262581e-02   9.25741792e-01
   -2.59609446e-02   8.51300433e-02   1.05494060e-01  -5.84426634e-02
   -4.88477536e-02  -6.81784377e-02  -8.71783961e-03   4.99009304e-02]
 [  4.12493609e-02  -5.71690239e-02   3.08790877e-02   3.37609015e-02
   -6.82141185e-02  -1.67965144e-02   1.30783841e-01  -7.03845406e-03
   -9.30280518e-03  -4.86895582e-03  -6.01108233e-03   3.41953197e-03
   -7.45519102e-02  -1.07566258e-02   2.14946666e-03  -3.69476061e-03]
 [  4.16378230e-02  -2.97116879e-02   1.36583671e-02   3.35116126e-02
   -5.77653162e-02  -8.33385345e-03   1.02159671e-01   5.11212391e-04
    1.78278278e-04  -6.73680101e-03  -1.00715132e-02   4.57436778e-03
   -8.46460462e-02  -1.05321854e-02   2.49366020e-03  -4.04539704e-03]
 [  4.16390002e-02  -4.59476262e-02   2.14380827e-02   2.59473119e-02
   -5.56470491e-02  -1.65215563e-02   1.04748435e-01   4.33941386e-05
   -5.31961722e-03  -5.30580059e-03  -8.26905016e-03   4.82552592e-03
   -8.35184529e-02  -9.05613229e-03   1.22468884e-03  -4.03608242e-03]
 [  4.28371765e-02  -3.81295830e-02   2.32120715e-02   1.45645682e-02
   -4.32061218e-02  -2.10715383e-02   9.48321372e-02   7.53390050e-05
   -7.88657181e-03  -7.00143119e-03  -5.65227680e-03   5.18303737e-03
   -8.75972509e-02  -7.14727119e-03  -2.32162257e-03  -4.33640322e-03]
 [  4.23397385e-02  -3.50441746e-02   1.68215092e-02   3.08420621e-02
   -5.78440055e-02  -1.08263558e-02   1.05639055e-01   3.72443319e-04
   -1.54436869e-03  -6.47509005e-03  -9.30545293e-03   4.61722352e-03
   -8.54659230e-02  -1.00732399e-02   1.79952523e-03  -4.17202804e-03]
 [  4.19257432e-02  -3.06453835e-02   1.60288084e-02   2.94483695e-02
   -5.60806654e-02  -9.71810706e-03   1.03038982e-01   4.30979941e-04
   -1.48294983e-03  -6.93729194e-03  -9.05514043e-03   4.53457003e-03
   -8.47276375e-02  -1.03110336e-02   1.15776563e-03  -4.05709026e-03]
 [  4.24327180e-02  -3.85109596e-02   1.91182736e-02   2.62118727e-02
   -5.38714528e-02  -1.50410356e-02   1.01875968e-01   3.29944509e-04
   -3.73408315e-03  -6.31487370e-03  -8.63007177e-03   4.94874734e-03
   -8.70433748e-02  -9.08137858e-03   7.26111466e-04  -4.42529842e-03]
 [  4.22059819e-02  -2.96357814e-02   1.57576613e-02   2.81131007e-02
   -5.44533841e-02  -1.07427379e-02   1.00576423e-01   3.16747348e-04
   -1.53176440e-03  -7.24641141e-03  -9.15562920e-03   4.74512856e-03
   -8.65307227e-02  -9.86305811e-03   1.07833929e-03  -4.26528556e-03]
 [  4.16371971e-02  -2.61118077e-02   1.48683041e-02   3.03493217e-02
   -5.60082346e-02  -8.82317405e-03   1.02003872e-01   5.23336290e-04
   -1.75224012e-03  -7.53528392e-03  -9.03729443e-03   4.56412602e-03
   -8.42216834e-02  -1.04723973e-02   1.38008769e-03  -4.22446243e-03]
 [  4.28548716e-02  -2.72078533e-02   1.41311539e-02   2.82900501e-02
   -5.28915934e-02  -1.10165896e-02   9.80535671e-02   5.86702197e-04
   -3.99943965e-04  -7.77495140e-03  -9.80469678e-03   5.05542289e-03
   -8.92962739e-02  -9.30517167e-03   9.38170648e-04  -4.22131829e-03]
 [  5.31515591e-02   4.68359189e-03  -2.71059806e-03   2.88147684e-02
   -3.89811695e-02   2.93677789e-04   8.69562700e-02   7.62697542e-04
    1.42309153e-02  -9.84976068e-03  -1.01669030e-02   6.57269685e-03
   -1.04218222e-01   2.87491619e-03  -4.54017567e-03  -5.56662120e-03]
 [  5.26703373e-02   4.67945961e-03  -2.75966432e-03   2.83411872e-02
   -3.86191346e-02   2.21958690e-04   8.64104405e-02   8.89446121e-04
    1.44108664e-02  -9.80596524e-03  -1.02021163e-02   6.59108907e-03
   -1.03981145e-01   2.72879074e-03  -4.56472393e-03  -5.46049932e-03]
 [  5.25457561e-02   4.68143029e-03  -2.72004702e-03   2.83233542e-02
   -3.84404399e-02   2.13999258e-04   8.61818641e-02   7.85781420e-04
    1.42188538e-02  -9.81188938e-03  -1.01045482e-02   6.64210087e-03
   -1.03467263e-01   2.74947542e-03  -4.50617075e-03  -5.50076179e-03]
 [  5.29499166e-02   4.71362472e-03  -2.73133814e-03   2.84515116e-02
   -3.87867838e-02   2.22951567e-04   8.70162100e-02   8.74579244e-04
    1.44194067e-02  -9.86802764e-03  -1.01948073e-02   6.69068610e-03
   -1.04578577e-01   2.76463688e-03  -4.55735577e-03  -5.53200115e-03]
 [  5.26533425e-02   4.67177387e-03  -2.84865615e-03   2.85086948e-02
   -3.86220850e-02   2.68905831e-04   8.63317400e-02   7.92436942e-04
    1.42472656e-02  -9.89792310e-03  -1.01862922e-02   6.69234898e-03
   -1.03711553e-01   2.74855550e-03  -4.51574987e-03  -5.52428234e-03]
 [  5.29639795e-02   4.72215516e-03  -2.79180636e-03   2.86380928e-02
   -3.87876593e-02   2.34587191e-04   8.70444328e-02   8.70715128e-04
    1.44231655e-02  -9.91972908e-03  -1.01485755e-02   6.67482335e-03
   -1.04312539e-01   2.79534678e-03  -4.55853343e-03  -5.51379379e-03]
 [  5.31751178e-02   4.68255067e-03  -2.84294202e-03   2.87375338e-02
   -3.89025696e-02   2.32654478e-04   8.71408880e-02   7.98101537e-04
    1.44518875e-02  -9.97821987e-03  -1.02332607e-02   6.70366548e-03
   -1.04778245e-01   2.76816427e-03  -4.57524834e-03  -5.55631146e-03]
 [  5.30943647e-02   4.76734526e-03  -2.85868975e-03   2.85630245e-02
   -3.88270654e-02   1.60755837e-04   8.71347040e-02   8.05893680e-04
    1.44453486e-02  -9.92257986e-03  -1.01794768e-02   6.70626992e-03
   -1.04942203e-01   2.72360304e-03  -4.62962687e-03  -5.54055301e-03]
 [  5.24251498e-02   4.64208750e-03  -2.68459157e-03   2.84482501e-02
   -3.83956656e-02   2.55294872e-04   8.57309699e-02   7.68704922e-04
    1.40225450e-02  -9.72711295e-03  -9.98240802e-03   6.52926276e-03
   -1.02763489e-01   2.82957451e-03  -4.48202761e-03  -5.50349010e-03]
 [  5.32364137e-02   4.74842032e-03  -2.87129823e-03   2.86631268e-02
   -3.89180668e-02   2.77375861e-04   8.71258900e-02   7.73090171e-04
    1.44093847e-02  -1.00015216e-02  -1.02808410e-02   6.76807389e-03
   -1.04911521e-01   2.74518155e-03  -4.57823044e-03  -5.59819071e-03]
 [  5.29982299e-02   4.71516699e-03  -2.80532753e-03   2.86395308e-02
   -3.88124064e-02   2.68198608e-04   8.68198499e-02   7.90416147e-04
    1.43462177e-02  -9.88785923e-03  -1.01765702e-02   6.64296094e-03
   -1.04310676e-01   2.78806384e-03  -4.54947678e-03  -5.52349677e-03]
 [  5.26594482e-02   4.70001623e-03  -2.77913548e-03   2.82991789e-02
   -3.85261066e-02   2.64327828e-04   8.64024907e-02   8.72768054e-04
    1.43915424e-02  -9.87817813e-03  -1.01281730e-02   6.64957613e-03
   -1.03921540e-01   2.73254584e-03  -4.57939552e-03  -5.49620017e-03]
 [  5.34987189e-02   4.73758485e-03  -2.77547888e-03   2.89870407e-02
   -3.92410941e-02   2.56150845e-04   8.76405910e-02   8.31214478e-04
    1.44046433e-02  -9.94015951e-03  -1.01760756e-02   6.60893414e-03
   -1.05090685e-01   2.84493505e-03  -4.58963122e-03  -5.58136310e-03]
 [  5.21827899e-02   4.65499703e-03  -2.77115568e-03   2.84245964e-02
   -3.83121558e-02   3.08125833e-04   8.56105089e-02   7.26246624e-04
    1.40525214e-02  -9.76272766e-03  -1.00070881e-02   6.50777994e-03
   -1.02457069e-01   2.80536059e-03  -4.44013346e-03  -5.43713570e-03]
 [  5.26303574e-02   4.63199522e-03  -2.81671109e-03   2.85576638e-02
   -3.85852382e-02   3.48837493e-04   8.61453563e-02   7.23922858e-04
    1.41155357e-02  -9.81105119e-03  -1.00854449e-02   6.59359992e-03
   -1.03339605e-01   2.78147915e-03  -4.42776736e-03  -5.52406395e-03]
 [  5.29412404e-02   4.66580736e-03  -2.77169771e-03   2.85030678e-02
   -3.86668891e-02   2.41966773e-04   8.65783766e-02   9.22845269e-04
    1.43265398e-02  -9.83783789e-03  -1.00934580e-02   6.60796463e-03
   -1.04171395e-01   2.73513468e-03  -4.58892994e-03  -5.49965538e-03]
 [  1.81320608e-01   3.64487529e-01  -4.76909459e-01   6.98460221e-01
   -4.66078162e-01  -9.06234682e-02  -5.93023077e-02  -2.74579257e-01
    3.54330391e-01  -4.22637612e-01  -6.55596435e-01   3.43904912e-01
   -2.92553604e-02  -1.01268701e-01  -1.36435302e-02   2.13926360e-02]
 [  1.26767412e-01  -5.75051941e-02  -4.91750650e-02   5.02147079e-01
   -4.02156681e-01   2.30086550e-01  -8.07577312e-01  -5.69243766e-02
    1.21972382e-01   1.47990994e-02  -1.57958418e-01   4.95033525e-02
   -1.12284325e-01   3.28297243e-02  -1.38070971e-01  -6.74887449e-02]
 [  2.86985248e-01   2.91325510e-01   4.12772521e-02   2.74978757e-01
   -3.48762423e-01  -1.48901179e-01  -1.59924224e-01  -2.52576977e-01
    6.60879016e-01   4.44844753e-01  -3.46617699e-01   3.26057449e-02
   -9.53562930e-03  -1.12905189e-01  -2.56865961e-03   1.95960119e-01]
 [  1.06093362e-01   7.26209208e-02  -3.29479694e-01   2.37468138e-01
   -2.60494560e-01   3.14243743e-03   4.89614941e-02  -3.40807229e-01
    4.78066534e-01  -1.18749395e-01  -3.48003030e-01   1.75230861e-01
    3.52454297e-02   4.74387445e-02  -1.73790604e-01  -1.35266915e-01]
 [  3.70947123e-02   7.49693096e-01  -2.66245604e-01   4.87613678e-02
   -1.26618966e-01   1.39975101e-01   1.56151578e-01  -5.56335151e-02
    4.45032269e-01  -2.20807672e-01  -4.21360612e-01   2.37500012e-01
    1.82553176e-02   4.09526192e-02   8.23199302e-02  -8.38554949e-02]
 [  1.91940099e-01   1.26917973e-01  -1.16463862e-01   1.11708716e-01
   -3.66463475e-02  -7.18021009e-04  -1.78249702e-02  -1.63580477e-01
    3.95905554e-01  -2.08273202e-01  -4.27992046e-01   2.59219021e-01
    3.12093236e-02  -2.75775772e-02   1.12425042e-02  -4.67137098e-01]
 [  1.01398718e+00   3.94269586e-01  -3.74785215e-01   2.99397528e-01
   -2.83228576e-01  -4.82112722e-04   5.78706600e-02  -3.85318428e-01
    6.05543792e-01  -2.90280849e-01  -6.22543752e-01   2.69771636e-01
   -8.14641863e-02   1.28773367e-02   4.67963666e-02  -5.58656871e-01]
 [  5.55124804e-02   1.21898882e-01  -2.36872464e-01   5.17968655e-01
   -3.72098655e-01  -1.09235153e-01  -4.91408296e-02  -4.56818819e-01
    6.05356395e-01  -2.29186729e-01  -4.01515126e-01  -3.08332235e-01
    6.09153993e-02  -4.02210914e-02  -7.04252534e-03   2.81221252e-02]
 [ -1.45681798e-01   2.52138048e-01  -1.42908588e-01   5.92078388e-01
   -3.80670726e-01  -6.82927966e-02   5.00848107e-02  -4.36029196e-01
    4.88386691e-01  -2.42377564e-01  -6.56024873e-01   3.11311960e-01
    6.38198674e-01  -1.67017393e-02   8.00669715e-02   6.92138448e-02]
 [ -8.53835493e-02   5.67599952e-01   1.26997652e-02   7.56627023e-02
   -5.13515234e-01   6.45923436e-01  -2.51899883e-02  -4.09420192e-01
    1.93309233e-01  -4.57944050e-02   3.45194079e-02   1.33118704e-02
   -2.70270944e-01  -2.64663935e-01   2.80601773e-02  -2.05917180e-01]
 [  2.23220721e-01   2.29388058e-01  -3.51360381e-01   7.31782973e-01
   -8.60845223e-02   9.41753760e-02   1.40049830e-01   1.95171684e-01
    2.57741809e-01  -1.64573267e-01  -1.33302212e-01  -7.71162957e-02
    7.61937350e-02   1.81985855e-01   6.55450998e-03   3.03378344e-01]
 [ -7.63439923e-04  -2.07030952e-01  -2.47123495e-01   2.66453683e-01
   -5.28679967e-01   8.02213848e-02  -2.68045254e-02   9.79231950e-03
    1.92250907e-01  -2.54027814e-01   2.01468512e-01   1.97184965e-01
   -1.31991869e-02   2.27449778e-02  -2.17750371e-02   1.21040121e-01]
 [  1.49102315e-01   4.06677574e-02   4.23145071e-02   2.27427438e-01
   -1.73087180e-01  -1.28824348e-02   5.69128059e-02  -5.82346581e-02
    1.92379788e-01  -1.23439610e-01  -2.88728029e-01   1.08330235e-01
   -4.05951263e-03   7.75219649e-02   1.85593311e-02   5.82415797e-02]
 [  1.39083549e-01   3.61922950e-01  -9.81157422e-02   5.87517381e-01
   -3.40762436e-01  -4.93651405e-02   1.30069908e-02  -6.98068440e-01
    3.48136187e-01  -2.08672494e-01  -2.27539450e-01   2.02000663e-01
   -1.05576869e-02   2.34692365e-01   7.18612522e-02   2.39399344e-01]
 [ -2.15299502e-01   2.71339506e-01  -2.48596128e-02   2.00135440e-01
    9.94032472e-02  -2.39937101e-02  -2.06157938e-01  -4.37432304e-02
    4.59630400e-01  -6.57423288e-02  -1.87072352e-01   2.70522445e-01
   -7.89394509e-03   2.54550368e-01   2.34812871e-01   1.22801047e-02]
 [ -1.81146991e-03   3.50201726e-01   8.94283727e-02   1.67415276e-01
   -5.82773864e-01   1.40967906e-01   5.46086580e-02  -3.57874595e-02
    6.98067069e-01  -1.64877549e-02  -8.33216786e-01   3.86911958e-01
   -7.92543292e-02  -2.63589341e-02   2.74332881e-01   2.20861137e-01]]
Bob
[[ -4.23084535e-02   4.36364440e-03   8.02749116e-03  -4.57827151e-02
   -5.49130030e-02   7.95892179e-02   9.56061482e-02  -1.37875753e-03
    1.83970632e-03  -1.49504310e-02   2.61610635e-02  -8.34530406e-03
    1.63555160e-05  -1.17644574e-02   2.58466415e-02   7.69172423e-03]
 [ -4.24388796e-02  -2.87185935e-03   8.51689931e-03  -4.61729132e-02
   -4.10560295e-02   8.40240791e-02   9.26921815e-02   1.16755476e-03
   -5.28249184e-05  -9.67559032e-03   1.80669650e-02  -3.60968732e-03
    3.55822849e-03  -1.10545633e-02   2.18131598e-02   6.31301431e-03]
 [ -4.32041064e-02  -2.20776838e-03   8.05456098e-03  -4.54934165e-02
   -4.87247109e-02   8.17142874e-02   9.49807465e-02   9.81612247e-04
    1.98765448e-03  -1.27419690e-02   2.20606625e-02  -6.18078001e-03
    8.78054358e-04  -1.14441840e-02   2.30777673e-02   8.56203493e-03]
 [ -4.27696742e-02   1.77318044e-03   8.26325733e-03  -4.71190475e-02
   -4.84473743e-02   8.35889876e-02   9.44210663e-02  -4.17989417e-04
    8.30246776e-04  -1.21620437e-02   2.29346938e-02  -4.30547167e-03
    1.00020284e-03  -1.16045233e-02   2.36493684e-02   8.59196763e-03]
 [ -4.32392657e-02  -1.72521651e-03   7.87953660e-03  -4.53350283e-02
   -5.17540202e-02   8.07219893e-02   9.57429335e-02   9.26505600e-04
    2.56779115e-03  -1.41222058e-02   2.37628501e-02  -7.02653406e-03
   -2.67616211e-04  -1.15281241e-02   2.35746726e-02   9.60518327e-03]
 [ -2.90427376e-02  -2.66238824e-02  -9.01014805e-02  -3.83384563e-02
   -2.96298903e-03   4.58489507e-02   7.73839280e-02  -1.82846226e-02
   -1.70719367e-03  -4.54697642e-04   7.51260016e-03  -1.50228227e-02
    6.89607799e-01   1.21152915e-01   1.18545935e-01  -2.54789982e-02]
 [ -4.29869294e-02   1.97421983e-02   7.89346267e-03  -4.48245481e-02
   -6.89880848e-02   7.84608275e-02   9.68123376e-02  -5.51500218e-03
    1.30159792e-03  -1.96659807e-02   3.80187556e-02  -9.49137937e-03
   -8.73286091e-03  -1.21656917e-02   2.95502450e-02   1.03097837e-02]
 [ -4.33726087e-02  -4.50598914e-03   8.52370542e-03  -4.67295349e-02
   -4.15646434e-02   8.56132582e-02   9.35694203e-02   1.41781417e-03
    6.48710993e-04  -9.33121610e-03   1.83343366e-02  -2.76892609e-03
    3.07739154e-03  -1.09806489e-02   2.15699710e-02   8.20389111e-03]
 [ -4.29727808e-02  -1.46561931e-03   7.51848100e-03  -4.20189686e-02
   -5.72725423e-02   7.58949667e-02   9.60206315e-02   7.78074260e-04
    4.09433804e-03  -1.70097146e-02   2.60924604e-02  -1.04173301e-02
   -1.28286576e-03  -1.17286658e-02   2.45663933e-02   8.95875134e-03]
 [ -4.43621911e-02  -7.54429586e-03   7.62122264e-03  -4.47571054e-02
   -5.16406298e-02   8.29116181e-02   9.60090682e-02   3.64390202e-03
    4.55150707e-03  -1.41927963e-02   2.35804189e-02  -2.76956405e-03
   -3.33743053e-03  -1.17280670e-02   1.99371763e-02   1.64059345e-02]
 [ -4.31472883e-02  -1.44304906e-03   8.17055628e-03  -4.60903086e-02
   -4.69874777e-02   8.35035071e-02   9.48565900e-02   1.20743236e-03
    1.23534305e-03  -1.21116769e-02   2.17606016e-02  -4.11800435e-03
    1.05460361e-03  -1.12547949e-02   2.24430673e-02   8.86341929e-03]
 [ -4.24345806e-02  -1.65490946e-03   8.52685515e-03  -4.79893386e-02
   -4.31141183e-02   8.59144405e-02   9.32958946e-02   1.51174190e-03
    1.68370607e-04  -9.82417166e-03   1.98089909e-02  -1.47804176e-03
    1.00116630e-03  -1.13794347e-02   2.10011527e-02   1.01731960e-02]
 [ -4.28768322e-02  -5.03273634e-03   7.76346261e-03  -4.36831340e-02
   -5.05376682e-02   7.91894048e-02   9.45980847e-02   1.73652894e-03
    3.92441684e-03  -1.39399096e-02   2.22247634e-02  -6.48208056e-03
   -1.15854258e-04  -1.14500672e-02   2.25629341e-02   1.00990506e-02]
 [ -4.25338522e-02  -5.16217435e-03   8.44286289e-03  -4.79587056e-02
   -4.22949344e-02   8.54349881e-02   9.36252177e-02   2.20413879e-03
    1.52782095e-03  -1.01458319e-02   1.86470132e-02  -1.23547192e-03
    1.13213330e-03  -1.11978631e-02   2.06676293e-02   1.06256418e-02]
 [ -4.24985662e-02  -3.77162243e-03   9.03459173e-03  -5.05802110e-02
   -3.92592028e-02   8.92674178e-02   9.34308171e-02   1.58042624e-03
    4.79285198e-04  -8.04693997e-03   1.76330488e-02   1.27918145e-03
    2.08404567e-03  -1.11228079e-02   2.04441212e-02   1.13937305e-02]
 [ -4.29997742e-02  -9.70594026e-03   8.50766990e-03  -4.69140485e-02
   -3.99309210e-02   8.55690241e-02   9.32414532e-02   3.12996632e-03
    2.43788585e-03  -9.27116722e-03   1.64474193e-02  -1.27526070e-03
    1.94456358e-03  -1.11868596e-02   1.98150240e-02   1.07349493e-02]
 [ -4.82138507e-02  -9.97273810e-03   8.31623469e-03  -4.67662849e-02
   -9.01045371e-03   1.05103381e-01   8.81841555e-02   1.46359531e-02
   -9.11529828e-03   1.48692299e-04   8.84605106e-03   2.16726623e-02
    2.03385949e-03  -1.06731346e-02  -2.09768722e-03   1.28870737e-02]
 [ -4.81913239e-02  -9.96781047e-03   8.30998272e-03  -4.68485653e-02
   -9.00332816e-03   1.05168596e-01   8.82348642e-02   1.45967631e-02
   -9.04671848e-03   1.54275040e-04   8.83213524e-03   2.17147935e-02
    2.08492670e-03  -1.06680496e-02  -2.09767604e-03   1.28776031e-02]
 [ -4.80114110e-02  -9.95374005e-03   8.16976838e-03  -4.65577692e-02
   -8.95478297e-03   1.04323849e-01   8.75723511e-02   1.45630604e-02
   -8.96507688e-03   1.75142177e-05   8.82321782e-03   2.15139613e-02
    1.98959885e-03  -1.05957557e-02  -1.99573673e-03   1.28022982e-02]
 [ -4.76398543e-02  -9.99777950e-03   8.24434962e-03  -4.63153571e-02
   -8.91788770e-03   1.03910424e-01   8.72058272e-02   1.44463666e-02
   -8.93818401e-03   1.54963724e-04   8.64389166e-03   2.13972479e-02
    2.00836081e-03  -1.05667626e-02  -2.00507394e-03   1.27336690e-02]
 [ -4.80564460e-02  -1.00688497e-02   8.32108036e-03  -4.66943793e-02
   -9.05813184e-03   1.04842462e-01   8.79972354e-02   1.45745547e-02
   -9.00476426e-03   1.80396906e-04   8.68705288e-03   2.15532761e-02
    2.10057921e-03  -1.06258681e-02  -2.02228129e-03   1.28376475e-02]
 [ -4.80716228e-02  -1.01124318e-02   8.33146274e-03  -4.67114821e-02
   -9.00137424e-03   1.04912549e-01   8.80630687e-02   1.45686902e-02
   -8.96171015e-03   1.37918585e-04   8.68492387e-03   2.16634404e-02
    2.07496295e-03  -1.06519787e-02  -1.99917750e-03   1.28600979e-02]
 [ -4.81124073e-02  -9.94890649e-03   8.34106095e-03  -4.67286631e-02
   -9.02001467e-03   1.05073616e-01   8.81545991e-02   1.45973181e-02
   -9.12482291e-03   3.14319390e-04   8.76788795e-03   2.16219835e-02
    2.04624329e-03  -1.05975969e-02  -2.08846270e-03   1.28543228e-02]
 [ -4.78052013e-02  -9.99154244e-03   8.34299065e-03  -4.65118103e-02
   -9.01758671e-03   1.04489304e-01   8.77012089e-02   1.45381754e-02
   -8.96171853e-03   1.39227457e-04   8.67178012e-03   2.15802230e-02
    2.08909367e-03  -1.06169293e-02  -2.02997564e-03   1.27935577e-02]
 [ -4.83592600e-02  -1.02140279e-02   8.47330131e-03  -4.69428748e-02
   -9.12965368e-03   1.05614677e-01   8.86104256e-02   1.47133358e-02
   -9.12719779e-03   3.29160976e-04   8.70193541e-03   2.16545016e-02
    2.09696125e-03  -1.06955385e-02  -2.04700674e-03   1.29251610e-02]
 [ -4.79492433e-02  -1.00813061e-02   8.29573441e-03  -4.66334075e-02
   -8.97717755e-03   1.04578860e-01   8.78060684e-02   1.45475119e-02
   -8.95543676e-03   9.39224992e-05   8.73515848e-03   2.16474924e-02
    1.96563522e-03  -1.06355483e-02  -2.04075454e-03   1.28301289e-02]
 [ -4.78355028e-02  -1.00697260e-02   8.27174541e-03  -4.65327352e-02
   -9.02282633e-03   1.04467653e-01   8.76931921e-02   1.45511487e-02
   -8.98814201e-03   8.59633001e-05   8.70323088e-03   2.15758774e-02
    2.05657701e-03  -1.06252423e-02  -2.00522109e-03   1.27971526e-02]
 [ -4.77867648e-02  -1.00089423e-02   8.31945427e-03  -4.65057269e-02
   -8.98819603e-03   1.04468696e-01   8.76134485e-02   1.45273386e-02
   -8.96203984e-03   1.44884354e-04   8.71726032e-03   2.16193274e-02
    2.00500665e-03  -1.06169712e-02  -2.06207647e-03   1.28152547e-02]
 [ -4.78214920e-02  -1.00441528e-02   8.40826519e-03  -4.64487858e-02
   -8.99663661e-03   1.04573816e-01   8.76913294e-02   1.45833530e-02
   -9.07926168e-03   2.44877097e-04   8.68041161e-03   2.15217061e-02
    2.13819440e-03  -1.06143672e-02  -2.08543194e-03   1.27878813e-02]
 [ -4.79896814e-02  -1.00684259e-02   8.26002378e-03  -4.65675928e-02
   -8.97839852e-03   1.04601420e-01   8.77985880e-02   1.45818600e-02
   -9.04189330e-03   1.46795472e-04   8.76931846e-03   2.15444025e-02
    2.11141724e-03  -1.05757816e-02  -2.00772029e-03   1.28177609e-02]
 [ -4.82076854e-02  -1.00148972e-02   8.28771479e-03  -4.68856990e-02
   -9.04887915e-03   1.05062857e-01   8.82039741e-02   1.45629533e-02
   -8.96735303e-03   7.53895874e-05   8.79557990e-03   2.17195731e-02
    2.00742274e-03  -1.06794247e-02  -2.04826519e-03   1.28916148e-02]
 [ -4.78915423e-02  -1.00460583e-02   8.21828656e-03  -4.64255251e-02
   -8.93380214e-03   1.04252852e-01   8.74231011e-02   1.44725228e-02
   -8.99175461e-03   1.40413438e-04   8.71807523e-03   2.14622356e-02
    2.02312251e-03  -1.05627179e-02  -1.98800187e-03   1.27864350e-02]
 [ -5.09463966e-01   6.52726914e-04   1.84369385e-01  -6.24614000e-01
   -2.95654714e-01  -2.70347390e-02  -9.65843081e-01   2.41209507e-01
    2.25388512e-01   1.67100236e-01   2.56561548e-01   5.70039690e-01
   -5.11097908e-01   1.98329543e-03   2.88795568e-02   5.52487910e-01]
 [  1.02622367e-01   3.97464894e-02  -4.81423475e-02  -1.61634207e-01
    8.64861548e-01   3.41881961e-01  -5.68365157e-02  -1.83349513e-02
   -1.68301389e-02   2.07687542e-01  -2.91759789e-01   3.05675268e-01
    3.93698625e-02   3.47640991e-01  -1.23598963e-01   1.61715358e-01]
 [ -2.57513314e-01   7.67882019e-02   2.30568811e-01  -7.24322349e-02
    1.21821538e-01   7.47476984e-03   3.67426910e-02   3.15727055e-01
   -7.41680339e-02   2.30508208e-01  -5.82281947e-01   2.62587190e-01
    1.90727651e-01  -9.62857082e-02  -1.52773157e-01   1.95511103e-01]
 [ -8.06305349e-01   7.27026239e-02   1.38088286e-01  -7.36105144e-01
   -1.78571790e-01  -7.62533545e-02  -1.58412516e-01   2.46748775e-01
   -4.91801351e-02  -6.49264455e-02   2.22463787e-01   1.92816690e-01
   -1.76021785e-01   1.66062206e-01  -1.47406533e-01   4.64627862e-01]
 [ -1.67428002e-01   5.36385877e-03   3.19940776e-01   1.28165975e-01
   -7.45753944e-02  -2.99113747e-02  -1.85230732e-01   2.03208163e-01
   -1.12644836e-01  -1.46676928e-01   2.12028280e-01   4.81519580e-01
   -1.57480732e-01  -7.84374475e-02  -1.15977861e-01   3.77079427e-01]
 [ -7.22554177e-02   1.17956161e-01   3.04279149e-01  -6.14834428e-01
   -1.45841166e-01  -6.43178970e-02  -3.90680164e-01   1.56530455e-01
   -1.38388071e-02   3.49169552e-01   1.16646983e-01   5.70928633e-01
   -1.66841179e-01  -1.35549381e-01  -2.83750266e-01   2.56767362e-01]
 [ -1.43466890e-01  -9.10687983e-01   3.16928566e-01  -1.03178378e-02
   -2.57375300e-01  -2.27182880e-02  -1.83433056e-01   1.65663108e-01
   -2.54026260e-02  -3.45196128e-02   3.51226121e-01   4.40761864e-01
   -2.68681556e-01  -5.08418120e-02   6.86319638e-03   5.28024077e-01]
 [ -1.42660335e-01   5.96966110e-02   1.82936102e-01  -1.64521739e-01
   -4.98504974e-02   6.01310171e-02  -1.14707686e-01   9.75513384e-02
   -2.02656053e-02   3.40504684e-02   6.39866740e-02   2.55123973e-01
    2.53835708e-01  -1.10933036e-01  -1.35172099e-01   2.54220724e-01]
 [ -2.70567030e-01  -5.32239787e-02   2.64925122e-01  -5.87257385e-01
   -3.91278833e-01   4.84539755e-02  -6.97174594e-02   3.83132339e-01
    8.10823515e-02   5.25187738e-02   2.05056891e-01   5.71547866e-01
   -9.64574143e-02  -1.20546460e-01   1.76210880e-01   3.59423280e-01]
 [ -3.18323821e-01   1.22312918e-01  -5.78500554e-02  -4.82265949e-01
   -6.15238808e-02   4.00820039e-02  -2.90536642e-01   3.78390193e-01
   -9.58660245e-02  -7.56672025e-02   3.92687649e-01   5.27278781e-01
   -1.77270114e-01   1.70987189e-01  -6.36081025e-02   2.48217195e-01]
 [ -3.60201225e-02   1.29760783e-02   2.02570647e-01  -7.26324916e-02
   -2.19244733e-01   2.98444852e-02  -5.45327216e-02   1.92142144e-01
   -4.98758769e-03   1.12467840e-01   1.97689578e-01   9.33609724e-01
   -3.52420479e-01   1.51760265e-01  -4.98700188e-03   5.92509508e-01]
 [ -2.08040252e-01   9.76722762e-02   4.67908531e-01  -5.48973858e-01
   -3.45638812e-01  -5.64463623e-02  -2.17759639e-01  -1.53269440e-01
    7.64991716e-02  -1.29468948e-01   5.17335057e-01   2.37537324e-01
   -4.43502128e-01   1.72880635e-01   1.56272091e-02   7.25532949e-01]
 [ -2.67675310e-01  -4.92592826e-02   1.85048014e-01  -3.09902906e-01
   -2.22696662e-01  -2.96796276e-03  -2.22834200e-02   3.05792749e-01
   -9.24281895e-01   3.57566997e-02   1.39924973e-01   5.09399295e-01
   -2.80496001e-01   1.08672485e-01   7.83631019e-03   4.71390277e-01]
 [ -6.09442107e-02  -1.31526858e-01   1.03671387e-01  -5.28079197e-02
   -2.71062464e-01  -1.84684217e-01   1.46630675e-01   2.06326023e-01
    9.87341926e-02  -1.72926024e-01   2.20719770e-01   1.39542475e-01
   -3.57628673e-01   3.66803437e-01   1.22515820e-01   2.34397024e-01]
 [ -2.52686441e-01  -9.11965407e-03   1.65998936e-01  -4.66206014e-01
   -5.24500757e-02  -3.02512478e-02  -2.70029962e-01   2.98261851e-01
   -1.01053767e-01  -1.78332716e-01   5.60323775e-01   3.53330523e-01
   -2.43736535e-01   3.01218957e-01   5.20923138e-01   2.90527076e-01]
 [ -4.83924806e-01  -1.55906200e-01   4.09615695e-01  -7.42365837e-01
   -4.39420909e-01  -5.17811179e-01  -1.82294667e-01   3.04843187e-01
   -1.21821456e-01   1.68748721e-01   4.17847604e-01   5.87573051e-01
   -5.65287054e-01  -1.84091792e-01   1.54228419e-01   9.93421495e-01]]
Eve
[[ -3.41781750e-02   3.33888233e-02   7.08331093e-02   1.25417784e-01
   -1.34611607e-01   1.47915129e-02  -1.69914234e-02  -1.15351558e-01
   -1.09870747e-01  -1.02672860e-01   9.37902927e-02   6.57568425e-02
   -3.06193940e-02  -1.63150243e-02   3.70053537e-02  -3.88334394e-02]
 [ -6.46916777e-03   2.78250854e-02   5.20901121e-02   1.00022227e-01
   -1.05239488e-01   1.53451506e-02   5.01226122e-03  -8.76121297e-02
   -7.91345909e-02  -8.00168291e-02   6.69186041e-02   4.69519980e-02
   -2.47340444e-02  -1.99919157e-02   3.26989293e-02  -2.62877978e-02]
 [ -2.99393460e-02   3.14028300e-02   6.23323061e-02   1.06085107e-01
   -1.17731750e-01   1.10840211e-02   3.72212264e-03  -9.90984663e-02
   -9.54976454e-02  -8.93568248e-02   8.43713507e-02   5.74569181e-02
   -1.64581127e-02  -1.60810519e-02   3.19353342e-02  -3.67964692e-02]
 [ -2.65563093e-02   2.94822324e-02   6.46761134e-02   1.11317672e-01
   -1.21480130e-01   1.18883504e-02  -1.19636469e-02  -1.01070635e-01
   -9.60190594e-02  -9.16064382e-02   8.08821023e-02   5.85597977e-02
   -2.75332686e-02  -1.75531879e-02   3.32023129e-02  -3.24699581e-02]
 [ -3.96840647e-02   3.12517211e-02   6.70428574e-02   1.08218633e-01
   -1.23726808e-01   9.25098546e-03   1.76591903e-03  -1.02958873e-01
   -1.01399370e-01  -9.19416472e-02   9.08470973e-02   6.10913299e-02
   -1.44040380e-02  -1.42363543e-02   3.12638842e-02  -3.99150364e-02]
 [ -9.42657962e-02   2.45091438e-01  -1.31688779e-02   2.80916989e-01
   -1.06234461e-01   1.50935188e-01   6.82500610e-03   1.40139651e+00
   -1.44017830e-01   1.62115708e-01  -1.05918373e-03  -1.41493887e-01
    1.85757220e-01  -2.12490978e-03   3.81001011e-02   2.50670761e-01]
 [ -5.78274764e-02   3.13871242e-02   9.11800712e-02   1.58801198e-01
   -1.64615855e-01   1.34284040e-02  -7.78052136e-02  -1.54595181e-01
   -1.41108632e-01  -1.24179713e-01   1.18269540e-01   8.89539346e-02
   -5.56009188e-02  -1.34352772e-02   4.55198549e-02  -4.49139774e-02]
 [ -1.22819282e-02   2.59861704e-02   5.41157797e-02   9.55682620e-02
   -1.02715924e-01   1.01935323e-02   7.95365591e-03  -8.54056105e-02
   -7.78189376e-02  -7.83424377e-02   6.71762750e-02   4.75599766e-02
   -1.89476442e-02  -1.81530304e-02   3.10521778e-02  -2.84129493e-02]
 [ -4.87849228e-02   3.51276621e-02   7.08294660e-02   1.19179063e-01
   -1.31768599e-01   1.12183401e-02   4.20365995e-03  -1.12230889e-01
   -1.13189168e-01  -9.92204994e-02   1.00693695e-01   6.60730228e-02
   -1.01345070e-02  -1.19716097e-02   3.29348706e-02  -4.58122268e-02]
 [ -7.07000270e-02   2.86005978e-02   7.02104121e-02   8.43175799e-02
   -1.12875096e-01  -6.00880152e-03   1.45227760e-02  -8.85141641e-02
   -1.00605652e-01  -8.00535753e-02   9.46612656e-02   6.29013628e-02
    1.41834039e-02  -7.03625055e-03   1.98061503e-02  -4.91168834e-02]
 [ -2.68692579e-02   3.03941127e-02   6.14560284e-02   1.03737116e-01
   -1.14981674e-01   1.08313560e-02  -1.00521091e-03  -9.55374762e-02
   -9.31552723e-02  -8.69180933e-02   8.01110342e-02   5.55527471e-02
   -1.94654558e-02  -1.63361076e-02   3.14784311e-02  -3.48292440e-02]
 [ -2.66957153e-02   2.79464331e-02   6.07544370e-02   9.23540220e-02
   -1.09136142e-01   6.90794224e-03  -3.33119766e-03  -8.78791958e-02
   -8.61002207e-02  -8.13577697e-02   7.49124512e-02   5.27618565e-02
   -1.92583911e-02  -1.70847233e-02   2.80624665e-02  -3.12697254e-02]
 [ -4.04256694e-02   3.04954331e-02   6.49046600e-02   1.01246588e-01
   -1.16815738e-01   7.04096677e-03   1.39286248e-02  -9.69814882e-02
   -9.74482596e-02  -8.69811177e-02   8.71350691e-02   5.79320490e-02
   -4.50918078e-03  -1.29486118e-02   2.87767798e-02  -4.19046544e-02]
 [ -2.62849350e-02   2.84860283e-02   5.94858676e-02   8.74428898e-02
   -1.07054032e-01   6.28246553e-03   9.21587646e-03  -8.48249048e-02
   -8.40954483e-02  -7.91730210e-02   7.25687370e-02   5.07307313e-02
   -1.08009158e-02  -1.61636025e-02   2.60125715e-02  -3.36128771e-02]
 [ -2.08250452e-02   2.66457815e-02   5.87848052e-02   8.60233307e-02
   -1.06020235e-01   4.90394700e-03  -1.89189945e-04  -8.05718526e-02
   -8.01658928e-02  -7.71903172e-02   6.74430802e-02   4.95450497e-02
   -1.73000563e-02  -1.75082814e-02   2.66552791e-02  -2.92891432e-02]
 [ -2.35856455e-02   2.79082563e-02   5.64747192e-02   8.28633830e-02
   -1.00710824e-01   4.68926458e-03   2.46409327e-02  -7.85368532e-02
   -7.81326964e-02  -7.35848621e-02   6.99816868e-02   4.69407327e-02
   -3.01904837e-03  -1.53995212e-02   2.42316835e-02  -3.18438038e-02]
 [ -1.44420838e+00   7.88399518e-01   5.58421969e-01   1.36805463e+00
   -1.54374790e+00   1.50808617e-02   3.21171075e-01  -9.26340103e-01
   -1.22333300e+00  -7.56277621e-01   1.19663215e+00   5.68004608e-01
    2.55614817e-01   1.89469066e-02  -3.55905257e-02  -5.07409632e-01]
 [  7.39762068e-01  -7.32150495e-01  -2.69853234e-01  -8.56433332e-01
    6.22349262e-01  -4.21847552e-02  -2.93775022e-01   2.90921867e-01
    4.32243615e-01   2.40121514e-01  -6.30192339e-01  -3.36438566e-01
   -2.93017626e-02  -1.61225703e-02  -7.64987990e-02   1.19698487e-01]
 [  1.66473806e-01  -2.40097314e-01  -5.72685421e-01  -5.11534929e-01
    3.03929806e-01   2.60457605e-01  -3.65147829e-01   1.15774982e-01
    3.18548501e-01   3.96869853e-02  -1.77232236e-01   2.20818430e-01
    1.58133402e-01  -8.27587172e-02   3.09865326e-01  -8.00891742e-02]
 [ -1.46708083e+00   5.31947672e-01   3.08186620e-01   1.22116446e+00
   -1.37427962e+00  -8.26207735e-03  -2.99562693e-01  -1.21095628e-01
   -8.13460529e-01  -2.23352626e-01   7.49183595e-01   3.68229181e-01
    2.13818848e-01   1.17731594e-01  -1.00814670e-01  -5.42228580e-01]
 [ -6.63891912e-01   1.87670767e-01   1.17664114e-01   5.74529409e-01
   -3.17181230e-01  -2.28544157e-02  -2.36922771e-01   2.80988403e-02
   -6.89451694e-01  -2.73968935e-01   7.04011559e-01   2.53013790e-01
    3.99259962e-02   4.88118734e-03  -4.59681265e-02   1.25518233e-01]
 [ -1.03026474e+00   4.66233045e-01   2.55122393e-01   3.30722779e-01
   -4.29342717e-01  -1.01891927e-01  -2.09946766e-01   1.71664089e-01
   -4.17619377e-01  -1.68593511e-01   4.43652362e-01   3.21683407e-01
    3.77138823e-01  -1.32570360e-02  -1.00102320e-01  -3.68388712e-01]
 [ -4.00391430e-01   4.76824075e-01   5.84426999e-01   9.03766692e-01
   -8.35380614e-01   9.57480446e-03   1.41574299e+00  -5.85318804e-01
   -1.30097413e+00  -7.60702133e-01   9.12222147e-01   5.80127656e-01
   -6.45718575e-01  -3.68056484e-02  -4.57396396e-02  -1.19418427e-01]
 [  9.89827141e-03  -1.96468070e-01   1.30495518e-01   1.19138300e-01
    3.51741575e-02  -2.35134922e-02   6.10427670e-02   1.31916940e+00
    2.29159780e-02  -2.52366662e-01   1.77306399e-01   2.14431629e-01
   -8.37680027e-02  -3.14527787e-02   9.05130059e-02   9.30347294e-03]
 [ -1.56031621e+00   8.66213500e-01   6.66662097e-01   1.67370594e+00
   -1.94961488e+00   6.86376989e-02   4.96139675e-01  -1.00180662e+00
   -1.54314756e+00  -7.63387799e-01   1.20329821e+00   5.13022959e-01
    1.55424073e-01   1.43069610e-01  -1.75794601e-01  -5.18012345e-01]
 [ -1.07618892e+00   4.04441088e-01   3.39671016e-01   1.09186554e+00
   -1.02813756e+00   7.73338601e-02  -3.82027142e-02  -5.76275170e-01
   -7.31828153e-01  -1.87074840e-01   1.08102918e+00   2.83012271e-01
    3.09069417e-02  -1.15997799e-01  -8.99600238e-02  -2.45092844e-04]
 [ -1.11536705e+00   4.88552243e-01   2.09412545e-01   9.11523759e-01
   -1.03975892e+00  -8.67622644e-02  -6.66804463e-02  -3.45398426e-01
   -1.00223291e+00  -3.29047054e-01   1.15796924e+00   4.45258647e-01
    4.32664007e-01  -3.41298431e-02   8.64987597e-02   3.15514877e-02]
 [ -1.30762494e+00   2.02792048e-01   3.58186901e-01   9.02422249e-01
   -1.28067172e+00  -4.48798649e-02   1.64994061e-01  -7.31899202e-01
   -1.15542567e+00  -4.64723080e-01   9.66360629e-01   8.31435978e-01
    1.42906383e-01   1.67512059e-01   3.17688137e-02  -6.82552382e-02]
 [  8.61255080e-02   4.18620229e-01   2.08898541e-02  -9.81549174e-03
    1.60880640e-01  -1.55463209e-02   6.84473097e-01  -5.46963923e-02
   -3.95119518e-01  -1.43598884e-01   2.06826463e-01  -1.07465349e-01
   -1.48527372e+00   2.09044702e-02   7.56087750e-02  -1.58365324e-01]
 [ -2.12265104e-02  -1.69895440e-02   1.51725382e-01   1.57716051e-02
    9.24170315e-02  -1.39003824e-02   6.36314750e-02  -1.77810621e-02
   -6.13362312e-01   1.07004978e-01   4.55408901e-01   2.64557213e-01
   -8.26413035e-02  -1.02609312e-02  -6.96102083e-02  -3.94341260e-01]
 [ -1.43374681e+00   2.67232865e-01   2.34296903e-01   1.23872209e+00
   -1.39495826e+00   1.19230814e-01   3.76025259e-01  -3.95079315e-01
   -8.45464289e-01  -4.23314601e-01   9.19145942e-01   2.99787402e-01
    3.65282029e-01   7.39163831e-02  -2.31375322e-01  -6.19718909e-01]
 [ -1.22690713e+00   9.90302980e-01   6.51739717e-01   1.30088067e+00
   -1.32114220e+00   9.36388690e-03   4.90841836e-01  -6.18649244e-01
   -8.41819525e-01  -4.30218726e-01   1.06995988e+00   4.12430674e-01
    6.53425634e-01   1.33816570e-01   1.54974591e-02  -8.73138666e-01]
 [ -7.30211258e-01   4.31195706e-01   7.94234514e-01   1.42092454e+00
   -9.94344532e-01  -1.40164167e-01   3.65319490e-01  -4.56821650e-01
   -9.18594658e-01  -7.31057405e-01   1.30049169e+00   5.11251450e-01
   -3.24126750e-01  -4.01338600e-02  -1.47636801e-01   4.38398644e-02]
 [ -6.54928923e-01   7.23894358e-01   5.94112933e-01   1.94491839e+00
   -1.56178749e+00   2.78977640e-02   3.93195599e-01  -6.19629622e-01
   -1.15551436e+00  -8.02967250e-01   1.06959701e+00   4.06904489e-01
   -5.15240192e-01   1.21132558e-04  -2.08110511e-01   4.53213274e-01]
 [ -1.07327127e-03   6.41793251e-01   3.75995576e-01   8.51476073e-01
   -7.75833189e-01  -1.21883146e-01   1.68589979e-01  -5.39705276e-01
   -9.47657466e-01  -8.83831233e-02   8.63237977e-01   5.83858073e-01
   -1.95243269e-01   6.21856423e-03  -2.20898539e-01   3.54280770e-01]
 [ -4.78529304e-01   3.34779501e-01   3.16708028e-01   9.33996379e-01
   -1.20223725e+00   1.45844415e-01   2.24304929e-01  -3.84637952e-01
   -9.81965363e-01  -9.57501382e-02   6.64503813e-01   4.37396109e-01
   -1.19604431e-01   5.47547378e-02  -7.65016377e-02  -2.82345098e-02]
 [  3.13725859e-01   2.64348388e-01   1.52612433e-01  -1.62990093e-01
    6.03410602e-02  -7.30400756e-02  -3.35617900e-01   1.82972759e-01
    1.46838278e-01   3.37983429e-01   2.18840376e-01  -2.25541722e-02
   -2.38200426e-01   1.30631523e-02   6.22488447e-02   3.53911787e-01]
 [ -1.25838327e+00   2.88405746e-01   4.52671736e-01   2.69617047e-02
    9.48033109e-02   2.96466914e-03   5.56015084e-03  -6.35035262e-02
   -4.74517167e-01  -1.26814872e-01   5.79695702e-01   4.06259090e-01
   -3.89967896e-02  -5.46313450e-02   4.05605175e-02  -1.28351271e+00]
 [ -1.56683815e+00   3.38134199e-01   4.35467064e-01   4.63466734e-01
   -5.91730893e-01  -1.94662716e-02   1.94831029e-01  -6.93873107e-01
   -7.57027388e-01  -3.76686215e-01   1.24166977e+00   6.13970220e-01
   -1.85746625e-01   5.78993484e-02   5.95734045e-02  -8.57462585e-01]
 [ -7.09988296e-01   6.73610270e-01   4.35829133e-01   1.77796435e+00
   -1.64803576e+00  -9.65230763e-02   6.92579269e-01  -1.29596150e+00
   -1.70718002e+00  -9.09209967e-01   1.22021163e+00   1.20528209e+00
   -6.61192656e-01   3.51430416e-01  -3.93674046e-01   2.12054685e-01]
 [ -7.08667994e-01   9.21949804e-01   4.47773635e-01   1.56972039e+00
   -1.88609600e+00  -7.86958337e-02   6.88238263e-01  -1.36118281e+00
   -1.24482656e+00  -7.55474389e-01   1.37361515e+00   7.76941538e-01
   -1.12541449e+00   1.54301733e-01  -5.44020496e-02   5.93312502e-01]
 [  2.40890920e-01   5.07645309e-01   2.18612269e-01   1.37782305e-01
   -3.97852480e-01  -1.13179311e-01   6.67306557e-02  -2.99835652e-01
   -2.65396744e-01  -1.93487015e-02  -8.70474055e-02   5.79248331e-02
    4.14996922e-01   3.08361202e-02  -1.67518154e-01   1.38361538e-02]
 [ -2.54150033e-01   8.94424856e-01   5.70123553e-01   1.37216878e+00
   -1.49810374e+00  -1.58367157e-01   3.99093449e-01  -3.72059494e-02
   -8.51473927e-01  -3.95229071e-01   8.91362667e-01   5.60342848e-01
   -4.81643885e-01   1.88305303e-01  -2.35262662e-02   5.37222564e-01]
 [ -5.52607179e-01   8.03798556e-01   4.83150184e-01   1.46689308e+00
   -1.72857511e+00   1.32943019e-01   4.67340320e-01  -8.15716147e-01
   -1.43438041e+00  -9.40968990e-01   7.23804593e-01   6.97726548e-01
   -4.95213091e-01  -5.37439696e-02  -2.26340994e-01   5.11850178e-01]
 [ -3.03356767e-01   1.17051631e-01  -2.65159691e-03   1.00305989e-01
   -4.11168933e-01  -1.60534173e-01  -9.15111154e-02   2.24294379e-01
   -1.98682919e-01  -8.30224454e-02   1.55247256e-01   6.38877898e-02
   -1.63847148e-01   4.82111499e-02  -1.56719074e-01  -1.97918564e-01]
 [ -4.56925333e-01   4.77224618e-01   1.51898608e-01   1.30599880e+00
   -1.04956019e+00   5.60649410e-02   2.91050881e-01  -5.67148209e-01
   -7.01958179e-01  -5.31257570e-01   6.48600638e-01   3.46669704e-01
   -1.06992379e-01   6.94543938e-04  -2.13073101e-02   2.77737051e-01]
 [  3.88930112e-01   2.09648088e-01   1.37102827e-01   2.03291312e-01
   -2.50647008e-01   1.37434406e-02  -2.02497870e-01   5.22960186e-01
   -2.63126612e-01   4.73184325e-02   1.69430465e-01   3.70584249e-01
    1.80381909e-02  -6.07786961e-02   1.47095755e-01   4.03814822e-01]
 [ -1.72759548e-01   8.10631096e-01   9.25537571e-02   1.24374855e+00
   -1.40553761e+00  -2.28027571e-02   4.80910867e-01  -7.44041979e-01
   -1.22911155e+00  -3.24400306e-01   1.04584861e+00   2.59254009e-01
   -3.29572022e-01   3.44928876e-02  -5.19653484e-02   4.49978203e-01]]