Alice
[[  2.42584990e-03  -7.57466303e-04  -1.62789528e-03 ...,  -6.29895600e-04
   -1.66091963e-03  -3.49725434e-03]
 [  2.93609337e-03  -6.39848993e-04  -1.92822726e-03 ...,  -6.78673910e-04
   -2.25754012e-03  -3.10063874e-03]
 [ -1.90941297e-04  -4.29136259e-03  -3.54394247e-03 ...,  -3.07398033e-03
   -1.49033880e-02   8.35145707e-04]
 ..., 
 [  9.97603416e-01  -1.14106584e+00  -8.81388485e-01 ...,  -1.26731086e+00
    1.05503833e+00  -9.15312707e-01]
 [  1.69107008e+00  -1.72390699e+00  -1.67587614e+00 ...,  -8.35356474e-01
    1.74447751e+00  -1.72958922e+00]
 [  9.83661294e-01  -7.84641147e-01  -9.78302836e-01 ...,  -1.49107563e+00
    9.99175370e-01  -1.08298624e+00]]
Bob
[[  1.02930830e-03  -1.24120270e-03  -1.11787945e-01 ...,  -1.16540305e-03
    6.07801927e-03   1.47494010e-03]
 [  1.15271634e-03  -1.36683532e-03  -1.10928930e-01 ...,  -1.27987738e-03
    5.43306582e-03   1.57352421e-03]
 [  9.42128419e-04  -1.08170207e-03  -1.11187570e-01 ...,  -1.01981999e-03
    4.88020806e-03   1.32644956e-03]
 ..., 
 [  8.37093771e-01   3.12234797e-02   8.75655413e-01 ...,  -9.39639866e-01
   -1.11544892e-01   7.20767200e-01]
 [  1.20753181e+00   2.52170302e-02   1.25372553e+00 ...,  -1.22010267e+00
   -1.74481738e-02   1.09665596e+00]
 [  1.32629347e+00   2.47431528e-02   1.35936499e+00 ...,  -1.33797419e+00
   -3.17812786e-02   1.39001572e+00]]
Eve
[[ 3.26438379  3.51699996  3.29158902 ...,  3.32429647  3.48063231
  -3.50693274]
 [ 3.03672433  3.20884776  3.38148642 ...,  2.97767305  3.3262105
  -3.32982898]
 [ 3.25965405  3.29603791  3.22472358 ...,  3.43928719  3.48474312
  -3.39626431]
 ..., 
 [ 3.06268692  3.13131642  3.0993247  ...,  3.43945622  3.23376417
  -3.02729321]
 [ 3.36247563  3.1727221   3.13774467 ...,  3.52593803  3.70124578
  -3.16867566]
 [ 3.19699693  3.31625342  2.991853   ...,  3.24952817  3.42923713
  -3.15566802]]