Alice
[[  8.07657198e-04   8.97998572e-04   8.90029070e-04 ...,   9.65947052e-04
    9.70581721e-04  -8.40827299e-04]
 [  8.87557748e-04   1.00524141e-03   9.83969658e-04 ...,   1.06570893e-03
    1.06680277e-03  -8.99547245e-04]
 [  1.71943440e-03   2.26054480e-03   2.44015292e-03 ...,   2.64246529e-03
    2.02798680e-03  -2.97456980e-03]
 ..., 
 [ -7.07220798e-03   1.28632343e+00   1.42847621e+00 ...,   1.64146745e+00
    1.58844554e+00  -1.44441903e+00]
 [ -2.29605600e-01   1.50068557e+00   1.48198605e+00 ...,   1.70721960e+00
    1.66480350e+00  -1.37436247e+00]
 [ -2.92791519e-02   1.62468410e+00   1.56636107e+00 ...,   1.36255276e+00
    1.66947484e+00  -1.66411769e+00]]
Bob
[[  1.04980241e-03  -7.98113411e-04  -1.09983864e-03 ...,  -1.03336223e-03
    1.26793236e-03   1.08875695e-03]
 [  1.00778916e-03  -7.52181339e-04  -1.02693390e-03 ...,  -9.94222122e-04
    1.19677756e-03   1.06462149e-03]
 [  1.14564842e-03  -9.19312472e-04  -1.15938124e-03 ...,  -1.13316008e-03
    1.33866072e-03   1.19291001e-03]
 ..., 
 [  1.45586324e+00   1.49982834e+00  -1.56032920e+00 ...,  -1.55194318e+00
    1.18404198e+00   1.61618924e+00]
 [  1.60206079e+00   1.40241396e+00  -1.64515972e+00 ...,  -1.27484107e+00
    1.29721987e+00   1.24991643e+00]
 [  1.59862292e+00   1.09072435e+00  -1.47157204e+00 ...,  -1.63010204e+00
    1.13361037e+00   1.61360335e+00]]
Eve
[[-2.91646862  3.35398436 -3.28050375 ..., -2.9222846  -2.91458178
   3.15783167]
 [-2.80186367  3.11615467 -2.90737176 ..., -3.27724075 -3.34358096
   3.22979879]
 [-3.13624287  3.22111201 -3.03117013 ..., -3.11068892 -3.14166784
   3.2510097 ]
 ..., 
 [-2.91728401  2.93103313 -2.90106249 ..., -3.27794552 -3.31895089
   3.15423036]
 [-3.0288651   3.45589256 -3.15777612 ..., -3.29612422 -3.05339813
   3.31069469]
 [-3.01032281  3.1151967  -3.1522584  ..., -2.8697021  -3.23966146
   2.93212962]]