Alice
[[  8.34290013e-02  -4.04350042e-01   1.57331064e-01  -1.51818609e-02
    3.30112636e-01  -2.76771020e-02   5.55732334e-03   9.39241946e-02]
 [  8.34826827e-02  -4.04377908e-01   1.57351047e-01  -1.51764136e-02
    3.30122858e-01  -2.76574008e-02   5.64606767e-03   9.39015001e-02]
 [  8.34350884e-02  -4.04325366e-01   1.57299921e-01  -1.51541764e-02
    3.30119401e-01  -2.76445076e-02   5.58258360e-03   9.39290449e-02]
 [  8.34874511e-02  -4.04390424e-01   1.57327816e-01  -1.51263531e-02
    3.30147028e-01  -2.76810452e-02   5.60043007e-03   9.39181075e-02]
 [  8.34665075e-02  -4.04380649e-01   1.57303691e-01  -1.51392492e-02
    3.30132216e-01  -2.76590157e-02   5.58104226e-03   9.39316750e-02]
 [  7.05316546e-04  -4.04385507e-01   1.21271156e-01  -8.58169675e-01
    3.30188930e-01  -2.30439031e-03   5.64549910e-03   9.39752758e-02]
 [  3.97757851e-02  -4.51278776e-01   1.46504611e-01   8.60308472e-04
    2.74849296e-01  -2.08513308e-02   1.64361652e-02  -8.89295340e-01]
 [  8.34698826e-02  -4.04351562e-01   1.57327235e-01  -1.51891205e-02
    3.30108792e-01  -2.76707429e-02   5.61271282e-03   9.38237682e-02]
 [ -1.05880745e-05   7.61623160e-05  -2.96489125e-05  -2.51180409e-05
    4.17714909e-05  -4.11665678e-06  -1.46632083e-05   7.62345462e-06]
 [  4.00137515e-06   4.54351448e-06  -1.65708752e-05  -6.85861523e-05
    5.18862435e-05  -1.30935241e-05  -3.82718245e-05   6.65732005e-05]
 [  1.52924058e-05  -1.18735497e-05  -5.02596158e-05  -6.39215141e-05
    6.19940402e-05   3.40260631e-05  -3.53088435e-05   2.10790749e-05]
 [  5.15429383e-06   6.98786316e-05  -2.81962966e-05  -1.68561874e-05
   -1.18960597e-05  -1.48213931e-05  -2.14137326e-05  -1.82050844e-05]
 [  1.92100488e-05   8.55313010e-06  -3.73724797e-05  -3.52541028e-05
    4.38561910e-05  -2.23271081e-06  -1.94538698e-05   2.45891551e-05]
 [  1.86917168e-05   3.55164630e-05  -1.46379680e-05  -2.62789144e-05
    2.92474833e-05  -4.07438483e-06  -3.36168960e-05  -1.13154438e-05]
 [  6.17174237e-06   1.05327626e-05  -2.88418801e-06   1.66719838e-05
    1.38871301e-05  -3.74303909e-06  -6.85754276e-05   3.01994696e-05]
 [ -9.24944288e-06   6.62978491e-05  -1.48012005e-05  -5.95214442e-05
   -8.49139269e-07  -7.71818122e-07  -5.01741051e-05  -2.14149277e-05]
 [ -1.53025731e-01  -4.80329901e-01   9.62652624e-01   2.49953747e-01
   -9.00424551e-03  -3.51021379e-01   2.50652552e-01  -6.09116480e-02]
 [ -3.77242237e-01  -8.43738467e-02   4.09654230e-02   2.80636370e-01
   -1.07690871e+00  -2.10615173e-01   3.10940593e-01   8.72672796e-02]
 [ -1.27868384e-01  -5.90629019e-02   2.79817522e-01   3.53306174e-01
    4.26153839e-02  -1.05990589e-01   2.30648905e-01  -1.12349093e-01]
 [ -4.34026003e-01  -2.26393878e-01   3.02646309e-01   1.01339690e-01
    1.33688092e-01  -2.73286909e-01   7.16147006e-01  -3.81615341e-01]
 [ -1.23665437e-01  -6.77521646e-01   2.38296524e-01  -1.94068566e-01
    3.96719038e-01  -3.14076066e-01  -4.62313145e-02  -1.80620216e-02]
 [ -1.50676966e-01  -2.47983783e-01   1.85303600e-03   1.19920895e-01
    8.24360251e-02  -7.27501735e-02   5.20263575e-02  -1.41234219e-01]
 [ -2.99246103e-01   9.45991501e-02   4.20702368e-01  -1.31054103e-01
   -2.83106327e-01  -1.95188582e-01   2.39772737e-01  -1.15869105e-01]
 [ -7.73494303e-01  -3.19202811e-01   2.24319682e-01   1.09870362e+00
    6.40661549e-03  -1.80192456e-01   2.39444636e-02  -1.92885920e-02]]
Bob
[[ -3.19333285e-01  -3.52458060e-01   6.96091428e-02  -1.41391486e-01
    9.12045538e-02  -1.10777654e-01   1.29980847e-01  -1.48717403e-01]
 [ -3.19342256e-01  -3.52457881e-01   6.96498379e-02  -1.41381040e-01
    9.11808982e-02  -1.10774048e-01   1.29992500e-01  -1.48688301e-01]
 [ -3.19339842e-01  -3.52486730e-01   6.96428865e-02  -1.41383737e-01
    9.11930799e-02  -1.10826589e-01   1.30017072e-01  -1.48719892e-01]
 [ -3.19284916e-01  -3.52565497e-01   6.96129948e-02  -1.41335353e-01
    9.12178829e-02  -1.10755026e-01   1.30009040e-01  -1.48665115e-01]
 [ -3.19272578e-01  -3.52577269e-01   6.96402043e-02  -1.41359583e-01
    9.12353694e-02  -1.10830948e-01   1.30035713e-01  -1.48672581e-01]
 [ -3.19318473e-01  -3.52739990e-01   1.58804238e-01  -9.15468335e-02
    1.79260507e-01  -1.10710919e-01   2.18134582e-01  -6.66223094e-03]
 [ -2.56140888e-01  -3.35053265e-01   1.18619271e-01  -1.21918991e-01
    4.75266203e-02   8.73655498e-01   6.74791634e-02  -8.64299089e-02]
 [ -3.19326371e-01  -3.52524310e-01   6.96178302e-02  -1.41392156e-01
    9.12145451e-02  -1.10826805e-01   1.30010128e-01  -1.48726925e-01]
 [  1.51090835e-05  -3.26466718e-04  -3.37927340e-05  -1.29397413e-05
    2.26219618e-05  -3.86699103e-05   6.83558173e-05   1.18920703e-04]
 [  2.08676056e-07  -3.03242152e-04  -5.62948771e-05   2.42316055e-05
    3.75499512e-05  -2.86140448e-06   2.74541744e-05   1.02917686e-04]
 [ -7.62054924e-06  -2.42872469e-04  -5.45183793e-05  -1.27001131e-05
    2.11764873e-05  -3.68731671e-05   4.50416246e-06   7.34307687e-05]
 [  3.50869450e-05  -1.89081955e-04  -5.66367162e-05   1.55753605e-05
    1.63254608e-05   4.50141742e-05  -4.88380192e-06   1.21186786e-04]
 [  8.97726113e-06  -2.67758180e-04  -1.75936293e-05  -3.19819155e-05
    5.92213873e-05  -5.98408951e-06  -5.97242069e-06   1.00155026e-04]
 [  1.30828612e-05  -2.80462700e-04  -6.29504211e-05   4.38330881e-06
    6.05746973e-05  -6.31343437e-06   2.51842466e-05   1.16726573e-04]
 [  3.22871056e-05  -3.52481031e-04  -5.00406459e-05   7.32334320e-06
    4.96996254e-05  -2.05411397e-05   3.29013892e-05   6.77299904e-05]
 [  6.43134990e-05  -2.23704817e-04  -7.47905360e-05   1.68615770e-05
    5.95785968e-05   3.58684774e-05   2.71074987e-05   1.26602259e-04]
 [  1.53189674e-02  -1.80631736e-03  -6.44503891e-01   3.22205834e-02
    3.35412681e-01   4.30584073e-01   6.30633011e-02  -2.24498995e-02]
 [ -8.41525965e-04   3.16774815e-01  -1.12149835e+00  -7.05705360e-02
    3.02008837e-02  -2.43717451e-02   1.22518636e-01  -6.15603030e-02]
 [  3.59970555e-02  -1.13618970e-01  -7.75503874e-01  -7.31001049e-02
    2.11766019e-01   3.94212067e-01   7.42703825e-02  -1.33352429e-01]
 [ -5.37447957e-03  -1.63884349e-02  -2.26077959e-01  -5.72587438e-02
   -6.96203262e-02   6.26826584e-02  -9.30054709e-02   1.01473987e+00]
 [ -1.00082183e+00   7.97206521e-01  -4.10419822e-01  -4.86637980e-01
    5.17616272e-01   3.59731428e-02   4.02656585e-01  -4.57815379e-01]
 [ -2.78318256e-01  -1.29255861e-01  -7.95771658e-01   2.09820992e-03
    1.69859976e-01   1.24956496e-01   7.86159486e-02   1.12346038e-01]
 [  8.05677995e-02   3.62737000e-01  -3.13553482e-01  -5.17668664e-01
    2.04103678e-01   3.93715471e-01   6.09412372e-01  -2.31186733e-01]
 [ -7.85529055e-03   6.01636358e-02  -2.72218436e-01  -6.29926175e-02
    9.03682113e-02   5.99199049e-02   1.79939702e-01  -1.50100380e-01]]
Eve
[[  3.30410451e-01  -5.37325680e-01  -1.57617956e-01  -4.66937959e-01
    5.45115247e-02   3.66429985e-01   4.01797533e-01   6.62532210e-01]
 [  3.30334991e-01  -5.37261128e-01  -1.57891482e-01  -4.66877341e-01
    5.47256172e-02   3.66524458e-01   4.01854575e-01   6.62061751e-01]
 [  3.30519706e-01  -5.37099421e-01  -1.58118933e-01  -4.66937184e-01
    5.49080856e-02   3.66388798e-01   4.01877791e-01   6.62793040e-01]
 [  3.30370128e-01  -5.37490189e-01  -1.57839209e-01  -4.67009455e-01
    5.43541200e-02   3.66644710e-01   4.01717991e-01   6.62118316e-01]
 [  3.30433607e-01  -5.37356973e-01  -1.57643318e-01  -4.66891885e-01
    5.43163158e-02   3.66666317e-01   4.01772141e-01   6.62218213e-01]
 [  2.12547109e-01  -6.02105439e-01  -2.06354678e-01   1.12376845e+00
    1.27306819e-01   4.75406572e-02  -3.04754707e-03   3.86157632e-01]
 [  2.55257010e-01  -3.83276165e-01  -1.63975894e-01  -4.20441747e-01
    4.12254781e-02   2.79594064e-01   3.45384389e-01  -2.39553404e+00]
 [  3.30514461e-01  -5.37311912e-01  -1.58133730e-01  -4.66856450e-01
    5.46352267e-02   3.66616458e-01   4.02020007e-01   6.62538230e-01]
 [  6.44090995e-02  -5.06124556e-01  -4.74399716e-01  -4.29484509e-02
   -6.76194310e-01  -4.16057348e-01   1.12606898e-01   5.07126637e-02]
 [  3.97911698e-01  -2.26998019e+00  -9.25878525e-01  -2.40632355e-01
   -1.80466437e+00   2.56309897e-01   3.07789564e-01  -3.31318945e-01]
 [  5.72301745e-01   3.98444608e-02   6.25800908e-01  -1.13188148e-01
    6.89410686e-01   1.85264722e-01   2.24845871e-01  -6.85915351e-01]
 [  1.91696852e-01  -1.21049345e-01  -2.90404521e-02   1.45385373e+00
   -9.13313180e-02   2.86333591e-01   4.32919383e-01   2.55919039e-01]
 [  2.62353569e-01  -6.12343431e-01   5.25081217e-01  -2.16639161e-01
    1.21383965e+00   5.12906969e-01   3.71995628e-01  -3.38130862e-01]
 [ -3.99206251e-01  -2.49586403e-01  -3.32724839e-01   5.46070158e-01
   -3.98878932e-01  -2.00348169e-01  -2.17982277e-01  -3.99773449e-01]
 [  1.63339764e-01  -1.33426875e-01   5.26712894e-01   4.12896834e-03
   -3.88088375e-01   2.90140230e-02   3.37725163e-01  -9.27127838e-01]
 [  1.31164163e-01  -5.00941351e-02  -1.27072290e-01  -1.80821136e-01
    1.79083407e-01   1.68401852e-01   2.31390730e-01  -8.73353258e-02]
 [  6.59624159e-01   2.92764276e-01   5.51040173e-01  -8.17882836e-01
    1.51392043e+00   7.91282296e-01   6.98614240e-01  -5.21395266e-01]
 [  3.29549521e-01  -1.50864279e+00  -5.43283880e-01  -1.97761700e-01
   -7.59328067e-01   1.23923898e-01   2.36552387e-01   5.49300671e-01]
 [ -4.39212434e-02  -2.03830287e-01  -3.01146746e-01   2.22969726e-01
    9.01436724e-04  -3.95438701e-01   9.60795134e-02  -1.39425576e+00]
 [  2.10556999e-01   1.79957256e-01   3.94158214e-01   4.31870401e-01
    7.18302354e-02   2.65593052e-01   1.00680865e-01  -1.09456480e+00]
 [  9.52832699e-02  -2.99116168e-02   1.03670493e-01   1.58087835e-01
   -9.36856493e-02   6.22112155e-01  -2.81643242e-01  -6.97081149e-01]
 [  2.44858831e-01  -2.54273057e-01  -3.40910293e-02  -1.47334620e-01
   -1.11100510e-01   2.85292622e-02  -2.37613600e-02  -2.49503359e-01]
 [ -2.84405369e-02   5.64040720e-01   4.34164107e-01   1.34490341e-01
   -1.53623402e-01   1.77233085e-01   3.30220401e-01   1.13027856e-01]
 [  2.03848228e-01  -4.57175076e-01  -2.48302966e-01  -8.87193322e-01
    1.41232684e-01   2.22072110e-01   9.18100774e-02  -1.02290976e+00]]