Alice
[[ -1.89935708e-05  -8.74321813e-06  -5.66799463e-06  -5.39728171e-06]
 [  6.65587544e-01  -5.47325134e-01  -7.89497746e-04   5.20571887e-01]
 [  5.06598353e-01   7.00744808e-01   1.01744008e+00   7.66787112e-01]
 [  8.04840693e-06  -2.17305278e-05   3.76752678e-06   5.24395364e-06]
 [  2.50539488e-05  -1.36267136e-06  -1.90799801e-06   1.89947204e-05]
 [  1.88244612e-05  -1.99161677e-05   3.24691655e-06   8.47317915e-06]
 [  1.30011822e-05  -8.81983306e-06   7.84550411e-06   1.18074386e-05]
 [  2.15811669e-05  -6.56945576e-06  -1.05122544e-05   2.85691349e-05]
 [ -7.46523798e-01   2.36933634e-01  -9.79415536e-01   1.95896804e-01]
 [  2.91865855e-01  -6.53637350e-01  -2.34232191e-03  -7.39591122e-01]
 [  2.65388817e-01  -4.01580513e-01  -3.49576846e-02  -3.32034677e-01]
 [ -7.44918652e-05   6.50575530e-05   5.50594814e-06  -1.05008960e+00]]
Bob
[[ -2.94435042e-04  -1.25342376e-05  -1.63214514e-04   1.07491305e-05]
 [  3.39779654e-05   6.25714123e-01  -2.34045628e-02  -8.21054503e-02]
 [ -1.49027789e-02  -8.59635592e-01  -3.29754770e-01   2.22111523e-01]
 [ -2.93214398e-04  -1.12145126e-05  -1.82198419e-04   4.17102456e-06]
 [ -1.25245342e-03   3.01422824e-06  -7.17952207e-04   2.78783500e-06]
 [ -9.81716812e-01  -2.00142713e-05  -5.79137981e-01   6.52654944e-06]
 [ -1.27678295e-03   6.13851898e-06  -7.41400523e-04   1.77389120e-05]
 [ -3.15144309e-04  -1.30364388e-05  -1.95039247e-04  -9.75571871e-01]
 [  9.75852385e-02  -1.46753356e-01   1.01773226e+00   6.40235245e-01]
 [  8.05796087e-02   8.27212989e-01  -4.20610636e-01  -9.96654689e-01]
 [  1.08364344e+00   3.93867195e-01   3.14374059e-01   1.08359763e-02]
 [ -2.16987103e-01  -2.95887329e-02   8.26742053e-01   4.56514567e-01]]
Eve
[[ -1.31305428e-02   1.37061045e-06   6.27820287e-03  -4.05351967e-02]
 [  9.39213872e-01  -1.46461785e+00   1.14054132e+00   5.67956388e-01]
 [  6.19547367e-01   8.01718891e-01  -1.38451898e+00   5.65362811e-01]
 [ -1.32694505e-02  -8.86924317e-05   6.41235104e-03  -4.64895703e-02]
 [  1.54413712e+00  -3.69970858e-01  -1.38541770e+00   8.81059468e-01]
 [ -3.89956683e-01  -1.61235023e+00   8.47456396e-01  -1.50107026e+00]
 [  5.20660281e-01   1.23522997e+00  -1.19218218e+00   5.87795675e-01]
 [  1.12376153e+00  -7.13535011e-01  -1.24794412e+00   5.86385906e-01]
 [ -1.20959234e+00  -1.58433151e-02   1.98266029e+00  -3.50195825e-01]
 [  3.27674240e-01   2.00689156e-02   6.87993839e-02  -1.18867683e+00]
 [ -9.08006072e-01   2.24897694e-02   1.72408509e+00   4.76149261e-01]
 [ -1.50547903e-02   7.10417007e-05   7.80974515e-03  -2.69892168e+00]]