Alice
[[  6.09326489e-05   3.43982399e-01   1.73289991e-05   2.49061704e-04
    5.20930625e-04  -2.00037684e-05   1.61214903e-05   3.36659505e-05]
 [ -1.12639304e-04   3.48068953e-01  -8.23593873e-05   1.57394643e-05
    2.35558269e-04  -2.65862727e-05   1.38866453e-05  -1.26320365e-05]
 [ -4.34697322e-05   3.43727857e-01   9.98616633e-06  -9.47158551e-05
    3.78296914e-04   4.14020251e-05  -3.46762135e-05  -1.73961780e-07]
 [  2.57826214e-05   3.46084416e-01  -1.75761816e-04   9.28665104e-05
    4.08812048e-04  -7.72802887e-05   2.13973981e-05   1.38539963e-06]
 [ -2.48694432e-05   3.49370003e-01   5.11420767e-05   1.27407829e-05
    4.15527669e-04   5.15037282e-05  -1.01975005e-04   8.54017562e-05]
 [ -9.04537155e-05   3.49903643e-01   3.62497076e-07  -1.09725828e-04
    4.46876307e-04  -1.04766477e-05  -1.43904799e-08   1.97147638e-05]
 [  6.66258929e-05   3.48590672e-01   2.67321029e-05   5.71632372e-05
    4.20075288e-04  -4.27557934e-05  -4.66100619e-06   3.35199802e-05]
 [  4.63901051e-05   3.45453531e-01  -8.34050734e-05  -7.46626301e-06
    4.16846509e-04  -2.95742975e-05   2.46768650e-07   9.63935599e-06]
 [  9.80023833e-05   2.38371521e-01  -7.55214569e-05  -1.04779523e-04
   -7.69550534e-05  -3.24690627e-05   3.06114016e-05  -3.87540167e-05]
 [ -6.78238866e-05   2.04857513e-01  -5.22397168e-05   5.24352945e-05
   -1.34145608e-04   2.74930535e-05   3.57170466e-05  -8.05433301e-05]
 [ -8.97015489e-05   2.35697046e-01  -1.20276195e-06   4.47113525e-05
   -6.83465478e-05  -4.03974227e-05   4.33810492e-05   5.35705731e-05]
 [ -3.16214791e-05   2.17950925e-01  -1.38091782e-04   5.98067418e-05
   -5.97667240e-05   4.00301433e-05   6.04268716e-05  -3.96281503e-05]
 [ -5.09377423e-05   2.41290256e-01  -4.52107925e-05   6.88078990e-06
   -1.66622194e-05   7.82614297e-05   4.63593133e-05  -2.87577986e-05]
 [ -1.54368929e-04   2.26653591e-01   2.60996658e-05  -5.05678836e-05
   -1.40086864e-04   2.33715928e-05  -3.86338888e-06  -3.51555100e-05]
 [  3.41506529e-05   2.20146164e-01  -7.59302347e-05  -5.44708964e-05
   -5.90571217e-05   4.10315515e-05   5.59387117e-05  -5.67468887e-05]
 [  1.50867563e-04   2.21684247e-01  -8.31047073e-05  -1.09832588e-04
   -9.62596678e-05   5.44381364e-05  -1.27036274e-05  -4.39736505e-05]
 [ -5.06198406e-01  -3.04639220e-01   7.29888201e-01   1.69566944e-01
   -3.73196274e-01   1.15857255e-02  -1.01217767e-02   1.82705387e-01]
 [ -1.26968026e-01  -1.62836805e-01  -7.32446164e-02  -5.06944023e-02
   -3.24637413e-01  -1.67174667e-01  -5.53089343e-02   2.27979839e-01]
 [ -6.40924275e-02  -7.81832397e-01   3.76378208e-01   1.48474544e-01
   -6.04315341e-01   1.16665177e-01   2.13720933e-01   4.37381864e-01]
 [ -9.25122201e-01  -2.54317313e-01   3.40678364e-01  -2.01420318e-02
   -3.33246499e-01  -1.25424594e-01  -1.73590317e-01   2.60810822e-01]
 [ -5.01476884e-01  -3.30810219e-01   3.38766754e-01  -3.70018966e-02
   -8.35526526e-01   1.93676740e-01  -3.52172583e-01  -9.59778205e-04]
 [ -1.61429401e-03  -4.11932230e-01   2.63918072e-01   2.96612121e-02
   -4.79060799e-01   6.35208309e-01   6.77411735e-01   7.45152757e-02]
 [  5.86904511e-02  -1.88259378e-01   1.58597916e-01   1.23151422e-01
   -1.10141587e+00   2.98344344e-01  -2.54940420e-01   2.59684026e-01]
 [  7.40596419e-03   3.07480931e-01  -8.84918720e-02  -3.01185399e-02
   -6.68194532e-01   2.76303858e-01  -1.08455643e-01   5.70612311e-01]]
Bob
[[ -4.69571569e-05   9.18223304e-05   8.19022898e-05  -4.78907132e-05
    1.29388427e-05   8.77814455e-06   4.31299923e-05  -3.09829717e-04]
 [ -4.51035448e-05  -9.12675932e-06   7.12081019e-05   1.82790773e-05
    9.68124659e-05   6.06629146e-06  -1.58034800e-05  -3.46621586e-04]
 [ -2.62158792e-05  -2.92987679e-05   8.63712630e-05  -5.91695498e-05
   -9.62056038e-06   4.83306248e-05   2.49763980e-05  -3.34457873e-04]
 [  6.43295789e-05  -3.16769983e-05   1.05962776e-04  -8.92225216e-05
   -9.24513661e-05   6.05285713e-05  -4.73873079e-05  -4.14646725e-04]
 [  4.86749232e-05   7.19935706e-05   8.41461806e-05   6.32710071e-05
    6.22518783e-05   1.32356718e-05   8.77191414e-05  -2.99404783e-04]
 [  4.94891829e-05  -8.96829733e-05   7.89170736e-05   4.98007539e-05
    2.43728518e-05  -2.98516570e-05  -3.94439448e-05  -3.12849093e-04]
 [ -3.50298105e-05  -2.09322134e-05   7.22565528e-05   1.68177339e-05
   -4.56757225e-05   5.59576656e-05  -5.96278478e-05  -3.32431024e-04]
 [ -2.85774440e-05   2.53348626e-05   7.93347208e-05  -1.10507412e-04
    2.41531634e-05  -6.71652469e-06   4.21813820e-05  -3.47218243e-04]
 [ -3.85951535e-05  -7.56514710e-05   3.62649444e-05   8.99783117e-06
   -1.90644587e-05   2.29901270e-05  -3.75582131e-05  -5.92244724e-05]
 [ -3.75127274e-05  -5.51719022e-05  -1.68141814e-05  -6.66821652e-05
   -4.24339923e-05   4.47853417e-05  -3.32500986e-06  -8.91262534e-05]
 [  2.27756518e-05  -3.35006262e-05  -1.11438567e-05  -1.62902325e-06
    1.23013124e-05  -2.97851802e-05  -5.12596016e-05  -5.67987081e-05]
 [  5.20936446e-05  -1.43508259e-06  -2.94513211e-05   2.42187580e-05
    1.37266952e-05   7.82401839e-05   9.30558235e-06  -1.21062818e-04]
 [  1.84627897e-05   2.34608669e-05   1.00896341e-06   5.48942808e-06
    2.91039014e-05   2.13356871e-05   1.08104592e-04  -2.70856708e-05]
 [  3.89501001e-05  -6.57548735e-05  -2.35202715e-05   1.47926539e-06
    3.12904485e-05  -2.53742182e-05  -3.12976699e-05  -2.25292824e-05]
 [  5.37399974e-05   2.48494543e-05  -1.33753128e-05   2.17253801e-05
    1.05274885e-05   5.69127224e-05   9.02389875e-05  -1.55609057e-04]
 [  1.01377373e-05   9.30642454e-06  -5.31906335e-06   7.67268648e-06
   -3.07762093e-05   1.02236940e-04  -1.51541008e-05  -6.03566223e-05]
 [  1.47230774e-01  -3.50400984e-01  -5.89910671e-02  -8.44362259e-01
    7.25739479e-01  -1.20048121e-01  -4.80019003e-01   6.79611027e-01]
 [  2.37239117e-04   1.70793151e-03  -1.00008309e+00   1.12437550e-03
   -4.44030855e-04   6.83641934e-04   1.06810848e-03   1.35580637e-03]
 [ -3.15291574e-03  -2.87662931e-02  -2.80608028e-01  -4.82782930e-01
    5.15879214e-01  -4.20045435e-01  -4.52862620e-01   1.07961752e-01]
 [  4.46431041e-01   2.67383531e-02  -9.20468941e-02  -3.18547726e-01
    2.76428401e-01  -8.52554023e-01  -4.48238462e-01  -2.90709939e-02]
 [ -5.28973192e-02  -6.57874167e-01  -1.64393008e-01  -1.41359419e-01
    2.04952359e-02  -9.28576067e-02  -8.07713047e-02  -1.66806340e-01]
 [ -1.73964545e-01  -1.40713608e+00  -1.60328150e-01  -2.53191143e-01
    2.00479612e-01   1.16945304e-01  -7.82417536e-01  -1.80775031e-01]
 [  1.37711659e-01  -5.98170519e-01   5.98324060e-01  -7.37119392e-02
    1.33184925e-01  -2.92839915e-01  -5.18265963e-01   4.19676080e-02]
 [ -3.02765071e-02  -3.51791680e-01  -2.52536535e-01  -2.45097011e-01
    3.65056366e-01   1.18879944e-01  -5.63304305e-01  -3.10479719e-02]]
Eve
[[  1.47951102e+00   1.09115875e+00  -8.99527129e-03   1.75370681e+00
   -2.01474075e-04  -4.89175844e-04  -6.84019833e-05   9.54825839e-04]
 [  1.48908603e+00   1.09235811e+00  -9.06360988e-03   1.75964403e+00
   -2.04144337e-04  -4.36232775e-04   2.36655569e-06   8.79424741e-04]
 [  1.49880743e+00   1.09455323e+00  -9.05431248e-03   1.74969578e+00
   -1.30735832e-04  -7.30942760e-04  -1.20710465e-04   1.01378420e-03]
 [  1.49409127e+00   1.08668494e+00  -9.11058392e-03   1.74458659e+00
   -2.56629224e-04  -3.38922167e-04  -1.71307747e-05   1.25628873e-03]
 [  1.47213459e+00   1.08736670e+00  -9.30261333e-03   1.73553419e+00
   -2.11285165e-04  -6.45333668e-04  -4.30415166e-05   1.04468269e-03]
 [  1.38853073e+00   1.08679211e+00  -9.29251779e-03   1.69759715e+00
    1.93234446e-04  -4.79421666e-04  -1.91933723e-05   9.67539207e-04]
 [  1.46334887e+00   1.08756518e+00  -9.45795979e-03   1.73422122e+00
    4.95674467e-05  -4.79232200e-04  -1.18711170e-04   9.67912900e-04]
 [  1.49016964e+00   1.08819366e+00  -9.20345914e-03   1.76290095e+00
   -2.27453405e-04  -3.29590781e-04   2.57209049e-05   1.04860158e-03]
 [ -4.48932439e-01  -7.69538656e-02  -1.21986337e-01   2.58190572e-01
   -2.22182870e-01  -6.25255937e-03   1.20135501e-01  -5.26330173e-01]
 [  8.93080175e-01  -1.64361668e+00   8.46130699e-02   2.99164557e+00
    1.41094672e-03   2.37526721e-04  -4.20437515e-04  -1.71625323e-03]
 [ -5.12888730e-01  -1.29747853e-01  -1.14775360e-01   5.35003722e-01
   -2.03941762e-01  -8.80294815e-02   6.89283490e-01  -1.05552994e-01]
 [ -4.25623477e-01   1.77644536e-01   3.89493406e-01   5.20307720e-01
   -2.67609209e-01  -9.53337625e-02   4.64995623e-01  -2.67321497e-01]
 [  2.35536575e-01   3.43543559e-01   4.05593356e-03   3.99060905e-01
    2.38308042e-01  -2.87920889e-02   3.84613365e-01   8.25360239e-01]
 [ -6.78415922e-03   3.86377245e-01   3.23024571e-01   3.85787785e-01
   -5.94130099e-01   1.44145346e+00  -1.61642835e-01   4.82443094e-01]
 [  2.17609033e-02  -1.96899369e-01  -4.64975059e-01  -5.29930461e-03
   -5.90696573e-01   6.95929229e-01   3.73537540e-01  -5.38526475e-02]
 [  4.29722309e-01   2.40108684e-01   1.84393212e-01   3.53435546e-01
   -3.83233786e-01   2.43412241e-01   1.26042038e-01  -4.00596082e-01]
 [ -8.46875310e-01  -2.13064179e-01  -1.39252961e-01   6.89411610e-02
   -1.29572481e-01  -1.11648850e-01   2.84822792e-01  -1.51684672e-01]
 [  1.49220988e-01   2.21917138e-01  -2.33737394e-01   3.04259568e-01
   -2.70240813e-01  -2.87896276e-01  -6.10213280e-02   3.18207085e-01]
 [ -5.76569498e-01  -8.73030365e-01  -1.59899190e-01  -2.13626283e-03
   -1.47422835e-01  -4.58210528e-01  -1.27076074e-01   1.15525924e-01]
 [ -5.59177577e-01  -2.60759443e-01   1.62189052e-01   1.35269955e-01
    3.69620360e-02  -2.26515025e-01   1.09554648e-01  -6.90521374e-02]
 [ -9.21667460e-03   1.21961117e-01   7.00108588e-01   2.87875444e-01
   -1.96728125e-01   2.42165592e-03   4.77644354e-01   9.60456878e-02]
 [ -9.47667509e-02  -2.60507166e-01   3.59120071e-01   3.57393995e-02
   -3.89090598e-01   4.11777556e-01  -5.74535489e-01  -8.86658430e-02]
 [  5.93030930e-01   4.01419848e-01  -2.27504876e-02   6.12699807e-01
   -9.11235154e-01   4.46991622e-01  -8.43192786e-02   3.27093095e-01]
 [  6.19439930e-02   6.28480673e-01   3.21956992e-01   6.69978440e-01
   -6.27925515e-01   5.46772070e-02  -8.34631771e-02   1.06414783e+00]]