Alice
[[  1.56944573e-01  -1.60049409e-01  -3.39369290e-02  -5.37272124e-03
    1.54112130e-01   1.44308895e-01   1.23665787e-01  -1.22032623e-04]
 [  2.88091362e-01  -1.66839227e-01  -6.06345572e-02  -6.73297644e-01
    1.52782485e-01   2.41034795e-02  -3.08007210e-01  -1.78930452e-04]
 [  4.21613067e-01  -9.44236591e-02   2.16135290e-04   5.60725457e-04
    7.29643181e-02   5.39273359e-02   1.99253991e-01   3.47569608e-03]
 [ -3.95729244e-02  -1.89705223e-01  -7.60112405e-02  -2.91924886e-02
    3.05299252e-01   2.90217936e-01   1.33966124e-02  -5.94657358e-05]
 [  2.73996294e-01  -1.31764457e-01  -6.62908284e-03  -4.55889414e-04
    6.52697310e-02   5.51719442e-02  -1.35718957e-01   1.72239539e-04]
 [  4.54818010e-02   1.03282988e+00  -1.33668218e-04  -5.70662494e-04
   -2.37137661e-03  -1.37129123e-03  -8.06001306e-01   6.03988301e-05]
 [  1.89674228e-01  -6.61373287e-02  -4.90869163e-03  -6.81229285e-04
    3.97283584e-02   3.45199592e-02  -8.06959093e-01   1.35107213e-04]
 [  1.22536801e-01  -1.70827329e-01   1.04834864e-04   1.51333792e-04
    2.65201051e-02   1.97198540e-02  -1.07572412e+00   2.04374192e-05]
 [  3.75767850e-05  -1.25147062e-06  -3.16415208e-05  -2.82487017e-05
   -3.14470963e-05   3.63956460e-05  -6.72735951e-06  -2.12004197e-05]
 [  4.53196080e-05   1.41345708e-05  -1.35148548e-05  -3.27053203e-05
   -1.96488181e-05   8.51344339e-06  -6.47053275e-06  -2.03422915e-05]
 [  3.31095434e-05   3.05851208e-05  -1.48941490e-05  -3.43151167e-02
    3.64847183e-02   7.21033569e-03   4.58709110e-07   9.96362984e-01]
 [  2.51567399e-05   1.16688771e-05  -2.57439660e-05  -2.81196972e-05
   -2.57604934e-05   4.47257626e-05   1.94801032e-07  -1.38454934e-05]
 [  1.93012165e-05   9.52611845e-06  -4.74890658e-05   2.65060062e-05
    1.15905059e-05   2.84353191e-05  -3.22013329e-06  -3.93903829e-05]
 [  2.76061182e-05   8.06780281e-06  -2.90635835e-05  -5.57565727e-05
   -4.00780027e-06   3.25726942e-05  -1.84582950e-05  -3.63768504e-06]
 [  2.63901675e-05   1.40876500e-06  -3.23055428e-05   8.55720600e-07
   -1.89606590e-06   3.12801058e-06   1.68319748e-05   7.79004586e-06]
 [  2.87654111e-05   1.24083153e-05  -3.05098729e-05  -5.54463841e-05
   -1.46288812e-05   2.37045315e-05   2.69758548e-05  -2.12359882e-05]
 [  3.21599692e-01  -7.53678977e-02  -5.26735261e-02  -7.98338711e-01
   -2.01466382e-01  -3.59682113e-01  -6.46699965e-02  -3.61472845e-01]
 [  4.43523288e-01  -2.10377172e-01   2.14797817e-02   3.26460302e-02
   -5.80238402e-02  -7.17694988e-04  -1.32144257e-01  -1.12876267e-04]
 [  1.45306125e-01  -5.00225663e-01   1.16286986e-02  -3.11501566e-02
   -2.11690173e-01  -1.67101924e-03  -1.68079495e-01   7.77763315e-04]
 [  6.87954128e-02  -2.75090247e-01  -3.48243862e-02  -3.76435975e-03
   -9.42208245e-02  -2.82503758e-03  -5.19693717e-02   1.29339742e-02]
 [  2.20777437e-01   8.57400224e-02   3.24039429e-01  -2.49909639e-01
   -1.39832169e-01  -6.71106160e-01   1.36351049e-01  -1.08995393e-01]
 [  6.30834281e-01  -3.14844884e-02   1.87135592e-01   1.05533481e+00
   -5.16775310e-01  -3.00096929e-01   2.78658867e-02   3.85465443e-01]
 [  1.20412581e-01   1.18529052e-01   2.22728789e-01  -1.13003480e+00
   -3.38000834e-01   9.07010362e-02   5.55844903e-02   7.09137693e-02]
 [  2.61469305e-01   2.51097262e-01  -3.24868917e-01   5.14392197e-01
   -1.18572213e-01  -4.30610627e-01   1.46561712e-01  -2.77107339e-02]]
Bob
[[ -7.85553679e-02   1.23652138e-01  -1.60043448e-01  -1.56888425e-01
    9.70333219e-02   9.76956859e-02  -2.27414463e-02  -5.63234687e-02]
 [ -3.67404521e-02  -3.08069468e-01  -1.66844994e-01  -2.88119018e-01
    4.66755889e-02  -1.09746295e-04  -2.37341791e-01  -1.90737471e-03]
 [ -4.13069539e-02   1.99238256e-01  -9.43624675e-02  -4.21572804e-01
    3.74112613e-02   2.37270724e-02  -4.99160076e-03  -2.18997523e-02]
 [ -1.52290314e-01   1.34079056e-02  -1.89678192e-01   3.96168828e-02
    1.95065618e-01   2.02602968e-01  -5.37312031e-02  -1.12664029e-01]
 [ -3.40522714e-02  -1.35824099e-01  -1.31732225e-01  -2.74041861e-01
    3.50686237e-02   3.25870961e-02  -8.69964901e-03  -2.18625329e-02]
 [  1.90216827e-03  -8.06039929e-01   1.03287780e+00  -4.55238968e-02
   -2.02442589e-03  -4.67913669e-05  -8.84321576e-04   5.20647562e-04]
 [ -2.01622490e-02  -8.07050169e-01  -6.61052912e-02  -1.89762697e-01
    2.10840795e-02   2.15382501e-02  -6.22480130e-03  -1.35851838e-02]
 [ -1.49243893e-02  -1.07576621e+00  -1.70809045e-01  -1.22540683e-01
    1.31668560e-02   8.86552595e-03  -2.15495564e-03  -7.98151828e-03]
 [  6.09515246e-06  -1.79253966e-05   1.46521261e-05  -4.58180293e-05
    1.62952638e-04   8.01500482e-06   1.12139815e-05  -4.27262057e-05]
 [ -2.85331480e-05   7.39538154e-06   2.72122488e-05  -4.59156108e-05
    1.41532262e-04   1.80299230e-05   1.64968478e-05  -1.19887800e-05]
 [ -1.57683862e-05  -9.48479646e-06   1.08319527e-05  -3.60183767e-05
    1.58296971e-04   2.81268130e-05   1.32885061e-05  -4.13807065e-05]
 [ -3.68810515e-06  -7.27817678e-06   1.69114755e-05  -4.43271565e-05
    1.48304112e-04  -4.43889621e-06   2.58916916e-05  -1.94025943e-05]
 [  3.94025164e-06  -5.48239586e-06   3.22983942e-05  -1.68290862e-05
    1.22079873e-04  -1.30756744e-05   3.33134485e-05  -2.81347020e-05]
 [  1.00893012e-05  -1.35081791e-07   1.24042417e-05  -5.05198441e-05
    1.54218535e-04  -1.48229874e-05   2.73737824e-05  -2.93754201e-05]
 [ -1.14514096e-05   1.12257494e-05  -3.05555523e-06  -4.85780947e-05
    1.55607719e-04   2.45383053e-05  -3.51704762e-06  -2.94824567e-05]
 [  2.55273135e-05  -2.06857167e-05   2.80020504e-05  -2.13567364e-05
    1.57836126e-04   5.86297438e-06   1.23205227e-05  -3.92777438e-05]
 [  9.40959901e-02  -5.22043146e-02  -2.75093138e-01  -6.87870309e-02
    3.74639034e-03  -3.81423812e-03  -1.26647204e-02   3.49318609e-02]
 [  2.11756989e-01  -1.68060824e-01  -5.00235915e-01  -1.45357326e-01
    1.57858385e-03  -3.11576221e-02  -5.83626796e-04  -1.16044069e-02]
 [  8.33069921e-01   1.19983301e-01   2.78616101e-02  -5.05655229e-01
   -1.03985414e-01   4.79264230e-01  -5.35733163e-01   6.03578806e-01]
 [ -1.29649907e-01   3.11769499e-03   3.95511389e-02   2.56302841e-02
   -2.83671580e-02  -1.46388054e+00   3.92042279e-01  -5.88321537e-02]
 [  1.30029529e-01   4.26506177e-02  -7.45867658e-03  -1.53465047e-01
   -4.92105260e-02  -7.47717246e-02   6.10092422e-03  -4.83880304e-02]
 [ -2.00489506e-01   6.73523620e-02   1.12110652e-01  -5.90093911e-01
   -5.90452373e-01  -5.57813942e-01   2.71332860e-01   3.13131511e-01]
 [  5.80255762e-02  -1.32136911e-01  -2.10398003e-01  -4.43532020e-01
    6.71891903e-04   3.27285230e-02   1.13388218e-04  -2.14534830e-02]
 [ -3.54379565e-02  -2.13717180e-03  -1.87871873e-03   8.94427579e-03
    1.15864554e-04   2.28755586e-02  -1.01598465e+00   1.54885964e-03]]
Eve
[[  5.39782882e-01  -6.60022795e-01  -1.00541452e-03   6.06945455e-02
    9.89271328e-02  -4.76629380e-03  -4.76397425e-01   9.71360411e-03]
 [  2.19687521e-01  -2.89800644e-01   4.38555777e-02  -1.60104692e+00
    1.19047128e-01   3.07926331e-02   4.99460697e-01   4.12727863e-01]
 [ -1.13430130e+00  -3.68105561e-01   1.95049979e-02   8.15083925e-03
    7.40365833e-02  -9.37451236e-03  -8.41020882e-01   7.54689006e-03]
 [  1.86765170e+00  -9.57214653e-01  -1.08627779e-02   8.43036845e-02
    1.69954941e-01  -3.82807641e-03  -5.52787371e-02   3.74653712e-02]
 [ -3.27895075e-01  -4.43892390e-01   1.05004739e-02   1.58516057e-02
    5.12457527e-02   2.92140828e-03   2.93152153e-01   4.82922979e-03]
 [  1.15070009e+00   2.77844095e+00  -1.17868523e-03  -1.30036687e-02
   -7.66199501e-03   3.84140154e-03   2.52685022e+00  -2.77677411e-03]
 [ -3.70194435e-01  -2.74647236e-01   5.04016457e-03   7.36499531e-03
    2.41772849e-02   4.73571755e-03   2.44084358e+00   2.76774692e-04]
 [  4.31689978e-01  -4.78101492e-01   7.01868208e-03  -4.37698327e-03
    2.07351875e-02  -1.88478013e-03   3.31227088e+00   6.19221304e-04]
 [  5.71027637e-01  -6.73144460e-02  -1.24551490e-01  -1.31307391e-03
   -7.63105974e-02   1.44114615e-02   7.34244645e-01   5.79599664e-02]
 [  1.27807403e+00  -8.76090527e-01   2.42591992e-01  -2.25248337e-01
   -6.28015637e-01  -1.66809440e-01   1.19532265e-01  -3.48281443e-01]
 [ -1.11644661e+00   4.95817751e-01  -7.15073228e-01   1.47035670e+00
   -6.59504533e-01   1.12025641e-01   4.00633663e-01   5.01132965e-01]
 [ -3.67094964e-01  -1.81123167e-01  -6.31831661e-02  -1.71237147e+00
    1.00073284e-02  -1.40833613e-02   4.14041072e-01  -3.77407283e-01]
 [ -6.82620227e-01   3.48593593e-01  -8.81912652e-03  -3.98646712e-01
    2.90817678e-01   2.36903131e-02  -1.96066737e-01  -7.91567087e-01]
 [ -1.42521787e+00   4.86486077e-01  -1.21238828e-01  -3.23891073e-01
    2.27766901e-01  -7.02264234e-02  -9.27120447e-02   3.02154124e-01]
 [ -3.07660550e-01  -4.15739179e-01   1.88150123e-01   5.64120524e-02
    2.22965647e-02   1.17846027e-01   2.59417802e-01  -3.94518934e-02]
 [  8.41984153e-02  -5.50776087e-02   2.94130226e-03  -4.42080051e-02
    9.17137861e-02   2.17229445e-02   1.52067561e-02  -3.08697033e+00]
 [ -1.74064112e+00  -3.20409626e-01   1.58539698e-01  -6.24340415e-01
    6.36687636e-01   3.52064595e-02   1.30302906e-01   6.17287457e-01]
 [ -7.95257390e-01  -1.33156240e-01  -1.31952554e-01   6.88782614e-03
   -1.79112613e-01  -1.19853504e-01   1.11955777e-01   3.32216881e-02]
 [  1.51643908e+00  -9.28240359e-01  -2.16003284e-01   1.17416024e-01
    9.81179103e-02   1.62401736e-01   2.69249767e-01   3.34755480e-01]
 [  1.13595523e-01  -3.96663547e-01   4.24441397e-02  -3.74952182e-02
   -1.55725867e-01  -2.26850174e-02  -5.85846491e-02  -4.92865816e-02]
 [ -1.41178679e+00   3.40109766e-01   2.21796468e-01   1.98979303e-01
    9.68602002e-02   2.21334755e-01  -3.76460671e-01   4.31469470e-01]
 [ -1.27703154e+00   7.79109418e-01  -1.00626491e-01   1.24609780e+00
   -5.60175419e-01  -6.27249330e-02   4.37400967e-01  -4.46672142e-02]
 [ -4.77124274e-01  -1.34191439e-01   1.60018787e-01  -2.84060687e-01
   -1.25212416e-01  -1.89964056e-01  -2.69428547e-02  -1.19807385e-01]
 [ -5.78290105e-01  -1.88162580e-01   1.28536180e-01   6.92324340e-01
   -2.83690512e-01  -2.00468823e-01  -6.96584731e-02   3.49092573e-01]]