Alice
[[  7.52058029e-01   1.19171040e-02  -1.70226395e-01   1.62401035e-01
   -2.96853244e-01   1.10831251e-02  -2.49756239e-02   7.06410527e-01]
 [ -2.32962221e-01   1.26956282e-02   4.22971517e-01   6.72116061e-04
   -9.33987200e-02  -9.02696140e-03   8.52890220e-03   4.15181637e-01]
 [ -2.34723449e-01   8.95240810e-04   1.76281118e+00   9.31811556e-02
   -7.92262033e-02  -1.33628380e-02   8.84268526e-03   6.25552475e-01]
 [ -1.00331493e-01   5.74100502e-02  -1.69546533e+00   3.01220745e-01
   -1.61787078e-01  -8.65260437e-02   4.75204438e-02   3.43768001e-01]
 [ -2.91768089e-02  -7.10734069e-01  -1.19812362e-01   2.90182859e-01
   -9.52689126e-02  -1.13834786e+00   1.46404272e-02   5.25755167e-01]
 [ -1.62018389e-02   1.77221354e-02  -3.58312190e-01   1.97850376e-01
   -7.86860362e-02  -1.62052028e-02   1.62589327e-02   8.05447817e-01]
 [ -1.73920780e-01   1.31803155e-01  -1.67077705e-01   1.97237208e-01
   -8.54098424e-02  -3.60734731e-01   7.17088729e-02   7.63686597e-01]
 [ -2.45468747e-02   2.69669387e-02  -7.50584602e-01   3.45443815e-01
   -8.72155130e-02  -2.82034241e-02   2.92533375e-02   4.36906785e-01]
 [ -4.22172627e-04   5.86010341e-04   2.56979460e-04   3.97101830e-04
   -2.74898804e-04   4.24952304e-04   5.82244131e-04  -3.86768137e-04]
 [ -5.47756790e-04   6.85359584e-04   3.47272755e-04   5.25784097e-04
   -2.66556308e-04   5.45198680e-04   7.63103017e-04  -4.35279682e-04]
 [ -3.98714241e-04   6.05401932e-04   3.95369774e-04   5.21634589e-04
   -2.82377732e-04   5.46976866e-04   3.89691791e-04  -3.48981033e-04]
 [ -4.42398305e-04   8.04060488e-04   4.50403692e-04   6.18887541e-04
   -1.33005378e-04   7.27879524e-04   6.11646159e-04  -2.78571009e-04]
 [ -5.33710700e-04   9.71081434e-04   2.90656608e-04   6.21383602e-04
   -2.35922780e-04   6.06241811e-04   5.23887982e-04  -2.39513029e-04]
 [ -6.26914203e-04   5.93198696e-04   3.10373551e-04   5.59899316e-04
   -2.15508000e-04   6.16644858e-04   6.72013441e-04  -2.30005200e-04]
 [ -2.79184664e-04   6.82958867e-04   5.99887571e-04   5.55392064e-04
   -2.52905360e-04   5.93606208e-04   6.14156714e-04  -4.00205841e-04]
 [ -5.15039952e-04   7.88436912e-04   3.36313737e-04   1.11806521e-03
   -5.31403814e-04   8.01983289e-04   3.89207242e-04  -4.05231374e-04]
 [ -1.31707966e+00   1.28333017e-01   1.15048684e-01  -2.13174522e-01
   -5.35334527e-01  -8.83868933e-01  -1.31558990e+00   3.48936439e-01]
 [ -1.22738445e+00   3.22647810e-01   7.50700459e-02   1.08858609e+00
   -6.45374656e-01  -6.66448653e-01  -4.82962816e-04   8.79157722e-01]
 [ -1.24955034e+00  -2.13252544e+00   2.20901761e-02   6.98696375e-01
   -5.12748897e-01  -1.13160157e+00   4.47079241e-02  -8.27987567e-02]
 [ -1.21502483e+00   2.09978774e-01  -1.14821911e+00   9.04569626e-01
   -5.93561471e-01  -9.59201455e-01  -5.82290394e-03   6.06768765e-03]
 [ -1.02347875e+00   6.85441852e-01  -4.34139818e-02   9.40725923e-01
   -7.05740273e-01  -3.49079929e-02  -1.84194967e-02  -6.67386875e-02]
 [ -3.65009764e-03  -2.13719815e-01   9.78058204e-02   7.85664618e-01
   -2.39240575e+00  -1.06249571e+00   1.53531469e-02   2.92506479e-02]
 [ -2.14189172e+00   2.87240803e-01  -7.92315975e-02   2.95869082e-01
   -5.77157736e-01  -6.82674944e-01   1.04594417e-03  -8.48977715e-02]
 [ -1.55084276e+00   2.67103404e-01   3.63836139e-02   9.57381546e-01
   -6.45758629e-01  -1.63180995e+00   4.16942080e-03   1.05997071e-01]]
Bob
[[  9.43039265e-03   7.06259012e-01  -3.93828331e-03  -1.70552358e-01
   -1.61424890e-01  -2.77220458e-01   7.21278012e-01  -8.79729353e-03]
 [ -5.12310443e-03   4.15429056e-01  -2.80899811e-04   4.23498690e-01
   -1.86430546e-03  -9.19932425e-02  -2.22240329e-01   1.31913731e-02]
 [ -4.00768267e-03   6.25935256e-01  -2.40844581e-03   1.76186037e+00
   -9.14261788e-02  -7.93133005e-02  -2.23718673e-01   1.32464729e-02]
 [ -3.62544134e-02   3.43677104e-01   1.21151432e-02  -1.69471169e+00
   -2.96148568e-01  -1.54169947e-01  -9.52492505e-02   1.03435338e-01]
 [ -3.16229574e-02   5.25350392e-01   3.73346746e-01  -1.19850941e-01
   -2.90799618e-01  -8.79488736e-02  -3.00370231e-02   1.19522905e+00]
 [ -1.14918556e-02   8.05388272e-01   3.73693509e-03  -3.58748674e-01
   -1.94912940e-01  -7.47004896e-02  -1.53593002e-02   2.11578477e-02]
 [ -4.62688208e-02   7.63367653e-01   3.53624932e-02  -1.67070583e-01
   -1.91095635e-01  -7.87273124e-02  -1.66033208e-01   3.97359669e-01]
 [ -1.99275594e-02   4.36757445e-01   7.12163886e-03  -7.50765502e-01
   -3.38420987e-01  -8.29986036e-02  -2.32283752e-02   3.57456207e-02]
 [  9.26718873e-04  -3.81711783e-04   5.85270987e-04   4.85157711e-04
   -2.69730017e-03  -7.43690005e-04  -4.18200623e-04  -6.90576853e-04]
 [  1.22474635e-03  -3.61961109e-04   5.14236337e-04   2.83809903e-04
   -2.85374722e-03  -9.87614272e-04  -1.45293947e-04  -4.79993323e-04]
 [  8.18182714e-04  -3.77229764e-04   5.07710269e-04   4.43830970e-04
   -2.88112694e-03  -7.84105563e-04  -2.71882454e-04  -5.82308450e-04]
 [  1.03547319e-03  -4.82463045e-04   4.97304776e-04   3.56289122e-04
   -2.77493848e-03  -7.95751810e-04  -3.64768755e-04  -5.97144477e-04]
 [  1.16670353e-03  -4.14076057e-04   5.42730035e-04   3.24532331e-04
   -3.04676779e-03  -8.95402161e-04  -3.52320552e-04  -5.26613905e-04]
 [  9.51115566e-04  -3.36971163e-04   5.07662888e-04   4.70285799e-04
   -2.79600685e-03  -6.21343905e-04  -2.78242427e-04  -7.44796183e-04]
 [  1.15039886e-03  -1.80987889e-04   4.44972218e-04   5.46765572e-04
   -2.69487663e-03  -6.40686543e-04  -2.64393399e-04  -6.02040964e-04]
 [  9.18586506e-04  -5.33303712e-04   4.54016495e-04   3.86056374e-04
   -2.68360437e-03  -7.83514639e-04  -3.14258039e-04  -6.05754496e-04]
 [  2.36021820e-03  -8.13369378e-02   2.69719571e-01  -7.65606388e-02
   -2.81052440e-01  -5.51204562e-01  -2.04223442e+00   6.48388743e-01]
 [  2.68634316e-02  -1.35613188e-01   2.39107385e-01   1.28537510e-02
   -3.05664480e-01  -3.06118071e-01  -7.59596825e-01   3.58741701e-01]
 [ -4.89823380e-03   4.43700468e-03   2.07269371e-01  -1.14883888e+00
   -9.12008047e-01  -5.94231069e-01  -1.21716607e+00   9.56459761e-01]
 [ -1.92939769e-02  -5.43764085e-02   6.28680587e-01  -4.23836708e-02
   -9.04741108e-01  -6.86656415e-01  -9.41333950e-01   5.21407798e-02]
 [  9.46564786e-03   3.01566552e-02  -6.88018203e-02   9.28661153e-02
   -7.67845511e-01  -2.34174442e+00  -3.70749757e-02   9.96005893e-01]
 [ -4.08695871e-03   1.64914101e-01   2.10011452e-01   3.52099761e-02
   -9.45535660e-01  -5.96636355e-01  -1.43968976e+00   1.66259730e+00]
 [  8.11967373e-01   1.92029551e-01   3.01733673e-01   8.64317268e-02
   -2.43312746e-01  -5.32037795e-01  -1.59887373e+00   5.84247947e-01]
 [  5.12081897e-04   8.78846705e-01   3.20133239e-01   7.44862705e-02
   -1.08827567e+00  -6.46972239e-01  -1.22727013e+00   6.65623486e-01]]
Eve
[[ 0.42026356  0.32107669  0.37853906 -1.12957966 -2.22293782 -0.7400524
  -0.38021484  0.83400577]
 [-1.36951447  0.10521817 -1.05284226  0.60416502 -0.35515505 -0.45068416
  -0.10704882  0.38610741]
 [-1.2831825   0.26467159 -3.58901596  0.59704417 -0.14740297 -0.84177649
   1.52763999  1.38156521]
 [-1.07806671  0.62133026  3.68896341 -1.40749514 -0.58591187 -0.92426217
  -0.01647326  0.64574182]
 [-0.98906821 -2.83963466 -0.12568916 -0.74225777 -0.16975601 -2.98039794
   1.1488657   1.48198724]
 [-0.93243164  0.35345823  0.96969414 -0.52020699 -0.3871696  -0.5353964
   0.01629965  1.02969968]
 [-1.58678949  0.65663069  0.38333154 -0.64581382 -0.3792153  -1.77142894
   1.37312472  1.26952314]
 [-1.21989214  0.57278675  1.7383703  -1.24057233 -0.50301486 -0.71715695
  -0.09632932  0.54619914]
 [-2.67995596  0.27497268  0.19023868 -0.41162127 -0.48466849 -0.95764393
  -0.16748951  0.58343184]
 [-1.81895494 -0.59423095  0.39790428 -2.07705665 -0.08594104 -1.82947981
   1.62913704 -0.40867493]
 [-1.93901527  0.33526689  1.43674386 -1.86004829 -0.59767771 -1.26757705
  -0.31161499  0.2674706 ]
 [-0.20833883  0.0471653   0.52332389  0.10309456 -1.08123827 -0.01709374
   0.20537458  0.10869134]
 [ 0.36839366 -0.37712482 -0.0052391  -1.00422168 -2.11146212 -0.31274486
   0.45739371  0.950701  ]
 [-1.71853995 -0.86981851  0.15941925 -1.1613915  -0.7759282  -2.67350984
   1.74805248  1.76376677]
 [-2.11625099 -0.61353731 -1.52111626  0.69327056 -1.17415094 -0.8346585
   1.78422201  1.45978069]
 [-1.55659807  0.26954105  0.0437951  -1.65099669 -0.83985174 -0.69091898
  -0.1635215   2.51842976]
 [-2.29219151 -0.09378231 -1.27357244  0.65117657 -0.54807651 -0.65811598
   1.37881052  1.09629536]
 [-1.73329401  0.71368563 -0.21095914 -1.71874487 -0.58028275 -1.36214781
  -0.06837885  2.19498062]
 [-0.79180884 -2.82280302 -0.15682913  0.19511567 -0.82871985 -2.630193
   0.69931763  1.08217454]
 [-1.54874504  0.36738533  1.26344454 -1.78710222 -0.62229127 -1.37790608
  -0.09453184  0.21278869]
 [-0.61152667  0.53561872  0.61246598  0.49589324 -0.78553891  0.67642504
   0.62825286 -0.0190315 ]
 [ 1.16198361 -0.14328782 -0.0579792  -0.71702582 -2.08109832 -0.8806352
   0.23614131  0.92823023]
 [-2.93954134  0.76117527 -0.22280851 -0.26181197 -0.75078154 -1.33381712
  -0.14801599  0.42019862]
 [-2.10569525  0.78585136 -0.25798917 -1.80473483 -0.852934   -1.54955745
   1.9578948   1.07986224]]