Alice
[[ -1.16360404e-01   6.45785257e-02  -2.98534520e-02  -1.16830310e-02
    6.59462735e-02  -2.40211025e-01   5.69189973e-02  -3.12950835e-02
    1.27327785e-01   1.03701465e-01  -5.90123981e-02   3.00754517e-01
   -4.15104851e-02  -6.24360666e-02   1.83509253e-02   3.62328328e-02]
 [ -1.16691969e-01   6.39506727e-02  -3.36988904e-02  -1.59869436e-02
    6.83241710e-02  -2.41170526e-01   5.68914674e-02  -3.06741819e-02
    1.27132848e-01   1.03964090e-01  -5.60918115e-02   3.01132083e-01
   -3.92306335e-02  -6.15959838e-02   1.77955143e-02   3.35184187e-02]
 [ -1.16387136e-01   6.28329590e-02  -2.84473319e-02  -1.20673263e-02
    6.45572320e-02  -2.40419552e-01   5.73917739e-02  -3.10634542e-02
    1.27151415e-01   1.03430286e-01  -6.00084327e-02   3.00181746e-01
   -4.32841219e-02  -6.27040118e-02   1.86340250e-02   3.59530002e-02]
 [ -1.16721898e-01   6.65274337e-02  -3.75334881e-02  -1.51735973e-02
    6.30532429e-02  -2.41183728e-01   5.53777963e-02  -3.14958058e-02
    1.27270684e-01   1.03820592e-01  -5.79812564e-02   3.00540805e-01
   -3.85294817e-02  -6.00405484e-02   1.76631771e-02   3.49848866e-02]
 [ -1.16607606e-01   6.34815395e-02  -2.50945352e-02  -7.93559849e-03
    7.09143654e-02  -2.41252989e-01   6.00011311e-02  -3.10393628e-02
    1.27225310e-01   1.03366472e-01  -5.96135817e-02   2.99772054e-01
   -4.44180928e-02  -6.30106628e-02   1.38246464e-02   3.70865352e-02]
 [ -1.16340138e-01   6.68022409e-02  -3.62344421e-02  -1.40713090e-02
    6.14736602e-02  -2.40344942e-01   5.64251691e-02  -3.16833965e-02
    1.27205417e-01   1.03429466e-01  -5.87022416e-02   2.99999595e-01
   -4.07027528e-02  -6.06092960e-02   1.58218481e-02   3.54313701e-02]
 [ -1.16515607e-01   6.38412982e-02  -2.70166583e-02  -9.86559968e-03
    6.29847199e-02  -2.40380377e-01   5.85282296e-02  -3.09964791e-02
    1.27154037e-01   1.03187256e-01  -6.31998703e-02   2.99897462e-01
   -4.64589559e-02  -6.17365874e-02   1.56285260e-02   3.73081379e-02]
 [ -1.17027469e-01   6.73713014e-02  -3.39845642e-02  -9.55005921e-03
    6.01105914e-02  -2.41896972e-01   5.79318553e-02  -3.19225714e-02
    1.27149880e-01   1.02932855e-01  -6.41798973e-02   2.98700124e-01
   -4.49492820e-02  -5.81012629e-02   1.09491926e-02   3.78832966e-02]
 [ -1.16317116e-01   6.90215752e-02  -3.09927035e-02  -7.46520143e-03
    7.61239007e-02  -2.40257487e-01   5.92512339e-02  -3.10905371e-02
    1.27225339e-01   1.03973366e-01  -5.43366969e-02   3.00982654e-01
   -3.82959917e-02  -6.27128109e-02   1.09787155e-02   3.71433012e-02]
 [ -1.16521023e-01   6.77290931e-02  -3.75423431e-02  -1.38801504e-02
    6.54123425e-02  -2.40991384e-01   5.66424876e-02  -3.13260965e-02
    1.27233058e-01   1.03715524e-01  -5.79071045e-02   3.00554067e-01
   -3.92592922e-02  -5.92715740e-02   1.35241626e-02   3.51383723e-02]
 [ -1.17044464e-01   6.82582781e-02  -3.42860967e-02  -8.68642982e-03
    5.91193661e-02  -2.42074534e-01   5.71402796e-02  -3.14809121e-02
    1.27279386e-01   1.03125468e-01  -6.69915900e-02   2.99448222e-01
   -4.55388874e-02  -5.60888834e-02   1.04392031e-02   3.89327332e-02]
 [ -1.17060170e-01   6.86722100e-02  -3.53195965e-02  -1.01419231e-02
    6.23928681e-02  -2.42382228e-01   5.83277903e-02  -3.10854726e-02
    1.27135679e-01   1.03221722e-01  -6.40443638e-02   2.99814343e-01
   -4.44423445e-02  -5.70999421e-02   8.78851302e-03   3.75290625e-02]
 [ -1.16693757e-01   7.18562305e-02  -3.39599326e-02  -5.21200383e-03
    6.74299374e-02  -2.40831375e-01   5.96729219e-02  -3.17982361e-02
    1.27305076e-01   1.03130542e-01  -6.09009340e-02   2.99502552e-01
   -4.29375768e-02  -5.87658249e-02   5.00177545e-03   3.93913612e-02]
 [ -1.17149502e-01   6.99356794e-02  -2.66912878e-02  -1.15816583e-04
    6.99219629e-02  -2.42473751e-01   6.19100370e-02  -3.10458355e-02
    1.27189979e-01   1.02898739e-01  -6.55848086e-02   2.99106419e-01
   -4.76369411e-02  -5.85252643e-02   2.63278675e-03   4.15856801e-02]
 [ -1.16618402e-01   6.55640140e-02  -2.24003680e-02  -2.51316326e-03
    7.34161139e-02  -2.40955353e-01   6.14907779e-02  -3.13257501e-02
    1.27154335e-01   1.03060052e-01  -6.01403117e-02   2.99090892e-01
   -4.54599001e-02  -6.36489168e-02   1.03676002e-02   3.95361111e-02]
 [ -9.23006982e-02  -1.79227944e-02  -1.30524747e-02   2.23895442e-02
    1.60485208e-02  -1.31907716e-01   1.90929156e-02   1.05362642e+00
    1.24564774e-01   7.25780129e-02   1.29168881e-02   2.51410335e-01
   -1.87296625e-02  -2.08006203e-02   6.77985093e-03   1.10769272e-02]
 [ -4.19592223e-04  -7.68143078e-03   5.26229246e-03  -3.93635500e-03
   -2.12378297e-02  -2.10400904e-04  -6.77108625e-03  -4.88062360e-05
    1.18882897e-04  -4.60491312e-04  -1.38570052e-02   3.52275711e-05
   -6.56950800e-03   1.26178400e-03   1.91464238e-02   1.85777037e-03]
 [ -4.27198334e-04  -7.71231297e-03   5.31792175e-03  -3.96342250e-03
   -2.13852786e-02  -2.76602135e-04  -6.83522038e-03  -1.09354696e-04
    3.82650251e-05  -4.78353264e-04  -1.40356328e-02   8.86182606e-05
   -6.61740219e-03   1.27263309e-03   1.92781426e-02   1.88241596e-03]
 [ -3.95849784e-04  -7.84443226e-03   5.35596581e-03  -3.98196513e-03
   -2.16875914e-02  -2.19734458e-04  -6.91377092e-03   4.80191738e-05
    1.71875770e-04  -5.03251737e-04  -1.42092062e-02   3.96605246e-05
   -6.75520021e-03   1.28357194e-03   1.95715427e-02   1.88412901e-03]
 [ -3.20124091e-04  -7.77335186e-03   5.30424342e-03  -3.95020097e-03
   -2.14253999e-02  -2.72438861e-04  -6.85866410e-03   1.48078514e-04
    3.53087125e-05  -4.72297950e-04  -1.40309315e-02  -9.40876816e-06
   -6.64672023e-03   1.28696067e-03   1.93121023e-02   1.90040644e-03]
 [ -4.59241710e-04  -7.79889431e-03   5.37126139e-03  -3.95639334e-03
   -2.15956215e-02  -2.71137222e-04  -6.89528650e-03   1.07355474e-04
    1.18227283e-04  -4.74713132e-04  -1.40932817e-02   5.41473237e-05
   -6.67633768e-03   1.29690696e-03   1.94145553e-02   1.85722276e-03]
 [ -3.50680406e-04  -7.82260206e-03   5.35520585e-03  -3.89453094e-03
   -2.15158835e-02  -2.88264506e-04  -6.88227033e-03   4.76873247e-05
    1.26055718e-04  -5.45165502e-04  -1.39965639e-02   6.18700869e-05
   -6.63735485e-03   1.27968402e-03   1.93276387e-02   1.87989906e-03]
 [ -4.08252294e-04  -7.58410431e-03   5.20264404e-03  -3.88955721e-03
   -2.09849048e-02  -3.67907342e-04  -6.70211110e-03   2.41559137e-05
    7.19258605e-06  -4.81851661e-04  -1.36635927e-02   7.21368051e-05
   -6.51584473e-03   1.24112552e-03   1.89514589e-02   1.82011665e-03]
 [ -4.50237596e-04  -7.64503563e-03   5.24957664e-03  -3.88494995e-03
   -2.12095771e-02  -2.11862280e-04  -6.78190542e-03   4.74761619e-05
    8.09449848e-05  -4.78186848e-04  -1.38817858e-02   4.16113871e-05
   -6.61168294e-03   1.28455029e-03   1.91212147e-02   1.82938238e-03]
 [ -3.42186278e-04  -7.82800093e-03   5.33294119e-03  -4.05775523e-03
   -2.16951128e-02  -2.26405638e-04  -6.88967668e-03   5.45197463e-06
    6.78771103e-05  -5.08398691e-04  -1.42189404e-02   1.43910365e-04
   -6.71505881e-03   1.23889337e-03   1.95839498e-02   1.94486696e-03]
 [ -3.83603328e-04  -7.81199895e-03   5.36704715e-03  -3.98592278e-03
   -2.16324311e-02  -2.57006672e-04  -6.92902692e-03  -1.61194548e-05
    2.35245789e-05  -4.36231931e-04  -1.40906470e-02   6.70432346e-05
   -6.65609166e-03   1.31790247e-03   1.94582175e-02   1.87238608e-03]
 [ -3.39627994e-04  -7.58180534e-03   5.20896632e-03  -3.88779887e-03
   -2.11094059e-02  -1.81335039e-04  -6.72052428e-03  -9.32258044e-05
    1.26077735e-04  -4.20437835e-04  -1.38991019e-02   6.10362913e-05
   -6.61606295e-03   1.21637690e-03   1.91061217e-02   1.89958001e-03]
 [ -4.02772974e-04  -7.69109093e-03   5.29572880e-03  -3.96557385e-03
   -2.13303678e-02  -2.04023469e-04  -6.79769926e-03   4.11632282e-05
    6.77866919e-05  -4.53469169e-04  -1.39930164e-02   1.02126673e-04
   -6.66674180e-03   1.26429333e-03   1.91949848e-02   1.88246649e-03]
 [ -3.60471167e-04  -7.72718433e-03   5.32548130e-03  -3.99151538e-03
   -2.14773044e-02  -2.32656923e-04  -6.83379127e-03   9.84465660e-05
    5.67439347e-05  -5.64853137e-04  -1.40585247e-02  -6.53776533e-06
   -6.71822019e-03   1.21065811e-03   1.94009542e-02   1.89858756e-03]
 [ -2.44285242e-04  -7.79052638e-03   5.39743155e-03  -3.95592488e-03
   -2.16194708e-02  -3.19271989e-04  -6.91021979e-03   9.11274910e-05
    1.13343529e-04  -4.13854432e-04  -1.41895488e-02   3.89045526e-05
   -6.73607504e-03   1.31939235e-03   1.95181184e-02   1.90556410e-03]
 [ -2.88506009e-04  -7.81454612e-03   5.37093822e-03  -3.95782944e-03
   -2.16236673e-02  -2.75421451e-04  -6.89895917e-03   1.42428325e-04
    1.76854774e-05  -5.05417353e-04  -1.41807878e-02   1.11927715e-04
   -6.63621025e-03   1.28781481e-03   1.94075704e-02   1.92053686e-03]
 [ -3.31492629e-04  -7.75922742e-03   5.32255741e-03  -3.89118213e-03
   -2.14966945e-02  -2.31840648e-04  -6.86917128e-03  -5.93586410e-05
    8.30772406e-05  -5.39132452e-04  -1.40027031e-02   9.14187985e-05
   -6.66156830e-03   1.29646703e-03   1.93031076e-02   1.83920702e-03]
 [ -8.88341367e-01   6.15144491e-01  -2.09068134e-01  -1.09587765e+00
    1.29457802e-01  -4.40536171e-01   1.92520976e-01  -1.39831588e-01
    8.17685604e-01   7.51390040e-01  -4.53879356e-01   4.36242491e-01
   -1.23824723e-01   1.90277144e-01  -5.75142466e-02   1.03440970e-01]
 [ -3.85840625e-01   5.86721122e-01  -1.21450014e-01  -5.05163670e-01
    8.24944377e-02  -8.38689208e-02  -2.23600164e-01   1.77966401e-01
    4.53959018e-01   8.74472976e-01  -3.58831733e-01   2.37109676e-01
    2.61914819e-01   4.17370945e-01  -1.39183417e-01   3.52623351e-02]
 [ -5.25402904e-01   2.73441106e-01  -8.70402992e-01  -6.65804327e-01
    1.48214877e-01  -1.59039035e-01  -1.30815566e-01   7.61874989e-02
    7.00244486e-01   9.34112370e-01  -2.63815880e-01  -8.30312148e-02
   -1.54805426e-02  -1.43403336e-01   3.76636535e-02   1.96528137e-02]
 [ -7.55411386e-01   4.34275717e-01  -3.22941989e-01  -6.00705862e-01
    1.22052751e-01   1.25110745e-02   9.58895981e-02  -8.69237557e-02
    7.40096390e-01   6.38453662e-01  -2.60574937e-01  -8.91279355e-02
   -2.11606413e-01   1.36836302e-02   8.39240551e-02   1.12081498e-01]
 [ -8.68972480e-01   6.90586329e-01  -1.27554208e-01  -4.81372327e-01
    2.00067446e-01  -4.38980013e-02  -2.33493283e-01  -1.23460121e-01
    7.66253293e-01   6.64150000e-01  -2.13866636e-01   3.28746080e-01
   -4.95290048e-02  -1.10628724e-03   9.92176160e-02  -9.63671654e-02]
 [ -3.78917992e-01   2.33257189e-01  -4.01168689e-02  -2.62767434e-01
    2.65208837e-02  -8.31176564e-02   2.59224121e-02  -7.96402171e-02
    3.21403503e-01   4.06552881e-01  -1.22590947e+00   8.24047923e-02
   -3.24070156e-02   3.20860441e-03   7.43769482e-02  -3.10111158e-02]
 [ -9.01864588e-01   5.42676747e-01  -2.50129819e-01  -6.09016478e-01
    1.43893272e-01  -3.23201753e-02   2.16221195e-02  -6.60105869e-02
    8.38996112e-01   8.40813637e-01  -3.57862622e-01   4.03328031e-01
   -1.82026476e-02   6.25665998e-03  -3.08388658e-02  -9.86807421e-03]
 [ -5.66540182e-01   7.70461738e-01  -4.21986312e-01  -7.54265785e-01
    6.00169539e-01   5.38919345e-02   2.26386413e-02  -2.80215517e-02
    6.38023078e-01   1.08437943e+00   3.47064883e-02   7.85515428e-01
    3.46318148e-02  -4.13981592e-03   3.59150730e-02  -9.23313107e-03]
 [ -7.31451392e-01   3.79942864e-01  -3.32659006e-01  -5.77105641e-01
    6.87198222e-01  -2.59947419e-01   2.60188188e-02   4.41269837e-02
    7.18019009e-01   8.17090094e-01  -6.30606115e-02  -1.50202857e-02
    8.10306072e-02   1.83831215e-01  -1.71847031e-01  -6.64032474e-02]
 [ -6.11554801e-01   5.32444060e-01  -4.08982366e-01  -4.70896661e-01
    1.88911602e-01  -3.61270845e-01  -7.02336580e-02   2.77752817e-01
    6.27849519e-01   1.21800995e+00   2.03049794e-01   1.95108891e-01
    1.39274374e-01   7.17825964e-02  -4.19236898e-01  -6.05751812e-01]
 [ -7.72852540e-01   7.69555092e-01  -6.45693064e-01  -6.41267180e-01
   -1.49444774e-01  -5.51397085e-01   3.34474072e-02  -3.87870371e-01
    7.41991103e-01   5.53446352e-01  -9.20213386e-02  -1.90735936e-01
   -3.35103691e-01  -8.98951758e-03   3.09373826e-01   6.53601997e-03]
 [ -8.48612905e-01   3.98217738e-01  -3.66821587e-01  -4.95092034e-01
    1.28376111e-01  -1.09218834e-02  -1.77047193e-01  -2.16989610e-02
    5.08728683e-01   9.39640939e-01  -5.18648587e-02  -1.85001940e-01
    3.09972644e-01   2.52659172e-01   3.62326391e-02  -1.21210799e-01]
 [ -6.99339747e-01   5.81667542e-01  -2.26358846e-01  -5.95382154e-01
    4.03362885e-02  -2.96263456e-01  -6.79369494e-02  -2.82355577e-01
    8.55794609e-01   9.20080960e-01  -4.63900656e-01   4.42268759e-01
   -1.72194198e-01  -2.30602920e-02   7.96455145e-01  -2.09657606e-02]
 [ -6.35441184e-01   9.03341115e-01  -2.62058340e-02  -7.70043373e-01
    6.16145246e-02  -2.68726110e-01  -2.39483193e-02   2.66599566e-01
    4.28352475e-01   1.04600191e+00  -1.19842822e-02  -2.59684529e-02
    4.54391502e-02   1.50457963e-01  -2.15997711e-01  -2.00298786e-01]
 [ -7.60505319e-01   5.55721104e-01  -1.16689414e-01  -5.60253561e-01
   -4.75439103e-03  -2.40284324e-01   7.57600963e-02  -5.09807706e-01
    8.75871718e-01   7.81264424e-01  -3.95331234e-01   2.48571470e-01
   -4.29728717e-01  -2.35651173e-02   3.86129260e-01  -2.89137438e-02]
 [ -6.26633406e-01   4.82466638e-01  -1.19913042e-01  -5.73258221e-01
   -4.63256389e-02  -1.81665719e-02  -6.38103664e-01  -2.91700035e-01
    8.40043962e-01   8.28494132e-01  -6.50511086e-01   1.42964661e-01
   -3.18947077e-01  -6.63026497e-02   4.56396639e-01   4.51043248e-02]]
Bob
[[  6.25583008e-02  -5.99516369e-02  -3.60575356e-02   1.06291428e-01
   -9.23355445e-02   1.14252083e-01  -3.09958048e-02   3.01359624e-01
    6.06586039e-02  -4.44737747e-02   2.39825621e-01   4.49815206e-02
   -4.51297201e-02   5.52470535e-02   1.23559400e-01   3.87729481e-02]
 [  6.38926625e-02  -5.66732176e-02  -4.15654443e-02   1.06237926e-01
   -9.22905877e-02   1.14392586e-01  -3.04699149e-02   3.01576793e-01
    6.22512884e-02  -4.66797911e-02   2.40853593e-01   4.30870578e-02
   -4.39504497e-02   4.98153493e-02   1.23583004e-01   3.81742008e-02]
 [  6.13806546e-02  -5.96869662e-02  -3.58914249e-02   1.06418572e-01
   -9.23256800e-02   1.13638721e-01  -3.12334895e-02   3.00635099e-01
    5.96132651e-02  -4.58324179e-02   2.40024760e-01   4.63552997e-02
   -4.59095798e-02   5.29041290e-02   1.23744473e-01   3.85980234e-02]
 [  6.55388534e-02  -5.48372418e-02  -4.62872870e-02   1.06344782e-01
   -9.16228816e-02   1.14608482e-01  -3.14049646e-02   3.01074743e-01
    5.99641129e-02  -4.52148244e-02   2.40849704e-01   4.26328368e-02
   -4.31782082e-02   5.27995229e-02   1.23668872e-01   3.57014537e-02]
 [  5.73393628e-02  -6.21003769e-02  -3.05484775e-02   1.06435478e-01
   -9.28536579e-02   1.14258148e-01  -3.07279527e-02   3.00205946e-01
    5.84998317e-02  -4.66723777e-02   2.40750134e-01   4.88780104e-02
   -4.84786481e-02   5.41111305e-02   1.23545609e-01   4.06434797e-02]
 [  6.43590242e-02  -5.47586679e-02  -4.57395315e-02   1.06375173e-01
   -9.12638083e-02   1.13498338e-01  -3.19129862e-02   3.00561756e-01
    5.74570149e-02  -4.61014658e-02   2.39952356e-01   4.52409983e-02
   -4.46989313e-02   5.23808934e-02   1.23681441e-01   3.50035317e-02]
 [  5.80766052e-02  -5.80802709e-02  -3.67544144e-02   1.06460430e-01
   -9.21431407e-02   1.15249403e-01  -3.09592113e-02   3.00372124e-01
    5.55483885e-02  -4.82658558e-02   2.40013018e-01   5.04692197e-02
   -4.95842993e-02   5.22957928e-02   1.23706616e-01   3.85233499e-02]
 [  5.77190109e-02  -5.28619587e-02  -4.62206230e-02   1.06514327e-01
   -9.14007202e-02   1.15576833e-01  -3.16148512e-02   2.99232185e-01
    5.13155758e-02  -4.95816544e-02   2.41652191e-01   5.07993400e-02
   -5.00068218e-02   5.15539870e-02   1.23497576e-01   3.52651551e-02]
 [  6.21551983e-02  -6.22696057e-02  -3.24686468e-02   1.06317312e-01
   -9.27305743e-02   1.14790432e-01  -3.10789682e-02   3.01385283e-01
    6.13523088e-02  -4.24864441e-02   2.39968181e-01   4.42585237e-02
   -4.46583964e-02   5.98881729e-02   1.23487189e-01   4.00736630e-02]
 [  6.33875877e-02  -5.35122678e-02  -4.68232259e-02   1.06317490e-01
   -9.17409509e-02   1.15231067e-01  -3.12472451e-02   3.00996333e-01
    5.79251833e-02  -4.70847338e-02   2.40664586e-01   4.46809791e-02
   -4.49109897e-02   5.17417751e-02   1.23509951e-01   3.60663570e-02]
 [  5.56168705e-02  -5.08241951e-02  -4.73203324e-02   1.06543541e-01
   -9.14248005e-02   1.14914715e-01  -3.15810777e-02   2.99954951e-01
    4.97303084e-02  -5.08705974e-02   2.41739556e-01   5.15457466e-02
   -5.09815738e-02   5.17525151e-02   1.23661645e-01   3.55126224e-02]
 [  5.67323305e-02  -5.05532436e-02  -4.85103279e-02   1.06429689e-01
   -9.14039388e-02   1.16794363e-01  -3.10370103e-02   3.00298393e-01
    5.07967547e-02  -5.14782108e-02   2.42110431e-01   5.12251370e-02
   -5.10018282e-02   4.98999245e-02   1.23747125e-01   3.57567072e-02]
 [  5.73732257e-02  -5.53304404e-02  -4.16843109e-02   1.06432058e-01
   -9.14140940e-02   1.13708399e-01  -3.19324136e-02   3.00056249e-01
    5.12610599e-02  -4.74842973e-02   2.40580067e-01   5.07971607e-02
   -4.97503616e-02   5.72484992e-02   1.23526335e-01   3.62679847e-02]
 [  5.00618368e-02  -5.76536730e-02  -3.46687399e-02   1.06541291e-01
   -9.22948644e-02   1.15462564e-01  -3.09257954e-02   2.99574971e-01
    4.83985618e-02  -4.99841869e-02   2.42116556e-01   5.57609238e-02
   -5.48143014e-02   5.70760854e-02   1.23635061e-01   3.93661782e-02]
 [  5.53240068e-02  -6.53652176e-02  -2.52281632e-02   1.06381170e-01
   -9.30405483e-02   1.14699073e-01  -3.11499611e-02   2.99460679e-01
    5.67777194e-02  -4.48408797e-02   2.40497902e-01   5.08061238e-02
   -5.00399284e-02   5.93182668e-02   1.23680644e-01   4.15466838e-02]
 [ -4.08096937e-03  -8.61006230e-03   4.33990844e-02   8.01349431e-02
   -9.69336852e-02   9.25087556e-02   1.05170691e+00   2.48562127e-01
    3.03047784e-02   3.55712720e-04   1.29676551e-01   1.52862817e-02
   -3.45895030e-02   5.68760885e-03   1.37427896e-01   2.24669036e-02]
 [  7.63629517e-03  -5.11144870e-04  -8.64834990e-03   8.97276404e-05
   -5.56183700e-03   7.41344765e-02  -2.98026353e-05   1.64964556e-04
    2.25453312e-03   5.45971934e-03  -3.10404081e-04   2.82491907e-03
   -4.36028931e-03   2.36390112e-03  -2.61859503e-04   9.42504220e-03]
 [  7.67542608e-03  -4.21556644e-04  -8.69430043e-03   2.95882983e-05
   -5.61651774e-03   7.44354576e-02  -2.78992829e-05   6.59771613e-05
    2.24729930e-03   5.52584743e-03  -2.09201869e-04   2.77620112e-03
   -4.33325535e-03   2.31821858e-03  -2.61024368e-04   9.37115029e-03]
 [  7.54146930e-03  -4.51534986e-04  -8.50253552e-03  -5.85851049e-05
   -5.50099416e-03   7.30764046e-02  -8.68454808e-05   5.95527308e-05
    2.17595347e-03   5.43710915e-03  -3.59167490e-04   2.76715006e-03
   -4.28316183e-03   2.28179852e-03  -3.61105718e-04   9.24803223e-03]
 [  7.64149660e-03  -4.64324141e-04  -8.64905305e-03   3.37183083e-05
   -5.55644603e-03   7.37313181e-02   1.11947607e-04   1.61666205e-04
    2.29690177e-03   5.42890187e-03  -3.42626765e-04   2.79739709e-03
   -4.34240093e-03   2.36898218e-03  -3.81458085e-04   9.36534349e-03]
 [  7.62129482e-03  -4.31589113e-04  -8.59820377e-03  -6.48495625e-05
   -5.50298067e-03   7.35178962e-02   8.17136606e-06   1.41284199e-05
    2.29301513e-03   5.44208661e-03  -3.45466193e-04   2.76350207e-03
   -4.28459002e-03   2.31865351e-03  -3.76087381e-04   9.27487388e-03]
 [  7.65393302e-03  -5.08030818e-04  -8.62611737e-03  -4.03823688e-05
   -5.53168636e-03   7.39151388e-02   1.57691480e-04   7.84641379e-05
    2.28720019e-03   5.45118051e-03  -3.29682225e-04   2.80002761e-03
   -4.35938872e-03   2.32409989e-03  -4.18055221e-04   9.38148517e-03]
 [  7.63813080e-03  -4.90396691e-04  -8.66277330e-03   1.44260994e-04
   -5.52496826e-03   7.38911778e-02   7.20244498e-05   1.43856116e-04
    2.26020277e-03   5.46250073e-03  -3.72114388e-04   2.82488624e-03
   -4.38505784e-03   2.28982302e-03  -2.05927121e-04   9.40683577e-03]
 [  7.59090809e-03  -4.57647926e-04  -8.54556728e-03   2.98780415e-05
   -5.50640980e-03   7.36304596e-02  -7.97571702e-05  -1.08846443e-05
    2.23927200e-03   5.45928581e-03  -3.74500902e-04   2.81571178e-03
   -4.33568610e-03   2.29191151e-03  -2.37583314e-04   9.32125468e-03]
 [  7.65908835e-03  -3.75954027e-04  -8.65256134e-03  -2.40950703e-06
   -5.56406518e-03   7.42468983e-02  -1.48388470e-04   6.72185051e-05
    2.25856504e-03   5.53077459e-03  -2.71479919e-04   2.76320870e-03
   -4.29051276e-03   2.29105703e-03  -2.99022242e-04   9.36543290e-03]
 [  7.68228061e-03  -4.59012459e-04  -8.68566893e-03   4.23992169e-05
   -5.56325354e-03   7.41866529e-02   2.80648710e-05   5.38980603e-05
    2.27282615e-03   5.49370283e-03  -3.21439293e-04   2.75425916e-03
   -4.33714455e-03   2.32243235e-03  -3.10349045e-04   9.34751611e-03]
 [  7.62264617e-03  -4.64462733e-04  -8.59358255e-03   3.42135572e-05
   -5.56276413e-03   7.40673691e-02   6.80098310e-06   1.16998010e-04
    2.24808697e-03   5.48229832e-03  -2.96674989e-04   2.80805840e-03
   -4.32656938e-03   2.31034216e-03  -3.41809413e-04   9.35587939e-03]
 [  7.53892306e-03  -4.08991589e-04  -8.51385854e-03   3.62950668e-05
   -5.46086207e-03   7.29557425e-02   7.17060248e-05   5.05432981e-05
    2.22392217e-03   5.41736232e-03  -3.99327197e-04   2.72290502e-03
   -4.24192380e-03   2.28312030e-03  -2.62932270e-04   9.20338463e-03]
 [  7.57146673e-03  -4.70459927e-04  -8.53807572e-03   4.60477822e-05
   -5.47118438e-03   7.31900036e-02   9.42794504e-05   1.53032888e-05
    2.22260738e-03   5.41518070e-03  -3.37569305e-04   2.77638994e-03
   -4.21116827e-03   2.29035201e-03  -2.55158026e-04   9.23897699e-03]
 [  7.65613839e-03  -4.57136019e-04  -8.66710953e-03   2.42868809e-05
   -5.57897519e-03   7.43373334e-02  -4.29301654e-05   1.01719270e-04
    2.27286713e-03   5.46576735e-03  -3.10192117e-04   2.79081846e-03
   -4.33323486e-03   2.38509360e-03  -3.20419786e-04   9.36436467e-03]
 [  7.68328365e-03  -4.24919534e-04  -8.62810761e-03   4.33405730e-05
   -5.57898963e-03   7.41877854e-02  -1.97208392e-05   4.66927049e-05
    2.28021829e-03   5.48787648e-03  -2.69933575e-04   2.77608121e-03
   -4.33427189e-03   2.34721974e-03  -4.26551036e-04   9.35949944e-03]
 [  7.65769044e-03  -4.38285409e-04  -8.70821252e-03   8.23097944e-05
   -5.49168140e-03   7.46760070e-02  -5.40851615e-05   9.50529138e-05
    2.23220186e-03   5.58131328e-03  -3.58113204e-04   2.76894285e-03
   -4.31274576e-03   2.29812320e-03  -2.82533292e-04   9.36100911e-03]
 [  6.12350583e-01   2.51767673e-02  -1.24946564e-01   9.44109917e-01
   -7.70557761e-01  -5.32731175e-01  -2.18949288e-01   1.53212845e-01
    1.32498145e-01  -7.46309757e-03   1.84028149e-01   2.92968422e-01
   -1.50642902e-01   4.80992824e-01   1.14993095e+00  -8.75184461e-02]
 [  6.58342183e-01   1.41305208e-01  -1.05781339e-01   1.06745088e+00
   -7.09508896e-01  -2.04345509e-01   3.53527144e-02   7.03340694e-02
    9.96048823e-02  -1.36760464e-02   4.21620488e-01   2.51187719e-02
    1.52843967e-01   1.02661455e+00   6.99502587e-01   3.54673085e-03]
 [  5.52690029e-01  -1.72468156e-01  -8.46572042e-01   6.26008272e-01
   -8.17057610e-01  -1.54833779e-01   1.77410781e-01   9.76159796e-02
    1.44170895e-01   1.35500193e-01   1.73792288e-01  -1.94944233e-01
    1.38305351e-01   3.51380736e-01   6.25956774e-01   3.55650880e-03]
 [  9.01809335e-01  -1.87010378e-01  -3.66958648e-01   6.78394437e-01
   -8.16225648e-01   3.71164382e-02  -2.84150600e-01   6.18338119e-03
    6.12090938e-02   3.46901603e-02   3.23326796e-01   2.56312042e-01
   -1.32878616e-01   5.94138026e-01   3.95817161e-01  -2.36258786e-02]
 [  5.96657872e-01   1.10853292e-01  -3.03186536e-01   8.40278268e-01
   -6.46405995e-01  -2.08151311e-01  -9.20483842e-02   2.17958212e-01
    8.34208846e-01   4.94679920e-02   1.13062091e-01  -4.63791154e-02
    2.13662703e-02   5.50700426e-01   6.67659998e-01  -2.38472909e-01]
 [  8.63581777e-01   6.01683743e-03  -6.71870828e-01   9.12572026e-01
   -1.00474179e+00  -2.99767584e-01  -4.39649612e-01  -1.29282832e-01
   -1.20792598e-01  -2.26906855e-02   6.40172899e-01   3.48045319e-01
   -3.62110466e-01   9.63109136e-01   1.11404514e+00  -5.53500615e-02]
 [  4.21532959e-01   1.11775644e-01  -2.08956808e-01   8.94429624e-01
   -7.99660861e-01  -1.28880516e-01   3.40306200e-02   1.68336555e-01
    1.89434603e-01   1.24792479e-01   1.45876899e-01  -3.37506570e-02
    7.20870793e-02   4.90183890e-01   5.30863225e-01   7.46551007e-02]
 [  6.17853999e-01  -1.21023254e-02  -2.92340517e-01   8.50787282e-01
   -9.18369770e-01  -3.47281009e-01  -1.09210990e-01   4.26456749e-01
    1.34381324e-01  -2.46557128e-03   3.75530645e-02   6.34112358e-02
    1.85979437e-02   5.78793049e-01   8.77387583e-01  -2.73356233e-02]
 [  6.70299947e-01   3.65642761e-03  -1.58387750e-01   8.72136295e-01
   -9.76221263e-01  -4.18686002e-01  -5.21287560e-01   2.63538629e-01
   -3.25088538e-02  -5.07233739e-02   2.18637079e-01   3.20836157e-01
   -4.31730300e-01   6.73663616e-01   7.43929327e-01  -7.27759302e-02]
 [  5.37853956e-01  -2.62109898e-02  -2.98669577e-01   7.32145011e-01
   -8.61748099e-01  -2.38567576e-01   3.78130786e-02   4.06352505e-02
    1.88542202e-01   2.97237113e-02   2.52521299e-02   5.61116971e-02
   -5.09518525e-03   6.16561174e-01   6.68693602e-01   9.95562077e-02]
 [  4.71362114e-01   3.39963436e-02  -1.91556022e-01   9.32377398e-01
   -5.63939750e-01  -1.08192122e+00  -8.37205872e-02   9.49160103e-03
    1.80182680e-01   4.67458606e-01   2.36071534e-02   5.18765673e-02
    1.40725166e-01   4.35788810e-01   6.12892210e-01  -1.06443301e-01]
 [  7.99727321e-01   4.06017806e-03  -4.29352045e-01   1.13440514e+00
   -7.03211546e-01   1.19563323e-02  -6.77442700e-02   8.03999782e-01
    5.99829853e-01  -1.31747210e-02  -5.99799193e-02  -2.20850427e-02
   -6.83520883e-02   8.12836468e-01   6.25219882e-01  -2.67738905e-02]
 [  7.71044850e-01  -1.08822651e-01  -3.83413255e-01   8.60780716e-01
   -9.05105650e-01  -4.88914996e-02  -6.18212111e-02   1.73654988e-01
    2.13232979e-01   8.49212855e-02   1.14011414e-01  -2.73670614e-01
    1.14957191e-01   6.91078365e-01   7.21438229e-01   2.61392556e-02]
 [  3.96167397e-01   8.00285339e-01  -1.98585436e-01   9.04783845e-01
   -7.77999699e-01  -5.01416564e-01   1.25781000e-01   2.95478106e-01
    1.47164380e-02   4.69456054e-02   2.71382302e-01  -1.39090106e-01
    2.26536795e-01   6.14172280e-01   9.25575793e-01  -5.58148980e-01]
 [  6.47740543e-01   2.28931457e-01  -6.16099425e-02   7.05739915e-01
   -6.34057939e-01  -3.52853388e-01   1.12790972e-01   2.98718005e-01
   -2.35127628e-01  -1.37782842e-01   2.74111956e-01   2.41170704e-01
   -9.35561180e-01   2.46445835e-01   6.46667480e-01   1.42010018e-01]
 [  3.35138112e-01  -1.76124662e-01  -2.14654401e-01   7.64506459e-01
   -6.38698041e-01  -1.58608139e-01   4.42258380e-02   1.23684667e-01
   -1.83692679e-01  -7.29760602e-02   2.98497200e-01   7.74319991e-02
   -1.96793482e-01   2.83687353e-01   5.23815751e-01   1.57747224e-01]]
Eve
[[ -9.28156435e-01  -6.30272985e-01  -1.45294787e-02   6.80836916e-01
    2.29271635e-01  -5.99157751e-01  -1.22314580e-02  -4.01561469e-01
    8.20718348e-01  -9.78464901e-01  -5.90941012e-01   1.44910902e-01
    1.76493779e-01  -5.54104075e-02  -1.92107663e-01   5.65063775e-01]
 [ -9.26689982e-01  -6.19251549e-01  -3.23570035e-02   6.94950163e-01
    2.13648677e-01  -6.06950700e-01  -5.19472361e-03  -3.95868629e-01
    8.21453631e-01  -9.77978826e-01  -5.77342749e-01   1.40431061e-01
    1.71953246e-01  -4.84357476e-02  -1.89491838e-01   5.60489357e-01]
 [ -9.28969085e-01  -6.25856936e-01  -1.12432968e-02   6.78608179e-01
    2.33379588e-01  -6.00464940e-01  -1.18126515e-02  -4.01978254e-01
    8.20138454e-01  -9.77296591e-01  -5.91813803e-01   1.49467289e-01
    1.80254862e-01  -5.43394350e-02  -1.92834228e-01   5.67557633e-01]
 [ -9.18082833e-01  -6.25335574e-01  -4.83060218e-02   6.97438359e-01
    2.22140923e-01  -6.05260074e-01   6.17141195e-04  -3.88360500e-01
    8.16767216e-01  -9.77714956e-01  -5.84188640e-01   1.42484263e-01
    1.65800929e-01  -4.73308302e-02  -1.79058060e-01   5.55633247e-01]
 [ -9.38218117e-01  -6.33512974e-01   6.14818744e-03   6.66720867e-01
    2.42468894e-01  -5.99781573e-01  -2.20078863e-02  -4.09725100e-01
    8.24195445e-01  -9.80508626e-01  -6.02169573e-01   1.54849261e-01
    1.89040527e-01  -6.12593479e-02  -1.99971318e-01   5.77052474e-01]
 [ -9.20794904e-01  -6.27077401e-01  -4.43530492e-02   6.92844868e-01
    2.34730557e-01  -6.01202726e-01   1.20913645e-03  -3.86291146e-01
    8.16726387e-01  -9.77081835e-01  -5.87106943e-01   1.46453932e-01
    1.70231313e-01  -4.70500290e-02  -1.78970158e-01   5.57994545e-01]
 [ -9.32006478e-01  -6.32379651e-01  -1.19134458e-02   6.71612680e-01
    2.50152886e-01  -5.97337902e-01  -1.43493395e-02  -3.97138149e-01
    8.19819093e-01  -9.79380846e-01  -6.04833543e-01   1.52971417e-01
    1.88199446e-01  -5.45291863e-02  -1.92914203e-01   5.70898294e-01]
 [ -9.21271622e-01  -6.33389473e-01  -4.16256972e-02   6.76248014e-01
    2.58350760e-01  -6.01429343e-01  -6.78544305e-03  -3.82249624e-01
    8.11991513e-01  -9.78686929e-01  -6.10407948e-01   1.59171090e-01
    1.82036445e-01  -5.06407768e-02  -1.77847296e-01   5.66060543e-01]
 [ -9.34680462e-01  -6.44022107e-01  -1.69858150e-03   6.78415000e-01
    2.30183437e-01  -5.96593678e-01  -2.02796701e-02  -4.08597559e-01
    8.26770067e-01  -9.83940005e-01  -6.00428760e-01   1.45083383e-01
    1.77317679e-01  -6.17091171e-02  -1.94217026e-01   5.73019385e-01]
 [ -9.20902789e-01  -6.27676845e-01  -4.71940376e-02   6.94610357e-01
    2.28437528e-01  -6.03926837e-01  -1.90680742e-03  -3.86359155e-01
    8.17429543e-01  -9.79702115e-01  -5.91087162e-01   1.44071653e-01
    1.69974074e-01  -4.72905114e-02  -1.78548574e-01   5.59117734e-01]
 [ -9.17630494e-01  -6.36594296e-01  -4.59294766e-02   6.73075736e-01
    2.59919912e-01  -6.00601375e-01  -1.07322112e-02  -3.78622323e-01
    8.09263349e-01  -9.79714632e-01  -6.18936002e-01   1.58100903e-01
    1.83596179e-01  -5.05836569e-02  -1.75171033e-01   5.64894855e-01]
 [ -9.21853840e-01  -6.34158432e-01  -4.79874164e-02   6.79844081e-01
    2.55628169e-01  -6.03541434e-01  -7.63918459e-03  -3.78457427e-01
    8.11744332e-01  -9.82811809e-01  -6.13174736e-01   1.54922038e-01
    1.82488367e-01  -4.76061404e-02  -1.77000016e-01   5.65280557e-01]
 [ -9.25197303e-01  -6.48737729e-01  -2.69654710e-02   6.70554578e-01
    2.63520181e-01  -5.93774557e-01  -1.49501320e-02  -3.86720628e-01
    8.15057278e-01  -9.83746529e-01  -6.19166672e-01   1.57241091e-01
    1.83488369e-01  -5.67154437e-02  -1.79923743e-01   5.71440041e-01]
 [ -9.36821461e-01  -6.53376520e-01  -6.56507385e-04   6.48720622e-01
    2.79700190e-01  -5.95041871e-01  -3.12029943e-02  -3.96194875e-01
    8.17961872e-01  -9.84520614e-01  -6.40276253e-01   1.67654246e-01
    1.99976608e-01  -6.45431876e-02  -1.91299230e-01   5.87479115e-01]
 [ -9.44404185e-01  -6.47776842e-01   2.42741499e-02   6.53546095e-01
    2.57509202e-01  -5.93510568e-01  -3.05198710e-02  -4.15365338e-01
    8.27335954e-01  -9.82440531e-01  -6.18751705e-01   1.62651733e-01
    1.94462091e-01  -6.92044869e-02  -2.03463614e-01   5.85426390e-01]
 [ -6.61176741e-01  -5.35567045e-01   1.97963435e-02   2.39652574e-01
   -2.65556663e-01  -3.09575826e-01  -1.39828235e-01   2.05186248e+00
    4.93859500e-01  -5.42547226e-01   8.21455047e-02  -4.67601955e-01
    7.55130574e-02   3.03339846e-02  -3.98355015e-02   2.54941285e-01]
 [ -1.42877889e+00  -1.08893788e+00   4.46105689e-01   1.22348869e+00
    5.34412861e-01  -4.90123093e-01   6.30977899e-02  -1.81706503e-01
    1.46318865e+00  -1.85353291e+00  -6.78915381e-01   9.75225568e-01
    3.61778475e-02   2.26963341e-01  -6.87038675e-02   7.92232096e-01]
 [ -5.68613887e-01  -5.93118966e-01  -2.37873659e-01   2.66439617e-01
   -7.13283300e-01  -4.93234873e-01   2.51281470e-01  -5.68067394e-02
    2.14453191e-01  -5.35017490e-01   1.05718948e-01   8.20607468e-02
   -1.30933568e-01  -2.75415368e-02   5.11034906e-01  -5.05010724e-01]
 [ -1.80251002e-01   2.90537536e-01  -9.39667046e-01  -2.47733325e-01
   -7.76101470e-01  -6.11439645e-01  -1.31446674e-01   5.61969280e-01
    5.32733276e-03  -9.36048012e-03   1.73087671e-01  -2.98520327e-02
   -2.93589294e-01   6.71664625e-02   3.48492831e-01  -4.71972704e-01]
 [ -6.52862847e-01  -2.88820803e-01  -2.29133755e-01   4.18606669e-01
   -9.69941989e-02  -2.26915509e-01  -8.47163126e-02  -3.34001631e-02
    7.18595684e-01  -3.07160378e-01  -6.21640742e-01   3.98649961e-01
   -4.95075099e-02  -1.23089990e-02  -9.54084098e-02  -6.23460412e-01]
 [  9.07384977e-02  -1.49980679e-01  -6.72853768e-01  -7.61040896e-02
   -1.30600441e+00  -1.93770453e-01   8.97073522e-02   3.81515712e-01
    2.40043551e-01  -4.08928126e-01   6.45321131e-01  -3.96247208e-02
   -3.85130316e-01   1.58026829e-01   6.99241698e-01  -4.71365124e-01]
 [ -1.33393204e+00  -1.21753728e+00  -3.11876923e-01   1.25033069e+00
    7.16142833e-01  -8.04529846e-01  -8.37184340e-02  -3.06286097e-01
    1.13500130e+00  -1.41215205e+00  -3.84634078e-01  -1.09797370e+00
    2.15327919e-01   5.00434823e-02  -3.47582728e-01   7.69132197e-01]
 [  9.69171599e-02  -1.41202331e-01  -4.31822509e-01  -1.30658329e-01
   -7.46997297e-01  -2.90456414e-01   5.32487869e-01   6.30003572e-01
    5.59727140e-02  -2.45792389e-01   4.07498837e-01  -1.24287046e-01
   -5.13457358e-01  -7.96180665e-02   4.71743345e-01  -9.86767054e-01]
 [ -1.01944745e+00  -4.38346893e-01  -3.86070430e-01   5.47083080e-01
   -3.34731042e-02  -7.42009953e-02   1.02005668e-01   5.80581367e-01
    9.26941156e-01  -8.11466277e-01  -4.16228950e-01   8.79110098e-02
    7.31472075e-02  -8.08568150e-02   5.55046946e-02  -5.83579838e-02]
 [ -1.88861978e+00  -1.26433444e+00   6.47702992e-01   1.24689949e+00
    1.26512861e+00  -5.37980020e-01   1.61759377e-01  -1.18646371e+00
    2.03162336e+00  -1.56035304e+00  -1.01137137e+00   1.29326952e+00
    5.48114657e-01  -4.43931781e-02  -6.30335689e-01   1.31651676e+00]
 [ -1.29238558e+00  -7.95699894e-01   4.05002236e-02   9.93494809e-01
    9.51192006e-02  -1.82530269e-01  -1.46855623e-01   3.41842592e-01
    1.41227722e+00  -1.53965342e+00  -6.44334316e-01   4.50392425e-01
   -7.17478991e-02  -1.74861014e-01  -6.23818412e-02   1.64469376e-01]
 [ -5.00971973e-01   4.55946811e-02  -8.35934803e-02   2.85482585e-01
   -5.75496256e-02  -2.55572408e-01  -8.58489703e-03   1.48921117e-01
    4.31393147e-01  -6.46122098e-01   2.04066336e-01   7.12151751e-02
   -2.73022130e-02  -9.34613794e-02  -4.10331279e-01  -4.49413389e-01]
 [ -9.18024302e-01  -1.19330919e+00  -5.17815709e-01   1.20792341e+00
   -5.18885434e-01   1.41888738e-01  -1.45814165e-01  -1.76921457e-01
    1.01580298e+00  -1.58178401e+00  -6.70510679e-02  -6.15938127e-01
   -1.24415487e-01   5.90994135e-02  -1.62763864e-01   7.99594074e-02]
 [  2.18432024e-02  -1.74491704e-01  -3.51499736e-01   1.20377854e-01
   -9.14266467e-01  -5.32527566e-01  -1.51351735e-01   2.49543175e-01
    2.70044386e-01  -4.81547415e-01   7.18963593e-02  -3.44910651e-01
    1.22672953e-01   1.28898025e-01  -2.04644073e-02  -7.08582461e-01]
 [  1.54260295e-02  -4.33297426e-01  -2.00483143e-01   2.74708629e-01
   -9.03220952e-01  -2.75468230e-01   1.02221407e-01   6.45914733e-01
    1.85993034e-02  -2.29148969e-01   3.23737472e-01  -2.27664173e-01
   -1.46315992e-01  -7.40083382e-02   4.85905766e-01  -5.29402614e-01]
 [ -3.37574154e-01  -6.46059774e-03  -3.66458714e-01   4.87058908e-01
    9.32539344e-01  -3.31735045e-01  -4.70195472e-01   5.45175016e-01
    3.16050529e-01  -4.18042600e-01  -1.05135953e+00  -3.04713119e-02
    1.40861154e-01   2.65580956e-02  -6.89794540e-01  -9.24331471e-02]
 [  1.85194761e-02   2.93040156e-01  -6.26568019e-01  -2.13524669e-01
   -7.13223934e-01  -3.62893015e-01   7.99618065e-02   2.53215253e-01
    2.08952308e-01  -8.92271623e-02   3.27538908e-01   2.00841933e-01
   -1.92800656e-01   2.85733622e-02  -6.93673193e-02  -6.95005298e-01]
 [ -6.59171104e-01  -6.97351038e-01  -9.45555121e-02   8.01936746e-01
    7.83372819e-02  -5.04421115e-01  -1.29788712e-01  -3.05531591e-01
    1.04692888e+00  -8.63570392e-01  -4.78339307e-02   5.96420765e-01
    4.26297396e-01  -5.94493039e-02  -2.10611254e-01   3.29233944e-01]
 [ -2.02272862e-01  -3.10316712e-01  -4.79287177e-01   2.05831513e-01
   -6.59868896e-01  -3.38308036e-01   8.69450122e-02   2.43039325e-01
   -3.48916068e-03  -5.28602362e-01  -7.89500773e-02  -1.34086892e-01
   -1.01985997e-02   3.98734421e-01   2.71845281e-01  -4.92025644e-01]
 [ -9.52162206e-01  -7.67291963e-01  -8.55055273e-01   4.36170071e-01
    2.56992638e-01  -4.61717874e-01  -2.84442991e-01  -6.48472846e-01
    1.10613906e+00  -8.63170207e-01   2.51633763e-01   8.27207789e-02
    5.05234420e-01   6.14054091e-02  -4.43248481e-01   3.51259947e-01]
 [ -1.54845536e+00  -9.40936983e-01   2.64815211e-01   7.36536860e-01
   -3.63274030e-02  -3.83640379e-01  -1.60770953e-01   2.70932347e-01
    1.49906826e+00  -1.27537155e+00  -5.64913809e-01   4.09979522e-01
   -3.68070863e-02   9.13792700e-02  -2.10332066e-01   9.78630632e-02]
 [ -1.33061612e+00  -9.57883239e-01   3.48418325e-01   8.43911171e-01
    9.36898664e-02  -3.61111283e-01  -6.00891337e-02   4.87272590e-01
    1.35160851e+00  -1.38161445e+00  -2.96052039e-01   5.41938066e-01
    2.87044138e-01  -1.00418236e-02  -3.08081686e-01   5.61586618e-02]
 [ -8.61223459e-01  -5.87823153e-01   2.78487355e-01   4.12364542e-01
    2.69441545e-01  -2.92230874e-01   2.88236082e-01  -2.33035579e-01
    7.04370260e-01  -7.93299317e-01  -2.41942406e+00   1.10009551e-01
    3.76523733e-01   3.61028537e-02  -2.58629411e-01   7.18345702e-01]
 [ -9.36564744e-01  -3.54124308e-01  -2.21739877e-02   5.26277483e-01
    2.16850638e-02  -9.32942331e-02   9.97007266e-02   5.22625029e-01
    1.10002434e+00  -8.21141839e-01  -4.90735561e-01   1.38272643e-01
    5.87844774e-02   2.03875620e-02  -9.78456512e-02  -9.45409387e-02]
 [ -1.17517853e+00  -1.15827882e+00  -6.53226554e-01   9.71429706e-01
   -6.39965594e-01  -2.57545263e-02   1.56128615e-01   8.78608134e-03
    1.22521317e+00  -1.69361997e+00  -1.99410737e-01  -5.88983357e-01
    1.77269131e-01  -6.06689192e-02  -9.46462005e-02   3.57342035e-01]
 [ -1.16534950e-02   5.49067184e-03  -4.71045911e-01   2.33866215e-01
   -1.05772603e+00  -2.27786958e-01  -5.29644489e-02   7.01111257e-01
    6.60676584e-02  -1.64101496e-01   3.41837332e-02  -5.01442514e-02
   -2.83943206e-01   7.63891265e-02   2.32859075e-01  -7.65434206e-01]
 [  3.06549817e-01   3.86860192e-01  -8.46370161e-01  -4.77845967e-01
   -1.39594936e+00  -2.71668494e-01  -3.09241433e-02   3.50565284e-01
   -1.95969507e-01  -1.81997254e-01   3.29302967e-01   1.71895325e-01
   -3.59890848e-01   3.02382261e-02   6.59664810e-01  -1.36918187e+00]
 [ -1.36188889e+00  -1.27109325e+00   1.20870695e-02   1.23246932e+00
    1.17895484e+00  -1.05775070e+00  -3.11700329e-02  -4.19080466e-01
    1.50096333e+00  -1.23468184e+00  -4.00389522e-01  -9.38993156e-01
    4.51668471e-01  -1.52793266e-02  -4.92374688e-01   7.46645391e-01]
 [ -1.27616689e-01  -2.12817173e-02  -5.19229829e-01   2.49439970e-01
   -9.03887928e-01  -8.01574588e-02  -2.31012814e-02   1.18038148e-01
    1.26678333e-01  -4.11328346e-01   3.39985549e-01  -2.59392351e-01
   -7.01673776e-02   2.60384530e-01   3.89462978e-01  -7.72225738e-01]
 [ -5.22471309e-01  -3.74109566e-01   4.27231519e-03   5.46044827e-01
    5.19215703e-01  -3.52907419e-01  -1.10666659e-02  -2.10485786e-01
    1.07889938e+00  -8.92741144e-01  -1.80411011e-01   3.67053151e-01
    2.49123320e-01   1.26630247e-01  -5.42516768e-01   9.84915257e-01]
 [ -4.17889208e-01  -8.33303273e-01  -1.44456446e-01   3.18135768e-01
   -4.65946466e-01  -5.33149183e-01   1.27881974e-01   3.17884654e-01
    2.19089836e-01  -4.68383431e-01   5.50712287e-01  -6.91782311e-02
   -3.01588085e-02  -1.90228969e-02   1.97082341e-01  -4.29575443e-01]
 [ -1.39145446e+00  -1.20136809e+00   6.01831377e-01   1.40888631e+00
    7.31317639e-01  -5.12359679e-01  -1.88250303e-01  -6.36808455e-01
    1.72829318e+00  -1.62074590e+00  -8.73452783e-01   1.02648437e+00
    6.05714679e-01   4.35864255e-02  -3.74360740e-01   7.95845985e-01]
 [ -1.70518887e+00  -1.24938512e+00   2.61725605e-01   1.14282537e+00
    8.99433732e-01  -5.51806033e-01   3.38846952e-01  -3.73558253e-01
    1.78804374e+00  -1.28581643e+00  -4.53327507e-01  -4.42659147e-02
    7.75731921e-01  -5.91511838e-02  -9.49153125e-01   1.09129214e+00]]