Alice
[[  1.48582071e-01   4.83416207e-02  -4.46620136e-02  -2.76054675e-03
    3.87307331e-02  -4.16749306e-02   5.30953072e-02  -1.91689823e-02
   -1.10133728e-02   9.99355540e-02   1.48652038e-02   7.71310506e-03
   -5.31905070e-02   8.44328329e-02  -9.42486059e-03  -5.18093444e-02]
 [  3.86660732e-02   3.65713201e-02  -7.77440444e-02  -8.30889344e-02
   -1.05131045e-01  -3.15727703e-02   5.37923500e-02   2.56502647e-02
   -4.71378081e-02   1.08201668e-01  -3.92523594e-02  -4.23621982e-02
   -1.79918334e-02   1.22496948e-01  -1.99914556e-02  -4.06799689e-02]
 [  2.43127495e-02   7.26748351e-03  -1.22353904e-01  -5.08497050e-03
   -3.92943583e-02  -3.22297215e-02   6.64817914e-02  -2.96252985e-02
   -3.46737690e-02   1.28491312e-01  -2.58234621e-04  -6.81584924e-02
    2.88028736e-02  -1.16970052e-03  -4.25821962e-03  -1.23386336e-02]
 [ -8.38715509e-02   2.12400686e-02  -8.08678102e-03   8.26727524e-02
   -3.13171670e-02   3.86365689e-02  -1.68239269e-02  -8.88727009e-02
   -5.38627803e-01   1.19834654e-01  -6.63286494e-03  -8.76838118e-02
   -7.01592192e-02   2.41401214e-02  -2.90028565e-03   7.93293789e-02]
 [  4.50635925e-02   2.08229702e-02  -2.01595630e-02  -2.51056310e-02
   -6.43550158e-02  -2.34355666e-02   2.92798243e-02  -1.00236218e-02
   -8.53686593e-03   1.09993383e-01  -1.30576175e-02  -3.91008258e-02
    9.76215408e-04   2.96401680e-02  -1.48725146e-02  -8.02790001e-03]
 [  1.33028299e-01   2.02806383e-01   1.95665229e-02  -4.83263023e-02
   -9.89528894e-02  -6.19029440e-02   9.05208364e-02  -4.80626188e-02
    2.23175623e-02   9.63693559e-02  -1.98295377e-02  -5.43742888e-02
   -1.90168922e-03   8.70008990e-02  -7.22754225e-02  -2.64334306e-02]
 [  3.24027278e-02   3.72704342e-02  -4.55162190e-02  -2.47997325e-02
    1.59149934e-02  -1.48415836e-02   7.70282969e-02  -1.26710087e-02
   -2.79373322e-02   1.18420519e-01  -3.03824972e-02  -5.92194535e-02
    1.16337994e-02  -3.23126614e-02  -4.51409936e-01   2.23937966e-02]
 [  1.05295055e-01   7.27417096e-02  -5.04626147e-02   1.53235756e-02
   -1.39672473e-01  -2.07009371e-02   4.58713882e-02   1.83156244e-02
   -5.83444396e-03   1.03919417e-01  -3.85191361e-03  -3.31742428e-02
    1.17349336e-02  -6.62856153e-04  -6.86771842e-03  -8.99109931e-04]
 [  5.54827042e-02   1.70769170e-02  -9.86962914e-02  -6.48730667e-03
   -3.71918716e-02  -4.15325016e-02   4.78334315e-02  -2.83314544e-03
   -4.17983010e-02   1.03189468e-01   2.85913632e-03  -2.66279317e-02
   -1.97565742e-02   4.56861034e-02  -2.04958208e-02  -5.08904122e-02]
 [  9.59699042e-03   4.18429300e-02  -7.94900060e-02   1.32961348e-02
   -7.36034140e-02  -3.85582298e-02   5.57499081e-02  -1.27233770e-02
   -6.40445214e-04   1.11348018e-01  -7.90270627e-01  -7.43844360e-03
    6.33443072e-02   8.95516500e-02  -3.03438306e-02  -1.99271422e-02]
 [ -3.35564744e-03   4.94843461e-02  -2.58292593e-02  -4.29527685e-02
   -1.06542058e-01  -2.53578555e-02   3.75016071e-02  -1.07237035e-02
   -2.09618974e-02   8.82721618e-02  -3.47274505e-02  -9.02132690e-02
    1.64001733e-02   6.55668378e-02  -2.76613832e-02  -3.68028022e-02]
 [  3.44586857e-02   3.91068235e-02  -2.75578424e-02  -1.56305563e-02
   -4.72255498e-02  -5.64658567e-02   7.55458325e-02   5.91270439e-03
   -6.07424602e-03   1.01881810e-01   9.89681296e-03  -5.29892929e-02
   -3.54351290e-02   7.11818635e-02  -1.07532125e-02  -2.49098521e-02]
 [  6.03992343e-02   2.86138225e-02  -1.04188353e-01   6.81111366e-02
    5.22707414e-04  -8.85733962e-02   2.52433598e-01   2.04198863e-02
    9.56126489e-03   1.18401378e-01   2.28040796e-02  -4.74858359e-02
   -1.95964891e-02   4.15118374e-02  -4.88522016e-02   2.00205874e-02]
 [  3.56648974e-02   1.46603649e-02  -1.31567433e-01  -3.57058235e-02
    2.64470838e-02  -3.99098871e-03   5.92769906e-02  -1.52126728e-02
   -2.98689529e-02   1.04296990e-01   8.94765649e-03  -3.64020318e-02
    2.10657436e-03  -3.65084130e-03  -2.90133376e-02  -1.27509888e-02]
 [ -1.42559344e-02   2.73525584e-02  -4.52798754e-02  -2.41385866e-02
   -1.59579795e-02  -8.87179375e-02   6.60434291e-02  -4.72301207e-02
   -1.87512804e-02   9.72449183e-02  -5.86237619e-03  -6.09345138e-02
   -1.58562083e-02   7.88676515e-02  -3.90889868e-02  -6.12890385e-02]
 [  1.93993710e-02   3.24691460e-02  -1.51195303e-01  -4.06327583e-02
   -8.05025101e-02  -7.88727552e-02   5.26127629e-02  -8.95110443e-02
   -1.34518584e-02   1.52488187e-01  -3.32773104e-02   7.58052021e-02
   -6.44291192e-02   8.53238776e-02  -6.71684369e-02  -4.95238721e-01]
 [  1.79878566e-02  -9.27811954e-03   6.55219599e-04  -2.71701254e-02
    9.50232986e-03   1.95964961e-03  -1.16495267e-02  -3.95051856e-03
    2.13030609e-03   6.96876720e-02  -8.02835822e-03  -9.36001656e-04
   -2.24290900e-02  -7.00749084e-03  -8.66076536e-03  -5.32894209e-03]
 [  2.09690304e-03  -1.70621574e-02  -2.24502455e-03  -2.39889137e-02
    1.01024406e-02  -1.10078594e-02  -1.36132268e-02  -1.18312594e-02
   -2.03553820e-03   7.02637434e-02  -5.08442475e-03  -8.13312945e-04
   -2.29314789e-02  -6.36363029e-03   7.89714046e-03  -1.00312838e-02]
 [  4.98338193e-02   8.86317417e-02   1.57032069e-02  -2.21354719e-02
   -4.39012311e-02  -7.77769089e-02  -4.73218877e-03  -5.23207374e-02
   -1.53644790e-03   6.62244931e-02  -1.57232396e-02   1.80650852e-03
   -1.95565708e-02   2.92000528e-02   3.86320171e-04  -1.53964711e-02]
 [  2.81721298e-02   3.22138704e-02   7.24117970e-03  -2.89077647e-02
   -1.45618711e-02  -3.63805369e-02  -1.33753689e-02  -3.32179815e-02
   -7.20509328e-04   7.17302188e-02   5.25934761e-03  -2.88666633e-04
   -1.96325481e-02   7.50669604e-03  -6.58975635e-03  -1.70347784e-02]
 [  2.46500075e-02  -1.38845164e-02   9.91625828e-04  -3.01014725e-02
    1.41521636e-02   1.71489585e-02  -1.14548039e-02   4.86143073e-03
    4.96235769e-03   7.05289021e-02  -8.30181688e-03  -1.29835831e-03
   -2.25303434e-02  -1.09985806e-02  -1.97305456e-02  -1.91014574e-03]
 [  1.09528769e-02   3.29878740e-02   4.84050857e-03  -2.16524731e-02
   -1.93886664e-02  -6.22359216e-02  -1.29265478e-02  -4.57037427e-02
   -6.44347630e-03   7.02248439e-02  -2.67184601e-04   4.70536383e-04
   -2.08398886e-02   1.33505762e-02   1.91111136e-02  -2.11107098e-02]
 [  2.85217389e-02   2.09695119e-02   5.61599247e-03  -2.75425240e-02
   -6.97033759e-03  -2.15531066e-02  -1.09967897e-02  -2.03673262e-02
    1.14943192e-03   6.97950870e-02  -4.79561836e-03  -3.27181537e-04
   -2.09176689e-02   3.30253434e-03  -8.94569699e-03  -1.02839172e-02]
 [  1.54321007e-02   4.27762885e-03   2.05026520e-03  -2.64280997e-02
   -2.73246769e-06  -1.92509405e-02  -1.31340716e-02  -1.90560315e-02
   -7.86767167e-04   7.08817020e-02  -1.89726544e-03  -5.29155077e-04
   -2.16104072e-02  -7.79765542e-04  -6.12655422e-04  -1.19754095e-02]
 [ -2.29763128e-02   5.31659881e-03  -2.94231484e-03  -1.44360363e-02
   -1.08910473e-02  -7.62723014e-02  -1.58437435e-02  -5.15618622e-02
   -1.36489617e-02   7.08813965e-02  -7.60358758e-04   6.12251752e-04
   -2.31188945e-02   1.05417101e-02   5.17347306e-02  -2.61121597e-02]
 [ -1.35312686e-02   6.10156101e-04  -2.52952473e-03  -1.53231611e-02
   -5.10594063e-03  -5.62429465e-02  -1.29406964e-02  -3.67505513e-02
   -9.67726763e-03   6.86674118e-02  -9.38356202e-03   4.68463200e-04
   -2.35229470e-02   6.63770409e-03   3.96238118e-02  -1.82842426e-02]
 [  3.65480632e-02   2.40961406e-02   7.02772522e-03  -2.94965114e-02
   -6.81486120e-03  -1.36503670e-02  -1.02427267e-02  -1.60376728e-02
    3.36529268e-03   6.93153217e-02  -4.98595182e-03  -4.69398568e-04
   -2.04210691e-02   2.46306579e-03  -1.83888469e-02  -8.06084462e-03]
 [ -1.61484499e-02  -5.62704168e-03  -3.48224095e-03  -1.60890222e-02
   -1.87018432e-03  -5.17871268e-02  -1.40352771e-02  -3.49385887e-02
   -9.63009149e-03   6.89432099e-02  -6.20007236e-03   2.32533799e-04
   -2.33047549e-02   4.19220468e-03   3.87360975e-02  -1.87532548e-02]
 [  4.34277393e-02   5.05674332e-02   1.07289571e-02  -2.68968176e-02
   -2.16772147e-02  -3.85603644e-02  -7.72358058e-03  -2.97583751e-02
    1.77233038e-03   6.89071715e-02  -1.07908277e-02   4.90862411e-04
   -2.04467177e-02   1.32214064e-02  -1.17418850e-02  -1.03529720e-02]
 [  3.64917368e-02  -1.26446495e-02   3.16906977e-03  -3.66579294e-02
    1.61357112e-02   3.31125371e-02  -1.34568419e-02   9.84062906e-03
    8.59252922e-03   7.22079650e-02   2.45622685e-03  -2.02295883e-03
   -2.07018927e-02  -1.50042893e-02  -3.94296311e-02  -1.98294013e-03]
 [  4.27408405e-02   2.51533575e-02   7.70180626e-03  -2.93957051e-02
   -5.57150552e-03  -6.62316708e-03  -7.98325520e-03  -9.49159637e-03
    5.27179893e-03   6.85889274e-02  -1.23551795e-02  -3.20965832e-04
   -2.11370513e-02   1.92507869e-03  -2.31602415e-02  -3.48400651e-03]
 [  5.16215432e-03  -5.10970987e-02  -5.72281238e-03  -2.93819252e-02
    3.24950032e-02   3.73915769e-02  -1.43495910e-02   1.75912231e-02
    4.01755562e-03   7.06704929e-02  -4.95226122e-03  -2.07971479e-03
   -2.35598013e-02  -2.27352437e-02  -1.35587715e-02  -5.42174501e-04]
 [  6.34979978e-02  -1.37523273e-02   7.64360875e-02   5.66702560e-02
   -2.28989497e-02   1.07910648e-01  -1.29408270e-01   3.57252471e-02
   -1.45235971e-01  -6.50460422e-01   2.73740947e-01  -4.66103069e-02
   -1.97316691e-01   2.97587752e-01  -1.11861550e-03  -2.10362241e-01]
 [  2.95365930e-01   4.30435874e-02  -2.98649110e-02  -3.48983139e-01
   -1.95314124e-01  -1.84202418e-01   1.15858847e-02   1.29932791e-01
   -7.25243449e-01  -2.07435444e-01  -2.72085611e-02   1.19901402e-02
    2.27500409e-01  -4.19960357e-03  -7.57018924e-02  -3.00905317e-01]
 [  2.93273509e-01  -6.83529899e-02   3.56555991e-02  -1.97468728e-01
    4.96036001e-03  -1.84958711e-01   4.77635488e-02  -5.19318730e-02
    7.50534311e-02   7.78038874e-02  -2.31218219e-01   1.06867000e-01
   -1.23946674e-01   1.74744323e-01   5.38666807e-02  -2.27461517e-01]
 [  6.57366961e-02   3.02567991e-04  -2.11244419e-01   8.65418613e-02
   -4.58238944e-02  -7.23847598e-02  -7.82039687e-02   5.98398864e-01
   -3.13916467e-02   2.12796345e-01  -1.35127781e-02  -8.98970640e-04
    7.94267431e-02  -1.65925119e-02   1.40470177e-01   1.39488012e-01]
 [  3.07319969e-01   1.02235630e-01   2.98392832e-01  -2.79671192e-01
   -1.95178613e-01  -4.17889476e-01  -1.70899868e-01   1.64455295e-01
   -1.26009017e-01  -1.04658723e-01  -1.70065641e-01   6.11063726e-02
    4.66891490e-02   2.10925743e-01  -1.33236408e-01  -1.18917875e-01]
 [ -1.76319599e-01   1.35983035e-01  -5.73314801e-02  -9.12041590e-02
   -1.51888639e-01   1.44770890e-01   5.73782995e-02   7.12749213e-02
    2.52453625e-01  -2.83638149e-01  -2.34250829e-01  -9.56508294e-02
    1.26807392e-01   2.49291673e-01  -7.72002935e-02  -1.74373090e-01]
 [  1.90415524e-03   4.45988774e-02  -1.22021273e-01  -5.16194344e-01
   -1.05108204e-03  -2.05625594e-02  -1.10558758e-03  -3.26888100e-03
    4.06240001e-02   2.30596840e-01  -2.16146037e-02   7.80931627e-03
   -9.45606172e-01   2.38355203e-03   4.09414899e-03  -5.39604247e-01]
 [ -4.45348136e-02   6.39303625e-01   4.45332192e-02  -1.77334338e-01
    1.62339166e-01  -1.29742503e-01  -6.98312372e-02   1.59050122e-01
    4.40952405e-02  -5.09568214e-01  -1.68121845e-01   1.75135061e-01
   -2.63240701e-03   2.47043535e-01  -5.09402528e-02  -1.48879722e-01]
 [  2.83268858e-02  -2.01550145e-02  -1.99890614e-01  -1.58226162e-01
    1.04452349e-01  -1.26819640e-01  -3.08478102e-02  -4.32485826e-02
   -6.28102804e-03   3.17672729e-01   4.05600779e-02   7.05775544e-02
   -7.27139190e-02  -1.00430422e-01   5.11710234e-02   3.94827574e-01]
 [ -3.51196676e-02   6.31417185e-02  -9.77000743e-02   5.55610796e-03
   -2.71875203e-01  -1.65848419e-01   1.17005274e-01  -1.01778217e-01
   -1.58773288e-02   1.28247544e-01   1.48156986e-01  -5.54834902e-02
    7.87050277e-02  -1.02643386e-01   5.24851270e-02  -1.94378257e-01]
 [ -1.11290783e-01   2.84984820e-02  -4.61159796e-02  -1.70590088e-01
   -1.95522055e-01   1.44700453e-01   7.61489749e-01  -2.11078674e-01
    7.14947134e-02  -1.16863355e-01  -1.36741981e-01   5.80868796e-02
    1.77297816e-02   2.03593612e-01   4.52185541e-01  -3.30140710e-01]
 [  1.83852479e-01   9.48866904e-02   4.63765697e-04  -1.94126349e-02
   -7.34473318e-02  -5.94012029e-02  -5.95888682e-02  -2.18630627e-01
   -1.38739152e-02  -8.28319639e-02   2.95205205e-03   6.97314799e-01
   -1.53943479e-01  -2.50764750e-02  -3.11585553e-02   7.17672706e-02]
 [ -1.20008625e-01  -3.90608460e-02  -7.14782998e-02  -8.76477547e-03
   -2.16489229e-02  -1.10013941e-02  -4.28070724e-02  -8.75147209e-02
    3.76319848e-02   2.95803100e-02   5.09710729e-01   4.40404005e-02
    9.23044011e-02  -3.90650183e-02  -2.25538701e-01  -1.82060793e-01]
 [  5.26310392e-02   5.48008010e-02  -1.73442885e-01  -2.49955617e-02
   -9.40155908e-02  -4.76203486e-03  -1.69511884e-01  -2.62499124e-01
    9.64360535e-02  -9.52839553e-02   1.00687504e-01   6.77315816e-02
    2.17394587e-02  -4.02873009e-02  -4.00529236e-01  -2.94192582e-01]
 [  7.17303231e-02   1.41926482e-02  -2.17290297e-01   1.97792172e-01
   -1.41205072e-01  -1.81160830e-02   1.29461288e-01   1.90683588e-01
    4.98450696e-02  -1.99488513e-02   1.54592812e-01  -1.26442552e-01
    1.51211143e-01  -2.25360990e-02  -5.70398793e-02  -5.85060008e-02]
 [  2.76373506e-01   2.31372058e-01  -3.09632629e-01   2.61372805e-01
   -9.65323523e-02  -8.33616592e-03   1.17418565e-01   2.08038554e-01
    1.48565412e-01  -1.92108214e-01  -1.42238125e-01  -5.61613701e-02
    1.05277628e-01   2.36802563e-01   7.43395537e-02  -1.08569145e-01]]
Bob
[[  4.56673428e-02  -1.75419115e-02   1.41551256e-01   3.37559660e-03
    2.84929480e-02  -2.54620444e-02  -9.79958400e-02  -3.33436541e-02
   -7.33202090e-03   7.45120794e-02   2.35956758e-02   9.71730333e-03
   -5.56134209e-02  -4.64834785e-03  -1.78057794e-02  -7.11756721e-02]
 [  5.40908463e-02   1.23048872e-02   1.29351504e-02   8.98759738e-02
    4.61433409e-03  -1.04604118e-01  -9.74729657e-02   4.59751040e-02
    4.45938595e-02  -7.62584135e-02   4.91700843e-02  -5.05687110e-02
   -1.50563106e-01  -4.82598171e-02   3.27500999e-02  -1.01388387e-01]
 [  8.36011171e-02   1.13291992e-02   2.73862947e-02   4.61716354e-02
    2.26027481e-02  -1.20750144e-01  -9.37234983e-02   1.27295226e-01
    4.91548851e-02  -5.49973249e-02   5.92659675e-02  -7.15207309e-02
   -4.96276952e-02  -3.60521562e-02  -3.35189290e-02  -3.29728015e-02]
 [  7.13725761e-03  -5.84542692e-01   8.11860114e-02   7.24374875e-02
   -3.40310708e-02   8.42300206e-02  -1.01555236e-01   5.01330234e-02
    1.91007939e-03   8.19961429e-02   7.21599832e-02  -5.88703901e-02
   -4.09922563e-02  -4.17763181e-02  -4.72726896e-02   4.48912084e-02]
 [  7.57928789e-02  -5.74326236e-03   4.58125845e-02   4.47519235e-02
    2.52022557e-02  -4.72214185e-02  -9.54234824e-02   4.68208157e-02
    2.42448393e-02  -7.67951310e-02   4.74244915e-02  -4.41437326e-02
   -5.35488464e-02   3.61623615e-03  -4.14138287e-02  -6.04546703e-02]
 [  5.07317074e-02  -5.51157854e-02   2.51948517e-02   5.05340584e-02
    5.62860668e-02  -1.14096534e-02  -9.66022536e-02   4.46381383e-02
    4.96563911e-02  -3.39931957e-02   2.93897092e-02  -5.03487512e-02
   -7.39147961e-02  -1.07167400e-02   2.20607943e-03  -4.73217070e-02]
 [ -1.41291274e-02  -2.25953069e-02  -3.82936411e-02   4.05667834e-02
    2.23692194e-01  -9.46076959e-02  -9.86339897e-02   3.12585756e-02
   -9.29589756e-03  -5.25478758e-02  -1.97930560e-02  -6.35982007e-02
   -5.33781499e-02  -4.25589204e-01  -1.45028681e-01  -4.76911105e-02]
 [  3.45307142e-02  -6.53943932e-03   6.90835193e-02   2.53770798e-02
    3.82345729e-02  -6.65491298e-02  -9.50827748e-02   7.92237148e-02
    1.71768591e-02  -1.41333982e-01   3.79284136e-02  -3.62143815e-02
   -4.22899686e-02  -4.31282772e-03  -3.69100198e-02   1.95926931e-02]
 [  1.93794053e-02   1.00886831e-02   5.35441414e-02   4.21046317e-02
    2.82370094e-02  -9.31518525e-02  -9.54400674e-02   4.47225459e-02
    2.70204805e-02  -2.75010373e-02   4.81377542e-02  -2.89215427e-02
   -6.33996874e-02  -4.74151745e-02  -2.20661107e-02  -3.32777984e-02]
 [  1.90568939e-02  -7.49899913e-03   5.54260686e-02  -2.56355479e-03
    5.24522252e-02  -2.07837429e-02  -9.37644765e-02   4.72120270e-02
   -7.15105236e-03  -3.86827029e-02   1.88219734e-02  -1.64066404e-02
    2.68050045e-01   5.53812319e-03   4.53254171e-02  -7.97766522e-02]
 [  7.74919894e-03   3.20877065e-03  -3.52881514e-02   3.76403183e-02
    1.46271987e-02  -5.96223064e-02  -9.40784514e-02   4.99954820e-02
    9.02431682e-02  -7.79474825e-02   4.24678288e-02  -9.15622562e-02
   -8.83232951e-02  -2.79533397e-02  -1.05923126e-02  -3.63678187e-02]
 [  3.73628177e-02  -2.33111884e-02   6.84039742e-02   1.18716069e-01
    8.78198296e-02  -5.06637581e-02  -9.64789316e-02   4.69721891e-02
    4.73256223e-02  -5.28974943e-02   4.40755524e-02  -5.21157123e-02
   -6.72445372e-02  -1.99602190e-02  -1.73611995e-02  -9.20150056e-02]
 [  9.93798673e-03  -6.67300969e-02  -2.76132044e-03  -1.35908574e-02
    9.63841379e-02  -6.57737926e-02  -9.55149159e-02   5.36409244e-02
    3.93250734e-02  -6.93492740e-02   3.73544335e-01  -5.48194349e-02
   -1.01514354e-01   6.72120228e-02  -2.54618805e-02  -5.64467721e-02]
 [  2.48282589e-02   7.39575457e-03  -8.95381905e-03   4.01728973e-02
    1.42010096e-02  -1.12283669e-01  -9.41849053e-02   9.52063799e-02
    9.23884064e-02   2.05802824e-02   3.60710323e-02  -3.45008373e-02
   -4.25906256e-02  -5.00337258e-02   2.30562454e-03   7.03726546e-04]
 [  1.99695695e-02  -8.45738966e-03   2.19742749e-02   6.21059015e-02
    7.58708194e-02  -5.41048385e-02  -9.52588469e-02   2.39183009e-02
    5.17552532e-02  -4.02002875e-03   3.89363244e-02  -6.01507500e-02
   -6.98154792e-02  -7.88986832e-02  -2.13981159e-02  -8.28924477e-02]
 [  1.03666276e-01  -9.53651220e-03   9.43647325e-02   6.12158813e-02
    2.15038452e-02  -3.52219194e-02  -9.92361009e-02   1.30675454e-02
   -3.35247695e-01  -7.91817233e-02   4.70193513e-02   8.98751989e-02
   -9.52082425e-02  -7.98509866e-02  -1.88856833e-02  -2.51745619e-02]
 [ -1.09919943e-02   3.18084843e-03  -1.81047935e-02  -1.47773791e-02
   -8.82928353e-03  -9.17976350e-03  -8.47306401e-02  -1.54710207e-02
    6.74709901e-02  -6.62420131e-03   4.60878536e-02  -2.64752470e-03
   -1.47482799e-02   2.73774937e-02  -3.74350883e-02   1.07288370e-02]
 [  1.41059831e-02  -2.07093172e-02   4.56006415e-02   3.56071331e-02
    4.31637913e-02  -3.14777973e-03  -8.54549557e-02   2.98536196e-03
    4.16882597e-02  -1.22441621e-02  -4.00789492e-02   2.76236050e-03
   -3.93923401e-04  -2.80148759e-02  -2.59405300e-02  -8.74322187e-03]
 [  1.90548990e-02  -3.06856143e-03   1.32737113e-02   1.53952241e-02
    1.30403377e-02  -1.10947927e-02  -8.47291052e-02  -6.74025272e-04
    4.39939126e-02  -1.16634741e-02  -2.03840830e-03  -1.49339391e-03
   -1.78885181e-02  -7.17810402e-03  -4.07096855e-02  -6.49839733e-03]
 [ -6.31881319e-03  -6.07914198e-03   3.11305234e-03  -4.52334154e-03
    9.99214500e-03  -5.12949284e-03  -8.41330886e-02  -1.23818591e-02
    5.82439490e-02  -7.24603562e-03   9.86781996e-03  -4.10511333e-04
   -1.37780113e-02  -2.79715401e-04  -3.17364670e-02   9.13744885e-03]
 [  4.00341414e-02  -8.02301895e-03   3.74351516e-02   5.28404340e-02
    2.82480717e-02  -1.47149861e-02  -8.60306770e-02   1.52866160e-02
    3.43009643e-02  -1.71759501e-02  -1.48929302e-02  -8.36521736e-04
   -2.74965493e-03  -3.78712732e-03  -4.17732187e-02  -2.79920604e-02]
 [ -6.44430460e-04  -1.94903146e-02   3.34432907e-02   1.80844963e-02
    3.61406095e-02  -6.59025216e-04  -8.54804292e-02  -5.54621965e-03
    5.05439937e-02  -9.28302668e-03  -2.83088740e-02   2.70574121e-03
   -2.81694601e-03  -2.30895560e-02  -2.34363172e-02   2.29061209e-03]
 [  1.46922446e-03  -3.27952728e-02   6.09229393e-02   2.73533650e-02
    6.17208146e-02   6.01117825e-03  -8.60341638e-02  -3.99437500e-03
    4.06538770e-02  -9.40507464e-03  -7.78357610e-02   6.02058554e-03
   -2.63384194e-03  -6.24438860e-02  -1.47555592e-02   3.70746595e-03]
 [  2.56547588e-03  -2.71672499e-03   2.67603016e-03   9.06727463e-03
    6.18933607e-03  -9.63265076e-03  -8.42372403e-02  -5.56072034e-03
    5.77513911e-02  -9.72542539e-03   2.49791238e-02  -1.47476816e-03
   -6.66809920e-03   1.81750637e-02  -3.57505381e-02  -1.53671030e-03]
 [ -2.95711812e-02  -6.35353150e-03  -1.10145528e-02  -2.07951106e-02
    2.22425908e-03  -1.62230176e-03  -8.46893638e-02  -2.21570525e-02
    7.50578791e-02  -3.77294142e-03   3.51734385e-02  -6.86818312e-05
   -6.47739880e-03   1.97745562e-02  -2.54798103e-02   2.09595468e-02]
 [  7.39632398e-02   5.07911900e-03   3.35139073e-02   7.59480968e-02
    1.53927300e-02  -2.76881717e-02  -8.58721435e-02   3.12412903e-02
    2.11886000e-02  -2.33162250e-02   3.20242043e-03  -4.59860219e-03
   -6.97493833e-03   1.52631514e-02  -5.95702566e-02  -5.15991747e-02]
 [ -6.61375979e-03  -1.49939554e-02   2.04165969e-02   2.05697957e-03
    2.63994616e-02  -7.30644097e-04  -8.52874443e-02  -1.15665337e-02
    5.40056713e-02  -7.35484948e-03  -1.89016256e-02   1.78775610e-03
   -1.13942809e-02  -2.19961945e-02  -2.56724749e-02   1.00265043e-02]
 [  2.79448088e-02  -9.39975143e-06   1.33201731e-02   2.55852640e-02
    1.00692483e-02  -1.47605464e-02  -8.40680376e-02   4.95109847e-03
    4.13267538e-02  -1.36581091e-02   6.50457246e-03  -2.42514978e-03
   -1.46393720e-02   3.60079599e-03  -4.44840901e-02  -1.49787795e-02]
 [ -5.14251972e-03  -7.45753245e-03   7.26949703e-03   7.89627526e-03
    1.22289052e-02  -6.29132567e-03  -8.49915743e-02  -8.04426707e-03
    6.12949021e-02  -8.74424446e-03   1.91135909e-02  -2.16097484e-04
   -2.25518015e-03   1.44831054e-02  -3.05037536e-02   2.34819367e-03]
 [  2.91825440e-02  -1.02555295e-02   3.53338458e-02   4.84523140e-02
    2.85203587e-02  -1.21490397e-02  -8.54464248e-02   1.16584999e-02
    4.08820659e-02  -1.56967994e-02  -8.46564304e-03  -8.83159155e-05
    3.06845037e-03   2.67027109e-03  -3.67336497e-02  -2.32829209e-02]
 [  3.16171534e-03  -9.89952683e-03   1.64039321e-02   3.69598391e-03
    2.04865076e-02  -4.47180960e-03  -8.48434344e-02  -8.56774393e-03
    4.91520576e-02  -8.63470230e-03  -1.48013979e-02   4.51175409e-04
   -1.72529705e-02  -2.02545915e-02  -3.19044590e-02   5.49735129e-03]
 [  1.21973138e-02  -5.94926067e-03   1.47044268e-02   1.34855090e-02
    1.58784501e-02  -8.75128713e-03  -8.46863091e-02  -2.91202636e-03
    4.74161878e-02  -1.07068904e-02  -2.81857443e-03  -7.28973828e-04
   -1.41586605e-02  -6.83921389e-03  -3.66542079e-02  -3.22471256e-03]
 [ -2.24848583e-01   1.13314033e-01   3.78783971e-01   1.57786250e-01
    6.52204975e-02   8.13368801e-03   1.65178046e-01   3.86913829e-02
    3.85554999e-01  -1.16522603e-01   1.04311094e-01  -1.24688838e-02
    1.77320912e-02  -1.35650352e-01  -2.88298041e-01  -2.48205259e-01]
 [  1.57471016e-01  -9.85154957e-02   3.36940438e-01  -1.60149321e-01
    1.13984838e-01   1.60508886e-01   2.66612526e-02   7.25934446e-01
   -1.64693356e-01  -7.27465823e-02  -2.72968858e-02  -2.62314230e-02
   -1.54597744e-01  -1.67199552e-01   2.96035528e-01  -7.95694664e-02]
 [  3.19657594e-01  -1.06493980e-02  -2.28910968e-01  -8.71954411e-02
   -6.77070469e-02  -1.68264270e-01   1.51736359e-03  -1.36168107e-01
   -1.60647616e-01   1.56946346e-01  -6.40816391e-02   1.51611298e-01
    3.27669978e-01   2.17470229e-01  -1.87053174e-01  -1.60205379e-01]
 [ -2.97902763e-01   1.11077957e-01   2.17581794e-01  -2.79087067e-01
    1.03930578e-01  -2.03445688e-01   6.32392988e-03  -6.79493090e-03
    1.83808342e-01   1.38323486e-01  -1.29926369e-01   1.35824904e-02
    1.04596969e-02  -7.10205212e-02   5.76732904e-02  -2.44037881e-02]
 [  2.12475192e-02  -2.14062817e-02  -9.18081254e-02   1.65240970e-02
    1.02464952e-01   4.72885408e-02  -2.16277450e-01   2.44125649e-02
   -5.38960658e-02  -2.17259482e-01   2.41033789e-02   7.17389733e-02
    1.81878656e-01   8.21858421e-02  -7.49477297e-02  -6.97158724e-02]
 [ -8.73483792e-02   1.30726144e-01  -1.15808904e-01  -3.64335090e-01
    7.12780833e-01  -1.76781055e-03   5.65654337e-02   1.94998190e-01
    5.27605191e-02  -1.84576496e-01  -6.48147091e-02   5.62085509e-02
   -1.53826147e-01   2.78972536e-01  -4.13928553e-02  -9.81034487e-02]
 [  1.96611598e-01   1.88203409e-01   2.35749736e-01   3.56323421e-02
   -1.27095103e-01  -2.59219974e-01  -2.09674969e-01   2.66856309e-02
   -3.03905219e-01  -9.33298618e-02   6.80467367e-01   3.97348963e-02
    3.34419399e-01   8.28409493e-02   2.73725949e-03  -3.35407823e-01]
 [  2.49155778e-02  -8.06806386e-02   1.10906377e-01  -3.23271155e-01
    6.78365380e-02  -6.28690869e-02  -9.02914628e-02  -1.65857598e-02
    1.78691953e-01   7.38363527e-03  -9.02651343e-03   2.56336257e-02
    1.44112706e-01  -2.20357180e-02  -1.42974228e-01   5.07936813e-02]
 [  1.16938658e-01  -6.45243704e-01   3.25010605e-02  -1.29429728e-01
    2.48845965e-01  -2.57657558e-01  -1.06592551e-01  -2.95252874e-02
   -7.44834840e-02  -3.82686764e-01  -6.53013140e-02  -5.03790751e-02
   -6.61287457e-02  -6.86548138e-03   1.47529677e-01  -2.49273717e-01]
 [  7.69593954e-01   4.07224223e-02   1.91148790e-03  -3.31348297e-03
    2.06682906e-02  -1.22116148e-01  -5.46201207e-02   4.46465574e-02
    4.60807860e-01  -1.03812211e-03  -1.20255200e-03   8.20928812e-03
    2.16906127e-02   4.10840660e-03  -4.84280616e-01  -2.32350500e-03]
 [ -1.14249801e-02  -5.66346524e-03   7.18368888e-02   6.63308278e-02
    6.55864831e-03  -3.82811204e-02   2.42524184e-02   7.70916464e-03
    2.36114904e-01   1.46077871e-02   2.34804582e-02  -4.56868298e-03
    8.14404964e-01   3.45149972e-02  -1.39173269e-01  -1.56916510e-02]
 [ -3.76493894e-02   7.98923820e-02   2.27375135e-01  -2.38228261e-01
    7.63742700e-02  -6.19732663e-02   9.66037586e-02   2.07471009e-02
    8.89178216e-02  -8.16742331e-02  -4.97954041e-02   6.73018217e-01
    7.81833529e-02  -6.43952042e-02  -9.27095041e-02   5.89568838e-02]
 [ -5.95414937e-02  -2.90665310e-02   3.02114844e-01   6.20975643e-02
   -2.56346650e-02  -1.44400880e-01   5.73008776e-01   4.81787995e-02
    3.52618605e-01   1.01889923e-01  -6.35491908e-02   4.27001789e-02
    4.39637750e-01   1.24223687e-01  -9.28453356e-02   1.85769647e-01]
 [  1.25265624e-02  -3.65998447e-02  -1.06009454e-01   8.42343271e-02
   -5.81859685e-02   2.38709431e-03   6.87387958e-02   2.62119710e-01
   -3.67690086e-01  -3.27636391e-01   7.46578425e-02   6.72580749e-02
    4.87690568e-01   6.54841214e-02  -2.33288318e-01  -1.77436933e-01]
 [  2.10542366e-01   5.06369993e-02   2.45549396e-01  -7.54215792e-02
   -2.72392213e-01   1.77414659e-02  -1.63524538e-01   2.01544598e-01
   -1.40380830e-01  -1.48799047e-01  -9.76493731e-02   2.83292215e-02
    1.59539673e-02  -5.77663124e-01   2.28616461e-01   1.65495738e-01]
 [ -6.99840579e-03   2.62473319e-02  -1.56756371e-01  -1.08775713e-01
    2.68588937e-03  -8.68281201e-02   4.76007909e-02  -3.44849601e-02
   -5.37210405e-01  -9.63675305e-02   4.15293053e-02  -1.73461586e-01
   -1.58799827e-01  -1.12741396e-01  -9.66513008e-02  -2.01034039e-01]]
Eve
[[ -3.00468504e-01   3.33227336e-01  -2.15172082e-01   1.49239987e-01
    3.42970669e-01  -6.53130980e-03   2.11427048e-01   8.39963481e-02
   -2.77996082e-02  -4.48080187e-04  -2.28353396e-01  -2.54882630e-02
   -1.32763773e-01  -1.98007122e-01  -9.75520909e-02  -4.20704111e-02]
 [ -2.20548902e-02   3.47226679e-01  -4.34559554e-01  -7.58830905e-02
    1.47402585e-01   5.23540415e-02   1.15080364e-01  -1.53387830e-01
   -7.17295557e-02   4.85097796e-01  -1.99304700e-01   6.40814658e-03
   -1.68785259e-01   9.40770507e-02   1.25214115e-01   2.42235422e-01]
 [ -1.50365189e-01   1.31680325e-01  -4.36150610e-01   9.71230268e-02
    3.03666770e-01   1.46878451e-01   1.51517376e-01   1.86257377e-01
   -6.07132092e-02   3.02650362e-01  -4.49887551e-02   7.36403046e-03
   -2.13089943e-01   4.47194129e-01   8.87745172e-02   2.87115216e-01]
 [ -4.32725027e-02   3.18601340e-01   3.51633388e-03   1.52837083e-01
    2.06675738e-01  -1.73213035e-01   1.29596412e-01  -4.32740338e-02
    1.27730739e+00   1.46398738e-01   1.20300502e-01   8.66331812e-03
   -2.09007248e-01   5.42902946e-01   9.43180695e-02   1.49250790e-01]
 [ -1.19717136e-01   1.88834995e-01  -1.34003371e-01   2.62903553e-02
    1.86496917e-02   8.47191289e-02   1.30217224e-01   7.11099952e-02
   -3.26157524e-03   2.35916138e-01  -9.95678380e-02   1.97216887e-02
   -1.01785742e-01   1.67715609e-01  -2.64836801e-03   8.53893235e-02]
 [ -5.57398498e-02   1.65766552e-01  -1.05145462e-01  -1.77576523e-02
    1.94400147e-01   6.52123392e-02   2.09257826e-01   1.89538840e-02
   -1.25068082e-02   2.67366648e-01  -1.27309218e-01   3.06260902e-02
   -1.49792939e-01   1.68336660e-01  -5.22077084e-04   9.61116701e-02]
 [  1.69630781e-01   6.95811957e-02  -2.71818548e-01   2.21613660e-01
    8.83688033e-02   4.09180284e-01   1.58498302e-01   2.98399001e-01
   -3.07043623e-02  -1.28068021e-02   6.47058412e-02   1.36691168e-01
   -2.97451526e-01   2.20523238e-01   7.69003749e-01  -4.69118655e-02]
 [ -1.87831044e-01   1.57515928e-01  -2.26447493e-01   1.18611015e-01
   -9.95297506e-02   1.34609118e-01   1.54880270e-01   5.78590557e-02
   -4.06578137e-03   3.37379813e-01  -1.37260705e-01  -6.37178589e-03
   -1.98728055e-01   4.57100183e-01  -1.01398319e-01   8.42482895e-02]
 [ -1.41962603e-01   2.16022268e-01  -3.83415073e-01   1.22328177e-01
    1.92642808e-01   8.07412639e-02   1.24760628e-01   2.23922133e-02
   -4.68712226e-02   2.35024944e-01  -1.43438518e-01  -1.33152877e-03
   -2.04543531e-01   1.71961427e-01   8.23025256e-02   9.09114257e-02]
 [ -3.70401685e-04   1.17313176e-01  -7.71251321e-02   7.80856311e-02
    2.12805457e-02   2.08881907e-02  -3.24773304e-02   2.15534642e-01
   -4.98640463e-02  -8.95346701e-02   1.22435331e+00   1.10653833e-01
    3.45895529e-01  -2.37549059e-02   1.47965431e-01   4.94524799e-02]
 [  2.86235772e-02   1.24375604e-01  -2.13288829e-01  -2.59191003e-02
    2.93498095e-02   6.12024739e-02   4.19711173e-02  -3.16722877e-02
   -3.20895799e-02   4.22999859e-01  -6.47118688e-02   7.46206194e-02
   -1.51645005e-01   2.32526988e-01   1.25286981e-01   1.67421177e-01]
 [ -7.83405676e-02   1.87460512e-01  -1.90542459e-01   5.38036413e-03
    9.58747044e-02   1.06282525e-01   2.08795786e-01  -5.83313219e-02
   -5.36061674e-02   3.30871522e-01  -2.41924405e-01   4.09816839e-02
   -2.35617325e-01   5.48727624e-02   4.07022312e-02   4.13899869e-02]
 [ -3.97575259e-01   4.83672321e-01  -3.59812528e-01   1.56081587e-01
    4.36260492e-01   4.21115071e-01   7.12475181e-01   2.06430525e-01
   -5.96581511e-02   4.05680716e-01  -4.16025400e-01  -1.89791003e-03
   -5.17970562e-01   3.98303628e-01   7.21084774e-02   5.94153181e-02]
 [ -3.35626267e-02   1.99094396e-02  -4.62853372e-01   3.63990553e-02
    4.38831508e-01   7.60175064e-02   7.92266205e-02   7.83097744e-02
   -9.34355706e-02   1.70363873e-01  -1.03628589e-02  -2.57432945e-02
   -1.66957900e-01   2.97643840e-01   1.32157788e-01   3.06276172e-01]
 [ -3.48966345e-02   1.85034946e-01  -2.34112754e-01   3.59720364e-02
    2.27688938e-01   1.01504616e-01   1.53242528e-01   4.15837578e-02
   -7.81716928e-02   2.28426427e-01  -1.33188158e-01   6.25786334e-02
   -1.86535075e-01   1.49714993e-02   2.10937887e-01   5.37218116e-02]
 [ -1.75670683e-01   6.11215115e-01  -3.33601922e-01   5.78251183e-01
    1.21847041e-01  -6.51197806e-02   2.39183411e-01  -9.09911171e-02
   -2.73199882e-02   6.95478842e-02  -1.16787799e-01  -4.80055101e-02
   -1.59114346e-01   3.47193390e-01   9.12765041e-02  -5.36417186e-01]
 [ -9.67455924e-01  -1.99288264e-01   1.33019641e-01   7.87714720e-02
    4.19523448e-01  -1.82398513e-01   1.84158102e-01  -2.37065122e-01
   -3.73346627e-01   1.28434455e+00   4.35696334e-01   3.56227048e-02
   -7.18979120e-01   5.55234790e-01   5.86750865e-01   6.33607686e-01]
 [ -6.90985382e-01  -1.25771046e+00   2.50589401e-01  -2.15055242e-01
   -8.33353579e-01   3.93554747e-01  -1.15504079e-01   3.15989494e-01
    1.52186409e-01  -1.03187728e+00  -4.00957853e-01   1.83835288e-03
    5.27841568e-01  -8.56977105e-01   4.64236945e-01  -2.69354701e-01]
 [  2.97570825e-01  -5.33306412e-02   2.56653060e-03  -3.24825406e-01
   -3.36308807e-01  -1.67091206e-01   2.36072168e-01  -8.70054960e-03
    3.64661574e-01  -5.10055423e-01   4.01473880e-01  -6.33052886e-02
    3.59942347e-01  -5.76415241e-01  -1.04337931e-01  -8.11527550e-01]
 [ -7.47419417e-01   9.32649672e-01  -1.63500533e-01   9.91978496e-02
    1.01034296e+00   4.55354214e-01  -4.88279969e-01   5.47814786e-01
    2.37275913e-01   1.64291418e+00  -2.11984754e-01   1.56616177e-02
   -7.49772429e-01   1.23706865e+00   2.68204123e-01   6.04637742e-01]
 [  4.14986946e-02  -8.19444656e-01   1.23352014e-01  -1.39141843e-01
   -5.84042728e-01   2.47496992e-01   7.39595369e-02   2.79639572e-01
    4.58855327e-04  -5.36709905e-01   3.04285675e-01  -4.85795997e-02
    1.83492973e-01  -6.64269030e-01  -3.26511040e-02  -2.62398958e-01]
 [  3.35269481e-01  -2.79906392e-01  -7.81339705e-02   2.42207021e-01
   -2.25281827e-02   1.20061171e+00   7.93786719e-02   5.24639666e-01
   -1.36599869e-01   1.01711416e+00   3.84859815e-02  -6.16248660e-02
   -4.44871873e-01   2.87209690e-01  -7.48880148e-01   1.63379520e-01]
 [  9.73838381e-03  -7.07336247e-01  -2.42224690e-02  -1.36205539e-01
   -8.77748728e-01   3.87407802e-02   7.32688725e-01  -3.43169481e-01
   -1.26181126e-01  -8.00057411e-01   3.76042962e-01   2.50305813e-02
    6.36250913e-01  -8.65233600e-01  -7.00859725e-02  -4.45890993e-01]
 [ -1.03145316e-01   3.87220234e-01   2.17021909e-03   1.87473178e-01
    2.67599612e-01   5.74925601e-01  -1.51798218e-01   3.98518860e-01
    3.05325866e-01   7.72302866e-01  -1.40469819e-01  -4.47038386e-04
   -3.30754876e-01   3.72866303e-01  -8.15642625e-02   2.40406562e-02]
 [  1.99750856e-01  -1.98861048e-01  -1.69427499e-01  -1.60132587e-01
   -4.69862968e-01   2.61361599e-01   1.11284209e-02   2.89494365e-01
    9.04846132e-01  -1.91437513e-01  -2.94726580e-01   8.83695111e-02
    1.28418701e-02  -3.95833135e-01  -1.09863237e-01  -3.31159562e-01]
 [ -1.28634468e-01   9.05016959e-01  -2.00572312e-01   1.15908027e+00
    1.06270444e+00   2.02263117e-01   1.04627952e-01  -3.81774344e-02
    9.11044553e-02  -3.04414004e-01  -5.24188429e-02  -1.67183895e-02
   -3.55147898e-01   1.23903000e+00   1.50328325e-02   1.02992451e+00]
 [ -2.84416974e-01   6.48735762e-01  -2.42787838e-01   6.27950430e-01
    6.86048687e-01   1.49180844e-01   1.61179319e-01  -1.16108306e-01
    6.64038071e-03   8.04959595e-01   1.46994030e+00  -1.11948580e-01
   -5.44906795e-01   5.87240040e-01  -1.20888233e-01   7.34680831e-01]
 [  1.01277560e-01  -2.32934266e-01   6.60929978e-02   1.26385108e-01
    7.67189683e-03   1.90628935e-02   6.34615421e-02   1.28846735e-01
   -1.83167219e-01  -2.25917250e-02  -8.84474441e-03  -1.20315351e-01
    2.91244686e-02  -2.47287050e-01   1.52986676e-01  -1.66322693e-01]
 [ -6.80428386e-01   9.73157823e-01  -2.26604149e-01   2.77606547e-01
    1.07221532e+00   5.01718760e-01  -1.18105583e-01   1.67415276e-01
    2.48902753e-01   1.67714071e+00   7.02532411e-01  -1.41447484e-02
   -1.21037912e+00   1.08237851e+00  -1.58358127e-01   8.37719440e-01]
 [  1.34064425e-02  -9.45799887e-01   1.75846994e-01  -1.01004995e-01
   -7.75290370e-01  -8.41544650e-04   3.20408314e-01   2.56078303e-01
    2.27559105e-01  -8.26693356e-01   7.38514841e-01  -5.75103611e-02
    5.51431239e-01  -4.88277018e-01  -3.01877618e-01  -6.73626184e-01]
 [ -4.06573385e-01  -4.16922361e-01   7.10008368e-02  -3.73800278e-01
   -2.39782915e-01  -6.66832030e-01   2.03716695e-01  -2.59317905e-01
   -4.11887243e-02   1.03397042e-01  -1.15153253e-01  -4.70774248e-02
    2.65908360e-01   4.53254096e-02   8.74730229e-01  -3.01045716e-01]
 [  1.27362594e-01   5.52000046e-01  -1.69822171e-01   4.33999971e-02
    4.58661675e-01   2.89032996e-01   9.86556262e-02   3.43377203e-01
   -1.15286760e-01   5.16796172e-01  -7.20188171e-02   1.10752583e-01
    2.33932473e-02   2.01187789e-01   1.47038296e-01  -6.62953436e-01]
 [  1.89897083e-02  -1.90291911e-01  -1.15946114e-01   5.52796423e-01
   -6.15625083e-02  -3.01839709e-01  -3.69613439e-01  -2.58501858e-01
    1.82583630e-01  -9.36484694e-01  -5.35127282e-01   2.16106042e-01
   -1.22889087e-01  -4.94131953e-01   3.68524268e-02  -4.54974324e-01]
 [ -6.28968000e-01   5.20031415e-02  -4.96439412e-02  -1.53615057e-01
    7.60057718e-02   1.98051423e-01  -2.01265491e-03  -1.89131483e-01
    1.16940868e+00   3.52108270e-01   1.54357836e-01  -3.30820978e-02
    2.50384122e-01   1.44506201e-01   2.50584662e-01   4.27883714e-02]
 [ -6.34374678e-01   3.78908396e-01   1.52238771e-01   2.28819340e-01
    3.95174176e-01   6.71612561e-01  -6.81888282e-01  -3.86064559e-01
    3.77355039e-01   1.69430375e-01   3.44129384e-01  -1.06901843e-02
    1.91889226e-01   1.46358475e-01   1.63747996e-01   1.79968670e-01]
 [ -5.28916836e-01  -1.22365966e-01  -2.99052805e-01   1.62787259e-01
    1.82493940e-01   3.35893124e-01  -6.05528280e-02  -7.31909275e-01
    1.34263605e-01  -2.87343979e-01   3.01206876e-02   1.00676222e-02
   -6.61750361e-02  -1.22460015e-01  -3.96486372e-01   2.93382376e-01]
 [ -5.43389320e-01   2.24182203e-01   1.50048316e-01  -1.46528557e-01
    1.26604199e-01   6.21656537e-01  -3.28142256e-01  -2.60154724e-01
    1.81482166e-01   3.90207976e-01   5.17745018e-01  -2.05248117e-01
    3.50560009e-01   1.90876365e-01   5.53858340e-01   2.55060911e-01]
 [  1.26210615e-01  -8.95785019e-02  -1.85802147e-01   3.55755597e-01
   -3.54658276e-01  -3.12245250e-01   2.15546414e-01  -2.10511893e-01
   -3.65109593e-01  -1.00591607e-01  -2.48000585e-02   6.16002269e-02
    3.88063878e-01  -4.11788076e-01  -7.20184892e-02  -1.60776272e-01]
 [ -2.65275896e-01   1.46238399e+00  -2.30802044e-01   3.30792457e-01
    1.54037428e+00   2.51913190e-01  -2.61189733e-02  -4.31435853e-02
   -4.35811318e-02   9.71894443e-01   3.36820483e-01  -2.72129755e-02
   -1.81064534e+00   1.29451621e+00   8.66482928e-02   1.54340908e-01]
 [  1.77222546e-02  -6.36365712e-01   4.76815812e-02  -4.68000948e-01
   -3.07792068e-01  -9.70069133e-03   7.15937540e-02  -4.67259318e-01
    5.43055609e-02  -5.28756201e-01   1.98142290e-01  -7.31916800e-02
    1.57478407e-01  -6.18760109e-01  -1.31982848e-01  -6.69417560e-01]
 [ -3.21471781e-01   1.45680332e+00  -2.01378390e-01   8.90565455e-01
    1.02399576e+00   4.82633680e-01   7.04347864e-02  -4.91065485e-03
    2.40455881e-01   8.86581063e-01   4.24417220e-02   2.17092559e-02
    1.41576394e-01   1.18269932e+00  -2.06282482e-01   1.58543181e+00]
 [  7.73120373e-02   3.64704847e-01  -1.14623532e-01   3.38702619e-01
   -1.51180495e-02   5.14552779e-02   6.59851506e-02  -1.97071984e-01
   -2.32531093e-02  -1.64738614e-02   2.52573360e-02   4.62414622e-02
    2.21681163e-01   4.27706875e-02   5.69497757e-02   2.23983359e-02]
 [  4.56572950e-01  -1.61034480e-01  -8.29827264e-02   2.20873095e-02
   -2.85839234e-02  -3.07998568e-01   1.04093695e+00   2.47604832e-01
    2.28654340e-01  -6.65789023e-02   2.67633408e-01  -1.20097201e-03
    2.81303853e-01  -2.39064842e-01  -7.15106249e-01   8.22995882e-03]
 [ -9.22223032e-02  -1.59091473e-01  -3.52449231e-02  -2.09580436e-01
   -2.62675703e-01  -9.79420170e-02  -2.39388511e-01   9.55567211e-02
    1.68844819e-01  -1.83957160e-01   4.36762609e-02   1.21911258e-01
    9.18903351e-02  -3.65922838e-01  -6.02545030e-02   1.91038385e-01]
 [  1.06048629e-01   4.34067398e-01  -3.02495174e-02   5.05695999e-01
    2.46872887e-01  -5.39275222e-02  -7.27820620e-02   2.83816516e-01
   -2.08257996e-02  -5.75780086e-02  -5.79075873e-01  -2.72822306e-02
    9.48967636e-02   3.87649328e-01   3.52233142e-01  -4.46496904e-03]
 [ -1.19741105e-01  -8.22860748e-02  -5.28381951e-02  -5.94669953e-02
   -7.65388682e-02   2.91161865e-01  -7.54331350e-01   3.46011609e-01
    2.21751377e-01  -2.27259040e-01  -2.49866620e-01  -4.58298326e-02
    1.52808338e-01   1.91494962e-03   9.72135961e-01  -2.93659896e-01]
 [ -2.92653799e-01   1.12599933e+00  -5.84373772e-01   1.07621002e+00
    1.07368290e+00   3.10596317e-01   4.23302799e-01  -2.88602978e-01
   -3.60764265e-01   5.88290572e-01  -7.23960102e-02  -2.99010519e-02
    4.33174878e-01   9.96868849e-01   2.28660017e-01   1.13197875e+00]
 [ -2.01077417e-01  -6.30538702e-01  -1.64721683e-01   9.25283656e-02
   -4.80239570e-01   2.84484979e-02   3.18345755e-01  -6.29346848e-01
   -4.09764916e-01  -7.75088191e-01   4.88749802e-01  -1.07248180e-01
   -2.09568679e-01  -5.37603617e-01  -5.26022092e-02  -4.31651175e-01]]