Alice
[[ -2.66190642e-03  -2.17194995e-03   7.15872599e-03  -2.41853530e-03
    2.44105561e-03  -3.82124307e-03   2.61860760e-03  -3.17188725e-03
   -1.76326581e-03   2.24087566e-01  -1.56935898e-03  -3.13097169e-03
   -2.12811828e-01   3.81657132e-03   2.46544858e-03   2.07016873e-03]
 [ -2.67235213e-03  -2.17392761e-03   7.42430799e-03  -2.48408318e-03
    2.35020998e-03  -3.62250512e-03   2.62619858e-03  -3.14228446e-03
   -1.73493102e-03   2.24157795e-01  -1.62253133e-03  -3.16304760e-03
   -2.12706745e-01   3.77675425e-03   2.34990055e-03   2.10557133e-03]
 [ -2.67152325e-03  -2.23790575e-03   6.56905910e-03  -2.50923354e-03
    2.45992513e-03  -3.82444332e-03   2.64704111e-03  -3.16168019e-03
   -1.82504673e-03   2.23925039e-01  -1.66613155e-03  -3.19997524e-03
   -2.12169692e-01   3.83853563e-03   2.42932583e-03   2.08858144e-03]
 [ -2.57791998e-03  -2.10485421e-03   6.93749171e-03  -2.36668554e-03
    2.31708144e-03  -3.51599930e-03   2.50219787e-03  -3.01567628e-03
   -1.69032847e-03   2.23786548e-01  -1.52622501e-03  -3.05003463e-03
   -2.13113502e-01   3.79986293e-03   2.30607390e-03   1.99818611e-03]
 [ -2.47953669e-03  -2.22664652e-03   7.43131712e-03  -2.45289505e-03
    2.36776052e-03  -3.58268246e-03   2.51729391e-03  -2.91242870e-03
   -1.90907728e-03   2.23732233e-01  -1.78356993e-03  -3.03381146e-03
   -2.12786436e-01   3.89638916e-03   2.24626204e-03   1.99611997e-03]
 [ -2.43455474e-03  -2.09103827e-03   7.28163961e-03  -2.37902487e-03
    2.22671288e-03  -3.41177569e-03   2.43219361e-03  -2.85441685e-03
   -1.71327940e-03   2.24314004e-01  -1.62557769e-03  -2.91860523e-03
   -2.13380963e-01   3.98344034e-03   2.13322858e-03   1.96848414e-03]
 [ -2.89158849e-03  -2.38783332e-03   6.69000717e-03  -2.64968397e-03
    2.63208780e-03  -3.92496074e-03   2.82195956e-03  -3.32736433e-03
   -1.99180143e-03   2.23510861e-01  -1.88441365e-03  -3.32145882e-03
   -2.11946219e-01   3.92837683e-03   2.66292249e-03   2.34630494e-03]
 [ -2.68655876e-03  -2.15308298e-03   7.02949893e-03  -2.48051761e-03
    2.36206432e-03  -3.65760899e-03   2.62685772e-03  -3.17242066e-03
   -1.73767365e-03   2.23560959e-01  -1.60558138e-03  -3.18527874e-03
   -2.12194592e-01   3.89312464e-03   2.36663967e-03   2.10253266e-03]
 [ -2.55293539e-03  -2.10000970e-03   6.97427429e-03  -2.37199431e-03
    2.28023482e-03  -3.54858907e-03   2.50082556e-03  -2.99383444e-03
   -1.70180050e-03   2.23922536e-01  -1.59049209e-03  -2.97975866e-03
   -2.12826118e-01   3.64620960e-03   2.31435942e-03   2.02692160e-03]
 [ -2.56732083e-03  -2.10399576e-03   7.47066503e-03  -2.34990753e-03
    2.33564782e-03  -3.62234004e-03   2.49021966e-03  -3.02723143e-03
   -1.68574788e-03   2.24065736e-01  -1.55827659e-03  -3.01805115e-03
   -2.12532327e-01   3.66667612e-03   2.32466357e-03   1.98914483e-03]
 [ -2.69704522e-03  -2.09070486e-03   6.93336502e-03  -2.35171895e-03
    2.42041773e-03  -4.12415061e-03   2.54707271e-03  -3.16580827e-03
   -1.65262318e-03   2.23628521e-01  -1.43198727e-03  -3.12655885e-03
   -2.12097809e-01   3.84991174e-03   2.48375162e-03   2.03146529e-03]
 [ -2.69241724e-03  -2.35613598e-03   6.99011656e-03  -2.63313856e-03
    2.44113454e-03  -3.56487744e-03   2.70156516e-03  -3.07235750e-03
   -2.00178195e-03   2.23595738e-01  -2.02726619e-03  -3.16360360e-03
   -2.13155821e-01   3.93954059e-03   2.35202070e-03   2.27045501e-03]
 [ -3.37481406e-03  -1.07059609e-02  -9.76710841e-02  -7.53782457e-03
    9.10479296e-03   1.45791974e-02   4.86290827e-03   1.94177555e-03
   -1.35192927e-02   2.09327951e-01  -2.22919341e-02   2.03138730e-03
   -2.26405159e-01  -1.16599817e-02   7.70547753e-03   1.17005585e-02]
 [ -2.57784873e-03  -2.11253506e-03   7.26811308e-03  -2.40686745e-03
    2.32016249e-03  -3.74303409e-03   2.54305406e-03  -3.07172863e-03
   -1.70027616e-03   2.23845527e-01  -1.53366826e-03  -3.08504025e-03
   -2.12154433e-01   3.95777682e-03   2.30273488e-03   1.99712790e-03]
 [ -2.78891553e-03  -2.36792373e-03   6.83709653e-03  -2.65401625e-03
    2.51530460e-03  -3.70210246e-03   2.73933774e-03  -3.20028840e-03
   -1.97267998e-03   2.23665580e-01  -1.91153481e-03  -3.24252527e-03
   -2.12438151e-01   3.97529360e-03   2.47715204e-03   2.25976086e-03]
 [ -2.61891051e-03  -2.15921830e-03   7.39556970e-03  -2.44711828e-03
    2.34412611e-03  -3.70844128e-03   2.58584204e-03  -3.10925185e-03
   -1.72940444e-03   2.23870203e-01  -1.58281007e-03  -3.18307779e-03
   -2.12141484e-01   3.74899036e-03   2.27097981e-03   2.03141407e-03]
 [ -2.10889387e+00  -2.15321803e+00  -1.68924555e-01  -1.76629627e+00
    2.04336643e+00  -2.24935174e+00   1.91271555e+00  -2.07631850e+00
   -1.90405202e+00   2.26564431e+00  -2.14870787e+00  -1.77746606e+00
    4.09009516e-01   2.59186149e+00   1.84920657e+00   2.08533835e+00]
 [ -1.74117434e+00  -1.97195935e+00   3.71330380e-01  -2.07487607e+00
    2.30386710e+00  -1.73369086e+00   1.82480538e+00  -2.33949184e+00
   -1.69587994e+00   1.76674259e+00  -2.06087804e+00  -1.93091607e+00
    2.97193527e-01   2.24638820e+00   2.28943062e+00   2.23652577e+00]
 [ -2.31865883e+00  -2.03571224e+00   1.73715115e-01  -1.86689734e+00
    1.88791203e+00  -2.08539724e+00   2.17630386e+00  -2.10238624e+00
   -2.39341998e+00   1.92899299e+00  -2.00119424e+00  -2.12988710e+00
    3.18657756e-01   2.08253741e+00   2.00034356e+00   2.33278680e+00]
 [ -2.26836610e+00  -2.14418936e+00  -1.55250087e-01  -2.05651617e+00
    1.71342182e+00  -1.95446503e+00   1.92946088e+00  -2.35368848e+00
   -2.24033308e+00   2.24198747e+00  -2.02953005e+00  -2.42286134e+00
    1.31125927e-01   2.72930264e+00   1.87632394e+00   1.81129599e+00]
 [ -1.79501164e+00  -1.75323570e+00  -1.00104439e+00  -2.11161566e+00
    2.25233507e+00  -1.93351138e+00   1.52512705e+00  -1.64884400e+00
   -1.75939727e+00   2.51792169e+00  -1.73322999e+00  -2.14844823e+00
    2.17637077e-01   2.90983677e+00   1.73451865e+00   2.10182881e+00]
 [ -2.33012128e+00  -2.09611297e+00  -2.31113195e-01  -2.01879716e+00
    1.88645244e+00  -1.83977783e+00   2.20096111e+00  -2.29340172e+00
   -1.74247766e+00   2.15898418e+00  -2.13343143e+00  -1.76860154e+00
    5.62109768e-01   2.38685632e+00   1.78663278e+00   1.98347878e+00]
 [ -1.96405900e+00  -2.11514521e+00   4.37674403e-01  -2.39029765e+00
    2.13671327e+00  -2.28862023e+00   2.04318309e+00  -2.11896658e+00
   -2.11129951e+00   2.16254425e+00  -2.13951182e+00  -2.27462053e+00
    4.66391623e-01   1.89209747e+00   2.25475216e+00   2.00198936e+00]
 [ -4.67566192e-01  -4.60258245e-01   2.55172383e-02  -4.65696156e-01
    4.70884979e-01  -4.68904883e-01   4.56512183e-01  -4.57993835e-01
   -4.58612174e-01   4.21514690e-01  -4.57785487e-01  -4.68656749e-01
    5.82781173e-02  -6.13848865e-01   4.59259927e-01   4.65049803e-01]
 [ -2.79130411e+00  -2.95483160e+00  -1.01849176e-02  -2.76467180e+00
    2.78529096e+00  -2.74107361e+00   3.06505060e+00  -2.93468618e+00
   -3.06887364e+00   2.11173248e+00  -2.88243270e+00  -2.69398355e+00
    3.43126178e-01   1.94532871e+00   3.08663225e+00   2.85833240e+00]
 [ -1.92727840e+00  -2.19720268e+00   2.13915274e-01  -1.75042188e+00
    1.99942672e+00  -2.34011102e+00   2.30187607e+00  -2.02251434e+00
   -2.08280158e+00   2.25070381e+00  -2.22220111e+00  -1.80252159e+00
    2.92558253e-01   1.91593421e+00   2.24194074e+00   2.28809309e+00]
 [ -1.84763420e+00  -1.73664832e+00  -1.87707528e-01  -1.87280107e+00
    2.11929440e+00  -2.00525331e+00   1.92067075e+00  -1.83265364e+00
   -2.19244194e+00   2.04267931e+00  -1.89004612e+00  -1.76685596e+00
    6.30423665e-01   2.62834215e+00   1.73801732e+00   2.00581622e+00]
 [ -2.14860058e+00  -2.01845074e+00   3.50199997e-01  -2.13082862e+00
    2.28918719e+00  -1.79397857e+00   2.28856850e+00  -1.79045475e+00
   -2.21289372e+00   1.69544733e+00  -1.90260720e+00  -2.27357388e+00
    5.17899990e-01   1.99384964e+00   1.81905937e+00   2.30143166e+00]
 [ -2.35868073e+00  -1.80969751e+00   3.24173719e-02  -2.28460288e+00
    1.75769556e+00  -2.12840247e+00   1.72643268e+00  -2.20461035e+00
   -2.22750854e+00   2.22578645e+00  -2.31880617e+00  -1.98947787e+00
    4.65329319e-01   2.61312747e+00   2.05271983e+00   1.88980782e+00]
 [ -2.21265650e+00  -2.00773478e+00  -2.81002432e-01  -2.28712487e+00
    2.03682256e+00  -2.21659231e+00   1.92410922e+00  -1.69411409e+00
   -2.05422640e+00   2.02345991e+00  -1.96907103e+00  -2.01897740e+00
    7.96573013e-02   2.18342090e+00   2.27289057e+00   1.60288715e+00]
 [ -1.80899525e+00  -1.96404684e+00   2.19365612e-01  -2.24255276e+00
    1.92270744e+00  -2.19079661e+00   2.18301582e+00  -2.13394070e+00
   -1.84509611e+00   2.08369255e+00  -2.02010369e+00  -2.38816690e+00
    6.58022821e-01   2.46878886e+00   2.03882265e+00   1.78326690e+00]
 [ -1.85603261e+00  -2.25346160e+00  -5.03990769e-01  -1.77007520e+00
    2.23895264e+00  -1.99842572e+00   2.02539325e+00  -1.70230484e+00
   -1.55995214e+00   2.12688828e+00  -1.68501937e+00  -2.17814493e+00
    8.17995071e-02   2.66925550e+00   1.97393763e+00   2.07782483e+00]]
Bob
[[  2.84000556e-03   2.13718158e-03   2.08618958e-03  -2.79248110e-03
   -3.69828707e-03   2.65943026e-03  -1.93274149e-03   2.12019280e-01
   -9.55125317e-03   2.24435353e-03  -2.95894220e-03  -1.96344452e-03
   -2.72097182e-03   2.53331847e-03   2.58919736e-03  -2.98698642e-03]
 [  2.72080279e-03   2.00883346e-03   1.89745636e-03  -2.68989033e-03
   -3.77851701e-03   2.53968220e-03  -1.66734436e-03   2.11458623e-01
   -9.46000591e-03   2.07668915e-03  -2.93240137e-03  -1.81390287e-03
   -2.64947698e-03   2.35472992e-03   2.51893443e-03  -2.93086958e-03]
 [  2.73953006e-03   2.02842057e-03   1.97149534e-03  -2.70480243e-03
   -3.71976360e-03   2.56264466e-03  -1.82040827e-03   2.12986827e-01
   -9.84320138e-03   2.16636085e-03  -2.88749696e-03  -1.85932638e-03
   -2.65720719e-03   2.42207269e-03   2.51265429e-03  -2.89977272e-03]
 [  2.55133864e-03   1.88436417e-03   1.81507552e-03  -2.54760263e-03
   -3.53507791e-03   2.40547606e-03  -1.68436172e-03   2.08070204e-01
   -9.20059253e-03   2.09692703e-03  -2.73439358e-03  -1.71427452e-03
   -2.47152732e-03   2.27855984e-03   2.32134201e-03  -2.76606437e-03]
 [  2.67859362e-03   1.96955563e-03   1.87444442e-03  -2.61427625e-03
   -3.68562806e-03   2.51381984e-03  -1.68190058e-03   2.11866558e-01
   -9.51489341e-03   2.21759290e-03  -2.85801361e-03  -1.77110336e-03
   -2.61200150e-03   2.28842860e-03   2.46007950e-03  -2.85362382e-03]
 [  2.74899858e-03   1.96695561e-03   1.90651335e-03  -2.66277837e-03
   -3.79244005e-03   2.57341191e-03  -1.64295000e-03   2.08473206e-01
   -9.23884939e-03   2.13521230e-03  -2.89877132e-03  -1.77906628e-03
   -2.62682349e-03   2.35380442e-03   2.47034524e-03  -2.92188977e-03]
 [  9.62705293e-04   8.88306461e-03   1.06195742e-02  -1.54323352e-03
    1.34761678e-02   2.57311598e-03  -1.89971663e-02   2.33803451e-01
    1.20894536e-01   1.21213673e-02   1.68992585e-04  -1.16858883e-02
   -2.79930001e-03   5.07214433e-03   4.54233913e-03   1.88317429e-03]
 [  2.70075817e-03   2.02610367e-03   2.01939768e-03  -2.65912712e-03
   -3.67604895e-03   2.54254160e-03  -1.89685111e-03   2.12860823e-01
   -9.27091576e-03   2.15627463e-03  -2.83224322e-03  -1.91223167e-03
   -2.61396496e-03   2.44567543e-03   2.49012676e-03  -2.85477610e-03]
 [  2.68425420e-03   1.94630341e-03   1.88232993e-03  -2.59089796e-03
   -3.55468132e-03   2.50321301e-03  -1.65849912e-03   2.08142132e-01
   -9.51042213e-03   2.21124850e-03  -2.85867532e-03  -1.75922771e-03
   -2.59295246e-03   2.28156103e-03   2.46645045e-03  -2.78303912e-03]
 [  2.78548687e-03   2.09375052e-03   2.03520339e-03  -2.72616209e-03
   -3.73817328e-03   2.63799611e-03  -1.92790385e-03   2.09769219e-01
   -9.24484432e-03   2.35965988e-03  -2.94846343e-03  -1.94016378e-03
   -2.69394112e-03   2.46453169e-03   2.55810376e-03  -2.93807988e-03]
 [  2.80237268e-03   2.06900295e-03   2.01122882e-03  -2.70436378e-03
   -3.92924203e-03   2.64900154e-03  -1.83086365e-03   2.12227926e-01
   -9.93622467e-03   2.21231091e-03  -2.94232811e-03  -1.91001268e-03
   -2.69243168e-03   2.46178056e-03   2.61005224e-03  -2.95118336e-03]
 [  2.71245162e-03   2.03340687e-03   1.92759198e-03  -2.67379219e-03
   -3.66560160e-03   2.51363032e-03  -1.80989457e-03   2.09899157e-01
   -9.32898000e-03   2.16303533e-03  -2.85215932e-03  -1.83624658e-03
   -2.62565818e-03   2.36235722e-03   2.52308836e-03  -2.84265005e-03]
 [  2.80190096e-03   2.01793108e-03   1.94769085e-03  -2.75958958e-03
   -3.85289895e-03   2.62312777e-03  -1.87746075e-03   2.10802376e-01
   -9.21661686e-03   2.13692547e-03  -2.99150846e-03  -1.82588957e-03
   -2.71967845e-03   2.40144576e-03   2.54837400e-03  -2.98797572e-03]
 [  2.74993526e-03   2.05913116e-03   1.97125110e-03  -2.74081621e-03
   -3.86762363e-03   2.57543521e-03  -1.97930192e-03   2.10810632e-01
   -9.52311512e-03   2.25920440e-03  -2.93936674e-03  -1.89517310e-03
   -2.66872789e-03   2.46851053e-03   2.52483669e-03  -2.99805496e-03]
 [  2.65507051e-03   1.95941981e-03   1.94813684e-03  -2.58158846e-03
   -3.60326865e-03   2.53245328e-03  -1.79218524e-03   2.10974082e-01
   -9.71852150e-03   2.16266303e-03  -2.85044871e-03  -1.83972099e-03
   -2.57833302e-03   2.34423112e-03   2.45067547e-03  -2.79919710e-03]
 [  2.72173970e-03   1.93919998e-03   1.87362544e-03  -2.66181841e-03
   -3.77389765e-03   2.53594783e-03  -1.76160992e-03   2.07958400e-01
   -9.27191321e-03   2.05848203e-03  -2.89930915e-03  -1.77788781e-03
   -2.61876080e-03   2.35396530e-03   2.47377553e-03  -2.92988261e-03]
 [  1.78827322e+00   2.16309786e+00   1.97914159e+00  -2.16911769e+00
   -2.25716281e+00   1.88710451e+00  -2.16433573e+00  -2.60016894e+00
    3.21405684e-03  -2.59614289e-01  -1.70222878e+00  -1.87431729e+00
   -1.80384719e+00   1.88732088e+00   1.87594843e+00  -2.39565873e+00]
 [  2.43024278e+00   2.07330370e+00   2.35710216e+00  -1.94713724e+00
   -1.88343167e+00   2.10906339e+00  -2.11176920e+00  -2.23048544e+00
   -1.72205474e-02   8.40871185e-02  -2.20108986e+00  -2.04757524e+00
   -2.23760772e+00   1.90165281e+00   2.03319216e+00  -2.53758097e+00]
 [  2.99611306e+00   2.97841334e+00   2.80996847e+00  -2.82890248e+00
   -2.75789237e+00   3.02261186e+00  -2.62568450e+00  -2.41490364e+00
   -7.52153397e-02   1.50385714e+00  -2.90904522e+00  -2.90445566e+00
   -2.65116501e+00   2.99699473e+00   2.80961585e+00  -2.63528585e+00]
 [  2.20913815e+00   2.25487041e+00   1.93349481e+00  -2.21524286e+00
   -2.36540914e+00   2.11689186e+00  -2.38192534e+00  -2.63152504e+00
   -6.92758858e-02   1.24745905e-01  -2.33072829e+00  -1.97605872e+00
   -2.29483366e+00   2.03706169e+00   2.33764696e+00  -1.89127028e+00]
 [  2.31514621e+00   2.22002578e+00   2.37102127e+00  -2.18707323e+00
   -1.75993657e+00   2.23469424e+00  -2.25047588e+00  -2.29109359e+00
    1.43525004e-01  -1.64668158e-01  -2.19531584e+00  -2.32231665e+00
   -2.14023638e+00   2.30019331e+00   2.56039524e+00  -2.06586194e+00]
 [  1.81502450e+00   1.64720619e+00   1.64717007e+00  -1.99126899e+00
   -1.95314503e+00   1.85272181e+00  -2.63051724e+00  -2.54689622e+00
    4.47782248e-01  -1.00899351e+00  -1.98139894e+00  -2.09461594e+00
   -1.72850311e+00   1.91393745e+00   1.95823526e+00  -1.87540352e+00]
 [  1.88791013e+00   2.09033680e+00   2.11821461e+00  -1.85149205e+00
   -2.28021812e+00   1.98625576e+00  -2.42722988e+00  -2.64285660e+00
   -9.23894793e-02  -7.47588202e-02  -2.27975726e+00  -2.09379435e+00
   -2.35815835e+00   2.14065480e+00   2.09174800e+00  -2.30886197e+00]
 [  1.86265397e+00   1.98946297e+00   1.79647040e+00  -2.18208122e+00
   -2.09800673e+00   1.64416945e+00  -2.64572501e+00  -2.69026732e+00
    1.34189874e-02  -3.43392819e-01  -1.79421234e+00  -1.70763206e+00
   -2.26816702e+00   2.14825225e+00   1.69738257e+00  -1.80895340e+00]
 [  2.40170074e+00   2.42005539e+00   2.39073253e+00  -2.14802170e+00
   -2.13717937e+00   2.21787429e+00  -2.04954171e+00  -2.17167568e+00
    8.57592747e-02   1.88189030e-01  -2.35844278e+00  -2.51769686e+00
   -2.32004094e+00   2.42884350e+00   2.03702116e+00  -2.26775193e+00]
 [ -6.10363841e-01  -6.01056874e-01  -6.10942364e-01   6.41968489e-01
    6.44886076e-01  -5.96005201e-01   7.87678838e-01   5.44534385e-01
    3.04979850e-02  -1.30514884e+00   6.15398586e-01   6.38738453e-01
    6.37571931e-01  -6.22245371e-01  -6.29379928e-01   6.46862864e-01]
 [  2.26523852e+00   2.14152193e+00   2.33987141e+00  -2.49239445e+00
   -2.48126268e+00   2.58297968e+00  -1.52997649e+00  -2.27574968e+00
   -3.79309542e-02   4.12183493e-01  -2.30013323e+00  -2.29384279e+00
   -2.38306713e+00   2.10361028e+00   2.08526397e+00  -2.31981230e+00]
 [  1.83125269e+00   2.15887094e+00   2.08663917e+00  -2.10710883e+00
   -1.74082637e+00   1.89425814e+00  -2.69450259e+00  -2.64486670e+00
    5.25375545e-01  -2.17818186e-01  -1.96978664e+00  -2.01221490e+00
   -2.09673309e+00   1.82395458e+00   2.41537547e+00  -2.42893076e+00]
 [  1.05351949e+00   1.04545593e+00   1.05298364e+00  -1.08767557e+00
   -1.08951247e+00   1.03856766e+00  -1.32451758e-01  -1.07443631e+00
   -4.59430143e-02   2.29308128e+00  -1.05937612e+00  -1.08699656e+00
   -1.08243585e+00   1.06807685e+00   1.08340394e+00  -1.09194076e+00]
 [  2.23532009e+00   2.01969290e+00   1.96901047e+00  -1.96411157e+00
   -2.16365457e+00   2.18004680e+00  -2.70199943e+00  -2.35411215e+00
    1.42693013e-01  -2.32077539e-01  -1.86669290e+00  -2.06525612e+00
   -2.22652221e+00   2.15869546e+00   2.32971835e+00  -1.94625366e+00]
 [  2.15270758e+00   2.25888729e+00   2.25804281e+00  -2.38222122e+00
   -2.17176557e+00   2.30098486e+00  -2.26412225e+00  -2.47953939e+00
   -2.48636410e-01  -3.82553577e-01  -2.19546700e+00  -2.17001867e+00
   -1.85741103e+00   2.44041085e+00   2.20653486e+00  -2.11058998e+00]
 [  2.14841819e+00   2.00017834e+00   2.43137145e+00  -2.01037717e+00
   -2.39848161e+00   2.24193811e+00  -1.75656223e+00  -2.59572768e+00
   -5.79488464e-02   3.10066598e-03  -2.32352877e+00  -2.46590996e+00
   -2.20509744e+00   2.14260292e+00   2.01319242e+00  -2.02316332e+00]]
Eve
[[-3.13965034 -3.08009052  2.45963597  3.03273201  3.33899736  2.64748359
   3.0738306  -3.16557384  2.83973765  3.14789176 -3.08217716  2.93122482
  -0.76328677  3.17567801  3.31123114  2.92173409]
 [-2.72938919 -2.73572993  2.45311403  2.66169286  3.05177617  3.2849195
   2.98882318 -2.69985461  3.07415318  3.02412391 -3.30367208  3.03223634
  -0.89093679  2.76487565  2.68007135  3.20821381]
 [-3.57488608 -3.51828265  2.90976739  3.42719126  3.52122927  3.21248698
   3.14985299 -2.97730732  3.42229986  2.82535577 -3.6118083   3.42769289
  -3.06616282  3.02287793  3.45809746  3.31499052]
 [-3.328825   -3.17382979  2.30718136  3.38313603  3.15277028  3.07951379
   3.21376371 -3.20231628  3.30260849  3.02732992 -3.00860858  3.01907039
  -0.77152818  2.95518231  3.1053443   3.09276247]
 [-2.82108545 -2.70298338  2.46068096  3.00527215  2.80246043  3.07748461
   2.7720685  -3.36171174  2.75699615  2.77678752 -3.0675962   3.17025113
  -1.20515084  2.95914578  2.80678582  3.1565268 ]
 [-3.01989317 -2.81979084  2.61739373  3.28089213  3.22133636  3.15155172
   3.26065469 -2.79999018  3.25482059  3.22431874 -3.08404112  3.35279036
  -1.26564193  2.69752765  2.84035778  3.17664313]
 [-2.94345045 -3.34383154  2.16858363  2.94319677  3.22673464  3.32089591
   3.45760894 -3.03287482  3.30080557  3.03770661 -3.30807924  2.95200801
  -0.8596189   3.17960095  2.9138124   3.31412077]
 [-3.08859205 -3.18239307  2.23269129  2.8953805   3.02495956  2.80482364
   3.30583334 -3.40755725  2.99319935  3.18842292 -2.74536777  2.95754004
  -0.84258133  3.2459743   2.79768467  3.14574552]
 [-3.40979171 -3.26177597  2.54751372  2.97900271  3.42255211  3.07792807
   3.10402012 -3.23201609  3.38360906  3.21157694 -3.27373409  3.34680843
  -1.34233165  3.07031012  3.39528656  3.31728292]
 [-1.04010916 -0.91440952 -0.20628721  1.09140718  0.7455067   1.06604612
   0.95914924 -1.01800132  0.98176193 -1.01900792 -1.11397624  1.00412703
   0.5716396   2.13682103  1.27689743  1.21161377]
 [-2.8903029  -2.64107585  2.00043821  2.89634562  3.18310094  2.56808949
   2.84131718 -2.56051779  2.68278337  2.8077414  -2.68885183  2.59421468
  -1.16956103  2.5712862   2.8866365   2.58448386]
 [-3.2925601  -3.04303837  2.40569305  3.13809371  2.83151197  3.04674768
   2.90929103 -2.98042178  3.15995789  3.06319976 -3.36915708  3.07109284
  -0.88741058  2.80894709  3.41517758  3.42607784]
 [-1.90902448 -2.05481911  0.2606785   1.83447766  2.109658    1.82687259
   1.91892016 -1.86680329  1.88339508 -0.3835564  -1.80549598  1.92346776
  -3.63993526  2.55527186  1.60093987  1.68911815]
 [-3.05341101 -2.85574818  2.60998583  2.96475697  3.21175551  3.05374813
   2.72238231 -2.99148893  3.00445318  2.67387748 -2.77421975  3.03184128
  -0.71313876  3.01428699  2.96748281  2.99011588]
 [-3.14885354 -2.88214588  2.69929385  3.45661163  2.92162299  2.89879918
   2.97369742 -3.03787422  3.38094258  3.1560266  -3.22413421  3.00554919
  -1.34121096  3.07836866  3.09587073  3.32397699]
 [-2.88638186 -2.85964918  2.31125879  3.00993466  2.82443452  3.43316054
   2.79901671 -3.31850123  3.45773792  3.19502974 -3.48745847  3.0681932
  -1.02376246  2.96786857  3.02924538  3.17068553]
 [-2.87390518 -3.05141497  2.51908779  3.13301921  3.32732821  3.02439475
   3.37039709 -3.35198855  3.02300715  3.01034427 -2.98174047  3.33056998
  -3.16293359  2.81378078  3.28006649  3.05795121]
 [-2.92767692 -2.80211234  2.44267511  3.1695199   3.27192903  3.20484614
   2.73839307 -3.1861589   3.2399509   3.23921895 -2.87362385  3.2804575
  -2.7254107   3.15764976  3.00594258  3.26166582]
 [-2.78319502 -3.10992122  1.92138815  3.11143732  3.31628966  3.35103798
   3.07317495 -3.12215257  3.08093905  3.04231977 -3.34375405  3.1597836
  -3.24130869  3.04426599  3.02735496  2.87103391]
 [-3.33700633 -3.25835419  2.45290232  3.30731559  3.44975972  2.96926498
   2.90286398 -3.35681462  2.82939267  2.92734599 -3.06796169  3.46850634
  -3.2695899   3.28861904  3.01181149  3.44255471]
 [-3.46909142 -3.42508268  2.32136607  2.9234519   3.1673789   2.91462159
   2.87135482 -3.17158246  2.96244693  3.24160361 -3.30821848  3.00788379
  -3.01097631  3.36684394  3.42938352  2.94046926]
 [-3.04831147 -2.96371078  2.34396338  3.36501837  3.35314751  3.34442544
   2.81813169 -3.19811916  2.88119531  3.13276815 -3.27402663  3.21282744
  -2.95905089  2.89836836  3.37941623  2.92080355]
 [-3.30449724 -3.0786016   2.25058198  3.20511436  3.14609909  3.13039684
   3.47349596 -3.18921757  3.09384441  3.14866757 -3.07254863  2.87405252
  -2.93604565  2.97887754  3.51503611  3.3220818 ]
 [-2.85339928 -2.841717    0.05036923  2.8632617   2.88599372  2.8919673
   2.8969779  -2.89638519  2.89365721  3.28882813 -2.86898994  2.86069942
  -0.58655423  0.69781739  2.91192389  2.89230037]
 [-3.49278927 -3.50578475  2.69415283  3.45686007  3.13222146  3.37140489
   3.29329014 -3.46107173  3.36837816  3.04347157 -3.20603514  3.48619747
  -2.7237494   2.83101392  3.13401628  3.0649724 ]
 [-3.26695991 -3.3579452   2.30389309  2.94451261  2.81163859  2.79538846
   3.30649805 -2.88306713  3.45382524  2.91909051 -3.23603559  3.0913918
  -2.80677748  2.86773777  3.4071362   2.93911099]
 [-2.82787013 -2.75709295  2.44373655  2.80360198  2.72348499  3.0103972
   3.22428298 -3.17295051  2.91074252  3.01056075 -2.89022136  2.72503018
  -3.10107493  3.08133531  2.74206352  3.11098099]
 [-3.14301991 -2.81905675  2.31483579  2.90738678  2.95482302  3.18429422
   3.22079992 -2.98476124  3.40298176  3.18626571 -2.93463349  2.97289324
  -2.80491853  2.85370541  2.96940732  2.78340173]
 [-2.85859919 -3.43091798  2.37809372  2.75091791  3.39830756  3.27059221
   3.23865938 -3.06229019  2.87904978  3.15409231 -3.03374958  2.9965775
  -3.11160111  3.24872804  3.20926452  3.44089961]
 [-2.90842915 -3.20389414  2.31427169  3.27932644  2.82914019  2.97211242
   2.69002128 -3.13397694  3.36698389  2.56032538 -3.27618814  2.80458498
  -2.78659797  2.94363117  3.12501884  2.75091767]
 [-2.74105239 -3.10683107  2.10271406  3.03728867  2.97493958  3.09693813
   3.34788537 -2.97660041  2.79316235  3.11440372 -2.92044449  3.28775525
  -3.16002417  2.76925683  3.22692776  3.1424036 ]
 [-2.9545424  -2.93318033  2.50453424  3.09272957  3.05501986  3.35846806
   3.27635527 -3.26355982  2.7302978   2.98134112 -2.96705341  3.11822104
  -2.83770347  3.28329134  3.18253636  3.03979635]]