Alice
[[  1.51845977e-01   1.64623912e-02   3.98141128e-04  -1.30765897e-04
    5.32165822e-03  -1.87161483e-03   1.02322355e-01   8.23585019e-02
   -1.15638770e-01  -8.34185183e-02  -3.59969623e-02   2.07854789e-02
    2.77225319e-02   1.65876508e-01   4.35914658e-02  -2.47604330e-03]
 [  1.52340323e-01   1.87326074e-02   4.99493268e-04  -1.12212772e-04
    6.97990088e-03  -4.45075892e-03   3.41519415e-02   7.97731951e-02
   -5.65238371e-02  -8.22955146e-02  -1.39476098e-02   1.85189843e-02
   -3.58680226e-02   1.62214011e-01   4.10283953e-02  -3.70618282e-03]
 [  1.52519882e-01   1.80198532e-02   5.26830379e-04  -1.66346261e-04
    9.07197315e-03  -4.52492060e-03   8.00471101e-03   7.83374533e-02
   -3.56784016e-02  -8.16810504e-02  -7.47529184e-03   1.83549896e-02
   -5.21521531e-02   1.60316363e-01   3.63746099e-02  -1.90969324e-03]
 [  1.52670622e-01   1.80847328e-02   4.84875432e-04  -2.23255018e-04
    7.15402747e-03  -4.26425366e-03   3.85547318e-02   7.99430460e-02
   -6.04263544e-02  -8.23435858e-02  -1.51530104e-02   1.89932361e-02
   -3.04737817e-02   1.62344068e-01   4.06504907e-02  -3.27885477e-03]
 [  1.52759522e-01   1.77053884e-02   4.62652039e-04  -1.56203285e-04
    8.12366884e-03  -3.49331670e-03   2.12888978e-02   7.90218636e-02
   -4.24843021e-02  -8.19481090e-02  -9.21049342e-03   1.85886826e-02
   -4.55933921e-02   1.61044493e-01   3.85466330e-02  -1.87377282e-03]
 [  1.55403122e-01  -3.09487130e-03  -3.78964306e-03   2.65339902e-03
   -5.09862555e-03   1.02564758e-02   3.16444896e-02   4.75265346e-02
   -1.65686816e-01  -4.30827662e-02   5.32274786e-03   2.37078201e-02
   -1.23218879e-01   9.09028351e-02   3.77217889e-01  -1.32709253e-03]
 [  1.52177811e-01   1.69403795e-02   5.14623709e-04  -7.76448214e-05
    7.68752676e-03  -2.44206632e-03   5.43380380e-02   7.99397305e-02
   -7.25489035e-02  -8.24596137e-02  -1.97467860e-02   1.97066274e-02
   -1.41004780e-02   1.62520051e-01   3.94046754e-02  -1.08270207e-03]
 [  1.52027875e-01   1.83301996e-02   4.57864720e-04  -1.27681706e-04
    7.38626299e-03  -4.21257364e-03   4.63474616e-02   8.00138339e-02
   -7.01909885e-02  -8.25016573e-02  -1.88861638e-02   1.92509610e-02
   -1.93740893e-02   1.62668258e-01   4.08784412e-02  -2.65981769e-03]
 [  1.51530296e-01   1.65680815e-02   4.63992532e-04  -1.66698446e-04
    4.20574145e-03  -2.76223640e-03   1.26565114e-01   8.36223438e-02
   -1.42484695e-01  -8.36293399e-02  -4.46517169e-02   2.10638903e-02
    5.53721525e-02   1.67167246e-01   4.54515405e-02  -3.51097109e-03]
 [  1.52340308e-01   1.81514602e-02   5.11177059e-04  -1.86271267e-04
    6.33335719e-03  -3.83716752e-03   6.35825098e-02   8.07859898e-02
   -8.38551000e-02  -8.27619731e-02  -2.34799031e-02   1.92591343e-02
   -6.59937132e-03   1.63602293e-01   4.29080166e-02  -3.44140013e-03]
 [  1.53283581e-01   1.90570988e-02   4.33751236e-04  -1.20753160e-04
    9.24097653e-03  -4.81569674e-03  -2.51896810e-02   7.72488490e-02
   -3.37746716e-03  -8.12210888e-02   3.57813574e-03   1.76485013e-02
   -8.63283053e-02   1.58787578e-01   3.58540937e-02  -2.16833921e-03]
 [  1.52211174e-01   1.85000747e-02   4.40416974e-04  -6.93870679e-05
    7.50308298e-03  -4.33080457e-03   3.71644497e-02   7.96549991e-02
   -6.12377711e-02  -8.22107345e-02  -1.58117022e-02   1.90459397e-02
   -2.94386204e-02   1.61917239e-01   4.03668918e-02  -3.01599968e-03]
 [  1.51915133e-01   1.65106673e-02   4.46435151e-04  -1.82224758e-04
    7.17458222e-03  -2.72979820e-03   6.07726425e-02   8.00395086e-02
   -7.74825290e-02  -8.25344622e-02  -2.10774615e-02   1.95491649e-02
   -9.48895048e-03   1.62727490e-01   4.00849842e-02  -2.07500719e-03]
 [  1.52822241e-01   1.96757428e-02   3.88595916e-04  -8.96143465e-05
    7.56307552e-03  -4.76194266e-03   7.26027926e-03   7.88069889e-02
   -3.32743749e-02  -8.16367492e-02  -6.52100518e-03   1.78321078e-02
   -6.01926260e-02   1.60616428e-01   3.98645326e-02  -3.97034083e-03]
 [  1.52443945e-01   1.79466866e-02   5.20046917e-04  -8.65430338e-05
    7.97339994e-03  -3.18037299e-03   3.68118994e-02   7.94586986e-02
   -5.89722395e-02  -8.21042508e-02  -1.53172323e-02   1.92427579e-02
   -2.89874133e-02   1.61779374e-01   3.92340273e-02  -1.80427963e-03]
 [  1.52481139e-01   1.82868522e-02   4.57445567e-04  -1.23737962e-04
    7.74777588e-03  -3.95067642e-03   4.15425524e-02   7.99207091e-02
   -6.47050589e-02  -8.23007822e-02  -1.68619212e-02   1.91864986e-02
   -2.51957010e-02   1.62397072e-01   4.03106809e-02  -2.73064733e-03]
 [  1.48083806e-01  -5.64434659e-03   1.84012060e-05  -1.16515781e-04
    3.12943361e-03  -3.17693484e-05   2.43487749e-02   4.58192490e-02
   -3.71846091e-03  -4.26605754e-02   2.85460101e-03   1.27748279e-02
   -1.97276101e-02   8.82204995e-02  -5.97996498e-03   8.89229961e-03]
 [  1.47833452e-01  -5.64605370e-03   1.67042424e-04  -2.18643225e-04
    3.11675249e-03  -4.81440657e-05   2.42914464e-02   4.56918739e-02
   -3.71749396e-03  -4.25497480e-02   2.92463461e-03   1.27452984e-02
   -1.97421834e-02   8.81385207e-02  -5.97517937e-03   8.97028856e-03]
 [  1.48366064e-01  -5.61677478e-03   4.57899114e-05  -8.94028562e-05
    3.14157736e-03  -5.05305798e-05   2.42289864e-02   4.58635949e-02
   -3.73248197e-03  -4.26798388e-02   2.88160634e-03   1.28633790e-02
   -1.98501833e-02   8.84318501e-02  -5.97282639e-03   9.00281314e-03]
 [  1.48038924e-01  -5.57141239e-03   8.33766826e-05  -1.65745660e-04
    3.15010711e-03  -7.84036747e-05   2.42191926e-02   4.56808247e-02
   -3.72488517e-03  -4.27077152e-02   2.87127355e-03   1.27405114e-02
   -1.97990127e-02   8.82514715e-02  -5.94439730e-03   9.03877895e-03]
 [  1.48010716e-01  -5.57985483e-03  -3.46103006e-05  -1.51112734e-04
    3.13138100e-03  -5.74407240e-05   2.42844932e-02   4.56974879e-02
   -3.75092053e-03  -4.26675603e-02   2.84128869e-03   1.27831502e-02
   -1.97549351e-02   8.82532299e-02  -5.94476098e-03   8.90379678e-03]
 [  1.47834823e-01  -5.58550749e-03   6.28628550e-05  -9.67075903e-05
    3.14900698e-03  -2.41242942e-05   2.43032388e-02   4.56972979e-02
   -3.73759842e-03  -4.25615311e-02   2.88668391e-03   1.28135877e-02
   -1.97722614e-02   8.82394910e-02  -5.98080317e-03   9.03812610e-03]
 [  1.47882596e-01  -5.55562787e-03  -5.15842985e-05  -1.04145387e-04
    3.05497833e-03  -4.75168345e-05   2.40531508e-02   4.55076844e-02
   -3.73203447e-03  -4.25473265e-02   2.91171507e-03   1.27499029e-02
   -1.96435023e-02   8.79939422e-02  -5.91176935e-03   8.96882359e-03]
 [  1.48169383e-01  -5.61741926e-03   9.22590152e-06  -1.44960854e-04
    3.13482201e-03  -5.11841572e-05   2.41638646e-02   4.57705781e-02
   -3.70772206e-03  -4.26974595e-02   2.90966826e-03   1.28037203e-02
   -1.97298694e-02   8.82698074e-02  -5.97860338e-03   9.02207941e-03]
 [  1.47929072e-01  -5.70455426e-03   1.53491463e-04  -1.59452742e-04
    3.15009733e-03  -3.05128906e-05   2.43317895e-02   4.57910486e-02
   -3.68549861e-03  -4.26168330e-02   2.97281612e-03   1.27935586e-02
   -1.97413396e-02   8.81671309e-02  -5.98525349e-03   8.99787340e-03]
 [  1.48138687e-01  -5.58380410e-03   3.50675291e-05  -1.71073116e-04
    3.13078775e-03  -7.52055494e-05   2.41890494e-02   4.56897989e-02
   -3.76338745e-03  -4.27588448e-02   2.87040067e-03   1.28166778e-02
   -1.96801145e-02   8.82289410e-02  -5.89487189e-03   8.99225567e-03]
 [  1.47908062e-01  -5.57786925e-03   7.62794880e-05  -9.54155985e-05
    3.07874056e-03  -6.60194855e-05   2.42596436e-02   4.56276275e-02
   -3.68614681e-03  -4.26820032e-02   2.90148472e-03   1.26761934e-02
   -1.96951758e-02   8.80858824e-02  -5.94316283e-03   8.98894016e-03]
 [  1.47845209e-01  -5.59824379e-03   5.11109538e-05  -1.10567817e-04
    3.12767364e-03  -7.61157789e-05   2.42759902e-02   4.57103699e-02
   -3.76075576e-03  -4.26084548e-02   2.88025965e-03   1.28065636e-02
   -1.96919702e-02   8.81566107e-02  -5.94217563e-03   8.98332987e-03]
 [  1.48042575e-01  -5.59088448e-03   6.30611466e-05  -1.72412387e-04
    3.08342255e-03  -4.72405300e-05   2.41836719e-02   4.56940457e-02
   -3.71010043e-03  -4.26218100e-02   2.91958917e-03   1.27028618e-02
   -1.96136348e-02   8.81685168e-02  -5.91471698e-03   8.97035655e-03]
 [  1.47619531e-01  -5.60097536e-03   1.75371133e-05  -9.56851072e-05
    3.11985123e-03  -6.13767843e-05   2.42272839e-02   4.55993712e-02
   -3.72583349e-03  -4.25247550e-02   2.88115931e-03   1.27412686e-02
   -1.97291020e-02   8.80426988e-02  -5.97468857e-03   8.97519104e-03]
 [  1.48048148e-01  -5.58422273e-03   1.12655835e-04  -1.61515840e-04
    3.09143215e-03  -4.08539781e-05   2.42830422e-02   4.57393751e-02
   -3.74334049e-03  -4.26465385e-02   2.88479961e-03   1.27144288e-02
   -1.96673647e-02   8.81239101e-02  -5.93656301e-03   8.97108577e-03]
 [  1.48043305e-01  -5.63309994e-03  -3.04359783e-05  -1.09508495e-04
    3.15890484e-03  -3.16995138e-05   2.43090652e-02   4.57547121e-02
   -3.77613725e-03  -4.26901653e-02   2.89306208e-03   1.28622083e-02
   -1.98636856e-02   8.84221941e-02  -5.96225308e-03   9.00930353e-03]
 [  6.32332265e-01   3.04283351e-01  -2.20027611e-01   6.91968249e-03
    1.81992233e+00  -8.19521964e-01   8.88619602e-01   5.10165215e-01
   -6.37946203e-02  -1.31088662e+00   6.46659061e-02   1.46073687e+00
   -5.14931977e-01  -1.58692479e-01   6.28412843e-01   1.38502979e+00]
 [ -7.48070478e-01  -9.06012654e-02   1.12596586e-01  -1.41054615e-01
   -7.38755643e-01   3.17608982e-01   4.99757618e-01   2.46009469e-01
    4.11597669e-01   9.43407834e-01   6.95644096e-02  -6.77414656e-01
    1.41171008e-01  -1.23398885e-01  -1.67810425e-01  -6.16774261e-01]
 [  8.48387107e-02   3.65114868e-01  -6.73513813e-03   1.20905042e-02
    5.18037498e-01  -6.88032389e-01   8.61854851e-01   7.67061830e-01
    2.06586421e-01  -3.67769510e-01   5.33409603e-02   3.57764930e-01
   -2.01617032e-01  -3.84219050e-01   1.74439117e-01   4.51174974e-01]
 [ -1.48044154e-01   1.23819306e-01   4.14861530e-01  -6.64137974e-02
    1.01405188e-01   1.04575545e-01   4.97357696e-01   6.49566770e-01
    1.54271305e-01  -7.89241120e-03   8.54811892e-02   4.06268127e-02
    6.79930151e-02  -9.86110941e-02   1.48774594e-01  -8.99144858e-02]
 [  2.55606323e-01  -4.82093871e-01   6.80602789e-02  -7.71113262e-02
    3.85846674e-01  -2.50611573e-01   8.94129038e-01   5.04667640e-01
   -5.14442287e-02  -3.19257230e-01  -9.23747271e-02   2.15255484e-01
    4.16203775e-02  -2.55497634e-01  -2.41681617e-02   5.73386908e-01]
 [  2.93929636e-01  -1.18572131e-01  -5.27335964e-02  -1.29485959e-02
    1.49146914e-01  -1.01769410e-01   6.61791086e-01   2.76040465e-01
    1.13511837e+00  -2.85109822e-02   1.94505796e-01   1.46213859e-01
   -3.76666754e-01  -2.84374207e-01   9.02513415e-03   8.35981444e-02]
 [  6.22383893e-01  -9.62975472e-02  -1.10913850e-02   4.42657620e-02
    1.17974091e+00  -6.23604119e-01   6.18331194e-01   9.12310183e-01
   -2.64509380e-01  -1.18752086e+00  -1.96630750e-02   1.18260550e+00
   -1.55347958e-01  -6.11313432e-02   9.06070292e-01   1.30809820e+00]
 [  4.59546447e-01  -4.89057042e-02  -1.68342203e-01   4.15461689e-01
    8.02803576e-01  -3.69205207e-01   7.88189709e-01   5.19475520e-01
   -2.79023731e-03  -7.38688350e-01  -1.38452664e-01   8.06280255e-01
   -4.65734124e-01  -3.00226808e-01   1.77699387e-01   6.69757128e-01]
 [  2.66559631e-01  -3.99817675e-01  -1.73156112e-01  -1.26809180e-01
    1.13972056e+00  -2.78940320e-01   6.27463162e-01   5.55895090e-01
   -9.55492258e-02  -7.18076050e-01  -1.14165306e-01   1.60479629e+00
   -2.93874349e-02  -3.24209958e-01   4.12548035e-01   1.17603397e+00]
 [  2.11761594e-01  -1.64988279e-01  -1.24982139e-02  -4.92392399e-04
    2.13699237e-01  -1.30844647e-02   9.63031352e-01   3.12182575e-01
   -2.58269962e-02  -2.18908861e-02   2.23845631e-01   2.11868927e-01
   -8.55352655e-02  -1.04081817e-01   2.04811860e-02   4.22522932e-01]
 [  6.77032411e-01   1.05070375e-01   6.12361580e-02   2.46039718e-01
    1.48757041e+00  -6.95498109e-01   6.75328553e-01   1.06911278e+00
   -1.79215357e-01  -1.67344356e+00   5.65437973e-02   1.38952112e+00
   -6.29758298e-01  -2.07861304e-01   1.05918109e+00   1.10479116e+00]
 [  7.47743770e-02   1.99742280e-02  -1.56906396e-02  -4.31797989e-02
    2.61131942e-01  -7.20043108e-02   5.65086246e-01   3.35731596e-01
    1.35218993e-01  -1.31289154e-01   1.07787717e-02   2.66479105e-01
   -4.10985164e-02   5.14627360e-02   8.34460080e-01   2.13873446e-01]
 [  8.83071125e-02  -5.52927479e-02  -8.76811445e-02  -9.99553725e-02
    2.27700979e-01  -2.60405540e-02   7.67862201e-01   4.76080328e-01
    1.36847839e-01  -1.23796836e-01   1.21152297e-01   1.67906687e-01
   -6.11453503e-02  -4.79153208e-02  -7.26898462e-02   1.65153235e-01]
 [  6.55488819e-02   3.02070584e-02   5.11158779e-02  -4.97773886e-02
   -1.26504183e-01   1.12061471e-01   5.66453457e-01   2.11824421e-02
    2.66294461e-02   6.65653706e-01  -6.24587052e-02  -1.38458729e-01
    6.05728477e-02   3.41280043e-01  -2.03967184e-01  -7.47084171e-02]
 [  4.92381573e-01   7.13653192e-02   2.76751630e-02  -4.26735058e-02
    1.07055426e+00  -5.64214706e-01   8.93197894e-01   9.94302630e-01
   -1.93732940e-02  -8.97751331e-01  -5.54294251e-02   1.00650203e+00
    7.22695708e-01  -2.91287452e-01   5.86361587e-01   1.01266408e+00]
 [  1.98136240e-01   9.38795321e-03  -1.36673331e-01   2.09859144e-02
    1.13807701e-01  -3.25867869e-02   5.76692224e-01   4.88022357e-01
    1.73525095e-01   9.29431766e-02   1.13887258e-01   1.37760431e-01
   -1.03128113e-01  -1.19386449e-01   7.36000016e-02   3.51594239e-01]]
Bob
[[ -5.95013052e-03   1.58403888e-02   4.62298207e-02  -4.67884541e-02
   -3.36531177e-02  -6.00347891e-02  -1.39079029e-02   2.09048893e-02
    6.24112086e-03   2.56370232e-02  -4.88744862e-03   9.32061812e-04
   -3.28809321e-02   5.31560108e-02  -7.56587610e-02  -7.50663579e-02]
 [ -5.40462788e-03   1.08478069e-02   3.31045166e-02  -2.30738372e-02
   -3.95761617e-02  -2.65432876e-02  -6.84773270e-03   2.97741927e-02
    6.50952710e-03   3.21048722e-02  -5.56155015e-03  -3.01327498e-04
   -2.03204229e-02   6.93902448e-02  -7.26440996e-02  -3.58401276e-02]
 [ -5.08392137e-03   8.76126345e-03   2.81084329e-02  -1.42113008e-02
   -3.57843302e-02  -1.78374015e-02  -3.20643815e-03   3.02328207e-02
    6.82160119e-03   3.08112260e-02  -2.62399786e-03  -1.99911650e-03
   -1.42818056e-02   7.82249495e-02  -7.20491335e-02  -1.91336144e-02]
 [ -5.41162631e-03   1.11403260e-02   3.36309411e-02  -2.45617852e-02
   -3.82019952e-02  -2.88578849e-02  -7.54585955e-03   2.86018103e-02
    6.45198626e-03   3.13098915e-02  -4.65954049e-03  -3.14098259e-04
   -2.09970567e-02   6.85877204e-02  -7.24216849e-02  -3.84641923e-02]
 [ -5.20223798e-03   9.31080896e-03   3.03237177e-02  -1.70030408e-02
   -3.49695049e-02  -2.16975547e-02  -2.98230629e-03   2.99955029e-02
    6.54917164e-03   3.07649560e-02  -3.85367568e-03  -4.52992754e-05
   -1.52452132e-02   7.38659948e-02  -7.28646144e-02  -2.42947210e-02]
 [  8.75152424e-02   2.92064846e-02   4.63454053e-02   2.64089014e-02
   -7.27554560e-02  -1.81123558e-02   1.91549910e-03   7.80931115e-02
   -9.07348022e-02   1.09809674e-02  -8.44380818e-03  -9.00813699e-01
    4.67206538e-02   5.24447672e-02  -5.49111590e-02   4.32807626e-03]
 [ -5.38494345e-03   1.19899530e-02   3.67557406e-02  -2.89407205e-02
   -3.26744802e-02  -3.83417048e-02  -6.98148087e-03   2.54133362e-02
    6.50199875e-03   2.84196902e-02  -3.43765179e-03   7.98102265e-05
   -2.15866566e-02   6.50088042e-02  -7.42177069e-02  -4.45806086e-02]
 [ -5.56807173e-03   1.21289222e-02   3.56071405e-02  -2.84486767e-02
   -3.72745097e-02  -3.56003828e-02  -8.88605230e-03   2.69205421e-02
    6.69058878e-03   3.05831358e-02  -3.76112759e-03  -8.98879720e-04
   -2.29746420e-02   6.74903840e-02  -7.42986724e-02  -4.41520959e-02]
 [ -6.48564706e-03   1.79277938e-02   5.10305613e-02  -5.79411946e-02
   -3.43762599e-02  -7.08862767e-02  -2.17281263e-02   1.74546298e-02
    6.69269776e-03   2.49466393e-02  -3.03245964e-03  -2.55148741e-04
   -4.02621590e-02   4.94614430e-02  -7.63003305e-02  -9.60107073e-02]
 [ -5.59346983e-03   1.31782731e-02   3.87413055e-02  -3.40522118e-02
   -3.79244536e-02  -4.15214226e-02  -1.14168702e-02   2.57054903e-02
    6.59352494e-03   3.00944969e-02  -4.92168218e-03   4.41105294e-05
   -2.65874825e-02   6.21138252e-02  -7.32972324e-02  -5.48371300e-02]
 [ -5.06504485e-03   5.97787416e-03   2.19699889e-02  -1.45292084e-03
   -3.74098308e-02  -1.53657515e-03   3.06643685e-03   3.54362726e-02
    6.81934599e-03   3.32518183e-02  -4.06718347e-03  -1.25645509e-03
   -6.85870741e-03   8.60502422e-02  -7.17020705e-02   4.13764967e-03]
 [ -5.33656729e-03   1.12939160e-02   3.37529741e-02  -2.48690620e-02
   -3.80843766e-02  -3.03670093e-02  -7.50623690e-03   2.82703098e-02
    6.52614422e-03   3.12350094e-02  -4.64129914e-03  -7.51040527e-04
   -2.10648626e-02   6.87565506e-02  -7.24506900e-02  -3.78436148e-02]
 [ -5.48490649e-03   1.23743126e-02   3.74993607e-02  -3.11313532e-02
   -3.35760042e-02  -3.86186317e-02  -8.87042284e-03   2.50644609e-02
    6.46906067e-03   2.84557585e-02  -3.48859909e-03   2.52627942e-04
   -2.32913084e-02   6.35292307e-02  -7.37092644e-02  -5.05561233e-02]
 [ -5.10775065e-03   8.67299922e-03   2.86132656e-02  -1.38035463e-02
   -4.07846086e-02  -1.49135459e-02  -2.70820991e-03   3.32582742e-02
    6.52331673e-03   3.34997103e-02  -6.28161477e-03  -6.75194780e-04
   -1.54976072e-02   7.58601204e-02  -7.14119151e-02  -1.79907624e-02]
 [ -5.29838959e-03   1.07482467e-02   3.39288600e-02  -2.36659441e-02
   -3.44927609e-02  -3.07978112e-02  -5.53469174e-03   2.77038738e-02
    6.62134402e-03   2.99320128e-02  -3.81649449e-03  -3.87303036e-04
   -1.90688577e-02   6.99073151e-02  -7.33072758e-02  -3.48007083e-02]
 [ -5.37290052e-03   1.14424126e-02   3.48247960e-02  -2.61811782e-02
   -3.70435007e-02  -3.23443189e-02  -7.68315047e-03   2.78478619e-02
    6.66185049e-03   3.09282783e-02  -4.00432432e-03  -8.46471754e-04
   -2.14423649e-02   6.83114678e-02  -7.41267726e-02  -4.02197130e-02]
 [ -1.06120612e-02  -2.68288306e-03   1.11967837e-02  -7.09944218e-03
   -1.24183064e-02  -8.33342597e-03   1.95640493e-02   9.36839916e-03
    9.53211915e-03   1.06085455e-02   1.50452470e-02  -8.49570334e-03
   -9.34546720e-03   1.00642564e-02  -1.07824787e-01  -1.24430563e-02]
 [ -1.07332347e-02  -2.67768605e-03   1.12485886e-02  -7.14279106e-03
   -1.25182411e-02  -8.46614596e-03   1.96832959e-02   9.40100104e-03
    9.47230868e-03   1.06707225e-02   1.50299799e-02  -8.56753998e-03
   -9.28095076e-03   1.01351282e-02  -1.08201168e-01  -1.24991722e-02]
 [ -1.07250828e-02  -2.72353715e-03   1.12837860e-02  -7.16355303e-03
   -1.25104962e-02  -8.41055065e-03   1.96065493e-02   9.39465035e-03
    9.60316975e-03   1.06842332e-02   1.50888041e-02  -8.56088288e-03
   -9.40381922e-03   1.00523392e-02  -1.08312421e-01  -1.25414142e-02]
 [ -1.07713211e-02  -2.75718514e-03   1.13491407e-02  -7.17877597e-03
   -1.24911470e-02  -8.42533540e-03   1.98966339e-02   9.48689971e-03
    9.63385683e-03   1.07128033e-02   1.52352275e-02  -8.61165207e-03
   -9.46369395e-03   1.03079351e-02  -1.09093480e-01  -1.25211673e-02]
 [ -1.06915748e-02  -2.75416207e-03   1.12877972e-02  -7.14244368e-03
   -1.24221686e-02  -8.39643087e-03   1.96373183e-02   9.36549064e-03
    9.53347050e-03   1.06553314e-02   1.50931980e-02  -8.55093356e-03
   -9.41184722e-03   1.01832673e-02  -1.08190253e-01  -1.24649107e-02]
 [ -1.07110078e-02  -2.71722674e-03   1.13143278e-02  -7.18513038e-03
   -1.25445919e-02  -8.41905270e-03   1.97971947e-02   9.43406112e-03
    9.56366211e-03   1.07192248e-02   1.51584651e-02  -8.56987387e-03
   -9.41884611e-03   1.01771373e-02  -1.08609073e-01  -1.26128355e-02]
 [ -1.06807593e-02  -2.68572383e-03   1.13165360e-02  -7.18203932e-03
   -1.25113754e-02  -8.46531987e-03   1.97093990e-02   9.43599176e-03
    9.53504629e-03   1.07079204e-02   1.51045518e-02  -8.56305845e-03
   -9.38805193e-03   1.01343747e-02  -1.08493865e-01  -1.25749921e-02]
 [ -1.06923068e-02  -2.74653290e-03   1.13154799e-02  -7.15409406e-03
   -1.26501014e-02  -8.34719464e-03   1.96379758e-02   9.46701877e-03
    9.67892446e-03   1.07159270e-02   1.51872570e-02  -8.60686600e-03
   -9.45188850e-03   1.00413188e-02  -1.08683906e-01  -1.26263956e-02]
 [ -1.06485514e-02  -2.71540298e-03   1.12629738e-02  -7.09226821e-03
   -1.24636721e-02  -8.38785991e-03   1.95924025e-02   9.43778269e-03
    9.50518809e-03   1.06504727e-02   1.51049597e-02  -8.61039571e-03
   -9.36777331e-03   1.00777550e-02  -1.08021952e-01  -1.24416128e-02]
 [ -1.06971450e-02  -2.70215468e-03   1.12809269e-02  -7.16836611e-03
   -1.26304207e-02  -8.44806712e-03   1.96459871e-02   9.41897463e-03
    9.60764848e-03   1.07264239e-02   1.51114659e-02  -8.57031066e-03
   -9.32430942e-03   1.00702010e-02  -1.08495556e-01  -1.25973029e-02]
 [ -1.06226867e-02  -2.73760641e-03   1.12028811e-02  -7.12634344e-03
   -1.24528063e-02  -8.37858673e-03   1.94388051e-02   9.31201503e-03
    9.55056865e-03   1.06181586e-02   1.50172804e-02  -8.45681410e-03
   -9.27941687e-03   1.00250756e-02  -1.07344806e-01  -1.26104960e-02]
 [ -1.06174629e-02  -2.72943778e-03   1.12851029e-02  -7.11558247e-03
   -1.24971997e-02  -8.41813255e-03   1.96506400e-02   9.39835422e-03
    9.55227762e-03   1.06574995e-02   1.51258670e-02  -8.56170245e-03
   -9.34920646e-03   1.00900335e-02  -1.08203806e-01  -1.24250501e-02]
 [ -1.06554264e-02  -2.72790482e-03   1.12745939e-02  -7.16076046e-03
   -1.25714112e-02  -8.45688209e-03   1.96510851e-02   9.37855802e-03
    9.50253196e-03   1.06907077e-02   1.50599722e-02  -8.56343471e-03
   -9.32929106e-03   1.00392271e-02  -1.08315036e-01  -1.25199277e-02]
 [ -1.06271254e-02  -2.73550744e-03   1.12423608e-02  -7.13407435e-03
   -1.24726035e-02  -8.31254292e-03   1.95890926e-02   9.38349124e-03
    9.47289448e-03   1.06363771e-02   1.50822839e-02  -8.54000077e-03
   -9.37853754e-03   1.00644454e-02  -1.08003497e-01  -1.25411181e-02]
 [ -1.07638147e-02  -2.73338752e-03   1.12592429e-02  -7.15582259e-03
   -1.25109423e-02  -8.44784826e-03   1.96339469e-02   9.34993476e-03
    9.58358496e-03   1.06579494e-02   1.50501141e-02  -8.55607074e-03
   -9.29399114e-03   1.00811524e-02  -1.08443096e-01  -1.26228109e-02]
 [ -1.06695453e-02  -2.72617908e-03   1.12268627e-02  -7.07430393e-03
   -1.24378474e-02  -8.41392577e-03   1.95781719e-02   9.35325865e-03
    9.52617265e-03   1.06333094e-02   1.50307873e-02  -8.51183850e-03
   -9.27280542e-03   1.00729279e-02  -1.07749514e-01  -1.25055816e-02]
 [  1.67638378e-03   1.05782580e+00   1.86187425e-03  -1.62687182e-04
   -1.24121679e-03  -4.81669325e-04  -1.86913028e-01   6.60580909e-03
   -8.30830112e-02   3.29647213e-03  -2.32674807e-01  -1.11036818e-03
    8.60930607e-02   4.17281091e-01  -2.69819779e-04   7.09756336e-04]
 [  1.78691387e-01   3.09404433e-02  -4.87847477e-01   4.69801366e-01
    7.69807100e-01   2.88581699e-01  -2.78207570e-01  -3.47860008e-01
   -2.93437928e-01  -7.02878118e-01   7.61010528e-01   3.67203385e-01
    3.33711863e-01  -3.31607074e-01  -3.19439292e-01  -9.02140796e-01]
 [ -3.38226497e-01  -4.00402933e-01   5.79115786e-02   5.41472077e-01
   -2.85313517e-01  -8.06461796e-02   1.56426892e-01   1.41522884e-01
   -7.11201206e-02   3.96055803e-02   6.52184010e-01   1.28069818e-01
   -2.98807234e-01   5.79730093e-01   1.11556262e-01  -4.11247939e-01]
 [ -5.78016460e-01  -6.50932193e-01   2.70461142e-01  -2.39615753e-01
   -5.73223054e-01   8.98021311e-02   7.45587191e-03  -7.65194967e-02
    6.44546449e-01  -1.04009442e-01   1.13710546e+00   5.07103324e-01
   -3.26651007e-01   2.18776166e-01  -3.81850004e-01  -4.50944960e-01]
 [ -1.44776888e-02  -1.96104646e-01   1.63865253e-01  -1.94206476e-01
   -3.40361476e-01  -5.75689338e-02  -3.28471363e-01   6.12804480e-02
    3.49053562e-01  -8.80859345e-02   1.40999839e-01  -7.95915425e-02
   -1.74288169e-01   5.09460747e-01  -2.99527943e-01  -1.81209639e-01]
 [  3.47057544e-02  -4.48535442e-01   4.38409090e-01   2.99086869e-01
    3.61425906e-01  -2.47094691e-01  -3.39515626e-01  -1.90665603e-01
    2.61599213e-01  -8.07388201e-02   2.52431363e-01   1.40564725e-01
    2.34664846e-02   2.73987204e-01  -2.70042181e-01  -7.53595054e-01]
 [ -1.00678697e-01  -1.22060761e-01  -1.75307840e-02   4.98082340e-02
   -6.11741878e-02   5.53390682e-02  -2.64411151e-01  -5.04822955e-02
    1.32940426e-01  -5.40234800e-03   9.16343704e-02  -1.52562454e-01
    9.36875120e-02   4.00395691e-01  -7.59936348e-02  -5.58512032e-01]
 [ -8.51710558e-01  -3.76854271e-01   4.02626872e-01   5.68070486e-02
   -8.93864810e-01   1.97843648e-02  -4.87282902e-01  -2.72198077e-02
    8.62748921e-01  -4.37597148e-02   7.69427598e-01   5.09922683e-01
   -8.18749487e-01   9.71479937e-02  -2.58225322e-01  -8.25515091e-01]
 [  1.02684371e-01  -3.57504450e-02  -2.41229072e-01   2.01937705e-01
    4.17350709e-01   4.56385255e-01  -6.10246897e-01  -9.72463861e-02
    8.89305677e-03  -6.69154823e-02  -3.54366191e-02   1.14196502e-01
    1.32991314e-01  -6.76825047e-02   1.31262332e-01  -8.70572865e-01]
 [ -1.00541961e+00  -5.26272535e-01   4.72140014e-01  -4.57762601e-03
   -9.63753819e-01   1.81075670e-02   1.86776772e-01  -4.65328582e-02
    9.72408295e-01  -6.11051098e-02   1.00954521e+00   6.61461592e-01
   -1.00655019e+00   1.51261121e-01  -2.97376335e-01  -9.57359731e-01]
 [ -1.52695879e-01  -9.96721461e-02  -2.19963193e-01   8.77832919e-02
   -5.61789311e-02   2.43478082e-02  -5.18902302e-01  -1.49086028e-01
    1.66744858e-01  -3.43806118e-01   4.00129110e-01  -1.85594246e-01
    5.92210330e-02   1.68346748e-01  -1.35225415e-01  -8.90862107e-01]
 [  4.79007363e-01   1.97126232e-02  -2.13372201e-01   4.66131181e-01
   -1.78353295e-01   2.16277361e-01  -5.80485880e-01   2.03961208e-02
   -7.41279960e-01  -1.81283191e-01  -2.15669021e-01   1.60757586e-01
   -6.66618571e-02  -1.07211553e-01  -1.87939733e-01  -4.46211606e-01]
 [ -3.42838280e-02  -9.54659209e-02  -1.33501604e-01  -1.53753936e-01
    2.62794048e-01  -7.03618675e-02  -4.38635349e-01  -2.35832781e-01
    1.61912993e-01  -1.78619623e-01   5.66834584e-02  -1.72097474e-01
    3.58739495e-02   4.54246283e-01  -7.91173995e-01  -5.44347584e-01]
 [ -9.29648042e-01  -4.52647328e-01   4.36778754e-01   2.57750563e-02
   -9.28940058e-01   1.92284361e-02  -1.22442156e-01  -3.78581062e-02
    9.29714143e-01  -5.29504791e-02   9.13798988e-01   5.86682498e-01
   -9.36370075e-01   1.23217940e-01  -2.77778745e-01  -8.91771972e-01]
 [ -3.56521428e-01  -6.05988391e-02   7.92985782e-02  -1.14452288e-01
   -7.70368949e-02  -1.53795436e-01  -2.37996191e-01  -8.97944048e-02
    2.92749763e-01   6.62764981e-02   2.75691837e-01  -2.44333312e-01
   -2.47777119e-01  -3.11952978e-02  -1.53512836e-01  -8.43379259e-01]
 [ -2.25760564e-01  -3.72842908e-01   3.23282570e-01  -2.11321652e-01
   -4.07798916e-01   3.59746590e-02  -4.05293144e-02   2.03934520e-01
    1.67411521e-01   4.90512639e-01  -4.45094973e-01  -1.07138045e-01
   -5.80773711e-01   7.10176408e-01  -2.74865240e-01  -3.48508865e-01]]
Eve
[[  1.23200454e-01  -2.38296598e-01   3.16585779e-01  -1.60540640e-01
   -2.00651199e-01  -5.51875114e-01  -6.39862835e-01  -2.56626487e-01
    2.90601581e-01  -2.56375313e-01   1.69459313e-01  -1.78632244e-01
    3.02417487e-01   7.46741667e-02  -3.27306747e-01   2.25167781e-01]
 [  9.20702964e-02  -2.29261696e-01   2.64542758e-01  -1.18934341e-01
   -1.79259062e-01  -5.46626389e-01  -4.86897796e-01  -1.93330213e-01
    2.71580875e-01  -2.20309854e-01   1.43786922e-01  -1.77934706e-01
    8.13938975e-02  -4.60211672e-02  -2.25325793e-01   1.98232815e-01]
 [  7.44279251e-02  -2.26179913e-01   2.46150315e-01  -1.06777161e-01
   -1.70065776e-01  -5.34075499e-01  -4.13009465e-01  -1.66507557e-01
    2.62536108e-01  -2.09289908e-01   1.40895426e-01  -1.82320416e-01
    1.35601684e-03  -1.04049288e-01  -1.78640485e-01   1.89871386e-01]
 [  9.26780552e-02  -2.28699133e-01   2.66802639e-01  -1.21683203e-01
   -1.79737657e-01  -5.44342577e-01  -4.94520366e-01  -1.97551161e-01
    2.71695673e-01  -2.23054379e-01   1.45393848e-01  -1.77459463e-01
    9.63777453e-02  -3.99997979e-02  -2.30820760e-01   1.99281171e-01]
 [  8.45904499e-02  -2.26479501e-01   2.52481729e-01  -1.12102114e-01
   -1.71099246e-01  -5.36647201e-01  -4.34335262e-01  -1.67576522e-01
    2.63063192e-01  -2.09260732e-01   1.40739262e-01  -1.81406945e-01
    2.87824124e-02  -8.18655789e-02  -1.97783813e-01   1.91292271e-01]
 [  1.38480216e-01  -3.91885072e-01   1.96501181e-01  -1.62431031e-01
   -1.41630173e-01  -5.53241074e-01  -8.82327795e-01  -1.28542155e-01
    3.57345521e-01  -2.14005262e-01  -1.36820190e-02  -1.25080302e-01
   -2.41816431e-01   2.02491418e-01   1.75402629e+00   1.56380817e-01]
 [  9.88197327e-02  -2.33137369e-01   2.81739324e-01  -1.33871168e-01
   -1.84795529e-01  -5.45054078e-01  -5.14530063e-01  -2.00975746e-01
    2.75531083e-01  -2.30042815e-01   1.55077770e-01  -1.83342442e-01
    1.40856490e-01  -1.92285068e-02  -2.48157114e-01   2.06795990e-01]
 [  9.27428007e-02  -2.33795151e-01   2.78928071e-01  -1.29709169e-01
   -1.86702728e-01  -5.49887538e-01  -5.19171000e-01  -2.10123599e-01
    2.78971583e-01  -2.32819572e-01   1.52825758e-01  -1.80637732e-01
    1.32207125e-01  -2.41372660e-02  -2.46828094e-01   2.06525445e-01]
 [  1.28777385e-01  -2.44730294e-01   3.40845108e-01  -1.79949716e-01
   -2.15123162e-01  -5.61225116e-01  -7.15049505e-01  -3.01701158e-01
    3.04771125e-01  -2.78702348e-01   1.83141842e-01  -1.77266791e-01
    4.03630435e-01   1.25026226e-01  -3.75044793e-01   2.40244344e-01]
 [  1.02528267e-01  -2.33118445e-01   2.88294673e-01  -1.37569666e-01
   -1.90614864e-01  -5.52076340e-01  -5.60039163e-01  -2.27620915e-01
    2.81343192e-01  -2.40044147e-01   1.54778630e-01  -1.77365214e-01
    1.84971467e-01   1.02689452e-02  -2.73953050e-01   2.10652336e-01]
 [  6.42109513e-02  -2.25238875e-01   2.22153053e-01  -8.74831825e-02
   -1.59343913e-01  -5.36193609e-01  -3.28803867e-01  -1.23663224e-01
    2.54220009e-01  -1.91349193e-01   1.29096463e-01  -1.86712772e-01
   -1.19701274e-01  -1.66048914e-01  -1.27931669e-01   1.76973239e-01]
 [  8.99012759e-02  -2.31080562e-01   2.70072222e-01  -1.23082809e-01
   -1.82434425e-01  -5.47271192e-01  -4.95681703e-01  -1.98952332e-01
    2.74662107e-01  -2.24261373e-01   1.48042753e-01  -1.79794192e-01
    9.91111174e-02  -3.90416496e-02  -2.31080368e-01   2.01601252e-01]
 [  1.02300927e-01  -2.30351299e-01   2.82181889e-01  -1.34880245e-01
   -1.83652416e-01  -5.42544246e-01  -5.30918598e-01  -2.10327998e-01
    2.73862451e-01  -2.29608402e-01   1.53941542e-01  -1.78258911e-01
    1.62182987e-01  -7.80431740e-03  -2.56254554e-01   2.06555843e-01]
 [  8.05298835e-02  -2.29199976e-01   2.47194529e-01  -1.04348384e-01
   -1.72449365e-01  -5.48596561e-01  -4.25828397e-01  -1.64923385e-01
    2.67092139e-01  -2.09835097e-01   1.36773959e-01  -1.82189196e-01
   -6.58116350e-03  -9.27103013e-02  -1.84513003e-01   1.90159321e-01]
 [  8.98602679e-02  -2.31161371e-01   2.68855155e-01  -1.23505831e-01
   -1.79610685e-01  -5.43529212e-01  -4.80030388e-01  -1.89302668e-01
    2.71830469e-01  -2.22902387e-01   1.48864657e-01  -1.82888180e-01
    9.02680755e-02  -4.70277220e-02  -2.24869147e-01   2.00346470e-01]
 [  9.22242925e-02  -2.32165009e-01   2.73562431e-01  -1.26426816e-01
   -1.83142588e-01  -5.47946036e-01  -5.03810048e-01  -2.02100709e-01
    2.75471091e-01  -2.26864398e-01   1.50043249e-01  -1.80639833e-01
    1.10921852e-01  -3.46784107e-02  -2.36996353e-01   2.03174755e-01]
 [ -1.75135863e+00   2.31220379e-01  -2.95174062e-01   8.91705677e-02
    1.96237087e-01   2.34817266e-01   1.56033143e-01  -4.50447351e-01
   -2.52181649e-01   2.44891986e-01  -1.77798092e-01   2.63608724e-01
   -1.37705356e-01  -1.13217950e+00  -4.63423226e-03  -2.09529623e-01]
 [  2.73518294e-01   1.39510071e+00  -1.14260817e+00   1.05518484e+00
    1.08605039e+00   7.85167396e-01   3.51695091e-01   6.41764551e-02
   -9.49910343e-01   1.21312499e+00  -1.10218728e+00   1.16255724e+00
    4.86304015e-01  -1.11726165e+00   5.36984026e-01  -1.17066026e+00]
 [ -2.22270656e-02  -4.73435640e-01   9.76690233e-01  -7.62298644e-01
   -8.26984882e-01  -1.03858137e+00  -7.66974866e-01  -1.78848859e-02
    1.65390670e-01  -4.54755008e-01   6.17973745e-01  -5.33030272e-01
   -2.83310026e-01   1.65332571e-01   2.39982679e-01   6.57774687e-01]
 [  3.07077289e-01  -9.31266963e-01   1.01420450e+00  -8.32980514e-01
   -1.01406503e+00  -9.57129300e-01  -7.97399759e-01  -1.84703827e-01
    8.28563333e-01  -1.35238695e+00   1.04547751e+00  -6.69207335e-01
   -6.10418767e-02   5.11155784e-01  -8.80255103e-01   8.78349304e-01]
 [ -3.71195763e-01  -4.49334353e-01   1.71144828e-02  -2.78696477e-01
   -4.41156656e-01  -2.08063554e-02  -5.63662469e-01  -8.62392008e-01
    4.11033511e-01  -2.72667915e-01  -1.84757039e-01   3.57106477e-02
   -2.24999800e-01  -2.52239704e-01  -5.57040453e-01   8.10159668e-02]
 [ -5.66015959e-01   2.36212879e-01   2.03621387e-02   1.16179563e-01
    2.39306971e-01   1.08872496e-01  -4.19281512e-01  -2.26108149e-01
   -3.01614046e-01   3.28381836e-01  -3.87028277e-01   9.97857973e-02
   -9.85251218e-02  -6.34074748e-01   4.79504257e-01  -4.15610462e-01]
 [ -9.40733671e-01  -2.39784032e-01   2.08234131e-01   1.20941654e-01
   -2.86284447e-01  -2.12452129e-01  -1.06251097e+00  -7.51105547e-01
    3.68328989e-01  -2.33313978e-01   2.68061936e-01  -1.93943515e-01
   -2.05866426e-01  -7.13467717e-01   2.33112931e-01   2.01469138e-01]
 [  1.62216341e+00  -2.02711773e+00   1.57112849e+00  -2.43849087e+00
   -1.97184765e+00  -1.90333462e+00  -2.22937083e+00  -7.05489159e-01
    1.99788630e+00  -1.57783759e+00   2.11184025e+00  -1.85136294e+00
   -4.83229131e-01   1.69332254e+00  -1.21368623e+00   1.83691263e+00]
 [ -6.08072340e-01   7.29228556e-01  -7.15612173e-01   5.44502199e-01
    7.12358177e-01   4.41361845e-01  -2.13571593e-01  -4.41032857e-01
   -8.40306222e-01   6.95297003e-01  -7.77272701e-01   2.88579375e-01
    1.53561682e-02  -7.54651546e-01   4.65188533e-01  -6.85379088e-01]
 [  1.27952456e+00  -1.64442873e+00   1.78319001e+00  -2.02426147e+00
   -1.94950330e+00  -1.66006958e+00  -2.04860973e+00   1.60021782e-01
    1.65173531e+00  -2.37635064e+00   1.88782322e+00  -1.74911427e+00
   -4.35765445e-01   1.58145392e+00  -1.16811097e+00   2.04497457e+00]
 [ -1.25389725e-01   1.14000571e+00  -7.02357173e-01   8.53196204e-01
    8.48676741e-01   8.15590918e-01   1.18342616e-01  -3.27747136e-01
   -8.69461179e-01   8.22045624e-01  -7.36422420e-01   1.03556120e+00
    6.92652166e-01  -8.60059857e-01   6.37331367e-01  -9.69006777e-01]
 [ -1.10321271e+00   4.55049098e-01  -2.89996475e-01   2.47129366e-01
    5.47904909e-01   5.59734583e-01  -2.51982719e-01  -9.62195873e-01
   -3.60394388e-01   6.46507800e-01  -3.23527068e-01   2.39019275e-01
   -7.13286638e-01  -1.17215657e+00   5.93332589e-01  -1.69844389e-01]
 [ -1.10398746e+00   1.16797246e-01   3.45215127e-02  -1.59908786e-01
    3.40899490e-02   8.18666071e-02  -3.20633590e-01  -6.21116340e-01
   -1.28382176e-01  -1.99495897e-01  -6.54262528e-02  -2.98238564e-02
   -4.11488205e-01  -8.27805698e-01   2.95979768e-01  -3.20460610e-02]
 [  4.53540087e-01  -1.32918787e+00   1.27283967e+00  -1.57516360e+00
   -1.46842873e+00  -1.95049322e+00  -1.55138338e+00  -9.39262882e-02
    1.46347034e+00  -1.58017397e+00   1.47746277e+00  -1.38619566e+00
   -1.49683997e-01   1.02065790e+00  -8.38393569e-01   1.39052963e+00]
 [  2.84242518e-02   8.35995257e-01  -5.10415733e-01   4.91128087e-01
    8.34318399e-01   7.80501485e-01   3.56916696e-01   1.96819399e-02
   -6.46146476e-01   3.33331436e-01  -3.73752445e-01   6.14996135e-01
    4.97236311e-01  -2.94669539e-01   1.25790358e+00  -4.45060462e-01]
 [ -8.66000116e-01  -1.16063690e+00   9.98080432e-01  -1.10048711e+00
   -1.46679676e+00  -2.05326676e+00  -1.64064300e+00  -8.74130487e-01
    1.34016669e+00  -1.51571441e+00   1.37147343e+00  -1.53049672e+00
   -8.80325079e-01   6.53116286e-01  -6.07870162e-01   1.15815365e+00]
 [  9.78038549e-01  -1.44734049e+00   1.41673923e+00  -1.63120425e+00
   -1.70221877e+00  -2.28879929e+00  -1.81807172e+00   3.16520065e-01
    1.49384260e+00  -1.55449176e+00   1.49319518e+00  -1.72663200e+00
   -9.35358822e-01   1.29432535e+00  -6.73646212e-01   1.70128119e+00]
 [ -1.17074311e+00   9.24952567e-01  -1.25877249e+00   1.18341243e+00
    1.25831509e+00   1.06146395e+00   3.85303050e-01  -8.88927519e-01
   -1.23219180e+00   1.36289692e+00  -9.84869063e-01   1.05690110e+00
    1.05579007e+00  -1.31985056e+00   6.14304543e-01  -1.31462121e+00]
 [  1.63502827e-01  -3.58363211e-01   3.56941223e-02  -4.19142544e-01
   -6.86235547e-01  -4.04240280e-01  -8.18152547e-01  -1.86441585e-01
   -1.42032169e-02  -3.91017169e-01   3.51032555e-01   1.48142483e-02
   -1.06119847e+00   3.39149505e-01   5.28948642e-02   1.64025456e-01]
 [ -1.37483522e-01   2.66873110e-02  -4.69011605e-01  -1.91761911e-01
   -9.04183090e-03   4.63268049e-02  -7.88247168e-01   2.86296755e-02
    1.14462022e-02  -8.65080133e-02   1.44138590e-01  -3.65542173e-02
   -6.60099685e-01  -7.92869323e-05   7.83163190e-01   1.26495525e-01]
 [  1.05764121e-01  -4.40082461e-01   4.99386668e-01  -4.55124587e-01
   -1.02529570e-01   1.95412457e-01  -3.36025327e-01  -1.30542517e-01
    2.24219784e-01  -7.61714801e-02   5.24616599e-01  -4.28772092e-01
   -6.93213820e-01   1.66325659e-01  -1.39800273e-02   2.59751767e-01]
 [  6.81859925e-02  -2.80660868e-01   3.88166830e-02  -4.17300910e-01
   -9.21745598e-02   2.27786660e-01  -6.10859871e-01  -3.29590112e-01
   -1.17302142e-01   4.18986827e-02   2.72857666e-01  -1.29992500e-01
   -8.17800283e-01   8.82045552e-02   3.66324693e-01   2.41645962e-01]
 [  1.10270572e+00  -1.29385865e+00   1.53559458e+00  -1.49992752e+00
   -1.47655654e+00  -1.79351199e+00  -1.70769787e+00   1.31379906e-02
    1.80755830e+00  -1.58819759e+00   1.73913801e+00  -1.42463982e+00
   -1.39089739e+00   9.70213830e-01  -6.61285400e-01   1.59563518e+00]
 [  3.36134523e-01  -2.39512935e-01   1.33527011e-01  -5.55549324e-01
   -8.64670753e-01   1.35139912e-01  -5.31540513e-01  -1.04149021e-02
    1.73718989e-01  -4.96782362e-01   7.17546880e-01  -5.77593923e-01
   -1.26166153e+00   4.88674462e-01  -2.15082750e-01   4.86267984e-01]
 [  9.89806533e-01  -1.31137013e+00   1.02111220e+00  -1.15821624e+00
   -1.40642345e+00  -1.74733698e+00  -1.58815169e+00   1.53583800e-03
    1.49263930e+00  -1.23258901e+00   1.38907421e+00  -1.86710489e+00
   -1.05316114e+00   8.68869185e-01  -6.19134426e-01   1.31737411e+00]
 [ -2.82604620e-02  -1.65437296e-01  -2.24456713e-02  -3.61326486e-02
   -1.82634413e-01   1.28662944e-01  -7.69393504e-01  -2.71996230e-01
   -4.39371914e-02   1.10637344e-01   5.72336495e-01  -4.12126631e-01
   -1.19832325e+00  -9.52871609e-03   3.05456579e-01   3.24428469e-01]
 [  1.17203498e+00  -1.26371694e+00   1.63768172e+00  -1.83802009e+00
   -1.90256631e+00  -2.06377316e+00  -1.99801373e+00   3.92771989e-01
    1.62314582e+00  -1.99538457e+00   1.84595692e+00  -1.99795890e+00
   -1.29742110e+00   1.50132179e+00  -1.04309154e+00   1.72042036e+00]
 [  2.35308632e-01  -4.24468160e-01   4.48359340e-01  -3.20319682e-01
   -6.05411351e-01  -5.50429165e-01  -9.88389194e-01  -4.04213399e-01
    4.53229815e-01  -3.03475887e-01   5.19093573e-01  -4.99866217e-01
   -2.57916749e-01   1.55631334e-01   4.70600069e-01   4.43266749e-01]
 [  1.39757454e-01  -2.73405582e-01   2.91008323e-01  -3.76695693e-01
   -3.34061474e-01  -7.08379224e-02  -7.36676633e-01  -6.81429282e-02
    1.76551431e-01  -2.23318189e-02   4.96985376e-01  -5.33807576e-01
   -1.15504730e+00   1.94640368e-01  -1.42286062e-01   3.35520178e-01]
 [ -4.19811696e-01   9.47551429e-02   1.01671413e-01   2.32900411e-01
   -7.54117873e-03  -1.80665985e-01  -3.68103802e-01  -1.18882088e-02
   -1.39823914e-01   3.14037740e-01  -1.35130152e-01   7.51801357e-02
    1.32722676e-01  -2.44963765e-01   2.65281737e-01  -1.24039538e-01]
 [  2.13052988e-01  -1.20324147e+00   1.29077172e+00  -9.52277243e-01
   -1.08998942e+00  -2.30565715e+00  -1.29867113e+00  -5.09931326e-01
    1.09096825e+00  -9.74636436e-01   1.17559302e+00  -1.24807978e+00
    1.36332512e+00   5.40592015e-01  -1.86176926e-01   1.10455251e+00]
 [  3.21361959e-01  -4.38382387e-01   3.40787292e-01  -3.81850243e-01
   -2.56861776e-01  -3.74968648e-01  -1.30555058e+00  -7.29313493e-02
    4.38969433e-01  -4.50087816e-01   1.87538326e-01  -4.66523767e-01
   -6.75272048e-01   3.79900746e-02   2.35319912e-01   2.17181578e-01]]