Alice
[[-0.00973891 -0.00942439 -0.00643578 -0.00839908 -0.0084969   0.38529161
   0.00951913  0.00834927]
 [-0.00982456 -0.00929984 -0.00634608 -0.00845189 -0.00851998  0.38715294
   0.00955625  0.00833326]
 [-0.00979457 -0.00931809 -0.00645054 -0.00841193 -0.00852594  0.38317877
   0.00951041  0.0082276 ]
 [-0.0097062  -0.00927928 -0.00636273 -0.00829573 -0.00847771  0.38409549
   0.0094955   0.008225  ]
 [-0.0099895  -0.00952865 -0.00662601 -0.00856111 -0.00861329  0.38206556
   0.00958379  0.00851193]
 [-0.01001218 -0.009554   -0.00663675 -0.00863074 -0.00877322  0.38578925
   0.00969247  0.0085769 ]
 [-0.00993876 -0.00953688 -0.0065626  -0.00858103 -0.00867929  0.38195786
   0.00953645  0.00850082]
 [-0.0096608  -0.00925365 -0.00629114 -0.00821377 -0.00842638  0.38647056
   0.00925618  0.00817329]
 [-2.63968849 -2.92305684 -0.99030554 -3.12091041 -3.29390073  0.00475697
   3.20272636  3.06723261]
 [-3.08375812 -3.07109237  0.10808943 -2.99305415 -2.87403178  0.00583949
   3.09382105  2.99663734]
 [-3.28107381 -3.07770801  0.22447237 -3.34738231 -3.49303913  0.01123383
   3.09685159  2.89978051]
 [-3.36641574 -3.38526225  0.03638239 -3.00448871 -3.43753076 -0.99153352
   3.33384371  3.43186355]
 [-2.92033815 -3.15108228  0.08336683 -3.09726834 -2.74328375  0.01241405
   2.73243737  3.03143477]
 [-2.88629699 -2.62490845  0.09739902 -3.11095738 -2.84390831  0.00847937
   2.93965077  3.11424375]
 [-3.37630796 -3.28866029  0.09191466 -2.95748234 -3.08206058  0.00661797
   3.39373159  3.44769621]
 [-3.25868416 -3.27092719  0.08022682 -3.28282928 -3.0436511   0.00544063
   2.84698987  2.99736214]]
Bob
[[-0.01897265  0.01339084  0.00814823 -0.01261075 -0.01386811 -0.01241362
   0.01667379 -0.01908143]
 [ 0.05317219  0.01365925  0.01877018 -0.02130693 -0.02879188 -0.0127311
  -0.06172999 -0.00672776]
 [-0.01793339  0.01303275  0.00741433 -0.01230544 -0.01382242 -0.01242855
   0.01587135 -0.01847911]
 [-0.02559655  0.0089664   0.02660523  0.04551585  0.05717312 -0.01666112
  -0.03103563 -0.01548863]
 [ 0.06409461  0.00465275 -0.04188383  0.04564955 -0.0074061  -0.0154488
   0.04081984 -0.00845225]
 [-0.0131392  -0.07277285  0.0162456  -0.00881933 -0.0109872  -0.03221708
   0.0094347   0.05129465]
 [-0.01849591  0.01373251  0.00788916 -0.01191827 -0.01385108 -0.01178103
   0.01694905 -0.01853823]
 [-0.01396036  0.03533353  0.02163989  0.01965638 -0.01715496  0.06004818
   0.01193148  0.05292063]
 [ 0.1578818   2.66146636  2.65490365  0.04259436 -2.32634473 -2.61198235
   2.97181606  2.67600083]
 [ 0.08205262  2.85090137  2.87451386  0.30424052 -2.00890517 -2.7489171
   2.29055357  2.92177653]
 [-0.11294134  2.11298037  2.59755826 -0.26280931 -2.69752097 -2.38681531
   2.09836578  2.13491654]
 [ 0.42480695  2.55080557  2.12871528 -0.20947902 -2.57910275 -2.52468801
   2.65493393  2.32319236]
 [ 0.09529362  2.51869655  2.51543069 -0.14235212 -2.64686704 -2.31172061
   2.83506846  2.59367037]
 [-0.00607825  0.70283026  0.66598082  0.99869317 -0.70515823 -0.65878576
   0.67097616  0.66023898]
 [-0.3352116   2.97539377  2.72866368 -0.05826641 -2.8040185  -2.97957492
   2.43426824  2.8150034 ]
 [-0.14815649  2.12632346  2.13384056  0.18524963 -2.86137509 -2.25769329
   2.91660738  2.75589657]]
Eve
[[ 2.81666899  3.02585483  1.81893969  2.84115481 -3.03279161  3.53511357
  -3.33827424  3.4790597 ]
 [ 3.15943909  2.81778002  2.2268579   3.43298197 -3.3847065   3.313519
  -2.93482208  3.23393297]
 [ 3.50055981  2.9168179   2.30832958  3.19004941 -2.69717264  3.23491645
  -3.32240415  3.40089869]
 [ 3.21215582  3.74264812  1.89707887  3.69351649 -3.61502457  2.88577604
  -2.86586308  3.3458333 ]
 [ 3.72951841  3.36069369  2.15270782  3.60653329 -3.68012691  2.80552864
  -3.51283455  2.92255092]
 [ 3.87210584  3.32681441  0.06433528  3.611238   -3.68456817  2.84667325
  -3.26766086  3.52754641]
 [ 3.07456446  3.21658635  2.21268177  3.44509077 -2.84639645  3.59796166
  -3.30952978  3.45375872]
 [ 3.56478047  3.6227355   1.68041778  3.09661937 -3.57372212  2.80674744
  -3.46256328  3.09579682]
 [ 3.08976126  3.33448052  3.02545953  3.63949561 -2.9118464   3.46339369
  -3.29462647  2.89875293]
 [ 3.61365652  3.27320862  1.56554878  3.04552436 -3.38368487  3.26746321
  -3.37423754  3.1974225 ]
 [ 3.03772807  3.26618838  0.45559168  3.16819286 -3.29592252  2.8195653
  -3.25579906  3.43374968]
 [ 2.86589551  3.10714197 -1.094069    3.37751341 -3.69434094  3.11119461
  -3.2078979   3.24053597]
 [ 3.02394009  3.4523685   1.75475442  2.89552498 -3.20328331  1.82739496
  -3.32619667  3.22179604]
 [ 3.53047514  3.31252098  1.5882225   3.53088689 -3.21690083  3.28191376
  -3.6793673   3.53308129]
 [ 3.40809321  3.62599397 -1.1648165   3.52234411 -3.42989683  2.84455228
  -3.72043204  3.43748403]
 [ 3.74459314  3.48866653  1.62035453  3.362921   -3.33009124  2.71337247
  -2.95879388  3.25821877]]