Alice
[[ -8.82793590e-03  -1.17260888e-02   1.33477459e-02   2.34524570e-02
    1.28906695e-02   1.57119036e-02  -1.59455743e-02  -1.10053457e-02]
 [ -3.16113420e-02  -7.16639450e-03  -5.56498058e-02   7.33232275e-02
    1.85995875e-03  -3.07155922e-02   8.35255384e-02  -4.86096134e-03]
 [ -8.69882666e-03  -1.15468632e-02   1.41791487e-02   2.40867976e-02
    1.26398867e-02   1.57524236e-02  -1.65082347e-02  -1.08230561e-02]
 [ -5.26180007e-02  -1.95554569e-02  -2.43343264e-02  -1.16969332e-01
    1.21401986e-02   1.56977046e-02  -8.47606082e-03  -1.87777840e-02]
 [  9.17968675e-02  -3.13439639e-03   1.54894264e-02  -8.57804567e-02
    8.66890606e-03   1.55791203e-02   7.75659755e-02  -8.36845301e-03]
 [ -9.21058562e-03  -1.23550473e-02   1.40203573e-02   2.38414109e-02
    1.36793191e-02   1.68405268e-02  -1.71963125e-02  -1.18368855e-02]
 [ -8.96646921e-03  -1.15601765e-02   1.39885079e-02   2.36147791e-02
    1.27041135e-02   1.60745960e-02  -1.63632184e-02  -1.10813277e-02]
 [ -8.49695224e-03  -1.10531310e-02   1.37784425e-02   2.34817062e-02
    1.21902218e-02   1.51500627e-02  -1.59174222e-02  -1.03533883e-02]
 [ -2.03031087e+00  -2.50350666e+00  -8.00893232e-02  -2.15323314e-01
    2.72528148e+00   2.08140469e+00   2.38077092e+00  -2.49551511e+00]
 [ -5.23413122e-01  -5.10372341e-01   1.00427234e+00  -5.89999789e-03
    5.06968796e-01   5.02118051e-01   5.48833072e-01  -5.03602266e-01]
 [ -2.29340959e+00  -2.42963815e+00  -8.08451474e-02  -1.46882504e-01
    2.20523858e+00   2.70839620e+00   2.37906933e+00  -2.56392264e+00]
 [ -2.83152676e+00  -2.29607439e+00   1.14846669e-01   2.04751819e-01
    2.40164709e+00   2.85851765e+00   1.17300093e+00  -2.33561444e+00]
 [ -2.13708615e+00  -2.48052931e+00   3.14051509e-01   5.03162026e-01
    2.16750479e+00   1.94670784e+00   2.69347143e+00  -1.84802210e+00]
 [ -2.68580389e+00  -2.05406928e+00  -2.90960334e-02  -5.40157519e-02
    2.53631616e+00   1.96473002e+00   2.04214144e+00  -2.51831722e+00]
 [ -3.06504941e+00  -2.70375681e+00   4.77539152e-02  -3.07783065e-03
    2.69229817e+00   2.83276987e+00   2.68512917e+00  -2.66109133e+00]
 [ -2.38382506e+00  -1.91025591e+00  -1.56389818e-01  -2.65535146e-01
    1.84043837e+00   2.20104957e+00   2.08836222e+00  -2.35058951e+00]]
Bob
[[ -1.58891231e-02   4.39819455e-01  -1.59091819e-02   7.20352354e-03
   -1.99762285e-02   5.85424574e-03   1.60782844e-01   1.68853011e-02]
 [ -8.42395239e-03   4.43190068e-01  -8.41042493e-03   8.86267796e-03
   -7.58507848e-03   5.22076990e-03  -2.70352997e-02   7.13574700e-03]
 [ -8.25986732e-03   4.41920877e-01  -8.25745333e-03   8.67958739e-03
   -7.30546378e-03   4.77464078e-03  -2.60845423e-02   6.78923400e-03]
 [ -8.37589614e-03   4.41845387e-01  -8.42129346e-03   8.82657431e-03
   -7.41953496e-03   4.92936606e-03  -2.57753376e-02   6.86122850e-03]
 [ -8.18073377e-03   4.41479981e-01  -8.17766599e-03   8.68331548e-03
   -7.40515068e-03   4.98634018e-03  -2.66880710e-02   6.84763724e-03]
 [ -8.42834264e-03   4.42624986e-01  -8.39841273e-03   8.95143952e-03
   -7.55082257e-03   5.16773574e-03  -2.59669479e-02   7.06265168e-03]
 [ -8.29720590e-03   4.41606671e-01  -8.24750774e-03   8.78468249e-03
   -7.44307274e-03   4.85627912e-03  -2.59057488e-02   6.94355601e-03]
 [ -8.31577089e-03   4.42902684e-01  -8.17269273e-03   8.87846667e-03
   -7.40330201e-03   4.98975022e-03  -2.62591466e-02   6.97019277e-03]
 [ -2.80933595e+00  -4.75969575e-02  -2.87209845e+00   2.88797092e+00
   -2.86416101e+00  -8.30936804e-02   2.03031945e+00   2.60440469e+00]
 [ -1.62858999e+00   2.89269327e-03  -2.53237104e+00   1.35575163e+00
   -1.73971999e+00  -3.11127137e-02   2.40239739e+00   1.63749540e+00]
 [ -2.89494109e+00  -8.50093782e-01  -2.65869117e+00   3.10660958e+00
   -3.01804948e+00  -8.79698023e-02   1.44273150e+00   2.92584634e+00]
 [ -2.76410079e+00  -9.78223979e-03  -2.76631474e+00   2.79472136e+00
   -2.80506253e+00  -1.08840883e+00   2.47348428e+00   2.75984836e+00]
 [ -1.90722263e+00   1.97276160e-01  -1.69892275e+00   2.22351694e+00
   -1.40593481e+00   8.89968574e-02   2.52460289e+00   2.27982807e+00]
 [ -2.00275755e+00  -7.94183552e-01  -1.85477746e+00   1.95702899e+00
   -2.48859859e+00  -2.49211770e-03   2.46047258e+00   2.24001145e+00]
 [ -2.84361696e+00  -1.03790136e-02  -2.73323464e+00   2.88111424e+00
   -2.94551396e+00  -4.81140390e-02   3.25333858e+00   2.94871378e+00]
 [ -2.07268262e+00   6.49602592e-01  -1.99038815e+00   1.84727859e+00
   -1.57241488e+00  -1.26597136e-01   2.49718690e+00   1.60755599e+00]]
Eve
[[-3.32063222 -3.08219552 -1.79715919 -1.21240604  2.82630849 -3.45702696
  -2.51419306  3.31603575]
 [-3.10427284 -2.97070479 -2.85184789  1.97447443  2.91714144 -3.1008172
  -2.68343449  3.0877974 ]
 [-2.86520982 -3.41132617 -3.50582504  0.27836919  3.29832482 -3.32420301
  -2.59231186  3.2723906 ]
 [-3.40829515 -3.71619439 -2.02196002  3.21278238  2.97685337 -3.52225566
  -2.63427067  3.31937861]
 [-3.35451293 -3.13435173 -2.77613068  1.74274337  2.91264391 -3.15852213
  -3.12859058  3.13719416]
 [-2.99248528 -3.39065027 -2.80577397  1.19135427  3.38738036 -3.12998199
  -2.32242608  2.88843966]
 [-3.37095356 -2.95052433 -1.37928653 -0.38939002  3.13972449 -3.36191058
  -3.14333487  3.32140827]
 [-3.25063539 -2.95635748 -2.54710317  1.77106619  3.39856339 -3.66261911
  -2.32471204  3.23069644]
 [-2.9176383  -3.00205898 -2.26745057  2.07086992  3.19236159 -2.72824144
  -2.77634311  3.15346837]
 [-3.46854138 -3.45110226 -2.59042811  0.11914409  3.42747378 -3.38342524
  -2.99783444  3.46960282]
 [-3.23140645 -3.24509454 -2.01721096  1.88211262  2.90017867 -3.12590194
  -2.32187986  3.67262316]
 [-2.85832262 -3.39326096 -2.64508367  1.46257818  3.33504248 -3.61176443
  -2.33696127  2.71038938]
 [-3.09137702 -2.76007366 -2.44970274  1.70827925  2.82405519 -3.33913708
  -2.75750089  2.85106397]
 [-3.12170911 -3.18919539 -1.95711684  1.47651529  2.52361083 -3.33536386
  -2.31666136  3.16026258]
 [-3.48909807 -3.18693662 -3.2849803   2.11486173  3.4986093  -2.83857226
  -2.8578763   3.51604557]
 [-3.35708809 -3.52400875 -2.12259126  2.08628964  2.99022269 -2.65380311
  -2.90407944  3.31370139]]